FANN_FLO_2.1
num_layers=3
learning_rate=0.500000
connection_rate=1.000000
network_type=0
learning_momentum=0.000000
training_algorithm=1
train_error_function=1
train_stop_function=0
cascade_output_change_fraction=0.010000
quickprop_decay=-0.000100
quickprop_mu=1.750000
rprop_increase_factor=1.200000
rprop_decrease_factor=0.500000
rprop_delta_min=0.000000
rprop_delta_max=50.000000
rprop_delta_zero=0.100000
cascade_output_stagnation_epochs=12
cascade_candidate_change_fraction=0.010000
cascade_candidate_stagnation_epochs=12
cascade_max_out_epochs=150
cascade_min_out_epochs=50
cascade_max_cand_epochs=150
cascade_min_cand_epochs=50
cascade_num_candidate_groups=2
bit_fail_limit=3.49999994039535520000e-001
cascade_candidate_limit=1.00000000000000000000e+003
cascade_weight_multiplier=4.00000005960464480000e-001
cascade_activation_functions_count=10
cascade_activation_functions=3 5 7 8 10 11 14 15 16 17 
cascade_activation_steepnesses_count=4
cascade_activation_steepnesses=2.50000000000000000000e-001 5.00000000000000000000e-001 7.50000000000000000000e-001 1.00000000000000000000e+000 
layer_sizes=85 81 2 
scale_included=0
neurons (num_inputs, activation_function, activation_steepness)=(0, 0, 0.00000000000000000000e+000) (0, 0, 0.00000000000000000000e+000) (0, 0, 0.00000000000000000000e+000) (0, 0, 0.00000000000000000000e+000) (0, 0, 0.00000000000000000000e+000) (0, 0, 0.00000000000000000000e+000) (0, 0, 0.00000000000000000000e+000) (0, 0, 0.00000000000000000000e+000) (0, 0, 0.00000000000000000000e+000) (0, 0, 0.00000000000000000000e+000) (0, 0, 0.00000000000000000000e+000) (0, 0, 0.00000000000000000000e+000) (0, 0, 0.00000000000000000000e+000) (0, 0, 0.00000000000000000000e+000) (0, 0, 0.00000000000000000000e+000) (0, 0, 0.00000000000000000000e+000) (0, 0, 0.00000000000000000000e+000) (0, 0, 0.00000000000000000000e+000) (0, 0, 0.00000000000000000000e+000) (0, 0, 0.00000000000000000000e+000) (0, 0, 0.00000000000000000000e+000) (0, 0, 0.00000000000000000000e+000) (0, 0, 0.00000000000000000000e+000) (0, 0, 0.00000000000000000000e+000) (0, 0, 0.00000000000000000000e+000) (0, 0, 0.00000000000000000000e+000) (0, 0, 0.00000000000000000000e+000) (0, 0, 0.00000000000000000000e+000) (0, 0, 0.00000000000000000000e+000) (0, 0, 0.00000000000000000000e+000) (0, 0, 0.00000000000000000000e+000) (0, 0, 0.00000000000000000000e+000) (0, 0, 0.00000000000000000000e+000) (0, 0, 0.00000000000000000000e+000) (0, 0, 0.00000000000000000000e+000) (0, 0, 0.00000000000000000000e+000) (0, 0, 0.00000000000000000000e+000) (0, 0, 0.00000000000000000000e+000) (0, 0, 0.00000000000000000000e+000) (0, 0, 0.00000000000000000000e+000) (0, 0, 0.00000000000000000000e+000) (0, 0, 0.00000000000000000000e+000) (0, 0, 0.00000000000000000000e+000) (0, 0, 0.00000000000000000000e+000) (0, 0, 0.00000000000000000000e+000) (0, 0, 0.00000000000000000000e+000) (0, 0, 0.00000000000000000000e+000) (0, 0, 0.00000000000000000000e+000) (0, 0, 0.00000000000000000000e+000) (0, 0, 0.00000000000000000000e+000) (0, 0, 0.00000000000000000000e+000) (0, 0, 0.00000000000000000000e+000) (0, 0, 0.00000000000000000000e+000) (0, 0, 0.00000000000000000000e+000) (0, 0, 0.00000000000000000000e+000) (0, 0, 0.00000000000000000000e+000) (0, 0, 0.00000000000000000000e+000) (0, 0, 0.00000000000000000000e+000) (0, 0, 0.00000000000000000000e+000) (0, 0, 0.00000000000000000000e+000) (0, 0, 0.00000000000000000000e+000) (0, 0, 0.00000000000000000000e+000) (0, 0, 0.00000000000000000000e+000) (0, 0, 0.00000000000000000000e+000) (0, 0, 0.00000000000000000000e+000) (0, 0, 0.00000000000000000000e+000) (0, 0, 0.00000000000000000000e+000) (0, 0, 0.00000000000000000000e+000) (0, 0, 0.00000000000000000000e+000) (0, 0, 0.00000000000000000000e+000) (0, 0, 0.00000000000000000000e+000) (0, 0, 0.00000000000000000000e+000) (0, 0, 0.00000000000000000000e+000) (0, 0, 0.00000000000000000000e+000) (0, 0, 0.00000000000000000000e+000) (0, 0, 0.00000000000000000000e+000) (0, 0, 0.00000000000000000000e+000) (0, 0, 0.00000000000000000000e+000) (0, 0, 0.00000000000000000000e+000) (0, 0, 0.00000000000000000000e+000) (0, 0, 0.00000000000000000000e+000) (0, 0, 0.00000000000000000000e+000) (0, 0, 0.00000000000000000000e+000) (0, 0, 0.00000000000000000000e+000) (0, 0, 0.00000000000000000000e+000) (85, 6, 1.00000000000000000000e+000) (85, 6, 1.00000000000000000000e+000) (85, 6, 1.00000000000000000000e+000) (85, 6, 1.00000000000000000000e+000) (85, 6, 1.00000000000000000000e+000) (85, 6, 1.00000000000000000000e+000) (85, 6, 1.00000000000000000000e+000) (85, 6, 1.00000000000000000000e+000) (85, 6, 1.00000000000000000000e+000) (85, 6, 1.00000000000000000000e+000) (85, 6, 1.00000000000000000000e+000) (85, 6, 1.00000000000000000000e+000) (85, 6, 1.00000000000000000000e+000) (85, 6, 1.00000000000000000000e+000) (85, 6, 1.00000000000000000000e+000) (85, 6, 1.00000000000000000000e+000) (85, 6, 1.00000000000000000000e+000) (85, 6, 1.00000000000000000000e+000) (85, 6, 1.00000000000000000000e+000) (85, 6, 1.00000000000000000000e+000) (85, 6, 1.00000000000000000000e+000) (85, 6, 1.00000000000000000000e+000) (85, 6, 1.00000000000000000000e+000) (85, 6, 1.00000000000000000000e+000) (85, 6, 1.00000000000000000000e+000) (85, 6, 1.00000000000000000000e+000) (85, 6, 1.00000000000000000000e+000) (85, 6, 1.00000000000000000000e+000) (85, 6, 1.00000000000000000000e+000) (85, 6, 1.00000000000000000000e+000) (85, 6, 1.00000000000000000000e+000) (85, 6, 1.00000000000000000000e+000) (85, 6, 1.00000000000000000000e+000) (85, 6, 1.00000000000000000000e+000) (85, 6, 1.00000000000000000000e+000) (85, 6, 1.00000000000000000000e+000) (85, 6, 1.00000000000000000000e+000) (85, 6, 1.00000000000000000000e+000) (85, 6, 1.00000000000000000000e+000) (85, 6, 1.00000000000000000000e+000) (85, 6, 1.00000000000000000000e+000) (85, 6, 1.00000000000000000000e+000) (85, 6, 1.00000000000000000000e+000) (85, 6, 1.00000000000000000000e+000) (85, 6, 1.00000000000000000000e+000) (85, 6, 1.00000000000000000000e+000) (85, 6, 1.00000000000000000000e+000) (85, 6, 1.00000000000000000000e+000) (85, 6, 1.00000000000000000000e+000) (85, 6, 1.00000000000000000000e+000) (85, 6, 1.00000000000000000000e+000) (85, 6, 1.00000000000000000000e+000) (85, 6, 1.00000000000000000000e+000) (85, 6, 1.00000000000000000000e+000) (85, 6, 1.00000000000000000000e+000) (85, 6, 1.00000000000000000000e+000) (85, 6, 1.00000000000000000000e+000) (85, 6, 1.00000000000000000000e+000) (85, 6, 1.00000000000000000000e+000) (85, 6, 1.00000000000000000000e+000) (85, 6, 1.00000000000000000000e+000) (85, 6, 1.00000000000000000000e+000) (85, 6, 1.00000000000000000000e+000) (85, 6, 1.00000000000000000000e+000) (85, 6, 1.00000000000000000000e+000) (85, 6, 1.00000000000000000000e+000) (85, 6, 1.00000000000000000000e+000) (85, 6, 1.00000000000000000000e+000) (85, 6, 1.00000000000000000000e+000) (85, 6, 1.00000000000000000000e+000) (85, 6, 1.00000000000000000000e+000) (85, 6, 1.00000000000000000000e+000) (85, 6, 1.00000000000000000000e+000) (85, 6, 1.00000000000000000000e+000) (85, 6, 1.00000000000000000000e+000) (85, 6, 1.00000000000000000000e+000) (85, 6, 1.00000000000000000000e+000) (85, 6, 1.00000000000000000000e+000) (85, 6, 1.00000000000000000000e+000) (85, 6, 1.00000000000000000000e+000) (0, 6, 1.00000000000000000000e+000) (81, 6, 1.00000000000000000000e+000) (0, 6, 1.00000000000000000000e+000) 
connections (connected_to_neuron, weight)=(0, 2.51388192176818850000e-001) (1, -1.88010066747665410000e-001) (2, 1.27107230946421620000e-002) (3, 1.18502020835876460000e-001) (4, 2.60370932519435880000e-002) (5, -1.28009229898452760000e-001) (6, -5.23021034896373750000e-002) (7, -6.42922939732670780000e-003) (8, -7.01520591974258420000e-002) (9, -1.35567709803581240000e-001) (10, -3.26585359871387480000e-002) (11, 6.25077262520790100000e-002) (12, 1.82030320167541500000e-001) (13, -1.34710952639579770000e-001) (14, 9.29019320756196980000e-003) (15, -5.07969968020915990000e-002) (16, -7.35222846269607540000e-002) (17, -8.15101116895675660000e-002) (18, 3.66459712386131290000e-002) (19, -6.88824132084846500000e-002) (20, 7.32764452695846560000e-002) (21, 7.46884793043136600000e-002) (22, -1.18559096008539200000e-002) (23, 1.15672708489000800000e-004) (24, -1.11243225634098050000e-001) (25, -1.69779404997825620000e-001) (26, -4.89599481225013730000e-002) (27, -1.64927467703819270000e-001) (28, 1.71431340277194980000e-002) (29, 4.16198931634426120000e-002) (30, 2.18599051237106320000e-001) (31, 1.04627385735511780000e-001) (32, -1.47259270306676630000e-004) (33, -1.32284983992576600000e-001) (34, 4.48293285444378850000e-003) (35, -9.20326681807637210000e-004) (36, 4.51186522841453550000e-002) (37, -7.13455751538276670000e-002) (38, 8.20360109210014340000e-002) (39, 5.78969791531562810000e-002) (40, 2.15784218162298200000e-002) (41, 1.27056543715298180000e-003) (42, -1.25385010614991190000e-002) (43, -6.47889748215675350000e-002) (44, -5.76096447184681890000e-003) (45, -5.85308931767940520000e-002) (46, 1.23924024403095250000e-001) (47, -8.61173216253519060000e-003) (48, 1.38288447633385660000e-002) (49, -3.35042215883731840000e-002) (50, 9.77808535099029540000e-002) (51, 5.07603697478771210000e-002) (52, -1.54640108346939090000e-001) (53, -2.05598995089530940000e-001) (54, 1.06598995625972750000e-003) (55, -1.75905264914035800000e-002) (56, 1.31749778985977170000e-001) (57, 2.26422008126974110000e-002) (58, 6.00559040904045100000e-002) (59, 7.42030888795852660000e-003) (60, 4.26470674574375150000e-002) (61, 2.94467918574810030000e-002) (62, -3.82388085126876830000e-002) (63, -8.62348377704620360000e-002) (64, -3.02083473652601240000e-002) (65, -8.58128964900970460000e-002) (66, 4.42465059459209440000e-002) (67, -3.90510447323322300000e-002) (68, 7.88056775927543640000e-002) (69, 3.06839086115360260000e-002) (70, -1.53379356488585470000e-002) (71, -4.84733916819095610000e-002) (72, 3.62832993268966670000e-002) (73, 1.11097320914268490000e-002) (74, 7.60312229394912720000e-002) (75, -1.75217073410749440000e-003) (76, 6.03683143854141240000e-002) (77, 3.63618433475494380000e-002) (78, -3.31296622753143310000e-002) (79, -8.96608754992485050000e-002) (80, -4.56260144710540770000e-002) (81, -5.12867569923400880000e-002) (82, 7.35992267727851870000e-002) (83, 4.99504283070564270000e-002) (84, 1.82241629809141160000e-002) (0, 1.92368775606155400000e-001) (1, 1.06891104951500890000e-002) (2, -8.64415466785430910000e-002) (3, -6.71903342008590700000e-002) (4, 1.13367594778537750000e-001) (5, 2.45129037648439410000e-002) (6, 4.99039031565189360000e-002) (7, -8.68968740105628970000e-002) (8, 1.56627669930458070000e-001) (9, 3.59329096972942350000e-002) (10, -5.76034523546695710000e-002) (11, -4.88084889948368070000e-002) (12, 1.63995355367660520000e-001) (13, 4.12033051252365110000e-002) (14, 9.68497432768344880000e-003) (15, 2.19998043030500410000e-002) (16, 3.09925153851509090000e-002) (17, 9.83952544629573820000e-003) (18, 9.61383283138275150000e-002) (19, -2.64539979398250580000e-002) (20, -2.01199755072593690000e-001) (21, -2.98322677612304690000e-001) (22, 9.31946113705635070000e-002) (23, -4.38014157116413120000e-002) (24, 6.58649727702140810000e-002) (25, 2.15120930224657060000e-002) (26, -2.69977916032075880000e-002) (27, 6.79068714380264280000e-002) (28, 9.26154199987649920000e-003) (29, -3.10049187391996380000e-002) (30, -3.26647907495498660000e-002) (31, -3.42781357467174530000e-002) (32, 9.58714634180068970000e-002) (33, -1.33473694324493410000e-001) (34, 1.70012697577476500000e-001) (35, -3.63221243023872380000e-002) (36, 9.63144227862358090000e-002) (37, -1.25689744949340820000e-001) (38, 4.10551056265830990000e-002) (39, 1.99377834796905520000e-002) (40, 5.59069551527500150000e-002) (41, -7.29337986558675770000e-003) (42, -1.66104137897491460000e-001) (43, -2.60489046573638920000e-001) (44, 3.76197881996631620000e-002) (45, 3.94681170582771300000e-002) (46, 1.90924316644668580000e-001) (47, 1.11662801355123520000e-002) (48, 1.30850970745086670000e-001) (49, -3.37087698280811310000e-002) (50, 2.28110045194625850000e-001) (51, -1.29525884985923770000e-002) (52, 8.71934220194816590000e-002) (53, 9.22955106943845750000e-003) (54, -1.05972826480865480000e-001) (55, -2.16166481375694270000e-001) (56, 2.22366407513618470000e-001) (57, 1.86282172799110410000e-001) (58, -1.92541807889938350000e-001) (59, -1.81722298264503480000e-001) (60, -9.98012255877256390000e-003) (61, -5.92690855264663700000e-002) (62, 1.26543849706649780000e-001) (63, 4.99309822916984560000e-002) (64, 5.62313757836818700000e-002) (65, -1.59387849271297450000e-002) (66, -2.01291412115097050000e-001) (67, -2.19045773148536680000e-001) (68, 2.53017157316207890000e-001) (69, 1.93391665816307070000e-001) (70, -8.02119001746177670000e-002) (71, -1.02960899472236630000e-001) (72, 1.41564488410949710000e-001) (73, 6.89175501465797420000e-002) (74, -2.78425924479961400000e-002) (75, -8.42850208282470700000e-002) (76, -5.33388480544090270000e-002) (77, -7.23739936947822570000e-002) (78, -7.42894932627677920000e-002) (79, -9.09485220909118650000e-002) (80, 2.24578917026519780000e-001) (81, 1.40664398670196530000e-001) (82, -6.19871467351913450000e-002) (83, -9.51397418975830080000e-002) (84, 2.14775502681732180000e-002) (0, 6.56216815114021300000e-002) (1, 2.70101428031921390000e-001) (2, 1.20889618992805480000e-001) (3, -9.95284616947174070000e-002) (4, 8.35066512227058410000e-002) (5, -1.04296468198299410000e-002) (6, 1.13492958247661590000e-001) (7, -1.52393877506256100000e-001) (8, -1.09545486047863960000e-002) (9, -1.34438751265406610000e-002) (10, 1.31132662296295170000e-001) (11, -7.27936178445816040000e-002) (12, -1.94534473121166230000e-002) (13, 3.50554257631301880000e-001) (14, -5.16729131340980530000e-002) (15, -1.29337593913078310000e-001) (16, 9.86120477318763730000e-002) (17, -9.35313627123832700000e-002) (18, 2.59700268507003780000e-002) (19, -4.03975956141948700000e-002) (20, 2.65111606568098070000e-002) (21, -1.27098234370350840000e-002) (22, 1.87633000314235690000e-002) (23, -3.34562659263610840000e-002) (24, 1.01883672177791600000e-001) (25, -1.19489163160324100000e-001) (26, -1.34385332465171810000e-001) (27, -2.01392605900764470000e-001) (28, 1.03804424405097960000e-001) (29, -2.94542293995618820000e-002) (30, -2.22898557782173160000e-001) (31, -3.16723048686981200000e-001) (32, -4.84845116734504700000e-002) (33, -3.84325012564659120000e-002) (34, 6.56355023384094240000e-002) (35, -7.50420894473791120000e-003) (36, -5.88064603507518770000e-002) (37, -1.55535237863659860000e-002) (38, -1.98678210377693180000e-001) (39, -2.55471050739288330000e-001) (40, 1.11579857766628270000e-001) (41, -3.68334501981735230000e-002) (42, -6.20325207710266110000e-002) (43, -6.32108971476554870000e-002) (44, 3.19659411907196040000e-001) (45, 2.63914942741394040000e-001) (46, 5.17180226743221280000e-002) (47, 1.92461520433425900000e-001) (48, -5.65319694578647610000e-002) (49, -6.15638792514801030000e-002) (50, 6.95716813206672670000e-002) (51, 1.15636862814426420000e-001) (52, 3.83323609828948970000e-001) (53, 3.04221898317337040000e-001) (54, -8.61291661858558650000e-002) (55, -3.52455675601959230000e-002) (56, 5.32502122223377230000e-003) (57, -7.13260099291801450000e-002) (58, -8.23430716991424560000e-002) (59, -1.08960106968879700000e-001) (60, 8.76086950302124020000e-002) (61, -7.41403698921203610000e-002) (62, 6.45838603377342220000e-002) (63, -3.56135517358779910000e-002) (64, 8.25043544173240660000e-002) (65, -1.50842098519206050000e-002) (66, -9.76351872086524960000e-002) (67, -1.26548543572425840000e-001) (68, 4.50614541769027710000e-002) (69, -5.69548532366752620000e-002) (70, 9.26206335425376890000e-002) (71, -1.17663796991109850000e-002) (72, 3.28190028667449950000e-002) (73, 1.08139645308256150000e-002) (74, -1.28161057829856870000e-001) (75, -1.30742043256759640000e-001) (76, 1.84645298868417740000e-002) (77, 4.37706559896469120000e-002) (78, -5.64674511551856990000e-002) (79, -6.17166385054588320000e-002) (80, -2.56703943014144900000e-002) (81, -2.33421698212623600000e-002) (82, 2.35326420515775680000e-002) (83, -2.50373426824808120000e-002) (84, 1.08998499810695650000e-001) (0, -1.44910499453544620000e-001) (1, 5.16666889190673830000e-001) (2, -8.58572870492935180000e-002) (3, -3.90673279762268070000e-002) (4, -7.45375081896781920000e-002) (5, -1.02878339588642120000e-001) (6, -6.84305727481842040000e-002) (7, -1.25112561509013180000e-002) (8, -6.47536441683769230000e-002) (9, -1.25917509198188780000e-001) (10, -6.81676417589187620000e-002) (11, -1.32710542529821400000e-002) (12, -1.44202381372451780000e-001) (13, 5.36017656326293950000e-001) (14, 1.36554643511772160000e-001) (15, -6.84470757842063900000e-002) (16, 8.65907967090606690000e-002) (17, -8.91687795519828800000e-002) (18, 2.10135787725448610000e-001) (19, -9.16276872158050540000e-002) (20, -3.48067283630371090000e-002) (21, -7.06910789012908940000e-002) (22, 1.97644159197807310000e-001) (23, -1.06693141162395480000e-001) (24, 8.02217572927474980000e-002) (25, -1.19617387652397160000e-001) (26, 1.19259819388389590000e-001) (27, -2.82389167696237560000e-002) (28, -1.15098327398300170000e-001) (29, -6.51848316192626950000e-002) (30, 2.04063337296247480000e-002) (31, -1.20281033217906950000e-001) (32, 2.43226051330566410000e-001) (33, 8.42416472733020780000e-003) (34, 1.02649852633476260000e-001) (35, -1.79439157363958660000e-004) (36, 2.73141384124755860000e-001) (37, 1.45918866619467740000e-002) (38, 3.04703973233699800000e-002) (39, -1.12590469419956210000e-001) (40, -1.23395331203937530000e-001) (41, -5.87834194302558900000e-002) (42, 8.30398648977279660000e-002) (43, -5.30514419078826900000e-002) (44, 2.26583316922187810000e-001) (45, -4.93952110409736630000e-002) (46, -4.22037951648235320000e-002) (47, -2.59768605232238770000e-001) (48, 2.17684417963027950000e-001) (49, 1.65284767746925350000e-001) (50, -2.03723069280385970000e-002) (51, -2.14172229170799260000e-001) (52, 2.12896779179573060000e-001) (53, -3.82913835346698760000e-002) (54, 8.20723101496696470000e-002) (55, -6.87652900815010070000e-002) (56, -1.03069111704826350000e-001) (57, -1.53947681188583370000e-001) (58, 5.57835958898067470000e-002) (59, -6.98614045977592470000e-002) (60, 1.25567033886909480000e-001) (61, -5.94801157712936400000e-002) (62, -4.92740310728549960000e-002) (63, -1.32872506976127620000e-001) (64, 1.99578106403350830000e-001) (65, -2.08160988986492160000e-002) (66, 5.23832812905311580000e-002) (67, -9.17441397905349730000e-002) (68, -5.22081851959228520000e-002) (69, -1.65008231997489930000e-001) (70, 6.93073198199272160000e-002) (71, -1.04834824800491330000e-001) (72, 1.77969232201576230000e-001) (73, -4.78933751583099370000e-002) (74, -2.38026566803455350000e-002) (75, -2.04783022403717040000e-001) (76, 2.66463190317153930000e-001) (77, 2.14355215430259700000e-001) (78, 2.33096182346343990000e-002) (79, -1.85613140463829040000e-001) (80, 1.68243393301963810000e-001) (81, -6.13984139636158940000e-003) (82, 7.51024708151817320000e-002) (83, -7.34765380620956420000e-002) (84, 6.26614242792129520000e-002) (0, 8.94956961274147030000e-002) (1, -3.64492200314998630000e-002) (2, -5.10682836174964900000e-002) (3, 2.83425718545913700000e-001) (4, -3.05255614221096040000e-002) (5, 4.61402721703052520000e-002) (6, 1.80153921246528630000e-002) (7, -2.20247536897659300000e-001) (8, -4.01136502623558040000e-002) (9, 5.28028681874275210000e-002) (10, -1.23930253088474270000e-001) (11, 2.55244851112365720000e-001) (12, 8.03825333714485170000e-002) (13, -8.75353887677192690000e-002) (14, 1.73743277788162230000e-001) (15, -1.68637067079544070000e-001) (16, 3.81011106073856350000e-002) (17, -1.89133226871490480000e-001) (18, 1.46621912717819210000e-001) (19, 1.37131148949265480000e-002) (20, 2.77365464717149730000e-002) (21, 2.06265989691019060000e-002) (22, 9.03318077325820920000e-002) (23, 4.92963455617427830000e-002) (24, -1.38894822448492050000e-002) (25, -2.89574056863784790000e-001) (26, 1.31885781884193420000e-001) (27, -2.12265014648437500000e-001) (28, 1.23061433434486390000e-001) (29, -5.96065260469913480000e-002) (30, 1.70926392078399660000e-001) (31, -1.06536023318767550000e-001) (32, -9.23001207411289220000e-003) (33, -1.93518906831741330000e-001) (34, 2.06957966089248660000e-001) (35, 6.58658966422080990000e-002) (36, -1.87660884112119670000e-002) (37, -2.23444268107414250000e-001) (38, 7.22584649920463560000e-002) (39, -1.55615821480751040000e-001) (40, 1.77242606878280640000e-001) (41, -9.35926884412765500000e-002) (42, 1.81228637695312500000e-001) (43, -8.06740000844001770000e-002) (44, -2.66439318656921390000e-002) (45, -1.14995576441287990000e-001) (46, 1.65072247385978700000e-001) (47, -7.96568468213081360000e-002) (48, -7.79432654380798340000e-002) (49, -1.95487365126609800000e-001) (50, 1.34575739502906800000e-001) (51, -3.05204186588525770000e-002) (52, -1.61757804453372960000e-002) (53, -8.59584733843803410000e-002) (54, 1.18665188550949100000e-001) (55, -1.26393213868141170000e-001) (56, 1.26576408743858340000e-001) (57, -1.37623488903045650000e-001) (58, 2.93944388628005980000e-001) (59, 1.59714311361312870000e-001) (60, 1.04638889431953430000e-001) (61, -3.84928681887686250000e-003) (62, 1.93253830075263980000e-001) (63, -9.59411263465881350000e-004) (64, 8.87631177902221680000e-002) (65, -4.57630790770053860000e-002) (66, 2.86307513713836670000e-001) (67, 7.11828842759132390000e-002) (68, 5.98922446370124820000e-002) (69, -1.60241425037384030000e-001) (70, 2.34646901488304140000e-001) (71, -6.96080178022384640000e-003) (72, -4.30314056575298310000e-002) (73, -1.61244019865989690000e-001) (74, 2.89073120802640910000e-002) (75, -1.99222192168235780000e-001) (76, -6.08658120036125180000e-002) (77, -1.86239466071128850000e-001) (78, 4.72072996199131010000e-002) (79, -2.28424370288848880000e-001) (80, -6.42886459827423100000e-002) (81, -2.11163729429245000000e-001) (82, 1.00403249263763430000e-001) (83, -5.70627823472023010000e-002) (84, 1.95794254541397090000e-001) (0, 6.70860260725021360000e-002) (1, 2.09398642182350160000e-002) (2, 1.32505625486373900000e-001) (3, 1.74476616084575650000e-002) (4, -1.71743787359446290000e-003) (5, -6.96239992976188660000e-002) (6, 9.41872410476207730000e-003) (7, 1.38325104489922520000e-002) (8, -7.78317674994468690000e-002) (9, 4.19707968831062320000e-004) (10, 9.13258418440818790000e-002) (11, -6.44867047667503360000e-002) (12, 8.74250829219818120000e-002) (13, 1.43256559967994690000e-001) (14, -9.12453010678291320000e-002) (15, -1.56837567687034610000e-001) (16, 2.10562571883201600000e-002) (17, -1.21162280440330510000e-001) (18, 2.51379739493131640000e-002) (19, -4.11031320691108700000e-002) (20, 9.31827798485755920000e-002) (21, 1.50308050215244290000e-002) (22, -1.11824087798595430000e-001) (23, -4.81119379401206970000e-002) (24, 1.30707219243049620000e-001) (25, -9.99188348650932310000e-002) (26, -8.25983807444572450000e-002) (27, -1.16919219493865970000e-001) (28, 5.38502074778079990000e-002) (29, -1.41977429389953610000e-001) (30, 1.16003148257732390000e-001) (31, -4.55966480076313020000e-002) (32, -9.29040983319282530000e-002) (33, -4.09429892897605900000e-002) (34, -2.10077166557312010000e-002) (35, -2.22550369799137120000e-002) (36, -1.90571136772632600000e-002) (37, 3.78321669995784760000e-002) (38, 1.24521233141422270000e-001) (39, -1.77500359714031220000e-002) (40, 4.90606017410755160000e-002) (41, -8.51923972368240360000e-002) (42, 9.21268463134765630000e-002) (43, -7.27576855570077900000e-003) (44, -5.46279875561594960000e-003) (45, -6.60086795687675480000e-002) (46, 5.79758584499359130000e-002) (47, 5.96366412937641140000e-002) (48, -6.72549083828926090000e-002) (49, -6.87441453337669370000e-002) (50, 3.70619334280490880000e-002) (51, 8.60664397478103640000e-002) (52, -1.57067198306322100000e-002) (53, -7.51763954758644100000e-002) (54, 3.59406806528568270000e-002) (55, -2.91188247501850130000e-002) (56, 8.15494507551193240000e-002) (57, -3.42305600643157960000e-002) (58, 3.77921499311923980000e-002) (59, 1.66420210152864460000e-002) (60, 1.01795539259910580000e-001) (61, 2.34021730720996860000e-002) (62, 8.90443399548530580000e-002) (63, 1.66258215904235840000e-002) (64, 3.42925228178501130000e-002) (65, -4.55773472785949710000e-002) (66, -6.12122304737567900000e-002) (67, -1.06955409049987790000e-001) (68, 1.24103136360645290000e-001) (69, -1.29695460200309750000e-002) (70, 4.62587475776672360000e-002) (71, -4.14235778152942660000e-002) (72, 5.88868856430053710000e-002) (73, 1.86341174412518740000e-004) (74, -2.01009716838598250000e-002) (75, -3.04558295756578450000e-002) (76, -9.68516916036605830000e-002) (77, -1.06410317122936250000e-001) (78, 6.60162046551704410000e-003) (79, -4.54627163708209990000e-002) (80, 3.89199331402778630000e-002) (81, 7.98559933900833130000e-003) (82, -1.78010184317827220000e-002) (83, -8.11397507786750790000e-002) (84, 9.32327806949615480000e-002) (0, -1.00104764103889470000e-001) (1, 1.54022380709648130000e-001) (2, 8.70031788945198060000e-002) (3, 1.62413224577903750000e-001) (4, 5.71642145514488220000e-002) (5, 2.93787010014057160000e-002) (6, 5.72949238121509550000e-002) (7, 2.59107667952775960000e-002) (8, 4.15857993066310880000e-002) (9, 7.40686580538749690000e-002) (10, 1.17968201637268070000e-001) (11, 7.86948204040527340000e-002) (12, -1.36172190308570860000e-001) (13, 1.22426107525825500000e-001) (14, -1.64877139031887050000e-002) (15, -5.92220388352870940000e-002) (16, -1.36228814721107480000e-001) (17, -1.59261170774698260000e-002) (18, -1.46167144179344180000e-001) (19, -4.69862967729568480000e-002) (20, 1.12889342010021210000e-001) (21, 2.34372466802597050000e-001) (22, -9.93199199438095090000e-002) (23, -1.77369248121976850000e-002) (24, -1.47376686334609990000e-001) (25, -4.95117418467998500000e-002) (26, -4.39429469406604770000e-002) (27, -4.56681139767169950000e-002) (28, -1.05389274656772610000e-001) (29, 6.72729872167110440000e-003) (30, -3.28261554241180420000e-001) (31, -2.17671260237693790000e-001) (32, 7.38980323076248170000e-002) (33, 7.67776444554328920000e-002) (34, -6.35204091668128970000e-002) (35, -7.44200944900512700000e-002) (36, 1.35430723428726200000e-001) (37, 1.05438664555549620000e-001) (38, -3.76295059919357300000e-001) (39, -2.15353325009346010000e-001) (40, -1.05175822973251340000e-001) (41, -2.24284827709198000000e-002) (42, 8.22083130478858950000e-002) (43, 6.27636676654219630000e-003) (44, 1.53946042060852050000e-001) (45, 2.26443514227867130000e-001) (46, -9.37810167670249940000e-002) (47, -1.01430499926209450000e-002) (48, -3.19635495543479920000e-002) (49, 1.34886475279927250000e-002) (50, -2.96298433095216750000e-002) (51, 5.51477714907377960000e-004) (52, 8.46273005008697510000e-002) (53, 1.52510672807693480000e-001) (54, -4.48135882616043090000e-002) (55, 5.52318319678306580000e-002) (56, 1.18405267130583520000e-003) (57, 9.81031358242034910000e-002) (58, 4.11737384274601940000e-003) (59, 6.17636814713478090000e-002) (60, -7.44022876024246220000e-002) (61, -6.51955232024192810000e-002) (62, -5.94892129302024840000e-002) (63, 9.75208531599491830000e-004) (64, -8.54144319891929630000e-002) (65, 4.35259453952312470000e-002) (66, -3.27268391847610470000e-002) (67, 4.74998839199543000000e-002) (68, 3.78513857722282410000e-002) (69, 3.34933809936046600000e-002) (70, -3.24641913175582890000e-002) (71, 2.14049797505140300000e-002) (72, -6.42641037702560420000e-002) (73, 3.20143140852451320000e-002) (74, -4.29322570562362670000e-002) (75, -2.44128350168466570000e-002) (76, -1.47832231596112250000e-002) (77, 2.63525713235139850000e-002) (78, -1.27396464347839360000e-001) (79, -1.48214455693960190000e-002) (80, -7.25038442760705950000e-003) (81, 9.39122587442398070000e-002) (82, -2.62592104263603690000e-003) (83, 8.66969227790832520000e-002) (84, -1.82725805789232250000e-002) (0, 5.26613481342792510000e-002) (1, -1.14734590053558350000e-001) (2, -1.80792197585105900000e-001) (3, 1.60463169217109680000e-001) (4, 9.14667025208473210000e-002) (5, -9.84359160065650940000e-002) (6, 1.03333942592144010000e-001) (7, -5.06167672574520110000e-002) (8, 2.61754933744668960000e-002) (9, -1.11765913665294650000e-001) (10, -2.35264182090759280000e-001) (11, 1.36883169412612920000e-001) (12, 2.87268273532390590000e-002) (13, -6.56395480036735530000e-002) (14, 2.06019937992095950000e-001) (15, 1.98780596256256100000e-002) (16, 4.34424951672554020000e-002) (17, 1.31319507956504820000e-001) (18, -1.90477706491947170000e-002) (19, 3.18990950472652910000e-003) (20, -1.17937579751014710000e-001) (21, -3.86535078287124630000e-002) (22, -6.59036561846733090000e-002) (23, -2.40742824971675870000e-002) (24, 2.81445756554603580000e-002) (25, 1.65307864546775820000e-001) (26, 2.25186765193939210000e-001) (27, 4.13682945072650910000e-002) (28, -8.52788686752319340000e-002) (29, -2.12210655212402340000e-001) (30, 6.82390257716178890000e-002) (31, 4.41235639154911040000e-002) (32, -4.72984695807099340000e-003) (33, -1.36961862444877620000e-001) (34, -5.16221262514591220000e-002) (35, -9.48963984847068790000e-002) (36, -2.73434128612279890000e-002) (37, -1.32004439830780030000e-001) (38, 1.85424778610467910000e-002) (39, -1.43134715035557750000e-002) (40, -1.03685274720191960000e-001) (41, -2.48463526368141170000e-001) (42, 2.19783648848533630000e-001) (43, 3.35775166749954220000e-002) (44, -2.06283345818519590000e-001) (45, -2.50936418771743770000e-001) (46, 2.01118126511573790000e-001) (47, 6.88411593437194820000e-002) (48, 1.41634717583656310000e-001) (49, 1.71156749129295350000e-002) (50, 1.53233841061592100000e-001) (51, 2.78974324464797970000e-002) (52, -2.55053758621215820000e-001) (53, -2.67990410327911380000e-001) (54, 2.41856306791305540000e-001) (55, 4.81342785060405730000e-002) (56, -1.07310645282268520000e-001) (57, -3.70546467602252960000e-002) (58, 1.51367947459220890000e-001) (59, 9.46555212140083310000e-002) (60, -5.15289045870304110000e-003) (61, -4.30801473557949070000e-002) (62, -4.27732020616531370000e-002) (63, 1.76376942545175550000e-002) (64, -3.81184890866279600000e-002) (65, -7.64061510562896730000e-002) (66, 1.61477103829383850000e-001) (67, 1.31127402186393740000e-001) (68, -8.74077528715133670000e-002) (69, -3.84340249001979830000e-002) (70, 9.40842106938362120000e-002) (71, 8.62130522727966310000e-002) (72, 1.30886002443730830000e-003) (73, -5.30354529619216920000e-002) (74, 5.39971962571144100000e-002) (75, -5.07421791553497310000e-002) (76, 1.22459985315799710000e-001) (77, 5.41818402707576750000e-002) (78, 4.67791296541690830000e-002) (79, -5.13872504234313960000e-002) (80, -2.40346286445856090000e-002) (81, -6.30811154842376710000e-002) (82, 9.00955796241760250000e-002) (83, 4.75170724093914030000e-002) (84, -6.97176307439804080000e-002) (0, 3.69431793689727780000e-001) (1, 6.51441887021064760000e-002) (2, 8.26794207096099850000e-002) (3, 2.49843984842300420000e-001) (4, 2.15921312570571900000e-001) (5, 1.02804027497768400000e-001) (6, -3.02862673997879030000e-002) (7, -1.48408472537994380000e-001) (8, 1.99661538004875180000e-001) (9, 9.92719903588294980000e-002) (10, 8.59736353158950810000e-002) (11, 2.57131099700927730000e-001) (12, 3.82107853889465330000e-001) (13, 9.27117913961410520000e-002) (14, -4.60692159831523900000e-002) (15, -8.05841833353042600000e-002) (16, 1.08633309602737430000e-001) (17, 1.39246359467506410000e-001) (18, -1.47136852145195010000e-001) (19, 1.05136491358280180000e-001) (20, -9.70918983221054080000e-002) (21, -1.08157299458980560000e-001) (22, -1.53394669294357300000e-001) (23, 6.29129782319068910000e-002) (24, 1.10916711390018460000e-001) (25, 1.73775896430015560000e-001) (26, -7.06897005438804630000e-002) (27, -8.23297277092933650000e-002) (28, 8.32093879580497740000e-002) (29, -7.24283009767532350000e-002) (30, -5.94365485012531280000e-002) (31, -1.43589720129966740000e-001) (32, -1.36117175221443180000e-001) (33, 4.14753705263137820000e-001) (34, 2.34445944428443910000e-001) (35, 2.62438446283340450000e-001) (36, -1.56365871429443360000e-001) (37, 3.85825067758560180000e-001) (38, -3.84253449738025670000e-002) (39, -1.06292761862277980000e-001) (40, 9.29855555295944210000e-002) (41, -5.06044477224349980000e-002) (42, -1.96853548288345340000e-001) (43, -1.11834913492202760000e-001) (44, -3.06091308593750000000e-001) (45, -7.19870775938034060000e-002) (46, -3.63520234823226930000e-001) (47, -1.10793495550751690000e-002) (48, -7.80248343944549560000e-002) (49, -3.17851193249225620000e-002) (50, -4.04160618782043460000e-001) (51, -2.71472241729497910000e-002) (52, -2.51729935407638550000e-001) (53, -6.86957761645317080000e-002) (54, -1.65993705391883850000e-001) (55, -1.43212422728538510000e-001) (56, -2.39098910242319110000e-003) (57, 1.18918508291244510000e-001) (58, 6.40967860817909240000e-002) (59, 1.40652835369110110000e-001) (60, -1.65665492415428160000e-001) (61, 2.34945844858884810000e-002) (62, -2.11356416344642640000e-001) (63, -1.62036359310150150000e-001) (64, -1.55797556042671200000e-001) (65, -2.70249433815479280000e-002) (66, 5.91917037963867190000e-002) (67, 1.26294881105422970000e-001) (68, 1.31039535626769070000e-002) (69, 1.56829535961151120000e-001) (70, -2.59549226611852650000e-002) (71, 1.14902846515178680000e-001) (72, -3.05771119892597200000e-002) (73, -4.09303382039070130000e-002) (74, 5.24223260581493380000e-002) (75, 1.52467429637908940000e-001) (76, -5.10843843221664430000e-002) (77, 9.64295864105224610000e-002) (78, 4.15117107331752780000e-002) (79, 1.56609639525413510000e-001) (80, -3.14369946718215940000e-002) (81, -2.25328467786312100000e-002) (82, -6.99369935318827630000e-003) (83, 1.01405337452888490000e-001) (84, 3.53004336357116700000e-002) (0, 1.11876614391803740000e-001) (1, 6.73290267586708070000e-002) (2, -2.22668913193047050000e-003) (3, -1.42339259386062620000e-001) (4, 1.88243046402931210000e-001) (5, 9.21612307429313660000e-002) (6, -3.39982509613037110000e-002) (7, -2.80875228345394130000e-002) (8, 1.75710916519165040000e-001) (9, 9.74537432193756100000e-002) (10, -1.23454015702009200000e-002) (11, -9.82717722654342650000e-002) (12, 1.49067357182502750000e-001) (13, 9.14652124047279360000e-002) (14, -1.77085578441619870000e-001) (15, -8.79350453615188600000e-002) (16, 1.55189558863639830000e-001) (17, 2.13318634778261180000e-002) (18, -2.03041106462478640000e-001) (19, -2.86079585552215580000e-001) (20, 2.19796568155288700000e-001) (21, 1.11275486648082730000e-001) (22, -1.72094255685806270000e-001) (23, -2.33127042651176450000e-001) (24, 8.03424865007400510000e-002) (25, -3.14412675797939300000e-002) (26, -8.61644074320793150000e-002) (27, -8.99664163589477540000e-002) (28, 2.54538655281066890000e-001) (29, 6.77977502346038820000e-002) (30, 9.47391241788864140000e-002) (31, 6.39640241861343380000e-002) (32, 1.87160521745681760000e-001) (33, 9.81249585747718810000e-002) (34, -7.36582502722740170000e-002) (35, -1.80525094270706180000e-001) (36, 2.42472141981124880000e-001) (37, 1.40751823782920840000e-001) (38, 1.33444830775260930000e-001) (39, -2.47474089264869690000e-002) (40, 2.15566381812095640000e-001) (41, 1.89828407019376750000e-002) (42, 1.66385043412446980000e-002) (43, -1.36170372366905210000e-001) (44, 3.67463380098342900000e-002) (45, -1.15840556100010870000e-002) (46, 9.66179445385932920000e-002) (47, -5.10072475299239160000e-003) (48, 2.41184849292039870000e-002) (49, -1.12345680594444270000e-001) (50, 1.05377070605754850000e-001) (51, -7.02658575028181080000e-003) (52, 7.51618221402168270000e-002) (53, 2.52415724098682400000e-002) (54, -5.99364424124360080000e-003) (55, -2.07323998212814330000e-001) (56, 9.02070254087448120000e-002) (57, -3.51957976818084720000e-002) (58, 2.19569817185401920000e-001) (59, 6.40758797526359560000e-002) (60, 3.57112884521484380000e-002) (61, -1.44762605428695680000e-001) (62, 1.72273531556129460000e-001) (63, -4.47429679334163670000e-002) (64, -2.55156122148036960000e-002) (65, -1.68999195098876950000e-001) (66, 2.44138091802597050000e-001) (67, 7.69035071134567260000e-002) (68, 6.89481794834136960000e-002) (69, -7.30806067585945130000e-002) (70, 1.03450872004032140000e-001) (71, -3.47883738577365880000e-002) (72, -4.19356673955917360000e-002) (73, -9.55954715609550480000e-002) (74, 3.80324386060237880000e-002) (75, -7.94458687305450440000e-002) (76, 6.09377287328243260000e-002) (77, -5.12219546362757680000e-003) (78, 6.90879896283149720000e-002) (79, -8.79488065838813780000e-002) (80, -1.06485605239868160000e-001) (81, -1.39632761478424070000e-001) (82, 4.66819740831851960000e-002) (83, -8.43805298209190370000e-002) (84, 2.14244388043880460000e-002) (0, 1.44198089838027950000e-001) (1, 1.80473819375038150000e-001) (2, 1.08905501663684840000e-001) (3, -3.16354334354400630000e-002) (4, 7.08968713879585270000e-002) (5, -1.01003535091876980000e-001) (6, 1.53269376605749130000e-002) (7, -6.14706315100193020000e-002) (8, 6.95324391126632690000e-002) (9, -1.40658527612686160000e-001) (10, 1.45624041557312010000e-001) (11, 1.82049330323934560000e-002) (12, 1.47873997688293460000e-001) (13, 2.10467800498008730000e-001) (14, -2.41909340023994450000e-001) (15, -1.89347773790359500000e-001) (16, 1.16501197218894960000e-001) (17, 1.07861556112766270000e-001) (18, 9.41078364849090580000e-002) (19, -6.23681545257568360000e-002) (20, 2.65650629997253420000e-001) (21, 1.50368899106979370000e-001) (22, 7.36534222960472110000e-002) (23, -7.09765851497650150000e-002) (24, 1.13328643143177030000e-001) (25, 1.45333275198936460000e-001) (26, -2.52012938261032100000e-001) (27, -1.81058064103126530000e-001) (28, 1.09029807150363920000e-001) (29, 3.89226414263248440000e-002) (30, -6.52382150292396550000e-002) (31, -1.09553905203938480000e-002) (32, 4.85340245068073270000e-002) (33, -3.61276566982269290000e-002) (34, 2.56146886385977270000e-003) (35, -1.12631008028984070000e-001) (36, -5.21535016596317290000e-002) (37, -5.90503960847854610000e-002) (38, -3.86260561645030980000e-002) (39, -1.37110538780689240000e-002) (40, 1.46696224808692930000e-001) (41, 1.70562472194433210000e-002) (42, -5.82672208547592160000e-002) (43, -1.76728352904319760000e-001) (44, -2.05524116754531860000e-001) (45, -1.82110801339149480000e-001) (46, 1.48680806159973140000e-001) (47, -8.79516173154115680000e-003) (48, 1.17192864418029790000e-001) (49, 5.00555336475372310000e-003) (50, 5.46309016644954680000e-002) (51, -1.94319617003202440000e-002) (52, -2.60126560926437380000e-001) (53, -2.19600886106491090000e-001) (54, -1.17276869714260100000e-002) (55, -1.48758128285408020000e-001) (56, 7.47795999050140380000e-002) (57, 2.77762841433286670000e-002) (58, 5.50919286906719210000e-002) (59, -1.65553111582994460000e-002) (60, 3.06451544165611270000e-002) (61, -8.09853076934814450000e-002) (62, -8.96392464637756350000e-002) (63, -1.35842740535736080000e-001) (64, 1.87057554721832280000e-002) (65, -1.32749646902084350000e-001) (66, -4.17957343161106110000e-002) (67, -7.13510066270828250000e-002) (68, 1.18284106254577640000e-001) (69, 1.08788833022117610000e-001) (70, -2.42600105702877040000e-002) (71, -3.20361964404582980000e-002) (72, 1.93284571170806880000e-001) (73, 6.34527578949928280000e-002) (74, 9.68003794550895690000e-002) (75, 7.40958079695701600000e-002) (76, 5.66040240228176120000e-002) (77, 2.69181355834007260000e-002) (78, 1.28573894500732420000e-001) (79, 5.81505224108695980000e-002) (80, 7.27565363049507140000e-002) (81, -3.63296568393707280000e-002) (82, -2.89959050714969640000e-002) (83, -6.04156218469142910000e-002) (84, 2.83616669476032260000e-002) (0, 3.70886087417602540000e-001) (1, -4.94663380086421970000e-002) (2, 4.64839898049831390000e-002) (3, 1.75216928124427800000e-001) (4, 2.30449542403221130000e-001) (5, 2.24678605794906620000e-001) (6, -2.38152652978897090000e-001) (7, 4.79996725916862490000e-002) (8, 2.07195878028869630000e-001) (9, 1.82598322629928590000e-001) (10, 2.60145496577024460000e-002) (11, 1.55973121523857120000e-001) (12, 3.78569543361663820000e-001) (13, -2.76508964598178860000e-002) (14, 1.34026363492012020000e-001) (15, 3.96078452467918400000e-002) (16, 3.58109734952449800000e-002) (17, 1.41312643885612490000e-001) (18, -8.80674645304679870000e-002) (19, -2.07470878958702090000e-001) (20, -7.21989050507545470000e-002) (21, 8.68988856673240660000e-002) (22, -9.91340577602386470000e-002) (23, -1.84747651219367980000e-001) (24, 3.95156480371952060000e-002) (25, 1.56126841902732850000e-001) (26, 1.17773495614528660000e-001) (27, 1.07310324907302860000e-001) (28, -2.26541057229042050000e-001) (29, 8.93180146813392640000e-002) (30, -3.90483415685594080000e-004) (31, 5.21408841013908390000e-002) (32, -2.29872718453407290000e-001) (33, -1.36419966816902160000e-001) (34, 5.47815263271331790000e-002) (35, 1.41278192400932310000e-001) (36, -2.22713544964790340000e-001) (37, -9.80962663888931270000e-002) (38, -1.57081224024295810000e-002) (39, 7.10674971342086790000e-002) (40, -2.13795945048332210000e-001) (41, 6.50030449032783510000e-002) (42, -1.90562441945075990000e-001) (43, 8.53377673774957660000e-003) (44, -2.28448539972305300000e-001) (45, -1.00589498877525330000e-001) (46, -4.64880503714084630000e-002) (47, 1.22510239481925960000e-001) (48, -9.82244536280632020000e-002) (49, 8.19818582385778430000e-003) (50, -2.02995054423809050000e-002) (51, 6.60427361726760860000e-002) (52, -1.95916652679443360000e-001) (53, -1.03200480341911320000e-001) (54, -1.87370240688323970000e-001) (55, 5.10481819510459900000e-002) (56, -1.13373450934886930000e-001) (57, 5.40024116635322570000e-002) (58, -1.18193224072456360000e-001) (59, -4.15021851658821110000e-002) (60, 7.30957239866256710000e-002) (61, 1.56909689307212830000e-001) (62, -1.20122395455837250000e-001) (63, -5.90602420270442960000e-002) (64, -6.76166173070669170000e-003) (65, 1.50651291012763980000e-001) (66, -1.26310005784034730000e-001) (67, -1.54413729906082150000e-002) (68, -6.78737536072731020000e-002) (69, 3.67552042007446290000e-002) (70, -5.32583668828010560000e-002) (71, 7.91684240102767940000e-002) (72, -2.86693684756755830000e-002) (73, 1.01363426074385640000e-002) (74, 2.27106921374797820000e-002) (75, 7.26724788546562190000e-002) (76, -1.97342634201049800000e-001) (77, -4.89602610468864440000e-003) (78, -2.71149585023522380000e-003) (79, 9.57234427332878110000e-002) (80, -2.98964474350214000000e-002) (81, -2.28297039866447450000e-002) (82, -7.79730826616287230000e-002) (83, 7.09910094738006590000e-002) (84, 2.09731087088584900000e-001) (0, 1.72370105981826780000e-001) (1, 1.16819560527801510000e-001) (2, -7.01035857200622560000e-002) (3, -3.32060940563678740000e-002) (4, 1.36745989322662350000e-001) (5, -1.64830908179283140000e-001) (6, -4.30992953479290010000e-002) (7, 1.80464088916778560000e-001) (8, 9.87547487020492550000e-002) (9, -1.23286046087741850000e-001) (10, -9.67549458146095280000e-002) (11, -5.11053912341594700000e-002) (12, 1.67944520711898800000e-001) (13, 1.28834947943687440000e-001) (14, -3.45613300800323490000e-001) (15, 5.94017922878265380000e-001) (16, 1.49576082825660710000e-001) (17, 2.45009064674377440000e-001) (18, -9.34021454304456710000e-003) (19, 5.18303923308849330000e-002) (20, 1.47090226411819460000e-001) (21, -1.11998543143272400000e-002) (22, -1.55889531597495080000e-002) (23, 5.80374617129564290000e-003) (24, 1.58823743462562560000e-001) (25, 2.37069934606552120000e-001) (26, -3.63615095615386960000e-001) (27, 5.52882492542266850000e-001) (28, -1.57964795827865600000e-001) (29, -3.52162331342697140000e-001) (30, -1.67800813913345340000e-001) (31, 2.70190656185150150000e-001) (32, -8.01808387041091920000e-002) (33, -1.07746437191963200000e-001) (34, -1.11637659370899200000e-001) (35, -3.60966660082340240000e-002) (36, -9.52524170279502870000e-002) (37, -1.48567199707031250000e-001) (38, -1.46670401096343990000e-001) (39, 2.43442937731742860000e-001) (40, -1.59794688224792480000e-001) (41, -3.12073349952697750000e-001) (42, 9.74713489413261410000e-002) (43, -4.76033389568328860000e-002) (44, 2.42452882230281830000e-002) (45, 9.38953384757041930000e-002) (46, 4.48374040424823760000e-002) (47, -5.45070469379425050000e-002) (48, 1.98709238320589070000e-002) (49, -4.69014514237642290000e-003) (50, 1.66469644755125050000e-002) (51, -3.61609086394310000000e-002) (52, 2.33540162444114690000e-002) (53, 9.81786549091339110000e-002) (54, 1.52389377355575560000e-001) (55, -7.08576366305351260000e-002) (56, 3.78969535231590270000e-002) (57, 1.14670351147651670000e-001) (58, -6.52699545025825500000e-002) (59, -2.14060805737972260000e-002) (60, 9.33400541543960570000e-002) (61, 9.48130562901496890000e-002) (62, -9.99924093484878540000e-002) (63, 4.88066785037517550000e-002) (64, 1.27032890915870670000e-001) (65, 6.44290968775749210000e-002) (66, -3.16121876239776610000e-002) (67, -3.75802144408226010000e-002) (68, 2.01465077698230740000e-002) (69, 1.51378825306892400000e-001) (70, -8.53288099169731140000e-002) (71, 1.37334049213677640000e-003) (72, 3.27079347334802150000e-003) (73, 4.75567020475864410000e-002) (74, 1.00296512246131900000e-002) (75, 1.03546038269996640000e-001) (76, 2.51012984663248060000e-002) (77, -3.40343900024890900000e-002) (78, -1.11222499981522560000e-002) (79, 6.57524839043617250000e-002) (80, 6.03339262306690220000e-003) (81, 7.37425908446311950000e-002) (82, -6.74412027001380920000e-002) (83, -4.82554920017719270000e-003) (84, -2.47620478272438050000e-001) (0, -2.19146564602851870000e-001) (1, 1.04082040488719940000e-001) (2, -2.09954604506492610000e-001) (3, 1.10289365053176880000e-001) (4, -1.28232374787330630000e-001) (5, -3.42999696731567380000e-002) (6, -5.66909275949001310000e-002) (7, 1.28541097044944760000e-001) (8, -2.26600199937820430000e-001) (9, -7.61605501174926760000e-002) (10, -2.60624378919601440000e-001) (11, 1.40790775418281560000e-001) (12, -1.92625164985656740000e-001) (13, 8.82083699107170100000e-002) (14, 4.97075207531452180000e-002) (15, 2.35698651522397990000e-002) (16, -7.73529633879661560000e-002) (17, 8.00899192690849300000e-002) (18, 1.96561999619007110000e-002) (19, 1.25815913081169130000e-001) (20, 4.09073084592819210000e-002) (21, 1.28580629825592040000e-001) (22, 1.27800181508064270000e-002) (23, 9.48716402053833010000e-002) (24, -1.18157930672168730000e-001) (25, 7.67591670155525210000e-002) (26, 4.79561872780323030000e-002) (27, 8.74042976647615430000e-003) (28, 9.09840315580368040000e-002) (29, 1.59010142087936400000e-001) (30, -1.42534459009766580000e-002) (31, 2.43696302175521850000e-001) (32, -2.39779073745012280000e-002) (33, -5.68576268851757050000e-002) (34, -1.94403290748596190000e-001) (35, -7.25076720118522640000e-002) (36, 5.39280008524656300000e-003) (37, -1.57095063477754590000e-002) (38, -3.19616347551345830000e-002) (39, 2.54724502563476560000e-001) (40, 1.52672857046127320000e-001) (41, 2.07688719034194950000e-001) (42, -1.13326154649257660000e-001) (43, -5.09143881499767300000e-002) (44, -1.57945007085800170000e-001) (45, 1.67053807526826860000e-002) (46, -1.20248468592762950000e-002) (47, 5.08183762431144710000e-002) (48, 3.35160270333290100000e-002) (49, 1.23982243239879610000e-001) (50, -3.72434034943580630000e-002) (51, 4.84864832833409310000e-003) (52, -7.32559934258461000000e-002) (53, 7.13507533073425290000e-002) (54, -1.17072157561779020000e-001) (55, -4.18799407780170440000e-002) (56, -8.97054150700569150000e-002) (57, 4.37523312866687770000e-002) (58, -8.48431140184402470000e-002) (59, 2.09895540028810500000e-002) (60, 6.58975988626480100000e-002) (61, 7.66580775380134580000e-002) (62, -7.54712894558906560000e-002) (63, 1.25725483521819110000e-002) (64, 2.44655273854732510000e-002) (65, 3.82607355713844300000e-002) (66, -7.31937736272811890000e-002) (67, 2.14291494339704510000e-002) (68, -9.50163751840591430000e-002) (69, 4.24265675246715550000e-002) (70, -1.31554482504725460000e-002) (71, 4.04956825077533720000e-002) (72, 1.37367164716124530000e-002) (73, 7.62380436062812810000e-002) (74, -6.57682046294212340000e-002) (75, -3.42256017029285430000e-003) (76, 5.59548996388912200000e-002) (77, 5.37308976054191590000e-002) (78, -3.71280722320079800000e-002) (79, 1.75013381522148850000e-003) (80, -2.08466649055480960000e-002) (81, 4.33016084134578700000e-002) (82, -8.56668576598167420000e-002) (83, -5.55151188746094700000e-003) (84, -8.32376815378665920000e-003) (0, -5.07414760068058970000e-003) (1, 1.50034829974174500000e-001) (2, -3.78696136176586150000e-002) (3, 7.47402831912040710000e-002) (4, -1.84772491455078130000e-001) (5, 1.97934910655021670000e-001) (6, -1.73495039343833920000e-001) (7, 1.15439265966415410000e-001) (8, 2.26176027208566670000e-002) (9, -4.19970881193876270000e-003) (10, 7.09768533706665040000e-002) (11, 1.44547328352928160000e-001) (12, 8.92711132764816280000e-002) (13, 8.21986719965934750000e-002) (14, 1.15185253322124480000e-001) (15, 8.90251621603965760000e-003) (16, -1.17510154843330380000e-001) (17, -6.65801391005516050000e-002) (18, 8.93922001123428340000e-002) (19, -1.51077436748892070000e-003) (20, -4.52077500522136690000e-002) (21, -1.11547857522964480000e-001) (22, -3.67139689624309540000e-002) (23, 1.68725594878196720000e-001) (24, -1.22204370796680450000e-001) (25, -1.89552738447673620000e-004) (26, 6.03686459362506870000e-002) (27, 1.99912697076797490000e-001) (28, -6.90454468131065370000e-002) (29, -2.99636781215667720000e-001) (30, 1.16744913160800930000e-001) (31, -1.80318728089332580000e-001) (32, 5.55242300033569340000e-002) (33, 3.65954712033271790000e-002) (34, 5.42373806238174440000e-002) (35, -2.95997112989425660000e-002) (36, 7.73357897996902470000e-002) (37, 1.73740535974502560000e-001) (38, -1.50233432650566100000e-001) (39, -7.74209648370742800000e-002) (40, -3.45060527324676510000e-002) (41, -4.56269860267639160000e-001) (42, 3.31602156162261960000e-001) (43, -5.13891763985157010000e-002) (44, 2.61180311441421510000e-001) (45, 1.74709364771842960000e-001) (46, 1.01217940449714660000e-001) (47, 2.16768234968185420000e-001) (48, 7.49581083655357360000e-002) (49, -6.38451948761940000000e-002) (50, 2.06839442253112790000e-002) (51, -2.30169951915740970000e-001) (52, 2.72541075944900510000e-001) (53, 1.75748988986015320000e-001) (54, 1.16889797151088710000e-001) (55, 9.49683636426925660000e-002) (56, 1.76687866449356080000e-001) (57, -6.25063404440879820000e-002) (58, -4.64900657534599300000e-002) (59, -1.62709787487983700000e-001) (60, 1.92765220999717710000e-001) (61, 1.79284717887640000000e-002) (62, 1.47917047142982480000e-001) (63, 2.82253921031951900000e-002) (64, -2.47937992215156560000e-001) (65, -1.26290202140808110000e-001) (66, -1.02416142821311950000e-001) (67, 1.06139061972498890000e-002) (68, 2.96878200024366380000e-002) (69, -1.02638281881809230000e-001) (70, -1.85298956930637360000e-002) (71, -5.85173144936561580000e-002) (72, -5.60050345957279210000e-002) (73, 1.42676427960395810000e-001) (74, 1.73059776425361630000e-001) (75, 6.10609836876392360000e-002) (76, -1.97698235511779790000e-001) (77, -2.30325862765312190000e-001) (78, -2.58681289851665500000e-002) (79, -2.05409266054630280000e-002) (80, 8.96155759692192080000e-002) (81, -1.55796378850936890000e-001) (82, 6.80343422573059800000e-004) (83, -2.06049352884292600000e-001) (84, 8.09695795178413390000e-002) (0, -1.45797198638319970000e-002) (1, -1.18596935644745830000e-002) (2, 1.31220966577529910000e-001) (3, 1.61497011780738830000e-001) (4, 5.32694570720195770000e-002) (5, 2.39182207733392720000e-002) (6, -3.32490205764770510000e-002) (7, 2.45296228677034380000e-002) (8, 7.47725665569305420000e-002) (9, 3.92379201948642730000e-002) (10, 1.20826765894889830000e-001) (11, 1.87441259622573850000e-001) (12, -8.63687992095947270000e-002) (13, 4.69494499266147610000e-002) (14, -1.29646450281143190000e-001) (15, -1.61414906382560730000e-001) (16, -7.89669230580329900000e-002) (17, -1.16718821227550510000e-001) (18, -1.71608090400695800000e-001) (19, -7.12716132402420040000e-002) (20, 9.10204723477363590000e-002) (21, 8.13369527459144590000e-002) (22, -1.68292358517646790000e-001) (23, -8.54827612638473510000e-002) (24, -1.03962361812591550000e-001) (25, -1.15095511078834530000e-001) (26, -1.25898018479347230000e-001) (27, -1.30358546972274780000e-001) (28, 9.26902592182159420000e-002) (29, -5.95276535023003820000e-004) (30, -2.60306224226951600000e-002) (31, -6.50706589221954350000e-002) (32, -7.95927420258522030000e-002) (33, -7.37492144107818600000e-002) (34, -1.34655520319938660000e-001) (35, -7.59114399552345280000e-002) (36, -5.01158498227596280000e-002) (37, -5.89696057140827180000e-002) (38, 4.26247576251626010000e-003) (39, -9.50055643916130070000e-002) (40, 7.32495412230491640000e-002) (41, 4.67972420156002040000e-002) (42, -2.76455115526914600000e-002) (43, -1.82864833623170850000e-002) (44, 4.75452691316604610000e-002) (45, 8.19366872310638430000e-002) (46, 2.74132695049047470000e-002) (47, 9.71244275569915770000e-002) (48, 9.34585183858871460000e-002) (49, 7.89354667067527770000e-002) (50, 1.35927516967058180000e-002) (51, 9.28665250539779660000e-002) (52, 9.52743068337440490000e-002) (53, 1.23499721288681030000e-001) (54, 3.82299087941646580000e-002) (55, 1.35634886100888250000e-002) (56, 4.43479567766189580000e-002) (57, -7.38442223519086840000e-003) (58, 1.36238401755690570000e-002) (59, -1.52848120778799060000e-002) (60, 6.48818984627723690000e-002) (61, 2.74615921080112460000e-002) (62, -3.75279821455478670000e-002) (63, -1.06321506202220920000e-001) (64, 6.50846660137176510000e-002) (65, 2.62367520481348040000e-002) (66, -8.39770678430795670000e-003) (67, -1.76756698638200760000e-002) (68, 2.02791346237063410000e-003) (69, -1.21145388111472130000e-002) (70, -1.50322169065475460000e-002) (71, -3.55217643082141880000e-002) (72, -8.98587256669998170000e-002) (73, -3.39135862886905670000e-002) (74, 2.08688676357269290000e-002) (75, 2.93529573827981950000e-002) (76, -3.13570280559360980000e-003) (77, 1.01093696430325510000e-002) (78, 4.81940545141696930000e-002) (79, 3.72688062489032750000e-002) (80, -5.81481680274009700000e-002) (81, -1.39454025775194170000e-002) (82, 1.58927757292985920000e-002) (83, -3.32126840949058530000e-002) (84, 1.33818238973617550000e-002) (0, 1.06529414653778080000e-001) (1, -3.21414619684219360000e-002) (2, 1.72519430518150330000e-001) (3, -3.55802886188030240000e-002) (4, -2.52832211554050450000e-002) (5, -6.15603663027286530000e-002) (6, 2.13697731494903560000e-001) (7, 2.30900235474109650000e-002) (8, -5.47927655279636380000e-002) (9, -3.98292131721973420000e-002) (10, 2.22951427102088930000e-001) (11, -3.92629392445087430000e-002) (12, 1.41779169440269470000e-001) (13, -1.82128865271806720000e-002) (14, -1.86529725790023800000e-001) (15, -1.28834947943687440000e-001) (16, -8.87910574674606320000e-002) (17, -1.08510024845600130000e-001) (18, 3.00022792071104050000e-002) (19, -2.98302713781595230000e-002) (20, -1.46934777498245240000e-001) (21, -1.42912223935127260000e-001) (22, 5.84144378080964090000e-003) (23, -9.88675802946090700000e-002) (24, -1.90020743757486340000e-002) (25, -3.08589935302734380000e-002) (26, -6.78636878728866580000e-002) (27, -1.26677557826042180000e-001) (28, 1.26890465617179870000e-001) (29, 1.21619857847690580000e-001) (30, -2.51906029880046840000e-002) (31, -1.32253050804138180000e-001) (32, 4.11117933690547940000e-002) (33, -1.17074400186538700000e-001) (34, -3.74171184375882150000e-003) (35, -5.49789778888225560000e-002) (36, 8.76087844371795650000e-002) (37, -7.55463540554046630000e-002) (38, -6.05725720524787900000e-002) (39, -1.77047580480575560000e-001) (40, 1.62608787417411800000e-001) (41, 1.12142022699117660000e-002) (42, -3.89524288475513460000e-002) (43, -8.54158103466033940000e-002) (44, 5.48831932246685030000e-003) (45, -4.28070090711116790000e-002) (46, -4.83444780111312870000e-002) (47, -1.30492657423019410000e-001) (48, 2.16235131025314330000e-001) (49, 1.63740783929824830000e-001) (50, 1.89183410257101060000e-002) (51, -1.31686702370643620000e-001) (52, 5.82603849470615390000e-002) (53, -5.62300905585289000000e-002) (54, -6.59606456756591800000e-002) (55, -1.39634370803833010000e-001) (56, -3.22869643568992610000e-002) (57, 5.17641426995396610000e-003) (58, 4.37302738428115840000e-002) (59, -2.40254309028387070000e-002) (60, 9.68081057071685790000e-002) (61, 1.42364213243126870000e-002) (62, -6.25060498714447020000e-002) (63, -1.41481697559356690000e-001) (64, 1.01771168410778050000e-001) (65, 5.12989722192287450000e-002) (66, 1.42141217365860940000e-002) (67, -2.99136200919747350000e-003) (68, 3.98576445877552030000e-002) (69, 7.58194271475076680000e-003) (70, -4.73459437489509580000e-002) (71, -7.81260207295417790000e-002) (72, -7.69778620451688770000e-003) (73, -9.27711054682731630000e-002) (74, 1.20852783322334290000e-001) (75, -3.82243394851684570000e-002) (76, 2.55860444158315660000e-002) (77, 7.58208008483052250000e-003) (78, 4.63342331349849700000e-002) (79, -4.83830645680427550000e-003) (80, 2.31066495180130000000e-002) (81, -8.45489799976348880000e-002) (82, 6.93704113364219670000e-002) (83, 3.62508371472358700000e-002) (84, 1.70849069952964780000e-001) (0, 1.37321740388870240000e-001) (1, 1.68006882071495060000e-001) (2, -2.22122862935066220000e-001) (3, 4.04323637485504150000e-002) (4, -1.12459689378738400000e-001) (5, -5.15378713607788090000e-002) (6, -5.77717572450637820000e-002) (7, 7.95499235391616820000e-002) (8, -1.61099523305892940000e-001) (9, -5.84714598953723910000e-002) (10, -1.57325118780136110000e-001) (11, 1.44852072000503540000e-001) (12, 6.49981573224067690000e-002) (13, 1.38357236981391910000e-001) (14, -1.10312491655349730000e-001) (15, -4.10324931144714360000e-002) (16, -6.23440891504287720000e-002) (17, 7.91606400161981580000e-003) (18, -1.40971511602401730000e-001) (19, -1.86312720179557800000e-002) (20, 4.08001616597175600000e-002) (21, 9.39771160483360290000e-002) (22, -6.96736723184585570000e-002) (23, 1.32311566267162560000e-003) (24, -5.08425571024417880000e-002) (25, 1.18677588179707530000e-002) (26, -2.02962800860404970000e-001) (27, -5.27203641831874850000e-002) (28, -1.51084288954734800000e-001) (29, -3.05067989975214000000e-002) (30, -1.68689689598977570000e-003) (31, 1.29977092146873470000e-001) (32, 6.40521198511123660000e-002) (33, 2.10425004363060000000e-001) (34, -1.00286146625876430000e-002) (35, 1.28563240170478820000e-001) (36, 8.18371120840311050000e-003) (37, 1.85993373394012450000e-001) (38, -4.69464473426342010000e-002) (39, 1.25298649072647090000e-001) (40, -2.32396960258483890000e-001) (41, -1.31002664566040040000e-001) (42, 6.15467317402362820000e-002) (43, 2.04470857977867130000e-001) (44, -2.27060746401548390000e-002) (45, 7.00916871428489690000e-002) (46, -1.39720112085342410000e-001) (47, -4.66019362211227420000e-002) (48, -1.70241951942443850000e-001) (49, -3.89999784529209140000e-002) (50, -1.30898550152778630000e-001) (51, 1.10464636236429210000e-002) (52, -2.71990336477756500000e-002) (53, 8.43257457017898560000e-002) (54, 4.00445796549320220000e-002) (55, 1.72216981649398800000e-001) (56, -2.66403611749410630000e-003) (57, 1.86927877366542820000e-002) (58, -1.39616668224334720000e-001) (59, -1.31752379238605500000e-002) (60, 4.91908285766839980000e-003) (61, 1.07004933059215550000e-001) (62, -1.39317542314529420000e-001) (63, -2.51676235347986220000e-002) (64, 4.48221378028392790000e-002) (65, 1.05576224625110630000e-001) (66, -9.67838242650032040000e-002) (67, -2.93107405304908750000e-002) (68, -4.06287785153836010000e-004) (69, 2.39670388400554660000e-002) (70, -1.23786747455596920000e-001) (71, -3.66651676595211030000e-002) (72, -5.07903210818767550000e-002) (73, 6.41201063990592960000e-002) (74, -7.03691318631172180000e-002) (75, 4.00545857846736910000e-002) (76, -1.09576784074306490000e-001) (77, -1.25322481617331500000e-002) (78, -9.26586017012596130000e-002) (79, -4.56066755577921870000e-003) (80, 2.49983631074428560000e-002) (81, 1.09265908598899840000e-001) (82, -1.40292793512344360000e-001) (83, -4.42779548466205600000e-002) (84, 1.35260194540023800000e-001) (0, -1.83703139424324040000e-001) (1, 5.36708496510982510000e-002) (2, -2.51903742551803590000e-001) (3, -2.07580298185348510000e-001) (4, -3.18435043096542360000e-001) (5, 5.47870574519038200000e-003) (6, -2.05064654350280760000e-001) (7, 1.62442207336425780000e-001) (8, -3.05325150489807130000e-001) (9, 1.39962037792429330000e-004) (10, -2.71000564098358150000e-001) (11, -2.36497491598129270000e-001) (12, -1.92411899566650390000e-001) (13, 4.62988354265689850000e-002) (14, 8.58679190278053280000e-002) (15, 4.24336865544319150000e-002) (16, -2.29570120573043820000e-001) (17, -1.17191635072231290000e-001) (18, -9.24389585852622990000e-002) (19, -1.11124902963638310000e-001) (20, -1.70169800519943240000e-001) (21, 3.36962169967591760000e-003) (22, -7.51355439424514770000e-002) (23, -1.39184355735778810000e-001) (24, -2.35147029161453250000e-001) (25, -6.89464211463928220000e-002) (26, 7.04977214336395260000e-002) (27, 3.02793104201555250000e-002) (28, 7.27127492427825930000e-002) (29, 1.10814779996871950000e-001) (30, -1.29361271858215330000e-001) (31, 1.40837132930755620000e-001) (32, 7.68175274133682250000e-002) (33, 2.36290723085403440000e-001) (34, 2.75914184749126430000e-002) (35, 1.70144528150558470000e-001) (36, 1.03266082704067230000e-001) (37, 2.42326065897941590000e-001) (38, -1.04793980717659000000e-001) (39, 1.69789701700210570000e-001) (40, 7.25632831454277040000e-002) (41, 9.74006503820419310000e-002) (42, -2.29590818285942080000e-001) (43, -1.05382882058620450000e-001) (44, 7.42706954479217530000e-002) (45, 2.47112110257148740000e-001) (46, -1.64719775319099430000e-001) (47, 1.44570782780647280000e-001) (48, -1.04986667633056640000e-001) (49, 9.52804312109947200000e-002) (50, -1.25312939286231990000e-001) (51, 1.50159463286399840000e-001) (52, 9.79168340563774110000e-002) (53, 2.27297842502593990000e-001) (54, -2.50964045524597170000e-001) (55, -1.16422392427921300000e-001) (56, 1.59402210265398030000e-002) (57, 1.59556448459625240000e-001) (58, -2.85293340682983400000e-001) (59, -7.66316354274749760000e-002) (60, -1.46162107586860660000e-001) (61, -2.64617167413234710000e-002) (62, -7.83694386482238770000e-002) (63, 5.52274659276008610000e-002) (64, -1.30116760730743410000e-001) (65, 4.33119162917137150000e-002) (66, -2.56839364767074580000e-001) (67, -7.83924683928489690000e-002) (68, 4.91434298455715180000e-002) (69, 1.38191908597946170000e-001) (70, -8.65094438195228580000e-002) (71, 2.89556663483381270000e-002) (72, 3.69933769106864930000e-002) (73, 1.20160080492496490000e-001) (74, -2.51976728439331050000e-001) (75, -1.10693119466304780000e-001) (76, -1.82210460305213930000e-001) (77, -2.26038135588169100000e-002) (78, -2.46001571416854860000e-001) (79, -5.10796867311000820000e-002) (80, 5.59430010616779330000e-002) (81, 1.74136072397232060000e-001) (82, -7.02145993709564210000e-002) (83, 6.66407644748687740000e-002) (84, 3.32985311746597290000e-001) (0, 5.03355748951435090000e-002) (1, -2.00285524129867550000e-001) (2, -3.75684238970279690000e-002) (3, -5.90016208589077000000e-002) (4, -1.78179815411567690000e-001) (5, 8.56221914291381840000e-002) (6, -5.09432191029191020000e-003) (7, 1.23091921210289000000e-001) (8, -1.66847065091133120000e-001) (9, 1.23032853007316590000e-001) (10, -7.84599557518959050000e-002) (11, -1.01934440433979030000e-001) (12, 2.37331036478281020000e-002) (13, -1.74904599785804750000e-001) (14, 8.46967324614524840000e-002) (15, 1.44801326096057890000e-002) (16, 1.76846489310264590000e-001) (17, 2.60068356990814210000e-001) (18, 7.69342333078384400000e-002) (19, -1.36980295181274410000e-001) (20, -1.21986128389835360000e-001) (21, -7.65030682086944580000e-002) (22, 8.28217715024948120000e-002) (23, -5.02455011010169980000e-002) (24, 1.72821864485740660000e-001) (25, 2.35473096370697020000e-001) (26, 3.84096279740333560000e-002) (27, -1.36243656743317840000e-003) (28, -3.86695377528667450000e-002) (29, 3.93542945384979250000e-002) (30, -2.12635770440101620000e-001) (31, -2.48061232268810270000e-002) (32, 6.43611177802085880000e-002) (33, 1.59895978868007660000e-002) (34, 1.63201242685317990000e-001) (35, 2.11597755551338200000e-001) (36, 8.54887366294860840000e-002) (37, 6.08909726142883300000e-002) (38, -2.38030940294265750000e-001) (39, -3.86400036513805390000e-002) (40, -1.01530313491821290000e-001) (41, 6.20992295444011690000e-002) (42, 1.49814456701278690000e-001) (43, 1.99483931064605710000e-001) (44, -1.97991833090782170000e-001) (45, -2.74325255304574970000e-002) (46, 2.94974029064178470000e-001) (47, 1.69818118214607240000e-001) (48, -1.59257695078849790000e-001) (49, -9.85210016369819640000e-002) (50, 2.14119657874107360000e-001) (51, 1.51215746998786930000e-001) (52, -2.54562377929687500000e-001) (53, -2.30910386890172960000e-002) (54, 8.22530388832092290000e-002) (55, 1.44967526197433470000e-001) (56, -5.64659126102924350000e-002) (57, -8.28000754117965700000e-002) (58, -7.39794075489044190000e-002) (59, -2.31982506811618800000e-002) (60, -1.56634792685508730000e-001) (61, -1.55184507369995120000e-001) (62, 1.16962157189846040000e-001) (63, 1.37529283761978150000e-001) (64, -2.73957222700119020000e-001) (65, -2.41533324122428890000e-001) (66, -8.55955705046653750000e-002) (67, -6.36506453156471250000e-002) (68, -1.51739656925201420000e-001) (69, -6.66312351822853090000e-002) (70, -3.12172118574380870000e-002) (71, 9.20371860265731810000e-002) (72, 5.02901114523410800000e-002) (73, 4.46816459298133850000e-002) (74, 1.20612502098083500000e-001) (75, 1.40061467885971070000e-001) (76, -2.34002657234668730000e-002) (77, 1.86489277984946970000e-003) (78, 1.11303597688674930000e-001) (79, 8.09503048658370970000e-002) (80, -3.79443801939487460000e-002) (81, -3.11525631695985790000e-002) (82, -8.06220844388008120000e-002) (83, 4.64430600404739380000e-002) (84, -4.71985302865505220000e-002) (0, 5.03700263798236850000e-002) (1, -9.86645892262458800000e-002) (2, -7.41335153579711910000e-002) (3, 7.91812166571617130000e-002) (4, -7.91354943066835400000e-003) (5, -6.16441592574119570000e-002) (6, 1.10716074705123900000e-001) (7, 1.55308768153190610000e-001) (8, -9.14570875465869900000e-003) (9, -8.35145562887191770000e-002) (10, -5.85380382835865020000e-002) (11, 6.94182217121124270000e-002) (12, 3.49779762327671050000e-002) (13, -9.53873321413993840000e-002) (14, 9.18029546737670900000e-002) (15, -6.50688260793685910000e-002) (16, -1.62287920713424680000e-001) (17, -9.57096293568611150000e-002) (18, 7.14529119431972500000e-003) (19, 4.18991548940539360000e-003) (20, -2.46712174266576770000e-002) (21, 2.11277157068252560000e-002) (22, 7.05670043826103210000e-002) (23, 1.57011661212891340000e-003) (24, -6.93517476320266720000e-002) (25, 4.19933237135410310000e-002) (26, 7.06752017140388490000e-002) (27, -7.10768345743417740000e-003) (28, 4.47253622114658360000e-002) (29, 9.57433879375457760000e-002) (30, -1.00009560585021970000e-001) (31, -9.73219797015190120000e-002) (32, 1.20034530758857730000e-001) (33, 1.28670502454042430000e-002) (34, -2.19470396637916560000e-001) (35, -1.00898057222366330000e-001) (36, 1.19205266237258910000e-001) (37, 3.43612208962440490000e-002) (38, 5.49535304307937620000e-002) (39, 9.08783748745918270000e-002) (40, 3.15430760383605960000e-002) (41, 1.25284016132354740000e-001) (42, -7.92127251625061040000e-002) (43, -1.20635263621807100000e-001) (44, -1.04783989489078520000e-001) (45, -6.08604624867439270000e-002) (46, -7.25418999791145320000e-002) (47, -6.12952164374291900000e-004) (48, 8.57250094413757320000e-002) (49, 1.28915891051292420000e-001) (50, 1.95585414767265320000e-002) (51, -4.16462942957878110000e-002) (52, -2.99773123115301130000e-002) (53, -2.55466755479574200000e-002) (54, -7.17611461877822880000e-002) (55, -1.01664617657661440000e-001) (56, -7.06741735339164730000e-002) (57, 5.90380467474460600000e-002) (58, 3.83261628448963170000e-002) (59, 9.82959195971488950000e-002) (60, -1.19101688265800480000e-001) (61, -1.08995757997035980000e-001) (62, 9.38420519232749940000e-002) (63, 1.67680248618125920000e-001) (64, -6.11414723098278050000e-002) (65, 3.37542570196092130000e-003) (66, 4.75947046652436260000e-003) (67, 6.62712380290031430000e-002) (68, 2.46373042464256290000e-002) (69, 1.06900848448276520000e-001) (70, 5.55948354303836820000e-002) (71, 1.26790627837181090000e-001) (72, -8.16921964287757870000e-002) (73, -3.63465212285518650000e-002) (74, 4.18131239712238310000e-002) (75, 2.56722103804349900000e-002) (76, -1.37815654277801510000e-001) (77, -1.44702315330505370000e-001) (78, 2.59584318846464160000e-002) (79, 8.20505842566490170000e-002) (80, -3.71242724359035490000e-002) (81, 4.90741152316331860000e-003) (82, 5.13010099530220030000e-002) (83, 1.12731076776981350000e-001) (84, -4.84997266903519630000e-003) (0, -1.69481635093688960000e-001) (1, -2.62039303779602050000e-001) (2, -2.92401403188705440000e-001) (3, -3.03822979331016540000e-002) (4, -1.07596181333065030000e-001) (5, 1.84618547558784480000e-001) (6, -1.68762072920799260000e-001) (7, 4.00993935763835910000e-002) (8, -8.51160138845443730000e-002) (9, 2.09000349044799800000e-001) (10, -2.04531475901603700000e-001) (11, 3.92539836466312410000e-002) (12, -1.76938474178314210000e-001) (13, -2.57424771785736080000e-001) (14, 1.06194272637367250000e-001) (15, 2.17933043837547300000e-001) (16, 9.38061624765396120000e-002) (17, 2.82406210899353030000e-001) (18, -8.21974873542785640000e-002) (19, 4.84227165579795840000e-002) (20, -1.23540669679641720000e-001) (21, 6.15007989108562470000e-002) (22, -4.02648523449897770000e-002) (23, 4.93231862783432010000e-002) (24, 4.32363003492355350000e-002) (25, 2.29051843285560610000e-001) (26, 1.21654227375984190000e-001) (27, 1.69963657855987550000e-001) (28, -5.53992055356502530000e-002) (29, 1.78666815161705020000e-001) (30, -1.21481105685234070000e-001) (31, 1.62103503942489620000e-001) (32, -8.09430480003356930000e-002) (33, 8.78515243530273440000e-002) (34, 8.53400118649005890000e-003) (35, 1.21237576007843020000e-001) (36, -1.13530434668064120000e-001) (37, 4.46343272924423220000e-002) (38, -1.43599256873130800000e-001) (39, 1.05156593024730680000e-001) (40, -6.36068508028984070000e-002) (41, 1.30157500505447390000e-001) (42, 3.69658949784934520000e-003) (43, 1.75822362303733830000e-001) (44, -1.23228468000888820000e-001) (45, 1.13846488296985630000e-001) (46, 2.63174250721931460000e-002) (47, 8.58589112758636470000e-002) (48, -1.86439827084541320000e-001) (49, -6.90174847841262820000e-002) (50, 3.04344855248928070000e-002) (51, 1.24570734798908230000e-001) (52, -1.38937175273895260000e-001) (53, 9.60946530103683470000e-002) (54, -2.30237804353237150000e-002) (55, 1.73428446054458620000e-001) (56, -1.23728968203067780000e-001) (57, -1.07989925891160960000e-002) (58, -8.65154340863227840000e-002) (59, 3.67001444101333620000e-002) (60, -6.76841065287590030000e-002) (61, 1.04549050331115720000e-001) (62, -5.58590749278664590000e-003) (63, 9.22269970178604130000e-002) (64, -1.17485195398330690000e-001) (65, 3.42656075954437260000e-002) (66, -1.20102494955062870000e-001) (67, 2.30628177523612980000e-002) (68, -1.39427796006202700000e-001) (69, -7.11795920506119730000e-003) (70, -1.09186917543411250000e-001) (71, 4.31411750614643100000e-002) (72, -3.54513414204120640000e-002) (73, 7.95526951551437380000e-002) (74, -8.95917266607284550000e-002) (75, 4.74343821406364440000e-002) (76, 2.09054518491029740000e-002) (77, 8.86249914765357970000e-002) (78, -9.00145322084426880000e-002) (79, 2.84445155411958690000e-002) (80, -4.90980073809623720000e-002) (81, 7.11787566542625430000e-002) (82, -1.09769478440284730000e-001) (83, 4.52673025429248810000e-002) (84, -9.65296626091003420000e-002) (0, 1.42668694257736210000e-001) (1, -5.44325470924377440000e-001) (2, 2.85041362047195430000e-001) (3, -8.94513964653015140000e-001) (4, -8.89552757143974300000e-002) (5, -8.36483061313629150000e-001) (6, 8.30793473869562150000e-003) (7, 2.57977098226547240000e-001) (8, -7.04396888613700870000e-002) (9, -8.41705441474914550000e-001) (10, 2.67847329378128050000e-001) (11, -9.00522053241729740000e-001) (12, 1.56284064054489140000e-001) (13, -5.49372196197509770000e-001) (14, 7.10011553019285200000e-003) (15, -4.78748023509979250000e-001) (16, 2.52322647720575330000e-002) (17, -2.41766050457954410000e-001) (18, -9.13516804575920100000e-002) (19, -1.12702436745166780000e-001) (20, -7.05601796507835390000e-002) (21, 2.27492690086364750000e-001) (22, -1.06521077454090120000e-001) (23, -1.25921845436096190000e-001) (24, 2.92029958218336110000e-002) (25, -2.31484308838844300000e-001) (26, -1.23252175399102270000e-004) (27, -4.67924892902374270000e-001) (28, 1.50630949065089230000e-002) (29, -3.35613906383514400000e-001) (30, -3.82719874382019040000e-001) (31, 6.28734111785888670000e-001) (32, -2.51415669918060300000e-001) (33, -1.48631796240806580000e-001) (34, -1.28609001636505130000e-001) (35, 5.71553766727447510000e-001) (36, -2.47430577874183650000e-001) (37, -1.50067478418350220000e-001) (38, -3.89397412538528440000e-001) (39, 6.28925085067749020000e-001) (40, 2.71677114069461820000e-002) (41, -3.50727558135986330000e-001) (42, -3.30552816390991210000e-001) (43, -1.56345009803771970000e-001) (44, -1.43824860453605650000e-001) (45, 9.24106001853942870000e-001) (46, -3.44348043203353880000e-001) (47, 4.17271628975868230000e-002) (48, -3.38856101036071780000e-001) (49, 3.13592582941055300000e-001) (50, -3.41939777135849000000e-001) (51, -2.87376315100118520000e-004) (52, -1.43438413739204410000e-001) (53, 9.31372582912445070000e-001) (54, -3.56018483638763430000e-001) (55, -1.46060943603515630000e-001) (56, -7.88879171013832090000e-002) (57, 9.71418172121047970000e-002) (58, -3.22009772062301640000e-001) (59, 1.57845914363861080000e-001) (60, -9.68333557248115540000e-002) (61, 2.36381784081459050000e-001) (62, -2.32617497444152830000e-001) (63, 1.97281777858734130000e-001) (64, -1.22242696583271030000e-001) (65, 2.39574521780014040000e-001) (66, -3.12587201595306400000e-001) (67, 1.67424887418746950000e-001) (68, -6.25920221209526060000e-002) (69, 9.14081037044525150000e-002) (70, -1.43322676420211790000e-001) (71, 3.64485204219818120000e-001) (72, -1.45258437842130660000e-002) (73, 3.41986238956451420000e-001) (74, 1.44768571481108670000e-002) (75, 6.52314782142639160000e-001) (76, 3.85293304920196530000e-001) (77, 8.68780016899108890000e-001) (78, 3.79316462203860280000e-003) (79, 6.34226024150848390000e-001) (80, -1.05223152786493300000e-002) (81, 3.51629406213760380000e-001) (82, -1.36158525943756100000e-001) (83, 3.65737050771713260000e-001) (84, -1.16458392143249510000e+000) (0, 4.64557595551013950000e-002) (1, 1.44134983420372010000e-001) (2, -8.98266583681106570000e-002) (3, -4.04936112463474270000e-002) (4, -1.00803472101688390000e-001) (5, 2.08495091646909710000e-002) (6, -1.56742796301841740000e-001) (7, -2.91550066322088240000e-002) (8, -9.71825867891311650000e-002) (9, -3.96045856177806850000e-002) (10, -6.32547512650489810000e-002) (11, -9.56042483448982240000e-002) (12, 1.11452052369713780000e-002) (13, 1.40868008136749270000e-001) (14, -1.44443213939666750000e-001) (15, 2.25926294922828670000e-001) (16, 2.55868886597454550000e-003) (17, 1.62859573960304260000e-001) (18, 5.30107617378234860000e-002) (19, 1.51635825634002690000e-001) (20, -6.62320330739021300000e-002) (21, 1.92024543881416320000e-001) (22, -5.45580796897411350000e-002) (23, 1.63069874048233030000e-001) (24, 2.58983038365840910000e-002) (25, 2.30276465415954590000e-001) (26, -4.70745041966438290000e-002) (27, 2.37235426902771000000e-001) (28, -1.25571250915527340000e-001) (29, 1.69584065675735470000e-001) (30, -3.18368971347808840000e-001) (31, 2.44822073727846150000e-002) (32, -2.27226063609123230000e-001) (33, -1.11410804092884060000e-002) (34, -3.36435854434967040000e-001) (35, -1.96699976921081540000e-001) (36, -2.18281641602516170000e-001) (37, -2.57883779704570770000e-002) (38, -3.16953510046005250000e-001) (39, -2.85021588206291200000e-002) (40, -1.13602891564369200000e-001) (41, 1.83437764644622800000e-001) (42, 1.23981735669076440000e-003) (43, 1.73656210303306580000e-001) (44, -2.54786983132362370000e-002) (45, 1.82248696684837340000e-001) (46, -2.72611137479543690000e-002) (47, 1.32976889610290530000e-001) (48, 1.25722706317901610000e-001) (49, 2.98740297555923460000e-001) (50, -8.47860425710678100000e-002) (51, 1.34476631879806520000e-001) (52, -4.68762852251529690000e-002) (53, 1.83691307902336120000e-001) (54, -2.87379026412963870000e-002) (55, 1.03673577308654790000e-001) (56, -1.40272006392478940000e-001) (57, 1.43249807879328730000e-002) (58, 1.18045732378959660000e-002) (59, 1.50170162320137020000e-001) (60, -5.72312958538532260000e-002) (61, 1.69287458062171940000e-001) (62, 2.35238950699567790000e-003) (63, 1.01747453212738040000e-001) (64, -4.83170114457607270000e-002) (65, 1.66664689779281620000e-001) (66, -5.78469410538673400000e-003) (67, 1.81313425302505490000e-001) (68, -1.80381417274475100000e-001) (69, -1.00738406181335450000e-002) (70, -1.72564074397087100000e-001) (71, 4.17354479432106020000e-002) (72, -1.31756022572517400000e-001) (73, 7.54505619406700130000e-002) (74, -2.46473759412765500000e-001) (75, 9.96533781290054320000e-003) (76, -6.34929090738296510000e-002) (77, 1.32549816044047470000e-004) (78, -2.22580462694168090000e-001) (79, -2.33375988900661470000e-002) (80, -9.70368385314941410000e-002) (81, 8.20178911089897160000e-002) (82, -1.54542565345764160000e-001) (83, 6.00506318733096120000e-003) (84, 4.37415242195129390000e-002) (0, 1.89514070749282840000e-001) (1, 9.99201163649559020000e-002) (2, 2.21831128001213070000e-001) (3, 3.79291951656341550000e-001) (4, -9.94257330894470210000e-002) (5, -8.54916498064994810000e-002) (6, -4.26047801971435550000e-001) (7, 3.54750566184520720000e-002) (8, -1.10142387449741360000e-001) (9, -7.42960497736930850000e-002) (10, 2.07791849970817570000e-001) (11, 3.60476166009902950000e-001) (12, 1.92721888422966000000e-001) (13, 1.15988783538341520000e-001) (14, -2.54145450890064240000e-002) (15, 2.05191910266876220000e-001) (16, 2.12787780910730360000e-002) (17, 1.75154149532318120000e-001) (18, -3.47701698541641240000e-001) (19, 2.88441758602857590000e-002) (20, -7.70514383912086490000e-002) (21, 1.40877917408943180000e-001) (22, -3.30467104911804200000e-001) (23, 1.66192743927240370000e-002) (24, 3.42105813324451450000e-002) (25, 1.63502424955368040000e-001) (26, -2.27582715451717380000e-002) (27, 1.87646120786666870000e-001) (28, -2.02300593256950380000e-001) (29, -1.71164065599441530000e-001) (30, -1.15530014038085940000e-001) (31, -7.27796927094459530000e-002) (32, -1.38425990939140320000e-001) (33, -3.10134422034025190000e-003) (34, -6.58919438719749450000e-002) (35, -9.79629755020141600000e-002) (36, -1.46302238106727600000e-001) (37, 5.45521778985857960000e-003) (38, -8.99030119180679320000e-002) (39, -9.70740914344787600000e-002) (40, -2.09978029131889340000e-001) (41, -1.80012896656990050000e-001) (42, -1.62238270044326780000e-001) (43, -1.33224232122302060000e-002) (44, -7.23740309476852420000e-002) (45, 3.92061471939086910000e-002) (46, 5.69105846807360650000e-003) (47, -6.91790357232093810000e-002) (48, 4.92719002068042760000e-002) (49, 1.66112333536148070000e-001) (50, -1.74025278538465500000e-002) (51, -4.01410721242427830000e-002) (52, -7.84105360507965090000e-002) (53, 4.32273894548416140000e-002) (54, -1.75932228565216060000e-001) (55, -1.06130093336105350000e-002) (56, -1.19396317750215530000e-002) (57, 8.95206630229949950000e-002) (58, 8.41469690203666690000e-003) (59, -4.09566313028335570000e-002) (60, 1.10679343342781070000e-001) (61, 2.39032022655010220000e-002) (62, 2.64669619500637050000e-002) (63, -2.16034799814224240000e-001) (64, 1.29743769764900210000e-001) (65, 3.81122902035713200000e-002) (66, 2.41303574293851850000e-002) (67, -7.29398354887962340000e-002) (68, -8.28511174768209460000e-003) (69, 1.12588845193386080000e-001) (70, -2.58024353533983230000e-002) (71, 4.81291934847831730000e-002) (72, 1.32293477654457090000e-001) (73, 1.18582285940647130000e-001) (74, 1.61315158009529110000e-001) (75, 8.13705250620841980000e-002) (76, 4.66837197542190550000e-001) (77, 5.77898085117340090000e-001) (78, 1.49951919913291930000e-001) (79, 7.86392241716384890000e-002) (80, 1.26984432339668270000e-001) (81, 1.38127222657203670000e-001) (82, -3.78162786364555360000e-002) (83, 5.11511564254760740000e-002) (84, -6.64104044437408450000e-001) (0, 5.24846196174621580000e-001) (1, -1.08816838264465330000e+000) (2, 3.74526172876358030000e-001) (3, -7.01418101787567140000e-001) (4, 1.24143259599804880000e-002) (5, -5.01343011856079100000e-002) (6, 1.76382035017013550000e-001) (7, 7.97818452119827270000e-002) (8, 7.60847143828868870000e-003) (9, -5.46494424343109130000e-001) (10, 7.05762282013893130000e-002) (11, -3.33312213420867920000e-001) (12, 4.93604809045791630000e-001) (13, -6.56686425209045410000e-001) (14, 2.44666889309883120000e-001) (15, -4.58925783634185790000e-001) (16, 7.66652151942253110000e-002) (17, -3.13062742352485660000e-002) (18, -9.14917066693305970000e-002) (19, 1.83446854352951050000e-001) (20, -1.84028238058090210000e-001) (21, 1.38162761926651000000e-001) (22, 4.93033856153488160000e-001) (23, 1.13046057522296910000e-001) (24, -9.44406241178512570000e-002) (25, -8.03139060735702510000e-002) (26, 3.49757999181747440000e-001) (27, -1.77971854805946350000e-001) (28, -3.99022251367568970000e-002) (29, 3.31005215644836430000e-001) (30, -1.77775904536247250000e-001) (31, 5.49189269542694090000e-001) (32, -2.24531009793281560000e-001) (33, 2.17412248253822330000e-001) (34, -3.40492516756057740000e-001) (35, 4.73328381776809690000e-001) (36, -2.19054251909255980000e-001) (37, 3.33927690982818600000e-001) (38, 9.46296229958534240000e-002) (39, 3.14577519893646240000e-001) (40, 4.31522220373153690000e-001) (41, 7.93918743729591370000e-002) (42, -3.70438694953918460000e-001) (43, 1.82929620146751400000e-001) (44, -4.46054190397262570000e-001) (45, -5.23078702390193940000e-002) (46, -5.69500684738159180000e-001) (47, 3.63666057586669920000e-001) (48, -3.60371738672256470000e-001) (49, 1.93842336535453800000e-001) (50, -1.50026500225067140000e-001) (51, 1.36344015598297120000e-001) (52, -6.69627368450164790000e-001) (53, -1.13088339567184450000e-001) (54, 4.44030202925205230000e-002) (55, -4.89329956471920010000e-002) (56, -2.49546878039836880000e-002) (57, -1.59166052937507630000e-001) (58, -3.11920017004013060000e-001) (59, 5.59877514839172360000e-001) (60, 1.80922038853168490000e-002) (61, -1.34883880615234380000e-001) (62, -1.70455828309059140000e-001) (63, 7.82120674848556520000e-002) (64, -2.57988095283508300000e-001) (65, 5.18245160579681400000e-001) (66, 2.86615848541259770000e-001) (67, 2.27309186011552810000e-002) (68, 1.14697873592376710000e-001) (69, 1.28208640962839130000e-002) (70, 2.96281009912490840000e-001) (71, -6.86788141727447510000e-001) (72, 1.17273017764091490000e-001) (73, -5.61134636402130130000e-001) (74, -5.12503564357757570000e-001) (75, 2.04931378364562990000e+000) (76, -3.48193615674972530000e-001) (77, 7.18645751476287840000e-001) (78, 3.63687425851821900000e-001) (79, -1.30906236171722410000e+000) (80, -3.86046111583709720000e-001) (81, 1.07158637046813960000e+000) (82, -5.87289571762084960000e-001) (83, 9.39237654209136960000e-001) (84, -3.96719425916671750000e-001) (0, -2.33386680483818050000e-002) (1, -4.14383504539728160000e-003) (2, 1.00472219288349150000e-001) (3, 4.76538315415382390000e-002) (4, -1.58887192606925960000e-001) (5, -1.71748384833335880000e-001) (6, 9.58961714059114460000e-003) (7, 1.70432869344949720000e-002) (8, -1.09605796635150910000e-001) (9, -2.11198806762695310000e-001) (10, 3.34019698202610020000e-002) (11, 4.34573478996753690000e-002) (12, 3.07055190205574040000e-002) (13, 1.18901319801807400000e-002) (14, -1.78299695253372190000e-001) (15, 9.51079353690147400000e-002) (16, 4.96587194502353670000e-002) (17, 1.92124679684638980000e-001) (18, -4.07964810729026790000e-002) (19, 4.80579352006316180000e-003) (20, 5.35210892558097840000e-002) (21, 9.20463874936103820000e-002) (22, -4.95346859097480770000e-002) (23, 9.16524752974510190000e-002) (24, 4.49051596224308010000e-002) (25, 2.08142593502998350000e-001) (26, -1.42769038677215580000e-001) (27, 1.05002753436565400000e-001) (28, 5.87858036160469060000e-002) (29, 2.00398698449134830000e-001) (30, -1.66781634092330930000e-001) (31, -5.83358295261859890000e-002) (32, 1.47638050839304920000e-002) (33, 1.04373678565025330000e-001) (34, -8.17381963133811950000e-002) (35, -2.46817786246538160000e-002) (36, 5.82376234233379360000e-002) (37, 1.24103903770446780000e-001) (38, -1.88303679227828980000e-001) (39, -1.32905775681138040000e-002) (40, -6.29899045452475550000e-003) (41, 2.75169461965560910000e-001) (42, -2.10493505001068120000e-001) (43, -1.34994000196456910000e-001) (44, -7.76842609047889710000e-002) (45, -3.90128679573535920000e-002) (46, -2.17220604419708250000e-001) (47, -1.10450282692909240000e-001) (48, -1.00563503801822660000e-001) (49, -1.78212448954582210000e-002) (50, -2.07131609320640560000e-001) (51, -1.43984764814376830000e-001) (52, -1.13889403641223910000e-001) (53, 8.23328178375959400000e-003) (54, -3.30426186323165890000e-001) (55, -1.42676487565040590000e-001) (56, -1.64207778871059420000e-002) (57, 1.44740805029869080000e-001) (58, -2.32341885566711430000e-002) (59, 4.13343869149684910000e-002) (60, 2.79216729104518890000e-002) (61, 1.09507128596305850000e-001) (62, 1.38923451304435730000e-002) (63, 7.31801912188529970000e-002) (64, -7.84680433571338650000e-003) (65, 8.72728377580642700000e-002) (66, 5.02510555088520050000e-003) (67, 1.16082713007926940000e-001) (68, -7.78609663248062130000e-002) (69, 1.01311177015304570000e-001) (70, -4.07236441969871520000e-002) (71, 9.65433940291404720000e-002) (72, -4.62712384760379790000e-002) (73, 4.80138137936592100000e-002) (74, 1.88805777579545970000e-002) (75, 1.02137401700019840000e-001) (76, -1.80889258626848460000e-003) (77, 5.76092861592769620000e-002) (78, -3.44336335547268390000e-003) (79, 5.72815723717212680000e-002) (80, -2.18433421105146410000e-002) (81, -1.61889698356390000000e-002) (82, -5.91174811124801640000e-002) (83, 8.12715440988540650000e-002) (84, 3.21993604302406310000e-002) (0, 5.91209195554256440000e-002) (1, -2.81931430101394650000e-001) (2, -1.34910732507705690000e-001) (3, -5.98016977310180660000e-002) (4, 3.00076953135430810000e-003) (5, -1.06749638915061950000e-001) (6, 6.44660294055938720000e-002) (7, -5.76854124665260310000e-002) (8, -7.11241364479064940000e-002) (9, -7.52376988530159000000e-002) (10, -1.52258947491645810000e-001) (11, -1.69663988053798680000e-002) (12, 1.66382398456335070000e-002) (13, -2.34107822179794310000e-001) (14, 2.99494117498397830000e-001) (15, 2.08294019103050230000e-002) (16, 2.05307066440582280000e-001) (17, -2.35273107886314390000e-001) (18, 7.97940790653228760000e-002) (19, -3.91889996826648710000e-002) (20, 1.11310988664627080000e-001) (21, -6.31947964429855350000e-002) (22, 1.48917242884635930000e-001) (23, -6.30124732851982120000e-002) (24, 1.82058766484260560000e-001) (25, -1.41393959522247310000e-001) (26, 2.21405103802680970000e-001) (27, 5.07918037474155430000e-002) (28, -1.47692292928695680000e-001) (29, -2.54776209592819210000e-001) (30, 4.17984798550605770000e-002) (31, -2.06713959574699400000e-001) (32, -3.06414723396301270000e-001) (33, -1.78289026021957400000e-001) (34, -1.12172566354274750000e-001) (35, -2.75598950684070590000e-002) (36, -2.67048984766006470000e-001) (37, -1.59603968262672420000e-001) (38, 7.72298797965049740000e-002) (39, -1.23871527612209320000e-001) (40, -1.33656561374664310000e-001) (41, -3.00322800874710080000e-001) (42, 2.44680553674697880000e-001) (43, 1.71230852603912350000e-001) (44, 2.72278077900409700000e-002) (45, -6.27781078219413760000e-002) (46, -7.33227804303169250000e-002) (47, 1.47212848067283630000e-001) (48, 1.30994603037834170000e-001) (49, 1.07342749834060670000e-001) (50, 2.90753338485956190000e-002) (51, 6.63581714034080510000e-002) (52, 1.05251789093017580000e-001) (53, -9.30891782045364380000e-002) (54, 1.60922244191169740000e-001) (55, 2.27739244699478150000e-001) (56, 8.02431926131248470000e-002) (57, 1.79143697023391720000e-002) (58, 9.37864824663847680000e-004) (59, -2.17352304607629780000e-002) (60, -5.45895844697952270000e-002) (61, -1.03671543300151820000e-001) (62, -1.31656304001808170000e-001) (63, -7.53179937601089480000e-002) (64, -2.08377707749605180000e-002) (65, 3.19154635071754460000e-002) (66, -1.67396035976707940000e-003) (67, -1.43856396898627280000e-002) (68, 1.45922794938087460000e-001) (69, -5.26161789894104000000e-002) (70, 2.18090694397687910000e-002) (71, -1.54271468520164490000e-001) (72, 5.01959621906280520000e-002) (73, -3.77726089209318160000e-003) (74, 1.06403283774852750000e-001) (75, 2.44462601840496060000e-002) (76, 8.01947861909866330000e-002) (77, -3.57715450227260590000e-002) (78, 9.50073078274726870000e-002) (79, 1.35864421725273130000e-001) (80, 1.28927752375602720000e-001) (81, 2.29241419583559040000e-002) (82, 1.15784946829080580000e-002) (83, -5.74063472449779510000e-002) (84, -1.14778511226177220000e-001) (0, 6.02382123470306400000e-002) (1, 5.74154078960418700000e-001) (2, -1.74540132284164430000e-001) (3, 4.72869366407394410000e-001) (4, -7.74241015315055850000e-002) (5, 3.88758063316345210000e-001) (6, -2.67018705606460570000e-001) (7, 1.76505327224731450000e-001) (8, -1.34106278419494630000e-001) (9, 8.51087331771850590000e-001) (10, -6.33815005421638490000e-002) (11, 1.16362005472183230000e-001) (12, -5.22069111466407780000e-002) (13, 5.01774430274963380000e-001) (14, -1.48006513714790340000e-001) (15, 5.19762694835662840000e-001) (16, -1.64779812097549440000e-001) (17, 6.98641538619995120000e-002) (18, -1.68260514736175540000e-001) (19, -1.84719443321228030000e-001) (20, -7.60409981012344360000e-002) (21, -9.48647335171699520000e-002) (22, -1.14626258611679080000e-001) (23, 2.88373917341232300000e-001) (24, 1.03640981018543240000e-001) (25, -7.38485306501388550000e-002) (26, 7.13523775339126590000e-002) (27, 6.45225346088409420000e-002) (28, 9.08113867044448850000e-002) (29, -3.59851792454719540000e-002) (30, -9.89127457141876220000e-002) (31, -1.54166921973228450000e-001) (32, -2.36547708511352540000e-001) (33, -6.08853459358215330000e-001) (34, 9.85472798347473140000e-002) (35, 8.73008668422698970000e-002) (36, 3.72188419103622440000e-001) (37, -1.85448169708251950000e-001) (38, 1.08046427369117740000e-001) (39, -1.14179313182830810000e-001) (40, -1.18538662791252140000e-001) (41, -8.85727163404226300000e-003) (42, 2.37469837069511410000e-001) (43, 4.00139898061752320000e-001) (44, 3.43614310026168820000e-001) (45, 4.72300983965396880000e-002) (46, -3.58645737171173100000e-001) (47, -1.03116774559021000000e+000) (48, -4.23413179814815520000e-002) (49, -2.81487047672271730000e-001) (50, 1.39962062239646910000e-001) (51, 5.71460664272308350000e-001) (52, 2.55123585462570190000e-001) (53, -7.92965143918991090000e-002) (54, 1.77598237991333010000e-001) (55, 1.18536353111267090000e-001) (56, 3.37174952030181880000e-001) (57, 1.38587802648544310000e-001) (58, 4.79378700256347660000e-002) (59, 1.80346474051475520000e-001) (60, -6.71126186847686770000e-001) (61, -7.92009651660919190000e-001) (62, 1.54867976903915410000e-001) (63, -8.49271118640899660000e-002) (64, 8.04826855659484860000e-001) (65, 7.23492145538330080000e-001) (66, -1.13144129514694210000e-001) (67, -1.85215353965759280000e-001) (68, -1.95427030324935910000e-001) (69, 1.07274636626243590000e-001) (70, 4.59535896778106690000e-001) (71, -1.00606363266706470000e-002) (72, 5.05613088607788090000e-001) (73, -8.30348208546638490000e-003) (74, -6.63821220397949220000e-001) (75, -2.35071510076522830000e-001) (76, 3.45442891120910640000e-002) (77, -2.85929143428802490000e-001) (78, 9.94652986526489260000e-001) (79, 2.39747226238250730000e-001) (80, -2.18741819262504580000e-001) (81, -7.35617578029632570000e-002) (82, -3.77560615539550780000e-001) (83, 3.04444301873445510000e-002) (84, -1.87950223684310910000e-001) (0, 2.48957909643650050000e-002) (1, 2.06365570425987240000e-001) (2, 1.70293346047401430000e-001) (3, -5.03829047083854680000e-002) (4, 4.91273738443851470000e-002) (5, 6.23616389930248260000e-002) (6, 2.89586354047060010000e-002) (7, 4.76243421435356140000e-002) (8, 4.46957200765609740000e-002) (9, 1.23536288738250730000e-001) (10, 1.85278058052062990000e-001) (11, -1.29022017121315000000e-001) (12, -5.42173453141003850000e-004) (13, 4.85849380493164060000e-002) (14, -4.80236709117889400000e-002) (15, -2.83945705741643910000e-002) (16, -1.44336014986038210000e-001) (17, -5.84102235734462740000e-002) (18, -9.90910753607749940000e-002) (19, 2.44181342422962190000e-002) (20, -1.61197647452354430000e-001) (21, -6.06503561139106750000e-002) (22, -5.38951903581619260000e-002) (23, 1.24846128746867180000e-002) (24, -1.47099941968917850000e-001) (25, -5.56330978870391850000e-002) (26, -1.66973009705543520000e-001) (27, -7.59884119033813480000e-002) (28, -1.48445576429367070000e-001) (29, -4.62527349591255190000e-002) (30, 1.86640292406082150000e-001) (31, 1.77553668618202210000e-001) (32, 9.76203605532646180000e-002) (33, 1.20508715510368350000e-001) (34, -9.15430635213851930000e-002) (35, -1.28604099154472350000e-001) (36, -4.76688100025057790000e-003) (37, 7.62575194239616390000e-002) (38, 1.45554438233375550000e-001) (39, 2.22916513681411740000e-001) (40, -1.61860063672065730000e-001) (41, -1.12088233232498170000e-001) (42, 1.74645438790321350000e-001) (43, 6.11681304872035980000e-002) (44, -1.25750452280044560000e-001) (45, -1.14023290574550630000e-001) (46, -1.37362167239189150000e-001) (47, -7.68888443708419800000e-002) (48, 2.28042796254158020000e-001) (49, 2.68619656562805180000e-001) (50, -1.55668988823890690000e-001) (51, -8.84766131639480590000e-002) (52, -8.24944823980331420000e-002) (53, -7.50208795070648190000e-002) (54, 3.84317338466644290000e-002) (55, 6.49843811988830570000e-002) (56, -1.96621417999267580000e-002) (57, 2.84112077206373210000e-002) (58, 6.17737732827663420000e-002) (59, 4.64526675641536710000e-002) (60, 8.65153968334198000000e-002) (61, 9.40514951944351200000e-002) (62, -6.54984563589096070000e-002) (63, -6.42473772168159480000e-002) (64, 6.06495253741741180000e-002) (65, 9.30220037698745730000e-002) (66, 1.30945527926087380000e-002) (67, 2.74868682026863100000e-002) (68, 1.36019696947187190000e-003) (69, 3.05095850490033630000e-003) (70, 1.09075620770454410000e-001) (71, 1.04978740215301510000e-001) (72, -5.96269220113754270000e-002) (73, -1.85441318899393080000e-002) (74, -1.44026950001716610000e-001) (75, -8.57482179999351500000e-002) (76, 1.92317329347133640000e-002) (77, 7.15754330158233640000e-002) (78, -8.82650017738342290000e-002) (79, -9.75677222013473510000e-002) (80, -4.08500842750072480000e-002) (81, -3.93865332007408140000e-002) (82, -2.81962193548679350000e-002) (83, 6.07220642268657680000e-002) (84, -1.78713221102952960000e-002) (0, -3.90403956174850460000e-001) (1, 2.97991126775741580000e-001) (2, 9.45449173450469970000e-002) (3, -2.31267347931861880000e-001) (4, 1.10806338489055630000e-001) (5, 3.32447998225688930000e-002) (6, -3.46671789884567260000e-002) (7, 6.63572698831558230000e-002) (8, 1.18465900421142580000e-001) (9, -4.07036542892456050000e-002) (10, 8.53439271450042720000e-002) (11, -2.17850521206855770000e-001) (12, -4.80887353420257570000e-001) (13, 2.86066532135009770000e-001) (14, -2.77535468339920040000e-001) (15, 4.63450029492378230000e-002) (16, 1.19144603610038760000e-001) (17, 4.02772247791290280000e-001) (18, 1.32129594683647160000e-001) (19, 5.48364445567131040000e-002) (20, -5.00121526420116420000e-002) (21, 5.31605221331119540000e-002) (22, 1.53303906321525570000e-001) (23, 1.08220852911472320000e-001) (24, 8.61771553754806520000e-002) (25, 3.80820095539093020000e-001) (26, -4.14297640323638920000e-001) (27, 4.06514331698417660000e-002) (28, -5.69198839366436000000e-002) (29, 2.46294781565666200000e-001) (30, -1.68964236974716190000e-001) (31, 7.08542615175247190000e-002) (32, -1.43203407526016240000e-001) (33, -1.42788499593734740000e-001) (34, -8.83190184831619260000e-002) (35, -1.06605708599090580000e-001) (36, -6.70676454901695250000e-002) (37, -1.26298397779464720000e-001) (38, -2.26504728198051450000e-001) (39, 4.13619838654994960000e-002) (40, -9.47121158242225650000e-002) (41, 1.54527872800827030000e-001) (42, 2.52260416746139530000e-002) (43, 4.15649972856044770000e-002) (44, -8.07876661419868470000e-002) (45, -9.89445596933364870000e-002) (46, 1.51625186204910280000e-001) (47, 2.31804940849542620000e-002) (48, -4.20396588742733000000e-002) (49, -7.39071564748883250000e-003) (50, 9.43453684449195860000e-002) (51, 3.43270376324653630000e-002) (52, -1.05904683470726010000e-001) (53, -8.23317095637321470000e-002) (54, 3.25019434094429020000e-002) (55, -2.13838182389736180000e-002) (56, -1.14094913005828860000e-001) (57, -3.79813276231288910000e-002) (58, 1.67162492871284480000e-002) (59, 9.09420102834701540000e-002) (60, 5.39636611938476560000e-002) (61, 1.02531090378761290000e-001) (62, 1.62065252661705020000e-001) (63, 2.36432969570159910000e-001) (64, 2.77639944106340410000e-002) (65, 2.67113093286752700000e-002) (66, 8.40965658426284790000e-003) (67, 6.44875764846801760000e-002) (68, -2.19208627939224240000e-001) (69, -4.00263927876949310000e-002) (70, 1.01448921486735340000e-002) (71, 1.66708201169967650000e-001) (72, -2.66970675438642500000e-002) (73, 1.45621802657842640000e-002) (74, -1.68283395469188690000e-002) (75, 3.87488827109336850000e-002) (76, -7.36626908183097840000e-002) (77, -5.79085238277912140000e-002) (78, -9.16554927825927730000e-002) (79, -4.69752363860607150000e-002) (80, -1.86430383473634720000e-002) (81, -4.27882466465234760000e-003) (82, 4.08364739269018170000e-003) (83, 1.50986284017562870000e-001) (84, -1.14880967885255810000e-002) (0, -7.82171636819839480000e-002) (1, -3.23678292334079740000e-002) (2, -3.07841628789901730000e-001) (3, 2.15009048581123350000e-001) (4, -1.76238849759101870000e-001) (5, 5.25853503495454790000e-003) (6, -2.92190641164779660000e-001) (7, -1.64234489202499390000e-001) (8, -1.79462984204292300000e-001) (9, 6.59750960767269130000e-003) (10, -2.39875912666320800000e-001) (11, 2.32447981834411620000e-001) (12, -8.29233601689338680000e-002) (13, -1.28758311271667480000e-001) (14, 1.55192121863365170000e-001) (15, 2.97627091407775880000e-001) (16, 4.67431657016277310000e-002) (17, -4.91206813603639600000e-003) (18, 2.76729054749011990000e-002) (19, 1.31084501743316650000e-001) (20, 2.54222095012664790000e-001) (21, 2.82319277524948120000e-001) (22, -1.97780635207891460000e-002) (23, 1.11275359988212590000e-001) (24, 1.55825734138488770000e-001) (25, 3.43804880976676940000e-002) (26, 1.75956889986991880000e-001) (27, 3.40159505605697630000e-001) (28, -8.72074738144874570000e-002) (29, 1.01526878774166110000e-001) (30, -1.14480882883071900000e-001) (31, 1.63341667503118520000e-002) (32, -1.98095902800560000000e-001) (33, -7.85436108708381650000e-002) (34, -1.41123577952384950000e-001) (35, -2.66187507659196850000e-002) (36, -1.77884116768836980000e-001) (37, -7.79993161559104920000e-002) (38, -4.06855121254920960000e-002) (39, 4.73468890413641930000e-003) (40, -1.67320314794778820000e-002) (41, 1.30261063575744630000e-001) (42, -2.82052159309387210000e-001) (43, -9.85389389097690580000e-003) (44, 2.35155060887336730000e-001) (45, 2.78321206569671630000e-001) (46, 5.61236636713147160000e-003) (47, 1.96601718664169310000e-001) (48, -7.04067200422286990000e-002) (49, 1.91382709890604020000e-002) (50, -2.35335286706686020000e-002) (51, 2.28322416543960570000e-001) (52, 2.60715514421463010000e-001) (53, 2.58429199457168580000e-001) (54, -1.71371966600418090000e-001) (55, 1.05825404170900580000e-003) (56, -9.90271568298339840000e-002) (57, -2.53349635750055310000e-002) (58, 