FANN_FLO_2.1
num_layers=3
learning_rate=0.500000
connection_rate=1.000000
network_type=0
learning_momentum=0.000000
training_algorithm=1
train_error_function=1
train_stop_function=0
cascade_output_change_fraction=0.010000
quickprop_decay=-0.000100
quickprop_mu=1.750000
rprop_increase_factor=1.200000
rprop_decrease_factor=0.500000
rprop_delta_min=0.000000
rprop_delta_max=50.000000
rprop_delta_zero=0.100000
cascade_output_stagnation_epochs=12
cascade_candidate_change_fraction=0.010000
cascade_candidate_stagnation_epochs=12
cascade_max_out_epochs=150
cascade_min_out_epochs=50
cascade_max_cand_epochs=150
cascade_min_cand_epochs=50
cascade_num_candidate_groups=2
bit_fail_limit=3.49999994039535520000e-001
cascade_candidate_limit=1.00000000000000000000e+003
cascade_weight_multiplier=4.00000005960464480000e-001
cascade_activation_functions_count=10
cascade_activation_functions=3 5 7 8 10 11 14 15 16 17 
cascade_activation_steepnesses_count=4
cascade_activation_steepnesses=2.50000000000000000000e-001 5.00000000000000000000e-001 7.50000000000000000000e-001 1.00000000000000000000e+000 
layer_sizes=85 81 2 
scale_included=0
neurons (num_inputs, activation_function, activation_steepness)=(0, 0, 0.00000000000000000000e+000) (0, 0, 0.00000000000000000000e+000) (0, 0, 0.00000000000000000000e+000) (0, 0, 0.00000000000000000000e+000) (0, 0, 0.00000000000000000000e+000) (0, 0, 0.00000000000000000000e+000) (0, 0, 0.00000000000000000000e+000) (0, 0, 0.00000000000000000000e+000) (0, 0, 0.00000000000000000000e+000) (0, 0, 0.00000000000000000000e+000) (0, 0, 0.00000000000000000000e+000) (0, 0, 0.00000000000000000000e+000) (0, 0, 0.00000000000000000000e+000) (0, 0, 0.00000000000000000000e+000) (0, 0, 0.00000000000000000000e+000) (0, 0, 0.00000000000000000000e+000) (0, 0, 0.00000000000000000000e+000) (0, 0, 0.00000000000000000000e+000) (0, 0, 0.00000000000000000000e+000) (0, 0, 0.00000000000000000000e+000) (0, 0, 0.00000000000000000000e+000) (0, 0, 0.00000000000000000000e+000) (0, 0, 0.00000000000000000000e+000) (0, 0, 0.00000000000000000000e+000) (0, 0, 0.00000000000000000000e+000) (0, 0, 0.00000000000000000000e+000) (0, 0, 0.00000000000000000000e+000) (0, 0, 0.00000000000000000000e+000) (0, 0, 0.00000000000000000000e+000) (0, 0, 0.00000000000000000000e+000) (0, 0, 0.00000000000000000000e+000) (0, 0, 0.00000000000000000000e+000) (0, 0, 0.00000000000000000000e+000) (0, 0, 0.00000000000000000000e+000) (0, 0, 0.00000000000000000000e+000) (0, 0, 0.00000000000000000000e+000) (0, 0, 0.00000000000000000000e+000) (0, 0, 0.00000000000000000000e+000) (0, 0, 0.00000000000000000000e+000) (0, 0, 0.00000000000000000000e+000) (0, 0, 0.00000000000000000000e+000) (0, 0, 0.00000000000000000000e+000) (0, 0, 0.00000000000000000000e+000) (0, 0, 0.00000000000000000000e+000) (0, 0, 0.00000000000000000000e+000) (0, 0, 0.00000000000000000000e+000) (0, 0, 0.00000000000000000000e+000) (0, 0, 0.00000000000000000000e+000) (0, 0, 0.00000000000000000000e+000) (0, 0, 0.00000000000000000000e+000) (0, 0, 0.00000000000000000000e+000) (0, 0, 0.00000000000000000000e+000) (0, 0, 0.00000000000000000000e+000) (0, 0, 0.00000000000000000000e+000) (0, 0, 0.00000000000000000000e+000) (0, 0, 0.00000000000000000000e+000) (0, 0, 0.00000000000000000000e+000) (0, 0, 0.00000000000000000000e+000) (0, 0, 0.00000000000000000000e+000) (0, 0, 0.00000000000000000000e+000) (0, 0, 0.00000000000000000000e+000) (0, 0, 0.00000000000000000000e+000) (0, 0, 0.00000000000000000000e+000) (0, 0, 0.00000000000000000000e+000) (0, 0, 0.00000000000000000000e+000) (0, 0, 0.00000000000000000000e+000) (0, 0, 0.00000000000000000000e+000) (0, 0, 0.00000000000000000000e+000) (0, 0, 0.00000000000000000000e+000) (0, 0, 0.00000000000000000000e+000) (0, 0, 0.00000000000000000000e+000) (0, 0, 0.00000000000000000000e+000) (0, 0, 0.00000000000000000000e+000) (0, 0, 0.00000000000000000000e+000) (0, 0, 0.00000000000000000000e+000) (0, 0, 0.00000000000000000000e+000) (0, 0, 0.00000000000000000000e+000) (0, 0, 0.00000000000000000000e+000) (0, 0, 0.00000000000000000000e+000) (0, 0, 0.00000000000000000000e+000) (0, 0, 0.00000000000000000000e+000) (0, 0, 0.00000000000000000000e+000) (0, 0, 0.00000000000000000000e+000) (0, 0, 0.00000000000000000000e+000) (0, 0, 0.00000000000000000000e+000) (85, 6, 1.00000000000000000000e+000) (85, 6, 1.00000000000000000000e+000) (85, 6, 1.00000000000000000000e+000) (85, 6, 1.00000000000000000000e+000) (85, 6, 1.00000000000000000000e+000) (85, 6, 1.00000000000000000000e+000) (85, 6, 1.00000000000000000000e+000) (85, 6, 1.00000000000000000000e+000) (85, 6, 1.00000000000000000000e+000) (85, 6, 1.00000000000000000000e+000) (85, 6, 1.00000000000000000000e+000) (85, 6, 1.00000000000000000000e+000) (85, 6, 1.00000000000000000000e+000) (85, 6, 1.00000000000000000000e+000) (85, 6, 1.00000000000000000000e+000) (85, 6, 1.00000000000000000000e+000) (85, 6, 1.00000000000000000000e+000) (85, 6, 1.00000000000000000000e+000) (85, 6, 1.00000000000000000000e+000) (85, 6, 1.00000000000000000000e+000) (85, 6, 1.00000000000000000000e+000) (85, 6, 1.00000000000000000000e+000) (85, 6, 1.00000000000000000000e+000) (85, 6, 1.00000000000000000000e+000) (85, 6, 1.00000000000000000000e+000) (85, 6, 1.00000000000000000000e+000) (85, 6, 1.00000000000000000000e+000) (85, 6, 1.00000000000000000000e+000) (85, 6, 1.00000000000000000000e+000) (85, 6, 1.00000000000000000000e+000) (85, 6, 1.00000000000000000000e+000) (85, 6, 1.00000000000000000000e+000) (85, 6, 1.00000000000000000000e+000) (85, 6, 1.00000000000000000000e+000) (85, 6, 1.00000000000000000000e+000) (85, 6, 1.00000000000000000000e+000) (85, 6, 1.00000000000000000000e+000) (85, 6, 1.00000000000000000000e+000) (85, 6, 1.00000000000000000000e+000) (85, 6, 1.00000000000000000000e+000) (85, 6, 1.00000000000000000000e+000) (85, 6, 1.00000000000000000000e+000) (85, 6, 1.00000000000000000000e+000) (85, 6, 1.00000000000000000000e+000) (85, 6, 1.00000000000000000000e+000) (85, 6, 1.00000000000000000000e+000) (85, 6, 1.00000000000000000000e+000) (85, 6, 1.00000000000000000000e+000) (85, 6, 1.00000000000000000000e+000) (85, 6, 1.00000000000000000000e+000) (85, 6, 1.00000000000000000000e+000) (85, 6, 1.00000000000000000000e+000) (85, 6, 1.00000000000000000000e+000) (85, 6, 1.00000000000000000000e+000) (85, 6, 1.00000000000000000000e+000) (85, 6, 1.00000000000000000000e+000) (85, 6, 1.00000000000000000000e+000) (85, 6, 1.00000000000000000000e+000) (85, 6, 1.00000000000000000000e+000) (85, 6, 1.00000000000000000000e+000) (85, 6, 1.00000000000000000000e+000) (85, 6, 1.00000000000000000000e+000) (85, 6, 1.00000000000000000000e+000) (85, 6, 1.00000000000000000000e+000) (85, 6, 1.00000000000000000000e+000) (85, 6, 1.00000000000000000000e+000) (85, 6, 1.00000000000000000000e+000) (85, 6, 1.00000000000000000000e+000) (85, 6, 1.00000000000000000000e+000) (85, 6, 1.00000000000000000000e+000) (85, 6, 1.00000000000000000000e+000) (85, 6, 1.00000000000000000000e+000) (85, 6, 1.00000000000000000000e+000) (85, 6, 1.00000000000000000000e+000) (85, 6, 1.00000000000000000000e+000) (85, 6, 1.00000000000000000000e+000) (85, 6, 1.00000000000000000000e+000) (85, 6, 1.00000000000000000000e+000) (85, 6, 1.00000000000000000000e+000) (85, 6, 1.00000000000000000000e+000) (0, 6, 1.00000000000000000000e+000) (81, 6, 1.00000000000000000000e+000) (0, 6, 1.00000000000000000000e+000) 
connections (connected_to_neuron, weight)=(0, 2.70336419343948360000e-001) (1, -1.92447915673255920000e-001) (2, -2.47240369208157060000e-003) (3, 1.33805349469184880000e-001) (4, 5.23077994585037230000e-002) (5, -1.22253306210041050000e-001) (6, -6.93560168147087100000e-002) (7, -1.41151202842593190000e-002) (8, -4.93684224784374240000e-002) (9, -1.29177257418632510000e-001) (10, -5.02079539000988010000e-002) (11, 7.98453390598297120000e-002) (12, 1.99779003858566280000e-001) (13, -1.38040766119956970000e-001) (14, 8.99413542356342080000e-004) (15, -1.63298696279525760000e-002) (16, -7.42492377758026120000e-002) (17, -4.81432825326919560000e-002) (18, 2.86117177456617360000e-002) (19, -7.97248184680938720000e-002) (20, 8.04242268204689030000e-002) (21, 4.02328222990036010000e-002) (22, -1.84831134974956510000e-002) (23, -2.57553532719612120000e-002) (24, -1.15309305489063260000e-001) (25, -1.35005190968513490000e-001) (26, -5.27136996388435360000e-002) (27, -1.41171813011169430000e-001) (28, 1.89244728535413740000e-002) (29, 4.95020747184753420000e-002) (30, 2.32922375202178960000e-001) (31, 1.24732464551925660000e-001) (32, -3.61033268272876740000e-002) (33, -1.10471352934837340000e-001) (34, 5.44048175215721130000e-002) (35, -2.94986441731452940000e-002) (36, -8.25165072456002240000e-004) (37, -3.79872471094131470000e-002) (38, 1.04257702827453610000e-001) (39, 6.93463683128356930000e-002) (40, 2.38226484507322310000e-002) (41, 1.52653902769088750000e-002) (42, -7.91408773511648180000e-003) (43, -5.42847327888011930000e-002) (44, 4.66017909348011020000e-002) (45, -5.19014634191989900000e-002) (46, 9.35515165328979490000e-002) (47, -2.33580749481916430000e-002) (48, 5.01975566148757930000e-002) (49, -3.98050360381603240000e-002) (50, 8.07730033993721010000e-002) (51, 2.40541175007820130000e-002) (52, -1.08330234885215760000e-001) (53, -1.97483375668525700000e-001) (54, 1.53102967888116840000e-002) (55, -9.55151766538620000000e-003) (56, 1.11504927277565000000e-001) (57, 1.87660679221153260000e-002) (58, 6.80333450436592100000e-002) (59, 1.69863160699605940000e-002) (60, 3.71537841856479640000e-002) (61, 2.12229676544666290000e-002) (62, -4.16519977152347560000e-002) (63, -1.05945192277431490000e-001) (64, -3.05928513407707210000e-002) (65, -9.93106961250305180000e-002) (66, 3.11140324920415880000e-002) (67, -3.42593602836132050000e-002) (68, 6.06687888503074650000e-002) (69, 3.58372628688812260000e-002) (70, -1.70185491442680360000e-002) (71, -5.06552793085575100000e-002) (72, 1.06256473809480670000e-002) (73, -1.18227358907461170000e-002) (74, 6.43013790249824520000e-002) (75, -2.07161884754896160000e-002) (76, 1.00257068872451780000e-001) (77, 1.24532347545027730000e-002) (78, -5.63554987311363220000e-002) (79, -9.77107435464859010000e-002) (80, -7.42597356438636780000e-002) (81, -8.55378657579422000000e-002) (82, 7.60478973388671880000e-002) (83, 2.63193342834711070000e-002) (84, 4.04627174139022830000e-002) (0, 1.90115466713905330000e-001) (1, 4.31490913033485410000e-002) (2, -1.08904741704463960000e-001) (3, -6.86575621366500850000e-002) (4, 1.34527131915092470000e-001) (5, -2.50371498987078670000e-003) (6, 3.46463844180107120000e-002) (7, -1.16977892816066740000e-001) (8, 1.81029215455055240000e-001) (9, 1.21017806231975560000e-002) (10, -8.28477144241333010000e-002) (11, -5.12449257075786590000e-002) (12, 1.60139903426170350000e-001) (13, 7.77965411543846130000e-002) (14, 1.04244686663150790000e-002) (15, 5.82171864807605740000e-002) (16, 5.24631589651107790000e-002) (17, 3.98086309432983400000e-002) (18, 7.93401598930358890000e-002) (19, 9.19823814183473590000e-003) (20, -1.90637260675430300000e-001) (21, -3.20570200681686400000e-001) (22, 7.83319473266601560000e-002) (23, 9.20948572456836700000e-003) (24, 8.77174437046051030000e-002) (25, 5.00759072601795200000e-002) (26, -2.82287895679473880000e-002) (27, 1.09623610973358150000e-001) (28, -3.92761193215847020000e-002) (29, 2.27344110608100890000e-002) (30, -2.06765308976173400000e-002) (31, -4.45882342755794530000e-002) (32, 7.10673481225967410000e-002) (33, -1.26945719122886660000e-001) (34, 1.97545826435089110000e-001) (35, -2.46985163539648060000e-002) (36, 9.07730013132095340000e-002) (37, -1.16572283208370210000e-001) (38, 6.14245459437370300000e-002) (39, 7.20439618453383450000e-003) (40, 8.85555613785982130000e-003) (41, 4.41560223698616030000e-002) (42, -1.58522263169288640000e-001) (43, -2.10949912667274480000e-001) (44, 4.78297099471092220000e-002) (45, 6.42273351550102230000e-002) (46, 1.66432395577430730000e-001) (47, 4.21238206326961520000e-002) (48, 1.18721336126327510000e-001) (49, -5.48284500837326050000e-002) (50, 2.21457585692405700000e-001) (51, 2.88438741117715840000e-002) (52, 1.12069241702556610000e-001) (53, 2.79678888618946080000e-002) (54, -9.76206138730049130000e-002) (55, -1.67294546961784360000e-001) (56, 2.41691529750823970000e-001) (57, 1.35574430227279660000e-001) (58, -1.17697395384311680000e-001) (59, -1.74126282334327700000e-001) (60, -6.04363307356834410000e-002) (61, -9.15185660123825070000e-002) (62, 1.52188718318939210000e-001) (63, -3.38752567768096920000e-002) (64, 3.85010777972638610000e-003) (65, -2.45219729840755460000e-002) (66, -1.17016255855560300000e-001) (67, -2.01267451047897340000e-001) (68, 2.63604909181594850000e-001) (69, 1.58008292317390440000e-001) (70, -2.61047668755054470000e-002) (71, -9.35544893145561220000e-002) (72, 1.30994036793708800000e-001) (73, 5.77924698591232300000e-002) (74, -3.22005897760391240000e-002) (75, -1.60765796899795530000e-001) (76, -3.02139334380626680000e-002) (77, -8.34050178527832030000e-002) (78, -6.71196132898330690000e-002) (79, -1.70104146003723140000e-001) (80, 2.20629438757896420000e-001) (81, 1.26611679792404170000e-001) (82, -6.24516746029257770000e-003) (83, -8.86655300855636600000e-002) (84, 4.04410250484943390000e-002) (0, 4.22265268862247470000e-002) (1, 3.21516752243041990000e-001) (2, 1.31213784217834470000e-001) (3, -1.28211528062820430000e-001) (4, 9.05508846044540410000e-002) (5, -1.60352643579244610000e-002) (6, 1.26183286309242250000e-001) (7, -1.33408755064010620000e-001) (8, -8.58629960566759110000e-003) (9, -2.16519702225923540000e-002) (10, 1.42770603299140930000e-001) (11, -1.04084052145481110000e-001) (12, -4.26121130585670470000e-002) (13, 4.07881706953048710000e-001) (14, 8.04435368627309800000e-003) (15, -1.66659489274024960000e-001) (16, 9.20553207397460940000e-002) (17, -6.98871463537216190000e-002) (18, 7.49754384160041810000e-002) (19, -5.30563574284315110000e-003) (20, 3.99093143641948700000e-002) (21, -1.04107707738876340000e-001) (22, 6.44120424985885620000e-002) (23, -2.51783267594873910000e-003) (24, 8.56085047125816350000e-002) (25, -1.00041694939136510000e-001) (26, -7.11243823170661930000e-002) (27, -2.35637903213500980000e-001) (28, 1.05280734598636630000e-001) (29, 3.82443405687808990000e-002) (30, -2.14466065168380740000e-001) (31, -3.23732823133468630000e-001) (32, -7.12206214666366580000e-002) (33, -2.91093736886978150000e-002) (34, 1.54596380889415740000e-002) (35, -2.04710010439157490000e-003) (36, -9.76106524467468260000e-002) (37, -4.40207496285438540000e-003) (38, -1.99522644281387330000e-001) (39, -2.72709310054779050000e-001) (40, 1.09743110835552220000e-001) (41, 3.55239920318126680000e-002) (42, -2.72547695785760880000e-002) (43, -5.67284487187862400000e-002) (44, 2.51134216785430910000e-001) (45, 2.81077861785888670000e-001) (46, 9.93134975433349610000e-002) (47, 1.23648688197135930000e-001) (48, -9.90748852491378780000e-002) (49, -2.64412928372621540000e-002) (50, 9.96060669422149660000e-002) (51, 3.66450585424900050000e-002) (52, 3.01592111587524410000e-001) (53, 3.12082618474960330000e-001) (54, -5.30883222818374630000e-002) (55, -3.15532088279724120000e-002) (56, 1.89911071211099620000e-002) (57, -9.02915522456169130000e-002) (58, -7.78701379895210270000e-002) (59, -8.60532596707344060000e-002) (60, 8.73341187834739690000e-002) (61, -4.47276569902896880000e-002) (62, 4.07696329057216640000e-002) (63, -7.28789567947387700000e-002) (64, 7.60411694645881650000e-002) (65, -2.37022005021572110000e-002) (66, -8.79243984818458560000e-002) (67, -1.15565560758113860000e-001) (68, 4.46230582892894740000e-002) (69, -8.96105393767356870000e-002) (70, 6.34568110108375550000e-002) (71, 5.29518686234951020000e-002) (72, 1.33094280958175660000e-001) (73, 3.46964783966541290000e-002) (74, -1.13354280591011050000e-001) (75, -1.47410735487937930000e-001) (76, 8.93499888479709630000e-003) (77, 7.36021844204515220000e-004) (78, -6.45571872591972350000e-002) (79, -6.57451674342155460000e-002) (80, 6.44858106970787050000e-002) (81, -1.94977279752492900000e-002) (82, 5.82106271758675580000e-003) (83, 1.38168614357709880000e-002) (84, 3.32473441958427430000e-002) (0, -1.60106733441352840000e-001) (1, 5.16252100467681880000e-001) (2, -7.98592194914817810000e-002) (3, -8.87648314237594600000e-002) (4, -6.38226494193077090000e-002) (5, -1.56265318393707280000e-001) (6, -5.50516545772552490000e-002) (7, 7.50811696052551270000e-002) (8, -6.12681247293949130000e-002) (9, -1.82023167610168460000e-001) (10, -6.32564872503280640000e-002) (11, -6.55631870031356810000e-002) (12, -1.56089916825294490000e-001) (13, 5.32680511474609380000e-001) (14, 1.27644583582878110000e-001) (15, -4.43239510059356690000e-002) (16, 3.85081842541694640000e-002) (17, -9.49558988213539120000e-002) (18, 1.54044970870018010000e-001) (19, -1.77313327789306640000e-001) (20, -4.96631897985935210000e-002) (21, -9.86710712313652040000e-002) (22, 1.32434129714965820000e-001) (23, -1.83759525418281560000e-001) (24, 3.62431034445762630000e-002) (25, -1.32516145706176760000e-001) (26, 1.11360669136047360000e-001) (27, 8.11893958598375320000e-003) (28, -1.28070518374443050000e-001) (29, -6.98628649115562440000e-002) (30, 5.55971229914575820000e-004) (31, -1.46541982889175420000e-001) (32, 3.48273426294326780000e-001) (33, -4.53599691390991210000e-002) (34, 9.26322788000106810000e-002) (35, 8.56336206197738650000e-003) (36, 3.75117063522338870000e-001) (37, -4.72983419895172120000e-002) (38, 1.32356518879532810000e-002) (39, -1.59620001912117000000e-001) (40, -1.36529147624969480000e-001) (41, -6.38631954789161680000e-002) (42, 8.77402946352958680000e-002) (43, -6.12565837800502780000e-002) (44, 1.80161863565444950000e-001) (45, -9.48372110724449160000e-002) (46, 1.12677095457911490000e-002) (47, -2.37560689449310300000e-001) (48, 1.78959310054779050000e-001) (49, 9.14919003844261170000e-002) (50, 3.80720235407352450000e-002) (51, -2.18549102544784550000e-001) (52, 1.65553212165832520000e-001) (53, -8.57264548540115360000e-002) (54, 9.11039933562278750000e-002) (55, -8.07653367519378660000e-002) (56, -1.68826341629028320000e-001) (57, -2.15800270438194270000e-001) (58, 4.16867956519126890000e-002) (59, -1.21891833841800690000e-001) (60, 1.56043037772178650000e-001) (61, -5.06971217691898350000e-002) (62, -9.25935357809066770000e-002) (63, -1.91241860389709470000e-001) (64, 2.08120897412300110000e-001) (65, -1.01361246779561040000e-002) (66, 4.19780761003494260000e-002) (67, -1.43513724207878110000e-001) (68, -1.33417293429374690000e-001) (69, -2.26533740758895870000e-001) (70, 1.58025845885276790000e-002) (71, -4.96481247246265410000e-002) (72, 9.48987007141113280000e-002) (73, -2.51998119056224820000e-002) (74, 2.17798817902803420000e-003) (75, -9.50359031558036800000e-002) (76, 2.16294661164283750000e-001) (77, 2.33714357018470760000e-001) (78, 3.41140851378440860000e-002) (79, -8.42703655362129210000e-002) (80, 1.02758713066577910000e-001) (81, 2.98372120596468450000e-003) (82, 2.41394210606813430000e-002) (83, -1.62965245544910430000e-002) (84, -5.47327324748039250000e-002) (0, 1.01510800421237950000e-001) (1, -6.50899708271026610000e-002) (2, -1.05293147265911100000e-001) (3, 3.42121154069900510000e-001) (4, -3.11490911990404130000e-002) (5, 5.94825744628906250000e-002) (6, 1.45507799461483960000e-002) (7, -1.40981242060661320000e-001) (8, -5.16716092824935910000e-002) (9, 5.57986274361610410000e-002) (10, -1.82812377810478210000e-001) (11, 3.19623410701751710000e-001) (12, 9.43138226866722110000e-002) (13, -1.15060441195964810000e-001) (14, 1.69046834111213680000e-001) (15, -1.43824979662895200000e-001) (16, 3.48550416529178620000e-002) (17, -1.79688066244125370000e-001) (18, 1.50080561637878420000e-001) (19, 2.55336146801710130000e-002) (20, 4.88413758575916290000e-002) (21, -8.41816291213035580000e-002) (22, 8.73312801122665410000e-002) (23, 3.94053533673286440000e-002) (24, -1.77197381854057310000e-002) (25, -2.74429351091384890000e-001) (26, 1.25658333301544190000e-001) (27, -2.01091811060905460000e-001) (28, 1.12988404929637910000e-001) (29, -8.76599624752998350000e-002) (30, 1.24187804758548740000e-001) (31, -4.97082620859146120000e-002) (32, 3.35240252315998080000e-002) (33, -2.12141335010528560000e-001) (34, 1.51554316282272340000e-001) (35, 4.27452400326728820000e-002) (36, -3.12131433747708800000e-003) (37, -2.40996927022933960000e-001) (38, 2.87086032330989840000e-002) (39, -1.10995054244995120000e-001) (40, 1.63491040468215940000e-001) (41, -1.23254507780075070000e-001) (42, 1.99384212493896480000e-001) (43, -1.15886792540550230000e-001) (44, 5.95057243481278420000e-003) (45, -1.32411852478981020000e-001) (46, 1.94158315658569340000e-001) (47, -9.29177030920982360000e-002) (48, -9.69100743532180790000e-002) (49, -1.57241970300674440000e-001) (50, 1.63269519805908200000e-001) (51, -7.26850330829620360000e-002) (52, 1.45017113536596300000e-002) (53, -1.05208396911621090000e-001) (54, 1.41687050461769100000e-001) (55, -1.68079197406768800000e-001) (56, 5.63921593129634860000e-002) (57, -1.66385307908058170000e-001) (58, 2.50267416238784790000e-001) (59, 1.49031698703765870000e-001) (60, 2.05215081572532650000e-001) (61, -8.04253444075584410000e-002) (62, 1.86000719666481020000e-001) (63, -1.66271999478340150000e-002) (64, 1.74467608332633970000e-001) (65, -1.42651900649070740000e-001) (66, 2.28136330842971800000e-001) (67, 4.52114231884479520000e-002) (68, 1.96433439850807190000e-003) (69, -2.00978145003318790000e-001) (70, 1.96694046258926390000e-001) (71, 9.51835606247186660000e-003) (72, -3.95123788621276620000e-004) (73, -1.71224847435951230000e-001) (74, -3.41814905405044560000e-002) (75, -1.82865425944328310000e-001) (76, -1.29075357690453530000e-002) (77, -1.80298000574111940000e-001) (78, -1.56192909926176070000e-002) (79, -2.07564339041709900000e-001) (80, -2.71848663687705990000e-002) (81, -2.38424435257911680000e-001) (82, 6.10370747745037080000e-002) (83, -4.77575995028018950000e-002) (84, 2.52068608999252320000e-001) (0, 6.79030343890190120000e-002) (1, 5.86119033396244050000e-002) (2, 1.43157035112380980000e-001) (3, 8.59504938125610350000e-003) (4, 3.74560989439487460000e-002) (5, -5.19686527550220490000e-002) (6, 2.51894593238830570000e-002) (7, 4.78587858378887180000e-002) (8, -3.92503365874290470000e-002) (9, 1.35662592947483060000e-002) (10, 1.03237934410572050000e-001) (11, -7.56861418485641480000e-002) (12, 8.70592445135116580000e-002) (13, 1.82340621948242190000e-001) (14, -5.78130781650543210000e-002) (15, -1.55645594000816350000e-001) (16, 2.26302184164524080000e-002) (17, -9.74824428558349610000e-002) (18, 4.26680780947208400000e-002) (19, 2.32811346650123600000e-002) (20, 4.70522269606590270000e-002) (21, 5.22486902773380280000e-002) (22, -9.19307917356491090000e-002) (23, 1.57798100262880330000e-002) (24, 1.27178847789764400000e-001) (25, -7.73430019617080690000e-002) (26, -5.09534925222396850000e-002) (27, -1.13015398383140560000e-001) (28, 1.00079432129859920000e-001) (29, -1.17825947701931000000e-001) (30, 1.11736811697483060000e-001) (31, -4.12376895546913150000e-002) (32, -1.12827897071838380000e-001) (33, -6.87217153608798980000e-003) (34, -2.86992508918046950000e-002) (35, -5.98056335002183910000e-003) (36, -3.92098054289817810000e-002) (37, 7.80694037675857540000e-002) (38, 1.16354554891586300000e-001) (39, -3.06099001318216320000e-002) (40, 9.93934124708175660000e-002) (41, -7.15112686157226560000e-002) (42, 1.11582204699516300000e-001) (43, -3.29836346209049220000e-002) (44, 1.55032621696591380000e-002) (45, -1.01222947239875790000e-001) (46, 6.20922148227691650000e-002) (47, 4.85522449016571040000e-002) (48, -6.45693689584732060000e-002) (49, -5.97554333508014680000e-002) (50, 4.38392572104930880000e-002) (51, 6.19805157184600830000e-002) (52, -1.42776295542716980000e-002) (53, -1.07028290629386900000e-001) (54, 4.48702462017536160000e-002) (55, -5.43257668614387510000e-002) (56, 6.21702298521995540000e-002) (57, -7.73809291422367100000e-003) (58, 4.78657744824886320000e-002) (59, -3.22168543934822080000e-002) (60, 1.30528107285499570000e-001) (61, 1.87114737927913670000e-002) (62, 1.03173822164535520000e-001) (63, 1.24170556664466860000e-002) (64, 5.45201487839221950000e-002) (65, -6.16667121648788450000e-002) (66, -6.04481734335422520000e-002) (67, -1.61117300391197200000e-001) (68, 9.51806083321571350000e-002) (69, 1.22599145397543910000e-002) (70, 4.92049455642700200000e-002) (71, 6.23432127758860590000e-003) (72, 7.13363438844680790000e-002) (73, 1.36810718104243280000e-002) (74, -7.31006683781743050000e-003) (75, -6.68126270174980160000e-002) (76, -1.03803642094135280000e-001) (77, -1.10764302313327790000e-001) (78, 9.43772308528423310000e-003) (79, -6.97880983352661130000e-002) (80, 3.96863110363483430000e-002) (81, -2.85840593278408050000e-003) (82, -2.62745209038257600000e-002) (83, -4.22278344631195070000e-002) (84, 8.98585692048072810000e-002) (0, -1.07075862586498260000e-001) (1, 1.68741628527641300000e-001) (2, 8.33646655082702640000e-002) (3, 1.82020977139472960000e-001) (4, 4.16310988366603850000e-002) (5, 4.46656458079814910000e-002) (6, 2.62516941875219350000e-002) (7, 3.12410574406385420000e-002) (8, 2.49863248318433760000e-002) (9, 8.76362621784210210000e-002) (10, 1.11714303493499760000e-001) (11, 1.03906691074371340000e-001) (12, -1.42668440937995910000e-001) (13, 1.37579515576362610000e-001) (14, -9.61545761674642560000e-003) (15, -8.90341624617576600000e-002) (16, -1.81691661477088930000e-001) (17, 4.44262567907571790000e-003) (18, -1.01585157215595250000e-001) (19, -5.73048777878284450000e-002) (20, 1.28945767879486080000e-001) (21, 8.59399512410163880000e-002) (22, -6.25487342476844790000e-002) (23, -4.26372289657592770000e-002) (24, -1.94920897483825680000e-001) (25, -3.40296253561973570000e-002) (26, -3.44075188040733340000e-002) (27, -7.65418335795402530000e-002) (28, -6.20579309761524200000e-002) (29, -3.61797027289867400000e-002) (30, -3.28017354011535640000e-001) (31, -2.03390195965766910000e-001) (32, 8.65892469882965090000e-002) (33, 5.02110309898853300000e-002) (34, -7.77323991060256960000e-002) (35, -1.00320726633071900000e-001) (36, 1.29071235656738280000e-001) (37, 7.15134069323539730000e-002) (38, -3.79519879817962650000e-001) (39, -1.94931998848915100000e-001) (40, -5.94740957021713260000e-002) (41, -6.16172663867473600000e-002) (42, 7.04550072550773620000e-002) (43, 4.28634248673915860000e-002) (44, 8.45903009176254270000e-002) (45, 2.64675319194793700000e-001) (46, -6.39537349343299870000e-002) (47, -1.57722588628530500000e-002) (48, -1.64393112063407900000e-002) (49, 5.74605651199817660000e-002) (50, -1.26828942447900770000e-002) (51, -1.31318653002381320000e-002) (52, 1.19254244491457940000e-002) (53, 1.95321306586265560000e-001) (54, -5.61276860535144810000e-002) (55, 9.01528894901275630000e-002) (56, -3.04159391671419140000e-002) (57, 7.98126012086868290000e-002) (58, -2.50948313623666760000e-003) (59, 7.89435803890228270000e-002) (60, -2.59909331798553470000e-002) (61, -4.13759611546993260000e-002) (62, -7.94669613242149350000e-002) (63, 1.79212894290685650000e-002) (64, -3.63134257495403290000e-002) (65, 5.30832111835479740000e-002) (66, -3.09161785989999770000e-002) (67, 6.32011294364929200000e-002) (68, 1.22865755110979080000e-002) (69, 9.79283079504966740000e-003) (70, -9.41851213574409480000e-002) (71, 1.18379807099699970000e-002) (72, 6.75201229751110080000e-003) (73, 5.18357306718826290000e-002) (74, -2.58569009602069850000e-002) (75, 8.24063923209905620000e-003) (76, -1.44150359556078910000e-002) (77, 5.25752604007720950000e-002) (78, -1.16248257458209990000e-001) (79, 1.38393603265285490000e-002) (80, 7.13284835219383240000e-002) (81, 1.13946467638015750000e-001) (82, -5.50570450723171230000e-002) (83, 6.98466747999191280000e-002) (84, 4.81794914230704310000e-003) (0, 6.76874145865440370000e-002) (1, -1.59327000379562380000e-001) (2, -1.77632391452789310000e-001) (3, 2.45250061154365540000e-001) (4, 4.28486056625843050000e-002) (5, -9.80558097362518310000e-002) (6, 6.91196918487548830000e-002) (7, -6.73704817891120910000e-002) (8, -1.84180252254009250000e-002) (9, -1.02765709161758420000e-001) (10, -2.34110325574874880000e-001) (11, 2.25188285112380980000e-001) (12, 4.56379204988479610000e-002) (13, -1.20019994676113130000e-001) (14, 1.72710672020912170000e-001) (15, 4.04557734727859500000e-002) (16, 1.83325558900833130000e-002) (17, 2.08752840757370000000e-001) (18, -9.85267087817192080000e-002) (19, -9.69684589654207230000e-003) (20, -1.29647664725780490000e-002) (21, -5.35311140120029450000e-002) (22, -1.40948235988616940000e-001) (23, -2.14033257216215130000e-002) (24, 9.73455049097537990000e-003) (25, 2.37221404910087590000e-001) (26, 1.90983057022094730000e-001) (27, 5.31449727714061740000e-002) (28, -3.88524681329727170000e-002) (29, -2.99866378307342530000e-001) (30, 8.71345177292823790000e-002) (31, 8.96911174058914180000e-002) (32, -1.88903100788593290000e-002) (33, -1.28911525011062620000e-001) (34, 3.77974994480609890000e-002) (35, -1.16253882646560670000e-001) (36, -3.78755368292331700000e-002) (37, -1.20771840214729310000e-001) (38, 4.42057065665721890000e-002) (39, 3.70388217270374300000e-002) (40, -5.75662404298782350000e-002) (41, -3.39846283197402950000e-001) (42, 1.91943526268005370000e-001) (43, 1.40499807894229890000e-002) (44, -1.53673708438873290000e-001) (45, -2.21285790205001830000e-001) (46, 1.83217182755470280000e-001) (47, 7.92008787393569950000e-002) (48, 1.33282795548439030000e-001) (49, 4.75095920264720920000e-002) (50, 1.40459492802619930000e-001) (51, 5.77151887118816380000e-002) (52, -1.78334712982177730000e-001) (53, -2.40412965416908260000e-001) (54, 2.18473672866821290000e-001) (55, 2.87557598203420640000e-002) (56, -1.00118540227413180000e-001) (57, -8.01245421171188350000e-002) (58, 1.20909005403518680000e-001) (59, 1.13934516906738280000e-001) (60, -5.87717571761459110000e-004) (61, -3.91294918954372410000e-002) (62, 1.19127973448485140000e-003) (63, -2.07599159330129620000e-002) (64, -1.03109451010823250000e-002) (65, -6.23700246214866640000e-002) (66, 1.46642670035362240000e-001) (67, 1.31880879402160640000e-001) (68, -6.77246078848838810000e-002) (69, -9.57112833857536320000e-002) (70, 1.20243698358535770000e-001) (71, 3.10752671211957930000e-002) (72, -1.46665163338184360000e-002) (73, -5.96418529748916630000e-002) (74, 3.04587446153163910000e-002) (75, -1.51069723069667820000e-002) (76, 9.94855761528015140000e-002) (77, 5.74144832789897920000e-002) (78, 3.67389172315597530000e-002) (79, -8.99842008948326110000e-003) (80, -4.59551662206649780000e-002) (81, -6.74569308757781980000e-002) (82, 1.19743593037128450000e-001) (83, -9.69066750258207320000e-003) (84, -1.05395212769508360000e-001) (0, 3.65837454795837400000e-001) (1, 7.37804472446441650000e-002) (2, 8.77991318702697750000e-002) (3, 2.77979910373687740000e-001) (4, 2.27558240294456480000e-001) (5, 1.19820743799209590000e-001) (6, -3.03256064653396610000e-002) (7, -7.34485909342765810000e-002) (8, 2.09403127431869510000e-001) (9, 1.16163834929466250000e-001) (10, 9.23199877142906190000e-002) (11, 2.87354737520217900000e-001) (12, 3.80447238683700560000e-001) (13, 1.00130654871463780000e-001) (14, -3.78512851893901820000e-002) (15, -1.23461887240409850000e-001) (16, 6.70256316661834720000e-002) (17, 1.62254318594932560000e-001) (18, -1.53670683503150940000e-001) (19, 1.92492887377738950000e-001) (20, -4.21997569501399990000e-002) (21, -7.75870606303215030000e-002) (22, -1.60783693194389340000e-001) (23, 1.73595726490020750000e-001) (24, 7.26003199815750120000e-002) (25, 1.90226897597312930000e-001) (26, -5.98708502948284150000e-002) (27, -1.32741510868072510000e-001) (28, 6.74172565340995790000e-002) (29, -5.11843003332614900000e-002) (30, -4.08629626035690310000e-002) (31, -7.83100649714469910000e-002) (32, -1.54339551925659180000e-001) (33, 4.21069741249084470000e-001) (34, 3.03608864545822140000e-001) (35, 2.45465472340583800000e-001) (36, -1.53618216514587400000e-001) (37, 3.86220932006835940000e-001) (38, -1.81902311742305760000e-002) (39, -4.93415482342243190000e-002) (40, 7.53534510731697080000e-002) (41, -3.46762761473655700000e-002) (42, -1.63721919059753420000e-001) (43, -1.81823879480361940000e-001) (44, -2.13062718510627750000e-001) (45, -1.38105049729347230000e-001) (46, -3.39852631092071530000e-001) (47, 3.00278328359127040000e-002) (48, -7.55216106772422790000e-002) (49, -4.43400442600250240000e-003) (50, -3.77393543720245360000e-001) (51, 3.40465269982814790000e-002) (52, -1.77751362323760990000e-001) (53, -1.19249358773231510000e-001) (54, -1.41745477914810180000e-001) (55, -2.03580245375633240000e-001) (56, 3.40582616627216340000e-002) (57, 1.21977366507053380000e-001) (58, 1.05861425399780270000e-001) (59, 1.48758366703987120000e-001) (60, -2.10125312209129330000e-001) (61, 1.07304729521274570000e-001) (62, -2.49091818928718570000e-001) (63, -9.85281020402908330000e-002) (64, -2.03350216150283810000e-001) (65, 8.81069228053092960000e-002) (66, 1.26270294189453130000e-001) (67, 1.28279641270637510000e-001) (68, 5.51982447504997250000e-002) (69, 1.48691713809967040000e-001) (70, -9.19447280466556550000e-003) (71, 5.12029118835926060000e-002) (72, -3.80007177591323850000e-002) (73, 6.36753067374229430000e-002) (74, 3.14969904720783230000e-002) (75, 6.26681968569755550000e-002) (76, 3.91778582707047460000e-003) (77, 3.06612607091665270000e-002) (78, 4.39823828637599950000e-002) (79, 5.92140220105648040000e-002) (80, -4.45524267852306370000e-002) (81, 7.25195184350013730000e-002) (82, 7.25314859300851820000e-003) (83, 4.39287051558494570000e-002) (84, -2.42223925888538360000e-002) (0, 1.12107701599597930000e-001) (1, 7.93122798204422000000e-002) (2, 4.44001005962491040000e-003) (3, -8.79526063799858090000e-002) (4, 1.97801470756530760000e-001) (5, 1.32868662476539610000e-001) (6, 6.05505593121051790000e-002) (7, -7.33579173684120180000e-002) (8, 1.88226893544197080000e-001) (9, 1.33750930428504940000e-001) (10, -3.21830878965556620000e-003) (11, -4.61587607860565190000e-002) (12, 1.49287492036819460000e-001) (13, 1.00789360702037810000e-001) (14, -1.38634338974952700000e-001) (15, -1.05766840279102330000e-001) (16, 1.75950065255165100000e-001) (17, -7.19071999192237850000e-002) (18, -1.34919226169586180000e-001) (19, -2.26709976792335510000e-001) (20, 1.61661833524703980000e-001) (21, 8.81333500146865840000e-002) (22, -1.13021425902843480000e-001) (23, -1.86950892210006710000e-001) (24, 9.34746041893959050000e-002) (25, -1.20379596948623660000e-001) (26, -4.87741827964782710000e-002) (27, -1.09951965510845180000e-001) (28, 2.74432033300399780000e-001) (29, 4.50918041169643400000e-002) (30, 7.79167488217353820000e-002) (31, -1.78881436586380000000e-002) (32, 1.87489897012710570000e-001) (33, 1.20997704565525050000e-001) (34, -8.16660076379776000000e-002) (35, -1.89713194966316220000e-001) (36, 2.17464834451675420000e-001) (37, 1.90876647830009460000e-001) (38, 1.05267882347106930000e-001) (39, -8.22278186678886410000e-002) (40, 2.42745950818061830000e-001) (41, -1.88631787896156310000e-002) (42, 5.43247126042842860000e-002) (43, -1.79797202348709110000e-001) (44, -3.07020079344511030000e-002) (45, -3.96166779100894930000e-002) (46, 1.45750209689140320000e-001) (47, 1.38318352401256560000e-003) (48, -3.74430269002914430000e-002) (49, -5.71244843304157260000e-002) (50, 1.63180887699127200000e-001) (51, -1.22334696352481840000e-002) (52, 2.62023229151964190000e-002) (53, 1.00426431745290760000e-002) (54, 2.69111432135105130000e-002) (55, -2.41929724812507630000e-001) (56, 4.27213124930858610000e-002) (57, 4.42368350923061370000e-003) (58, 1.56936824321746830000e-001) (59, 2.67849657684564590000e-002) (60, 8.36414992809295650000e-002) (61, -6.04978501796722410000e-002) (62, 1.24178670346736910000e-001) (63, 1.25685492530465130000e-002) (64, 3.32057252526283260000e-002) (65, -1.09085686504840850000e-001) (66, 1.80954247713088990000e-001) (67, 5.95173388719558720000e-002) (68, 2.48141773045063020000e-002) (69, -4.29094992578029630000e-002) (70, 5.03930896520614620000e-002) (71, -1.21158612892031670000e-002) (72, -2.94287763535976410000e-002) (73, -1.44124582409858700000e-001) (74, 4.09117639064788820000e-002) (75, -9.60753113031387330000e-002) (76, 6.53756111860275270000e-002) (77, -5.54844439029693600000e-002) (78, 4.97795976698398590000e-002) (79, -8.29981341958045960000e-002) (80, -9.18848812580108640000e-002) (81, -1.96242213249206540000e-001) (82, -4.33119200170040130000e-003) (83, -7.43273273110389710000e-002) (84, 2.62067709118127820000e-002) (0, 1.39252364635467530000e-001) (1, 2.12859794497489930000e-001) (2, 8.73794704675674440000e-002) (3, -1.79311446845531460000e-002) (4, 9.94178578257560730000e-002) (5, -7.84763768315315250000e-002) (6, 1.59071255475282670000e-002) (7, -1.02730296552181240000e-001) (8, 9.45024266839027400000e-002) (9, -1.16552561521530150000e-001) (10, 1.22479833662509920000e-001) (11, 3.20379920303821560000e-002) (12, 1.45500868558883670000e-001) (13, 2.46365949511528020000e-001) (14, -2.18553662300109860000e-001) (15, -2.21228301525115970000e-001) (16, 8.88855680823326110000e-002) (17, 9.41214710474014280000e-002) (18, 1.19480542838573460000e-001) (19, -4.08306941390037540000e-002) (20, 2.15078592300415040000e-001) (21, 1.92950680851936340000e-001) (22, 1.00165873765945430000e-001) (23, -5.43282479047775270000e-002) (24, 8.84125307202339170000e-002) (25, 1.28681704401969910000e-001) (26, -2.24921569228172300000e-001) (27, -2.09482774138450620000e-001) (28, 1.42347052693367000000e-001) (29, 1.76273938268423080000e-002) (30, -5.85485585033893590000e-002) (31, 2.56344843655824660000e-002) (32, 1.36169612407684330000e-001) (33, -5.79620748758316040000e-002) (34, 2.87110731005668640000e-002) (35, -1.20170734822750090000e-001) (36, 5.15781007707118990000e-002) (37, -8.42378810048103330000e-002) (38, -1.99154596775770190000e-002) (39, 1.34648066014051440000e-002) (40, 1.80645242333412170000e-001) (41, 2.79784062877297400000e-003) (42, -7.67633914947509770000e-002) (43, -1.35970011353492740000e-001) (44, -1.63713872432708740000e-001) (45, -1.62724718451499940000e-001) (46, 1.52159094810485840000e-001) (47, -2.00716163963079450000e-002) (48, 1.52272641658782960000e-001) (49, 2.54286099225282670000e-002) (50, 5.89052587747573850000e-002) (51, 4.79027722030878070000e-003) (52, -2.32169330120086670000e-001) (53, -1.90766036510467530000e-001) (54, -2.36541032791137700000e-002) (55, -1.10937945544719700000e-001) (56, 1.27598449587821960000e-001) (57, 5.11406250298023220000e-002) (58, 8.28705430030822750000e-002) (59, 1.81856621056795120000e-002) (60, -3.27842845581471920000e-003) (61, -6.37881681323051450000e-002) (62, -9.66759547591209410000e-002) (63, -9.33413952589035030000e-002) (64, 5.16386819072067740000e-004) (65, -8.25096890330314640000e-002) (66, 3.72153916396200660000e-003) (67, -4.81833145022392270000e-002) (68, 1.67069166898727420000e-001) (69, 1.43152579665184020000e-001) (70, -2.61891465634107590000e-002) (71, -5.76836615800857540000e-002) (72, 9.22151580452919010000e-002) (73, 5.55126741528511050000e-002) (74, 7.59460553526878360000e-002) (75, 6.23553944751620290000e-003) (76, 6.36344701051712040000e-002) (77, -2.19469796866178510000e-002) (78, 1.06176674365997310000e-001) (79, 2.61223921552300450000e-003) (80, -3.03957331925630570000e-002) (81, -3.56220155954360960000e-002) (82, -3.86825986206531520000e-002) (83, -6.31493777036666870000e-002) (84, -5.72791025042533870000e-002) (0, 3.81828337907791140000e-001) (1, -7.49066621065139770000e-002) (2, 3.17410416901111600000e-002) (3, 1.36634826660156250000e-001) (4, 1.58329337835311890000e-001) (5, 2.37075164914131160000e-001) (6, -3.07449400424957280000e-001) (7, 1.96854528039693830000e-002) (8, 1.27564042806625370000e-001) (9, 2.01338529586791990000e-001) (10, 9.87375900149345400000e-003) (11, 1.24063275754451750000e-001) (12, 3.88654559850692750000e-001) (13, -4.78428937494754790000e-002) (14, 8.57277363538742070000e-002) (15, 1.36629641056060790000e-002) (16, 4.26526777446269990000e-002) (17, 1.19802668690681460000e-001) (18, -9.02770608663558960000e-002) (19, -1.82447612285614010000e-001) (20, -2.34944317489862440000e-002) (21, 2.67256535589694980000e-002) (22, -9.72420200705528260000e-002) (23, -1.56359151005744930000e-001) (24, 6.07205294072628020000e-002) (25, 1.12887918949127200000e-001) (26, 8.11745598912239070000e-002) (27, 6.29137754440307620000e-002) (28, -1.78406998515129090000e-001) (29, 9.06917601823806760000e-002) (30, 7.21464538946747780000e-003) (31, 1.98641773313283920000e-002) (32, -2.46725663542747500000e-001) (33, -9.30236801505088810000e-002) (34, 7.17522650957107540000e-002) (35, 1.39693930745124820000e-001) (36, -2.26890221238136290000e-001) (37, -7.36024752259254460000e-002) (38, -3.32429190166294570000e-003) (39, 3.47069762647151950000e-002) (40, -1.74913585186004640000e-001) (41, 7.11704045534133910000e-002) (42, -2.15327844023704530000e-001) (43, 8.83531421422958370000e-002) (44, -2.52206772565841670000e-001) (45, -9.31107103824615480000e-002) (46, -4.48805876076221470000e-002) (47, 1.17951594293117520000e-001) (48, -1.23358830809593200000e-001) (49, -4.61098626255989070000e-002) (50, -1.86769179999828340000e-002) (51, 8.97197872400283810000e-002) (52, -2.26768866181373600000e-001) (53, -9.55214351415634160000e-002) (54, -2.11363956332206730000e-001) (55, 1.24612160027027130000e-001) (56, -9.73039939999580380000e-002) (57, 2.08279564976692200000e-002) (58, -7.88758620619773860000e-002) (59, 5.04954382777214050000e-002) (60, 6.88577294349670410000e-002) (61, 1.22314259409904480000e-001) (62, -1.31747156381607060000e-001) (63, -8.92979428172111510000e-002) (64, 2.64401864260435100000e-002) (65, 1.22913852334022520000e-001) (66, -7.49138891696929930000e-002) (67, 5.35743311047554020000e-002) (68, -5.99809102714061740000e-002) (69, 6.82473881170153620000e-003) (70, -2.81737092882394790000e-002) (71, 9.33597162365913390000e-002) (72, -1.62730459123849870000e-002) (73, 9.59023907780647280000e-002) (74, 2.82390750944614410000e-002) (75, 6.51871487498283390000e-002) (76, -1.69191151857376100000e-001) (77, -2.70592644810676570000e-002) (78, 4.90803131833672520000e-003) (79, 8.92714038491249080000e-002) (80, -2.64561213552951810000e-002) (81, 7.59736672043800350000e-002) (82, -5.31046763062477110000e-002) (83, 7.80000835657119750000e-002) (84, 1.90259009599685670000e-001) (0, 1.67677208781242370000e-001) (1, 1.29600480198860170000e-001) (2, -8.44222605228424070000e-002) (3, -9.65908449143171310000e-003) (4, 9.57169383764266970000e-002) (5, -2.04733699560165410000e-001) (6, -3.77146229147911070000e-002) (7, 9.05339568853378300000e-002) (8, 7.12403580546379090000e-002) (9, -1.58772468566894530000e-001) (10, -1.01464092731475830000e-001) (11, -2.38998308777809140000e-002) (12, 1.61699205636978150000e-001) (13, 1.38460069894790650000e-001) (14, -3.41505259275436400000e-001) (15, 6.12296640872955320000e-001) (16, 1.26600608229637150000e-001) (17, 1.56600624322891240000e-001) (18, 1.45971532911062240000e-002) (19, -2.87095736712217330000e-002) (20, -4.29725162684917450000e-002) (21, 2.28669926524162290000e-001) (22, 1.32493013516068460000e-002) (23, -6.92239999771118160000e-002) (24, 1.37189149856567380000e-001) (25, 1.46021768450737000000e-001) (26, -3.65647196769714360000e-001) (27, 5.65504252910614010000e-001) (28, -1.68175429105758670000e-001) (29, -3.20473909378051760000e-001) (30, -2.56246715784072880000e-001) (31, 2.17889651656150820000e-001) (32, -5.14767691493034360000e-002) (33, -1.71428263187408450000e-001) (34, -1.62696540355682370000e-001) (35, -1.71609455719590190000e-003) (36, -5.38010448217391970000e-002) (37, -1.72060012817382810000e-001) (38, -2.48585551977157590000e-001) (39, 1.89428105950355530000e-001) (40, -1.64387241005897520000e-001) (41, -2.94477432966232300000e-001) (42, 1.12889781594276430000e-001) (43, -6.77837729454040530000e-002) (44, -9.41757783293724060000e-002) (45, 7.77147114276885990000e-002) (46, 3.58836464583873750000e-002) (47, -3.10690072365105150000e-003) (48, 2.34800633043050770000e-002) (49, 6.49743154644966130000e-002) (50, 2.68042888492345810000e-002) (51, 3.30622158944606780000e-002) (52, -1.01989790797233580000e-001) (53, 7.54425451159477230000e-002) (54, 1.67977720499038700000e-001) (55, -8.46215412020683290000e-002) (56, 1.39798954129219060000e-001) (57, 2.35611870884895320000e-001) (58, -9.91337820887565610000e-002) (59, -2.52013318240642550000e-002) (60, 1.03860810399055480000e-001) (61, 7.41350427269935610000e-002) (62, 3.23030948638916020000e-002) (63, 8.21838676929473880000e-002) (64, 1.54941514134407040000e-001) (65, 6.82155564427375790000e-002) (66, -8.88802334666252140000e-002) (67, -3.32800857722759250000e-002) (68, 1.22897557914257050000e-001) (69, 2.66441017389297490000e-001) (70, 1.43690239638090130000e-002) (71, -7.28845074772834780000e-002) (72, -5.48179298639297490000e-002) (73, -7.69849913194775580000e-003) (74, -1.38481892645359040000e-002) (75, 4.96086757630109790000e-003) (76, 5.42232468724250790000e-002) (77, 9.20611806213855740000e-003) (78, -2.54057832062244420000e-002) (79, -3.43273207545280460000e-002) (80, -4.20877821743488310000e-002) (81, 3.41925490647554400000e-003) (82, 1.77566036581993100000e-002) (83, -6.78381621837615970000e-002) (84, -1.36187449097633360000e-001) (0, -2.20935389399528500000e-001) (1, 1.20930075645446780000e-001) (2, -2.41741210222244260000e-001) (3, 1.28393366932868960000e-001) (4, -9.48662012815475460000e-002) (5, -5.71930818259716030000e-002) (6, -4.42482270300388340000e-002) (7, 7.99725279211997990000e-002) (8, -1.90251052379608150000e-001) (9, -9.24668759107589720000e-002) (10, -2.90360033512115480000e-001) (11, 1.59503400325775150000e-001) (12, -1.90671384334564210000e-001) (13, 9.92341935634613040000e-002) (14, 5.68636804819107060000e-002) (15, 1.96102354675531390000e-002) (16, -8.90631452202796940000e-002) (17, 1.10472910106182100000e-001) (18, -9.97405126690864560000e-003) (19, 7.48658105731010440000e-002) (20, 7.31726884841918950000e-002) (21, 1.27407103776931760000e-001) (22, -1.19849275797605510000e-002) (23, 5.02801500260829930000e-002) (24, -1.28822535276412960000e-001) (25, 1.07856161892414090000e-001) (26, 5.05204424262046810000e-002) (27, 9.86433774232864380000e-003) (28, 5.46469949185848240000e-002) (29, 9.70060080289840700000e-002) (30, -2.59036552160978320000e-002) (31, 2.58648276329040530000e-001) (32, 3.87976341880857940000e-003) (33, -3.78199145197868350000e-002) (34, -1.60897314548492430000e-001) (35, -8.94083827733993530000e-002) (36, 4.94044497609138490000e-002) (37, 5.16186095774173740000e-003) (38, -4.08048294484615330000e-002) (39, 2.63873130083084110000e-001) (40, 1.10417120158672330000e-001) (41, 1.49458929896354680000e-001) (42, -1.10306933522224430000e-001) (43, -1.13671809434890750000e-001) (44, -1.61564841866493230000e-001) (45, 4.62014600634574890000e-002) (46, 1.87984108924865720000e-002) (47, 3.87088432908058170000e-002) (48, 5.78770935535430910000e-002) (49, 1.02956652641296390000e-001) (50, 8.55537503957748410000e-003) (51, 1.44075928255915640000e-003) (52, -7.50521048903465270000e-002) (53, 8.94018784165382390000e-002) (54, -1.12062871456146240000e-001) (55, -1.06506757438182830000e-001) (56, -9.29297879338264470000e-002) (57, 3.75928021967411040000e-002) (58, -1.15468546748161320000e-001) (59, 4.42602112889289860000e-002) (60, 5.91377839446067810000e-002) (61, 8.95190611481666560000e-002) (62, -7.63526037335395810000e-002) (63, -2.49299202114343640000e-002) (64, 3.23097668588161470000e-002) (65, 6.41215294599533080000e-002) (66, -1.07043460011482240000e-001) (67, 3.17977331578731540000e-002) (68, -1.03418096899986270000e-001) (69, 3.84855344891548160000e-002) (70, -3.05871013551950450000e-002) (71, 7.23103359341621400000e-002) (72, -8.35281163454055790000e-002) (73, 3.71231585741043090000e-002) (74, -7.37491250038146970000e-002) (75, 2.80065345577895640000e-003) (76, 6.39577135443687440000e-002) (77, 5.05105778574943540000e-002) (78, -4.78069484233856200000e-002) (79, 2.19278689473867420000e-002) (80, -1.16901241242885590000e-001) (81, 1.46542573347687720000e-002) (82, -9.93219912052154540000e-002) (83, 3.83429490029811860000e-002) (84, -1.92160829901695250000e-002) (0, -3.76410000026226040000e-002) (1, 1.65621370077133180000e-001) (2, -4.52728793025016780000e-002) (3, 1.19407281279563900000e-001) (4, -1.54652848839759830000e-001) (5, 2.12826341390609740000e-001) (6, -1.51810362935066220000e-001) (7, 1.72417849302291870000e-001) (8, 2.58067511022090910000e-002) (9, -2.26676072925329210000e-002) (10, 8.00461545586586000000e-002) (11, 1.92395105957984920000e-001) (12, 6.58040717244148250000e-002) (13, 9.44340080022811890000e-002) (14, 9.26867574453353880000e-002) (15, 4.15995568037033080000e-002) (16, -1.60044625401496890000e-001) (17, 2.32879109680652620000e-002) (18, 7.26852342486381530000e-002) (19, 5.38511760532855990000e-002) (20, -9.52442213892936710000e-002) (21, -3.26616615056991580000e-002) (22, -4.42945957183837890000e-002) (23, 1.27804979681968690000e-001) (24, -1.80549234151840210000e-001) (25, 1.21234782040119170000e-001) (26, 4.42985482513904570000e-002) (27, 2.39435106515884400000e-001) (28, -4.54297512769699100000e-002) (29, -2.99022316932678220000e-001) (30, 2.65944376587867740000e-002) (31, -2.19411000609397890000e-001) (32, 7.32657313346862790000e-002) (33, 7.21120163798332210000e-002) (34, 9.58613380789756770000e-002) (35, 3.35380947217345240000e-003) (36, 3.94985228776931760000e-002) (37, 6.72068372368812560000e-002) (38, -2.58314222097396850000e-001) (39, -7.10784196853637700000e-002) (40, -3.76541577279567720000e-002) (41, -4.43355888128280640000e-001) (42, 3.80598723888397220000e-001) (43, -1.37486264109611510000e-001) (44, 1.97345003485679630000e-001) (45, 9.70727130770683290000e-002) (46, 1.06544986367225650000e-001) (47, 2.99688071012496950000e-001) (48, 8.80596265196800230000e-002) (49, -4.24599237740039830000e-002) (50, 1.85577124357223510000e-002) (51, -4.05253529548645020000e-001) (52, 2.64812588691711430000e-001) (53, 8.33988040685653690000e-002) (54, 1.60472944378852840000e-001) (55, -1.50858573615550990000e-002) (56, 1.28893226385116580000e-001) (57, 7.24585168063640590000e-003) (58, -4.20137755572795870000e-002) (59, -2.22487092018127440000e-001) (60, 2.89020836353302000000e-001) (61, 2.84460708498954770000e-002) (62, 1.72707661986351010000e-001) (63, 3.53699661791324620000e-002) (64, -3.22179377079010010000e-001) (65, -2.28765428066253660000e-001) (66, -4.62476946413517000000e-002) (67, -7.25982561707496640000e-002) (68, 3.24069447815418240000e-002) (69, -1.23855143785476680000e-001) (70, -7.33849331736564640000e-002) (71, -1.33732687681913380000e-002) (72, 1.66078575421124700000e-003) (73, 1.51053041219711300000e-001) (74, 2.15505927801132200000e-001) (75, 1.43779637292027470000e-002) (76, -1.95414856076240540000e-001) (77, -1.80892080068588260000e-001) (78, -4.99868467450141910000e-002) (79, -1.38686910271644590000e-001) (80, 1.54496356844902040000e-001) (81, -1.28511562943458560000e-001) (82, 4.68849167227745060000e-002) (83, -2.20139205455780030000e-001) (84, 1.57425254583358760000e-001) (0, -1.04579990729689600000e-002) (1, 1.39971515163779260000e-002) (2, 1.33706390857696530000e-001) (3, 1.71525776386260990000e-001) (4, 9.25102606415748600000e-002) (5, 5.95712736248970030000e-002) (6, -1.12639516592025760000e-002) (7, -1.90071482211351390000e-002) (8, 1.17934741079807280000e-001) (9, 7.71659463644027710000e-002) (10, 1.24115958809852600000e-001) (11, 2.01376780867576600000e-001) (12, -8.25245678424835210000e-002) (13, 7.57715478539466860000e-002) (14, -1.15621566772460940000e-001) (15, -1.79017171263694760000e-001) (16, -7.04223290085792540000e-002) (17, -7.01282694935798650000e-002) (18, -1.20527222752571110000e-001) (19, -2.26815119385719300000e-002) (20, 6.47022202610969540000e-002) (21, 2.18338910490274430000e-002) (22, -1.18689715862274170000e-001) (23, -3.31469215452671050000e-002) (24, -1.00026115775108340000e-001) (25, -7.37476497888565060000e-002) (26, -1.11076198518276210000e-001) (27, -1.38155698776245120000e-001) (28, 1.09191253781318660000e-001) (29, -4.39233751967549320000e-003) (30, -4.48033846914768220000e-002) (31, -4.45719547569751740000e-002) (32, -1.11137084662914280000e-001) (33, -1.88730973750352860000e-002) (34, -1.07663333415985110000e-001) (35, -1.13883122801780700000e-001) (36, -7.20891654491424560000e-002) (37, -6.69645937159657480000e-003) (38, -2.37647388130426410000e-002) (39, -7.08630010485649110000e-002) (40, 1.01545140147209170000e-001) (41, 4.40707691013813020000e-002) (42, 2.53814253956079480000e-002) (43, -6.22925683856010440000e-002) (44, 6.04249946773052220000e-002) (45, 8.55328217148780820000e-002) (46, 7.25675672292709350000e-002) (47, 2.00546029955148700000e-002) (48, 1.20846450328826900000e-001) (49, 7.71468728780746460000e-002) (50, 5.38528151810169220000e-002) (51, 2.11643241345882420000e-002) (52, 1.00258283317089080000e-001) (53, 1.25236257910728450000e-001) (54, 9.41570922732353210000e-002) (55, -2.31954921036958690000e-002) (56, 1.94579586386680600000e-002) (57, 3.40957054868340490000e-003) (58, 1.99954528361558910000e-002) (59, 2.71806586533784870000e-002) (60, 5.66275268793106080000e-002) (61, 4.64733354747295380000e-002) (62, -8.83307401090860370000e-003) (63, -4.84641939401626590000e-002) (64, 4.11915592849254610000e-002) (65, 4.88120317459106450000e-002) (66, -1.04488134384155270000e-002) (67, 2.48691570013761520000e-002) (68, -3.74558307230472560000e-002) (69, 1.59448515623807910000e-002) (70, -6.93231597542762760000e-002) (71, -2.55231596529483800000e-002) (72, -3.99401783943176270000e-002) (73, -1.84076409786939620000e-002) (74, 5.32209128141403200000e-003) (75, 1.02585684508085250000e-002) (76, 2.19724364578723910000e-002) (77, -3.67262959480285640000e-002) (78, 3.80773320794105530000e-002) (79, -2.32811318710446360000e-003) (80, -9.09679010510444640000e-003) (81, -2.25022784434258940000e-003) (82, -5.22399730980396270000e-002) (83, -1.15764969959855080000e-002) (84, 1.69090833514928820000e-002) (0, 1.12753756344318390000e-001) (1, -3.44162359833717350000e-002) (2, 1.76332786679267880000e-001) (3, -6.23356178402900700000e-002) (4, -3.84412035346031190000e-002) (5, -1.35638052597641940000e-002) (6, 1.73104614019393920000e-001) (7, -4.90749776363372800000e-002) (8, -7.28107020258903500000e-002) (9, 1.35870138183236120000e-002) (10, 2.23130404949188230000e-001) (11, -6.71003535389900210000e-002) (12, 1.45234167575836180000e-001) (13, -1.47664528340101240000e-002) (14, -1.81021466851234440000e-001) (15, -1.37679845094680790000e-001) (16, -6.38149529695510860000e-002) (17, -7.75962099432945250000e-002) (18, 6.09684437513351440000e-002) (19, -8.38420912623405460000e-002) (20, -1.22065469622612000000e-001) (21, -2.20449969172477720000e-001) (22, 3.35399061441421510000e-002) (23, -1.44061088562011720000e-001) (24, 1.01843727752566340000e-002) (25, -1.43352448940277100000e-002) (26, -6.01984448730945590000e-002) (27, -1.46035417914390560000e-001) (28, 1.02767877280712130000e-001) (29, 1.68276488780975340000e-001) (30, -2.32569072395563130000e-002) (31, -6.99662044644355770000e-002) (32, 7.32680633664131160000e-002) (33, -1.15726254880428310000e-001) (34, -1.30491273012012240000e-003) (35, -4.26561124622821810000e-002) (36, 1.43967360258102420000e-001) (37, -9.28282886743545530000e-002) (38, -5.51676899194717410000e-002) (39, -1.34847655892372130000e-001) (40, 1.28678873181343080000e-001) (41, 6.42374232411384580000e-002) (42, 7.36311124637722970000e-003) (43, -3.97807434201240540000e-002) (44, 6.56494572758674620000e-002) (45, -8.20509565528482200000e-004) (46, -5.40280789136886600000e-002) (47, -1.43905475735664370000e-001) (48, 2.33104571700096130000e-001) (49, 1.21536612510681150000e-001) (50, 7.19017023220658300000e-003) (51, -1.18964076042175290000e-001) (52, 9.52223390340805050000e-002) (53, -1.81867461651563640000e-002) (54, -1.43639380112290380000e-002) (55, -1.02314278483390810000e-001) (56, -3.37512716650962830000e-002) (57, 9.70442406833171840000e-003) (58, 9.22985747456550600000e-002) (59, 3.13543006777763370000e-002) (60, 2.73594669997692110000e-002) (61, 7.10049923509359360000e-003) (62, -9.05118808150291440000e-002) (63, -1.40867009758949280000e-001) (64, 4.17758412659168240000e-002) (65, 4.72773499786853790000e-002) (66, 6.73244968056678770000e-002) (67, 2.46275663375854490000e-002) (68, 3.67822088301181790000e-002) (69, 1.43711613491177560000e-002) (70, -3.47457677125930790000e-002) (71, -1.26720100641250610000e-001) (72, -9.06926393508911130000e-003) (73, -8.24582278728485110000e-002) (74, 8.56554582715034480000e-002) (75, 1.49866091087460520000e-002) (76, 1.05882678180933000000e-002) (77, -3.25328633189201350000e-002) (78, 3.13707441091537480000e-002) (79, 1.28799583762884140000e-002) (80, 1.31016466766595840000e-002) (81, -8.20913985371589660000e-002) (82, 7.65876770019531250000e-002) (83, -4.89244982600212100000e-003) (84, 1.05765782296657560000e-001) (0, 1.30663290619850160000e-001) (1, 2.21858829259872440000e-001) (2, -2.27076202630996700000e-001) (3, 5.36390170454978940000e-002) (4, -7.08215087652206420000e-002) (5, -5.36341704428195950000e-002) (6, -3.79079356789588930000e-002) (7, 8.01669880747795100000e-002) (8, -1.18601880967617030000e-001) (9, -5.69041483104228970000e-002) (10, -1.58517062664031980000e-001) (11, 1.53825119137763980000e-001) (12, 5.94030022621154790000e-002) (13, 1.94601282477378850000e-001) (14, -8.14701244235038760000e-002) (15, -2.93752718716859820000e-002) (16, -1.01927705109119420000e-001) (17, 2.59415805339813230000e-002) (18, -1.37267068028450010000e-001) (19, -4.12870906293392180000e-002) (20, 8.63344743847846980000e-002) (21, 1.38851553201675420000e-001) (22, -6.40056803822517400000e-002) (23, -1.16129470989108090000e-002) (24, -9.66553911566734310000e-002) (25, 2.90141291916370390000e-002) (26, -1.66659921407699580000e-001) (27, -3.84826920926570890000e-002) (28, -1.44557848572731020000e-001) (29, -2.49824915081262590000e-002) (30, -9.55328636337071660000e-004) (31, 1.37166306376457210000e-001) (32, 8.25821235775947570000e-002) (33, 1.50170505046844480000e-001) (34, 2.68908850848674770000e-002) (35, 1.85224324464797970000e-001) (36, 2.75182705372571950000e-002) (37, 1.40456005930900570000e-001) (38, -5.13126663863658910000e-002) (39, 1.20067946612834930000e-001) (40, -2.27469995617866520000e-001) (41, -1.24059751629829410000e-001) (42, 6.69410079717636110000e-002) (43, 1.72594085335731510000e-001) (44, -7.98510387539863590000e-003) (45, 4.93529960513114930000e-002) (46, -1.45162045955657960000e-001) (47, -4.43777516484260560000e-002) (48, -1.63579404354095460000e-001) (49, -1.73778180032968520000e-002) (50, -1.28119483590126040000e-001) (51, 8.46775248646736150000e-003) (52, -2.05636583268642430000e-002) (53, 6.00186325609683990000e-002) (54, 4.91914860904216770000e-002) (55, 1.36461421847343440000e-001) (56, -9.92386788129806520000e-003) (57, 6.19925372302532200000e-002) (58, -1.71718955039978030000e-001) (59, -3.38460654020309450000e-002) (60, 4.33103367686271670000e-002) (61, 1.10081888735294340000e-001) (62, -1.43271863460540770000e-001) (63, -2.35717613250017170000e-002) (64, 8.18052142858505250000e-002) (65, 1.05586960911750790000e-001) (66, -1.35888382792472840000e-001) (67, -4.27796952426433560000e-002) (68, -1.84803642332553860000e-002) (69, 6.71007111668586730000e-002) (70, -1.35229632258415220000e-001) (71, -9.31094214320182800000e-003) (72, -9.00335311889648440000e-002) (73, 6.51288479566574100000e-002) (74, -4.93538230657577510000e-002) (75, 4.97894659638404850000e-002) (76, -1.12983718514442440000e-001) (77, -4.92182467132806780000e-003) (78, -7.69574642181396480000e-002) (79, 1.20767634361982350000e-002) (80, -1.58028770238161090000e-002) (81, 1.02902024984359740000e-001) (82, -1.41290515661239620000e-001) (83, -2.07986067980527880000e-002) (84, 1.29629775881767270000e-001) (0, -1.90892770886421200000e-001) (1, 8.95475298166275020000e-002) (2, -2.43340745568275450000e-001) (3, -2.86481380462646480000e-001) (4, -2.64818996191024780000e-001) (5, -1.79683174937963490000e-002) (6, -2.22957566380500790000e-001) (7, 2.01625451445579530000e-001) (8, -2.53262639045715330000e-001) (9, -2.52812542021274570000e-002) (10, -2.59844005107879640000e-001) (11, -3.16669076681137080000e-001) (12, -2.01951131224632260000e-001) (13, 8.48854109644889830000e-002) (14, 9.29504409432411190000e-002) (15, 4.24262583255767820000e-002) (16, -2.29164987802505490000e-001) (17, -1.12132206559181210000e-001) (18, -8.96401628851890560000e-002) (19, -1.67890697717666630000e-001) (20, -1.39481201767921450000e-001) (21, -8.80701914429664610000e-002) (22, -7.54740759730339050000e-002) (23, -1.91427245736122130000e-001) (24, -2.36644297838211060000e-001) (25, -6.74097612500190730000e-002) (26, 7.78911188244819640000e-002) (27, 3.92843931913375850000e-002) (28, -4.28038416430354120000e-003) (29, 2.13575631380081180000e-001) (30, -1.38641059398651120000e-001) (31, 5.70276342332363130000e-002) (32, 1.91597659140825270000e-002) (33, 2.81868845224380490000e-001) (34, 1.72334834933280940000e-001) (35, 2.29310199618339540000e-001) (36, 3.97272109985351560000e-002) (37, 2.82205849885940550000e-001) (38, -1.10465496778488160000e-001) (39, 6.99949488043785100000e-002) (40, -2.48420378193259240000e-003) (41, 2.01133459806442260000e-001) (42, -1.21681109070777890000e-001) (43, -2.31950372457504270000e-001) (44, -7.15481257066130640000e-003) (45, 2.43345975875854490000e-001) (46, -1.54443100094795230000e-001) (47, 1.45820975303649900000e-001) (48, -9.80861037969589230000e-002) (49, 1.65113911032676700000e-001) (50, -1.15920931100845340000e-001) (51, 1.26183509826660160000e-001) (52, 9.62730310857295990000e-003) (53, 2.24752724170684810000e-001) (54, -1.36993736028671260000e-001) (55, -2.38314837217330930000e-001) (56, -4.16838675737380980000e-002) (57, 1.84976413846015930000e-001) (58, -3.10255110263824460000e-001) (59, -1.29172191023826600000e-001) (60, -1.48325935006141660000e-001) (61, 3.23349377140402790000e-003) (62, -1.31323993206024170000e-001) (63, 4.91607189178466800000e-003) (64, -1.40358984470367430000e-001) (65, 5.62178939580917360000e-002) (66, -2.89510816335678100000e-001) (67, -1.14437617361545560000e-001) (68, -1.89018826931715010000e-002) (69, 1.63058489561080930000e-001) (70, -1.70425362884998320000e-002) (71, 8.84565040469169620000e-002) (72, 1.11232046037912370000e-002) (73, 1.10339760780334470000e-001) (74, -2.37287193536758420000e-001) (75, -4.01982851326465610000e-002) (76, -2.66051530838012700000e-001) (77, 4.18229959905147550000e-002) (78, -2.41187840700149540000e-001) (79, 9.95716452598571780000e-003) (80, 1.81513372808694840000e-002) (81, 1.55698567628860470000e-001) (82, -6.05733459815382960000e-003) (83, 1.06690101325511930000e-001) (84, 3.05256545543670650000e-001) (0, 5.15490435063838960000e-002) (1, -2.57256031036376950000e-001) (2, -6.75181224942207340000e-002) (3, -5.94846867024898530000e-002) (4, -2.08145543932914730000e-001) (5, 1.21622517704963680000e-001) (6, -2.02133767306804660000e-002) (7, 1.33687272667884830000e-001) (8, -2.02041849493980410000e-001) (9, 1.53842881321907040000e-001) (10, -1.05702206492424010000e-001) (11, -1.01924300193786620000e-001) (12, 3.00330854952335360000e-002) (13, -2.35050141811370850000e-001) (14, 5.58284148573875430000e-002) (15, 2.91253859177231790000e-003) (16, 2.58601903915405270000e-001) (17, 1.77495390176773070000e-001) (18, 5.10948412120342250000e-002) (19, -7.64566734433174130000e-002) (20, -9.50679779052734380000e-002) (21, 1.14263361319899560000e-002) (22, 5.88811226189136510000e-002) (23, 1.41331162303686140000e-002) (24, 2.56844669580459590000e-001) (25, 1.50940567255020140000e-001) (26, 5.04405656829476360000e-003) (27, -1.09369466081261630000e-002) (28, 2.15153042227029800000e-002) (29, 2.28359606117010120000e-002) (30, -2.26545423269271850000e-001) (31, 2.30806749314069750000e-002) (32, 1.26708224415779110000e-001) (33, -6.45820051431655880000e-002) (34, 1.54612153768539430000e-001) (35, 2.52388805150985720000e-001) (36, 1.42887622117996220000e-001) (37, -1.82378310710191730000e-002) (38, -2.48469710350036620000e-001) (39, 9.15658287703990940000e-003) (40, -5.40697313845157620000e-002) (41, 5.64476363360881810000e-002) (42, 1.29580751061439510000e-001) (43, 3.12982559204101560000e-001) (44, -1.53903707861900330000e-001) (45, -2.97556817531585690000e-002) (46, 1.44168451428413390000e-001) (47, 2.38578692078590390000e-001) (48, -1.82660833001136780000e-001) (49, -8.11597332358360290000e-002) (50, 6.85640498995780940000e-002) (51, 2.35494568943977360000e-001) (52, -2.14549079537391660000e-001) (53, -2.81401425600051880000e-002) (54, 6.75153508782386780000e-002) (55, 2.48228788375854490000e-001) (56, 4.01182286441326140000e-002) (57, 8.76717269420623780000e-003) (58, -7.67655447125434880000e-002) (59, 1.73014160245656970000e-002) (60, -1.18564084172248840000e-001) (61, -2.65741646289825440000e-001) (62, 4.46130707859992980000e-002) (63, 1.18953056633472440000e-001) (64, -2.03496202826499940000e-001) (65, -3.71452242136001590000e-001) (66, -1.00343883037567140000e-001) (67, -2.89182923734188080000e-002) (68, -5.04630245268344880000e-002) (69, 2.58035343140363690000e-002) (70, 1.90115366131067280000e-002) (71, 2.36835870891809460000e-002) (72, -1.00892886985093360000e-003) (73, -2.02168640680611130000e-003) (74, 1.04931324720382690000e-001) (75, 1.44138693809509280000e-001) (76, -2.81114522367715840000e-002) (77, 2.98585817217826840000e-002) (78, 7.14731439948081970000e-002) (79, 1.15894280374050140000e-001) (80, -9.25144851207733150000e-002) (81, -7.68827348947525020000e-002) (82, -2.20524147152900700000e-002) (83, -5.09588755667209630000e-002) (84, -4.85830157995224000000e-002) (0, 6.54690340161323550000e-002) (1, -1.45631954073905940000e-001) (2, -8.01746919751167300000e-002) (3, 1.08510412275791170000e-001) (4, -1.01718085352331400000e-003) (5, -9.48219299316406250000e-002) (6, 4.77179400622844700000e-002) (7, 1.16951979696750640000e-001) (8, 4.45594033226370810000e-003) (9, -1.09928548336029050000e-001) (10, -6.77635744214057920000e-002) (11, 9.49414148926734920000e-002) (12, 4.90677207708358760000e-002) (13, -1.45280346274375920000e-001) (14, 5.28862588107585910000e-002) (15, -3.83463874459266660000e-002) (16, -9.69743877649307250000e-002) (17, -8.01351666450500490000e-002) (18, -4.89198369905352590000e-003) (19, -6.69398233294487000000e-002) (20, -5.48561252653598790000e-002) (21, -1.47028900682926180000e-002) (22, 5.21243438124656680000e-002) (23, -6.33350759744644170000e-002) (24, -2.04241136088967320000e-003) (25, 5.58437854051589970000e-002) (26, 3.15569862723350520000e-002) (27, 9.07100923359394070000e-003) (28, 6.19437471032142640000e-002) (29, 6.56582340598106380000e-002) (30, -8.67282897233963010000e-002) (31, -4.22214493155479430000e-002) (32, 8.62753167748451230000e-002) (33, 5.53528890013694760000e-002) (34, -1.87924385070800780000e-001) (35, -1.26954481005668640000e-001) (36, 8.59412923455238340000e-002) (37, 6.17665238678455350000e-002) (38, 6.47225528955459590000e-002) (39, 1.58739522099494930000e-001) (40, 4.99426610767841340000e-002) (41, 1.00726097822189330000e-001) (42, -9.90293025970458980000e-002) (43, -9.73716601729393010000e-002) (44, -8.38720053434371950000e-002) (45, -1.86599837616086010000e-003) (46, -7.35001415014266970000e-002) (47, 5.21503854542970660000e-004) (48, 9.39904898405075070000e-002) (49, 1.37931585311889650000e-001) (50, -2.74024787358939650000e-003) (51, -2.81714145094156270000e-002) (52, 1.34710466954857110000e-003) (53, 3.16639244556427000000e-002) (54, -8.53583067655563350000e-002) (55, -7.30874240398406980000e-002) (56, -5.27138002216815950000e-002) (57, 3.59330400824546810000e-002) (58, 6.67008236050605770000e-002) (59, 1.25466600060462950000e-001) (60, -1.51676476001739500000e-001) (61, -6.64483606815338130000e-002) (62, 7.38732516765594480000e-002) (63, 1.41920462250709530000e-001) (64, -9.20440405607223510000e-002) (65, 3.72143015265464780000e-002) (66, 3.46509218215942380000e-002) (67, 8.40002670884132390000e-002) (68, 3.81356813013553620000e-002) (69, 1.07607625424861910000e-001) (70, 5.32352142035961150000e-002) (71, 6.30793794989585880000e-002) (72, -9.89255830645561220000e-002) (73, -4.61907014250755310000e-002) (74, 3.74640449881553650000e-002) (75, 3.53059209883213040000e-002) (76, -1.47080019116401670000e-001) (77, -1.31819903850555420000e-001) (78, 2.81386934220790860000e-002) (79, 7.59556144475936890000e-002) (80, -5.10374307632446290000e-002) (81, 4.77377837523818020000e-003) (82, 4.65813614428043370000e-002) (83, 4.40810173749923710000e-002) (84, 1.08892479911446570000e-002) (0, -1.67834818363189700000e-001) (1, -2.96263813972473140000e-001) (2, -3.00017267465591430000e-001) (3, -2.09596566855907440000e-002) (4, -1.17385394871234890000e-001) (5, 2.09569513797760010000e-001) (6, -1.64681077003479000000e-001) (7, 6.24149367213249210000e-002) (8, -9.70744490623474120000e-002) (9, 2.29536697268486020000e-001) (10, -2.12454602122306820000e-001) (11, 4.77435179054737090000e-002) (12, -1.71787515282630920000e-001) (13, -2.96777993440628050000e-001) (14, 8.39760899543762210000e-002) (15, 2.16920733451843260000e-001) (16, 1.23715594410896300000e-001) (17, 2.38581761717796330000e-001) (18, -1.17147065699100490000e-001) (19, 1.14572919905185700000e-001) (20, -5.04776798188686370000e-002) (21, 1.07588224112987520000e-001) (22, -7.06439465284347530000e-002) (23, 1.10599219799041750000e-001) (24, 7.61200860142707820000e-002) (25, 1.83320209383964540000e-001) (26, 9.42691341042518620000e-002) (27, 1.69778764247894290000e-001) (28, -5.04107140004634860000e-002) (29, 1.57315164804458620000e-001) (30, -9.43475440144538880000e-002) (31, 1.20362535119056700000e-001) (32, -8.34433585405349730000e-002) (33, 7.45690166950225830000e-002) (34, 3.26229706406593320000e-002) (35, 1.18222206830978390000e-001) (36, -1.22579626739025120000e-001) (37, 3.76385338604450230000e-002) (38, -1.14185966551303860000e-001) (39, 6.65527805685997010000e-002) (40, -6.74467012286186220000e-002) (41, 1.07109986245632170000e-001) (42, -4.26540803164243700000e-003) (43, 1.87759801745414730000e-001) (44, -1.29403918981552120000e-001) (45, 1.07610113918781280000e-001) (46, -2.53805834800004960000e-002) (47, 1.53242617845535280000e-001) (48, -2.26708903908729550000e-001) (49, -8.78294706344604490000e-002) (50, 3.84827057132497430000e-004) (51, 1.81444719433784480000e-001) (52, -1.41284808516502380000e-001) (53, 8.60013142228126530000e-002) (54, -3.20993922650814060000e-002) (55, 1.74744054675102230000e-001) (56, -1.13386191427707670000e-001) (57, 3.21796312928199770000e-002) (58, -1.08085073530673980000e-001) (59, 4.18236292898654940000e-002) (60, -5.41444048285484310000e-002) (61, 6.05858601629734040000e-002) (62, -2.31775194406509400000e-002) (63, 8.93697664141654970000e-002) (64, -9.26137045025825500000e-002) (65, -9.46023780852556230000e-003) (66, -1.44718587398529050000e-001) (67, 2.84200664609670640000e-002) (68, -1.22373819351196290000e-001) (69, 2.66866981983184810000e-002) (70, -9.17437076568603520000e-002) (71, 3.07737365365028380000e-002) (72, -5.19343204796314240000e-002) (73, 5.50388097763061520000e-002) (74, -9.10886451601982120000e-002) (75, 4.27264310419559480000e-002) (76, 2.80700623989105220000e-002) (77, 1.20486371219158170000e-001) (78, -1.00455015897750850000e-001) (79, 3.47158052027225490000e-002) (80, -6.49909898638725280000e-002) (81, 5.32570518553256990000e-002) (82, -8.41051489114761350000e-002) (83, 3.09854187071323390000e-002) (84, -3.14638279378414150000e-002) (0, 1.71537294983863830000e-001) (1, -4.98095005750656130000e-001) (2, 3.78192901611328130000e-001) (3, -9.50229227542877200000e-001) (4, -8.31901431083679200000e-002) (5, -8.84556472301483150000e-001) (6, 4.15163747966289520000e-002) (7, 2.53447562456130980000e-001) (8, -6.31501600146293640000e-002) (9, -8.85181963443756100000e-001) (10, 3.65411579608917240000e-001) (11, -9.56845641136169430000e-001) (12, 1.83398112654685970000e-001) (13, -5.00481784343719480000e-001) (14, 4.35429699718952180000e-002) (15, -4.77704375982284550000e-001) (16, 2.91359331458806990000e-002) (17, -2.59011685848236080000e-001) (18, -7.56732895970344540000e-002) (19, -4.72893491387367250000e-002) (20, -1.16902962327003480000e-001) (21, 2.53835529088974000000e-001) (22, -8.61818790435791020000e-002) (23, -4.91013228893280030000e-002) (24, 4.09795865416526790000e-002) (25, -2.52545505762100220000e-001) (26, 4.42026369273662570000e-002) (27, -4.74780052900314330000e-001) (28, -1.42350550740957260000e-002) (29, -3.49919736385345460000e-001) (30, -2.39017903804779050000e-001) (31, 6.69604539871215820000e-001) (32, -2.37489506602287290000e-001) (33, -3.48349250853061680000e-002) (34, -2.80538141727447510000e-001) (35, 5.00705659389495850000e-001) (36, -2.32084274291992190000e-001) (37, -4.98032644391059880000e-002) (38, -2.24435508251190190000e-001) (39, 6.67555809020996090000e-001) (40, 3.89162945793941620000e-004) (41, -3.70282977819442750000e-001) (42, -4.31257277727127080000e-001) (43, -2.52932101488113400000e-001) (44, -1.74012437462806700000e-001) (45, 1.20313549041748050000e+000) (46, -2.70531594753265380000e-001) (47, -8.87507665902376170000e-003) (48, -3.30650627613067630000e-001) (49, 2.19683453440666200000e-001) (50, -2.65661627054214480000e-001) (51, -3.13628539443016050000e-002) (52, -1.64889231324195860000e-001) (53, 1.22729253768920900000e+000) (54, -4.50168609619140630000e-001) (55, -2.44575038552284240000e-001) (56, -1.46275490522384640000e-001) (57, 1.93279325962066650000e-001) (58, -2.78761625289916990000e-001) (59, 2.21934556961059570000e-001) (60, -6.86246603727340700000e-002) (61, 3.47928404808044430000e-001) (62, -1.09892167150974270000e-001) (63, -1.68165452778339390000e-002) (64, -6.95890933275222780000e-002) (65, 3.36922347545623780000e-001) (66, -2.61501640081405640000e-001) (67, 2.28008210659027100000e-001) (68, -1.35042861104011540000e-001) (69, 1.94478347897529600000e-001) (70, 1.16639481857419010000e-002) (71, 4.36808586120605470000e-001) (72, 7.07231462001800540000e-002) (73, 3.04030895233154300000e-001) (74, 6.90735131502151490000e-002) (75, 5.89449405670166020000e-001) (76, 5.70120774209499360000e-002) (77, 8.37086021900177000000e-001) (78, 5.94756193459033970000e-002) (79, 5.79452693462371830000e-001) (80, 7.18156173825263980000e-002) (81, 3.00019413232803340000e-001) (82, 2.10551917552948000000e-003) (83, 4.45570200681686400000e-001) (84, -1.61172986030578610000e+000) (0, 3.82138900458812710000e-002) (1, 1.25960484147071840000e-001) (2, -6.45074993371963500000e-002) (3, -6.50303140282630920000e-002) (4, -1.10594011843204500000e-001) (5, -8.89211241155862810000e-003) (6, -1.85110971331596370000e-001) (7, 1.09165003523230550000e-002) (8, -1.11428864300251010000e-001) (9, -8.02850052714347840000e-002) (10, -3.93870547413825990000e-002) (11, -1.19429558515548710000e-001) (12, 1.19042280130088330000e-003) (13, 1.23306497931480410000e-001) (14, -1.49556383490562440000e-001) (15, 2.26490765810012820000e-001) (16, 1.27802370116114620000e-002) (17, 1.54485121369361880000e-001) (18, 7.37283527851104740000e-002) (19, 1.19289077818393710000e-001) (20, -3.16576175391674040000e-002) (21, 1.35140389204025270000e-001) (22, -3.98812294006347660000e-002) (23, 1.30376830697059630000e-001) (24, 4.14944887161254880000e-002) (25, 2.17037454247474670000e-001) (26, -5.65270744264125820000e-002) (27, 2.42282882332801820000e-001) (28, -1.08131811022758480000e-001) (29, 1.71713158488273620000e-001) (30, -2.82071053981781010000e-001) (31, -2.64651235193014140000e-002) (32, -2.12013974785804750000e-001) (33, -1.16724497638642790000e-003) (34, -3.59928220510482790000e-001) (35, -1.74432262778282170000e-001) (36, -2.05844387412071230000e-001) (37, -1.26326028257608410000e-002) (38, -2.77205884456634520000e-001) (39, -7.21387788653373720000e-002) (40, -9.05960425734519960000e-002) (41, 1.79736703634262080000e-001) (42, -4.56528551876544950000e-002) (43, 2.20661163330078130000e-001) (44, -1.30173295736312870000e-001) (45, 2.41439938545227050000e-001) (46, 1.80833023041486740000e-002) (47, 1.58138409256935120000e-001) (48, 4.59952764213085170000e-002) (49, 2.88249075412750240000e-001) (50, -2.94413249939680100000e-002) (51, 1.52560591697692870000e-001) (52, -1.48253649473190310000e-001) (53, 2.46772423386573790000e-001) (54, -7.88508206605911250000e-002) (55, 1.52275756001472470000e-001) (56, -1.39087602496147160000e-001) (57, -2.88051906973123550000e-002) (58, -4.46530282497406010000e-002) (59, 1.77091807126998900000e-001) (60, -2.65514403581619260000e-002) (61, 1.34579941630363460000e-001) (62, -4.05192095786333080000e-003) (63, 1.50690421462059020000e-001) (64, -1.89878083765506740000e-002) (65, 1.27742424607276920000e-001) (66, -5.57307377457618710000e-002) (67, 2.07488879561424260000e-001) (68, -1.68958112597465520000e-001) (69, -6.65317922830581670000e-002) (70, -1.99135765433311460000e-001) (71, 4.78329658508300780000e-002) (72, -1.09642080962657930000e-001) (73, 9.10313054919242860000e-002) (74, -2.34015733003616330000e-001) (75, 3.05053815245628360000e-002) (76, -8.52269902825355530000e-002) (77, 1.41753787174820900000e-002) (78, -2.02974945306777950000e-001) (79, -1.79402474313974380000e-002) (80, -7.03070834279060360000e-002) (81, 1.01137720048427580000e-001) (82, -1.64351239800453190000e-001) (83, 1.84918213635683060000e-002) (84, 5.71062453091144560000e-002) (0, 1.83459863066673280000e-001) (1, 1.20873875916004180000e-001) (2, 2.30766415596008300000e-001) (3, 3.67223709821701050000e-001) (4, -1.02123245596885680000e-001) (5, -2.90615879930555820000e-003) (6, -2.69810974597930910000e-001) (7, 4.44096215069293980000e-002) (8, -1.06091603636741640000e-001) (9, 3.52324976120144130000e-004) (10, 2.22667589783668520000e-001) (11, 3.58127385377883910000e-001) (12, 1.87765955924987790000e-001) (13, 1.39460027217864990000e-001) (14, -1.64683777838945390000e-002) (15, 2.52538621425628660000e-001) (16, -2.19879038631916050000e-002) (17, 2.39270448684692380000e-001) (18, -3.88451159000396730000e-001) (19, 2.18150049448013310000e-001) (20, -5.90861774981021880000e-002) (21, 1.04536414146423340000e-001) (22, -3.79960417747497560000e-001) (23, 2.24856659770011900000e-001) (24, -3.27800889499485490000e-003) (25, 2.23787754774093630000e-001) (26, -9.27066709846258160000e-003) (27, 2.45719805359840390000e-001) (28, -1.69653341174125670000e-001) (29, -1.57509997487068180000e-001) (30, -8.79052802920341490000e-002) (31, -2.46227029711008070000e-002) (32, -1.13934852182865140000e-001) (33, 8.79313722252845760000e-002) (34, -2.15024963021278380000e-001) (35, -5.56502602994441990000e-002) (36, -1.17290250957012180000e-001) (37, 1.20320267975330350000e-001) (38, -7.05419555306434630000e-002) (39, -4.33348491787910460000e-002) (40, -1.62478029727935790000e-001) (41, -1.78603410720825200000e-001) (42, -1.47028699517250060000e-001) (43, -2.05884184688329700000e-002) (44, 4.34547215700149540000e-002) (45, -4.29811030626297000000e-002) (46, 5.25960586965084080000e-002) (47, 6.44828528165817260000e-002) (48, 1.81656062602996830000e-001) (49, -2.03152298927307130000e-001) (50, 5.25473356246948240000e-002) (51, 8.51345583796501160000e-002) (52, 3.53246256709098820000e-002) (53, -3.33522409200668330000e-002) (54, -1.63029089570045470000e-001) (55, 6.03579799644649030000e-004) (56, 1.91913917660713200000e-002) (57, -4.39760414883494380000e-003) (58, 1.91617876291275020000e-001) (59, -1.65344759821891780000e-001) (60, 2.21367552876472470000e-001) (61, 1.13388039171695710000e-001) (62, -7.88417756557464600000e-002) (63, -3.04918318986892700000e-001) (64, 2.40409895777702330000e-001) (65, 1.25605955719947810000e-001) (66, 2.03682705760002140000e-001) (67, -1.89112514257431030000e-001) (68, 2.69829463213682170000e-002) (69, 7.48051796108484270000e-003) (70, -8.30443650484085080000e-002) (71, 1.70356735587120060000e-001) (72, 8.74104350805282590000e-002) (73, 2.68055796623229980000e-001) (74, 1.89329341053962710000e-001) (75, 7.44173228740692140000e-002) (76, 3.95134985446929930000e-001) (77, 3.70691627264022830000e-001) (78, 1.73025518655776980000e-001) (79, 6.89713507890701290000e-002) (80, 8.27448740601539610000e-002) (81, 2.65060126781463620000e-001) (82, -1.02522045373916630000e-001) (83, 1.51822671294212340000e-001) (84, -9.57345724105834960000e-001) (0, 5.61640679836273190000e-001) (1, -1.06219327449798580000e+000) (2, 3.80381256341934200000e-001) (3, -7.40423202514648440000e-001) (4, 6.46534785628318790000e-002) (5, -7.25767165422439580000e-002) (6, 1.61724925041198730000e-001) (7, 1.68285612016916280000e-002) (8, 7.45748355984687810000e-002) (9, -6.21483504772186280000e-001) (10, 1.56320929527282710000e-001) (11, -4.38543349504470830000e-001) (12, 4.93811428546905520000e-001) (13, -6.01441800594329830000e-001) (14, 2.58160352706909180000e-001) (15, -3.91250699758529660000e-001) (16, 2.39953860640525820000e-001) (17, -1.21495120227336880000e-001) (18, -5.47889508306980130000e-002) (19, 3.27771306037902830000e-001) (20, -2.76633858680725100000e-001) (21, 4.68001514673233030000e-002) (22, 4.97716993093490600000e-001) (23, 1.51707440614700320000e-001) (24, -6.15771934390068050000e-002) (25, -9.54048559069633480000e-002) (26, 4.10908162593841550000e-001) (27, -2.53853082656860350000e-001) (28, 8.61291587352752690000e-002) (29, 3.80484670400619510000e-001) (30, -2.21903666853904720000e-001) (31, 6.56577587127685550000e-001) (32, -2.73871183395385740000e-001) (33, 1.15635894238948820000e-001) (34, -3.39850813150405880000e-001) (35, 4.28785115480422970000e-001) (36, -2.56360590457916260000e-001) (37, 3.90632331371307370000e-001) (38, 2.09515932947397230000e-002) (39, 4.56436812877655030000e-001) (40, 3.72101157903671260000e-001) (41, 2.01576367020606990000e-001) (42, -3.82632255554199220000e-001) (43, 3.35779249668121340000e-001) (44, -2.45476007461547850000e-001) (45, -1.94690823554992680000e-001) (46, -5.99802255630493160000e-001) (47, 3.53683114051818850000e-001) (48, -5.16525208950042720000e-001) (49, 3.81612330675125120000e-001) (50, -1.77710890769958500000e-001) (51, 2.72999666631221770000e-002) (52, -5.35202801227569580000e-001) (53, -1.63168385624885560000e-001) (54, 7.49697834253311160000e-002) (55, -6.32792636752128600000e-002) (56, 7.99014568328857420000e-002) (57, -1.33096560835838320000e-001) (58, -4.28483217954635620000e-001) (59, 6.50451004505157470000e-001) (60, -3.46935279667377470000e-002) (61, -7.88236930966377260000e-002) (62, -3.77323091030120850000e-001) (63, 1.68917596340179440000e-001) (64, -4.60659146308898930000e-001) (65, 5.29616177082061770000e-001) (66, 3.79004269838333130000e-001) (67, 8.27356129884719850000e-002) (68, 2.43795931339263920000e-001) (69, -2.55477409809827800000e-002) (70, 3.13968241214752200000e-001) (71, -7.67095565795898440000e-001) (72, 6.03198222815990450000e-002) (73, -6.37578904628753660000e-001) (74, -4.47094529867172240000e-001) (75, 1.74317896366119380000e+000) (76, -5.61048865318298340000e-001) (77, 9.21398520469665530000e-001) (78, 2.14350149035453800000e-001) (79, -1.38260090351104740000e+000) (80, -4.61215853691101070000e-001) (81, 9.32278215885162350000e-001) (82, -5.11075973510742190000e-001) (83, 9.37638878822326660000e-001) (84, -4.55323874950408940000e-001) (0, -3.01375705748796460000e-002) (1, 3.84277384728193280000e-003) (2, 1.05554975569248200000e-001) (3, 2.71244719624519350000e-002) (4, -1.77135795354843140000e-001) (5, -1.48054286837577820000e-001) (6, -5.74518144130706790000e-002) (7, -2.43176780641078950000e-002) (8, -1.32252275943756100000e-001) (9, -1.79565265774726870000e-001) (10, 3.85827049612998960000e-002) (11, 2.06114500761032100000e-002) (12, 2.26547960191965100000e-002) (13, 2.70163249224424360000e-002) (14, -2.02860951423645020000e-001) (15, 1.03309661149978640000e-001) (16, 2.67274267971515660000e-002) (17, 1.58020362257957460000e-001) (18, -3.19151543080806730000e-002) (19, -4.51299622654914860000e-002) (20, 8.42091739177703860000e-002) (21, 1.14354044198989870000e-001) (22, -3.80503125488758090000e-002) (23, 2.97929383814334870000e-002) (24, 2.79865860939025880000e-002) (25, 1.71016931533813480000e-001) (26, -1.60363897681236270000e-001) (27, 1.01432770490646360000e-001) (28, 5.82319907844066620000e-002) (29, 2.27913469076156620000e-001) (30, -1.27964526414871220000e-001) (31, -1.05948403477668760000e-001) (32, 4.13672216236591340000e-002) (33, 1.23311407864093780000e-001) (34, -5.53306117653846740000e-002) (35, -2.78905127197504040000e-002) (36, 8.43375101685523990000e-002) (37, 1.27140700817108150000e-001) (38, -1.44888147711753850000e-001) (39, -7.07023963332176210000e-002) (40, -2.02764794230461120000e-002) (41, 3.07592958211898800000e-001) (42, -2.16220870614051820000e-001) (43, -1.06159046292304990000e-001) (44, -1.00699327886104580000e-001) (45, -1.91361028701066970000e-002) (46, -2.13366508483886720000e-001) (47, -8.45647230744361880000e-002) (48, -8.20925310254096980000e-002) (49, 9.63856279850006100000e-003) (50, -2.10374280810356140000e-001) (51, -1.17606148123741150000e-001) (52, -1.52813687920570370000e-001) (53, 2.56043355911970140000e-002) (54, -3.36994379758834840000e-001) (55, -1.13233782351017000000e-001) (56, 1.51356486603617670000e-002) (57, 1.47946402430534360000e-001) (58, 7.12877698242664340000e-003) (59, 5.09197637438774110000e-002) (60, 5.05053438246250150000e-003) (61, 1.56885668635368350000e-001) (62, -5.81361353397369380000e-002) (63, 1.04297101497650150000e-001) (64, -1.95961985737085340000e-002) (65, 1.26904204487800600000e-001) (66, 4.11583371460437770000e-002) (67, 1.11546076834201810000e-001) (68, -3.37276607751846310000e-002) (69, 1.02265216410160060000e-001) (70, -2.46535874903202060000e-002) (71, 2.91785579174757000000e-002) (72, -7.08113908767700200000e-002) (73, 5.22486679255962370000e-002) (74, 2.22641322761774060000e-002) (75, 1.14608220756053920000e-001) (76, -3.04670333862304690000e-002) (77, 6.20595104992389680000e-002) (78, -9.86205879598855970000e-003) (79, 7.13873729109764100000e-002) (80, -5.61128742992877960000e-002) (81, -5.52776677068322900000e-004) (82, -2.97149904072284700000e-002) (83, 1.50640467181801800000e-002) (84, -1.39631992205977440000e-002) (0, 8.13436880707740780000e-002) (1, -3.07644486427307130000e-001) (2, -1.25623255968093870000e-001) (3, -1.04211278259754180000e-001) (4, 2.35748831182718280000e-002) (5, -1.39834091067314150000e-001) (6, -2.60378122329711910000e-002) (7, 1.92888174206018450000e-002) (8, -5.30163161456584930000e-002) (9, -1.03039331734180450000e-001) (10, -1.49500504136085510000e-001) (11, -6.07837624847888950000e-002) (12, 4.04481291770935060000e-002) (13, -2.59113997220993040000e-001) (14, 2.75249719619750980000e-001) (15, -2.15008133091032510000e-003) (16, 1.99719443917274480000e-001) (17, -2.66428649425506590000e-001) (18, 8.50353315472602840000e-002) (19, 4.69123385846614840000e-002) (20, 7.92688950896263120000e-002) (21, -1.20178302749991420000e-002) (22, 1.52305662631988530000e-001) (23, 1.53480358421802520000e-002) (24, 1.75918310880661010000e-001) (25, -1.76761388778686520000e-001) (26, 2.06594794988632200000e-001) (27, 8.41271877288818360000e-003) (28, -1.31721839308738710000e-001) (29, -2.34494417905807500000e-001) (30, 8.63836184144020080000e-002) (31, -1.13819845020771030000e-001) (32, -2.66408801078796390000e-001) (33, -1.54552102088928220000e-001) (34, -1.45310536026954650000e-001) (35, -5.67684099078178410000e-002) (36, -2.37053349614143370000e-001) (37, -1.43216982483863830000e-001) (38, 1.18575997650623320000e-001) (39, -4.12799604237079620000e-002) (40, -1.33427023887634280000e-001) (41, -2.73831933736801150000e-001) (42, 2.14346438646316530000e-001) (43, 1.26941800117492680000e-001) (44, 9.81614962220191960000e-002) (45, -6.49499744176864620000e-002) (46, -7.68814831972122190000e-002) (47, 1.99370607733726500000e-001) (48, 1.09446458518505100000e-001) (49, 1.14268235862255100000e-001) (50, 1.71798225492239000000e-002) (51, 1.21322728693485260000e-001) (52, 1.55617758631706240000e-001) (53, -1.01364098489284520000e-001) (54, 1.25692754983901980000e-001) (55, 1.74760863184928890000e-001) (56, 1.43238902091979980000e-001) (57, -1.60522572696208950000e-002) (58, 6.06970814988017080000e-003) (59, -3.49559411406517030000e-002) (60, -3.08006387203931810000e-002) (61, -1.72949671745300290000e-001) (62, -1.59146990627050400000e-002) (63, -6.56803324818611150000e-002) (64, 1.77778620272874830000e-002) (65, -5.42526133358478550000e-002) (66, -4.84482618048787120000e-004) (67, -3.89470495283603670000e-002) (68, 2.01012611389160160000e-001) (69, -8.69887843728065490000e-002) (70, -7.54799111746251580000e-004) (71, -1.08320847153663640000e-001) (72, 8.48540142178535460000e-002) (73, 4.23424094915390010000e-002) (74, 5.04760034382343290000e-002) (75, 2.01607588678598400000e-002) (76, 1.43873635679483410000e-002) (77, 4.89735305309295650000e-002) (78, 4.07794378697872160000e-002) (79, 1.29180043935775760000e-001) (80, 1.48058876395225520000e-001) (81, 8.91089588403701780000e-002) (82, -2.82511161640286450000e-003) (83, -1.77465584129095080000e-002) (84, -7.63167217373847960000e-002) (0, 1.31203224882483480000e-002) (1, 5.54296910762786870000e-001) (2, -2.31501355767250060000e-001) (3, 5.58524072170257570000e-001) (4, -1.87878966331481930000e-001) (5, 3.85948568582534790000e-001) (6, 4.07027825713157650000e-002) (7, 1.24034687876701350000e-001) (8, -2.26054087281227110000e-001) (9, 8.22306871414184570000e-001) (10, -1.48555591702461240000e-001) (11, 2.11427316069602970000e-001) (12, -1.03739053010940550000e-001) (13, 4.71291661262512210000e-001) (14, -2.02326625585556030000e-001) (15, 4.63405847549438480000e-001) (16, -1.21909558773040770000e-001) (17, -4.34402562677860260000e-002) (18, -2.43153631687164310000e-001) (19, -2.24109917879104610000e-001) (20, -7.85388648509979250000e-002) (21, -4.04994338750839230000e-002) (22, -9.91157665848731990000e-002) (23, 3.13647419214248660000e-001) (24, 1.54749779030680660000e-002) (25, -1.21357150375843050000e-001) (26, 7.65101313591003420000e-002) (27, -8.22079088538885120000e-003) (28, 4.47858646512031560000e-002) (29, -2.42703422904014590000e-001) (30, -1.26816391944885250000e-001) (31, -1.77391022443771360000e-001) (32, -4.16591048240661620000e-001) (33, -4.82965350151062010000e-001) (34, 7.78972581028938290000e-002) (35, 7.28297084569931030000e-002) (36, 3.26877862215042110000e-001) (37, -1.28453999757766720000e-001) (38, 7.98337534070014950000e-002) (39, -2.02108889818191530000e-001) (40, -1.25878944993019100000e-001) (41, -1.88340306282043460000e-001) (42, 7.68585056066513060000e-002) (43, 3.27600270509719850000e-001) (44, 2.33016923069953920000e-001) (45, 7.89806246757507320000e-002) (46, -3.23511779308319090000e-001) (47, -9.78624701499938960000e-001) (48, 6.49115368723869320000e-002) (49, -2.95655190944671630000e-001) (50, 7.21984058618545530000e-002) (51, 7.08807170391082760000e-001) (52, 2.13163539767265320000e-001) (53, -1.00995153188705440000e-001) (54, 1.53459653258323670000e-001) (55, 3.47793549299240110000e-002) (56, 2.81794697046279910000e-001) (57, 4.62398584932088850000e-003) (58, 7.09001719951629640000e-002) (59, 6.40728771686553960000e-002) (60, -5.44837951660156250000e-001) (61, -7.65791356563568120000e-001) (62, 2.01420426368713380000e-001) (63, -1.26952230930328370000e-001) (64, 9.34685885906219480000e-001) (65, 7.51772701740264890000e-001) (66, -1.85603708028793330000e-001) (67, -2.04263091087341310000e-001) (68, -2.87109673023223880000e-001) (69, 1.71295806765556340000e-001) (70, 4.09426987171173100000e-001) (71, 2.43578888475894930000e-002) (72, 3.98091018199920650000e-001) (73, 7.91490003466606140000e-002) (74, -5.76454162597656250000e-001) (75, -1.42465293407440190000e-001) (76, 4.41736876964569090000e-002) (77, -1.25953137874603270000e-001) (78, 1.01203715801239010000e+000) (79, 3.58269333839416500000e-001) (80, -1.53893321752548220000e-001) (81, -1.77338272333145140000e-001) (82, -2.72348612546920780000e-001) (83, -5.23888356983661650000e-002) (84, 4.53667230904102330000e-002) (0, 3.21199707686901090000e-002) (1, 1.90440773963928220000e-001) (2, 1.98908671736717220000e-001) (3, -6.24549537897109990000e-002) (4, 4.68376055359840390000e-002) (5, 5.36868758499622340000e-002) (6, 4.96693439781665800000e-002) (7, 6.32920637726783750000e-002) (8, 3.61855030059814450000e-002) (9, 1.11232578754425050000e-001) (10, 2.12425023317337040000e-001) (11, -1.40401124954223630000e-001) (12, 5.25545468553900720000e-003) (13, 3.60873937606811520000e-002) (14, -4.12705428898334500000e-002) (15, 4.63337637484073640000e-003) (16, -8.60141366720199580000e-002) (17, -8.39818194508552550000e-002) (18, -1.28435268998146060000e-001) (19, -5.25845177471637730000e-002) (20, -1.60281315445899960000e-001) (21, -1.20557501912117000000e-001) (22, -9.20791402459144590000e-002) (23, -4.35747466981410980000e-002) (24, -8.81258398294448850000e-002) (25, -8.58509093523025510000e-002) (26, -1.52410984039306640000e-001) (27, -4.91343326866626740000e-002) (28, -1.43447592854499820000e-001) (29, -2.29358635842800140000e-002) (30, 1.74059137701988220000e-001) (31, 1.52685508131980900000e-001) (32, 5.64534775912761690000e-002) (33, 1.36481776833534240000e-001) (34, -9.42415446043014530000e-002) (35, -1.01284980773925780000e-001) (36, -4.35619466006755830000e-002) (37, 9.53993722796440120000e-002) (38, 1.39941334724426270000e-001) (39, 1.88254550099372860000e-001) (40, -1.60956263542175290000e-001) (41, -8.49788859486579900000e-002) (42, 1.38306334614753720000e-001) (43, 1.10212296247482300000e-001) (44, -1.23082071542739870000e-001) (45, -1.27449691295623780000e-001) (46, -9.29253473877906800000e-002) (47, -6.33858367800712590000e-002) (48, 2.33503594994544980000e-001) (49, 1.93227976560592650000e-001) (50, -1.22152306139469150000e-001) (51, -7.58509337902069090000e-002) (52, -7.05137029290199280000e-002) (53, -8.01022425293922420000e-002) (54, 6.50377897545695300000e-003) (55, 1.10112294554710390000e-001) (56, -1.05360738933086400000e-001) (57, 1.63553189486265180000e-002) (58, 2.26194281131029130000e-002) (59, 2.41393875330686570000e-002) (60, 5.79688102006912230000e-002) (61, 1.48813635110855100000e-001) (62, -9.10104438662528990000e-002) (63, -3.80060374736785890000e-002) (64, 3.57105284929275510000e-002) (65, 1.22193969786167140000e-001) (66, -2.16126013547182080000e-002) (67, 1.23799312859773640000e-002) (68, -7.69024565815925600000e-002) (69, -3.02094537764787670000e-002) (70, 1.21567219495773320000e-001) (71, 1.15579590201377870000e-001) (72, -7.59627893567085270000e-002) (73, -2.90847737342119220000e-002) (74, -7.80952721834182740000e-002) (75, -5.47650419175624850000e-002) (76, 5.07026910781860350000e-002) (77, 6.47831112146377560000e-002) (78, -4.77510504424571990000e-002) (79, -3.65166030824184420000e-002) (80, -7.25209787487983700000e-002) (81, -5.05497194826602940000e-002) (82, -2.66759569058194760000e-004) (83, 4.27749902009963990000e-002) (84, -2.13242927566170690000e-003) (0, -4.00273054838180540000e-001) (1, 2.61139601469039920000e-001) (2, 1.11681871116161350000e-001) (3, -2.34319180250167850000e-001) (4, 5.33774755895137790000e-002) (5, -1.20506510138511660000e-002) (6, -5.86814023554325100000e-002) (7, 5.49634248018264770000e-002) (8, 5.17869666218757630000e-002) (9, -8.62589329481124880000e-002) (10, 1.11299321055412290000e-001) (11, -2.25409358739852910000e-001) (12, -4.89653587341308590000e-001) (13, 2.45229482650756840000e-001) (14, -2.85487979650497440000e-001) (15, 5.09527362883090970000e-002) (16, 1.39858603477478030000e-001) (17, 3.32827091217041020000e-001) (18, 6.36463835835456850000e-002) (19, -1.53815781231969590000e-003) (20, -1.05115152895450590000e-001) (21, 1.60612687468528750000e-001) (22, 9.02058556675910950000e-002) (23, 3.09761688113212590000e-002) (24, 1.08593516051769260000e-001) (25, 3.22480440139770510000e-001) (26, -4.28526610136032100000e-001) (27, 4.57454062998294830000e-002) (28, -4.28991839289665220000e-002) (29, 2.45052605867385860000e-001) (30, -1.33000090718269350000e-001) (31, -4.79537583887577060000e-002) (32, -1.19929246604442600000e-001) (33, -1.73276767134666440000e-001) (34, -1.21862061321735380000e-001) (35, -9.43389832973480220000e-002) (36, -5.93765228986740110000e-002) (37, -1.52894422411918640000e-001) (38, -1.69800207018852230000e-001) (39, -7.56013765931129460000e-002) (40, -7.73468688130378720000e-002) (41, 1.59100115299224850000e-001) (42, -5.45040778815746310000e-002) (43, 1.57908767461776730000e-001) (44, -1.74874916672706600000e-001) (45, -4.10563237965106960000e-002) (46, 1.49139374494552610000e-001) (47, -1.97647372260689740000e-004) (48, -7.44165480136871340000e-002) (49, -2.95526292175054550000e-002) (50, 1.02252617478370670000e-001) (51, -6.58258190378546710000e-003) (52, -1.79631814360618590000e-001) (53, -2.75839027017354970000e-002) (54, -4.06205877661705020000e-002) (55, 9.74705219268798830000e-002) (56, -1.15234360098838810000e-001) (57, -8.21507629007101060000e-003) (58, 3.19223292171955110000e-002) (59, 1.01309537887573240000e-001) (60, 3.94735261797904970000e-002) (61, 1.05999469757080080000e-001) (62, 7.87616819143295290000e-002) (63, 2.08147823810577390000e-001) (64, 6.77368417382240300000e-003) (65, 5.33235184848308560000e-002) (66, 2.48896107077598570000e-002) (67, 7.75417387485504150000e-002) (68, -1.92984938621521000000e-001) (69, -1.73039752990007400000e-002) (70, 3.05222347378730770000e-002) (71, 1.07790149748325350000e-001) (72, -6.81563019752502440000e-002) (73, -1.00472010672092440000e-002) (74, 2.38776244223117830000e-002) (75, 6.20606243610382080000e-002) (76, -8.04274007678031920000e-002) (77, -5.76015375554561610000e-002) (78, -4.39530983567237850000e-002) (79, -1.92996561527252200000e-002) (80, -5.38318268954753880000e-002) (81, -2.53406632691621780000e-002) (82, 4.02692519128322600000e-002) (83, 8.02034139633178710000e-002) (84, -2.10059918463230130000e-002) (0, -8.32421556115150450000e-002) (1, -3.90945635735988620000e-002) (2, -3.40774297714233400000e-001) (3, 2.13774591684341430000e-001) (4, -2.04391568899154660000e-001) (5, -2.41249836981296540000e-002) (6, -3.07361602783203130000e-001) (7, -1.32102295756340030000e-001) (8, -1.98899775743484500000e-001) (9, -1.80294085294008260000e-002) (10, -2.75350362062454220000e-001) (11, 2.30399116873741150000e-001) (12, -8.49918872117996220000e-002) (13, -1.42057746648788450000e-001) (14, 1.22292414307594300000e-001) (15, 3.10594648122787480000e-001) (16, -1.28330150619149210000e-002) (17, -3.36704738438129430000e-002) (18, 2.96836830675601960000e-002) (19, 1.55768856406211850000e-001) (20, 2.59638726711273190000e-001) (21, 2.85565644502639770000e-001) (22, -8.04546475410461430000e-003) (23, 1.27813845872879030000e-001) (24, 8.70933830738067630000e-002) (25, 1.44721344113349910000e-002) (26, 1.32117629051208500000e-001) (27, 3.59137386083602910000e-001) (28, -1.41918376088142400000e-001) (29, 1.31513282656669620000e-001) (30, -9.55093204975128170000e-002) (31, -7.28052183985710140000e-002) (32, -2.24657222628593440000e-001) (33, 6.04113424196839330000e-003) (34, -1.42843291163444520000e-001) (35, -7.92986080050468440000e-002) (36, -2.17450186610221860000e-001) (37, 1.47523256018757820000e-002) (38, -2.19724196940660480000e-002) (39, -7.64603838324546810000e-002) (40, -6.82337209582328800000e-002) (41, 1.54166996479034420000e-001) (42, -2.56967365741729740000e-001) (43, -1.09578527510166170000e-001) (44, 1.47074654698371890000e-001) (45, 2.65210270881652830000e-001) (46, 1.01240284740924840000e-001) (47, 1.18185259401798250000e-001) (48, -5.29292076826095580000e-002) (49, 8.27376544475555420000e-002) (50, 7.15145319700241090000e-002) (51, 1.39715090394020080000e-001) (52, 1.65394097566604610000e-001) (53, 2.55356162786483760000e-001) (54, -1.55390948057174680000e-001) (55, -8.99875760078430180000e-002) (56, -6.33669719099998470000e-002) (57, -8.52904021739959720000e-002) (58, -8.57677659951150420000e-004) (59, 