FANN_FLO_2.1
num_layers=3
learning_rate=0.500000
connection_rate=1.000000
network_type=0
learning_momentum=0.000000
training_algorithm=1
train_error_function=1
train_stop_function=0
cascade_output_change_fraction=0.010000
quickprop_decay=-0.000100
quickprop_mu=1.750000
rprop_increase_factor=1.200000
rprop_decrease_factor=0.500000
rprop_delta_min=0.000000
rprop_delta_max=50.000000
rprop_delta_zero=0.100000
cascade_output_stagnation_epochs=12
cascade_candidate_change_fraction=0.010000
cascade_candidate_stagnation_epochs=12
cascade_max_out_epochs=150
cascade_min_out_epochs=50
cascade_max_cand_epochs=150
cascade_min_cand_epochs=50
cascade_num_candidate_groups=2
bit_fail_limit=3.49999994039535520000e-001
cascade_candidate_limit=1.00000000000000000000e+003
cascade_weight_multiplier=4.00000005960464480000e-001
cascade_activation_functions_count=10
cascade_activation_functions=3 5 7 8 10 11 14 15 16 17 
cascade_activation_steepnesses_count=4
cascade_activation_steepnesses=2.50000000000000000000e-001 5.00000000000000000000e-001 7.50000000000000000000e-001 1.00000000000000000000e+000 
layer_sizes=85 81 2 
scale_included=0
neurons (num_inputs, activation_function, activation_steepness)=(0, 0, 0.00000000000000000000e+000) (0, 0, 0.00000000000000000000e+000) (0, 0, 0.00000000000000000000e+000) (0, 0, 0.00000000000000000000e+000) (0, 0, 0.00000000000000000000e+000) (0, 0, 0.00000000000000000000e+000) (0, 0, 0.00000000000000000000e+000) (0, 0, 0.00000000000000000000e+000) (0, 0, 0.00000000000000000000e+000) (0, 0, 0.00000000000000000000e+000) (0, 0, 0.00000000000000000000e+000) (0, 0, 0.00000000000000000000e+000) (0, 0, 0.00000000000000000000e+000) (0, 0, 0.00000000000000000000e+000) (0, 0, 0.00000000000000000000e+000) (0, 0, 0.00000000000000000000e+000) (0, 0, 0.00000000000000000000e+000) (0, 0, 0.00000000000000000000e+000) (0, 0, 0.00000000000000000000e+000) (0, 0, 0.00000000000000000000e+000) (0, 0, 0.00000000000000000000e+000) (0, 0, 0.00000000000000000000e+000) (0, 0, 0.00000000000000000000e+000) (0, 0, 0.00000000000000000000e+000) (0, 0, 0.00000000000000000000e+000) (0, 0, 0.00000000000000000000e+000) (0, 0, 0.00000000000000000000e+000) (0, 0, 0.00000000000000000000e+000) (0, 0, 0.00000000000000000000e+000) (0, 0, 0.00000000000000000000e+000) (0, 0, 0.00000000000000000000e+000) (0, 0, 0.00000000000000000000e+000) (0, 0, 0.00000000000000000000e+000) (0, 0, 0.00000000000000000000e+000) (0, 0, 0.00000000000000000000e+000) (0, 0, 0.00000000000000000000e+000) (0, 0, 0.00000000000000000000e+000) (0, 0, 0.00000000000000000000e+000) (0, 0, 0.00000000000000000000e+000) (0, 0, 0.00000000000000000000e+000) (0, 0, 0.00000000000000000000e+000) (0, 0, 0.00000000000000000000e+000) (0, 0, 0.00000000000000000000e+000) (0, 0, 0.00000000000000000000e+000) (0, 0, 0.00000000000000000000e+000) (0, 0, 0.00000000000000000000e+000) (0, 0, 0.00000000000000000000e+000) (0, 0, 0.00000000000000000000e+000) (0, 0, 0.00000000000000000000e+000) (0, 0, 0.00000000000000000000e+000) (0, 0, 0.00000000000000000000e+000) (0, 0, 0.00000000000000000000e+000) (0, 0, 0.00000000000000000000e+000) (0, 0, 0.00000000000000000000e+000) (0, 0, 0.00000000000000000000e+000) (0, 0, 0.00000000000000000000e+000) (0, 0, 0.00000000000000000000e+000) (0, 0, 0.00000000000000000000e+000) (0, 0, 0.00000000000000000000e+000) (0, 0, 0.00000000000000000000e+000) (0, 0, 0.00000000000000000000e+000) (0, 0, 0.00000000000000000000e+000) (0, 0, 0.00000000000000000000e+000) (0, 0, 0.00000000000000000000e+000) (0, 0, 0.00000000000000000000e+000) (0, 0, 0.00000000000000000000e+000) (0, 0, 0.00000000000000000000e+000) (0, 0, 0.00000000000000000000e+000) (0, 0, 0.00000000000000000000e+000) (0, 0, 0.00000000000000000000e+000) (0, 0, 0.00000000000000000000e+000) (0, 0, 0.00000000000000000000e+000) (0, 0, 0.00000000000000000000e+000) (0, 0, 0.00000000000000000000e+000) (0, 0, 0.00000000000000000000e+000) (0, 0, 0.00000000000000000000e+000) (0, 0, 0.00000000000000000000e+000) (0, 0, 0.00000000000000000000e+000) (0, 0, 0.00000000000000000000e+000) (0, 0, 0.00000000000000000000e+000) (0, 0, 0.00000000000000000000e+000) (0, 0, 0.00000000000000000000e+000) (0, 0, 0.00000000000000000000e+000) (0, 0, 0.00000000000000000000e+000) (0, 0, 0.00000000000000000000e+000) (85, 6, 1.00000000000000000000e+000) (85, 6, 1.00000000000000000000e+000) (85, 6, 1.00000000000000000000e+000) (85, 6, 1.00000000000000000000e+000) (85, 6, 1.00000000000000000000e+000) (85, 6, 1.00000000000000000000e+000) (85, 6, 1.00000000000000000000e+000) (85, 6, 1.00000000000000000000e+000) (85, 6, 1.00000000000000000000e+000) (85, 6, 1.00000000000000000000e+000) (85, 6, 1.00000000000000000000e+000) (85, 6, 1.00000000000000000000e+000) (85, 6, 1.00000000000000000000e+000) (85, 6, 1.00000000000000000000e+000) (85, 6, 1.00000000000000000000e+000) (85, 6, 1.00000000000000000000e+000) (85, 6, 1.00000000000000000000e+000) (85, 6, 1.00000000000000000000e+000) (85, 6, 1.00000000000000000000e+000) (85, 6, 1.00000000000000000000e+000) (85, 6, 1.00000000000000000000e+000) (85, 6, 1.00000000000000000000e+000) (85, 6, 1.00000000000000000000e+000) (85, 6, 1.00000000000000000000e+000) (85, 6, 1.00000000000000000000e+000) (85, 6, 1.00000000000000000000e+000) (85, 6, 1.00000000000000000000e+000) (85, 6, 1.00000000000000000000e+000) (85, 6, 1.00000000000000000000e+000) (85, 6, 1.00000000000000000000e+000) (85, 6, 1.00000000000000000000e+000) (85, 6, 1.00000000000000000000e+000) (85, 6, 1.00000000000000000000e+000) (85, 6, 1.00000000000000000000e+000) (85, 6, 1.00000000000000000000e+000) (85, 6, 1.00000000000000000000e+000) (85, 6, 1.00000000000000000000e+000) (85, 6, 1.00000000000000000000e+000) (85, 6, 1.00000000000000000000e+000) (85, 6, 1.00000000000000000000e+000) (85, 6, 1.00000000000000000000e+000) (85, 6, 1.00000000000000000000e+000) (85, 6, 1.00000000000000000000e+000) (85, 6, 1.00000000000000000000e+000) (85, 6, 1.00000000000000000000e+000) (85, 6, 1.00000000000000000000e+000) (85, 6, 1.00000000000000000000e+000) (85, 6, 1.00000000000000000000e+000) (85, 6, 1.00000000000000000000e+000) (85, 6, 1.00000000000000000000e+000) (85, 6, 1.00000000000000000000e+000) (85, 6, 1.00000000000000000000e+000) (85, 6, 1.00000000000000000000e+000) (85, 6, 1.00000000000000000000e+000) (85, 6, 1.00000000000000000000e+000) (85, 6, 1.00000000000000000000e+000) (85, 6, 1.00000000000000000000e+000) (85, 6, 1.00000000000000000000e+000) (85, 6, 1.00000000000000000000e+000) (85, 6, 1.00000000000000000000e+000) (85, 6, 1.00000000000000000000e+000) (85, 6, 1.00000000000000000000e+000) (85, 6, 1.00000000000000000000e+000) (85, 6, 1.00000000000000000000e+000) (85, 6, 1.00000000000000000000e+000) (85, 6, 1.00000000000000000000e+000) (85, 6, 1.00000000000000000000e+000) (85, 6, 1.00000000000000000000e+000) (85, 6, 1.00000000000000000000e+000) (85, 6, 1.00000000000000000000e+000) (85, 6, 1.00000000000000000000e+000) (85, 6, 1.00000000000000000000e+000) (85, 6, 1.00000000000000000000e+000) (85, 6, 1.00000000000000000000e+000) (85, 6, 1.00000000000000000000e+000) (85, 6, 1.00000000000000000000e+000) (85, 6, 1.00000000000000000000e+000) (85, 6, 1.00000000000000000000e+000) (85, 6, 1.00000000000000000000e+000) (85, 6, 1.00000000000000000000e+000) (0, 6, 1.00000000000000000000e+000) (81, 6, 1.00000000000000000000e+000) (0, 6, 1.00000000000000000000e+000) 
connections (connected_to_neuron, weight)=(0, 2.32989117503166200000e-001) (1, -1.72027543187141420000e-001) (2, 3.02943424321711060000e-003) (3, 1.02198295295238490000e-001) (4, 3.11561636626720430000e-002) (5, -1.09722293913364410000e-001) (6, -3.74735221266746520000e-002) (7, -2.06638313829898830000e-002) (8, -6.72439187765121460000e-002) (9, -1.17379926145076750000e-001) (10, -4.28292267024517060000e-002) (11, 4.50460538268089290000e-002) (12, 1.67096227407455440000e-001) (13, -1.16137482225894930000e-001) (14, 4.50874539092183110000e-003) (15, -5.37349581718444820000e-002) (16, -8.01669657230377200000e-002) (17, -1.06041558086872100000e-001) (18, 9.21855960041284560000e-003) (19, -6.01783320307731630000e-002) (20, 5.93387484550476070000e-002) (21, 1.05092018842697140000e-001) (22, -3.78035642206668850000e-002) (23, -5.68509520962834360000e-003) (24, -1.19552627205848690000e-001) (25, -1.89682245254516600000e-001) (26, -5.50127588212490080000e-002) (27, -1.67258635163307190000e-001) (28, -3.06135579012334350000e-003) (29, 2.06884574145078660000e-002) (30, 1.84758558869361880000e-001) (31, 1.20846152305603030000e-001) (32, -9.45388805121183400000e-003) (33, -1.10544748604297640000e-001) (34, 3.14058177173137660000e-002) (35, -5.35809397697448730000e-002) (36, 2.99147199839353560000e-002) (37, -5.52913770079612730000e-002) (38, 5.40056228637695310000e-002) (39, 6.55629187822341920000e-002) (40, -1.46702746860682960000e-003) (41, -2.04698890447616580000e-002) (42, -3.72547842562198640000e-003) (43, -9.18644592165946960000e-002) (44, -1.09676113352179530000e-002) (45, -7.90239349007606510000e-002) (46, 1.29210531711578370000e-001) (47, -2.04274654388427730000e-002) (48, 6.71471515670418740000e-003) (49, -7.07095041871070860000e-002) (50, 8.50924849510192870000e-002) (51, 5.00281378626823430000e-002) (52, -1.69137135148048400000e-001) (53, -2.15921074151992800000e-001) (54, 9.26228612661361690000e-003) (55, -4.44655455648899080000e-002) (56, 1.16696134209632870000e-001) (57, 1.48636233061552050000e-002) (58, 4.15538214147090910000e-002) (59, -6.52652047574520110000e-003) (60, 4.36098733916878700000e-003) (61, 1.95604674518108370000e-002) (62, -6.95957019925117490000e-002) (63, -9.47045162320137020000e-002) (64, -6.02929964661598210000e-002) (65, -1.10591948032379150000e-001) (66, 3.84072847664356230000e-002) (67, -6.36633709073066710000e-002) (68, 5.91204874217510220000e-002) (69, 2.64016110450029370000e-002) (70, 6.81628426536917690000e-003) (71, -6.52886331081390380000e-002) (72, 3.83890494704246520000e-002) (73, 6.12116511911153790000e-003) (74, 1.00032962858676910000e-001) (75, 9.49405133724212650000e-003) (76, 1.10797256231307980000e-001) (77, 4.11797203123569490000e-002) (78, -2.18845531344413760000e-002) (79, -6.93275928497314450000e-002) (80, -3.80760580301284790000e-002) (81, -5.86196146905422210000e-002) (82, 8.79865065217018130000e-002) (83, 4.35007624328136440000e-002) (84, 1.00138843059539790000e-001) (0, 1.92735210061073300000e-001) (1, -3.42578452546149490000e-004) (2, -8.33959653973579410000e-002) (3, -6.38665333390235900000e-002) (4, 1.00110299885272980000e-001) (5, 5.44544234871864320000e-002) (6, 7.17483013868331910000e-002) (7, -2.37713977694511410000e-002) (8, 1.44685491919517520000e-001) (9, 6.24440312385559080000e-002) (10, -5.39550222456455230000e-002) (11, -4.55580838024616240000e-002) (12, 1.62432983517646790000e-001) (13, 3.00269797444343570000e-002) (14, 1.28450477495789530000e-002) (15, -1.39912101440131660000e-003) (16, 6.26386925578117370000e-002) (17, 5.28447479009628300000e-002) (18, 9.15387496352195740000e-002) (19, -4.04565855860710140000e-002) (20, -2.02312439680099490000e-001) (21, -2.82754868268966670000e-001) (22, 9.14255976676940920000e-002) (23, -5.70093989372253420000e-002) (24, 9.55953523516654970000e-002) (25, 5.89318349957466130000e-002) (26, -2.58142072707414630000e-002) (27, 4.14750017225742340000e-002) (28, 1.51842050254344940000e-002) (29, -6.27287700772285460000e-002) (30, -1.41809852793812750000e-002) (31, -8.39607790112495420000e-003) (32, 8.36540535092353820000e-002) (33, -1.36618971824646000000e-001) (34, 1.10711671411991120000e-001) (35, 1.74270626157522200000e-002) (36, 9.66391041874885560000e-002) (37, -1.31639301776885990000e-001) (38, 5.91317899525165560000e-002) (39, 3.68798598647117610000e-002) (40, 5.31848818063735960000e-002) (41, -3.66619750857353210000e-002) (42, -2.11375981569290160000e-001) (43, -2.47775241732597350000e-001) (44, 4.31103967130184170000e-002) (45, 7.20441117882728580000e-002) (46, 1.72806605696678160000e-001) (47, 2.16839201748371120000e-002) (48, 1.29412040114402770000e-001) (49, -1.62709895521402360000e-002) (50, 2.12476387619972230000e-001) (51, 1.12925292924046520000e-002) (52, 9.32668522000312810000e-002) (53, 4.11709398031234740000e-002) (54, -1.52318418025970460000e-001) (55, -2.15458407998085020000e-001) (56, 2.56900519132614140000e-001) (57, 1.71617209911346440000e-001) (58, -1.51967227458953860000e-001) (59, -1.92797571420669560000e-001) (60, -1.49866268038749690000e-002) (61, -9.47477370500564580000e-002) (62, 1.38099968433380130000e-001) (63, -5.22428285330533980000e-003) (64, 5.40017075836658480000e-002) (65, -4.45195287466049190000e-002) (66, -1.64683699607849120000e-001) (67, -2.34145537018775940000e-001) (68, 2.83423185348510740000e-001) (69, 1.65698617696762080000e-001) (70, -8.01176056265830990000e-002) (71, -9.32428762316703800000e-002) (72, 1.52237161993980410000e-001) (73, 7.57286697626113890000e-002) (74, -2.35778316855430600000e-002) (75, -7.79276043176651000000e-002) (76, -7.51658435910940170000e-003) (77, -9.28063690662384030000e-002) (78, -5.47212325036525730000e-002) (79, -9.03759449720382690000e-002) (80, 2.36049860715866090000e-001) (81, 1.41738668084144590000e-001) (82, -7.30236098170280460000e-002) (83, -8.65343287587165830000e-002) (84, 6.94127529859542850000e-002) (0, 7.81613588333129880000e-002) (1, 2.56950706243515010000e-001) (2, 1.13307595252990720000e-001) (3, -9.54416543245315550000e-002) (4, 6.02907352149486540000e-002) (5, -8.95625911653041840000e-003) (6, 5.20189739763736720000e-002) (7, -1.70600637793540950000e-001) (8, -3.23938280344009400000e-002) (9, -9.12569463253021240000e-003) (10, 1.24337993562221530000e-001) (11, -6.56773895025253300000e-002) (12, -7.41040520370006560000e-003) (13, 3.32319349050521850000e-001) (14, -5.19481971859931950000e-002) (15, -1.19351156055927280000e-001) (16, 6.74506723880767820000e-002) (17, -7.96689242124557500000e-002) (18, 3.71147617697715760000e-002) (19, -5.45311421155929570000e-002) (20, 2.54094619303941730000e-002) (21, -6.86109066009521480000e-004) (22, 3.41464765369892120000e-002) (23, -5.51524795591831210000e-002) (24, 7.57617428898811340000e-002) (25, -1.02076701819896700000e-001) (26, -1.31848394870758060000e-001) (27, -1.93422853946685790000e-001) (28, 9.71155241131782530000e-002) (29, 6.16678548976778980000e-003) (30, -2.21956565976142880000e-001) (31, -3.34207743406295780000e-001) (32, -2.62872092425823210000e-002) (33, -3.68800498545169830000e-002) (34, 3.84290702641010280000e-002) (35, 3.18192765116691590000e-002) (36, -4.70523461699485780000e-002) (37, -9.62756574153900150000e-003) (38, -1.90626293420791630000e-001) (39, -2.68146097660064700000e-001) (40, 1.04960978031158450000e-001) (41, 1.11602211836725470000e-003) (42, -4.12545576691627500000e-002) (43, -6.65972977876663210000e-002) (44, 3.61890226602554320000e-001) (45, 2.30944231152534480000e-001) (46, 6.06644637882709500000e-002) (47, 2.06517666578292850000e-001) (48, -3.53052243590354920000e-002) (49, -2.94928532093763350000e-002) (50, 7.96705633401870730000e-002) (51, 1.27212464809417720000e-001) (52, 4.25858616828918460000e-001) (53, 2.79304832220077510000e-001) (54, -6.46212622523307800000e-002) (55, -3.93554531037807460000e-002) (56, -1.17942886427044870000e-002) (57, -6.64248615503311160000e-002) (58, -7.04624503850936890000e-002) (59, -8.20787996053695680000e-002) (60, 7.29447007179260250000e-002) (61, -8.33554118871688840000e-002) (62, 8.37167948484420780000e-002) (63, 1.90965961664915080000e-002) (64, 7.40318149328231810000e-002) (65, -2.76232585310935970000e-002) (66, -7.83793106675148010000e-002) (67, -1.00683897733688350000e-001) (68, 3.46753187477588650000e-002) (69, -5.60329593718051910000e-002) (70, 9.22638177871704100000e-002) (71, -1.32651748135685920000e-002) (72, 5.84398880600929260000e-002) (73, -3.04889428662136200000e-004) (74, -1.31380870938301090000e-001) (75, -1.54812574386596680000e-001) (76, -1.07000153511762620000e-002) (77, 3.51875349879264830000e-002) (78, -6.80054500699043270000e-002) (79, -7.47568905353546140000e-002) (80, 1.66179742664098740000e-002) (81, -3.65986898541450500000e-002) (82, 2.59300265461206440000e-002) (83, -2.33308561146259310000e-002) (84, 6.43870458006858830000e-002) (0, -1.09979942440986630000e-001) (1, 4.32764053344726560000e-001) (2, -8.98111090064048770000e-002) (3, -6.24298974871635440000e-002) (4, -5.92882037162780760000e-002) (5, -8.71201902627944950000e-002) (6, -1.01454965770244600000e-001) (7, -6.85670897364616390000e-002) (8, -5.44711686670780180000e-002) (9, -1.15547686815261840000e-001) (10, -7.28839635848999020000e-002) (11, -3.72615642845630650000e-002) (12, -1.10770508646965030000e-001) (13, 4.57310408353805540000e-001) (14, 5.44306412339210510000e-002) (15, -2.83757643774151800000e-003) (16, 3.71852070093154910000e-002) (17, -5.88706433773040770000e-002) (18, 1.85237348079681400000e-001) (19, -7.23042786121368410000e-002) (20, -2.08820477128028870000e-002) (21, -1.18544854223728180000e-001) (22, 1.73328503966331480000e-001) (23, -1.04764893651008610000e-001) (24, 3.49749848246574400000e-002) (25, -8.34183916449546810000e-002) (26, 4.63270731270313260000e-002) (27, 3.09020280838012700000e-002) (28, -4.19752486050128940000e-002) (29, -1.32435217499732970000e-001) (30, 2.58908569812774660000e-002) (31, -1.71006813645362850000e-001) (32, 2.73873776197433470000e-001) (33, -1.64586137980222700000e-002) (34, 8.00756737589836120000e-002) (35, -2.73945499211549760000e-002) (36, 2.86719918251037600000e-001) (37, -1.15478858351707460000e-002) (38, 4.82567474246025090000e-002) (39, -1.57296761870384220000e-001) (40, -4.66838292777538300000e-002) (41, -1.23061694204807280000e-001) (42, 2.61635743081569670000e-002) (43, 1.04355262592434880000e-002) (44, 1.75774782896041870000e-001) (45, -6.59107118844985960000e-002) (46, -6.20043538510799410000e-002) (47, -2.36673980951309200000e-001) (48, 2.22451284527778630000e-001) (49, 1.45750835537910460000e-001) (50, -4.18464951217174530000e-002) (51, -2.00012013316154480000e-001) (52, 1.71913295984268190000e-001) (53, -5.22367805242538450000e-002) (54, 3.37830297648906710000e-002) (55, -6.39330921694636340000e-003) (56, -1.12419262528419490000e-001) (57, -1.41349092125892640000e-001) (58, 3.23625057935714720000e-002) (59, -1.10991477966308590000e-001) (60, 1.01060934364795680000e-001) (61, -6.42137527465820310000e-002) (62, -2.98216175287961960000e-002) (63, -2.13882625102996830000e-001) (64, 1.84995919466018680000e-001) (65, -4.20902222394943240000e-002) (66, 4.72503527998924260000e-002) (67, -1.44642442464828490000e-001) (68, -6.34239986538887020000e-002) (69, -1.48000702261924740000e-001) (70, 7.57107213139534000000e-002) (71, -1.00827753543853760000e-001) (72, 1.15087084472179410000e-001) (73, -4.95646335184574130000e-002) (74, -1.20894638821482660000e-002) (75, -1.92682176828384400000e-001) (76, 2.64626353979110720000e-001) (77, 1.81916654109954830000e-001) (78, 2.41532828658819200000e-002) (79, -1.68946459889411930000e-001) (80, 1.16407729685306550000e-001) (81, -3.01588722504675390000e-003) (82, 8.09368267655372620000e-002) (83, -5.91341778635978700000e-002) (84, 2.65713706612586980000e-002) (0, 1.00582405924797060000e-001) (1, -8.74092429876327510000e-002) (2, -5.48193827271461490000e-002) (3, 2.51024991273880000000e-001) (4, -1.15071665495634080000e-002) (5, 1.02573614567518230000e-002) (6, -5.05678765475749970000e-002) (7, -2.37636610865592960000e-001) (8, -2.61462479829788210000e-002) (9, 1.91789697855710980000e-002) (10, -1.25322625041008000000e-001) (11, 2.20593839883804320000e-001) (12, 8.78896787762641910000e-002) (13, -1.29977867007255550000e-001) (14, 1.05669021606445310000e-001) (15, -1.32883027195930480000e-001) (16, 1.08356063719838860000e-003) (17, -2.18343734741210940000e-001) (18, 1.36091858148574830000e-001) (19, 2.43034455925226210000e-002) (20, 3.72921861708164220000e-002) (21, -8.37195105850696560000e-003) (22, 8.47129896283149720000e-002) (23, 4.84016202390193940000e-002) (24, -4.42534424364566800000e-002) (25, -3.08403670787811280000e-001) (26, 6.69940114021301270000e-002) (27, -1.72560438513755800000e-001) (28, 1.33532866835594180000e-001) (29, -1.18870086967945100000e-001) (30, 1.31800979375839230000e-001) (31, -1.05894699692726140000e-001) (32, -2.91894376277923580000e-002) (33, -1.93806245923042300000e-001) (34, 2.14697822928428650000e-001) (35, 2.63164136558771130000e-002) (36, -5.50287142395973210000e-002) (37, -2.14598342776298520000e-001) (38, 3.88038940727710720000e-002) (39, -1.41983881592750550000e-001) (40, 1.91826775670051570000e-001) (41, -1.51920378208160400000e-001) (42, 1.39515236020088200000e-001) (43, -1.06615416705608370000e-001) (44, -6.44294731318950650000e-003) (45, -1.50804832577705380000e-001) (46, 1.65860161185264590000e-001) (47, -6.49094358086586000000e-002) (48, -7.06465616822242740000e-002) (49, -1.92666739225387570000e-001) (50, 1.38440117239952090000e-001) (51, -2.26118769496679310000e-002) (52, 1.49144083261489870000e-002) (53, -1.23349927365779880000e-001) (54, 8.15346613526344300000e-002) (55, -1.42406895756721500000e-001) (56, 8.03057849407196040000e-002) (57, -1.47475823760032650000e-001) (58, 3.27303290367126460000e-001) (59, 1.34046629071235660000e-001) (60, 8.90388786792755130000e-002) (61, 1.14302877336740490000e-002) (62, 1.53478547930717470000e-001) (63, 4.61889840662479400000e-002) (64, 8.05966630578041080000e-002) (65, -3.39119471609592440000e-002) (66, 3.24674755334854130000e-001) (67, 4.41834740340709690000e-002) (68, 2.21314840018749240000e-002) (69, -1.63254350423812870000e-001) (70, 2.02496141195297240000e-001) (71, 2.55649462342262270000e-002) (72, -3.65886054933071140000e-002) (73, -1.59888029098510740000e-001) (74, 4.31108400225639340000e-002) (75, -1.81923389434814450000e-001) (76, -2.80011333525180820000e-002) (77, -1.52325376868247990000e-001) (78, 3.85336428880691530000e-002) (79, -1.80987849831581120000e-001) (80, -3.96068021655082700000e-002) (81, -2.10436120629310610000e-001) (82, 8.23298916220664980000e-002) (83, -1.00011480972170830000e-002) (84, 2.52720892429351810000e-001) (0, 7.25625455379486080000e-002) (1, 2.42764148861169820000e-002) (2, 1.37006998062133790000e-001) (3, 2.96312589198350910000e-002) (4, -1.84360370039939880000e-002) (5, -6.65790140628814700000e-002) (6, 2.85699162632226940000e-002) (7, 1.29010211676359180000e-002) (8, -9.38558354973793030000e-002) (9, 1.09437864739447830000e-003) (10, 9.72010567784309390000e-002) (11, -5.27712516486644740000e-002) (12, 9.17572006583213810000e-002) (13, 1.46094307303428650000e-001) (14, -8.01066905260086060000e-002) (15, -1.57103985548019410000e-001) (16, 4.34481017291545870000e-002) (17, -1.14880554378032680000e-001) (18, 1.14987138658761980000e-002) (19, -4.55831326544284820000e-002) (20, 8.63062739372253420000e-002) (21, 1.38417845591902730000e-002) (22, -1.24273680150508880000e-001) (23, -5.84135390818119050000e-002) (24, 1.50186136364936830000e-001) (25, -8.71549919247627260000e-002) (26, -6.94905743002891540000e-002) (27, -1.19582369923591610000e-001) (28, 6.19235113263130190000e-002) (29, -1.22937664389610290000e-001) (30, 1.07056125998497010000e-001) (31, -1.27034876495599750000e-002) (32, -7.56039768457412720000e-002) (33, -5.27136549353599550000e-002) (34, -2.56392247974872590000e-002) (35, -1.54859814792871480000e-002) (36, -6.22755242511630060000e-003) (37, 2.25567929446697240000e-002) (38, 1.22928261756896970000e-001) (39, 1.20258433744311330000e-002) (40, 5.58758899569511410000e-002) (41, -6.31585940718650820000e-002) (42, 1.16421706974506380000e-001) (43, 8.23888555169105530000e-003) (44, 3.31114828586578370000e-002) (45, -8.81011188030242920000e-002) (46, 6.31886050105094910000e-002) (47, 5.13949170708656310000e-002) (48, -6.48652687668800350000e-002) (49, -6.26089200377464290000e-002) (50, 3.50025817751884460000e-002) (51, 7.85637646913528440000e-002) (52, 1.97755452245473860000e-002) (53, -8.93928632140159610000e-002) (54, 6.27085790038108830000e-002) (55, -1.65667645633220670000e-002) (56, 7.15958401560783390000e-002) (57, -1.63882710039615630000e-002) (58, 4.03666086494922640000e-002) (59, 1.80559568107128140000e-002) (60, 8.13852995634078980000e-002) (61, 1.88156571239233020000e-002) (62, 8.39689522981643680000e-002) (63, 4.58629950881004330000e-002) (64, 2.08153948187828060000e-002) (65, -5.71637861430644990000e-002) (66, -4.96318303048610690000e-002) (67, -1.06679171323776250000e-001) (68, 1.15325182676315310000e-001) (69, 2.75341584347188470000e-003) (70, 5.45909591019153590000e-002) (71, -2.89495121687650680000e-002) (72, 4.73132729530334470000e-002) (73, 8.56654904782772060000e-003) (74, -1.36371832340955730000e-002) (75, -4.56864014267921450000e-002) (76, -1.05028495192527770000e-001) (77, -9.49885174632072450000e-002) (78, 8.16791132092475890000e-003) (79, -5.74467331171035770000e-002) (80, 3.89073453843593600000e-002) (81, 1.43761336803436280000e-002) (82, -1.25540830194950100000e-002) (83, -6.36792108416557310000e-002) (84, 1.01138696074485780000e-001) (0, -7.86792039871215820000e-002) (1, 1.39235883951187130000e-001) (2, 8.31233412027359010000e-002) (3, 1.36156082153320310000e-001) (4, 7.75676742196083070000e-002) (5, 3.99538092315196990000e-002) (6, -2.30924785137176510000e-002) (7, -3.13564836978912350000e-002) (8, 5.92922642827034000000e-002) (9, 7.32871219515800480000e-002) (10, 1.15734428167343140000e-001) (11, 5.34842982888221740000e-002) (12, -1.20377399027347560000e-001) (13, 1.11957676708698270000e-001) (14, -5.80999776721000670000e-002) (15, -1.89572423696517940000e-002) (16, -2.01628342270851140000e-001) (17, -1.13996118307113650000e-002) (18, -1.06764152646064760000e-001) (19, 4.53486340120434760000e-003) (20, 1.14449374377727510000e-001) (21, 2.23177567124366760000e-001) (22, -6.27471730113029480000e-002) (23, 1.15197794511914250000e-002) (24, -2.02712520956993100000e-001) (25, -3.90567407011985780000e-002) (26, -7.61603787541389470000e-002) (27, -1.45532470196485520000e-002) (28, -8.95281881093978880000e-002) (29, -5.49589209258556370000e-002) (30, -3.37734997272491460000e-001) (31, -2.19009369611740110000e-001) (32, 1.23653240501880650000e-001) (33, 1.34544536471366880000e-001) (34, -1.10155291855335240000e-001) (35, -1.01703308522701260000e-001) (36, 1.51584059000015260000e-001) (37, 1.72355502843856810000e-001) (38, -3.73486131429672240000e-001) (39, -2.15600028634071350000e-001) (40, -9.88401994109153750000e-002) (41, -7.55910128355026250000e-002) (42, 3.99282500147819520000e-002) (43, 1.33587466552853580000e-003) (44, 1.67858108878135680000e-001) (45, 2.30528295040130620000e-001) (46, -5.59837743639945980000e-002) (47, 1.28114270046353340000e-002) (48, -9.90673713386058810000e-003) (49, -3.52646894752979280000e-002) (50, 4.33143973350524900000e-003) (51, 9.36148036271333690000e-003) (52, 9.56426933407783510000e-002) (53, 1.72435462474823000000e-001) (54, -8.31270292401313780000e-002) (55, 5.26218973100185390000e-002) (56, -2.41038352251052860000e-002) (57, 4.79522757232189180000e-002) (58, 3.64100076258182530000e-002) (59, 7.73416012525558470000e-002) (60, -8.07015523314476010000e-002) (61, -3.05913165211677550000e-002) (62, -9.37358289957046510000e-002) (63, 9.65007767081260680000e-003) (64, -8.15671160817146300000e-002) (65, 4.51134368777275090000e-002) (66, 2.51604616641998290000e-002) (67, 5.17955347895622250000e-002) (68, -2.44596274569630620000e-003) (69, 9.52862465055659410000e-005) (70, -3.90659347176551820000e-002) (71, 5.89970592409372330000e-003) (72, -3.78168746829032900000e-002) (73, 3.45929898321628570000e-002) (74, -4.30637039244174960000e-002) (75, -1.07838930562138560000e-002) (76, -5.82817615941166880000e-003) (77, 4.18631285429000850000e-002) (78, -1.38020217418670650000e-001) (79, -1.31555255502462390000e-002) (80, 3.23701649904251100000e-002) (81, 9.95457693934440610000e-002) (82, -1.92897971719503400000e-002) (83, 8.21072831749916080000e-002) (84, 1.10120214521884920000e-002) (0, 4.89660687744617460000e-002) (1, -1.35917410254478450000e-001) (2, -1.78234830498695370000e-001) (3, 1.37642741203308110000e-001) (4, 8.90697315335273740000e-002) (5, -8.64487439393997190000e-002) (6, 1.18080437183380130000e-001) (7, -1.81413777172565460000e-002) (8, 2.38382499665021900000e-002) (9, -9.92173030972480770000e-002) (10, -2.32845008373260500000e-001) (11, 1.13784931600093840000e-001) (12, 2.69727278500795360000e-002) (13, -8.68891030550003050000e-002) (14, 1.74209237098693850000e-001) (15, 1.80049687623977660000e-002) (16, 4.52775433659553530000e-002) (17, 1.20552122592926030000e-001) (18, 1.87436793930828570000e-003) (19, -1.06469346210360530000e-002) (20, -9.85171869397163390000e-002) (21, -5.00232689082622530000e-002) (22, -4.52768728137016300000e-002) (23, -3.75490412116050720000e-002) (24, 2.36263237893581390000e-002) (25, 1.54156491160392760000e-001) (26, 1.84428915381431580000e-001) (27, 4.21278439462184910000e-002) (28, -1.02679476141929630000e-001) (29, -2.32021912932395940000e-001) (30, 5.68548813462257390000e-002) (31, 3.61473150551319120000e-002) (32, -3.78781706094741820000e-002) (33, -1.08616977930068970000e-001) (34, -1.61846876144409180000e-002) (35, -9.96100008487701420000e-002) (36, -5.37364520132541660000e-002) (37, -1.07144266366958620000e-001) (38, 6.09589880332350730000e-003) (39, -2.42311321198940280000e-002) (40, -1.22101731598377230000e-001) (41, -2.70366638898849490000e-001) (42, 1.88418775796890260000e-001) (43, 6.21142759919166560000e-002) (44, -2.42030128836631770000e-001) (45, -2.52594500780105590000e-001) (46, 2.08464398980140690000e-001) (47, 6.55823722481727600000e-002) (48, 1.44591152667999270000e-001) (49, 1.91842969506978990000e-002) (50, 1.60695403814315800000e-001) (51, 2.54073161631822590000e-002) (52, -2.91283130645751950000e-001) (53, -2.70095020532608030000e-001) (54, 2.10373908281326290000e-001) (55, 7.37574622035026550000e-002) (56, -8.24701637029647830000e-002) (57, -5.93937672674655910000e-002) (58, 1.50220498442649840000e-001) (59, 4.35491725802421570000e-002) (60, -6.58771488815546040000e-003) (61, -5.26687391102314000000e-002) (62, -3.06395627558231350000e-002) (63, -2.97902915626764300000e-002) (64, -4.50931712985038760000e-002) (65, -7.38684907555580140000e-002) (66, 1.52211397886276250000e-001) (67, 8.55422914028167720000e-002) (68, -5.61813674867153170000e-002) (69, -6.89865350723266600000e-002) (70, 7.38749131560325620000e-002) (71, 7.44317546486854550000e-002) (72, -1.11688664183020590000e-002) (73, -3.65383103489875790000e-002) (74, 5.77011257410049440000e-002) (75, -1.24702602624893190000e-002) (76, 1.50686919689178470000e-001) (77, 5.56978732347488400000e-002) (78, 5.43881095945835110000e-002) (79, -7.24845938384532930000e-003) (80, -4.05267328023910520000e-002) (81, -4.32905331254005430000e-002) (82, 8.06325301527976990000e-002) (83, 3.29922735691070560000e-002) (84, -3.65480706095695500000e-002) (0, 3.38863015174865720000e-001) (1, 8.06048810482025150000e-002) (2, 3.15140262246131900000e-002) (3, 2.51573443412780760000e-001) (4, 2.31025099754333500000e-001) (5, 9.15010273456573490000e-002) (6, -1.91093757748603820000e-002) (7, -1.14259742200374600000e-001) (8, 2.17587187886238100000e-001) (9, 9.70715284347534180000e-002) (10, 3.26713845133781430000e-002) (11, 2.58284926414489750000e-001) (12, 3.48452061414718630000e-001) (13, 1.07951961457729340000e-001) (14, -7.08292946219444270000e-002) (15, -1.24958395957946780000e-001) (16, 1.41932353377342220000e-001) (17, 1.29183933138847350000e-001) (18, -1.25425517559051510000e-001) (19, 9.97354686260223390000e-002) (20, -4.13305275142192840000e-002) (21, -1.11247874796390530000e-001) (22, -1.28031849861145020000e-001) (23, 7.81686231493949890000e-002) (24, 1.35613366961479190000e-001) (25, 1.50339186191558840000e-001) (26, -1.03902883827686310000e-001) (27, -1.20780482888221740000e-001) (28, 3.43023352324962620000e-002) (29, -5.27090094983577730000e-002) (30, -6.00437596440315250000e-002) (31, -1.31635501980781560000e-001) (32, -1.39362424612045290000e-001) (33, 3.84662151336669920000e-001) (34, 1.87556430697441100000e-001) (35, 3.72080951929092410000e-001) (36, -1.37049004435539250000e-001) (37, 3.56835722923278810000e-001) (38, -4.84274700284004210000e-002) (39, -1.00833512842655180000e-001) (40, 4.51969914138317110000e-002) (41, -2.65577118843793870000e-002) (42, -1.63673147559165950000e-001) (43, -1.31089642643928530000e-001) (44, -2.69218653440475460000e-001) (45, -1.02573059499263760000e-001) (46, -3.41636240482330320000e-001) (47, -5.86408860981464390000e-002) (48, -4.46868427097797390000e-002) (49, 2.65287347137928010000e-002) (50, -3.74184876680374150000e-001) (51, -6.54478967189788820000e-002) (52, -2.15402215719223020000e-001) (53, -1.03490948677062990000e-001) (54, -1.33803009986877440000e-001) (55, -1.61871835589408870000e-001) (56, 6.22949935495853420000e-002) (57, 4.83991056680679320000e-002) (58, 7.47802704572677610000e-002) (59, 1.39614835381507870000e-001) (60, -1.46803453564643860000e-001) (61, 3.61725240945816040000e-002) (62, -1.75201267004013060000e-001) (63, -1.01642757654190060000e-001) (64, -1.44929096102714540000e-001) (65, 6.98894541710615160000e-003) (66, 5.45761547982692720000e-002) (67, 1.34183228015899660000e-001) (68, 8.46295431256294250000e-002) (69, 7.05760195851325990000e-002) (70, -5.56617565453052520000e-002) (71, 6.55633807182312010000e-002) (72, -1.03209368884563450000e-001) (73, 4.67669330537319180000e-002) (74, 3.67868226021528240000e-003) (75, 1.60015210509300230000e-001) (76, -6.04596510529518130000e-002) (77, 6.16060905158519740000e-002) (78, 1.47295333445072170000e-002) (79, 1.47550344467163090000e-001) (80, -1.09153881669044490000e-001) (81, 5.97608350217342380000e-002) (82, -3.39740067720413210000e-002) (83, 3.75724621117115020000e-002) (84, -6.35895952582359310000e-002) (0, 9.97420027852058410000e-002) (1, 5.53114227950572970000e-002) (2, -2.48354561626911160000e-002) (3, -1.32104158401489260000e-001) (4, 1.98909372091293330000e-001) (5, 7.22103640437126160000e-002) (6, -3.19487899541854860000e-002) (7, -2.07627546042203900000e-002) (8, 1.78052186965942380000e-001) (9, 7.84697681665420530000e-002) (10, -3.60964089632034300000e-002) (11, -9.25465971231460570000e-002) (12, 1.33819341659545900000e-001) (13, 8.57309401035308840000e-002) (14, -1.81937783956527710000e-001) (15, -6.76187872886657710000e-002) (16, 1.36271476745605470000e-001) (17, 2.04846542328596120000e-003) (18, -1.91800355911254880000e-001) (19, -2.70063519477844240000e-001) (20, 2.38356575369834900000e-001) (21, 7.12725445628166200000e-002) (22, -1.61019563674926760000e-001) (23, -2.31707751750946040000e-001) (24, 6.73769488930702210000e-002) (25, -4.27171848714351650000e-002) (26, -8.36893692612648010000e-002) (27, -7.33406543731689450000e-002) (28, 2.70295858383178710000e-001) (29, 5.27173392474651340000e-002) (30, 3.56259830296039580000e-002) (31, 3.77615801990032200000e-002) (32, 2.02891528606414790000e-001) (33, 1.22275985777378080000e-001) (34, -7.43221491575241090000e-002) (35, -1.91142022609710690000e-001) (36, 2.43745222687721250000e-001) (37, 1.71961188316345210000e-001) (38, 7.67024606466293330000e-002) (39, -4.27203625440597530000e-002) (40, 2.35951513051986690000e-001) (41, 9.87605657428503040000e-003) (42, -1.73857230693101880000e-002) (43, -1.24199531972408290000e-001) (44, 4.03162725269794460000e-002) (45, -6.66578486561775210000e-002) (46, 9.61025729775428770000e-002) (47, -2.21119578927755360000e-002) (48, -1.60085759125649930000e-003) (49, -5.39312623441219330000e-002) (50, 1.01802095770835880000e-001) (51, -1.98242869228124620000e-002) (52, 8.76128673553466800000e-002) (53, -2.82415393739938740000e-002) (54, -3.93462479114532470000e-002) (55, -1.86464846134185790000e-001) (56, 1.18679717183113100000e-001) (57, -1.00701466202735900000e-001) (58, 2.04837620258331300000e-001) (59, 5.78613504767417910000e-002) (60, 3.88932134956121440000e-003) (61, -1.41178712248802190000e-001) (62, 1.52563944458961490000e-001) (63, -9.84244421124458310000e-003) (64, -4.33551296591758730000e-002) (65, -1.81129276752471920000e-001) (66, 2.39216923713684080000e-001) (67, 6.79619386792182920000e-002) (68, 9.57558006048202510000e-002) (69, -1.24761968851089480000e-001) (70, 1.07444882392883300000e-001) (71, -2.60510183870792390000e-002) (72, -5.20665198564529420000e-002) (73, -1.53838843107223510000e-001) (74, 3.44605147838592530000e-002) (75, -8.25862139463424680000e-002) (76, 4.52579781413078310000e-002) (77, 4.17980328202247620000e-002) (78, 4.11781296133995060000e-002) (79, -6.61278069019317630000e-002) (80, -1.11891932785511020000e-001) (81, -1.84616461396217350000e-001) (82, 3.81621830165386200000e-002) (83, -5.57239875197410580000e-002) (84, 3.17031554877758030000e-002) (0, 1.48203060030937190000e-001) (1, 1.88759580254554750000e-001) (2, 9.27897319197654720000e-002) (3, -1.97116341441869740000e-002) (4, 5.02072684466838840000e-002) (5, -7.06257447600364690000e-002) (6, 5.16905821859836580000e-002) (7, -3.55800837278366090000e-002) (8, 5.04955947399139400000e-002) (9, -1.12410970032215120000e-001) (10, 1.28109768033027650000e-001) (11, 2.81112678349018100000e-002) (12, 1.54217422008514400000e-001) (13, 2.16670200228691100000e-001) (14, -2.59650200605392460000e-001) (15, -1.88360929489135740000e-001) (16, 1.34160652756690980000e-001) (17, 1.27093240618705750000e-001) (18, 7.89527073502540590000e-002) (19, -5.82488402724266050000e-002) (20, 2.65722006559371950000e-001) (21, 1.51651263236999510000e-001) (22, 6.15592934191226960000e-002) (23, -6.27112165093421940000e-002) (24, 1.25235602259635930000e-001) (25, 1.60687327384948730000e-001) (26, -2.70316839218139650000e-001) (27, -1.79960325360298160000e-001) (28, 1.11563645303249360000e-001) (29, 3.66039946675300600000e-002) (30, -6.18032291531562810000e-002) (31, 2.49859355390071870000e-002) (32, 8.09384435415267940000e-002) (33, -4.25640791654586790000e-002) (34, -4.97596785426139830000e-002) (35, -1.25304073095321660000e-001) (36, -8.18565662484616040000e-004) (37, -6.82319030165672300000e-002) (38, -3.89756374061107640000e-002) (39, 1.11097497865557670000e-002) (40, 1.55296042561531070000e-001) (41, 1.12693784758448600000e-002) (42, -5.86756914854049680000e-002) (43, -1.61566227674484250000e-001) (44, -1.88346251845359800000e-001) (45, -2.07569837570190430000e-001) (46, 1.47058635950088500000e-001) (47, -2.46817935258150100000e-002) (48, 1.22861392796039580000e-001) (49, -7.05193579196929930000e-002) (50, 5.19322305917739870000e-002) (51, -2.23408620804548260000e-002) (52, -2.52125918865203860000e-001) (53, -2.47379451990127560000e-001) (54, -1.64697058498859410000e-002) (55, -1.33086636662483220000e-001) (56, 1.22062310576438900000e-001) (57, -1.49004720151424410000e-002) (58, 2.67552025616168980000e-002) (59, -2.30830535292625430000e-002) (60, -2.74240300059318540000e-002) (61, -1.02089479565620420000e-001) (62, -1.18634440004825590000e-001) (63, -1.41413137316703800000e-001) (64, -3.94587144255638120000e-002) (65, -1.48094460368156430000e-001) (66, -6.93550705909729000000e-002) (67, -9.10494402050971980000e-002) (68, 1.64539620280265810000e-001) (69, 6.24008066952228550000e-002) (70, 2.71278806030750270000e-002) (71, -8.02714675664901730000e-002) (72, 1.52804747223854060000e-001) (73, 1.05527162551879880000e-001) (74, 9.05990824103355410000e-002) (75, 6.15773573517799380000e-002) (76, 4.53433655202388760000e-002) (77, 1.94288585335016250000e-002) (78, 1.24323509633541110000e-001) (79, 4.55005280673503880000e-002) (80, 2.51522120088338850000e-002) (81, 3.87263041920959950000e-003) (82, 1.21327489614486690000e-002) (83, -1.07505314052104950000e-001) (84, 3.20149622857570650000e-002) (0, 3.47957670688629150000e-001) (1, -4.45014163851737980000e-002) (2, 3.45028787851333620000e-002) (3, 1.67932108044624330000e-001) (4, 1.89761221408843990000e-001) (5, 2.59456276893615720000e-001) (6, -1.63313418626785280000e-001) (7, 1.04096345603466030000e-001) (8, 1.72900855541229250000e-001) (9, 2.03111842274665830000e-001) (10, 1.46453157067298890000e-002) (11, 1.50112554430961610000e-001) (12, 3.55992376804351810000e-001) (13, -2.59629040956497190000e-002) (14, 1.37274414300918580000e-001) (15, 2.22742334008216860000e-002) (16, 3.00466697663068770000e-002) (17, 1.36298835277557370000e-001) (18, -1.10645495355129240000e-001) (19, -2.40073606371879580000e-001) (20, -6.46094009280204770000e-002) (21, 1.16936534643173220000e-001) (22, -1.27209231257438660000e-001) (23, -2.17175826430320740000e-001) (24, 2.91269440203905110000e-002) (25, 1.55692458152771000000e-001) (26, 1.15273833274841310000e-001) (27, 8.82823392748832700000e-002) (28, -2.58695423603057860000e-001) (29, 1.10772378742694850000e-001) (30, -9.92092024534940720000e-003) (31, 4.76024895906448360000e-002) (32, -1.99721306562423710000e-001) (33, -1.59362807869911190000e-001) (34, 4.81076613068580630000e-002) (35, 1.60651028156280520000e-001) (36, -1.84657484292984010000e-001) (37, -1.21185965836048130000e-001) (38, -2.38172896206378940000e-002) (39, 6.22909851372241970000e-002) (40, -2.50462591648101810000e-001) (41, 8.40988904237747190000e-002) (42, -1.75563022494316100000e-001) (43, 4.59613800048828130000e-002) (44, -2.30895146727561950000e-001) (45, -1.21280007064342500000e-001) (46, -2.78233177959918980000e-002) (47, 1.20628014206886290000e-001) (48, -9.54113900661468510000e-002) (49, -6.69986158609390260000e-002) (50, -8.75577330589294430000e-003) (51, 7.33337253332138060000e-002) (52, -2.08015933632850650000e-001) (53, -1.09251417219638820000e-001) (54, -1.73203408718109130000e-001) (55, 7.96964541077613830000e-002) (56, -5.67368939518928530000e-002) (57, 5.10928072035312650000e-002) (58, -1.34410619735717770000e-001) (59, -3.52238155901432040000e-002) (60, 7.40082561969757080000e-002) (61, 1.27214401960372920000e-001) (62, -1.29466131329536440000e-001) (63, -6.37605041265487670000e-002) (64, -1.57394744455814360000e-002) (65, 1.27035498619079590000e-001) (66, -1.43952786922454830000e-001) (67, -7.47383804991841320000e-003) (68, -1.93765535950660710000e-002) (69, 3.20097170770168300000e-002) (70, -1.63133572787046430000e-002) (71, 1.45548861473798750000e-002) (72, -4.54134158790111540000e-002) (73, 4.46680262684822080000e-002) (74, 9.57521516829729080000e-003) (75, 1.15165136754512790000e-001) (76, -1.10467582941055300000e-001) (77, -9.78499799966812130000e-002) (78, -1.72946378588676450000e-002) (79, 1.35319754481315610000e-001) (80, -4.85764928162097930000e-002) (81, 1.00204050540924070000e-002) (82, -4.23489063978195190000e-002) (83, 8.75423313118517400000e-004) (84, 2.04523935914039610000e-001) (0, 1.30057081580162050000e-001) (1, 1.74985632300376890000e-001) (2, -3.91173437237739560000e-002) (3, -5.45094953849911690000e-003) (4, 1.32625356316566470000e-001) (5, -1.69535845518112180000e-001) (6, -2.71973479539155960000e-002) (7, 2.51929104328155520000e-001) (8, 9.50822234153747560000e-002) (9, -1.32853955030441280000e-001) (10, -7.42791071534156800000e-002) (11, -2.93582640588283540000e-002) (12, 1.29766091704368590000e-001) (13, 1.81618273258209230000e-001) (14, -2.67802983522415160000e-001) (15, 4.88795697689056400000e-001) (16, 1.86888664960861210000e-001) (17, 2.88076788187026980000e-001) (18, 7.65955913811922070000e-003) (19, 4.45073321461677550000e-002) (20, 7.42944478988647460000e-002) (21, -6.25315979123115540000e-002) (22, -8.25692340731620790000e-003) (23, 6.93190563470125200000e-003) (24, 1.90153300762176510000e-001) (25, 2.70125269889831540000e-001) (26, -2.89118975400924680000e-001) (27, 4.43658918142318730000e-001) (28, -2.43020072579383850000e-001) (29, -3.65801334381103520000e-001) (30, -1.25914454460144040000e-001) (31, 2.85842478275299070000e-001) (32, -1.37738743796944620000e-002) (33, -1.16470351815223690000e-001) (34, -1.21061310172080990000e-001) (35, -9.65698361396789550000e-002) (36, -1.05497855693101880000e-002) (37, -1.71996161341667180000e-001) (38, -1.11415803432464600000e-001) (39, 2.43567034602165220000e-001) (40, -2.42427065968513490000e-001) (41, -3.20966482162475590000e-001) (42, 7.01731443405151370000e-002) (43, -9.77477133274078370000e-002) (44, 9.95328743010759350000e-003) (45, 1.48856446146965030000e-001) (46, 6.59384578466415410000e-002) (47, -5.11820688843727110000e-002) (48, -5.56913278996944430000e-002) (49, -7.65100941061973570000e-002) (50, 3.53686548769474030000e-002) (51, -2.25970894098281860000e-002) (52, 8.76536068972200160000e-004) (53, 1.46577239036560060000e-001) (54, 1.28001511096954350000e-001) (55, -1.27047911286354060000e-001) (56, 6.75586760044097900000e-002) (57, 5.41322417557239530000e-002) (58, -1.42914608120918270000e-001) (59, 2.59764362126588820000e-002) (60, 9.84038561582565310000e-002) (61, 1.73140838742256160000e-001) (62, -1.50397360324859620000e-001) (63, -5.46265393495559690000e-002) (64, 1.26618340611457820000e-001) (65, 1.59993246197700500000e-001) (66, -1.14808417856693270000e-001) (67, 5.68031286820769310000e-003) (68, 6.23018071055412290000e-002) (69, 7.84487202763557430000e-002) (70, -9.16446447372436520000e-002) (71, 4.55659404397010800000e-002) (72, -1.01545173674821850000e-002) (73, 5.63111454248428340000e-002) (74, 7.14722126722335820000e-002) (75, 1.52976512908935550000e-001) (76, 1.24325357377529140000e-001) (77, -9.26226004958152770000e-002) (78, 7.04581886529922490000e-002) (79, 1.17717169225215910000e-001) (80, -2.04174164682626720000e-002) (81, 8.93484428524971010000e-002) (82, -6.46818652749061580000e-002) (83, 2.79475562274456020000e-002) (84, -1.53235211968421940000e-001) (0, -2.00969979166984560000e-001) (1, 7.63703361153602600000e-002) (2, -1.95248395204544070000e-001) (3, 1.07210114598274230000e-001) (4, -1.34856089949607850000e-001) (5, -4.96402792632579800000e-002) (6, -7.11445882916450500000e-002) (7, 1.79217606782913210000e-001) (8, -2.27947071194648740000e-001) (9, -8.78217443823814390000e-002) (10, -2.46936216950416560000e-001) (11, 1.37235254049301150000e-001) (12, -1.71641618013381960000e-001) (13, 6.27402141690254210000e-002) (14, 1.74329131841659550000e-002) (15, 5.09084127843379970000e-002) (16, -8.73605534434318540000e-002) (17, 8.18307697772979740000e-002) (18, 2.03384384512901310000e-002) (19, 1.32357031106948850000e-001) (20, 6.56784847378730770000e-002) (21, 9.62004736065864560000e-002) (22, 1.62681564688682560000e-002) (23, 1.07118777930736540000e-001) (24, -1.30279093980789180000e-001) (25, 7.97049403190612790000e-002) (26, 1.68075710535049440000e-002) (27, 3.51243391633033750000e-002) (28, 1.24998874962329860000e-001) (29, 1.51230975985527040000e-001) (30, -4.06868942081928250000e-003) (31, 2.13092178106307980000e-001) (32, -6.18476085364818570000e-002) (33, -3.64180319011211400000e-002) (34, -1.79988086223602290000e-001) (35, -1.12127169966697690000e-001) (36, -2.24151257425546650000e-002) (37, -1.29201787058264020000e-003) (38, -2.00097281485795970000e-002) (39, 2.14578792452812190000e-001) (40, 1.90328016877174380000e-001) (41, 1.98792040348052980000e-001) (42, -1.45391061902046200000e-001) (43, -3.82063537836074830000e-002) (44, -1.81284621357917790000e-001) (45, -1.90273951739072800000e-003) (46, -1.39751384267583490000e-004) (47, 3.15521918237209320000e-002) (48, 2.51348782330751420000e-002) (49, 1.07935510575771330000e-001) (50, -2.82307919114828110000e-002) (51, -8.19099880754947660000e-003) (52, -1.04245878756046300000e-001) (53, 5.35042919218540190000e-002) (54, -1.49990320205688480000e-001) (55, -2.67612654715776440000e-002) (56, -5.99848851561546330000e-002) (57, 1.78335290402174000000e-002) (58, -8.17124918103218080000e-002) (59, 4.32406784966588020000e-004) (60, 3.25265750288963320000e-002) (61, 8.47567915916442870000e-002) (62, -9.26643386483192440000e-002) (63, -5.58496126905083660000e-003) (64, -8.60425643622875210000e-003) (65, 4.62045669555664060000e-002) (66, -7.53723904490470890000e-002) (67, -4.61050029844045640000e-003) (68, -6.09918124973773960000e-002) (69, 1.44337620586156850000e-002) (70, -1.42272468656301500000e-002) (71, 7.28270262479782100000e-002) (72, 1.43234934657812120000e-002) (73, 8.51486176252365110000e-002) (74, -7.84355923533439640000e-002) (75, 1.34142395108938220000e-002) (76, 3.79041694104671480000e-002) (77, 8.47091227769851680000e-002) (78, -5.14611862599849700000e-002) (79, 2.53797583281993870000e-002) (80, -2.03687045723199840000e-002) (81, 4.16742898523807530000e-002) (82, -8.02913457155227660000e-002) (83, 2.31264289468526840000e-002) (84, -1.20156386401504280000e-003) (0, -1.29847470670938490000e-002) (1, 1.29424467682838440000e-001) (2, -3.81233952939510350000e-002) (3, 7.75730758905410770000e-002) (4, -1.70789435505867000000e-001) (5, 1.29933863878250120000e-001) (6, -2.19158977270126340000e-001) (7, 1.13087058067321780000e-001) (8, 3.51434275507926940000e-002) (9, -3.28440964221954350000e-002) (10, 6.64296895265579220000e-002) (11, 1.47280424833297730000e-001) (12, 7.75253623723983760000e-002) (13, 6.17726072669029240000e-002) (14, 9.73392203450202940000e-002) (15, -5.15711447224020960000e-003) (16, -1.16427086293697360000e-001) (17, -8.05157497525215150000e-002) (18, 9.55816432833671570000e-002) (19, -2.45663709938526150000e-002) (20, -2.16234903782606120000e-002) (21, -1.07352599501609800000e-001) (22, -2.36275251954793930000e-002) (23, 1.66827604174613950000e-001) (24, -1.20125979185104370000e-001) (25, -7.14655220508575440000e-003) (26, 3.39650511741638180000e-002) (27, 1.93891510367393490000e-001) (28, -5.23421280086040500000e-002) (29, -3.60236883163452150000e-001) (30, 1.27818673849105830000e-001) (31, -1.62285253405570980000e-001) (32, 5.36581326741725210000e-004) (33, 2.97604054212570190000e-002) (34, 3.81369702517986300000e-002) (35, 5.39243631064891820000e-002) (36, 5.51167652010917660000e-002) (37, 1.48621737957000730000e-001) (38, -1.39151081442832950000e-001) (39, -7.22629800438880920000e-002) (40, -4.73206229507923130000e-002) (41, -5.03518879413604740000e-001) (42, 3.02539318799972530000e-001) (43, -4.92073073983192440000e-002) (44, 2.88445860147476200000e-001) (45, 2.07831323146820070000e-001) (46, 8.46588462591171260000e-002) (47, 2.14098662137985230000e-001) (48, 7.98428133130073550000e-002) (49, 6.97508901357650760000e-002) (50, -2.16158442199230190000e-002) (51, -1.92044600844383240000e-001) (52, 2.94054001569747920000e-001) (53, 2.19817966222763060000e-001) (54, 8.72490927577018740000e-002) (55, 6.78480193018913270000e-002) (56, 1.29391714930534360000e-001) (57, -5.56704364717006680000e-002) (58, 1.27851935103535650000e-002) (59, -2.25769743323326110000e-001) (60, 1.93579167127609250000e-001) (61, -6.66995570063591000000e-002) (62, 1.56458333134651180000e-001) (63, 5.33057525753974910000e-002) (64, -2.62626886367797850000e-001) (65, -1.65645644068717960000e-001) (66, -7.35407620668411250000e-002) (67, -3.02279051393270490000e-002) (68, -1.53207769617438320000e-002) (69, -1.25159725546836850000e-001) (70, -4.73992712795734410000e-002) (71, -2.56096180528402330000e-002) (72, -4.37703989446163180000e-002) (73, 1.24892354011535640000e-001) (74, 1.74672380089759830000e-001) (75, 2.59087681770324710000e-002) (76, -1.48178890347480770000e-001) (77, -2.17010661959648130000e-001) (78, -2.49740649014711380000e-002) (79, -1.70855093747377400000e-002) (80, 9.01349931955337520000e-002) (81, -1.56871348619461060000e-001) (82, -4.98148612678050990000e-002) (83, -1.40060514211654660000e-001) (84, 1.28253579139709470000e-001) (0, -6.74463436007499690000e-003) (1, 1.54403150081634520000e-002) (2, 1.35723561048507690000e-001) (3, 1.69263407588005070000e-001) (4, 3.89761999249458310000e-002) (5, 1.70871578156948090000e-002) (6, -2.82684713602066040000e-002) (7, -3.28358868137001990000e-003) (8, 5.87973557412624360000e-002) (9, 3.54307144880294800000e-002) (10, 1.24870613217353820000e-001) (11, 1.95486277341842650000e-001) (12, -7.42630437016487120000e-002) (13, 7.05311745405197140000e-002) (14, -1.11334986984729770000e-001) (15, -1.43341928720474240000e-001) (16, -8.64539369940757750000e-002) (17, -9.31768119335174560000e-002) (18, -1.58923789858818050000e-001) (19, -9.16715264320373540000e-002) (20, 1.08874104917049410000e-001) (21, 5.22012114524841310000e-002) (22, -1.52149170637130740000e-001) (23, -1.05617083609104160000e-001) (24, -1.11404389142990110000e-001) (25, -9.07153636217117310000e-002) (26, -1.05082400143146510000e-001) (27, -1.09737403690814970000e-001) (28, 1.09295450150966640000e-001) (29, 3.89033481478691100000e-002) (30, -3.10531444847583770000e-002) (31, -6.40143230557441710000e-002) (32, -8.25372040271759030000e-002) (33, -5.14278486371040340000e-002) (34, -1.31973788142204280000e-001) (35, -1.03851884603500370000e-001) (36, -4.79896739125251770000e-002) (37, -3.60949523746967320000e-002) (38, 1.48851468111388390000e-004) (39, -9.33483913540840150000e-002) (40, 9.55953821539878850000e-002) (41, 8.81620496511459350000e-002) (42, 2.32223444618284700000e-003) (43, -3.62579128704965110000e-003) (44, 6.68714120984077450000e-002) (45, 6.21382333338260650000e-002) (46, 5.17675541341304780000e-002) (47, 8.37202742695808410000e-002) (48, 7.51083195209503170000e-002) (49, 8.96367505192756650000e-002) (50, 4.31713126599788670000e-002) (51, 8.41897577047348020000e-002) (52, 1.12874887883663180000e-001) (53, 1.04549802839756010000e-001) (54, 6.85317888855934140000e-002) (55, 3.07428780943155290000e-002) (56, 3.13043892383575440000e-002) (57, 2.25653331726789470000e-002) (58, 1.30312442779541020000e-002) (59, 2.19043437391519550000e-002) (60, 4.97299246490001680000e-002) (61, 1.74598842859268190000e-002) (62, -4.03052903711795810000e-002) (63, -9.49104279279708860000e-002) (64, 5.97646832466125490000e-002) (65, 2.05260235816240310000e-002) (66, -6.92774634808301930000e-003) (67, 1.44349429756402970000e-002) (68, -2.83472193405032160000e-003) (69, 1.05126705020666120000e-002) (70, 8.78816004842519760000e-003) (71, -3.20966355502605440000e-002) (72, -5.63097335398197170000e-002) (73, -2.71839853376150130000e-002) (74, 7.33386306092143060000e-003) (75, 3.40534225106239320000e-002) (76, -1.09917931258678440000e-002) (77, 1.44414808601140980000e-002) (78, 3.47498245537281040000e-002) (79, 4.30236570537090300000e-002) (80, -2.67616752535104750000e-002) (81, -7.39068898838013410000e-004) (82, 4.45659458637237550000e-002) (83, -2.86742132157087330000e-002) (84, 2.61599719524383540000e-002) (0, 1.05583421885967250000e-001) (1, -5.04118576645851140000e-003) (2, 1.66128739714622500000e-001) (3, -1.64931733161211010000e-002) (4, -4.24548722803592680000e-002) (5, -3.56777571141719820000e-002) (6, 2.46879100799560550000e-001) (7, 4.71683684736490250000e-003) (8, -6.78144097328186040000e-002) (9, -1.27527378499507900000e-002) (10, 2.18078196048736570000e-001) (11, -1.96977593004703520000e-002) (12, 1.40467494726181030000e-001) (13, 6.59146392717957500000e-003) (14, -1.59471482038497920000e-001) (15, -1.21889576315879820000e-001) (16, -6.96228966116905210000e-002) (17, -6.75619915127754210000e-002) (18, 3.65655124187469480000e-002) (19, -2.47197728604078290000e-002) (20, -1.40936613082885740000e-001) (21, -1.59263402223587040000e-001) (22, 1.74512024968862530000e-002) (23, -8.82904753088951110000e-002) (24, -5.20020863041281700000e-003) (25, 1.06528559699654580000e-002) (26, -3.89621146023273470000e-002) (27, -1.21117964386940000000e-001) (28, 1.58843904733657840000e-001) (29, 1.47953137755393980000e-001) (30, -8.49721115082502370000e-003) (31, -1.11767604947090150000e-001) (32, 5.41874244809150700000e-002) (33, -9.79325845837593080000e-002) (34, -5.37164229899644850000e-003) (35, -8.49365815520286560000e-002) (36, 1.02339155972003940000e-001) (37, -5.38123436272144320000e-002) (38, -3.71321178972721100000e-002) (39, -1.62342682480812070000e-001) (40, 1.89358860254287720000e-001) (41, 3.69074270129203800000e-002) (42, -1.41500588506460190000e-002) (43, -6.68318793177604680000e-002) (44, 3.59011068940162660000e-002) (45, -4.51173521578311920000e-002) (46, -3.31334099173545840000e-002) (47, -1.17488794028759000000e-001) (48, 2.17481330037117000000e-001) (49, 1.21069476008415220000e-001) (50, 4.24101687967777250000e-002) (51, -1.22453577816486360000e-001) (52, 8.05207416415214540000e-002) (53, -5.02238683402538300000e-002) (54, -3.86842116713523860000e-002) (55, -1.29762634634971620000e-001) (56, 6.65537500753998760000e-003) (57, 1.74506064504384990000e-002) (58, 5.35974651575088500000e-002) (59, 1.21857468038797380000e-002) (60, 9.79874432086944580000e-002) (61, 1.87609139829874040000e-002) (62, -7.50913396477699280000e-002) (63, -1.82459995150566100000e-001) (64, 1.04602865874767300000e-001) (65, 6.36635869741439820000e-002) (66, 3.01849190145730970000e-002) (67, 2.51899920403957370000e-002) (68, 7.15832710266113280000e-002) (69, 1.29499519243836400000e-002) (70, -1.55734037980437280000e-002) (71, -1.00957632064819340000e-001) (72, -1.19466865435242650000e-002) (73, -4.88944798707962040000e-002) (74, 8.57802405953407290000e-002) (75, -1.76936201751232150000e-002) (76, -2.01320019550621510000e-003) (77, -3.78170199692249300000e-002) (78, 2.87177301943302150000e-002) (79, -3.86032555252313610000e-003) (80, 2.54122670739889140000e-002) (81, -4.78764139115810390000e-002) (82, 9.74347740411758420000e-002) (83, 2.99477740190923210000e-003) (84, 1.18257120251655580000e-001) (0, 1.26426160335540770000e-001) (1, 1.76776498556137080000e-001) (2, -2.08065867424011230000e-001) (3, 2.77018714696168900000e-002) (4, -1.00103378295898440000e-001) (5, -4.71813604235649110000e-002) (6, -3.94885800778865810000e-002) (7, 5.71686811745166780000e-002) (8, -1.45907327532768250000e-001) (9, -5.72407655417919160000e-002) (10, -1.41997680068016050000e-001) (11, 1.28708794713020320000e-001) (12, 5.70409521460533140000e-002) (13, 1.44043043255805970000e-001) (14, -1.05931907892227170000e-001) (15, -5.16403429210186000000e-002) (16, -6.08858950436115260000e-002) (17, 2.68218684941530230000e-002) (18, -1.62435337901115420000e-001) (19, -1.55277578160166740000e-002) (20, 2.80395299196243290000e-002) (21, 9.75936949253082280000e-002) (22, -9.97344106435775760000e-002) (23, 2.16624084860086440000e-002) (24, -4.92901690304279330000e-002) (25, 2.79604177922010420000e-002) (26, -1.97368890047073360000e-001) (27, -6.30159676074981690000e-002) (28, -1.70978084206581120000e-001) (29, -2.98912879079580310000e-002) (30, 1.47101078182458880000e-002) (31, 1.26164436340332030000e-001) (32, 8.37496891617774960000e-002) (33, 1.90015971660614010000e-001) (34, -6.08869479037821290000e-004) (35, 1.23129092156887050000e-001) (36, 4.19377461075782780000e-002) (37, 1.60487070679664610000e-001) (38, -3.74627821147441860000e-002) (39, 1.21139816939830780000e-001) (40, -2.45690628886222840000e-001) (41, -1.27327769994735720000e-001) (42, 9.21997576951980590000e-002) (43, 2.09313407540321350000e-001) (44, -1.59200746566057210000e-002) (45, 7.43579044938087460000e-002) (46, -1.60075351595878600000e-001) (47, -5.21776899695396420000e-002) (48, -1.64699420332908630000e-001) (49, -4.79772649705410000000e-002) (50, -1.51266127824783330000e-001) (51, 1.73703636974096300000e-002) (52, -2.00391001999378200000e-002) (53, 8.11396315693855290000e-002) (54, 7.11194276809692380000e-002) (55, 1.81468024849891660000e-001) (56, -1.61751583218574520000e-002) (57, 4.03508245944976810000e-002) (58, -1.53751209378242490000e-001) (59, 1.09174766112118960000e-003) (60, -1.63005273789167400000e-002) (61, 8.70870649814605710000e-002) (62, -1.18661865592002870000e-001) (63, -2.20054164528846740000e-002) (64, 2.73147355765104290000e-002) (65, 1.01390227675437930000e-001) (66, -1.14682599902153020000e-001) (67, -1.06932958588004110000e-002) (68, -8.65354761481285100000e-003) (69, 4.81466054916381840000e-002) (70, -9.22794565558433530000e-002) (71, -2.15484574437141420000e-002) (72, -5.30651770532131200000e-002) (73, 7.37936496734619140000e-002) (74, -7.41113647818565370000e-002) (75, 3.35778854787349700000e-002) (76, -1.10514976084232330000e-001) (77, 3.83556005544960500000e-003) (78, -9.28174704313278200000e-002) (79, -2.82783247530460360000e-003) (80, 1.30879431962966920000e-002) (81, 1.20732381939888000000e-001) (82, -1.03240214288234710000e-001) (83, -3.88134159147739410000e-002) (84, 1.67642623186111450000e-001) (0, -1.76359713077545170000e-001) (1, 1.73171497881412510000e-002) (2, -2.79845505952835080000e-001) (3, -2.02195808291435240000e-001) (4, -2.89179295301437380000e-001) (5, 2.69167479127645490000e-002) (6, -2.37563699483871460000e-001) (7, 1.47795498371124270000e-001) (8, -2.72267878055572510000e-001) (9, 1.69335622340440750000e-002) (10, -2.96469032764434810000e-001) (11, -2.35514134168624880000e-001) (12, -1.87090843915939330000e-001) (13, 1.64343714714050290000e-002) (14, 3.80743816494941710000e-002) (15, 7.38736689090728760000e-002) (16, -2.65821069478988650000e-001) (17, -1.15884728729724880000e-001) (18, -1.12618885934352870000e-001) (19, -5.22744543850421910000e-002) (20, -1.50882199406623840000e-001) (21, 2.93878167867660520000e-002) (22, -9.15483608841896060000e-002) (23, -8.47758278250694270000e-002) (24, -2.67912864685058590000e-001) (25, -6.87316209077835080000e-002) (26, 3.49018648266792300000e-002) (27, 5.08166402578353880000e-002) (28, 7.55398720502853390000e-002) (29, 7.61057138442993160000e-002) (30, -1.37280300259590150000e-001) (31, 1.26794934272766110000e-001) (32, 7.84591138362884520000e-002) (33, 2.92751818895339970000e-001) (34, 2.94510945677757260000e-002) (35, 1.44122794270515440000e-001) (36, 1.02441303431987760000e-001) (37, 2.97953695058822630000e-001) (38, -1.09633840620517730000e-001) (39, 1.51190117001533510000e-001) (40, 7.00906291604042050000e-002) (41, 6.91373869776725770000e-002) (42, -2.43877053260803220000e-001) (43, -1.07634082436561580000e-001) (44, 8.38300734758377080000e-002) (45, 2.29813694953918460000e-001) (46, -1.32384538650512700000e-001) (47, 1.38480216264724730000e-001) (48, -7.60754570364952090000e-002) (49, 4.71487827599048610000e-002) (50, -8.87771248817443850000e-002) (51, 1.48531630635261540000e-001) (52, 1.05720229446887970000e-001) (53, 2.14349627494812010000e-001) (54, -2.58983612060546880000e-001) (55, -1.25594943761825560000e-001) (56, 5.18981516361236570000e-002) (57, 1.17014423012733460000e-001) (58, -2.59077608585357670000e-001) (59, -6.44809901714324950000e-002) (60, -1.83409437537193300000e-001) (61, -6.90817758440971370000e-002) (62, -8.65478217601776120000e-002) (63, 2.61335335671901700000e-002) (64, -1.54364988207817080000e-001) (65, -7.44666322134435180000e-004) (66, -2.22649157047271730000e-001) (67, -8.51198509335517880000e-002) (68, 7.67585635185241700000e-002) (69, 9.98819917440414430000e-002) (70, -9.35786515474319460000e-002) (71, 6.56920969486236570000e-002) (72, -1.66409718804061410000e-003) (73, 1.37168183922767640000e-001) (74, -2.41144254803657530000e-001) (75, -1.09162412583827970000e-001) (76, -1.51380017399787900000e-001) (77, -1.33327906951308250000e-002) (78, -2.27375432848930360000e-001) (79, -6.46799653768539430000e-002) (80, 3.02300602197647090000e-002) (81, 1.75988033413887020000e-001) (82, -8.23305323719978330000e-002) (83, 1.03935241699218750000e-001) (84, 3.76828610897064210000e-001) (0, 6.01891651749610900000e-002) (1, -2.02226102352142330000e-001) (2, -2.74803228676319120000e-002) (3, -3.03200725466012950000e-002) (4, -1.89931407570838930000e-001) (5, 8.78789424896240230000e-002) (6, 6.94140568375587460000e-002) (7, 1.44414246082305910000e-001) (8, -1.77628085017204280000e-001) (9, 1.21136046946048740000e-001) (10, -6.87232315540313720000e-002) (11, -7.03592672944068910000e-002) (12, 2.80544292181730270000e-002) (13, -1.74969941377639770000e-001) (14, 9.63046178221702580000e-002) (15, 4.43056486546993260000e-002) (16, 2.02352374792099000000e-001) (17, 2.83372282981872560000e-001) (18, 1.89485996961593630000e-002) (19, -1.45022168755531310000e-001) (20, -1.77476629614830020000e-001) (21, -8.91276672482490540000e-002) (22, 2.53527723252773280000e-002) (23, -6.84747248888015750000e-002) (24, 1.98744714260101320000e-001) (25, 2.63327002525329590000e-001) (26, 4.57945354282855990000e-002) (27, 2.47288439422845840000e-002) (28, -4.87743429839611050000e-002) (29, 7.69443139433860780000e-002) (30, -1.88411280512809750000e-001) (31, -1.45200667902827260000e-002) (32, 3.21947410702705380000e-002) (33, -4.99374186620116230000e-003) (34, 1.46892741322517400000e-001) (35, 2.50667929649353030000e-001) (36, 5.08342869579792020000e-002) (37, 4.26272191107273100000e-002) (38, -2.19542279839515690000e-001) (39, -1.94954890757799150000e-002) (40, -1.00977659225463870000e-001) (41, 9.33581963181495670000e-002) (42, 1.58922851085662840000e-001) (43, 2.43584841489791870000e-001) (44, -1.40758559107780460000e-001) (45, -2.58694812655448910000e-002) (46, 2.43979990482330320000e-001) (47, 1.69345811009407040000e-001) (48, -1.89749315381050110000e-001) (49, -1.09585992991924290000e-001) (50, 1.61370217800140380000e-001) (51, 1.50940001010894780000e-001) (52, -1.87707737088203430000e-001) (53, -2.69028935581445690000e-002) (54, 8.88683050870895390000e-002) (55, 1.93454965949058530000e-001) (56, -2.42734514176845550000e-002) (57, -6.33843541145324710000e-002) (58, -6.79723024368286130000e-002) (59, -8.01317393779754640000e-003) (60, -1.77067890763282780000e-001) (61, -2.44501858949661250000e-001) (62, 9.03861373662948610000e-002) (63, 1.24901331961154940000e-001) (64, -2.89859980344772340000e-001) (65, -3.36809426546096800000e-001) (66, -8.33016782999038700000e-002) (67, -3.88744696974754330000e-002) (68, -1.12828850746154790000e-001) (69, -3.66882607340812680000e-002) (70, 6.77016451954841610000e-002) (71, 3.61159667372703550000e-002) (72, 4.62942421436309810000e-002) (73, 2.47971937060356140000e-002) (74, 9.48754027485847470000e-002) (75, 1.05395838618278500000e-001) (76, -2.95327939093112950000e-002) (77, -1.57769471406936650000e-002) (78, 6.02396726608276370000e-002) (79, 7.34707862138748170000e-002) (80, -4.47659119963645940000e-002) (81, -3.75753827393054960000e-002) (82, 3.07060871273279190000e-002) (83, -8.11771024018526080000e-003) (84, -3.86424958705902100000e-002) (0, 5.51284030079841610000e-002) (1, -1.04948006570339200000e-001) (2, -7.85081610083580020000e-002) (3, 6.27833381295204160000e-002) (4, -2.56978366523981090000e-002) (5, -5.37250153720378880000e-002) (6, 9.21919047832489010000e-002) (7, 1.47737935185432430000e-001) (8, -2.16449871659278870000e-002) (9, -7.51669257879257200000e-002) (10, -6.08568266034126280000e-002) (11, 5.40302842855453490000e-002) (12, 3.83896678686141970000e-002) (13, -9.91989746689796450000e-002) (14, 6.41111359000205990000e-002) (15, -2.53990273922681810000e-002) (16, -2.06740140914916990000e-001) (17, -1.10680028796195980000e-001) (18, 1.03904167190194130000e-003) (19, 3.11931893229484560000e-002) (20, -3.21358777582645420000e-002) (21, 2.65314914286136630000e-002) (22, 7.40561783313751220000e-002) (23, 2.96156667172908780000e-002) (24, -1.18303030729293820000e-001) (25, 3.00178583711385730000e-002) (26, 4.32317890226840970000e-002) (27, 3.08835022151470180000e-002) (28, 7.47854709625244140000e-002) (29, 7.94254913926124570000e-002) (30, -1.19397372007370000000e-001) (31, -1.10407546162605290000e-001) (32, 1.03556290268898010000e-001) (33, 4.27438057959079740000e-002) (34, -1.92959278821945190000e-001) (35, -1.43908157944679260000e-001) (36, 1.02358162403106690000e-001) (37, 7.15498253703117370000e-002) (38, 4.33966666460037230000e-002) (39, 6.64971545338630680000e-002) (40, 5.87400346994400020000e-002) (41, 1.09583631157875060000e-001) (42, -1.06235258281230930000e-001) (43, -1.01437851786613460000e-001) (44, -1.08523443341255190000e-001) (45, -8.24470818042755130000e-002) (46, -6.57246187329292300000e-002) (47, -5.84610272198915480000e-004) (48, 8.18160772323608400000e-002) (49, 1.15354560315608980000e-001) (50, 3.63957881927490230000e-002) (51, -4.23852130770683290000e-002) (52, -4.24031987786293030000e-002) (53, -4.33003492653369900000e-002) (54, -9.75212231278419490000e-002) (55, -8.53886455297470090000e-002) (56, -7.45982080698013310000e-002) (57, 4.04405556619167330000e-002) (58, 5.84369786083698270000e-002) (59, 6.72161206603050230000e-002) (60, -1.23111359775066380000e-001) (61, -1.06197007000446320000e-001) (62, 6.31172358989715580000e-002) (63, 1.31510481238365170000e-001) (64, -6.08065724372863770000e-002) (65, 1.06210839003324510000e-002) (66, 2.38592755049467090000e-002) (67, 2.78970785439014430000e-002) (68, 2.02933903783559800000e-002) (69, 8.29936787486076350000e-002) (70, 5.67339956760406490000e-002) (71, 1.08090765774250030000e-001) (72, -6.16923384368419650000e-002) (73, -4.04880940914154050000e-002) (74, 3.62169966101646420000e-002) (75, 4.20231446623802190000e-002) (76, -1.37139141559600830000e-001) (77, -1.31004124879837040000e-001) (78, 3.35599295794963840000e-002) (79, 8.13939645886421200000e-002) (80, -1.50066157802939410000e-002) (81, -6.94234063848853110000e-003) (82, 5.68679757416248320000e-002) (83, 8.48278701305389400000e-002) (84, 2.42182193323969840000e-003) (0, -1.69740512967109680000e-001) (1, -2.61286437511444090000e-001) (2, -2.77035981416702270000e-001) (3, -2.21878774464130400000e-002) (4, -1.03164203464984890000e-001) (5, 1.64299070835113530000e-001) (6, -1.49503782391548160000e-001) (7, 9.18851792812347410000e-002) (8, -7.79738053679466250000e-002) (9, 1.91196337342262270000e-001) (10, -1.88839420676231380000e-001) (11, 4.59467433393001560000e-002) (12, -1.78572356700897220000e-001) (13, -2.55613625049591060000e-001) (14, 1.18507146835327150000e-001) (15, 2.10757985711097720000e-001) (16, 1.22732184827327730000e-001) (17, 2.67922937870025630000e-001) (18, -9.39924418926239010000e-002) (19, 3.79441641271114350000e-002) (20, -1.14012025296688080000e-001) (21, 5.22568747401237490000e-002) (22, -5.33533953130245210000e-002) (23, 4.38696965575218200000e-002) (24, 7.12816566228866580000e-002) (25, 2.13248893618583680000e-001) (26, 1.31207600235939030000e-001) (27, 1.62765398621559140000e-001) (28, -6.89979270100593570000e-002) (29, 1.78662031888961790000e-001) (30, -1.17781914770603180000e-001) (31, 1.58631294965744020000e-001) (32, -1.10956788063049320000e-001) (33, 6.82125166058540340000e-002) (34, 2.01425310224294660000e-002) (35, 1.68849796056747440000e-001) (36, -1.37672975659370420000e-001) (37, 2.48453095555305480000e-002) (38, -1.48181483149528500000e-001) (39, 1.05299048125743870000e-001) (40, -7.79005736112594600000e-002) (41, 1.28625154495239260000e-001) (42, -7.80573999509215350000e-003) (43, 1.73687338829040530000e-001) (44, -1.25017076730728150000e-001) (45, 1.30802989006042480000e-001) (46, -1.02084036916494370000e-003) (47, 8.67157354950904850000e-002) (48, -1.90563023090362550000e-001) (49, -2.89722159504890440000e-002) (50, 2.60856770910322670000e-003) (51, 1.26299053430557250000e-001) (52, -1.36682510375976560000e-001) (53, 1.09518088400363920000e-001) (54, -3.53100895881652830000e-002) (55, 1.71183302998542790000e-001) (56, -1.04801230132579800000e-001) (57, -7.62964040040969850000e-003) (58, -7.16991797089576720000e-002) (59, 5.31790517270565030000e-002) (60, -4.74650487303733830000e-002) (61, 7.43327364325523380000e-002) (62, 2.60111200623214240000e-003) (63, 1.31784722208976750000e-001) (64, -1.02659404277801510000e-001) (65, 3.24910436756908890000e-003) (66, -1.14918962121009830000e-001) (67, 4.73580211400985720000e-002) (68, -1.25954970717430110000e-001) (69, 7.03181466087698940000e-003) (70, -8.92708674073219300000e-002) (71, 3.80796752870082860000e-002) (72, -2.63484586030244830000e-002) (73, 5.93292452394962310000e-002) (74, -1.09100900590419770000e-001) (75, 3.82969714701175690000e-002) (76, 4.29650675505399700000e-003) (77, 1.11014008522033690000e-001) (78, -1.13247208297252660000e-001) (79, 2.40174122154712680000e-002) (80, -4.52414043247699740000e-002) (81, 5.19319027662277220000e-002) (82, -8.99107977747917180000e-002) (83, 4.08079847693443300000e-002) (84, -9.83450561761856080000e-002) (0, 1.16396658122539520000e-001) (1, -5.05302250385284420000e-001) (2, 2.44690328836441040000e-001) (3, -8.91813218593597410000e-001) (4, -8.13937261700630190000e-002) (5, -8.02499890327453610000e-001) (6, -4.16688881814479830000e-002) (7, 2.73733288049697880000e-001) (8, -6.81330040097236630000e-002) (9, -8.00704598426818850000e-001) (10, 2.30189636349678040000e-001) (11, -8.99960398674011230000e-001) (12, 1.31361171603202820000e-001) (13, -5.07218599319458010000e-001) (14, 1.29119800403714180000e-002) (15, -5.35117447376251220000e-001) (16, 1.39000182971358300000e-002) (17, -2.82942593097686770000e-001) (18, -1.24590501189231870000e-001) (19, -1.72158285975456240000e-001) (20, -8.50349515676498410000e-002) (21, 3.27207624912261960000e-001) (22, -1.25115916132926940000e-001) (23, -1.99362754821777340000e-001) (24, 2.71404702216386800000e-002) (25, -2.76266902685165410000e-001) (26, 1.31699880585074420000e-002) (27, -5.27445971965789790000e-001) (28, -4.18034680187702180000e-002) (29, -3.23380887508392330000e-001) (30, -3.86317551136016850000e-001) (31, 5.47736287117004390000e-001) (32, -2.02026769518852230000e-001) (33, -1.47588461637496950000e-001) (34, -4.99705448746681210000e-002) (35, 5.39255082607269290000e-001) (36, -1.99610725045204160000e-001) (37, -1.43834426999092100000e-001) (38, -3.95945340394973750000e-001) (39, 5.54205894470214840000e-001) (40, -3.45346517860889430000e-002) (41, -3.21841955184936520000e-001) (42, -3.02278339862823490000e-001) (43, -1.64849683642387390000e-001) (44, -1.95460349321365360000e-001) (45, 9.24991786479949950000e-001) (46, -3.99546802043914790000e-001) (47, 7.19831883907318120000e-002) (48, -3.76789480447769170000e-001) (49, 4.02224272489547730000e-001) (50, -4.05797213315963750000e-001) (51, 6.39104619622230530000e-002) (52, -1.82574793696403500000e-001) (53, 9.23133194446563720000e-001) (54, -3.15838247537612920000e-001) (55, -1.59207552671432500000e-001) (56, -1.40968456864356990000e-001) (57, 9.89055633544921880000e-002) (58, -3.59069705009460450000e-001) (59, 2.20324516296386720000e-001) (60, -1.99599310755729680000e-001) (61, 2.11692705750465390000e-001) (62, -7.51648768782615660000e-002) (63, 1.84218883514404300000e-001) (64, -1.94212466478347780000e-001) (65, 2.22128078341484070000e-001) (66, -3.48989516496658330000e-001) (67, 2.14127644896507260000e-001) (68, -1.13889887928962710000e-001) (69, 8.50235596299171450000e-002) (70, -2.57472768425941470000e-002) (71, 3.35958063602447510000e-001) (72, -2.99356114119291310000e-002) (73, 3.09090971946716310000e-001) (74, 5.62147349119186400000e-002) (75, 5.42155146598815920000e-001) (76, 3.01757931709289550000e-001) (77, 9.26986038684844970000e-001) (78, 4.88569177687168120000e-002) (79, 5.27400970458984380000e-001) (80, -1.39764565974473950000e-002) (81, 3.24558854103088380000e-001) (82, -1.82879306375980380000e-002) (83, 3.51949721574783330000e-001) (84, -1.04047369956970210000e+000) (0, 2.41201855242252350000e-002) (1, 1.49673148989677430000e-001) (2, -9.37107726931571960000e-002) (3, -3.30560542643070220000e-002) (4, -1.20496697723865510000e-001) (5, 3.51022481918334960000e-002) (6, -1.77478566765785220000e-001) (7, -6.33562402799725530000e-003) (8, -1.19676209986209870000e-001) (9, -1.29050714895129200000e-002) (10, -6.64473995566368100000e-002) (11, -8.84148180484771730000e-002) (12, -6.77424808964133260000e-003) (13, 1.35003805160522460000e-001) (14, -1.17364607751369480000e-001) (15, 1.89957126975059510000e-001) (16, 3.10787116177380080000e-003) (17, 1.60493299365043640000e-001) (18, 5.32944314181804660000e-002) (19, 1.71351939439773560000e-001) (20, 1.99316237121820450000e-002) (21, 1.56618282198905940000e-001) (22, -4.63392361998558040000e-002) (23, 1.86797931790351870000e-001) (24, 2.52884756773710250000e-002) (25, 2.25304007530212400000e-001) (26, -2.35411524772644040000e-002) (27, 2.06063345074653630000e-001) (28, -9.60312113165855410000e-002) (29, 1.93958565592765810000e-001) (30, -2.91533827781677250000e-001) (31, 6.86813192442059520000e-003) (32, -1.94143012166023250000e-001) (33, -4.64522093534469600000e-002) (34, -3.28847557306289670000e-001) (35, -1.82764783501625060000e-001) (36, -1.79075837135314940000e-001) (37, -5.64996600151062010000e-002) (38, -2.97284305095672610000e-001) (39, -4.16439138352870940000e-002) (40, -8.00946429371833800000e-002) (41, 2.02974021434783940000e-001) (42, 4.36429260298609730000e-003) (43, 1.81730538606643680000e-001) (44, -4.67601753771305080000e-002) (45, 1.85185626149177550000e-001) (46, -3.31376269459724430000e-002) (47, 1.48641720414161680000e-001) (48, 1.78107708692550660000e-001) (49, 3.21614623069763180000e-001) (50, -8.65345597267150880000e-002) (51, 1.50857597589492800000e-001) (52, -7.05264136195182800000e-002) (53, 1.85022637248039250000e-001) (54, -2.96347327530384060000e-002) (55, 1.16500429809093480000e-001) (56, -1.57185107469558720000e-001) (57, 7.62114524841308590000e-002) (58, 5.30914170667529110000e-003) (59, 2.08224698901176450000e-001) (60, -1.76430717110633850000e-002) (61, 1.72262549400329590000e-001) (62, 2.82136294990777970000e-002) (63, 1.59112274646759030000e-001) (64, -1.13573009148240090000e-002) (65, 1.64828971028327940000e-001) (66, -2.12309863418340680000e-002) (67, 2.44728416204452510000e-001) (68, -1.99421629309654240000e-001) (69, 5.60649372637271880000e-002) (70, -1.47795572876930240000e-001) (71, 2.22621448338031770000e-002) (72, -9.21639874577522280000e-002) (73, 7.42254033684730530000e-002) (74, -2.33127132058143620000e-001) (75, -2.32447404414415360000e-002) (76, -1.37270539999008180000e-001) (77, 5.21833561360836030000e-002) (78, -2.16720566153526310000e-001) (79, -4.97708246111869810000e-002) (80, -5.42871430516242980000e-002) (81, 8.09118375182151790000e-002) (82, -1.40325784683227540000e-001) (83, -3.81512031890451910000e-003) (84, -1.78986042737960820000e-002) (0, 1.59805372357368470000e-001) (1, 1.16789340972900390000e-001) (2, 2.06088587641716000000e-001) (3, 4.08821821212768550000e-001) (4, -1.06255218386650090000e-001) (5, -8.47171843051910400000e-002) (6, -4.13971036672592160000e-001) (7, 6.07059039175510410000e-002) (8, -1.18489883840084080000e-001) (9, -7.24114775657653810000e-002) (10, 1.89134642481803890000e-001) (11, 3.82731854915618900000e-001) (12, 1.66577190160751340000e-001) (13, 1.39561578631401060000e-001) (14, -6.88306172378361230000e-004) (15, 1.83911696076393130000e-001) (16, 9.07997637987136840000e-002) (17, 1.42234042286872860000e-001) (18, -3.17238777875900270000e-001) (19, -2.31716781854629520000e-002) (20, 7.34337605535984040000e-003) (21, 1.83834895491600040000e-001) (22, -3.02440732717514040000e-001) (23, -2.80372463166713710000e-002) (24, 1.00444599986076350000e-001) (25, 1.23256646096706390000e-001) (26, 7.56854191422462460000e-003) (27, 1.61633372306823730000e-001) (28, -1.97090983390808110000e-001) (29, -1.78968921303749080000e-001) (30, -1.01409673690795900000e-001) (31, -5.97872026264667510000e-002) (32, -1.78772658109664920000e-001) (33, 1.72681920230388640000e-002) (34, -1.05247102677822110000e-001) (35, -1.61714330315589900000e-002) (36, -1.75418958067893980000e-001) (37, 2.51736994832754140000e-002) (38, -8.19340571761131290000e-002) (39, -8.67196992039680480000e-002) (40, -2.05062061548233030000e-001) (41, -1.74547016620635990000e-001) (42, -1.05327583849430080000e-001) (43, -2.78424024581909180000e-002) (44, -5.75215406715869900000e-002) (45, 4.56542931497097020000e-002) (46, 1.20306098833680150000e-002) (47, -1.38209417462348940000e-001) (48, 8.59007313847541810000e-002) (49, 2.32332631945610050000e-001) (50, -1.03893447667360310000e-002) (51, -9.12750214338302610000e-002) (52, -6.19170367717742920000e-002) (53, 4.56696487963199620000e-002) (54, -1.18086546659469600000e-001) (55, -2.39981096237897870000e-002) (56, 6.26859515905380250000e-002) (57, 3.89068573713302610000e-002) (58, -3.67434583604335780000e-002) (59, 5.70531561970710750000e-003) (60, 2.50590755604207520000e-003) (61, 4.79593425989151000000e-002) (62, 1.30516029894351960000e-002) (63, -7.96206071972846980000e-002) (64, 3.10358535498380660000e-002) (65, 7.20303654670715330000e-002) (66, -2.39401441067457200000e-002) (67, -2.92720738798379900000e-002) (68, 7.97082111239433290000e-002) (69, 4.97741028666496280000e-002) (70, -7.30013661086559300000e-003) (71, -2.96372920274734500000e-003) (72, 9.87677723169326780000e-002) (73, 1.23352035880088810000e-001) (74, 1.67874008417129520000e-001) (75, 9.82445627450942990000e-002) (76, 4.49301421642303470000e-001) (77, 5.84036171436309810000e-001) (78, 1.63437500596046450000e-001) (79, 9.52928811311721800000e-002) (80, 9.47364643216133120000e-002) (81, 1.42029613256454470000e-001) (82, -2.18810290098190310000e-002) (83, 2.61881994083523750000e-003) (84, -6.30309045314788820000e-001) (0, 4.89383935928344730000e-001) (1, -1.03101980686187740000e+000) (2, 3.83089631795883180000e-001) (3, -7.14227199554443360000e-001) (4, 9.45016555488109590000e-003) (5, -4.38981764018535610000e-002) (6, 1.66479215025901790000e-001) (7, 6.45742639899253850000e-002) (8, -3.40531580150127410000e-002) (9, -5.21416366100311280000e-001) (10, 3.56500335037708280000e-002) (11, -3.79675447940826420000e-001) (12, 4.71852391958236690000e-001) (13, -5.67382693290710450000e-001) (14, 3.12392354011535640000e-001) (15, -4.54691529273986820000e-001) (16, 6.19458593428134920000e-002) (17, -8.00169631838798520000e-002) (18, -1.86861008405685420000e-001) (19, 1.69146060943603520000e-001) (20, -1.31064727902412410000e-001) (21, 2.66427069902420040000e-001) (22, 4.01941835880279540000e-001) (23, 8.06228891015052800000e-002) (24, -1.43331944942474370000e-001) (25, -1.48467034101486210000e-001) (26, 4.07092124223709110000e-001) (27, -1.43079876899719240000e-001) (28, -7.63921160250902180000e-003) (29, 3.17231386899948120000e-001) (30, -2.12308809161186220000e-001) (31, 6.25488877296447750000e-001) (32, -2.15701907873153690000e-001) (33, 2.21248164772987370000e-001) (34, -2.61734426021575930000e-001) (35, 4.69907522201538090000e-001) (36, -2.45208129286766050000e-001) (37, 2.61456429958343510000e-001) (38, 1.02424614131450650000e-001) (39, 2.91148573160171510000e-001) (40, 5.13139605522155760000e-001) (41, 9.52975898981094360000e-002) (42, -3.23646098375320430000e-001) (43, 7.25728943943977360000e-002) (44, -4.27719295024871830000e-001) (45, -5.86028732359409330000e-002) (46, -6.06286168098449710000e-001) (47, 4.16941523551940920000e-001) (48, -3.50555539131164550000e-001) (49, 2.09459811449050900000e-001) (50, -2.80940592288970950000e-001) (51, 1.71116709709167480000e-001) (52, -7.22391188144683840000e-001) (53, -1.45552232861518860000e-001) (54, 8.07078108191490170000e-002) (55, -1.97662301361560820000e-002) (56, -1.71617314219474790000e-001) (57, -8.28939601778984070000e-002) (58, -3.21809381246566770000e-001) (59, 5.42607128620147710000e-001) (60, 1.52618987485766410000e-002) (61, -1.01014547049999240000e-001) (62, -2.50581026077270510000e-001) (63, 2.02066525816917420000e-001) (64, -2.81490921974182130000e-001) (65, 3.79883050918579100000e-001) (66, 3.23855161666870120000e-001) (67, -7.38472342491149900000e-002) (68, -4.93635386228561400000e-002) (69, 1.74548238515853880000e-001) (70, 3.89645248651504520000e-001) (71, -8.62217009067535400000e-001) (72, 2.48761296272277830000e-001) (73, -6.20745241641998290000e-001) (74, -4.78901892900466920000e-001) (75, 2.02353930473327640000e+000) (76, -3.47517639398574830000e-001) (77, 7.84180402755737300000e-001) (78, 2.68821984529495240000e-001) (79, -1.34824109077453610000e+000) (80, -2.79074400663375850000e-001) (81, 1.01235723495483400000e+000) (82, -5.56158006191253660000e-001) (83, 8.86811971664428710000e-001) (84, -2.86714851856231690000e-001) (0, -3.34639847278594970000e-002) (1, 3.79712991416454320000e-002) (2, 8.42331647872924800000e-002) (3, 4.90101613104343410000e-002) (4, -1.68931007385253910000e-001) (5, -1.40595570206642150000e-001) (6, 4.83146794140338900000e-002) (7, -2.16244496405124660000e-002) (8, -1.20701238512992860000e-001) (9, -1.81809633970260620000e-001) (10, 1.77840068936347960000e-002) (11, 4.56438846886157990000e-002) (12, 2.48550735414028170000e-002) (13, 4.72487583756446840000e-002) (14, -1.39765590429306030000e-001) (15, 8.95477011799812320000e-002) (16, 5.85712492465972900000e-002) (17, 1.66854411363601680000e-001) (18, -2.78131496161222460000e-002) (19, 2.18007788062095640000e-002) (20, 2.83649079501628880000e-002) (21, 1.26671209931373600000e-001) (22, -4.19691167771816250000e-002) (23, 1.14671230316162110000e-001) (24, 5.35005852580070500000e-002) (25, 1.85032397508621220000e-001) (26, -1.07872396707534790000e-001) (27, 1.02205023169517520000e-001) (28, 5.95695190131664280000e-002) (29, 2.25736364722251890000e-001) (30, -1.73807248473167420000e-001) (31, -6.31737560033798220000e-002) (32, 7.22299143671989440000e-002) (33, 1.07400916516780850000e-001) (34, -7.66136646270751950000e-002) (35, -6.23261854052543640000e-002) (36, 1.16421014070510860000e-001) (37, 1.30122974514961240000e-001) (38, -2.01002195477485660000e-001) (39, -9.10374149680137630000e-003) (40, 3.86188458651304240000e-003) (41, 2.94715344905853270000e-001) (42, -1.60160243511199950000e-001) (43, -1.55732274055480960000e-001) (44, -9.90385189652442930000e-002) (45, -4.90885972976684570000e-002) (46, -1.95622161030769350000e-001) (47, -1.44558772444725040000e-001) (48, -9.04977843165397640000e-002) (49, -8.22845846414566040000e-002) (50, -1.86543256044387820000e-001) (51, -1.73105329275131230000e-001) (52, -1.30440875887870790000e-001) (53, -3.55000235140323640000e-003) (54, -2.88933336734771730000e-001) (55, -1.46709620952606200000e-001) (56, 4.64677661657333370000e-002) (57, 1.23455889523029330000e-001) (58, -6.11683689057827000000e-002) (59, 7.42694064974784850000e-002) (60, 1.80162359029054640000e-002) (61, 1.43891781568527220000e-001) (62, -1.91424861550331120000e-002) (63, 9.79237928986549380000e-002) (64, -2.21225023269653320000e-002) (65, 1.27655595541000370000e-001) (66, -2.98591889441013340000e-002) (67, 1.59029766917228700000e-001) (68, -1.43218403682112690000e-002) (69, 9.03752967715263370000e-002) (70, 3.71872703544795510000e-003) (71, 6.41106814146041870000e-002) (72, -7.11370334029197690000e-002) (73, 8.76506641507148740000e-002) (74, 1.70442592352628710000e-002) (75, 1.09633684158325200000e-001) (76, -7.38199725747108460000e-002) (77, 5.16401976346969600000e-002) (78, -1.28236180171370510000e-002) (79, 7.94217959046363830000e-002) (80, -4.68840859830379490000e-002) (81, 2.98477970063686370000e-002) (82, -3.30405458807945250000e-002) (83, 6.14196322858333590000e-002) (84, -4.43649478256702420000e-002) (0, 6.72012269496917720000e-002) (1, -2.77434140443801880000e-001) (2, -1.02878190577030180000e-001) (3, -7.07593634724617000000e-002) (4, 2.63443328440189360000e-002) (5, -1.22088164091110230000e-001) (6, 1.02364800870418550000e-001) (7, -2.24846806377172470000e-002) (8, -3.56243997812271120000e-002) (9, -1.07692621648311610000e-001) (10, -1.17715522646903990000e-001) (11, -2.34185270965099330000e-002) (12, 1.97706613689661030000e-002) (13, -2.35543847084045410000e-001) (14, 3.16521614789962770000e-001) (15, -9.63338371366262440000e-003) (16, 2.26116389036178590000e-001) (17, -1.91740140318870540000e-001) (18, 5.74646815657615660000e-002) (19, -9.34012513607740400000e-003) (20, 1.22521385550498960000e-001) (21, -3.96556518971920010000e-002) (22, 1.20558947324752810000e-001) (23, -2.49977912753820420000e-002) (24, 1.90852299332618710000e-001) (25, -9.59776863455772400000e-002) (26, 2.41258725523948670000e-001) (27, 2.13443301618099210000e-002) (28, -1.90865442156791690000e-001) (29, -1.80109456181526180000e-001) (30, 6.64455369114875790000e-002) (31, -1.56527310609817500000e-001) (32, -2.42632374167442320000e-001) (33, -2.09610298275947570000e-001) (34, -2.76903174817562100000e-002) (35, -5.55265583097934720000e-002) (36, -2.15513229370117190000e-001) (37, -1.89745187759399410000e-001) (38, 1.14158116281032560000e-001) (39, -8.53804424405097960000e-002) (40, -1.75555199384689330000e-001) (41, -2.33608558773994450000e-001) (42, 3.13977003097534180000e-001) (43, 2.06388190388679500000e-001) (44, 9.21446308493614200000e-002) (45, -5.80504350364208220000e-002) (46, -5.91372884809970860000e-002) (47, 1.83141544461250310000e-001) (48, 1.17788419127464290000e-001) (49, 7.17513561248779300000e-002) (50, 3.92734371125698090000e-002) (51, 8.41471031308174130000e-002) (52, 1.55070275068283080000e-001) (53, -7.21844360232353210000e-002) (54, 2.32497155666351320000e-001) (55, 2.47902363538742070000e-001) (56, 6.27139359712600710000e-002) (57, 9.26801785826683040000e-002) (58, -2.77682691812515260000e-002) (59, 5.35576455295085910000e-002) (60, 1.56947616487741470000e-002) (61, -6.61922395229339600000e-002) (62, -7.67929330468177800000e-002) (63, -1.43194407224655150000e-001) (64, 4.51336279511451720000e-002) (65, 5.72393164038658140000e-002) (66, -2.99222394824028020000e-002) (67, 6.69736042618751530000e-002) (68, 1.09198994934558870000e-001) (69, 2.48069316148757930000e-002) (70, 2.57785078138113020000e-002) (71, -1.43076345324516300000e-001) (72, 3.94589304924011230000e-002) (73, 2.43486240506172180000e-002) (74, 9.79027077555656430000e-002) (75, 1.67096648365259170000e-002) (76, -3.90132299799006430000e-005) (77, -5.43002970516681670000e-002) (78, 9.57131534814834590000e-002) (79, 1.07659764587879180000e-001) (80, 1.20605945587158200000e-001) (81, 4.10056374967098240000e-002) (82, 2.07619480788707730000e-002) (83, -7.40705281496047970000e-002) (84, -1.85072317719459530000e-001) (0, 3.98089326918125150000e-002) (1, 5.35736680030822750000e-001) (2, -1.74415513873100280000e-001) (3, 5.00899612903594970000e-001) (4, -8.07257369160652160000e-002) (5, 3.37733656167984010000e-001) (6, -3.00015360116958620000e-001) (7, 2.99566954374313350000e-001) (8, -1.46592840552330020000e-001) (9, 7.95051157474517820000e-001) (10, -7.80111700296401980000e-002) (11, 1.33160918951034550000e-001) (12, -7.49479606747627260000e-002) (13, 4.89633202552795410000e-001) (14, -1.67310968041419980000e-001) (15, 4.86428588628768920000e-001) (16, -1.50849938392639160000e-001) (17, 4.10524457693099980000e-002) (18, -1.63290217518806460000e-001) (19, -1.39023482799530030000e-001) (20, -3.99074815213680270000e-002) (21, -1.16052962839603420000e-001) (22, -6.72700405120849610000e-002) (23, 2.15028315782547000000e-001) (24, 1.09970159828662870000e-001) (25, -5.50864972174167630000e-002) (26, 1.05318576097488400000e-001) (27, -8.85672750882804390000e-004) (28, 9.73061546683311460000e-002) (29, -7.80920386314392090000e-002) (30, -1.08602307736873630000e-001) (31, -1.39902189373970030000e-001) (32, -2.19087958335876460000e-001) (33, -5.44289112091064450000e-001) (34, 1.47196099162101750000e-001) (35, 1.74396187067031860000e-002) (36, 3.16529422998428340000e-001) (37, -4.90279085934162140000e-002) (38, 1.23934075236320500000e-001) (39, -1.41659483313560490000e-001) (40, -1.41096368432044980000e-001) (41, -2.78493929654359820000e-002) (42, 1.63173735141754150000e-001) (43, 4.03475642204284670000e-001) (44, 3.51821541786193850000e-001) (45, 9.43097397685050960000e-002) (46, -3.09363871812820430000e-001) (47, -1.01379239559173580000e+000) (48, -5.36901876330375670000e-002) (49, -3.05081754922866820000e-001) (50, 2.09490731358528140000e-001) (51, 5.78130424022674560000e-001) (52, 2.02177286148071290000e-001) (53, -6.09211698174476620000e-002) (54, 1.28338098526000980000e-001) (55, 7.30213224887847900000e-002) (56, 4.21504467725753780000e-001) (57, -4.18546423316001890000e-002) (58, 6.70339316129684450000e-002) (59, 2.27124541997909550000e-001) (60, -7.25826978683471680000e-001) (61, -5.84523200988769530000e-001) (62, 1.24059237539768220000e-001) (63, -1.48670136928558350000e-001) (64, 8.95088493824005130000e-001) (65, 7.29941189289093020000e-001) (66, -4.96593564748764040000e-002) (67, -2.30015695095062260000e-001) (68, -2.38529145717620850000e-001) (69, 3.33558171987533570000e-002) (70, 4.19252514839172360000e-001) (71, 7.28152319788932800000e-002) (72, 5.21619915962219240000e-001) (73, 4.75496873259544370000e-002) (74, -6.30181252956390380000e-001) (75, -1.21707484126091000000e-001) (76, 2.47562170028686520000e-001) (77, -3.73199790716171260000e-001) (78, 1.01438677310943600000e+000) (79, 3.71161162853240970000e-001) (80, -1.63468658924102780000e-001) (81, -7.44823440909385680000e-002) (82, -4.41182523965835570000e-001) (83, 1.09915025532245640000e-001) (84, -1.12078934907913210000e-001) (0, 2.73958686739206310000e-002) (1, 1.92134410142898560000e-001) (2, 1.58874362707138060000e-001) (3, -3.74778062105178830000e-002) (4, 3.56414541602134700000e-002) (5, 8.30698385834693910000e-002) (6, 1.47589771077036860000e-002) (7, 5.96779771149158480000e-002) (8, 3.35379168391227720000e-002) (9, 1.41100049018859860000e-001) (10, 1.76173642277717590000e-001) (11, -1.17464482784271240000e-001) (12, -1.46436400245875120000e-003) (13, 3.84247414767742160000e-002) (14, -4.93692159652709960000e-002) (15, -4.14906740188598630000e-002) (16, -1.20436131954193120000e-001) (17, -5.15079796314239500000e-002) (18, -8.54348316788673400000e-002) (19, 5.74060110375285150000e-003) (20, -1.23193852603435520000e-001) (21, -1.16885885596275330000e-001) (22, -4.61908727884292600000e-002) (23, -1.09579472336918120000e-004) (24, -1.18310593068599700000e-001) (25, -4.24828417599201200000e-002) (26, -1.67515024542808530000e-001) (27, -8.78069028258323670000e-002) (28, -1.21197648346424100000e-001) (29, -6.64051547646522520000e-002) (30, 2.09705770015716550000e-001) (31, 1.66441127657890320000e-001) (32, 6.61984235048294070000e-002) (33, 1.07535861432552340000e-001) (34, -1.24886848032474520000e-001) (35, -9.34091880917549130000e-002) (36, -3.62726189196109770000e-002) (37, 6.50406107306480410000e-002) (38, 1.67168557643890380000e-001) (39, 2.17603310942649840000e-001) (40, -1.31350740790367130000e-001) (41, -1.34963974356651310000e-001) (42, 1.37821629643440250000e-001) (43, 9.23109129071235660000e-002) (44, -1.66030079126358030000e-001) (45, -9.63962525129318240000e-002) (46, -1.18524111807346340000e-001) (47, -1.02050095796585080000e-001) (48, 2.80190527439117430000e-001) (49, 2.77462452650070190000e-001) (50, -1.37184321880340580000e-001) (51, -1.16986274719238280000e-001) (52, -1.13737411797046660000e-001) (53, -6.43093138933181760000e-002) (54, 2.38804263062775140000e-003) (55, 1.02153643965721130000e-001) (56, -4.22321408987045290000e-002) (57, 6.55505359172821040000e-002) (58, 6.90261200070381160000e-002) (59, 1.50787020102143290000e-002) (60, 1.14956557750701900000e-001) (61, 1.07230372726917270000e-001) (62, -3.67000959813594820000e-002) (63, -7.63622522354125980000e-002) (64, 8.15427899360656740000e-002) (65, 1.08846396207809450000e-001) (66, 2.13697105646133420000e-002) (67, -2.78724450618028640000e-003) (68, -2.22555771470069890000e-002) (69, 4.28562015295028690000e-002) (70, 5.69629259407520290000e-002) (71, 1.10142424702644350000e-001) (72, -5.15370033681392670000e-002) (73, -2.06132326275110240000e-002) (74, -1.36042162775993350000e-001) (75, -7.24597275257110600000e-002) (76, 6.87635540962219240000e-002) (77, 7.06596598029136660000e-002) (78, -7.96391442418098450000e-002) (79, -8.01145061850547790000e-002) (80, -3.77488657832145690000e-002) (81, -4.59711216390132900000e-002) (82, -6.81205764412879940000e-002) (83, 5.91981373727321620000e-002) (84, 1.03908041492104530000e-002) (0, -3.49661648273468020000e-001) (1, 2.94851750135421750000e-001) (2, 1.08503997325897220000e-001) (3, -2.09368869662284850000e-001) (4, 6.39559626579284670000e-002) (5, 6.80465027689933780000e-002) (6, -1.88020467758178710000e-002) (7, 5.77155910432338710000e-002) (8, 7.28113651275634770000e-002) (9, -7.92166590690612790000e-003) (10, 9.73124653100967410000e-002) (11, -1.97904691100120540000e-001) (12, -4.35185968875885010000e-001) (13, 2.76457548141479490000e-001) (14, -2.57068604230880740000e-001) (15, 8.69657844305038450000e-002) (16, 1.40661776065826420000e-001) (17, 3.94269734621047970000e-001) (18, 1.17027282714843750000e-001) (19, 4.68124896287918090000e-002) (20, -7.16473534703254700000e-002) (21, 2.10137423127889630000e-002) (22, 1.38711288571357730000e-001) (23, 1.01105064153671260000e-001) (24, 1.09271250665187840000e-001) (25, 3.67908686399459840000e-001) (26, -4.04144585132598880000e-001) (27, 8.27047079801559450000e-002) (28, 3.46106826327741150000e-003) (29, 2.33776301145553590000e-001) (30, -1.55702501535415650000e-001) (31, 4.28606644272804260000e-002) (32, -1.17891237139701840000e-001) (33, -1.92626506090164180000e-001) (34, -1.01478278636932370000e-001) (35, -1.18599869310855870000e-001) (36, -3.58941853046417240000e-002) (37, -1.74881622195243840000e-001) (38, -2.22416728734970090000e-001) (39, 2.50072851777076720000e-002) (40, -3.19525524973869320000e-002) (41, 1.28431335091590880000e-001) (42, -1.11295692622661590000e-002) (43, 8.19572135806083680000e-002) (44, -1.59205600619316100000e-001) (45, -6.95088803768157960000e-002) (46, 1.35651886463165280000e-001) (47, 2.92358845472335820000e-002) (48, -3.52157615125179290000e-002) (49, -2.80837770551443100000e-002) (50, 7.49195665121078490000e-002) (51, 4.76294495165348050000e-002) (52, -1.78387418389320370000e-001) (53, -6.27424195408821110000e-002) (54, -1.67077537626028060000e-002) (55, 2.26668491959571840000e-002) (56, -1.25969737768173220000e-001) (57, 5.46900089830160140000e-003) (58, 8.01790971308946610000e-003) (59, 4.72453013062477110000e-002) (60, 8.52878764271736150000e-002) (61, 9.32235345244407650000e-002) (62, 1.44152626395225520000e-001) (63, 2.56450235843658450000e-001) (64, 5.63123747706413270000e-002) (65, 1.77935846149921420000e-002) (66, -4.69144806265830990000e-003) (67, 2.61494461447000500000e-002) (68, -2.30087712407112120000e-001) (69, 1.39275752007961270000e-003) (70, 2.21946854144334790000e-002) (71, 1.20750509202480320000e-001) (72, -3.61870899796485900000e-002) (73, 4.83567174524068830000e-003) (74, -1.11286519095301630000e-002) (75, 3.58615778386592860000e-002) (76, -8.04297849535942080000e-002) (77, -7.69281610846519470000e-002) (78, -8.99375081062316890000e-002) (79, -3.15343253314495090000e-002) (80, -2.90649291127920150000e-002) (81, -1.01991184055805210000e-002) (82, 1.74004323780536650000e-002) (83, 1.16356439888477330000e-001) (84, -5.51124997437000270000e-002) (0, -9.99109745025634770000e-002) (1, -3.78297418355941770000e-002) (2, -3.22860419750213620000e-001) (3, 1.84388682246208190000e-001) (4, -1.29151657223701480000e-001) (5, -5.09342066943645480000e-002) (6, -3.48106175661087040000e-001) (7, -1.58343389630317690000e-001) (8, -1.35079920291900630000e-001) (9, -4.59074825048446660000e-002) (10, -2.55582839250564580000e-001) (11, 2.03433811664581300000e-001) (12, -1.03431798517704010000e-001) (13, -1.33254930377006530000e-001) (14, 1.37155070900917050000e-001) (15, 2.91882932186126710000e-001) (16, -9.45252086967229840000e-003) (17, -5.14607243239879610000e-002) (18, 3.59101779758930210000e-002) (19, 1.19564570486545560000e-001) (20, 2.84675896167755130000e-001) (21, 3.23287993669509890000e-001) (22, -5.34437317401170730000e-003) (23, 9.88806337118148800000e-002) (24, 1.01018138229846950000e-001) (25, -1.99398454278707500000e-002) (26, 1.60291329026222230000e-001) (27, 3.33521217107772830000e-001) (28, -1.23824022710323330000e-001) (29, 1.08477793633937840000e-001) (30, -1.50494024157524110000e-001) (31, -3.81986424326896670000e-002) (32, -2.36273974180221560000e-001) (33, -4.15051355957984920000e-002) (34, -9.43067744374275210000e-002) (35, -4.37788404524326320000e-002) (36, -2.11996674537658690000e-001) (37, -4.14920672774314880000e-002) (38, -7.32002109289169310000e-002) (39, -5.17173558473587040000e-002) (40, -5.56431524455547330000e-002) (41, 1.42227262258529660000e-001) (42, -2.55931019783020020000e-001) (43, -6.48531988263130190000e-002) (44, 2.12048470973968510000e-001) (45, 2.60567128658294680000e-001) (46, 6.18538772687315940000e-003) (47, 1.84913724660873410000e-001) (48, -8.16709771752357480000e-002) (49, 7.34693109989166260000e-002) (50, -1.93200763314962390000e-002) (51, 2.20648139715194700000e-001) (52, 2.38071605563163760000e-001) (53, 2.44770154356956480000e-001) (54, -1.42341136932373050000e-001) (55, -6.36788308620452880000e-002) (56, -9.63197574019432070000e-002) (57, -6.60028755664825440000e-002) (58, 