FANN_FLO_2.1
num_layers=3
learning_rate=0.500000
connection_rate=1.000000
network_type=0
learning_momentum=0.000000
training_algorithm=1
train_error_function=1
train_stop_function=0
cascade_output_change_fraction=0.010000
quickprop_decay=-0.000100
quickprop_mu=1.750000
rprop_increase_factor=1.200000
rprop_decrease_factor=0.500000
rprop_delta_min=0.000000
rprop_delta_max=50.000000
rprop_delta_zero=0.100000
cascade_output_stagnation_epochs=12
cascade_candidate_change_fraction=0.010000
cascade_candidate_stagnation_epochs=12
cascade_max_out_epochs=150
cascade_min_out_epochs=50
cascade_max_cand_epochs=150
cascade_min_cand_epochs=50
cascade_num_candidate_groups=2
bit_fail_limit=3.49999994039535520000e-001
cascade_candidate_limit=1.00000000000000000000e+003
cascade_weight_multiplier=4.00000005960464480000e-001
cascade_activation_functions_count=10
cascade_activation_functions=3 5 7 8 10 11 14 15 16 17 
cascade_activation_steepnesses_count=4
cascade_activation_steepnesses=2.50000000000000000000e-001 5.00000000000000000000e-001 7.50000000000000000000e-001 1.00000000000000000000e+000 
layer_sizes=85 81 2 
scale_included=0
neurons (num_inputs, activation_function, activation_steepness)=(0, 0, 0.00000000000000000000e+000) (0, 0, 0.00000000000000000000e+000) (0, 0, 0.00000000000000000000e+000) (0, 0, 0.00000000000000000000e+000) (0, 0, 0.00000000000000000000e+000) (0, 0, 0.00000000000000000000e+000) (0, 0, 0.00000000000000000000e+000) (0, 0, 0.00000000000000000000e+000) (0, 0, 0.00000000000000000000e+000) (0, 0, 0.00000000000000000000e+000) (0, 0, 0.00000000000000000000e+000) (0, 0, 0.00000000000000000000e+000) (0, 0, 0.00000000000000000000e+000) (0, 0, 0.00000000000000000000e+000) (0, 0, 0.00000000000000000000e+000) (0, 0, 0.00000000000000000000e+000) (0, 0, 0.00000000000000000000e+000) (0, 0, 0.00000000000000000000e+000) (0, 0, 0.00000000000000000000e+000) (0, 0, 0.00000000000000000000e+000) (0, 0, 0.00000000000000000000e+000) (0, 0, 0.00000000000000000000e+000) (0, 0, 0.00000000000000000000e+000) (0, 0, 0.00000000000000000000e+000) (0, 0, 0.00000000000000000000e+000) (0, 0, 0.00000000000000000000e+000) (0, 0, 0.00000000000000000000e+000) (0, 0, 0.00000000000000000000e+000) (0, 0, 0.00000000000000000000e+000) (0, 0, 0.00000000000000000000e+000) (0, 0, 0.00000000000000000000e+000) (0, 0, 0.00000000000000000000e+000) (0, 0, 0.00000000000000000000e+000) (0, 0, 0.00000000000000000000e+000) (0, 0, 0.00000000000000000000e+000) (0, 0, 0.00000000000000000000e+000) (0, 0, 0.00000000000000000000e+000) (0, 0, 0.00000000000000000000e+000) (0, 0, 0.00000000000000000000e+000) (0, 0, 0.00000000000000000000e+000) (0, 0, 0.00000000000000000000e+000) (0, 0, 0.00000000000000000000e+000) (0, 0, 0.00000000000000000000e+000) (0, 0, 0.00000000000000000000e+000) (0, 0, 0.00000000000000000000e+000) (0, 0, 0.00000000000000000000e+000) (0, 0, 0.00000000000000000000e+000) (0, 0, 0.00000000000000000000e+000) (0, 0, 0.00000000000000000000e+000) (0, 0, 0.00000000000000000000e+000) (0, 0, 0.00000000000000000000e+000) (0, 0, 0.00000000000000000000e+000) (0, 0, 0.00000000000000000000e+000) (0, 0, 0.00000000000000000000e+000) (0, 0, 0.00000000000000000000e+000) (0, 0, 0.00000000000000000000e+000) (0, 0, 0.00000000000000000000e+000) (0, 0, 0.00000000000000000000e+000) (0, 0, 0.00000000000000000000e+000) (0, 0, 0.00000000000000000000e+000) (0, 0, 0.00000000000000000000e+000) (0, 0, 0.00000000000000000000e+000) (0, 0, 0.00000000000000000000e+000) (0, 0, 0.00000000000000000000e+000) (0, 0, 0.00000000000000000000e+000) (0, 0, 0.00000000000000000000e+000) (0, 0, 0.00000000000000000000e+000) (0, 0, 0.00000000000000000000e+000) (0, 0, 0.00000000000000000000e+000) (0, 0, 0.00000000000000000000e+000) (0, 0, 0.00000000000000000000e+000) (0, 0, 0.00000000000000000000e+000) (0, 0, 0.00000000000000000000e+000) (0, 0, 0.00000000000000000000e+000) (0, 0, 0.00000000000000000000e+000) (0, 0, 0.00000000000000000000e+000) (0, 0, 0.00000000000000000000e+000) (0, 0, 0.00000000000000000000e+000) (0, 0, 0.00000000000000000000e+000) (0, 0, 0.00000000000000000000e+000) (0, 0, 0.00000000000000000000e+000) (0, 0, 0.00000000000000000000e+000) (0, 0, 0.00000000000000000000e+000) (0, 0, 0.00000000000000000000e+000) (0, 0, 0.00000000000000000000e+000) (85, 6, 1.00000000000000000000e+000) (85, 6, 1.00000000000000000000e+000) (85, 6, 1.00000000000000000000e+000) (85, 6, 1.00000000000000000000e+000) (85, 6, 1.00000000000000000000e+000) (85, 6, 1.00000000000000000000e+000) (85, 6, 1.00000000000000000000e+000) (85, 6, 1.00000000000000000000e+000) (85, 6, 1.00000000000000000000e+000) (85, 6, 1.00000000000000000000e+000) (85, 6, 1.00000000000000000000e+000) (85, 6, 1.00000000000000000000e+000) (85, 6, 1.00000000000000000000e+000) (85, 6, 1.00000000000000000000e+000) (85, 6, 1.00000000000000000000e+000) (85, 6, 1.00000000000000000000e+000) (85, 6, 1.00000000000000000000e+000) (85, 6, 1.00000000000000000000e+000) (85, 6, 1.00000000000000000000e+000) (85, 6, 1.00000000000000000000e+000) (85, 6, 1.00000000000000000000e+000) (85, 6, 1.00000000000000000000e+000) (85, 6, 1.00000000000000000000e+000) (85, 6, 1.00000000000000000000e+000) (85, 6, 1.00000000000000000000e+000) (85, 6, 1.00000000000000000000e+000) (85, 6, 1.00000000000000000000e+000) (85, 6, 1.00000000000000000000e+000) (85, 6, 1.00000000000000000000e+000) (85, 6, 1.00000000000000000000e+000) (85, 6, 1.00000000000000000000e+000) (85, 6, 1.00000000000000000000e+000) (85, 6, 1.00000000000000000000e+000) (85, 6, 1.00000000000000000000e+000) (85, 6, 1.00000000000000000000e+000) (85, 6, 1.00000000000000000000e+000) (85, 6, 1.00000000000000000000e+000) (85, 6, 1.00000000000000000000e+000) (85, 6, 1.00000000000000000000e+000) (85, 6, 1.00000000000000000000e+000) (85, 6, 1.00000000000000000000e+000) (85, 6, 1.00000000000000000000e+000) (85, 6, 1.00000000000000000000e+000) (85, 6, 1.00000000000000000000e+000) (85, 6, 1.00000000000000000000e+000) (85, 6, 1.00000000000000000000e+000) (85, 6, 1.00000000000000000000e+000) (85, 6, 1.00000000000000000000e+000) (85, 6, 1.00000000000000000000e+000) (85, 6, 1.00000000000000000000e+000) (85, 6, 1.00000000000000000000e+000) (85, 6, 1.00000000000000000000e+000) (85, 6, 1.00000000000000000000e+000) (85, 6, 1.00000000000000000000e+000) (85, 6, 1.00000000000000000000e+000) (85, 6, 1.00000000000000000000e+000) (85, 6, 1.00000000000000000000e+000) (85, 6, 1.00000000000000000000e+000) (85, 6, 1.00000000000000000000e+000) (85, 6, 1.00000000000000000000e+000) (85, 6, 1.00000000000000000000e+000) (85, 6, 1.00000000000000000000e+000) (85, 6, 1.00000000000000000000e+000) (85, 6, 1.00000000000000000000e+000) (85, 6, 1.00000000000000000000e+000) (85, 6, 1.00000000000000000000e+000) (85, 6, 1.00000000000000000000e+000) (85, 6, 1.00000000000000000000e+000) (85, 6, 1.00000000000000000000e+000) (85, 6, 1.00000000000000000000e+000) (85, 6, 1.00000000000000000000e+000) (85, 6, 1.00000000000000000000e+000) (85, 6, 1.00000000000000000000e+000) (85, 6, 1.00000000000000000000e+000) (85, 6, 1.00000000000000000000e+000) (85, 6, 1.00000000000000000000e+000) (85, 6, 1.00000000000000000000e+000) (85, 6, 1.00000000000000000000e+000) (85, 6, 1.00000000000000000000e+000) (85, 6, 1.00000000000000000000e+000) (0, 6, 1.00000000000000000000e+000) (81, 6, 1.00000000000000000000e+000) (0, 6, 1.00000000000000000000e+000) 
connections (connected_to_neuron, weight)=(0, 2.08871364593505860000e-001) (1, -1.25905290246009830000e-001) (2, 7.10842153057456020000e-003) (3, 8.59730988740921020000e-002) (4, 7.02603580430150030000e-003) (5, -2.17481814324855800000e-002) (6, -7.95495286583900450000e-002) (7, -5.41641153395175930000e-002) (8, -8.99733304977416990000e-002) (9, -3.30561995506286620000e-002) (10, -4.35233414173126220000e-002) (11, 5.10230921208858490000e-002) (12, 1.50694996118545530000e-001) (13, -7.00736418366432190000e-002) (14, -5.17996996641159060000e-002) (15, -9.15417596697807310000e-002) (16, -6.77627027034759520000e-002) (17, -1.11906357109546660000e-001) (18, 8.07732120156288150000e-002) (19, -2.81503759324550630000e-002) (20, 7.97211192548274990000e-004) (21, 8.70223566889762880000e-002) (22, 7.13423267006874080000e-002) (23, 6.47639017552137370000e-003) (24, -1.21810674667358400000e-001) (25, -1.46342664957046510000e-001) (26, -1.08792744576931000000e-001) (27, -1.99351504445075990000e-001) (28, -6.16623982787132260000e-002) (29, -3.89811559580266480000e-003) (30, 1.78338497877120970000e-001) (31, 1.10220618546009060000e-001) (32, 1.00468294695019720000e-002) (33, -1.46030932664871220000e-001) (34, -1.56973619014024730000e-002) (35, -6.93962723016738890000e-003) (36, 7.39178955554962160000e-002) (37, -8.44205245375633240000e-002) (38, 7.42295607924461360000e-002) (39, 5.98669312894344330000e-002) (40, -6.92810937762260440000e-002) (41, -6.01027682423591610000e-002) (42, 5.06810937076807020000e-003) (43, -4.38183844089508060000e-002) (44, -1.31232440471649170000e-002) (45, -3.08211464434862140000e-002) (46, 1.25920161604881290000e-001) (47, -5.43433465063571930000e-002) (48, 1.40186429023742680000e-001) (49, 1.86246391385793690000e-002) (50, 1.18734188377857210000e-001) (51, -4.52230544760823250000e-003) (52, -1.40531972050666810000e-001) (53, -1.66468173265457150000e-001) (54, -1.26063004136085510000e-002) (55, 9.02817491441965100000e-003) (56, 1.69827461242675780000e-001) (57, 4.61502857506275180000e-002) (58, 8.36310088634490970000e-002) (59, 2.64158882200717930000e-002) (60, 1.39744943007826810000e-002) (61, -3.57369296252727510000e-002) (62, -2.51313783228397370000e-002) (63, -1.16093561053276060000e-001) (64, -4.65478114783763890000e-002) (65, -1.60143435001373290000e-001) (66, 5.79953454434871670000e-002) (67, 7.08097126334905620000e-003) (68, 1.12196944653987880000e-001) (69, 2.89862137287855150000e-002) (70, 1.54527025297284130000e-002) (71, -7.63102397322654720000e-002) (72, 9.37837883830070500000e-002) (73, -2.25094836205244060000e-002) (74, 1.01913340389728550000e-001) (75, 5.16999848186969760000e-002) (76, 3.86815220117568970000e-002) (77, -2.87502296268939970000e-002) (78, -9.47569310665130620000e-003) (79, -6.17685690522193910000e-002) (80, -1.91448610275983810000e-002) (81, -5.19907623529434200000e-002) (82, 5.07503598928451540000e-002) (83, 5.01346811652183530000e-002) (84, 1.16971721872687340000e-002) (0, 1.35453134775161740000e-001) (1, -5.81287108361721040000e-002) (2, -7.81924426555633540000e-002) (3, -3.62232215702533720000e-002) (4, 9.37888622283935550000e-002) (5, 1.46411120891571040000e-001) (6, 1.21238268911838530000e-001) (7, -2.91685033589601520000e-002) (8, 1.37659460306167600000e-001) (9, 1.59480348229408260000e-001) (10, -5.26910796761512760000e-002) (11, -1.56472921371459960000e-002) (12, 1.18301384150981900000e-001) (13, -4.05343100428581240000e-002) (14, 5.43674565851688390000e-002) (15, -3.36613319814205170000e-002) (16, 9.36081111431121830000e-002) (17, 4.25561480224132540000e-002) (18, 1.56404808163642880000e-001) (19, -1.07132392004132270000e-002) (20, -2.02308416366577150000e-001) (21, -1.72424480319023130000e-001) (22, 1.52783155441284180000e-001) (23, -2.71784737706184390000e-002) (24, 1.35095372796058650000e-001) (25, 3.86314429342746730000e-002) (26, 2.86652240902185440000e-002) (27, -5.03198849037289620000e-003) (28, 3.06369573809206490000e-003) (29, -8.32736343145370480000e-002) (30, 1.34425004944205280000e-004) (31, -1.48678775876760480000e-002) (32, 1.21404536068439480000e-001) (33, -6.73611089587211610000e-002) (34, 9.89828556776046750000e-002) (35, 5.63447922468185420000e-002) (36, 1.20529860258102420000e-001) (37, -6.12826794385910030000e-002) (38, 7.35558941960334780000e-002) (39, 2.75007598102092740000e-002) (40, 4.97906282544136050000e-002) (41, -4.98011633753776550000e-002) (42, -1.83293879032135010000e-001) (43, -3.11846375465393070000e-001) (44, 5.41546866297721860000e-002) (45, 8.48885402083396910000e-002) (46, 7.11190029978752140000e-002) (47, 5.53328618407249450000e-002) (48, 1.14996224641799930000e-001) (49, 9.98159870505332950000e-002) (50, 1.24482564628124240000e-001) (51, 5.19173070788383480000e-002) (52, 1.03341422975063320000e-001) (53, 6.91088065505027770000e-002) (54, -1.05026066303253170000e-001) (55, -2.85429716110229490000e-001) (56, 2.74960726499557500000e-001) (57, 2.13359519839286800000e-001) (58, 3.07426452636718750000e-002) (59, -6.90729394555091860000e-002) (60, -1.59137509763240810000e-002) (61, -5.22068701684474950000e-002) (62, 3.54766696691513060000e-002) (63, -7.44427740573883060000e-002) (64, 4.79309558868408200000e-002) (65, 1.07340958493296060000e-004) (66, 3.65180671215057370000e-002) (67, -1.12549819052219390000e-001) (68, 3.18319022655487060000e-001) (69, 2.07344785332679750000e-001) (70, -8.72976034879684450000e-002) (71, -1.57806172966957090000e-001) (72, 1.09205998480319980000e-001) (73, 3.41824553906917570000e-002) (74, 2.53972727805376050000e-002) (75, -4.72269728779792790000e-002) (76, -1.70734286308288570000e-001) (77, -2.75191571563482280000e-002) (78, -6.93895295262336730000e-003) (79, -6.83122575283050540000e-002) (80, 2.31355100870132450000e-001) (81, 1.10494300723075870000e-001) (82, -7.65828788280487060000e-002) (83, -1.23964458703994750000e-001) (84, -9.23937261104583740000e-002) (0, 1.39250725507736210000e-001) (1, 1.49428367614746090000e-001) (2, 1.09963223338127140000e-001) (3, -7.59197548031806950000e-002) (4, 1.34781882166862490000e-001) (5, -2.82431915402412410000e-002) (6, 9.38466712832450870000e-002) (7, -3.43416370451450350000e-002) (8, 4.32614572346210480000e-002) (9, -2.97458935528993610000e-002) (10, 1.10403940081596370000e-001) (11, -5.38892224431037900000e-002) (12, 7.37335979938507080000e-002) (13, 2.31785297393798830000e-001) (14, -6.22247159481048580000e-002) (15, -1.00687064230442050000e-001) (16, 9.62915420532226560000e-002) (17, -4.56649903208017350000e-003) (18, 3.29677276313304900000e-002) (19, -9.08069871366024020000e-003) (20, 1.41301497817039490000e-001) (21, 3.32566946744918820000e-002) (22, 1.54353352263569830000e-002) (23, -9.91802755743265150000e-003) (24, 1.01852320134639740000e-001) (25, -2.39442344754934310000e-002) (26, -1.44030630588531490000e-001) (27, -1.57226473093032840000e-001) (28, 4.62748296558856960000e-002) (29, 1.40156403183937070000e-001) (30, -2.11591422557830810000e-001) (31, -4.12381917238235470000e-001) (32, 4.45591658353805540000e-002) (33, 8.83984789252281190000e-002) (34, 6.83967396616935730000e-002) (35, 4.01316657662391660000e-002) (36, 1.94706686306744810000e-003) (37, 8.82849842309951780000e-002) (38, -1.82323470711708070000e-001) (39, -3.52530121803283690000e-001) (40, 5.30900061130523680000e-002) (41, 1.63389265537261960000e-001) (42, -2.83075198531150820000e-002) (43, -1.15866353735327720000e-002) (44, 3.36185067892074580000e-001) (45, 2.12663933634758000000e-001) (46, 1.36196956038475040000e-001) (47, 1.64044201374053960000e-001) (48, -3.97284962236881260000e-002) (49, 4.94051724672317500000e-002) (50, 1.70126110315322880000e-001) (51, 7.34776109457015990000e-002) (52, 4.02702152729034420000e-001) (53, 2.49521806836128230000e-001) (54, -2.26135291159152980000e-002) (55, 2.41534616798162460000e-002) (56, -4.19383309781551360000e-002) (57, -9.29904077202081680000e-003) (58, 6.11405335366725920000e-002) (59, -2.33547426760196690000e-002) (60, 2.31402763165533540000e-003) (61, -1.22609976679086690000e-002) (62, 1.31411194801330570000e-001) (63, -4.06224653124809270000e-002) (64, 1.77397690713405610000e-002) (65, 6.13321065902709960000e-002) (66, 7.32515305280685420000e-002) (67, -4.99864742159843440000e-002) (68, 5.13555333018302920000e-002) (69, -5.52063807845115660000e-003) (70, 6.81678056716918950000e-002) (71, -8.98849368095397950000e-002) (72, 4.54610399901866910000e-002) (73, -1.47999320179224010000e-002) (74, -1.61182940006256100000e-001) (75, -2.40858197212219240000e-001) (76, -6.08291402459144590000e-002) (77, 3.63154821097850800000e-002) (78, -9.81839597225189210000e-002) (79, -1.14064142107963560000e-001) (80, 2.12533194571733470000e-002) (81, -5.33421300351619720000e-002) (82, 3.19130718708038330000e-002) (83, -1.01089470088481900000e-001) (84, -9.90268513560295100000e-002) (0, 1.72156244516372680000e-002) (1, 3.04488986730575560000e-001) (2, -1.12845160067081450000e-001) (3, -4.47332859039306640000e-002) (4, -1.38988509774208070000e-001) (5, -1.70301541686058040000e-001) (6, -5.73781356215476990000e-002) (7, -9.00569409132003780000e-002) (8, -1.35510519146919250000e-001) (9, -1.96465179324150090000e-001) (10, -8.87657180428504940000e-002) (11, -1.88210718333721160000e-002) (12, 5.02848345786333080000e-003) (13, 3.22969168424606320000e-001) (14, 1.23931206762790680000e-001) (15, -2.32610981911420820000e-002) (16, 1.28982245922088620000e-001) (17, 2.05056630074977870000e-002) (18, 1.37698948383331300000e-001) (19, -3.45653593540191650000e-002) (20, 3.20595712400972840000e-003) (21, -1.65251567959785460000e-001) (22, 1.21709674596786500000e-001) (23, -5.73001727461814880000e-002) (24, 1.30860447883605960000e-001) (25, 9.24975238740444180000e-003) (26, 1.15372151136398320000e-001) (27, -2.38219462335109710000e-003) (28, 8.05475935339927670000e-002) (29, -2.06305250525474550000e-001) (30, 8.95867962390184400000e-003) (31, -9.52559635043144230000e-002) (32, 2.02063947916030880000e-001) (33, 1.26660838723182680000e-001) (34, 2.35623363405466080000e-002) (35, -8.86849015951156620000e-002) (36, 1.95764288306236270000e-001) (37, 1.24033637344837190000e-001) (38, 6.36016204953193660000e-002) (39, -8.48659202456474300000e-002) (40, 6.69225454330444340000e-002) (41, -1.64551898837089540000e-001) (42, 5.99620118737220760000e-002) (43, -2.55675725638866420000e-002) (44, 1.47540524601936340000e-001) (45, -8.07062163949012760000e-002) (46, -1.29170715808868410000e-001) (47, -2.43930488824844360000e-001) (48, 2.00221732258796690000e-001) (49, 3.88664938509464260000e-002) (50, -9.20054689049720760000e-002) (51, -2.08876892924308780000e-001) (52, 1.49339795112609860000e-001) (53, -6.28070607781410220000e-002) (54, 1.13559886813163760000e-001) (55, -6.08440525829792020000e-002) (56, -1.54567405581474300000e-001) (57, -1.49537488818168640000e-001) (58, 9.32384980842471120000e-004) (59, -1.43359556794166560000e-001) (60, 1.15950509905815120000e-001) (61, 4.57853190600872040000e-002) (62, -7.29197934269905090000e-002) (63, -8.79098623991012570000e-002) (64, 2.18767061829566960000e-001) (65, 6.56755268573760990000e-002) (66, 3.21915782988071440000e-002) (67, -1.75001412630081180000e-001) (68, -7.47231766581535340000e-002) (69, -1.52291446924209590000e-001) (70, 6.33832439780235290000e-002) (71, -8.84704291820526120000e-002) (72, 4.16021496057510380000e-002) (73, -3.89654412865638730000e-002) (74, -5.68717718124389650000e-002) (75, -2.45047688484191890000e-001) (76, 2.56425589323043820000e-001) (77, 1.72767549753189090000e-001) (78, -2.04343739897012710000e-002) (79, -2.20255419611930850000e-001) (80, 8.47434774041175840000e-002) (81, -1.62448156625032420000e-002) (82, 8.89729708433151250000e-002) (83, -2.68329139798879620000e-002) (84, 2.59334836155176160000e-002) (0, 4.18186336755752560000e-002) (1, -3.44440862536430360000e-002) (2, -9.41233485937118530000e-002) (3, 2.02775269746780400000e-001) (4, 3.85770830325782300000e-003) (5, -3.67059148848056790000e-002) (6, -1.48822262883186340000e-001) (7, -2.28254988789558410000e-001) (8, -7.93806836009025570000e-003) (9, -3.90270128846168520000e-002) (10, -1.71261280775070190000e-001) (11, 1.92735791206359860000e-001) (12, 3.08322571218013760000e-002) (13, -8.28840732574462890000e-002) (14, 6.87251761555671690000e-002) (15, -1.42009213566780090000e-001) (16, 1.73913128674030300000e-002) (17, -1.53336703777313230000e-001) (18, 1.67003393173217770000e-001) (19, 1.07208779081702230000e-002) (20, 6.69244974851608280000e-002) (21, 3.18619748577475550000e-003) (22, 1.02537602186203000000e-001) (23, 1.62811409682035450000e-002) (24, -2.59583611041307450000e-002) (25, -2.16743528842926030000e-001) (26, 9.48852766305208210000e-003) (27, -1.43823981285095210000e-001) (28, 2.00585171580314640000e-001) (29, -8.61480236053466800000e-002) (30, 2.13556721806526180000e-001) (31, -9.43575054407119750000e-002) (32, -1.69389490038156510000e-002) (33, -1.86437442898750310000e-001) (34, 2.00443029403686520000e-001) (35, 1.07975713908672330000e-001) (36, -6.22148253023624420000e-002) (37, -1.98244705796241760000e-001) (38, 1.34388908743858340000e-001) (39, -1.31227001547813420000e-001) (40, 2.65720039606094360000e-001) (41, -1.09053134918212890000e-001) (42, 1.03474646806716920000e-001) (43, -1.21115431189537050000e-001) (44, -2.98155006021261220000e-003) (45, -2.50216513872146610000e-001) (46, 1.31197988986968990000e-001) (47, -1.25243574380874630000e-001) (48, -2.82626170665025710000e-002) (49, -2.71714240312576290000e-001) (50, 1.15836024284362790000e-001) (51, -8.48339721560478210000e-002) (52, 2.99066919833421710000e-002) (53, -2.43913337588310240000e-001) (54, 4.47212196886539460000e-002) (55, -1.13738462328910830000e-001) (56, 2.12658829987049100000e-002) (57, -1.16950631141662600000e-001) (58, 2.57338464260101320000e-001) (59, 1.21238477528095250000e-001) (60, 1.17004834115505220000e-001) (61, -1.87402516603469850000e-002) (62, 8.56974124908447270000e-002) (63, -3.77935841679573060000e-002) (64, 9.51428934931755070000e-002) (65, -3.01754325628280640000e-002) (66, 2.44262978434562680000e-001) (67, 5.67714795470237730000e-002) (68, -1.50245996192097660000e-002) (69, -1.42297521233558650000e-001) (70, 2.79455900192260740000e-001) (71, 3.43265794217586520000e-002) (72, 3.50546790286898610000e-003) (73, -1.64645597338676450000e-001) (74, 3.97763855289667840000e-004) (75, -1.49541825056076050000e-001) (76, -3.75667661428451540000e-002) (77, -1.06361538171768190000e-001) (78, -5.02208881080150600000e-002) (79, -1.30339026451110840000e-001) (80, -3.32319922745227810000e-002) (81, -1.61245331168174740000e-001) (82, 1.64033696055412290000e-001) (83, 4.15643537417054180000e-003) (84, 2.21407353878021240000e-001) (0, 7.18160197138786320000e-002) (1, -1.58214401453733440000e-002) (2, 1.03239387273788450000e-001) (3, -1.62534695118665700000e-002) (4, -3.76163097098469730000e-003) (5, -7.62457326054573060000e-002) (6, 7.83935748040676120000e-003) (7, 5.73204569518566130000e-002) (8, -8.30985903739929200000e-002) (9, -1.40955662354826930000e-002) (10, 5.40927797555923460000e-002) (11, -8.30229371786117550000e-002) (12, 8.89547318220138550000e-002) (13, 1.09613530337810520000e-001) (14, -8.62689167261123660000e-002) (15, -1.72500759363174440000e-001) (16, 3.59599944204092030000e-003) (17, -7.55282342433929440000e-002) (18, 6.66208416223526000000e-002) (19, -3.07883247733116150000e-002) (20, 7.26505964994430540000e-002) (21, 2.30041928589344020000e-002) (22, -7.00246542692184450000e-002) (23, -5.98130784928798680000e-002) (24, 1.09610438346862790000e-001) (25, -3.28564792871475220000e-002) (26, -6.96914419531822200000e-002) (27, -1.33976668119430540000e-001) (28, 2.88961343467235570000e-002) (29, -9.56956669688224790000e-002) (30, 1.22735686600208280000e-001) (31, -2.95562092214822770000e-002) (32, 1.77939943969249730000e-002) (33, -6.16092374548316000000e-003) (34, -8.97181034088134770000e-003) (35, -7.58576840162277220000e-002) (36, 7.88864642381668090000e-002) (37, 6.39939382672309880000e-002) (38, 1.43365994095802310000e-001) (39, 3.74929583631455900000e-003) (40, 2.46464032679796220000e-002) (41, -3.08361481875181200000e-002) (42, 1.63922920823097230000e-001) (43, 1.55267268419265750000e-002) (44, -1.41833694651722910000e-002) (45, -1.11268572509288790000e-001) (46, 9.83441323041915890000e-002) (47, 7.12481737136840820000e-002) (48, -6.85081332921981810000e-002) (49, -5.33583462238311770000e-002) (50, 7.62458890676498410000e-002) (51, 8.11814218759536740000e-002) (52, -1.99916362762451170000e-002) (53, -1.13348253071308140000e-001) (54, 1.11189357936382290000e-001) (55, 3.86445753974840040000e-004) (56, 8.93773697316646580000e-003) (57, -1.64244808256626130000e-002) (58, 6.17704242467880250000e-002) (59, 2.77203060686588290000e-002) (60, 1.09748856630176310000e-003) (61, -2.24006231874227520000e-002) (62, 8.68757888674736020000e-002) (63, 4.61129732429981230000e-002) (64, -5.65716996788978580000e-002) (65, -1.03161014616489410000e-001) (66, -1.15991048514842990000e-002) (67, -8.25407877564430240000e-002) (68, 7.41582289338111880000e-002) (69, 6.80062826722860340000e-003) (70, 1.80007275193929670000e-002) (71, -4.66980673372745510000e-002) (72, 3.56108359992504120000e-002) (73, -3.97770805284380910000e-003) (74, 1.60589290317147970000e-003) (75, -3.05492747575044630000e-002) (76, -7.45003372430801390000e-002) (77, -1.00948490202426910000e-001) (78, 2.33712904155254360000e-002) (79, -3.65413948893547060000e-002) (80, 3.31774912774562840000e-002) (81, 1.29443518817424770000e-002) (82, -3.03581804037094120000e-002) (83, -7.66532868146896360000e-002) (84, 5.44301047921180730000e-002) (0, -2.53027118742465970000e-002) (1, 1.06883421540260310000e-001) (2, 1.30466893315315250000e-001) (3, 1.98334753513336180000e-001) (4, 1.32190823554992680000e-001) (5, 7.51102864742279050000e-002) (6, -1.59487128257751460000e-002) (7, -3.85498302057385440000e-003) (8, 1.04074016213417050000e-001) (9, 1.04078643023967740000e-001) (10, 1.60350099205970760000e-001) (11, 1.27729684114456180000e-001) (12, -7.22142681479454040000e-002) (13, 8.11460614204406740000e-002) (14, -4.59548942744731900000e-002) (15, 4.49264720082283020000e-002) (16, -1.68669998645782470000e-001) (17, -4.23928759992122650000e-002) (18, -4.98108714818954470000e-002) (19, -3.92094589769840240000e-002) (20, 1.84549495577812190000e-001) (21, 2.19087123870849610000e-001) (22, -1.92812588065862660000e-002) (23, -4.51417937874794010000e-002) (24, -1.68082252144813540000e-001) (25, -5.83972521126270290000e-002) (26, -6.49627745151519780000e-002) (27, 3.06583475321531300000e-002) (28, -1.09048329293727870000e-001) (29, -1.02678574621677400000e-002) (30, -3.25705230236053470000e-001) (31, -2.26797297596931460000e-001) (32, 9.96725484728813170000e-002) (33, 1.49277552962303160000e-001) (34, -9.54786688089370730000e-002) (35, -5.74998334050178530000e-002) (36, 9.25017222762107850000e-002) (37, 1.80704861879348750000e-001) (38, -3.38291257619857790000e-001) (39, -2.31299564242362980000e-001) (40, -1.50538459420204160000e-001) (41, -2.36620567739009860000e-002) (42, 7.73096233606338500000e-002) (43, 6.26359358429908750000e-002) (44, 2.51469343900680540000e-001) (45, 3.35980027914047240000e-001) (46, -1.05486646294593810000e-001) (47, -1.46639151498675350000e-002) (48, 5.68559207022190090000e-002) (49, -2.88616251200437550000e-002) (50, -4.54516485333442690000e-002) (51, -6.47322833538055420000e-003) (52, 1.98616191744804380000e-001) (53, 2.85308420658111570000e-001) (54, -4.63033840060234070000e-002) (55, 9.81950759887695310000e-002) (56, -7.71319642663002010000e-002) (57, 4.63688261806964870000e-002) (58, 3.42862866818904880000e-002) (59, 1.03656962513923650000e-001) (60, -8.74738618731498720000e-002) (61, -2.77843438088893890000e-002) (62, 1.20268585160374640000e-002) (63, -1.19956200942397120000e-002) (64, -7.91840627789497380000e-002) (65, 4.23992201685905460000e-002) (66, 1.51489814743399620000e-002) (67, 1.00386731326580050000e-001) (68, -5.42777366936206820000e-002) (69, -1.83000769466161730000e-002) (70, 2.90692318230867390000e-002) (71, 3.04173491895198820000e-002) (72, -9.29506644606590270000e-002) (73, -4.40876372158527370000e-002) (74, -5.66492555662989620000e-003) (75, 2.70652584731578830000e-004) (76, -6.47727772593498230000e-002) (77, 3.24119515717029570000e-002) (78, -1.32478430867195130000e-001) (79, 1.45926577970385550000e-002) (80, -3.60630974173545840000e-002) (81, 4.94707040488719940000e-002) (82, 4.00911048054695130000e-002) (83, 1.17184363305568700000e-001) (84, -6.65821060538291930000e-002) (0, 2.33447160571813580000e-002) (1, -4.08579222857952120000e-002) (2, -2.15496182441711430000e-001) (3, 1.24327763915061950000e-001) (4, -5.16275735571980480000e-003) (5, -1.04715391993522640000e-001) (6, 3.20392623543739320000e-002) (7, -1.31020054221153260000e-001) (8, -7.06435516476631160000e-002) (9, -1.04287818074226380000e-001) (10, -2.60383009910583500000e-001) (11, 1.05154342949390410000e-001) (12, -7.53801409155130390000e-003) (13, 6.14493014290928840000e-003) (14, 1.91157281398773190000e-001) (15, 3.48704271018505100000e-002) (16, 5.85326887667179110000e-002) (17, 7.37156420946121220000e-002) (18, 6.74488246440887450000e-002) (19, -5.02897091209888460000e-002) (20, -6.08275197446346280000e-002) (21, -2.24468722939491270000e-001) (22, 4.15462255477905270000e-002) (23, -5.99360801279544830000e-002) (24, 2.24900841712951660000e-002) (25, 1.04703471064567570000e-001) (26, 2.09565684199333190000e-001) (27, 6.00954852998256680000e-002) (28, -4.26688268780708310000e-002) (29, -3.33990722894668580000e-001) (30, 1.02249838411808010000e-001) (31, 1.71736076474189760000e-001) (32, -5.12286722660064700000e-002) (33, -1.34083926677703860000e-001) (34, 2.97255814075469970000e-003) (35, -1.17898799479007720000e-001) (36, -3.64747941493988040000e-002) (37, -1.31448492407798770000e-001) (38, 3.79967652261257170000e-002) (39, 1.01779446005821230000e-001) (40, -5.66883310675621030000e-002) (41, -3.83987128734588620000e-001) (42, 1.64809226989746090000e-001) (43, 4.62696747854352000000e-003) (44, -1.95154920220375060000e-001) (45, -2.15462654829025270000e-001) (46, 2.10967257618904110000e-001) (47, 7.47637748718261720000e-002) (48, 1.83628916740417480000e-001) (49, 4.10994440317153930000e-002) (50, 1.74073994159698490000e-001) (51, 3.84192466735839840000e-002) (52, -2.61949509382247920000e-001) (53, -2.58131921291351320000e-001) (54, 1.74879536032676700000e-001) (55, 2.48716212809085850000e-002) (56, -1.20855681598186490000e-001) (57, -9.78500470519065860000e-002) (58, 1.41148567199707030000e-001) (59, 1.41150251030921940000e-001) (60, -1.17628373205661770000e-001) (61, -1.13180309534072880000e-001) (62, -4.99582737684249880000e-002) (63, 8.61237000208348040000e-004) (64, -1.36202037334442140000e-001) (65, -1.41217276453971860000e-001) (66, 1.20463080704212190000e-001) (67, 1.67193651199340820000e-001) (68, -9.83785316348075870000e-002) (69, -1.08464598655700680000e-001) (70, 1.67201206088066100000e-001) (71, 1.92813873291015630000e-001) (72, -4.13588853552937510000e-003) (73, -1.74068771302700040000e-002) (74, -1.21561083942651750000e-002) (75, -3.60215716063976290000e-002) (76, 8.83129015564918520000e-002) (77, 1.18966903537511830000e-002) (78, 9.50094603467732670000e-004) (79, -2.55098193883895870000e-002) (80, -3.23942191898822780000e-002) (81, -4.44544851779937740000e-002) (82, 1.60308986902236940000e-001) (83, 1.36136844754219060000e-001) (84, 1.07536949217319490000e-002) (0, 1.99597239494323730000e-001) (1, 1.39646559953689580000e-001) (2, 8.59209522604942320000e-002) (3, 3.31033468246459960000e-001) (4, 3.16135227680206300000e-001) (5, 2.25623726844787600000e-001) (6, -5.72499521076679230000e-002) (7, -1.91272541880607600000e-001) (8, 2.88283914327621460000e-001) (9, 2.33048841357231140000e-001) (10, 8.45962241291999820000e-002) (11, 3.40078443288803100000e-001) (12, 2.15588212013244630000e-001) (13, 1.65282860398292540000e-001) (14, -1.30539253354072570000e-001) (15, -3.68125028908252720000e-002) (16, 2.02396854758262630000e-001) (17, 1.57280862331390380000e-001) (18, -8.12730789184570310000e-002) (19, 8.71471613645553590000e-002) (20, -1.36815384030342100000e-001) (21, -2.10740000009536740000e-001) (22, -8.83636847138404850000e-002) (23, 6.68250918388366700000e-002) (24, 2.12019950151443480000e-001) (25, 1.66841447353363040000e-001) (26, -1.56834438443183900000e-001) (27, -2.87385210394859310000e-002) (28, 8.12390819191932680000e-002) (29, -5.82599937915802000000e-002) (30, -5.27366027235984800000e-002) (31, -1.74531057476997380000e-001) (32, -3.00774164497852330000e-002) (33, 1.84834480285644530000e-001) (34, 1.70712456107139590000e-001) (35, 3.94815832376480100000e-001) (36, -2.61696167290210720000e-002) (37, 1.64295867085456850000e-001) (38, -4.32986095547676090000e-002) (39, -1.51419132947921750000e-001) (40, 1.11982591450214390000e-001) (41, -4.22108434140682220000e-002) (42, -1.54469192028045650000e-001) (43, -1.97571173310279850000e-001) (44, -2.32017114758491520000e-001) (45, -1.27563655376434330000e-001) (46, -2.53101557493209840000e-001) (47, -1.78271636366844180000e-001) (48, -3.94247733056545260000e-002) (49, 8.71358662843704220000e-002) (50, -2.81032055616378780000e-001) (51, -2.09825605154037480000e-001) (52, -1.95110499858856200000e-001) (53, -1.18767760694026950000e-001) (54, -1.24737463891506200000e-001) (55, -2.08369314670562740000e-001) (56, -4.07471805810928340000e-002) (57, -1.96483582258224490000e-002) (58, -3.24788433499634270000e-003) (59, 1.31852239370346070000e-001) (60, -1.15960031747817990000e-001) (61, 1.59881830215454100000e-001) (62, -1.67242571711540220000e-001) (63, -2.43126191198825840000e-002) (64, -1.39474451541900630000e-001) (65, 1.44966021180152890000e-001) (66, -2.03667040914297100000e-002) (67, 1.14753820002079010000e-001) (68, -2.60476414114236830000e-002) (69, 8.02203174680471420000e-003) (70, -4.69433749094605450000e-003) (71, 4.13822866976261140000e-002) (72, -9.32649597525596620000e-002) (73, 6.67197629809379580000e-002) (74, 1.28037547692656520000e-002) (75, 2.55607694387435910000e-001) (76, -1.40081077814102170000e-001) (77, 1.79346010088920590000e-001) (78, 2.26030014455318450000e-002) (79, 2.24922284483909610000e-001) (80, -8.11346396803855900000e-002) (81, 6.22028298676013950000e-002) (82, 2.48720347881317140000e-002) (83, 4.09096926450729370000e-002) (84, -1.06204122304916380000e-001) (0, 1.17014057934284210000e-001) (1, 8.07794975116848950000e-004) (2, 4.50276164337992670000e-003) (3, -1.86531931161880490000e-001) (4, 1.80968433618545530000e-001) (5, 1.17015309631824490000e-001) (6, -9.25666540861129760000e-002) (7, -3.10999751091003420000e-002) (8, 1.51061177253723140000e-001) (9, 1.19965612888336180000e-001) (10, -8.74080322682857510000e-003) (11, -1.53821513056755070000e-001) (12, 1.45555436611175540000e-001) (13, 4.35925982892513280000e-002) (14, -1.59181728959083560000e-001) (15, -1.97495028376579280000e-001) (16, 9.85344499349594120000e-002) (17, -7.23400935530662540000e-002) (18, -1.87290713191032410000e-001) (19, -2.89371222257614140000e-001) (20, 1.81934803724288940000e-001) (21, 5.18818572163581850000e-002) (22, -1.59623920917510990000e-001) (23, -2.70878195762634280000e-001) (24, 3.81750762462615970000e-002) (25, -1.27022534608840940000e-001) (26, -6.09186217188835140000e-002) (27, -1.97218552231788640000e-001) (28, 1.69778987765312190000e-001) (29, 1.60964488983154300000e-001) (30, 3.09245605021715160000e-002) (31, -8.48999395966529850000e-002) (32, 2.41116732358932500000e-001) (33, 2.38013844937086110000e-002) (34, -3.62042710185050960000e-002) (35, -1.49532586336135860000e-001) (36, 2.65223145484924320000e-001) (37, 7.26489499211311340000e-002) (38, 6.03403151035308840000e-002) (39, -1.57533839344978330000e-001) (40, 1.22342690825462340000e-001) (41, 1.39291822910308840000e-001) (42, -1.02340959012508390000e-001) (43, -7.61390924453735350000e-002) (44, 7.48583301901817320000e-002) (45, -7.86402076482772830000e-002) (46, 3.78166064620018010000e-002) (47, -9.47374999523162840000e-002) (48, 6.76775574684143070000e-002) (49, -1.38857021927833560000e-001) (50, 7.81730655580759050000e-003) (51, -4.26328666508197780000e-002) (52, 1.24724686145782470000e-001) (53, -4.41132746636867520000e-002) (54, -1.22047930955886840000e-001) (55, -1.25753119587898250000e-001) (56, 1.10553637146949770000e-001) (57, 3.52054857648909090000e-003) (58, 1.30136162042617800000e-001) (59, 7.61963352560997010000e-002) (60, -7.29169249534606930000e-002) (61, -1.72988936305046080000e-001) (62, 7.17035830020904540000e-002) (63, -1.01389750838279720000e-001) (64, -8.16530510783195500000e-002) (65, -2.35614135861396790000e-001) (66, 1.82936280965805050000e-001) (67, 8.75122025609016420000e-002) (68, 1.06700323522090910000e-001) (69, -2.56001576781272890000e-002) (70, 3.48346531391143800000e-002) (71, -3.80494594573974610000e-002) (72, 6.45763101056218150000e-003) (73, -1.20126299560070040000e-001) (74, 7.60873779654502870000e-002) (75, 4.46411408483982090000e-002) (76, 1.03577718138694760000e-001) (77, 3.73212285339832310000e-002) (78, 8.19380655884742740000e-002) (79, 3.85118722915649410000e-002) (80, -9.61864367127418520000e-002) (81, -1.31092324852943420000e-001) (82, -2.78233289718627930000e-002) (83, -4.71076108515262600000e-002) (84, 1.20661966502666470000e-001) (0, 2.23948895931243900000e-001) (1, 1.11350387334823610000e-001) (2, 1.86154484748840330000e-001) (3, 1.77827719599008560000e-002) (4, 8.32079276442527770000e-002) (5, 5.05760237574577330000e-002) (6, 5.76440617442131040000e-002) (7, -5.57376146316528320000e-002) (8, 7.44231641292572020000e-002) (9, 1.50052774697542190000e-002) (10, 2.18734979629516600000e-001) (11, 8.00903365015983580000e-002) (12, 2.23887562751770020000e-001) (13, 1.50915578007698060000e-001) (14, -2.35435098409652710000e-001) (15, -1.46687567234039310000e-001) (16, 2.12101668119430540000e-001) (17, 1.20969027280807500000e-001) (18, 1.59182727336883540000e-001) (19, -6.88959984108805660000e-003) (20, 1.66928321123123170000e-001) (21, 8.11678245663642880000e-002) (22, 1.62814095616340640000e-001) (23, -2.46073622256517410000e-002) (24, 1.97587400674819950000e-001) (25, 1.51906341314315800000e-001) (26, -2.19336420297622680000e-001) (27, -1.60999476909637450000e-001) (28, 8.79965499043464660000e-002) (29, 6.05182312428951260000e-002) (30, -4.71527203917503360000e-002) (31, 7.26118218153715130000e-003) (32, 8.46141502261161800000e-002) (33, -3.37873175740242000000e-002) (34, -1.08080312609672550000e-001) (35, -1.47146165370941160000e-001) (36, 3.50721664726734160000e-002) (37, -6.70708194375038150000e-002) (38, -4.47922050952911380000e-002) (39, -1.68391596525907520000e-002) (40, 1.24009683728218080000e-001) (41, 3.44605036079883580000e-002) (42, -2.08923369646072390000e-002) (43, -1.06711201369762420000e-001) (44, -1.12336002290248870000e-001) (45, -8.49494487047195430000e-002) (46, 1.41668722033500670000e-001) (47, -2.38402653485536580000e-002) (48, 2.22667261958122250000e-001) (49, 4.92995157837867740000e-002) (50, 4.63098622858524320000e-002) (51, -6.34593702852725980000e-003) (52, -1.90854534506797790000e-001) (53, -1.18886902928352360000e-001) (54, 2.81789656728506090000e-002) (55, -8.63832160830497740000e-002) (56, 1.28337502479553220000e-001) (57, -2.51347441226243970000e-002) (58, 8.07972773909568790000e-002) (59, 4.31126542389392850000e-002) (60, -8.63566473126411440000e-002) (61, -8.76212045550346370000e-002) (62, 2.88240779191255570000e-002) (63, -6.61140456795692440000e-002) (64, -8.23446512222290040000e-002) (65, -1.47759288549423220000e-001) (66, -2.22530737519264220000e-002) (67, -3.99181321263313290000e-002) (68, 1.68604150414466860000e-001) (69, 5.92668019235134120000e-002) (70, -3.60187999904155730000e-002) (71, -8.76744240522384640000e-002) (72, 1.14137627184391020000e-001) (73, 9.44765731692314150000e-002) (74, 4.29171882569789890000e-002) (75, 9.79211851954460140000e-002) (76, -2.29356493800878520000e-002) (77, 2.50788740813732150000e-002) (78, 1.25448271632194520000e-001) (79, 5.83001002669334410000e-002) (80, -1.14380391314625740000e-002) (81, -5.08193969726562500000e-002) (82, -4.84454669058322910000e-002) (83, -1.05102658271789550000e-001) (84, -4.81712035834789280000e-002) (0, 3.05833369493484500000e-001) (1, 3.44772525131702420000e-002) (2, 3.59125211834907530000e-002) (3, 1.87829881906509400000e-001) (4, 1.73474773764610290000e-001) (5, 2.14236021041870120000e-001) (6, -1.15178199484944340000e-002) (7, 6.19038939476013180000e-004) (8, 1.56235411763191220000e-001) (9, 1.69667243957519530000e-001) (10, 3.37014570832252500000e-002) (11, 1.60995826125144960000e-001) (12, 3.02539467811584470000e-001) (13, 4.91202287375926970000e-002) (14, -1.05177424848079680000e-002) (15, 1.06535449624061580000e-001) (16, 1.71095132827758790000e-002) (17, 3.71821448206901550000e-002) (18, -2.71110236644744870000e-001) (19, -2.12287187576293950000e-001) (20, -3.95705364644527440000e-002) (21, 2.84296013414859770000e-002) (22, -2.82266825437545780000e-001) (23, -1.54681712388992310000e-001) (24, 3.22261601686477660000e-002) (25, 4.73292022943496700000e-002) (26, -3.66787016391754150000e-002) (27, 1.58738493919372560000e-001) (28, -2.50873744487762450000e-001) (29, 8.99981111288070680000e-002) (30, -5.92003241181373600000e-002) (31, 1.50104118511080740000e-002) (32, -1.38650074601173400000e-001) (33, -1.92502424120903020000e-001) (34, 2.56633348762989040000e-002) (35, 2.09375172853469850000e-001) (36, -8.94645005464553830000e-002) (37, -1.06620885431766510000e-001) (38, -7.77993500232696530000e-002) (39, 2.71033532917499540000e-002) (40, -2.44630947709083560000e-001) (41, 4.15179990231990810000e-002) (42, -1.41801238059997560000e-001) (43, 2.64556538313627240000e-002) (44, -2.06832528114318850000e-001) (45, -1.79515276104211810000e-002) (46, 1.11749447882175450000e-001) (47, 1.66678071022033690000e-001) (48, -1.24784164130687710000e-001) (49, -3.03380675613880160000e-002) (50, 1.64664998650550840000e-001) (51, 1.32617101073265080000e-001) (52, -1.87783613801002500000e-001) (53, -4.13662008941173550000e-003) (54, -1.80138438940048220000e-001) (55, 5.51024153828620910000e-002) (56, -1.80068460758775470000e-003) (57, 2.11768224835395810000e-002) (58, -3.16836573183536530000e-002) (59, 7.04164579510688780000e-002) (60, 1.32977113127708440000e-001) (61, 1.03399060666561130000e-001) (62, -1.07621133327484130000e-001) (63, -4.94973212480545040000e-002) (64, 5.54591305553913120000e-002) (65, 1.41538783907890320000e-001) (66, -4.75765615701675420000e-002) (67, 8.31232890486717220000e-002) (68, -5.60723803937435150000e-003) (69, -1.47459683939814570000e-002) (70, 2.91290078312158580000e-002) (71, 6.28674998879432680000e-002) (72, 7.83210918307304380000e-002) (73, 1.60950109362602230000e-001) (74, -1.04625493288040160000e-001) (75, -3.26600335538387300000e-002) (76, -1.93642601370811460000e-001) (77, -1.27089500427246090000e-001) (78, -1.11046090722084050000e-001) (79, 6.22496344149112700000e-002) (80, 8.40848982334136960000e-002) (81, 1.13518603146076200000e-001) (82, -3.81530933082103730000e-002) (83, 2.76112202554941180000e-002) (84, 1.38548076152801510000e-001) (0, 1.70625001192092900000e-001) (1, 1.86296075582504270000e-001) (2, -7.64718353748321530000e-002) (3, -7.35374763607978820000e-002) (4, 4.23219650983810420000e-002) (5, -1.64158284664154050000e-001) (6, -3.82820442318916320000e-002) (7, 3.19287240505218510000e-001) (8, -5.03448722884058950000e-003) (9, -1.42374366521835330000e-001) (10, -1.19984090328216550000e-001) (11, -7.38466307520866390000e-002) (12, 1.59938648343086240000e-001) (13, 1.96336910128593440000e-001) (14, -1.15644797682762150000e-001) (15, 3.50440293550491330000e-001) (16, 5.51829040050506590000e-002) (17, 1.76425039768218990000e-001) (18, 5.92601252719759940000e-003) (19, -1.03870846331119540000e-001) (20, 4.04063127934932710000e-002) (21, 1.45453233271837230000e-002) (22, -8.22977256029844280000e-003) (23, -1.40692785382270810000e-001) (24, 5.71330524981021880000e-002) (25, 1.75586923956871030000e-001) (26, -1.26276224851608280000e-001) (27, 2.97647774219512940000e-001) (28, -1.85974523425102230000e-001) (29, -4.63108390569686890000e-001) (30, -1.11330516636371610000e-001) (31, 1.13525278866291050000e-001) (32, -1.45193994045257570000e-001) (33, -5.88962212204933170000e-002) (34, -1.13340700045228000000e-002) (35, -7.94646143913269040000e-002) (36, -1.56654462218284610000e-001) (37, -9.67470556497573850000e-002) (38, -9.28583517670631410000e-002) (39, 1.14922843873500820000e-001) (40, -1.59489899873733520000e-001) (41, -4.04599308967590330000e-001) (42, 2.73018591105937960000e-002) (43, -8.29579457640647890000e-002) (44, -3.92424575984478000000e-002) (45, 1.67705312371253970000e-001) (46, 5.47898449003696440000e-002) (47, 1.37870371341705320000e-001) (48, -8.42128396034240720000e-002) (49, -1.15501485764980320000e-001) (50, 1.42387952655553820000e-003) (51, 1.60130545496940610000e-001) (52, -3.73417176306247710000e-002) (53, 1.88288569450378420000e-001) (54, 1.01070173084735870000e-001) (55, -1.08602985739707950000e-001) (56, -4.55169528722763060000e-002) (57, 4.17881086468696590000e-003) (58, -2.02227205038070680000e-001) (59, -1.01769957691431050000e-002) (60, 3.25363874435424800000e-002) (61, 5.29575571417808530000e-002) (62, -1.23258098959922790000e-001) (63, 5.42242228984832760000e-002) (64, 6.12798407673835750000e-002) (65, 1.93722769618034360000e-002) (66, -1.63981765508651730000e-001) (67, -3.02163958549499510000e-002) (68, -4.83567193150520320000e-002) (69, 3.65281291306018830000e-002) (70, -6.81255534291267400000e-002) (71, 9.41710621118545530000e-002) (72, 5.37171633914113040000e-003) (73, 4.28352802991867070000e-002) (74, -1.95700135082006450000e-002) (75, 1.01940430700778960000e-001) (76, 2.56247948855161670000e-002) (77, -9.35251265764236450000e-003) (78, 1.57956425100564960000e-002) (79, 2.57007367908954620000e-002) (80, -6.36248616501688960000e-003) (81, 5.89057952165603640000e-002) (82, -6.13768100738525390000e-002) (83, 1.02389104664325710000e-001) (84, 6.35094940662384030000e-002) (0, -1.44020214676856990000e-001) (1, 3.26721817255020140000e-002) (2, -1.49852633476257320000e-001) (3, 8.27292427420616150000e-002) (4, -1.45796358585357670000e-001) (5, -2.49117761850357060000e-002) (6, -8.99172946810722350000e-002) (7, 1.53444930911064150000e-001) (8, -2.41785064339637760000e-001) (9, -5.00796176493167880000e-002) (10, -2.06046700477600100000e-001) (11, 1.08358867466449740000e-001) (12, -1.18510268628597260000e-001) (13, 2.66089066863060000000e-002) (14, 1.80140938609838490000e-002) (15, 4.99830767512321470000e-002) (16, -6.33315518498420720000e-002) (17, 7.22995623946189880000e-002) (18, 9.30134430527687070000e-002) (19, 1.18038959801197050000e-001) (20, -1.47672733291983600000e-002) (21, 1.01835399866104130000e-001) (22, 9.43773314356803890000e-002) (23, 1.16318032145500180000e-001) (24, -1.13895490765571590000e-001) (25, 5.30865304172039030000e-002) (26, 1.87927670776844020000e-002) (27, 3.28226387500762940000e-002) (28, 1.17006711661815640000e-001) (29, 1.95523813366889950000e-001) (30, 1.22344531118869780000e-002) (31, 2.20878049731254580000e-001) (32, -1.46026596426963810000e-001) (33, -1.54982078820467000000e-002) (34, -2.03964263200759890000e-001) (35, -1.21168367564678190000e-001) (36, -8.35022404789924620000e-002) (37, 1.93382706493139270000e-002) (38, -2.01032292097806930000e-002) (39, 2.18651697039604190000e-001) (40, 1.82839527726173400000e-001) (41, 2.45502054691314700000e-001) (42, -1.98016345500946040000e-001) (43, -8.23116376996040340000e-002) (44, -1.34893462061882020000e-001) (45, -5.51208620890975000000e-003) (46, -5.97422420978546140000e-002) (47, 3.57580296695232390000e-002) (48, 5.20592927932739260000e-002) (49, 1.16530194878578190000e-001) (50, -9.98704358935356140000e-002) (51, 1.18306055665016170000e-002) (52, -6.71069696545600890000e-002) (53, 4.37196232378482820000e-002) (54, -1.96440055966377260000e-001) (55, -7.36702457070350650000e-002) (56, -1.88350230455398560000e-002) (57, 3.36196497082710270000e-002) (58, -9.90281626582145690000e-002) (59, 1.63041669875383380000e-002) (60, 3.77000533044338230000e-002) (61, 1.06229804456233980000e-001) (62, -2.77786701917648320000e-002) (63, 6.96091577410697940000e-002) (64, -6.57820855849422510000e-005) (65, 4.78635616600513460000e-002) (66, -1.02179333567619320000e-001) (67, 5.54309319704771040000e-003) (68, -2.94823031872510910000e-002) (69, 3.49606424570083620000e-002) (70, -1.19759328663349150000e-002) (71, 6.63686767220497130000e-002) (72, 2.23162937909364700000e-002) (73, 8.63588154315948490000e-002) (74, -7.82553330063819890000e-002) (75, 4.91304649040102960000e-003) (76, 3.08606531471014020000e-002) (77, 2.28628460317850110000e-002) (78, -5.45233339071273800000e-002) (79, 1.29370847716927530000e-002) (80, -1.75984725356101990000e-002) (81, 2.73914746940135960000e-002) (82, -7.25600644946098330000e-002) (83, -1.28417348605580630000e-004) (84, -1.71808972954750060000e-002) (0, -5.48636429011821750000e-002) (1, 1.28331467509269710000e-001) (2, -1.18894070386886600000e-001) (3, 6.13543651998043060000e-002) (4, -1.48338541388511660000e-001) (5, 5.23173287510871890000e-002) (6, -2.32691064476966860000e-001) (7, 1.54876887798309330000e-001) (8, 4.82078343629837040000e-002) (9, -5.18770441412925720000e-002) (10, -2.58740335702896120000e-002) (11, 7.42488950490951540000e-002) (12, 2.79589965939521790000e-002) (13, 5.83914965391159060000e-002) (14, 1.68736696243286130000e-001) (15, -3.45365256071090700000e-002) (16, -3.47137451171875000000e-002) (17, -5.63736371695995330000e-002) (18, 1.90016120672225950000e-001) (19, -5.55268935859203340000e-002) (20, -2.83782016485929490000e-002) (21, -1.47472977638244630000e-001) (22, 1.40650510787963870000e-001) (23, 1.37460723519325260000e-001) (24, -5.88696449995040890000e-002) (25, -2.30715703219175340000e-002) (26, 8.65207016468048100000e-002) (27, 1.28160908818244930000e-001) (28, -7.03053995966911320000e-002) (29, -2.49594405293464660000e-001) (30, 1.21216803789138790000e-001) (31, -1.05965815484523770000e-001) (32, 2.79726050794124600000e-002) (33, -4.15798649191856380000e-002) (34, 4.47776690125465390000e-002) (35, -6.08928687870502470000e-002) (36, 1.61513313651084900000e-001) (37, 9.03367996215820310000e-002) (38, -1.49790450930595400000e-001) (39, -6.62690997123718260000e-002) (40, -6.47333636879920960000e-002) (41, -4.49587076902389530000e-001) (42, 4.07678633928298950000e-001) (43, -4.51726280152797700000e-002) (44, 3.26841533184051510000e-001) (45, 1.55879110097885130000e-001) (46, 2.78482772409915920000e-002) (47, 1.58299431204795840000e-001) (48, 3.56499291956424710000e-002) (49, 7.72501379251480100000e-002) (50, -2.60918084532022480000e-002) (51, -1.46145656704902650000e-001) (52, 2.77561128139495850000e-001) (53, 1.41344219446182250000e-001) (54, 1.60728827118873600000e-001) (55, 6.37996196746826170000e-002) (56, 1.26448413357138630000e-002) (57, 1.43908457830548290000e-002) (58, 1.53405815362930300000e-002) (59, -1.57781764864921570000e-001) (60, 9.18791666626930240000e-002) (61, -3.59028987586498260000e-002) (62, 1.39249503612518310000e-001) (63, 1.12861201167106630000e-001) (64, -2.40432605147361760000e-001) (65, -9.82144251465797420000e-002) (66, -1.13717563450336460000e-001) (67, -4.73943129181861880000e-002) (68, -1.75322860479354860000e-001) (69, -1.38328578323125840000e-002) (70, -1.81159470230340960000e-003) (71, 6.60382136702537540000e-002) (72, 2.37885452806949620000e-002) (73, 8.90331491827964780000e-002) (74, 9.79464501142501830000e-002) (75, -9.16973948478698730000e-002) (76, -1.65030345320701600000e-001) (77, -1.89072445034980770000e-001) (78, -4.60553430020809170000e-002) (79, 1.80959440767765050000e-002) (80, 1.57469213008880620000e-002) (81, -8.32430049777030940000e-002) (82, -5.94461336731910710000e-002) (83, -1.00362479686737060000e-001) (84, 1.13515995442867280000e-001) (0, 5.18691278994083400000e-002) (1, -2.94123664498329160000e-002) (2, 9.78107601404190060000e-002) (3, 1.35720923542976380000e-001) (4, 5.04307858645915990000e-002) (5, 1.80570818483829500000e-002) (6, -3.28569896519184110000e-002) (7, 6.95456117391586300000e-002) (8, 6.62946030497550960000e-002) (9, 2.97996271401643750000e-002) (10, 8.31351578235626220000e-002) (11, 1.63688033819198610000e-001) (12, -1.47244771942496300000e-002) (13, 2.47392561286687850000e-002) (14, -1.27763897180557250000e-001) (15, -1.70397475361824040000e-001) (16, -1.53910368680953980000e-001) (17, -7.43570327758789060000e-002) (18, -1.28649771213531490000e-001) (19, -8.33348110318183900000e-002) (20, 7.72542357444763180000e-002) (21, 5.81454895436763760000e-002) (22, -1.17895700037479400000e-001) (23, -1.19793429970741270000e-001) (24, -1.76300942897796630000e-001) (25, -7.46414363384246830000e-002) (26, -1.20450362563133240000e-001) (27, -1.43212705850601200000e-001) (28, 6.51647821068763730000e-002) (29, 1.37132167816162110000e-001) (30, -3.07845175266265870000e-002) (31, -7.96747282147407530000e-002) (32, 2.06606826395727690000e-004) (33, -1.33978947997093200000e-002) (34, -1.08690664172172550000e-001) (35, -1.88456788659095760000e-001) (36, 1.72274950891733170000e-002) (37, -1.87098551541566850000e-002) (38, -5.46452309936285020000e-003) (39, -1.19687221944332120000e-001) (40, 4.48490716516971590000e-002) (41, 1.83460459113121030000e-001) (42, -1.70360375195741650000e-002) (43, 7.22356587648391720000e-002) (44, 8.97405669093132020000e-002) (45, 5.46531341969966890000e-002) (46, 1.14977769553661350000e-001) (47, 8.12073498964309690000e-002) (48, 1.42636641860008240000e-001) (49, 1.19909696280956270000e-001) (50, 1.06844209134578700000e-001) (51, 8.01741257309913640000e-002) (52, 1.29957735538482670000e-001) (53, 8.48506540060043330000e-002) (54, 4.90063726902008060000e-002) (55, 9.85353440046310420000e-002) (56, -1.25477267429232600000e-002) (57, 1.92320588976144790000e-002) (58, 3.06259412318468090000e-002) (59, 2.69397366791963580000e-002) (60, 2.39186342805624010000e-002) (61, 3.91903817653656010000e-002) (62, 3.25061380863189700000e-002) (63, -2.04044096171855930000e-002) (64, 5.02103455364704130000e-002) (65, 4.47807461023330690000e-002) (66, 1.71082057058811190000e-002) (67, 1.15895774215459820000e-002) (68, -4.00082170963287350000e-002) (69, -1.83225295040756460000e-003) (70, -2.28381343185901640000e-002) (71, -3.18281725049018860000e-002) (72, -3.43138463795185090000e-002) (73, -6.35014995932579040000e-002) (74, -7.50423818826675420000e-002) (75, -5.46512976288795470000e-002) (76, 3.06411436758935450000e-003) (77, -2.93298717588186260000e-002) (78, -2.08564139902591710000e-002) (79, -6.70173466205596920000e-002) (80, -2.70170648582279680000e-003) (81, -2.66450420022010800000e-002) (82, 1.40779986977577210000e-002) (83, -2.30922624468803410000e-002) (84, -1.13925542682409290000e-002) (0, 9.24542546272277830000e-002) (1, -2.40709651261568070000e-002) (2, 1.60497814416885380000e-001) (3, 1.61894578486680980000e-002) (4, -8.44676047563552860000e-002) (5, -8.36571827530860900000e-002) (6, 1.84825912117958070000e-001) (7, 6.61063715815544130000e-002) (8, -1.04811288416385650000e-001) (9, -4.93510700762271880000e-002) (10, 2.26483598351478580000e-001) (11, 2.46231071650981900000e-003) (12, 1.27799883484840390000e-001) (13, -3.62476557493209840000e-002) (14, -1.80793941020965580000e-001) (15, -1.89180597662925720000e-001) (16, -1.43172189593315120000e-001) (17, -1.30544871091842650000e-001) (18, 2.47003901749849320000e-002) (19, -1.33208064362406730000e-002) (20, -2.31966719031333920000e-001) (21, -2.38819688558578490000e-001) (22, 3.05559695698320870000e-003) (23, -6.60757273435592650000e-002) (24, -6.35971650481224060000e-002) (25, -6.06163144111633300000e-002) (26, -5.84122650325298310000e-002) (27, -1.99567660689353940000e-001) (28, 1.37019321322441100000e-001) (29, 1.53349295258522030000e-001) (30, -7.01811630278825760000e-003) (31, -8.49309936165809630000e-002) (32, 5.19536323845386510000e-002) (33, -2.45979875326156620000e-002) (34, 1.39258168637752530000e-002) (35, -9.86821949481964110000e-002) (36, 9.33040007948875430000e-002) (37, 1.53141971677541730000e-002) (38, -1.18851196020841600000e-002) (39, -1.40722900629043580000e-001) (40, 1.58369466662406920000e-001) (41, 4.06455174088478090000e-002) (42, -4.59110140800476070000e-002) (43, -4.78682555258274080000e-002) (44, 6.46985024213790890000e-002) (45, -7.92495533823966980000e-003) (46, -4.36005704104900360000e-002) (47, -1.15995995700359340000e-001) (48, 2.05593094229698180000e-001) (49, 1.39314636588096620000e-001) (50, 4.50510904192924500000e-002) (51, -1.14359781146049500000e-001) (52, 1.10731281340122220000e-001) (53, -2.23342329263687130000e-002) (54, -6.43689855933189390000e-002) (55, -1.27771303057670590000e-001) (56, 1.41254086047410960000e-002) (57, -1.96970049291849140000e-002) (58, 1.24407887458801270000e-001) (59, 1.35009167715907100000e-002) (60, 8.03159326314926150000e-002) (61, 1.28390099853277210000e-002) (62, -6.33356869220733640000e-002) (63, -1.39472201466560360000e-001) (64, 1.26636251807212830000e-001) (65, 1.01858869194984440000e-001) (66, 1.01730220019817350000e-001) (67, 4.42448211833834650000e-003) (68, 6.11276961863040920000e-002) (69, -2.01309937983751300000e-002) (70, -1.38807073235511780000e-002) (71, -9.32477787137031560000e-002) (72, -1.11180776730179790000e-002) (73, -9.78245735168457030000e-002) (74, 1.77529416978359220000e-002) (75, -1.25565677881240840000e-001) (76, 9.32355877012014390000e-003) (77, -2.82512083649635310000e-002) (78, -4.26112348213791850000e-003) (79, -1.00287064909935000000e-001) (80, 1.87115278095006940000e-002) (81, -8.44778865575790410000e-002) (82, 9.72529426217079160000e-002) (83, -4.80193039402365680000e-003) (84, 1.15266852080821990000e-001) (0, 1.43621638417243960000e-001) (1, 1.66825637221336360000e-001) (2, -2.16378852725028990000e-001) (3, 3.49595658481121060000e-002) (4, -1.50802627205848690000e-001) (5, -1.54705159366130830000e-002) (6, -7.04295351170003410000e-004) (7, 8.63914713263511660000e-002) (8, -1.97014316916465760000e-001) (9, -3.48208248615264890000e-002) (10, -1.56259030103683470000e-001) (11, 1.25983178615570070000e-001) (12, 7.67278447747230530000e-002) (13, 1.05653531849384310000e-001) (14, -1.68989598751068120000e-001) (15, -1.09556309878826140000e-001) (16, -5.14133600518107410000e-003) (17, 6.88303858041763310000e-002) (18, -1.10729768872261050000e-001) (19, 2.50414200127124790000e-002) (20, 6.53672441840171810000e-002) (21, 1.05062894523143770000e-001) (22, -5.01829273998737340000e-002) (23, 5.48657067120075230000e-002) (24, 8.85146204382181170000e-003) (25, 7.35129863023757930000e-002) (26, -2.62652873992919920000e-001) (27, -1.15797653794288640000e-001) (28, -2.33185768127441410000e-001) (29, -9.95033606886863710000e-002) (30, -5.05575798451900480000e-002) (31, 8.56975018978118900000e-002) (32, 1.03186346590518950000e-001) (33, 1.93748489022254940000e-001) (34, 3.55691872537136080000e-002) (35, 1.03853210806846620000e-001) (36, 4.93363328278064730000e-002) (37, 1.72337278723716740000e-001) (38, -1.03075444698333740000e-001) (39, 8.84755402803421020000e-002) (40, -3.03776383399963380000e-001) (41, -1.80588170886039730000e-001) (42, 1.91568553447723390000e-001) (43, 2.41665855050086980000e-001) (44, -6.35775253176689150000e-002) (45, 1.16371616721153260000e-001) (46, -1.80162832140922550000e-001) (47, -6.33974000811576840000e-002) (48, -1.39988586306571960000e-001) (49, -6.76919668912887570000e-002) (50, -1.74762144684791560000e-001) (51, -2.49640028923749920000e-002) (52, -6.37385249137878420000e-002) (53, 1.21758446097373960000e-001) (54, 1.75175353884696960000e-001) (55, 2.10244104266166690000e-001) (56, -3.46767641603946690000e-002) (57, 3.55753153562545780000e-002) (58, -1.60823211073875430000e-001) (59, -4.05341275036334990000e-002) (60, -2.91221234947443010000e-002) (61, 5.80566935241222380000e-002) (62, -4.76174615323543550000e-002) (63, 2.66469996422529220000e-002) (64, 2.03996635973453520000e-002) (65, 5.88135272264480590000e-002) (66, -1.12362191081047060000e-001) (67, -3.70025150477886200000e-002) (68, -1.84307098388671880000e-002) (69, 4.26712781190872190000e-002) (70, -8.68639945983886720000e-002) (71, 1.55035778880119320000e-002) (72, -3.20526361465454100000e-002) (73, 3.16063910722732540000e-002) (74, -3.32978442311286930000e-002) (75, 4.65255118906497960000e-002) (76, -1.10961742699146270000e-001) (77, -5.49155808985233310000e-002) (78, -5.54121099412441250000e-002) (79, 1.50399412959814070000e-002) (80, 1.23561881482601170000e-002) (81, 1.20306096971035000000e-001) (82, -9.51067954301834110000e-002) (83, -1.32681569084525110000e-004) (84, 9.30244550108909610000e-002) (0, -2.18804419040679930000e-001) (1, 1.86479259282350540000e-002) (2, -2.49407500028610230000e-001) (3, -1.46519348025321960000e-001) (4, -2.88477897644042970000e-001) (5, 1.04137584567070010000e-001) (6, -2.37304717302322390000e-001) (7, -2.76786517351865770000e-002) (8, -2.81144618988037110000e-001) (9, 1.17596380412578580000e-001) (10, -2.80840277671813960000e-001) (11, -1.86355471611022950000e-001) (12, -2.30455502867698670000e-001) (13, 2.77208890765905380000e-002) (14, -2.76847127825021740000e-002) (15, 4.81142550706863400000e-002) (16, -1.85154885053634640000e-001) (17, -2.07790747284889220000e-001) (18, 1.45041355863213540000e-002) (19, 8.90289768576622010000e-002) (20, -1.15882486104965210000e-001) (21, 1.56085744500160220000e-001) (22, 3.01651507616043090000e-002) (23, 6.54179304838180540000e-002) (24, -1.87258228659629820000e-001) (25, -1.63681268692016600000e-001) (26, -1.09958145767450330000e-002) (27, 1.93351935595273970000e-002) (28, -2.71348878741264340000e-002) (29, 5.85172697901725770000e-002) (30, -1.35709196329116820000e-001) (31, 6.54992014169692990000e-002) (32, 1.19975917041301730000e-001) (33, 2.47669652104377750000e-001) (34, -4.72767464816570280000e-002) (35, 3.38297903537750240000e-001) (36, 9.34143885970115660000e-002) (37, 2.71007031202316280000e-001) (38, -8.32889825105667110000e-002) (39, 8.22649002075195310000e-002) (40, -4.52159270644187930000e-002) (41, 7.48010426759719850000e-002) (42, -2.71779239177703860000e-001) (43, -1.55611500144004820000e-001) (44, 7.28747472167015080000e-002) (45, 2.20323368906974790000e-001) (46, -1.27709642052650450000e-001) (47, 4.22092117369174960000e-002) (48, -2.21546813845634460000e-002) (49, 8.11119750142097470000e-002) (50, -7.32415243983268740000e-002) (51, 4.71476279199123380000e-002) (52, 9.47842821478843690000e-002) (53, 2.15655401349067690000e-001) (54, -2.69400179386138920000e-001) (55, -1.86944350600242610000e-001) (56, 6.97855129837989810000e-002) (57, 1.82828113436698910000e-001) (58, -1.91014781594276430000e-001) (59, -6.39892667531967160000e-002) (60, -1.86718329787254330000e-001) (61, -7.35985636711120610000e-002) (62, -2.41154968738555910000e-001) (63, -9.42414626479148860000e-002) (64, -1.55481427907943730000e-001) (65, -2.64009293168783190000e-002) (66, -1.59121111035346980000e-001) (67, -7.08899050951004030000e-002) (68, 9.72182527184486390000e-002) (69, 1.54549762606620790000e-001) (70, -6.03545978665351870000e-002) (71, 8.15726965665817260000e-002) (72, 8.53772610425949100000e-002) (73, 1.88991844654083250000e-001) (74, -1.35822653770446780000e-001) (75, -1.29709849134087560000e-002) (76, -2.47696146368980410000e-001) (77, -8.11894536018371580000e-002) (78, -1.40854686498641970000e-001) (79, 2.04350948333740230000e-002) (80, 1.14156864583492280000e-001) (81, 2.30680182576179500000e-001) (82, -3.66264283657073970000e-002) (83, 1.23681567609310150000e-001) (84, 1.47841766476631160000e-001) (0, -3.59596684575080870000e-002) (1, -1.22281171381473540000e-001) (2, -7.54131982102990150000e-003) (3, -2.41264924407005310000e-002) (4, -1.80320262908935550000e-001) (5, 4.68392111361026760000e-002) (6, 5.58850504457950590000e-002) (7, 1.67718619108200070000e-001) (8, -1.73583656549453740000e-001) (9, 7.19841122627258300000e-002) (10, -4.67879921197891240000e-002) (11, -5.05324155092239380000e-002) (12, -7.05451145768165590000e-002) (13, -9.29404422640800480000e-002) (14, -8.63593909889459610000e-003) (15, 9.29481349885463710000e-003) (16, 1.96323648095130920000e-001) (17, 1.14263370633125310000e-001) (18, -2.79967524111270900000e-002) (19, -2.71275565028190610000e-002) (20, -1.67619064450263980000e-001) (21, -2.69222378730773930000e-001) (22, -1.32676362991333010000e-002) (23, 2.61507295072078700000e-002) (24, 1.84583812952041630000e-001) (25, 1.27399921417236330000e-001) (26, -5.20360022783279420000e-002) (27, -2.59387772530317310000e-003) (28, -2.36568644642829900000e-001) (29, -5.92094883322715760000e-002) (30, -1.89044266939163210000e-001) (31, -8.63405466079711910000e-002) (32, 1.14709630608558650000e-001) (33, -9.31912567466497420000e-003) (34, 1.91171839833259580000e-001) (35, 2.22552493214607240000e-001) (36, 1.44337669014930730000e-001) (37, 9.52333584427833560000e-003) (38, -1.95524409413337710000e-001) (39, -8.11668559908866880000e-002) (40, -2.95648604631423950000e-001) (41, -2.40451451390981670000e-002) (42, 4.61483076214790340000e-002) (43, 2.26882144808769230000e-001) (44, -6.58982545137405400000e-002) (45, -2.63077602721750740000e-003) (46, 3.13138902187347410000e-001) (47, 1.29694372415542600000e-001) (48, -3.08479703962802890000e-002) (49, -9.52055156230926510000e-002) (50, 2.22241342067718510000e-001) (51, 1.30946353077888490000e-001) (52, -1.03883184492588040000e-001) (53, 2.18256772495806220000e-003) (54, -2.40527577698230740000e-002) (55, 1.82378426194190980000e-001) (56, -1.64351519197225570000e-002) (57, -4.46111634373664860000e-002) (58, 1.66776776313781740000e-002) (59, 1.81462112814188000000e-002) (60, -2.92029500007629390000e-001) (61, -2.39824533462524410000e-001) (62, 6.14519529044628140000e-002) (63, 8.71199592947959900000e-002) (64, -3.68167400360107420000e-001) (65, -3.37065219879150390000e-001) (66, -2.13095336221158500000e-003) (67, 2.07949951291084290000e-002) (68, -9.00100916624069210000e-002) (69, -2.89726331830024720000e-002) (70, 6.53229504823684690000e-002) (71, 7.55775272846221920000e-002) (72, 3.72219681739807130000e-002) (73, 7.43886679410934450000e-002) (74, 5.74219562113285060000e-002) (75, 1.06736250221729280000e-001) (76, -7.00849890708923340000e-002) (77, -7.31402309611439700000e-003) (78, 3.76235134899616240000e-002) (79, 4.36914488673210140000e-002) (80, -8.68521779775619510000e-002) (81, 3.71151082217693330000e-002) (82, 2.62261796742677690000e-002) (83, 6.01556226611137390000e-002) (84, 1.09981140121817590000e-002) (0, 1.09493359923362730000e-002) (1, -4.67857234179973600000e-002) (2, -6.16259798407554630000e-002) (3, 7.40004479885101320000e-002) (4, -2.24643349647521970000e-002) (5, -9.70684108324348930000e-004) (6, 4.94586639106273650000e-002) (7, 6.12370781600475310000e-002) (8, -2.05796193331480030000e-002) (9, -1.26145593822002410000e-002) (10, -3.55508998036384580000e-002) (11, 5.06267771124839780000e-002) (12, -1.36610493063926700000e-002) (13, -3.51958908140659330000e-002) (14, 3.49770635366439820000e-002) (15, -3.39457839727401730000e-002) (16, -2.23128035664558410000e-001) (17, -1.44313305616378780000e-001) (18, 6.00141473114490510000e-002) (19, 1.23441945761442180000e-002) (20, -1.69682458043098450000e-001) (21, 7.15408427640795710000e-003) (22, 1.13660074770450590000e-001) (23, 3.47166918218135830000e-002) (24, -1.12627737224102020000e-001) (25, -5.15948496758937840000e-002) (26, 3.15433256328105930000e-002) (27, -6.86806114390492440000e-003) (28, 6.04389049112796780000e-002) (29, 8.48352164030075070000e-002) (30, -6.67096674442291260000e-002) (31, -4.92780953645706180000e-002) (32, 8.46893638372421260000e-002) (33, 2.89846397936344150000e-002) (34, -1.92564547061920170000e-001) (35, -1.32757142186164860000e-001) (36, 6.31095767021179200000e-002) (37, 4.97786588966846470000e-002) (38, 9.54900905489921570000e-002) (39, 1.15544624626636510000e-001) (40, 2.13875360786914830000e-002) (41, 1.19606532156467440000e-001) (42, -1.93396583199501040000e-001) (43, -7.22105801105499270000e-002) (44, 1.83233036659657960000e-003) (45, -2.48619187623262410000e-002) (46, -8.69450420141220090000e-002) (47, -7.05252289772033690000e-002) (48, 1.26258924603462220000e-001) (49, 1.60222530364990230000e-001) (50, 3.85144073516130450000e-003) (51, -8.97526592016220090000e-002) (52, 4.16483059525489810000e-002) (53, 1.24274427071213720000e-002) (54, -1.66258513927459720000e-001) (55, -9.12264436483383180000e-002) (56, -8.27293377369642260000e-003) (57, 3.16948145627975460000e-002) (58, 5.45616485178470610000e-002) (59, 1.30650356411933900000e-001) (60, -1.42566591501235960000e-001) (61, -1.00212961435317990000e-001) (62, 4.59214933216571810000e-002) (63, 6.77439272403717040000e-002) (64, -5.79750910401344300000e-002) (65, 2.02074367552995680000e-003) (66, 2.78135072439908980000e-002) (67, 7.44564160704612730000e-002) (68, 8.57797116041183470000e-002) (69, 6.73216506838798520000e-002) (70, 7.87203684449195860000e-002) (71, 9.75694507360458370000e-002) (72, -7.18988776206970210000e-002) (73, -4.08765785396099090000e-002) (74, 7.14970007538795470000e-002) (75, 5.51576837897300720000e-002) (76, -1.35071888566017150000e-001) (77, -1.71242401003837590000e-001) (78, 5.71025609970092770000e-002) (79, 9.23025086522102360000e-002) (80, 1.34862046688795090000e-002) (81, -2.61051841080188750000e-002) (82, 1.00470200181007390000e-001) (83, 7.61547759175300600000e-002) (84, 3.01698222756385800000e-003) (0, -2.37813889980316160000e-001) (1, -1.76548555493354800000e-001) (2, -2.71126329898834230000e-001) (3, -2.77601089328527450000e-002) (4, -8.96008014678955080000e-002) (5, 1.09462633728981020000e-001) (6, -8.24261456727981570000e-002) (7, 4.43626604974269870000e-002) (8, -5.78747577965259550000e-002) (9, 1.27817288041114810000e-001) (10, -1.78808510303497310000e-001) (11, 4.03092131018638610000e-002) (12, -2.45389029383659360000e-001) (13, -1.71948075294494630000e-001) (14, 6.69284239411354060000e-002) (15, 2.23423004150390630000e-001) (16, 8.54761302471160890000e-002) (17, 1.29612639546394350000e-001) (18, -1.79245695471763610000e-001) (19, 3.99944670498371120000e-002) (20, -3.28674912452697750000e-002) (21, 3.36818695068359380000e-002) (22, -1.41275510191917420000e-001) (23, 4.10315841436386110000e-002) (24, 3.61492298543453220000e-002) (25, 8.35310891270637510000e-002) (26, 7.14299157261848450000e-002) (27, 1.91691756248474120000e-001) (28, -1.18777170777320860000e-001) (29, 1.03836677968502040000e-001) (30, -1.82273492217063900000e-001) (31, 7.33019784092903140000e-002) (32, -1.26718342304229740000e-001) (33, -1.41939921304583550000e-002) (34, 2.52842865884304050000e-002) (35, 2.05902487039566040000e-001) (36, -1.44972696900367740000e-001) (37, -4.79251071810722350000e-002) (38, -2.20396310091018680000e-001) (39, 2.93571148067712780000e-002) (40, -1.16633340716362000000e-001) (41, 5.28251603245735170000e-002) (42, -8.20971727371215820000e-002) (43, 1.13990575075149540000e-001) (44, -1.17655605077743530000e-001) (45, 9.97157841920852660000e-002) (46, 5.85027970373630520000e-004) (47, 1.17486886680126190000e-001) (48, -2.20252454280853270000e-001) (49, -1.20847158133983610000e-001) (50, -1.30247732158750300000e-003) (51, 1.48325785994529720000e-001) (52, -1.23141340911388400000e-001) (53, 7.72397294640541080000e-002) (54, -1.30597710609436040000e-001) (55, 1.24059900641441350000e-001) (56, -6.79411590099334720000e-002) (57, 1.02013498544692990000e-002) (58, -7.94758945703506470000e-002) (59, 4.53748181462287900000e-002) (60, -1.26449633389711380000e-002) (61, 6.40750005841255190000e-002) (62, -6.98565468192100520000e-002) (63, 1.01866371929645540000e-001) (64, -8.27748998999595640000e-002) (65, -1.16140814498066900000e-002) (66, -1.31782203912734990000e-001) (67, 4.36544306576251980000e-002) (68, -9.77004840970039370000e-002) (69, 1.82200223207473750000e-002) (70, -4.55697253346443180000e-002) (71, 9.16025191545486450000e-002) (72, 3.64186265505850320000e-003) (73, 1.33595854043960570000e-001) (74, -9.00363549590110780000e-002) (75, 9.92676094174385070000e-002) (76, 2.88782380521297450000e-002) (77, 1.06781095266342160000e-001) (78, -8.54623392224311830000e-002) (79, 6.89327716827392580000e-002) (80, -3.79772298038005830000e-002) (81, 1.30464047193527220000e-001) (82, -6.40666186809539790000e-002) (83, 9.19276401400566100000e-002) (84, -2.35390067100524900000e-002) (0, 2.57557779550552370000e-001) (1, -3.50423932075500490000e-001) (2, 1.12779818475246430000e-001) (3, -7.38352715969085690000e-001) (4, -8.37442949414253230000e-002) (5, -5.90360641479492190000e-001) (6, 1.26318842172622680000e-001) (7, 9.16373059153556820000e-002) (8, -6.70008733868598940000e-002) (9, -5.97705662250518800000e-001) (10, 1.01669773459434510000e-001) (11, -7.44861781597137450000e-001) (12, 2.73943245410919190000e-001) (13, -3.42133522033691410000e-001) (14, 1.30442932248115540000e-001) (15, -3.34680616855621340000e-001) (16, 3.02553266286849980000e-001) (17, -2.37418949604034420000e-001) (18, 4.63905297219753270000e-002) (19, 7.02347839251160620000e-003) (20, -1.84583038091659550000e-001) (21, 4.73086535930633540000e-001) (22, 3.99922877550125120000e-002) (23, -1.36171113699674610000e-002) (24, 3.11527490615844730000e-001) (25, -2.25307166576385500000e-001) (26, 1.40377834439277650000e-001) (27, -3.22526961565017700000e-001) (28, 1.91268220543861390000e-001) (29, -1.26842692494392400000e-001) (30, -1.53606459498405460000e-001) (31, 3.46118211746215820000e-001) (32, 1.84356749057769780000e-001) (33, -1.16885425522923470000e-002) (34, -3.91727477312088010000e-001) (35, 7.54381120204925540000e-001) (36, 1.68299064040184020000e-001) (37, -1.62016041576862340000e-002) (38, -1.48797348141670230000e-001) (39, 3.47991287708282470000e-001) (40, 1.90231323242187500000e-001) (41, -1.12871192395687100000e-001) (42, -1.77752658724784850000e-001) (43, 1.44217498600482940000e-002) (44, 1.06666912324726580000e-003) (45, 6.80106997489929200000e-001) (46, -1.02882057428359990000e-001) (47, 2.14691385626792910000e-001) (48, -1.56234487891197200000e-001) (49, 5.22305548191070560000e-001) (50, -1.14923663437366490000e-001) (51, 2.26558908820152280000e-001) (52, 2.42145056836307050000e-003) (53, 6.72487795352935790000e-001) (54, -1.76874384284019470000e-001) (55, 2.16743126511573790000e-002) (56, -2.33450084924697880000e-001) (57, 1.80831909179687500000e-001) (58, -3.77336263656616210000e-001) (59, 1.23173370957374570000e-001) (60, -1.03993624448776250000e-001) (61, 2.40200743079185490000e-001) (62, -2.72913515567779540000e-001) (63, 2.52673000097274780000e-001) (64, -1.06492958962917330000e-001) (65, 2.45511546730995180000e-001) (66, -3.73083919286727910000e-001) (67, 1.24788090586662290000e-001) (68, -2.39373564720153810000e-001) (69, 1.87267705798149110000e-001) (70, -1.30460172891616820000e-001) (71, 3.32077950239181520000e-001) (72, -4.31080847978591920000e-001) (73, 1.59963652491569520000e-001) (74, -2.90534257888793950000e-001) (75, 3.20183277130126950000e-001) (76, 4.25793617963790890000e-001) (77, 9.41888093948364260000e-001) (78, -2.75401175022125240000e-001) (79, 2.91401624679565430000e-001) (80, -4.34813886880874630000e-001) (81, 1.59109249711036680000e-001) (82, -1.38640001416206360000e-001) (83, 3.35719704627990720000e-001) (84, -8.29407691955566410000e-001) (0, -9.62818041443824770000e-003) (1, 7.44873508810997010000e-002) (2, -1.13246321678161620000e-001) (3, -7.95864835381507870000e-002) (4, -1.60531312227249150000e-001) (5, -2.08461359143257140000e-002) (6, -3.11294138431549070000e-001) (7, -5.59592247009277340000e-002) (8, -1.59416690468788150000e-001) (9, -5.49435727298259740000e-002) (10, -8.43669772148132320000e-002) (11, -1.22942157089710240000e-001) (12, -2.63369511812925340000e-002) (13, 6.52958899736404420000e-002) (14, -1.50744870305061340000e-001) (15, 1.23536452651023860000e-001) (16, -7.37448781728744510000e-002) (17, 4.91292253136634830000e-002) (18, 6.83595314621925350000e-002) (19, 1.30980491638183590000e-001) (20, -1.31370902061462400000e-001) (21, 1.48561328649520870000e-001) (22, -1.62726622074842450000e-002) (23, 1.24328471720218660000e-001) (24, -4.92159724235534670000e-002) (25, 1.25995904207229610000e-001) (26, -4.20483462512493130000e-002) (27, 1.39720916748046880000e-001) (28, -1.41722127795219420000e-001) (29, 1.16058878600597380000e-001) (30, -3.12436699867248540000e-001) (31, 2.81497519463300700000e-002) (32, -2.08652779459953310000e-001) (33, 1.49244293570518490000e-002) (34, -4.06356096267700200000e-001) (35, -2.29406163096427920000e-001) (36, -2.00988471508026120000e-001) (37, 8.08141566812992100000e-003) (38, -3.09374779462814330000e-001) (39, -2.08158767782151700000e-003) (40, -1.23748593032360080000e-001) (41, 1.51056021451950070000e-001) (42, -9.84931960701942440000e-002) (43, 2.12571814656257630000e-001) (44, -4.45034205913543700000e-002) (45, 1.68861210346221920000e-001) (46, -4.82123494148254390000e-002) (47, 1.12740270793437960000e-001) (48, 1.03198513388633730000e-001) (49, 3.43980193138122560000e-001) (50, -8.61503407359123230000e-002) (51, 1.41693517565727230000e-001) (52, -4.60276752710342410000e-002) (53, 1.60262942314147950000e-001) (54, -1.13544486463069920000e-001) (55, 1.61485567688941960000e-001) (56, -7.84800201654434200000e-002) (57, 9.92264896631240840000e-002) (58, 1.61373242735862730000e-001) (59, 2.89661318063735960000e-001) (60, -3.98742482066154480000e-002) (61, 1.76593869924545290000e-001) (62, 1.56331509351730350000e-002) (63, 1.42092034220695500000e-001) (64, 1.07880691066384320000e-002) (65, 2.01688379049301150000e-001) (66, 1.58163100481033330000e-001) (67, 3.07099878787994380000e-001) (68, -1.00920140743255620000e-001) (69, 9.06262323260307310000e-002) (70, -1.35199502110481260000e-001) (71, 1.23626813292503360000e-002) (72, -1.04746408760547640000e-001) (73, 1.44910824019461870000e-003) (74, -2.13587343692779540000e-001) (75, -3.18316742777824400000e-002) (76, -8.14468786120414730000e-002) (77, 1.65672767907381060000e-002) (78, -1.55767738819122310000e-001) (79, -5.62950558960437770000e-002) (80, -7.59185031056404110000e-002) (81, 4.95679005980491640000e-002) (82, -1.17417074739933010000e-001) (83, 6.31805509328842160000e-003) (84, 7.69123211503028870000e-002) (0, 1.36439085006713870000e-001) (1, 1.57952204346656800000e-001) (2, 1.77151575684547420000e-001) (3, 3.92727077007293700000e-001) (4, -1.74004673957824710000e-001) (5, -8.17396938800811770000e-002) (6, -3.20095002651214600000e-001) (7, 9.57455858588218690000e-003) (8, -1.85727462172508240000e-001) (9, -8.29739719629287720000e-002) (10, 1.72234296798706050000e-001) (11, 3.80248188972473140000e-001) (12, 1.41820028424263000000e-001) (13, 1.64849847555160520000e-001) (14, -5.52696082741022110000e-003) (15, 8.48624631762504580000e-002) (16, -6.55381605029106140000e-002) (17, -3.83448004722595210000e-002) (18, -2.12508678436279300000e-001) (19, -1.36561527848243710000e-001) (20, -9.91839636117219920000e-003) (21, 4.26991619169712070000e-002) (22, -1.97810560464859010000e-001) (23, -1.50055021047592160000e-001) (24, -5.57997636497020720000e-002) (25, -4.35121506452560420000e-002) (26, 9.70263406634330750000e-003) (27, 6.07673637568950650000e-002) (28, -2.75426447391510010000e-001) (29, -2.49587059020996090000e-001) (30, -1.72620669007301330000e-001) (31, -2.16419443488121030000e-001) (32, -9.06784366816282270000e-003) (33, -6.60705864429473880000e-002) (34, -1.80595874786376950000e-001) (35, -1.41068711876869200000e-001) (36, -2.38133352249860760000e-002) (37, -6.15734867751598360000e-002) (38, -1.49269387125968930000e-001) (39, -2.30778560042381290000e-001) (40, -2.90647178888320920000e-001) (41, -2.31261610984802250000e-001) (42, -7.96121731400489810000e-002) (43, 5.62188103795051570000e-002) (44, -6.68017864227294920000e-002) (45, 8.03380683064460750000e-002) (46, 1.10267363488674160000e-001) (47, 6.61869794130325320000e-002) (48, 1.17210991680622100000e-001) (49, 1.80454835295677190000e-001) (50, 1.06365598738193510000e-001) (51, 1.03644140064716340000e-001) (52, -5.90940602123737340000e-002) (53, 7.72228166460990910000e-002) (54, -8.27135667204856870000e-002) (55, 5.12579083442687990000e-002) (56, 3.91556248068809510000e-002) (57, 1.16066962480545040000e-001) (58, -4.49695102870464320000e-002) (59, 3.81701961159706120000e-002) (60, -3.24148535728454590000e-002) (61, 3.58929820358753200000e-002) (62, -1.02872289717197420000e-001) (63, 9.70461964607238770000e-002) (64, 9.47759207338094710000e-003) (65, 5.91667219996452330000e-002) (66, -3.73997166752815250000e-002) (67, 1.01717999204993250000e-002) (68, 6.93873241543769840000e-002) (69, 1.05621129274368290000e-001) (70, -2.97998450696468350000e-003) (71, 2.86092758178710940000e-002) (72, 6.52659162878990170000e-002) (73, 1.18213966488838200000e-001) (74, 5.78164681792259220000e-002) (75, 1.10861569643020630000e-001) (76, 4.30176377296447750000e-001) (77, 4.20978873968124390000e-001) (78, 6.39117583632469180000e-002) (79, 9.59850624203681950000e-002) (80, 6.50359690189361570000e-002) (81, 1.32977306842803960000e-001) (82, -1.53099261224269870000e-002) (83, 4.85933981835842130000e-002) (84, -6.19050502777099610000e-001) (0, 3.74490469694137570000e-001) (1, -8.81110250949859620000e-001) (2, 3.40016245841979980000e-001) (3, -7.44001626968383790000e-001) (4, 2.42655962705612180000e-001) (5, -1.05912357568740840000e-001) (6, 2.72365123033523560000e-001) (7, 1.03587172925472260000e-001) (8, 1.22046388685703280000e-001) (9, -5.33735096454620360000e-001) (10, 5.38273602724075320000e-002) (11, -3.33429157733917240000e-001) (12, 2.64254093170166020000e-001) (13, -4.30565983057022090000e-001) (14, 2.10049793124198910000e-001) (15, -2.89536714553833010000e-001) (16, 1.03780135512351990000e-001) (17, 1.21533852070569990000e-002) (18, -2.09468141198158260000e-001) (19, 8.00847113132476810000e-002) (20, -1.48589923977851870000e-001) (21, 1.29367172718048100000e-001) (22, 4.49794709682464600000e-001) (23, 6.56580477952957150000e-002) (24, -6.47308602929115300000e-002) (25, -2.00772453099489210000e-002) (26, 3.41468632221221920000e-001) (27, -3.73449772596359250000e-002) (28, -2.25851818919181820000e-001) (29, 6.33373379707336430000e-001) (30, -2.07003146409988400000e-001) (31, 7.46648073196411130000e-001) (32, -1.42722517251968380000e-001) (33, 1.28904163837432860000e-001) (34, -1.98884099721908570000e-001) (35, 3.27597320079803470000e-001) (36, -1.99036926031112670000e-001) (37, 2.59991027414798740000e-002) (38, 4.63644325733184810000e-001) (39, 2.44480401277542110000e-001) (40, 3.50572079420089720000e-001) (41, 1.41329288482666020000e-001) (42, -2.00174197554588320000e-001) (43, 7.56405293941497800000e-002) (44, -1.15091189742088320000e-001) (45, -1.37879759073257450000e-001) (46, -1.95531025528907780000e-001) (47, 9.15631800889968870000e-002) (48, -2.34820112586021420000e-001) (49, 3.15790683031082150000e-001) (50, -2.44878575205802920000e-001) (51, 2.01401904225349430000e-001) (52, -4.81018334627151490000e-001) (53, -8.80317413248121740000e-004) (54, -1.79461181163787840000e-001) (55, -1.73831179738044740000e-001) (56, 1.03910468518733980000e-001) (57, -3.36489826440811160000e-002) (58, -2.35314711928367610000e-001) (59, 3.83204549551010130000e-001) (60, 1.07149057090282440000e-001) (61, 6.19313418865203860000e-002) (62, -1.29025861620903020000e-001) (63, 2.96895205974578860000e-001) (64, -4.44936484098434450000e-001) (65, 5.04091978073120120000e-001) (66, 1.23682200908660890000e-001) (67, -4.18727397918701170000e-002) (68, -2.10353478789329530000e-001) (69, 5.36959134042263030000e-002) (70, 8.67819845676422120000e-001) (71, -8.92036259174346920000e-001) (72, 6.75812214612960820000e-002) (73, -4.46431964635849000000e-001) (74, -4.32177186012268070000e-001) (75, 2.23591089248657230000e+000) (76, -4.05002892017364500000e-001) (77, 7.55923807621002200000e-001) (78, 1.95004895329475400000e-001) (79, -1.18037343025207520000e+000) (80, -4.41413938999176030000e-001) (81, 8.57115745544433590000e-001) (82, -7.80260026454925540000e-001) (83, 1.18088245391845700000e+000) (84, -5.00648736953735350000e-001) (0, -3.26904691755771640000e-002) (1, 6.88094794750213620000e-002) (2, 1.82944506406784060000e-001) (3, 1.09522871673107150000e-001) (4, -1.62747308611869810000e-001) (5, -9.63136404752731320000e-002) (6, 9.63254347443580630000e-002) (7, -2.36685425043106080000e-002) (8, -1.04153916239738460000e-001) (9, -1.42450720071792600000e-001) (10, 1.24546833336353300000e-001) (11, 1.01491779088974000000e-001) (12, 2.47254129499197010000e-002) (13, 6.94523677229881290000e-002) (14, -7.99412652850151060000e-002) (15, 9.15150120854377750000e-002) (16, 2.13204957544803620000e-002) (17, 8.34392383694648740000e-002) (18, -2.37359758466482160000e-002) (19, -1.09363731462508440000e-003) (20, -1.36674940586090090000e-002) (21, 7.71324187517166140000e-002) (22, -3.90285737812519070000e-002) (23, 8.84718745946884160000e-002) (24, 2.25764885544776920000e-002) (25, 1.04041568934917450000e-001) (26, -4.76832650601863860000e-002) (27, 9.47795361280441280000e-002) (28, 1.01763069629669190000e-001) (29, 1.93433508276939390000e-001) (30, -1.57120734453201290000e-001) (31, -7.52116292715072630000e-002) (32, -4.86704055219888690000e-003) (33, 1.42045676708221440000e-001) (34, -5.01489192247390750000e-002) (35, 3.82765592075884340000e-003) (36, 4.55266945064067840000e-002) (37, 1.76870569586753850000e-001) (38, -1.78496539592742920000e-001) (39, -2.07645841874182220000e-003) (40, 4.46296222507953640000e-002) (41, 2.67056375741958620000e-001) (42, -2.18459740281105040000e-001) (43, -7.98305049538612370000e-002) (44, -6.84232190251350400000e-002) (45, 6.78782612085342410000e-002) (46, -2.61313289403915410000e-001) (47, -1.03333599865436550000e-001) (48, -1.17933116853237150000e-001) (49, -8.92309769988060000000e-002) (50, -2.52686649560928340000e-001) (51, -1.31279453635215760000e-001) (52, -8.35390836000442500000e-002) (53, 1.22243754565715790000e-001) (54, -3.46668541431427000000e-001) (55, -6.31105378270149230000e-002) (56, 9.40827652812004090000e-002) (57, 9.24132391810417180000e-002) (58, -4.46546524763107300000e-002) (59, 3.12581211328506470000e-002) (60, 2.25361566990613940000e-002) (61, 8.37929397821426390000e-002) (62, -1.15251941606402400000e-002) (63, 8.46988260746002200000e-002) (64, -7.15637579560279850000e-003) (65, 9.02567207813262940000e-002) (66, -4.00566961616277690000e-003) (67, 1.14080078899860380000e-001) (68, 3.06290294975042340000e-002) (69, 6.63656294345855710000e-002) (70, -4.75882329046726230000e-002) (71, 6.39620004221796990000e-003) (72, -5.83784170448780060000e-002) (73, 6.98212161660194400000e-003) (74, 2.48332191258668900000e-002) (75, 8.85363668203353880000e-002) (76, -4.78043332695961000000e-002) (77, 6.31930530071258540000e-002) (78, -1.48728415369987490000e-002) (79, 1.13122627139091490000e-001) (80, -6.97771087288856510000e-002) (81, -1.61563267465680840000e-003) (82, -6.60934671759605410000e-002) (83, 1.57325398176908490000e-002) (84, 1.29350693896412850000e-002) (0, 6.08723843470215800000e-003) (1, -1.90830230712890630000e-001) (2, -2.21947416663169860000e-001) (3, -5.96591345965862270000e-002) (4, 3.65104861557483670000e-002) (5, -1.27313479781150820000e-001) (6, 1.07733279466629030000e-001) (7, -4.80240546166896820000e-002) (8, -1.04222791269421580000e-002) (9, -1.24071761965751650000e-001) (10, -2.43166282773017880000e-001) (11, -4.86736781895160680000e-002) (12, -3.26708927750587460000e-002) (13, -1.77181333303451540000e-001) (14, 1.90375506877899170000e-001) (15, 4.66483719646930690000e-002) (16, 2.32674479484558110000e-001) (17, -4.60506416857242580000e-002) (18, 5.01237176358699800000e-002) (19, 2.21190378069877620000e-002) (20, 1.37201979756355290000e-001) (21, -2.55190376192331310000e-002) (22, 7.95894265174865720000e-002) (23, 5.75276948511600490000e-002) (24, 2.00874209403991700000e-001) (25, -8.51550896186381580000e-004) (26, 1.01605527102947240000e-001) (27, 8.55312794446945190000e-002) (28, -2.79678761959075930000e-001) (29, -3.30721676349639890000e-001) (30, 2.05097515136003490000e-002) (31, -1.54099524021148680000e-001) (32, -1.76374420523643490000e-001) (33, -2.60664701461791990000e-001) (34, -1.16450510919094090000e-001) (35, -6.03686235845088960000e-002) (36, -1.57548442482948300000e-001) (37, -2.17500075697898860000e-001) (38, 4.25828844308853150000e-002) (39, -8.72750952839851380000e-002) (40, -2.62765794992446900000e-001) (41, -3.90123188495635990000e-001) (42, 3.55665266513824460000e-001) (43, 1.72636032104492190000e-001) (44, -1.51118021458387370000e-002) (45, -8.69595110416412350000e-002) (46, 1.30270779132843020000e-001) (47, 7.97282904386520390000e-002) (48, 8.29844474792480470000e-002) (49, 2.24478423595428470000e-001) (50, 2.15461552143096920000e-001) (51, -4.54050377011299130000e-002) (52, 2.72190403193235400000e-002) (53, -1.03442266583442690000e-001) (54, 2.67771065235137940000e-001) (55, 1.94084763526916500000e-001) (56, -9.01568867266178130000e-003) (57, -1.79947670549154280000e-002) (58, 1.72902941703796390000e-002) (59, -4.76332977414131160000e-002) (60, 1.04713320732116700000e-001) (61, 9.11595008801668880000e-004) (62, -6.41844468191266060000e-003) (63, -1.46762505173683170000e-002) (64, 1.04870565235614780000e-001) (65, 9.86500680446624760000e-002) (66, -4.91194520145654680000e-003) (67, -9.91291925311088560000e-003) (68, 3.00134345889091490000e-002) (69, -8.69888514280319210000e-002) (70, -5.75006561120972040000e-005) (71, -1.42779350280761720000e-001) (72, 2.68745291978120800000e-002) (73, 1.13370297476649280000e-002) (74, 1.60284981131553650000e-001) (75, -2.74417828768491740000e-002) (76, 2.88749486207962040000e-002) (77, -5.48235550522804260000e-002) (78, 1.06664873659610750000e-001) (79, 9.62987020611763000000e-002) (80, 1.39864683151245120000e-001) (81, 1.42277190461754800000e-002) (82, 1.51084903627634050000e-002) (83, -1.23063370585441590000e-001) (84, -1.75267294049263000000e-001) (0, -5.06285578012466430000e-002) (1, 5.45972406864166260000e-001) (2, -2.27390900254249570000e-001) (3, 3.77010315656661990000e-001) (4, -1.30333766341209410000e-001) (5, 1.57017916440963750000e-001) (6, -4.68929827213287350000e-001) (7, 4.25434350967407230000e-001) (8, -1.27949595451354980000e-001) (9, 6.44020974636077880000e-001) (10, -9.75366905331611630000e-002) (11, 8.94792899489402770000e-002) (12, -1.22174620628356930000e-001) (13, 5.16557157039642330000e-001) (14, -2.53588974475860600000e-001) (15, 4.77438658475875850000e-001) (16, -3.70714634656906130000e-001) (17, -1.82480201125144960000e-001) (18, -1.55517399311065670000e-001) (19, -2.01813057065010070000e-001) (20, -1.49896908551454540000e-002) (21, -3.14663767814636230000e-001) (22, -1.17130868136882780000e-001) (23, 1.92139372229576110000e-001) (24, -7.84133374691009520000e-003) (25, -8.63076224923133850000e-002) (26, -9.03773400932550430000e-003) (27, 4.06314916908741000000e-002) (28, 8.98257493972778320000e-002) (29, -2.95549869537353520000e-001) (30, -1.49682775139808650000e-001) (31, -2.82233536243438720000e-001) (32, -1.93134263157844540000e-001) (33, -5.25908172130584720000e-001) (34, 2.79594540596008300000e-001) (35, 2.76940148323774340000e-002) (36, 2.56782263517379760000e-001) (37, -2.87565961480140690000e-003) (38, 1.21962256729602810000e-001) (39, -2.74884402751922610000e-001) (40, -3.30727905035018920000e-001) (41, -1.41224056482315060000e-001) (42, 1.96156099438667300000e-001) (43, 3.62475067377090450000e-001) (44, 1.48026719689369200000e-001) (45, -6.26920908689498900000e-002) (46, -2.47059226036071780000e-001) (47, -1.10840260982513430000e+000) (48, 3.81740555167198180000e-003) (49, -3.65191906690597530000e-001) (50, 1.65202066302299500000e-001) (51, 6.12731754779815670000e-001) (52, -5.71992881596088410000e-002) (53, -1.92674919962883000000e-001) (54, 1.74229085445404050000e-001) (55, -1.01736389100551610000e-001) (56, 3.11633527278900150000e-001) (57, 9.32663455605506900000e-002) (58, 8.79399180412292480000e-002) (59, 1.06793060898780820000e-001) (60, -7.86376476287841800000e-001) (61, -5.21201252937316890000e-001) (62, 6.95005655288696290000e-002) (63, -5.60186691582202910000e-002) (64, 1.26991581916809080000e+000) (65, 7.05414593219757080000e-001) (66, -2.81101822853088380000e-001) (67, -2.42763713002204900000e-001) (68, -4.53878849744796750000e-001) (69, 6.39791414141654970000e-002) (70, 3.29068005084991460000e-001) (71, -1.20109859853982930000e-002) (72, 4.98534232378005980000e-001) (73, 1.01008988916873930000e-001) (74, -5.22590398788452150000e-001) (75, -2.65679806470870970000e-001) (76, 1.21845588088035580000e-001) (77, -2.82992035150527950000e-001) (78, 1.05565321445465090000e+000) (79, 4.62675452232360840000e-001) (80, -4.14389073848724370000e-001) (81, 3.67542728781700130000e-002) (82, -3.92779678106307980000e-001) (83, -4.03420217335224150000e-002) (84, 1.09994083642959590000e-001) (0, 7.00203403830528260000e-002) (1, 1.49452418088912960000e-001) (2, 7.86504596471786500000e-002) (3, -4.15106862783432010000e-002) (4, -1.74860246479511260000e-002) (5, 4.22296188771724700000e-002) (6, -6.45942464470863340000e-002) (7, 5.42680583894252780000e-002) (8, -2.01389528810977940000e-002) (9, 1.16386972367763520000e-001) (10, 1.12732097506523130000e-001) (11, -1.39097213745117190000e-001) (12, 3.65091115236282350000e-002) (13, -2.61130519211292270000e-002) (14, -3.59656997025012970000e-002) (15, -1.27029404044151310000e-001) (16, -1.24084591865539550000e-001) (17, 1.74110811203718190000e-002) (18, -4.73427288234233860000e-002) (19, 1.13055035471916200000e-002) (20, -2.03870370984077450000e-001) (21, -5.11388555169105530000e-002) (22, -6.93010818213224410000e-003) (23, -7.42848613299429420000e-004) (24, -1.17447666823863980000e-001) (25, 1.81521363556385040000e-002) (26, -1.69000983238220210000e-001) (27, -1.53439283370971680000e-001) (28, -6.51988238096237180000e-002) (29, -1.65614932775497440000e-001) (30, 2.71897673606872560000e-001) (31, 2.02873736619949340000e-001) (32, 9.11945551633834840000e-002) (33, 1.73345267772674560000e-001) (34, -1.24803476035594940000e-001) (35, -1.95681855082511900000e-001) (36, 1.70293543487787250000e-003) (37, 1.07915654778480530000e-001) (38, 2.18266293406486510000e-001) (39, 2.57751226425170900000e-001) (40, -7.73914530873298650000e-002) (41, -2.25668773055076600000e-001) (42, 2.08686873316764830000e-001) (43, 4.28408011794090270000e-003) (44, -2.04670578241348270000e-001) (45, -1.68396040797233580000e-001) (46, -1.45825654268264770000e-001) (47, -7.58322775363922120000e-002) (48, 1.78787991404533390000e-001) (49, 2.29202255606651310000e-001) (50, -1.91819906234741210000e-001) (51, -8.20660218596458440000e-002) (52, -1.60861358046531680000e-001) (53, -1.46938890218734740000e-001) (54, 7.95427188277244570000e-002) (55, 1.84577554464340210000e-002) (56, -4.16149273514747620000e-002) (57, 5.32846786081790920000e-002) (58, 4.87706027925014500000e-002) (59, 3.47373560070991520000e-002) (60, 4.08736132085323330000e-002) (61, 1.23698569834232330000e-001) (62, -9.34004783630371090000e-002) (63, -1.94543991237878800000e-002) (64, 2.55160424858331680000e-002) (65, 1.14038482308387760000e-001) (66, -6.69021299108862880000e-003) (67, 2.83263865858316420000e-002) (68, 5.58503577485680580000e-003) (69, 3.49761359393596650000e-002) (70, 8.30759927630424500000e-002) (71, 1.57100826501846310000e-001) (72, -5.16921579837799070000e-002) (73, -2.16032601892948150000e-002) (74, -5.99380843341350560000e-002) (75, -6.63150399923324580000e-002) (76, 3.99066917598247530000e-002) (77, 1.21074775233864780000e-003) (78, -4.79875169694423680000e-002) (79, -3.54175940155982970000e-002) (80, -2.61480249464511870000e-002) (81, -1.14121688529849050000e-002) (82, -1.92804646212607620000e-003) (83, 8.93913507461547850000e-002) (84, -6.63642287254333500000e-002) (0, -2.04475909471511840000e-001) (1, 1.87945440411567690000e-001) (2, 1.41869321465492250000e-001) (3, -1.55918404459953310000e-001) (4, 2.38923095166683200000e-002) (5, 7.95850623399019240000e-003) (6, 6.02084286510944370000e-002) (7, 6.71979878097772600000e-003) (8, 3.17333303391933440000e-002) (9, -7.10106343030929570000e-002) (10, 1.43860384821891780000e-001) (11, -1.34783610701560970000e-001) (12, -3.19383502006530760000e-001) (13, 1.84574529528617860000e-001) (14, -8.60159546136856080000e-002) (15, 6.94762691855430600000e-002) (16, 1.50739371776580810000e-001) (17, 2.31365799903869630000e-001) (18, 4.27788160741329190000e-002) (19, 1.92974042147397990000e-002) (20, -7.81778246164321900000e-002) (21, -3.03883682936429980000e-002) (22, 6.20580352842807770000e-002) (23, 5.03848232328891750000e-002) (24, 1.05399779975414280000e-001) (25, 2.16637909412384030000e-001) (26, -2.37927079200744630000e-001) (27, 6.01558536291122440000e-002) (28, 1.20721384882926940000e-001) (29, 2.46752247214317320000e-001) (30, -7.27746263146400450000e-002) (31, 3.90916168689727780000e-002) (32, -1.97028577327728270000e-001) (33, -3.12011744827032090000e-002) (34, -7.79967010021209720000e-002) (35, -1.03424057364463810000e-001) (36, -9.95511636137962340000e-002) (37, -3.60693335533142090000e-002) (38, -1.42191201448440550000e-001) (39, 1.58747881650924680000e-002) (40, 7.37252458930015560000e-002) (41, 1.40889734029769900000e-001) (42, -1.18140771985054020000e-001) (43, 1.06436215341091160000e-001) (44, -1.17752976715564730000e-001) (45, -2.56763398647308350000e-002) (46, 1.05211697518825530000e-001) (47, 1.48658245801925660000e-001) (48, -5.63876628875732420000e-002) (49, -7.78507143259048460000e-002) (50, 1.83027777820825580000e-002) (51, 2.04612836241722110000e-001) (52, -1.51035830378532410000e-001) (53, -2.55718640983104710000e-002) (54, -1.17990888655185700000e-001) (55, 3.56166251003742220000e-002) (56, -1.01901151239871980000e-001) (57, -1.67769938707351680000e-002) (58, 2.67923083156347270000e-002) (59, 8.18746685981750490000e-002) (60, -4.63936887681484220000e-002) (61, 1.61959022283554080000e-001) (62, 1.59808486700057980000e-001) (63, 2.86840289831161500000e-001) (64, -3.29777821898460390000e-002) (65, 5.76520673930644990000e-002) (66, -7.11851008236408230000e-003) (67, 6.59857615828514100000e-002) (68, -2.07647278904914860000e-001) (69, -2.78256237506866460000e-002) (70, 2.13498324155807500000e-002) (71, 9.75569486618041990000e-002) (72, -3.60647216439247130000e-002) (73, 4.27194312214851380000e-002) (74, -1.10229723155498500000e-001) (75, 1.60682834684848790000e-002) (76, -1.24528437852859500000e-001) (77, 2.53173406235873700000e-003) (78, -1.77738487720489500000e-001) (79, -7.17490166425704960000e-002) (80, -7.73375928401947020000e-002) (81, 6.41734823584556580000e-002) (82, 1.98108069598674770000e-002) (83, 9.67508479952812190000e-002) (84, 7.51119805499911310000e-003) (0, -9.94436070322990420000e-002) (1, -1.17238415405154230000e-002) (2, -3.63403409719467160000e-001) (3, 1.30638971924781800000e-001) (4, -9.03701502829790120000e-003) (5, 9.78216063231229780000e-003) (6, -3.41822117567062380000e-001) (7, -1.30716100335121150000e-001) (8, -2.25183106958866120000e-002) (9, 1.38812912628054620000e-002) (10, -3.10068130493164060000e-001) (11, 1.67160809040069580000e-001) (12, -8.47843885421752930000e-002) (13, -8.15752372145652770000e-002) (14, 1.26902371644973750000e-001) (15, 3.23417335748672490000e-001) (16, 3.83818745613098140000e-002) (17, 3.48147228360176090000e-002) (18, 3.98284308612346650000e-002) (19, 1.36337384581565860000e-001) (20, 3.72275441884994510000e-001) (21, 4.07590180635452270000e-001) (22, 1.81332312058657410000e-003) (23, 1.04183711111545560000e-001) (24, 1.58851414918899540000e-001) (25, 5.80110289156436920000e-002) (26, 1.62370830774307250000e-001) (27, 3.54602187871932980000e-001) (28, -1.63613304495811460000e-001) (29, 1.24583691358566280000e-001) (30, -2.33801200985908510000e-001) (31, -1.97045743465423580000e-001) (32, -2.58504182100296020000e-001) (33, -1.14723369479179380000e-001) (34, -2.26413726806640630000e-001) (35, 8.49688425660133360000e-002) (36, -2.55230903625488280000e-001) (37, -1.18237696588039400000e-001) (38, -1.61658644676208500000e-001) (39, -2.16552153229713440000e-001) (40, -1.20268054306507110000e-001) (41, 1.76193237304687500000e-001) (42, -3.69097858667373660000e-001) (43, -9.20215528458356860000e-003) (44, 1.27961605787277220000e-001) (45, 1.51428744196891780000e-001) (46, 1.25695317983627320000e-001) (47, 1.18834257125854490000e-001) (48, 2.63139270246028900000e-002) (49, 1.65226399898529050000e-001) (50, 9.83050465583801270000e-002) (51, 1.50062322616577150000e-001) (52, 1.56252697110176090000e-001) (53, 1.53567209839820860000e-001) (54, -2.59830534458160400000e-001) (55, -1.35690290480852130000e-002) (56, -4.77148965001106260000e-002) (57, -1.22397113591432570000e-002) (58, -2.41533666849136350000e-002) (59, 