FANN_FLO_2.1
num_layers=3
learning_rate=0.500000
connection_rate=1.000000
network_type=0
learning_momentum=0.000000
training_algorithm=1
train_error_function=1
train_stop_function=0
cascade_output_change_fraction=0.010000
quickprop_decay=-0.000100
quickprop_mu=1.750000
rprop_increase_factor=1.200000
rprop_decrease_factor=0.500000
rprop_delta_min=0.000000
rprop_delta_max=50.000000
rprop_delta_zero=0.100000
cascade_output_stagnation_epochs=12
cascade_candidate_change_fraction=0.010000
cascade_candidate_stagnation_epochs=12
cascade_max_out_epochs=150
cascade_min_out_epochs=50
cascade_max_cand_epochs=150
cascade_min_cand_epochs=50
cascade_num_candidate_groups=2
bit_fail_limit=3.49999994039535520000e-001
cascade_candidate_limit=1.00000000000000000000e+003
cascade_weight_multiplier=4.00000005960464480000e-001
cascade_activation_functions_count=10
cascade_activation_functions=3 5 7 8 10 11 14 15 16 17 
cascade_activation_steepnesses_count=4
cascade_activation_steepnesses=2.50000000000000000000e-001 5.00000000000000000000e-001 7.50000000000000000000e-001 1.00000000000000000000e+000 
layer_sizes=85 81 2 
scale_included=0
neurons (num_inputs, activation_function, activation_steepness)=(0, 0, 0.00000000000000000000e+000) (0, 0, 0.00000000000000000000e+000) (0, 0, 0.00000000000000000000e+000) (0, 0, 0.00000000000000000000e+000) (0, 0, 0.00000000000000000000e+000) (0, 0, 0.00000000000000000000e+000) (0, 0, 0.00000000000000000000e+000) (0, 0, 0.00000000000000000000e+000) (0, 0, 0.00000000000000000000e+000) (0, 0, 0.00000000000000000000e+000) (0, 0, 0.00000000000000000000e+000) (0, 0, 0.00000000000000000000e+000) (0, 0, 0.00000000000000000000e+000) (0, 0, 0.00000000000000000000e+000) (0, 0, 0.00000000000000000000e+000) (0, 0, 0.00000000000000000000e+000) (0, 0, 0.00000000000000000000e+000) (0, 0, 0.00000000000000000000e+000) (0, 0, 0.00000000000000000000e+000) (0, 0, 0.00000000000000000000e+000) (0, 0, 0.00000000000000000000e+000) (0, 0, 0.00000000000000000000e+000) (0, 0, 0.00000000000000000000e+000) (0, 0, 0.00000000000000000000e+000) (0, 0, 0.00000000000000000000e+000) (0, 0, 0.00000000000000000000e+000) (0, 0, 0.00000000000000000000e+000) (0, 0, 0.00000000000000000000e+000) (0, 0, 0.00000000000000000000e+000) (0, 0, 0.00000000000000000000e+000) (0, 0, 0.00000000000000000000e+000) (0, 0, 0.00000000000000000000e+000) (0, 0, 0.00000000000000000000e+000) (0, 0, 0.00000000000000000000e+000) (0, 0, 0.00000000000000000000e+000) (0, 0, 0.00000000000000000000e+000) (0, 0, 0.00000000000000000000e+000) (0, 0, 0.00000000000000000000e+000) (0, 0, 0.00000000000000000000e+000) (0, 0, 0.00000000000000000000e+000) (0, 0, 0.00000000000000000000e+000) (0, 0, 0.00000000000000000000e+000) (0, 0, 0.00000000000000000000e+000) (0, 0, 0.00000000000000000000e+000) (0, 0, 0.00000000000000000000e+000) (0, 0, 0.00000000000000000000e+000) (0, 0, 0.00000000000000000000e+000) (0, 0, 0.00000000000000000000e+000) (0, 0, 0.00000000000000000000e+000) (0, 0, 0.00000000000000000000e+000) (0, 0, 0.00000000000000000000e+000) (0, 0, 0.00000000000000000000e+000) (0, 0, 0.00000000000000000000e+000) (0, 0, 0.00000000000000000000e+000) (0, 0, 0.00000000000000000000e+000) (0, 0, 0.00000000000000000000e+000) (0, 0, 0.00000000000000000000e+000) (0, 0, 0.00000000000000000000e+000) (0, 0, 0.00000000000000000000e+000) (0, 0, 0.00000000000000000000e+000) (0, 0, 0.00000000000000000000e+000) (0, 0, 0.00000000000000000000e+000) (0, 0, 0.00000000000000000000e+000) (0, 0, 0.00000000000000000000e+000) (0, 0, 0.00000000000000000000e+000) (0, 0, 0.00000000000000000000e+000) (0, 0, 0.00000000000000000000e+000) (0, 0, 0.00000000000000000000e+000) (0, 0, 0.00000000000000000000e+000) (0, 0, 0.00000000000000000000e+000) (0, 0, 0.00000000000000000000e+000) (0, 0, 0.00000000000000000000e+000) (0, 0, 0.00000000000000000000e+000) (0, 0, 0.00000000000000000000e+000) (0, 0, 0.00000000000000000000e+000) (0, 0, 0.00000000000000000000e+000) (0, 0, 0.00000000000000000000e+000) (0, 0, 0.00000000000000000000e+000) (0, 0, 0.00000000000000000000e+000) (0, 0, 0.00000000000000000000e+000) (0, 0, 0.00000000000000000000e+000) (0, 0, 0.00000000000000000000e+000) (0, 0, 0.00000000000000000000e+000) (0, 0, 0.00000000000000000000e+000) (0, 0, 0.00000000000000000000e+000) (85, 6, 1.00000000000000000000e+000) (85, 6, 1.00000000000000000000e+000) (85, 6, 1.00000000000000000000e+000) (85, 6, 1.00000000000000000000e+000) (85, 6, 1.00000000000000000000e+000) (85, 6, 1.00000000000000000000e+000) (85, 6, 1.00000000000000000000e+000) (85, 6, 1.00000000000000000000e+000) (85, 6, 1.00000000000000000000e+000) (85, 6, 1.00000000000000000000e+000) (85, 6, 1.00000000000000000000e+000) (85, 6, 1.00000000000000000000e+000) (85, 6, 1.00000000000000000000e+000) (85, 6, 1.00000000000000000000e+000) (85, 6, 1.00000000000000000000e+000) (85, 6, 1.00000000000000000000e+000) (85, 6, 1.00000000000000000000e+000) (85, 6, 1.00000000000000000000e+000) (85, 6, 1.00000000000000000000e+000) (85, 6, 1.00000000000000000000e+000) (85, 6, 1.00000000000000000000e+000) (85, 6, 1.00000000000000000000e+000) (85, 6, 1.00000000000000000000e+000) (85, 6, 1.00000000000000000000e+000) (85, 6, 1.00000000000000000000e+000) (85, 6, 1.00000000000000000000e+000) (85, 6, 1.00000000000000000000e+000) (85, 6, 1.00000000000000000000e+000) (85, 6, 1.00000000000000000000e+000) (85, 6, 1.00000000000000000000e+000) (85, 6, 1.00000000000000000000e+000) (85, 6, 1.00000000000000000000e+000) (85, 6, 1.00000000000000000000e+000) (85, 6, 1.00000000000000000000e+000) (85, 6, 1.00000000000000000000e+000) (85, 6, 1.00000000000000000000e+000) (85, 6, 1.00000000000000000000e+000) (85, 6, 1.00000000000000000000e+000) (85, 6, 1.00000000000000000000e+000) (85, 6, 1.00000000000000000000e+000) (85, 6, 1.00000000000000000000e+000) (85, 6, 1.00000000000000000000e+000) (85, 6, 1.00000000000000000000e+000) (85, 6, 1.00000000000000000000e+000) (85, 6, 1.00000000000000000000e+000) (85, 6, 1.00000000000000000000e+000) (85, 6, 1.00000000000000000000e+000) (85, 6, 1.00000000000000000000e+000) (85, 6, 1.00000000000000000000e+000) (85, 6, 1.00000000000000000000e+000) (85, 6, 1.00000000000000000000e+000) (85, 6, 1.00000000000000000000e+000) (85, 6, 1.00000000000000000000e+000) (85, 6, 1.00000000000000000000e+000) (85, 6, 1.00000000000000000000e+000) (85, 6, 1.00000000000000000000e+000) (85, 6, 1.00000000000000000000e+000) (85, 6, 1.00000000000000000000e+000) (85, 6, 1.00000000000000000000e+000) (85, 6, 1.00000000000000000000e+000) (85, 6, 1.00000000000000000000e+000) (85, 6, 1.00000000000000000000e+000) (85, 6, 1.00000000000000000000e+000) (85, 6, 1.00000000000000000000e+000) (85, 6, 1.00000000000000000000e+000) (85, 6, 1.00000000000000000000e+000) (85, 6, 1.00000000000000000000e+000) (85, 6, 1.00000000000000000000e+000) (85, 6, 1.00000000000000000000e+000) (85, 6, 1.00000000000000000000e+000) (85, 6, 1.00000000000000000000e+000) (85, 6, 1.00000000000000000000e+000) (85, 6, 1.00000000000000000000e+000) (85, 6, 1.00000000000000000000e+000) (85, 6, 1.00000000000000000000e+000) (85, 6, 1.00000000000000000000e+000) (85, 6, 1.00000000000000000000e+000) (85, 6, 1.00000000000000000000e+000) (85, 6, 1.00000000000000000000e+000) (85, 6, 1.00000000000000000000e+000) (0, 6, 1.00000000000000000000e+000) (81, 6, 1.00000000000000000000e+000) (0, 6, 1.00000000000000000000e+000) 
connections (connected_to_neuron, weight)=(0, 2.99319207668304440000e-001) (1, -2.67711192369461060000e-001) (2, 6.09740763902664180000e-002) (3, 1.97566270828247070000e-001) (4, 1.62675246596336360000e-001) (5, -1.05559930205345150000e-001) (6, -6.61978200078010560000e-002) (7, 1.36459991335868840000e-001) (8, 6.51001557707786560000e-002) (9, -1.44463524222373960000e-001) (10, 4.11071702837944030000e-002) (11, 1.41930788755416870000e-001) (12, 2.41616815328598020000e-001) (13, -2.45096668601036070000e-001) (14, 4.59321551024913790000e-002) (15, 6.52578324079513550000e-002) (16, 5.64135164022445680000e-002) (17, -1.74829408526420590000e-001) (18, 6.53716325759887700000e-002) (19, 6.61367177963256840000e-002) (20, 2.01593130826950070000e-001) (21, -2.00176373124122620000e-001) (22, -1.40050891786813740000e-002) (23, -8.00625793635845180000e-003) (24, 3.77197470515966420000e-003) (25, -2.30918318033218380000e-001) (26, -3.70721817016601560000e-002) (27, -6.16138912737369540000e-002) (28, -9.18122082948684690000e-002) (29, 2.45684400200843810000e-001) (30, 1.46911531686782840000e-001) (31, 9.13187395781278610000e-003) (32, 1.35450497269630430000e-001) (33, -4.05936576426029210000e-002) (34, 5.49421198666095730000e-002) (35, -1.14458933472633360000e-001) (36, 9.73736494779586790000e-002) (37, -7.15796276926994320000e-002) (38, 6.25761449337005620000e-002) (39, 4.61991652846336360000e-002) (40, -1.69301271438598630000e-001) (41, 2.25789725780487060000e-001) (42, -9.30110439658164980000e-002) (43, 1.98909286409616470000e-002) (44, 7.88369998335838320000e-002) (45, 4.01220172643661500000e-002) (46, 1.93054471164941790000e-002) (47, 6.14822003990411760000e-003) (48, 1.38627618551254270000e-001) (49, -5.84432855248451230000e-003) (50, -2.66607999801635740000e-002) (51, -4.33115325868129730000e-002) (52, -7.72213749587535860000e-003) (53, -1.18394397199153900000e-001) (54, -4.44780588150024410000e-002) (55, -2.70371641963720320000e-002) (56, 9.58148315548896790000e-002) (57, -9.22519639134407040000e-002) (58, -5.17307370901107790000e-002) (59, 8.98310355842113490000e-003) (60, 5.34960404038429260000e-002) (61, 1.02073051035404210000e-001) (62, -7.96690806746482850000e-002) (63, -1.44366994500160220000e-001) (64, -3.26698720455169680000e-002) (65, -2.28217355906963350000e-002) (66, -4.01263646781444550000e-002) (67, -5.09820319712162020000e-002) (68, -5.19892834126949310000e-002) (69, -4.10517677664756770000e-002) (70, -1.28401862457394600000e-003) (71, -3.07370144873857500000e-002) (72, 5.23916035890579220000e-002) (73, -9.16889403015375140000e-003) (74, -2.12693680077791210000e-002) (75, -2.14752554893493650000e-002) (76, 8.74452292919158940000e-002) (77, 1.75244882702827450000e-001) (78, -1.63251623511314390000e-001) (79, -1.18232928216457370000e-001) (80, -3.00495028495788570000e-002) (81, -3.87889482080936430000e-002) (82, 1.16633653640747070000e-001) (83, 4.08096015453338620000e-002) (84, 3.36680351756513120000e-003) (0, 1.14208802580833440000e-001) (1, 5.98725415766239170000e-002) (2, 6.84744492173194890000e-003) (3, -2.06985250115394590000e-001) (4, 8.04337263107299800000e-002) (5, 1.85664265882223840000e-003) (6, -5.41602866724133490000e-003) (7, 3.61424274742603300000e-002) (8, 1.11523732542991640000e-001) (9, 3.94833274185657500000e-002) (10, 6.22921390458941460000e-003) (11, -1.92127108573913570000e-001) (12, 8.29214602708816530000e-002) (13, 9.56710055470466610000e-002) (14, -3.41943018138408660000e-002) (15, 2.61630266904830930000e-001) (16, 3.13613474369049070000e-001) (17, -1.15748219192028050000e-001) (18, -2.75816824287176130000e-002) (19, -1.48249268531799320000e-001) (20, 3.35568748414516450000e-002) (21, -1.68432682752609250000e-001) (22, -1.79007705301046370000e-002) (23, -1.21642701327800750000e-001) (24, 2.76571810245513920000e-001) (25, -7.77745395898818970000e-002) (26, -6.45380169153213500000e-002) (27, 2.84191012382507320000e-001) (28, -2.05064088106155400000e-001) (29, 3.40681821107864380000e-002) (30, 1.18294022977352140000e-001) (31, -3.69295142590999600000e-002) (32, 7.28940218687057500000e-002) (33, -2.39535123109817500000e-001) (34, 1.79930120706558230000e-001) (35, 1.83693528175354000000e-001) (36, 1.68781489133834840000e-001) (37, -1.60756319761276250000e-001) (38, 2.37184718251228330000e-001) (39, -1.83932092040777210000e-002) (40, -1.74317136406898500000e-001) (41, 9.03044939041137700000e-002) (42, -1.51174724102020260000e-001) (43, -1.18581406772136690000e-001) (44, 2.40171123296022420000e-002) (45, -1.93746364675462250000e-003) (46, 1.00377812981605530000e-001) (47, -6.89903050661087040000e-002) (48, 5.85399344563484190000e-002) (49, -1.10899910330772400000e-001) (50, 1.33863255381584170000e-001) (51, 6.36920507531613110000e-004) (52, 1.02800212800502780000e-001) (53, -2.34344899654388430000e-002) (54, -7.60327875614166260000e-002) (55, -1.33035212755203250000e-001) (56, 6.94241821765899660000e-002) (57, 1.28026962280273440000e-001) (58, -1.35167017579078670000e-001) (59, -7.25663304328918460000e-002) (60, 1.11794201657176020000e-002) (61, -6.76365122199058530000e-002) (62, 4.39415164291858670000e-002) (63, -1.55690029263496400000e-001) (64, 1.26068264245986940000e-001) (65, 1.60240549594163890000e-002) (66, -1.64199844002723690000e-001) (67, -9.49819907546043400000e-002) (68, 4.89674061536788940000e-002) (69, 1.73524186015129090000e-001) (70, 7.24476343020796780000e-003) (71, 5.59934647753834720000e-003) (72, 7.63107687234878540000e-002) (73, -3.99679914116859440000e-002) (74, -9.08606126904487610000e-002) (75, -8.21600630879402160000e-002) (76, 3.81646640598773960000e-002) (77, -1.11373454332351680000e-001) (78, 2.06844098865985870000e-002) (79, -8.68849009275436400000e-002) (80, 1.37611567974090580000e-001) (81, -7.57389366626739500000e-002) (82, -2.08143740892410280000e-002) (83, -4.63506653904914860000e-002) (84, 1.44325315952301030000e-001) (0, -6.07893206179142000000e-002) (1, 3.51368874311447140000e-001) (2, 1.16098426282405850000e-001) (3, -1.21610149741172790000e-001) (4, -1.48192523047328000000e-002) (5, 4.30868007242679600000e-002) (6, 1.25382781028747560000e-001) (7, -4.34390865266323090000e-002) (8, -1.06508791446685790000e-001) (9, 5.35161904990673070000e-002) (10, 1.35587513446807860000e-001) (11, -1.09965346753597260000e-001) (12, -1.72125995159149170000e-001) (13, 4.47068989276885990000e-001) (14, 1.64198905229568480000e-001) (15, -1.53361469507217410000e-001) (16, 2.66887396574020390000e-001) (17, -7.27380961179733280000e-002) (18, -2.55778953433036800000e-002) (19, -6.48709833621978760000e-002) (20, -2.12923303246498110000e-001) (21, 1.49748325347900390000e-001) (22, -3.52940261363983150000e-002) (23, -6.58590644598007200000e-002) (24, 2.54555493593215940000e-001) (25, -9.78663191199302670000e-002) (26, 1.09627403318881990000e-001) (27, -2.74581998586654660000e-001) (28, 1.10661916434764860000e-001) (29, -1.19167178869247440000e-001) (30, -3.39465551078319550000e-002) (31, -2.60285198688507080000e-001) (32, 2.89347339421510700000e-002) (33, 2.79978308826684950000e-002) (34, 3.71321977581828830000e-004) (35, -1.58849343657493590000e-001) (36, 5.85834532976150510000e-002) (37, 7.25658163428306580000e-002) (38, -6.38677552342414860000e-002) (39, -2.28422835469245910000e-001) (40, 1.23914562165737150000e-001) (41, -1.11745081841945650000e-001) (42, 2.02865563333034520000e-002) (43, -5.29848299920558930000e-002) (44, 2.04451933503150940000e-001) (45, 2.46583223342895510000e-001) (46, 1.24714992940425870000e-001) (47, 1.34369879961013790000e-001) (48, -4.75999824702739720000e-002) (49, -1.95925936102867130000e-001) (50, 1.38101011514663700000e-001) (51, 1.08805961906909940000e-001) (52, 1.95326626300811770000e-001) (53, 2.75079190731048580000e-001) (54, -4.62714768946170810000e-003) (55, -5.61529770493507390000e-002) (56, -1.58258602023124690000e-001) (57, 4.51090149581432340000e-002) (58, -8.10231789946556090000e-002) (59, -2.09249034523963930000e-001) (60, -5.46961789950728420000e-003) (61, -1.58766508102416990000e-002) (62, 1.88285976648330690000e-001) (63, 1.00950427353382110000e-001) (64, 2.47282925993204120000e-002) (65, 1.11730471253395080000e-001) (66, -1.19060285389423370000e-001) (67, -2.34807640314102170000e-001) (68, -9.14286598563194270000e-002) (69, 1.67177710682153700000e-002) (70, 2.47809309512376790000e-002) (71, 5.83132319152355190000e-002) (72, 3.76495011150836940000e-002) (73, -2.32870150357484820000e-002) (74, -1.30172058939933780000e-001) (75, -1.60629868507385250000e-001) (76, 1.83453783392906190000e-002) (77, -1.51152238249778750000e-001) (78, -1.45637979730963710000e-002) (79, -5.35554476082324980000e-002) (80, -5.63249960541725160000e-002) (81, -8.67401361465454100000e-002) (82, -1.02077554911375050000e-002) (83, 9.17565915733575820000e-003) (84, 1.29646509885787960000e-001) (0, -3.54442894458770750000e-001) (1, 5.06391048431396480000e-001) (2, -5.17694987356662750000e-002) (3, -3.81731837987899780000e-002) (4, -2.26042211055755620000e-001) (5, -3.15551948733627800000e-003) (6, -3.12041550874710080000e-001) (7, 2.87566095590591430000e-001) (8, -2.28750929236412050000e-001) (9, 3.41487000696361060000e-003) (10, -2.47839428484439850000e-002) (11, -3.71066182851791380000e-002) (12, -3.17524701356887820000e-001) (13, 4.85163152217864990000e-001) (14, -8.59943106770515440000e-002) (15, -1.70698631554842000000e-002) (16, 1.58867031335830690000e-001) (17, -3.09290420264005660000e-002) (18, 8.89643803238868710000e-002) (19, -1.04128196835517880000e-001) (20, -1.53395608067512510000e-001) (21, -7.17621147632598880000e-002) (22, 9.06442105770111080000e-002) (23, -1.05540797114372250000e-001) (24, 1.34912744164466860000e-001) (25, -7.51247033476829530000e-002) (26, -4.87622134387493130000e-002) (27, 1.49590307846665380000e-002) (28, 8.30803886055946350000e-002) (29, -1.02515108883380890000e-001) (30, 4.93206046521663670000e-002) (31, -1.66482731699943540000e-001) (32, 3.24349224567413330000e-001) (33, -2.50807106494903560000e-001) (34, 9.20685157179832460000e-002) (35, -3.20587247610092160000e-001) (36, 3.17439794540405270000e-001) (37, -2.47391656041145320000e-001) (38, 4.70242314040660860000e-002) (39, -1.55590817332267760000e-001) (40, 7.64948353171348570000e-002) (41, -1.00033529102802280000e-001) (42, -5.19918948411941530000e-002) (43, 1.59845769405364990000e-001) (44, 2.42286667227745060000e-001) (45, 1.18453964591026310000e-001) (46, 1.76502123475074770000e-001) (47, -1.54299199581146240000e-001) (48, 8.30624699592590330000e-002) (49, 4.92305979132652280000e-002) (50, 1.83802843093872070000e-001) (51, -1.63965478539466860000e-001) (52, 2.78699845075607300000e-001) (53, 1.27012148499488830000e-001) (54, -3.88469696044921880000e-002) (55, 1.86098963022232060000e-001) (56, -5.62010966241359710000e-002) (57, -1.92439511418342590000e-001) (58, 1.38463273644447330000e-001) (59, -1.48654133081436160000e-001) (60, 1.21020227670669560000e-001) (61, -1.86595618724823000000e-001) (62, -1.46511137485504150000e-001) (63, -2.47303768992424010000e-001) (64, 1.01848319172859190000e-001) (65, -1.94496974349021910000e-001) (66, 1.79067850112915040000e-001) (67, -1.37617886066436770000e-001) (68, -8.21009948849678040000e-002) (69, -1.72625690698623660000e-001) (70, 1.63650974631309510000e-001) (71, -1.16491928696632390000e-001) (72, 1.01255334913730620000e-001) (73, -1.08761623501777650000e-001) (74, 1.60011351108551030000e-001) (75, 1.13402334973216060000e-002) (76, 2.83217102289199830000e-001) (77, 1.75539031624794010000e-001) (78, 1.51920616626739500000e-001) (79, -1.48442061617970470000e-002) (80, 9.41635742783546450000e-002) (81, -1.03293709456920620000e-001) (82, 1.45046010613441470000e-001) (83, -9.30584520101547240000e-002) (84, -1.24458439648151400000e-001) (0, 4.08494919538497920000e-002) (1, -1.56231641769409180000e-001) (2, -2.20215424895286560000e-001) (3, 4.34142976999282840000e-001) (4, -1.80853307247161870000e-002) (5, 2.55958419293165210000e-002) (6, -4.83386069536209110000e-002) (7, -6.97305649518966670000e-002) (8, -1.07676915824413300000e-001) (9, 6.04114308953285220000e-002) (10, -3.07667523622512820000e-001) (11, 4.63260233402252200000e-001) (12, 6.27890154719352720000e-002) (13, -2.33322158455848690000e-001) (14, 1.04160629212856290000e-001) (15, -8.99445638060569760000e-002) (16, 9.93697419762611390000e-002) (17, -2.36119508743286130000e-001) (18, 1.92641869187355040000e-001) (19, -3.81465046666562560000e-003) (20, 2.27706953883171080000e-002) (21, -5.61134330928325650000e-002) (22, 9.04925242066383360000e-002) (23, -1.02340228855609890000e-001) (24, 6.44756630063056950000e-002) (25, -3.18094491958618160000e-001) (26, 9.65199619531631470000e-002) (27, -1.68503761291503910000e-001) (28, 1.65315985679626460000e-001) (29, -1.02776922285556790000e-001) (30, 2.76783704757690430000e-001) (31, 6.60132765769958500000e-002) (32, 1.02709874510765080000e-001) (33, -3.70988957583904270000e-002) (34, 1.22424833476543430000e-001) (35, 1.56994983553886410000e-001) (36, 3.32061238586902620000e-002) (37, -1.04987189173698430000e-001) (38, 1.59878164529800420000e-001) (39, -5.97108416259288790000e-002) (40, 2.13565990328788760000e-001) (41, -7.52014666795730590000e-002) (42, 7.77782499790191650000e-002) (43, -1.30100160837173460000e-001) (44, 9.82269123196601870000e-002) (45, -3.98594252765178680000e-002) (46, 8.45246016979217530000e-002) (47, -1.34894087910652160000e-001) (48, 4.51593697071075440000e-002) (49, -2.59220033884048460000e-001) (50, 2.23623942583799360000e-002) (51, -1.79716482758522030000e-001) (52, 8.09116736054420470000e-002) (53, -5.17263114452362060000e-002) (54, 7.47983902692794800000e-002) (55, -2.36268579959869380000e-001) (56, 1.06117308139801030000e-001) (57, -1.71959683299064640000e-001) (58, 1.40144824981689450000e-001) (59, -6.56013786792755130000e-002) (60, 2.19118699431419370000e-001) (61, -6.52672164142131810000e-003) (62, 7.54068270325660710000e-002) (63, -8.97324159741401670000e-002) (64, 1.25944510102272030000e-001) (65, -1.43988460302352910000e-001) (66, 3.09807304292917250000e-002) (67, -1.20272777974605560000e-001) (68, 6.26766756176948550000e-002) (69, -1.99440062046051030000e-001) (70, 1.71330213546752930000e-001) (71, -2.28143427520990370000e-002) (72, 5.10231107473373410000e-002) (73, -9.71991196274757390000e-002) (74, 3.69837731122970580000e-002) (75, -2.26805761456489560000e-001) (76, 3.70702818036079410000e-002) (77, -8.40166658163070680000e-002) (78, 5.60619030147790910000e-003) (79, -2.66628593206405640000e-001) (80, -6.78961398079991340000e-003) (81, -2.19026163220405580000e-001) (82, 1.13602578639984130000e-001) (83, -1.62846028804779050000e-001) (84, 2.57548302412033080000e-001) (0, -3.82743664085865020000e-002) (1, 1.44863381981849670000e-001) (2, 1.74747049808502200000e-001) (3, -7.26268664002418520000e-002) (4, -7.85404816269874570000e-002) (5, 9.95394494384527210000e-003) (6, 6.64738044142723080000e-002) (7, 5.52400723099708560000e-002) (8, -1.50032311677932740000e-001) (9, 3.60161438584327700000e-002) (10, 1.71178877353668210000e-001) (11, -1.61090508103370670000e-001) (12, 1.31997838616371150000e-002) (13, 2.60440409183502200000e-001) (14, -2.40091197192668910000e-002) (15, -1.09870873391628270000e-001) (16, -1.27921819686889650000e-001) (17, -1.16835311055183410000e-002) (18, 1.12008228898048400000e-002) (19, 8.14906135201454160000e-002) (20, -2.52074897289276120000e-002) (21, 1.86445355415344240000e-001) (22, -1.59440085291862490000e-001) (23, 1.74730978906154630000e-002) (24, 2.42330096662044530000e-002) (25, 4.51435260474681850000e-002) (26, -2.60852854698896410000e-002) (27, -1.24360946938395500000e-002) (28, 1.51140138506889340000e-001) (29, -1.98465079069137570000e-001) (30, 3.25080305337905880000e-002) (31, -6.55044689774513240000e-002) (32, -1.44211119040846820000e-002) (33, -1.06461986433714630000e-003) (34, -4.48343418538570400000e-002) (35, 2.74474862962961200000e-002) (36, -1.69976726174354550000e-002) (37, -1.45893301814794540000e-002) (38, 7.81294181942939760000e-002) (39, -5.08052483201026920000e-002) (40, 1.20249569416046140000e-001) (41, -1.65637850761413570000e-001) (42, 1.10982887446880340000e-001) (43, -6.55182600021362300000e-002) (44, -4.57580946385860440000e-002) (45, -5.12716956436634060000e-002) (46, 1.46223574876785280000e-001) (47, 5.12173883616924290000e-002) (48, 2.34202146530151370000e-002) (49, -5.98341375589370730000e-002) (50, 7.61855989694595340000e-002) (51, 2.68939271336421370000e-004) (52, -5.93829937279224400000e-002) (53, -5.56709580123424530000e-002) (54, 4.09701131284236910000e-002) (55, -1.17980033159255980000e-001) (56, 5.42671009898185730000e-002) (57, -6.53555318713188170000e-002) (58, 7.74545446038246150000e-002) (59, -4.75585646927356720000e-002) (60, 8.10975059866905210000e-002) (61, 3.59259471297264100000e-002) (62, 6.07682205736637120000e-002) (63, -4.61947964504361150000e-003) (64, -3.46829667687416080000e-002) (65, -7.47067332267761230000e-002) (66, -5.62784001231193540000e-002) (67, -1.46053746342659000000e-001) (68, 5.18167540431022640000e-002) (69, -3.80440726876258850000e-002) (70, 4.09403108060359950000e-002) (71, -8.35983902215957640000e-002) (72, 1.27909019589424130000e-001) (73, 4.94189094752073290000e-003) (74, 1.84921864420175550000e-002) (75, -4.06674947589635850000e-003) (76, -8.80655422806739810000e-002) (77, -1.71961545944213870000e-001) (78, -2.33570523560047150000e-002) (79, -4.80259880423545840000e-002) (80, 1.04789711534976960000e-001) (81, -1.07330700848251580000e-003) (82, -3.64461913704872130000e-002) (83, -1.22576370835304260000e-001) (84, 1.40912264585495000000e-001) (0, -1.22978478670120240000e-001) (1, 1.90657511353492740000e-001) (2, 2.84861046820878980000e-002) (3, 2.04539448022842410000e-001) (4, -8.41932296752929690000e-002) (5, 1.26682311296463010000e-001) (6, -3.53167504072189330000e-002) (7, 1.05654150247573850000e-001) (8, -1.03646576404571530000e-001) (9, 1.39638438820838930000e-001) (10, 8.03321003913879390000e-002) (11, 1.29176735877990720000e-001) (12, -1.59772589802742000000e-001) (13, 1.42956167459487920000e-001) (14, -3.94203364849090580000e-002) (15, -1.02693766355514530000e-001) (16, -1.43469139933586120000e-001) (17, 2.25372955203056340000e-001) (18, -6.96747452020645140000e-002) (19, 7.17670992016792300000e-002) (20, 1.78119122982025150000e-001) (21, -1.22911527752876280000e-001) (22, -1.05357006192207340000e-001) (23, 1.95411797612905500000e-002) (24, -1.65830478072166440000e-001) (25, 1.43208786845207210000e-001) (26, -2.17207483947277070000e-002) (27, -1.41850292682647710000e-001) (28, -2.02596448361873630000e-002) (29, -1.25991180539131160000e-001) (30, -2.92762041091918950000e-001) (31, -1.10876061022281650000e-001) (32, -1.36027391999959950000e-002) (33, 2.42859408259391780000e-001) (34, 1.82730481028556820000e-002) (35, -9.84208956360816960000e-002) (36, -7.61020230129361150000e-003) (37, 2.12422952055931090000e-001) (38, -3.22723507881164550000e-001) (39, -1.11660577356815340000e-001) (40, 1.58410333096981050000e-002) (41, -1.50512710213661190000e-001) (42, -5.66774271428585050000e-002) (43, 2.12324619293212890000e-001) (44, 9.47756841778755190000e-002) (45, 1.37597128748893740000e-001) (46, -1.55515998601913450000e-001) (47, -9.54479500651359560000e-002) (48, 7.00099999085068700000e-003) (49, 4.37846891582012180000e-002) (50, -1.17438785731792450000e-001) (51, -1.33199200034141540000e-001) (52, 2.11574416607618330000e-003) (53, 1.00801400840282440000e-001) (54, -1.63073763251304630000e-001) (55, 1.91810041666030880000e-001) (56, 9.23080369830131530000e-002) (57, 9.33518707752227780000e-002) (58, 5.30788376927375790000e-002) (59, -7.54966586828231810000e-002) (60, 9.88213270902633670000e-002) (61, -4.66586537659168240000e-002) (62, 5.98023645579814910000e-003) (63, -9.80458036065101620000e-002) (64, 3.68030853569507600000e-002) (65, -1.77161637693643570000e-002) (66, -2.97807678580284120000e-002) (67, -1.33964926004409790000e-001) (68, 1.30011975765228270000e-001) (69, 6.41060248017311100000e-002) (70, 5.33613376319408420000e-003) (71, -4.35507632791996000000e-002) (72, -5.43277449905872340000e-002) (73, 9.34819206595420840000e-002) (74, 1.18959382176399230000e-001) (75, -5.17115592956542970000e-002) (76, 5.44377556070685390000e-003) (77, 4.77715767920017240000e-002) (78, 4.03216220438480380000e-002) (79, -1.21156774461269380000e-001) (80, -5.18587864935398100000e-002) (81, 1.31721243262290950000e-001) (82, -7.11730634793639180000e-003) (83, 3.28011251986026760000e-002) (84, 4.46622520685195920000e-002) (0, 1.14588864147663120000e-001) (1, -9.92693156003952030000e-002) (2, -4.46781575679779050000e-001) (3, 4.88204985857009890000e-001) (4, 1.72426849603652950000e-001) (5, -4.97976355254650120000e-002) (6, -1.50948427617549900000e-002) (7, -2.94013828039169310000e-001) (8, 1.07550233602523800000e-001) (9, -9.67119857668876650000e-002) (10, -4.87160712480545040000e-001) (11, 4.55699443817138670000e-001) (12, 2.53080707043409350000e-002) (13, -1.07136508449912070000e-002) (14, 6.78329691290855410000e-002) (15, 1.01958200335502620000e-001) (16, 3.67494933307170870000e-002) (17, 3.38105633854866030000e-002) (18, -2.35530044883489610000e-002) (19, -1.13169021904468540000e-001) (20, 2.55413293838500980000e-001) (21, -2.52836942672729490000e-001) (22, -9.52390730381011960000e-002) (23, -1.52427077293396000000e-001) (24, 8.36097225546836850000e-002) (25, 8.97829979658126830000e-002) (26, 3.77419330179691310000e-002) (27, 1.23171925544738770000e-001) (28, 1.63956545293331150000e-002) (29, -1.85881018638610840000e-001) (30, 6.12812712788581850000e-002) (31, -8.55083838105201720000e-002) (32, -1.19216386228799820000e-002) (33, -1.52534088119864460000e-002) (34, 2.67311692237854000000e-001) (35, 7.62473652139306070000e-003) (36, -4.71026599407196040000e-002) (37, -9.08656604588031770000e-003) (38, 3.19729633629322050000e-002) (39, -8.97205471992492680000e-002) (40, 8.75573325902223590000e-003) (41, -2.28570029139518740000e-001) (42, 1.96915511041879650000e-002) (43, 3.16987000405788420000e-002) (44, 1.71702739316970110000e-003) (45, -2.83711850643157960000e-001) (46, 1.89176172018051150000e-001) (47, 2.70865354686975480000e-002) (48, 1.52020961046218870000e-001) (49, 6.61301566287875180000e-003) (50, 1.13061018288135530000e-001) (51, -1.43420351669192310000e-002) (52, 1.66386453201994300000e-004) (53, -3.05433452129364010000e-001) (54, 5.26985339820384980000e-002) (55, 2.59197708219289780000e-002) (56, -5.01116132363677020000e-003) (57, 3.07721104472875600000e-002) (58, 1.52574315667152400000e-001) (59, 1.31970524787902830000e-001) (60, -1.51276784017682080000e-002) (61, -5.52961267530918120000e-002) (62, 6.16845628246665000000e-003) (63, -1.45078584551811220000e-001) (64, -2.81976480036973950000e-002) (65, -6.86967670917510990000e-002) (66, 1.73773705959320070000e-001) (67, 1.44970342516899110000e-001) (68, 1.19503596797585490000e-002) (69, 3.44091430306434630000e-002) (70, 2.39261556416749950000e-002) (71, 1.23177552595734600000e-002) (72, -6.14944957196712490000e-002) (73, 3.09884897433221340000e-003) (74, 3.42481248080730440000e-002) (75, -6.58926879987120630000e-003) (76, 1.19932584464550020000e-001) (77, 2.41578876972198490000e-001) (78, 5.23502305150032040000e-002) (79, -2.53106802701950070000e-002) (80, -6.75696954131126400000e-002) (81, -3.16380411386489870000e-002) (82, 1.17358351126313210000e-002) (83, -2.94263754040002820000e-002) (84, -1.33607655763626100000e-001) (0, 4.91825699806213380000e-001) (1, 1.10886860638856890000e-002) (2, 1.36225625872612000000e-001) (3, 4.24052625894546510000e-001) (4, 3.40181440114974980000e-001) (5, 6.05452731251716610000e-002) (6, 1.76573053002357480000e-001) (7, -4.95010428130626680000e-002) (8, 3.41778427362442020000e-001) (9, 5.47137297689914700000e-002) (10, 1.16805791854858400000e-001) (11, 4.12029355764389040000e-001) (12, 5.13664603233337400000e-001) (13, 4.36719842255115510000e-002) (14, 9.45669338107109070000e-002) (15, 1.56822457909584050000e-001) (16, 3.74248504638671880000e-001) (17, -5.71085698902606960000e-002) (18, 7.84507915377616880000e-002) (19, 1.47252634633332490000e-004) (20, -1.24677613377571110000e-001) (21, 1.08283068984746930000e-002) (22, 8.40259939432144170000e-002) (23, -1.05606308206915860000e-002) (24, 3.72114896774291990000e-001) (25, -6.75326958298683170000e-002) (26, 6.85562938451766970000e-002) (27, 1.52539476752281190000e-001) (28, -8.15624669194221500000e-002) (29, 2.34351202845573430000e-001) (30, -2.19266653060913090000e-001) (31, 9.02787074446678160000e-002) (32, -1.04350522160530090000e-001) (33, 4.62890356779098510000e-001) (34, -3.40490415692329410000e-002) (35, 3.49091500043869020000e-001) (36, -8.34494754672050480000e-002) (37, 4.57907438278198240000e-001) (38, -2.14071303606033330000e-001) (39, 9.60851162672042850000e-002) (40, -6.93334266543388370000e-002) (41, 2.12388440966606140000e-001) (42, 2.10640788078308110000e-001) (43, -4.53854441642761230000e-001) (44, -7.60116726160049440000e-002) (45, -3.13543617725372310000e-001) (46, -3.43510717153549190000e-001) (47, 3.13513398170471190000e-001) (48, -7.64428600668907170000e-002) (49, 7.29254484176635740000e-002) (50, -3.35264325141906740000e-001) (51, 3.26452910900115970000e-001) (52, -7.36434087157249450000e-002) (53, -2.96732544898986820000e-001) (54, 2.03922063112258910000e-001) (55, -4.51357305049896240000e-001) (56, 3.23819994926452640000e-001) (57, -2.18965560197830200000e-002) (58, 3.17162238061428070000e-002) (59, -1.21766254305839540000e-001) (60, -2.33417615294456480000e-001) (61, 2.89520084857940670000e-001) (62, -4.85109925270080570000e-001) (63, 4.79817718267440800000e-001) (64, -2.19087213277816770000e-001) (65, 3.16601932048797610000e-001) (66, 7.04559460282325740000e-002) (67, -1.12230181694030760000e-001) (68, 3.36857289075851440000e-001) (69, -2.62883268296718600000e-002) (70, -1.72061115503311160000e-001) (71, 1.91747665405273440000e-001) (72, -1.78879827260971070000e-001) (73, 1.29472807049751280000e-001) (74, -1.85946747660636900000e-001) (75, 1.13808155059814450000e-001) (76, 4.10354435443878170000e-002) (77, -1.05701938271522520000e-001) (78, -1.70614168047904970000e-001) (79, 1.45201295614242550000e-001) (80, -1.66252732276916500000e-001) (81, 1.36320665478706360000e-001) (82, -1.68395847082138060000e-001) (83, 2.20476731657981870000e-001) (84, -2.07174792885780330000e-001) (0, 7.74884130805730820000e-003) (1, 8.43269377946853640000e-002) (2, -1.39752820134162900000e-001) (3, -4.59364652633666990000e-002) (4, 2.18536145985126500000e-002) (5, 1.06581710278987880000e-001) (6, 1.07496500015258790000e-001) (7, 9.27752181887626650000e-002) (8, -1.01939681917428970000e-002) (9, 6.05019554495811460000e-002) (10, -1.32261618971824650000e-001) (11, 1.19222118519246580000e-003) (12, 1.19371563196182250000e-001) (13, 4.89613786339759830000e-002) (14, -3.41889292001724240000e-001) (15, 2.33616940677165990000e-002) (16, 1.35129526257514950000e-001) (17, -4.72465865314006810000e-002) (18, -8.65863710641860960000e-002) (19, 9.66152548789978030000e-002) (20, 2.01850712299346920000e-001) (21, 8.12771469354629520000e-002) (22, -1.00719541311264040000e-001) (23, 7.93312489986419680000e-003) (24, 6.03092461824417110000e-002) (25, -1.33094593882560730000e-001) (26, -2.05481231212615970000e-001) (27, 9.37226414680480960000e-003) (28, 2.97549277544021610000e-001) (29, -1.16604112088680270000e-001) (30, -1.09197264537215230000e-002) (31, 6.85489997267723080000e-002) (32, 5.24282008409500120000e-002) (33, 1.23429246246814730000e-001) (34, -9.42409709095954900000e-002) (35, -1.96076348423957820000e-001) (36, 8.20900872349739070000e-003) (37, 3.44425290822982790000e-002) (38, 3.13873812556266780000e-002) (39, 8.54606088250875470000e-003) (40, 2.34355539083480830000e-001) (41, -1.15920141339302060000e-001) (42, 1.10669456422328950000e-001) (43, -2.48514577746391300000e-001) (44, 2.15764027088880540000e-002) (45, -3.16367298364639280000e-002) (46, 4.41914871335029600000e-002) (47, -9.00386124849319460000e-002) (48, 1.07958696782588960000e-001) (49, -1.12640209496021270000e-001) (50, -1.93983297795057300000e-002) (51, -1.88978523015975950000e-001) (52, 1.37306690216064450000e-001) (53, 4.45936173200607300000e-002) (54, 1.03860832750797270000e-001) (55, -3.09045374393463130000e-001) (56, 1.59826859831810000000e-001) (57, -6.73513934016227720000e-002) (58, 5.57205826044082640000e-002) (59, -1.87426894903182980000e-001) (60, 1.32579997181892400000e-001) (61, 9.49470978230237960000e-003) (62, 1.05218581855297090000e-001) (63, -8.70175883173942570000e-002) (64, 2.22162194550037380000e-002) (65, -1.67326077818870540000e-001) (66, 1.06466621160507200000e-001) (67, -1.18216186761856080000e-001) (68, 1.25771194696426390000e-001) (69, -8.77688899636268620000e-002) (70, 7.44797065854072570000e-002) (71, -5.95454238355159760000e-002) (72, 8.84307324886322020000e-002) (73, 1.57858300954103470000e-002) (74, 1.51717588305473330000e-001) (75, -4.21749055385589600000e-002) (76, -8.74948780983686450000e-003) (77, -9.48303565382957460000e-002) (78, 1.87242384999990460000e-002) (79, -6.96566253900527950000e-002) (80, 4.56968508660793300000e-002) (81, -1.15656834095716480000e-002) (82, 9.52358394861221310000e-002) (83, -5.07072657346725460000e-002) (84, 2.35179532319307330000e-002) (0, -8.26979428529739380000e-003) (1, 3.37746888399124150000e-001) (2, 3.37980203330516820000e-002) (3, -1.48131903260946270000e-002) (4, 9.15583670139312740000e-002) (5, -1.53076320886611940000e-001) (6, 4.90181446075439450000e-002) (7, -1.59901753067970280000e-001) (8, 1.06774777173995970000e-001) (9, -2.11054593324661250000e-001) (10, 6.89074844121932980000e-002) (11, 4.83085680752992630000e-003) (12, 3.15373465418815610000e-002) (13, 3.46532315015792850000e-001) (14, -1.80784195661544800000e-001) (15, -3.32849100232124330000e-003) (16, 1.44105330109596250000e-001) (17, -2.63912137597799300000e-003) (18, 1.93370521068573000000e-001) (19, -1.66608855128288270000e-001) (20, 8.39342400431633000000e-002) (21, 2.64342963695526120000e-001) (22, 1.85279473662376400000e-001) (23, -1.42098098993301390000e-001) (24, 7.63593614101409910000e-002) (25, 5.83803579211235050000e-002) (26, -2.12564632296562190000e-001) (27, -1.04550430551171300000e-002) (28, -1.73005927354097370000e-003) (29, 5.25260008871555330000e-002) (30, 5.33675542101264000000e-003) (31, 2.86516584455966950000e-002) (32, 1.85787856578826900000e-001) (33, -7.60999545454978940000e-002) (34, 7.32395127415657040000e-002) (35, -8.63371714949607850000e-002) (36, 1.23459994792938230000e-001) (37, -1.16646975278854370000e-001) (38, -4.51071839779615400000e-003) (39, 3.27230691909790040000e-002) (40, -2.35920818522572520000e-003) (41, -2.04676948487758640000e-002) (42, 3.10928151011466980000e-002) (43, -1.65357738733291630000e-001) (44, -1.29552781581878660000e-001) (45, 3.79950590431690220000e-002) (46, -6.00389130413532260000e-002) (47, -1.17160357534885410000e-001) (48, -7.88823291659355160000e-002) (49, -1.13293156027793880000e-001) (50, -6.42351284623146060000e-002) (51, -6.73517286777496340000e-002) (52, -1.79879769682884220000e-001) (53, -1.18428431451320650000e-002) (54, 7.04099014401435850000e-002) (55, -2.19854697585105900000e-001) (56, -1.63618363440036770000e-002) (57, 7.49483853578567500000e-002) (58, 8.58875513076782230000e-002) (59, 4.88573722541332240000e-002) (60, 2.65726540237665180000e-002) (61, -6.86828866600990300000e-002) (62, -9.62189584970474240000e-002) (63, -1.44222408533096310000e-001) (64, 8.18386077880859380000e-002) (65, 4.68029128387570380000e-003) (66, 7.45198782533407210000e-003) (67, -9.75961051881313320000e-003) (68, 3.35140153765678410000e-002) (69, 7.89315029978752140000e-002) (70, 2.51216106116771700000e-002) (71, 1.58308784011751410000e-003) (72, 9.74601954221725460000e-002) (73, 9.55265387892723080000e-002) (74, -2.77948305010795590000e-002) (75, -1.82718448340892790000e-002) (76, 6.87046721577644350000e-002) (77, 1.08688525855541230000e-001) (78, 4.14217337965965270000e-002) (79, -2.80129555612802510000e-002) (80, 4.15748916566371920000e-002) (81, -6.74139242619276050000e-003) (82, 1.66529547423124310000e-002) (83, -1.32753551006317140000e-002) (84, -2.56557986140251160000e-002) (0, 3.45575571060180660000e-001) (1, -2.91518062353134160000e-001) (2, 1.48730129003524780000e-001) (3, -5.19154332578182220000e-002) (4, -8.16528871655464170000e-002) (5, 1.36887058615684510000e-001) (6, -6.34907186031341550000e-001) (7, 3.44346284866333010000e-001) (8, -1.18615634739398960000e-001) (9, 1.27285093069076540000e-001) (10, 1.41644954681396480000e-001) (11, -6.06819391250610350000e-002) (12, 3.66822034120559690000e-001) (13, -3.01762133836746220000e-001) (14, 4.93708066642284390000e-002) (15, -1.45035952329635620000e-001) (16, 4.42406237125396730000e-002) (17, 7.52833560109138490000e-002) (18, -1.46141752600669860000e-001) (19, -1.64965748786926270000e-001) (20, -1.25019282102584840000e-001) (21, 1.57684370875358580000e-001) (22, -1.13049566745758060000e-001) (23, -1.56190678477287290000e-001) (24, 6.69016838073730470000e-002) (25, 7.04674646258354190000e-002) (26, 3.31489443778991700000e-002) (27, -1.00978687405586240000e-001) (28, -8.98200422525405880000e-002) (29, 1.54351577162742610000e-001) (30, 6.22956305742263790000e-002) (31, 3.13834279775619510000e-001) (32, -2.31938704848289490000e-001) (33, -3.01899146288633350000e-002) (34, 1.08130767941474910000e-001) (35, 3.51314083673059940000e-003) (36, -2.31659173965454100000e-001) (37, -1.70986577868461610000e-002) (38, 2.73266155272722240000e-002) (39, 2.83352345228195190000e-001) (40, -6.14414028823375700000e-002) (41, 1.18727385997772220000e-001) (42, -1.48268893361091610000e-001) (43, 1.06987863779067990000e-001) (44, -1.46084010601043700000e-001) (45, -3.53092849254608150000e-002) (46, 1.46368473768234250000e-001) (47, 1.38001069426536560000e-001) (48, -2.10571855306625370000e-001) (49, -4.97429221868515010000e-002) (50, 1.46908372640609740000e-001) (51, 1.26816108822822570000e-001) (52, -1.61858960986137390000e-001) (53, -2.28180345147848130000e-002) (54, -1.11564040184021000000e-001) (55, 1.57509744167327880000e-001) (56, -1.70292872935533520000e-002) (57, 7.02562108635902400000e-002) (58, -1.81306719779968260000e-001) (59, 4.64183054864406590000e-002) (60, -1.98721662163734440000e-002) (61, 1.03360908105969430000e-002) (62, -7.49000906944274900000e-002) (63, 5.79385496675968170000e-002) (64, -1.88939999788999560000e-002) (65, 3.87578085064888000000e-003) (66, -1.59942299127578740000e-001) (67, 6.31095245480537410000e-002) (68, -3.54720605537295340000e-003) (69, 5.51946498453617100000e-002) (70, -1.32822111248970030000e-001) (71, 2.42216344922780990000e-002) (72, -5.21654821932315830000e-002) (73, -7.92553946375846860000e-002) (74, 7.74961262941360470000e-002) (75, 7.56177399307489400000e-003) (76, -1.29128771368414160000e-003) (77, -1.44958004355430600000e-001) (78, 8.08844566345214840000e-002) (79, 4.72216345369815830000e-002) (80, -6.13733939826488490000e-002) (81, -5.04697971045970920000e-002) (82, -1.19129605591297150000e-001) (83, 4.74197380244731900000e-002) (84, 2.09881171584129330000e-001) (0, -4.34270463883876800000e-002) (1, 2.07433059811592100000e-001) (2, -1.25851659104228020000e-002) (3, -1.36708274483680730000e-001) (4, -1.61303859204053880000e-002) (5, -2.34283208847045900000e-001) (6, -1.69369742274284360000e-001) (7, 1.82286083698272710000e-001) (8, -1.37394126504659650000e-002) (9, -1.55470177531242370000e-001) (10, -7.81838037073612210000e-003) (11, -1.83396399021148680000e-001) (12, -1.08182635158300400000e-002) (13, 1.92572146654129030000e-001) (14, -4.36083108186721800000e-001) (15, 4.13248896598815920000e-001) (16, -6.99986442923545840000e-002) (17, 2.63231307268142700000e-001) (18, -4.91481609642505650000e-002) (19, 2.00317390263080600000e-002) (20, -1.23033702373504640000e-001) (21, 5.31951338052749630000e-002) (22, -6.52814283967018130000e-002) (23, 4.51255477964878080000e-002) (24, -7.62638896703720090000e-002) (25, 2.72931545972824100000e-001) (26, -4.98148232698440550000e-001) (27, 3.46249788999557500000e-001) (28, -1.41095235943794250000e-001) (29, -2.00039491057395940000e-001) (30, -1.38694122433662410000e-001) (31, 1.39218971133232120000e-001) (32, -2.64805912971496580000e-001) (33, -1.47407069802284240000e-001) (34, -2.29190692305564880000e-001) (35, 6.07652636244893070000e-003) (36, -2.07145169377326970000e-001) (37, -6.98114633560180660000e-002) (38, -1.29455834627151490000e-001) (39, 1.31977245211601260000e-001) (40, -1.33143663406372070000e-001) (41, -2.33717277646064760000e-001) (42, 2.94483184814453130000e-001) (43, -2.63090282678604130000e-001) (44, -1.41419038176536560000e-001) (45, 9.71812456846237180000e-002) (46, 5.98474480211734770000e-002) (47, 5.99988959729671480000e-002) (48, 1.02575225755572320000e-002) (49, 1.06799289584159850000e-001) (50, 1.17348536849021910000e-001) (51, 9.79535952210426330000e-002) (52, -1.21972575783729550000e-001) (53, 9.36012715101242070000e-002) (54, 2.66053527593612670000e-001) (55, -2.34540447592735290000e-001) (56, 1.40810713171958920000e-001) (57, 1.66340485215187070000e-001) (58, -1.60636097192764280000e-001) (59, 7.18641802668571470000e-002) (60, 7.49485567212104800000e-002) (61, -1.98060348629951480000e-001) (62, -3.54062207043170930000e-002) (63, -1.45908609032630920000e-001) (64, 1.49366185069084170000e-001) (65, -8.50975438952445980000e-002) (66, -1.26194879412651060000e-001) (67, 4.45501208305358890000e-002) (68, 1.67648941278457640000e-001) (69, 1.48135021328926090000e-001) (70, -1.11800699960440400000e-003) (71, 4.05439771711826320000e-002) (72, -8.09022709727287290000e-002) (73, 7.55755677819252010000e-002) (74, -7.01106935739517210000e-002) (75, -9.26032066345214840000e-002) (76, 6.86668679118156430000e-002) (77, 1.45244866609573360000e-001) (78, 6.20673820376396180000e-002) (79, -1.95793388411402700000e-003) (80, -9.55965146422386170000e-002) (81, 5.53034394979476930000e-002) (82, -6.77197203040122990000e-002) (83, 2.39382293075323100000e-002) (84, 1.73924058675765990000e-001) (0, -1.70446306467056270000e-001) (1, 1.76265880465507510000e-001) (2, -2.03072369098663330000e-001) (3, 1.12727113068103790000e-001) (4, 1.05899289250373840000e-001) (5, 4.57650283351540570000e-003) (6, 3.39651927351951600000e-002) (7, 1.73333473503589630000e-002) (8, -3.04648391902446750000e-002) (9, -5.04892021417617800000e-002) (10, -2.59136587381362920000e-001) (11, 1.60526081919670100000e-001) (12, -1.21086567640304570000e-001) (13, 1.30253136157989500000e-001) (14, 1.84258028864860530000e-001) (15, -3.72256264090538020000e-002) (16, -2.80586063861846920000e-001) (17, 3.07899951934814450000e-001) (18, 2.19610854983329770000e-002) (19, 1.17373488843441010000e-001) (20, 4.16492260992527010000e-002) (21, 3.80147919058799740000e-002) (22, -2.95688826590776440000e-002) (23, 1.04365304112434390000e-001) (24, -2.86304295063018800000e-001) (25, 2.65572160482406620000e-001) (26, 1.63503304123878480000e-001) (27, -2.82520540058612820000e-002) (28, -1.55089288949966430000e-001) (29, 6.00098296999931340000e-002) (30, -2.28280145674943920000e-002) (31, 2.16358140110969540000e-001) (32, -1.66054651141166690000e-001) (33, -1.53749868273735050000e-001) (34, -1.70819893479347230000e-001) (35, -7.82982334494590760000e-002) (36, -1.18409402668476100000e-001) (37, -7.57269561290740970000e-002) (38, -4.31096404790878300000e-002) (39, 2.14074760675430300000e-001) (40, -6.33657872676849370000e-002) (41, 8.65251645445823670000e-002) (42, -2.02990368008613590000e-001) (43, 1.20437100529670720000e-001) (44, -1.40291631221771240000e-001) (45, -9.23803001642227170000e-002) (46, 9.38353538513183590000e-002) (47, -3.47803463228046890000e-003) (48, 1.14376470446586610000e-001) (49, 1.90557032823562620000e-001) (50, 7.17406570911407470000e-002) (51, 2.58794520050287250000e-002) (52, -1.11221638508141040000e-003) (53, -8.89738206751644610000e-004) (54, -2.13412493467330930000e-001) (55, 1.49719446897506710000e-001) (56, -4.46279309689998630000e-002) (57, 5.64188249409198760000e-002) (58, -1.23502321541309360000e-001) (59, 2.41137649863958360000e-002) (60, 3.60176265239715580000e-002) (61, -1.75615549087524410000e-002) (62, -2.13874459266662600000e-001) (63, -2.20257826149463650000e-002) (64, -2.99472338519990440000e-003) (65, -2.33743991702795030000e-003) (66, -1.28939419984817500000e-001) (67, -6.76404917612671850000e-003) (68, -2.36792378127574920000e-002) (69, 3.75939682126045230000e-002) (70, -3.89767624437808990000e-003) (71, 6.86078667640686040000e-002) (72, 6.71321526169776920000e-002) (73, 7.51729682087898250000e-002) (74, -9.91154834628105160000e-003) (75, -1.30806341767311100000e-002) (76, 1.03474810719490050000e-001) (77, 1.74133002758026120000e-001) (78, 3.94400246441364290000e-002) (79, -1.69536955654621120000e-002) (80, -1.11193964257836340000e-002) (81, -1.51876024901866910000e-002) (82, -7.29492753744125370000e-002) (83, -2.82684843987226490000e-002) (84, -3.40502299368381500000e-002) (0, -1.67994514107704160000e-001) (1, 2.19377204775810240000e-001) (2, 3.31698209047317500000e-002) (3, 2.27105356752872470000e-002) (4, -6.68511092662811280000e-002) (5, 2.24863246083259580000e-001) (6, -3.83726835250854490000e-001) (7, 4.47816789150238040000e-001) (8, -1.53110221028327940000e-001) (9, 7.13576525449752810000e-002) (10, 5.74700087308883670000e-002) (11, 9.94649305939674380000e-002) (12, -8.45435261726379390000e-003) (13, 1.75637751817703250000e-001) (14, 9.71945561468601230000e-003) (15, 1.20398804545402530000e-001) (16, -1.21759995818138120000e-001) (17, 1.07394620776176450000e-001) (18, 2.19446614384651180000e-001) (19, 8.66534560918807980000e-002) (20, -1.01219058036804200000e-001) (21, 8.10614004731178280000e-002) (22, -5.33590205013751980000e-002) (23, -3.29162091016769410000e-001) (24, 3.58709879219532010000e-002) (25, 1.95360332727432250000e-001) (26, -1.45681686699390410000e-002) (27, 2.07049190998077390000e-001) (28, 5.21313492208719250000e-003) (29, -1.74415498971939090000e-001) (30, -9.20881479978561400000e-002) (31, -3.40642333030700680000e-001) (32, 3.00729364156723020000e-001) (33, 3.13698083162307740000e-001) (34, 1.82121172547340390000e-001) (35, 2.02295072376728060000e-002) (36, -9.96255651116371150000e-002) (37, -6.82025179266929630000e-002) (38, 2.54981908947229390000e-002) (39, -2.11777552962303160000e-001) (40, -2.00685057789087300000e-002) (41, -1.70346826314926150000e-001) (42, 2.39564538002014160000e-001) (43, -1.63856551051139830000e-001) (44, 2.14756980538368230000e-001) (45, -2.18625128269195560000e-001) (46, 8.84286984801292420000e-002) (47, 3.74105304479599000000e-001) (48, -4.00182157754898070000e-002) (49, -2.59801954030990600000e-001) (50, -4.15603548288345340000e-001) (51, -2.49684721231460570000e-001) (52, 3.83710414171218870000e-001) (53, 5.69037459790706630000e-002) (54, 1.72356769442558290000e-001) (55, -6.37346878647804260000e-002) (56, -1.90954819321632390000e-001) (57, -6.92697763442993160000e-002) (58, 5.61924651265144350000e-002) (59, -1.62220522761344910000e-001) (60, 3.24841618537902830000e-001) (61, 2.46240884065628050000e-001) (62, 1.14257320761680600000e-001) (63, -1.81225061416625980000e-001) (64, -3.18437427282333370000e-001) (65, -3.98244529962539670000e-001) (66, 3.18232238292694090000e-001) (67, 3.67393828928470610000e-002) (68, -8.84754136204719540000e-002) (69, -4.54905368387699130000e-002) (70, -6.15110993385314940000e-002) (71, -2.33488425612449650000e-001) (72, -1.09617947600781920000e-003) (73, -7.45698139071464540000e-002) (74, 3.51260006427764890000e-001) (75, 1.36280208826065060000e-001) (76, 1.16924606263637540000e-001) (77, 1.13758416846394540000e-002) (78, -4.00790870189666750000e-001) (79, -3.11039477586746220000e-001) (80, 8.10231789946556090000e-002) (81, 1.42600268125534060000e-001) (82, 9.41636860370635990000e-002) (83, 1.56707003712654110000e-001) (84, 1.03605426847934720000e-001) (0, -8.58948826789855960000e-002) (1, 2.47140992432832720000e-002) (2, 1.27948373556137080000e-001) (3, 1.97345495223999020000e-001) (4, 2.48292014002799990000e-002) (5, 6.65129795670509340000e-002) (6, 8.04567113518714900000e-002) (7, -5.20440079271793370000e-002) (8, 8.86077061295509340000e-002) (9, 6.43310546875000000000e-002) (10, 1.35964304208755490000e-001) (11, 2.14576065540313720000e-001) (12, -1.18550665676593780000e-001) (13, 7.23911225795745850000e-002) (14, 9.53762140125036240000e-003) (15, -2.04462856054306030000e-001) (16, -2.73023098707199100000e-002) (17, 9.14476737380027770000e-002) (18, -1.99469953775405880000e-001) (19, 3.22569794952869420000e-002) (20, -2.14584637433290480000e-002) (21, 7.49939819797873500000e-003) (22, -1.53929948806762700000e-001) (23, 5.34137114882469180000e-002) (24, -7.77572318911552430000e-002) (25, 9.51725393533706670000e-002) (26, 1.23258149251341820000e-002) (27, -1.79437577724456790000e-001) (28, 1.36187687516212460000e-001) (29, 6.78198561072349550000e-002) (30, -7.69086405634880070000e-002) (31, -1.19396649301052090000e-001) (32, 9.22724429983645680000e-004) (33, -4.43655811250209810000e-002) (34, -2.97734420746564870000e-002) (35, 5.70007879287004470000e-003) (36, 3.17434109747409820000e-002) (37, -4.87131141126155850000e-002) (38, -5.80079220235347750000e-002) (39, -1.54668688774108890000e-001) (40, 9.97012779116630550000e-002) (41, 7.06446245312690730000e-002) (42, 1.05500876903533940000e-001) (43, 1.99436135590076450000e-002) (44, -4.87546175718307500000e-002) (45, 9.95191484689712520000e-002) (46, 1.15040047094225880000e-002) (47, 2.51185297966003420000e-002) (48, 1.02619387209415440000e-001) (49, 9.47881117463111880000e-002) (50, 1.78560074418783190000e-002) (51, 4.66645769774913790000e-002) (52, 1.08708525076508520000e-002) (53, 1.46066740155220030000e-001) (54, 1.52433976531028750000e-001) (55, 2.48508825898170470000e-002) (56, 3.28213050961494450000e-002) (57, -2.87996567785739900000e-002) (58, -3.83654907345771790000e-002) (59, -6.26718699932098390000e-002) (60, 1.82125605642795560000e-002) (61, 1.47547451779246330000e-002) (62, -5.91575913131237030000e-002) (63, -1.48778408765792850000e-001) (64, 5.25477044284343720000e-002) (65, 9.89073235541582110000e-003) (66, -8.40843915939331050000e-002) (67, -6.27823024988174440000e-002) (68, -3.85912656784057620000e-002) (69, -3.65311019122600560000e-002) (70, -2.55729388445615770000e-002) (71, -1.14643588662147520000e-001) (72, -7.03241080045700070000e-002) (73, -3.04070976562798020000e-003) (74, -2.20658741891384120000e-002) (75, 7.61885419487953190000e-002) (76, 6.07300829142332080000e-003) (77, 1.26387864351272580000e-001) (78, 3.31545323133468630000e-002) (79, 9.16031897068023680000e-002) (80, -1.45736411213874820000e-002) (81, -1.39803914353251460000e-002) (82, -1.58770363777875900000e-002) (83, -1.64747834205627440000e-001) (84, 1.37527864426374440000e-002) (0, 1.11081980168819430000e-001) (1, -7.68978744745254520000e-002) (2, 6.66691958904266360000e-002) (3, -1.51804089546203610000e-002) (4, 1.64731182157993320000e-002) (5, 4.22303006052970890000e-002) (6, 2.14117929339408870000e-001) (7, -1.82692140340805050000e-001) (8, -7.76626989245414730000e-002) (9, 7.17850960791110990000e-003) (10, 1.03099696338176730000e-001) (11, 1.47477060090750460000e-003) (12, 1.24475389719009400000e-001) (13, -1.67347490787506100000e-002) (14, -6.55773058533668520000e-002) (15, -1.31421789526939390000e-001) (16, 4.73292032256722450000e-003) (17, -2.69564166665077210000e-002) (18, 3.34878521971404550000e-003) (19, -7.75128777604550120000e-004) (20, -9.37084034085273740000e-002) (21, -2.80881464481353760000e-001) (22, -5.59189952909946440000e-002) (23, -1.06760159134864810000e-001) (24, 1.15673534572124480000e-001) (25, -1.21713960543274880000e-002) (26, 4.48765754699707030000e-002) (27, -1.89703091979026790000e-001) (28, 4.14103381335735320000e-002) (29, 1.63226351141929630000e-001) (30, 5.37516996264457700000e-002) (31, -6.13720007240772250000e-002) (32, 2.58424151688814160000e-002) (33, -6.45184963941574100000e-002) (34, 1.70009911060333250000e-001) (35, 1.89674615859985350000e-001) (36, 2.48896423727273940000e-002) (37, -5.16344010829925540000e-002) (38, 2.10125558078289030000e-002) (39, -1.60818830132484440000e-001) (40, 1.25602945685386660000e-001) (41, 2.59869191795587540000e-002) (42, -2.82483715564012530000e-002) (43, 2.46765669435262680000e-002) (44, 5.61051219701766970000e-002) (45, -2.51372456550598140000e-002) (46, 4.26769144833087920000e-002) (47, -4.62651215493679050000e-002) (48, 1.06654711067676540000e-001) (49, -3.45636270940303800000e-002) (50, 8.67765769362449650000e-003) (51, -8.35208222270011900000e-002) (52, 4.54359054565429690000e-002) (53, -3.66517417132854460000e-002) (54, -8.77839326858520510000e-002) (55, -1.81888658553361890000e-002) (56, -9.64801535010337830000e-002) (57, 4.82341200113296510000e-002) (58, 1.26557275652885440000e-001) (59, 1.02594271302223210000e-002) (60, 5.90221062302589420000e-002) (61, 1.32355568930506710000e-002) (62, 4.70291823148727420000e-002) (63, -1.34105294942855830000e-001) (64, -4.46377918124198910000e-002) (65, -6.57340139150619510000e-002) (66, 5.50754033029079440000e-002) (67, 5.56216284167021510000e-004) (68, 4.65680323541164400000e-002) (69, 3.45941446721553800000e-002) (70, -3.80747914314270020000e-002) (71, -1.16340205073356630000e-001) (72, 3.30145098268985750000e-002) (73, -5.71738295257091520000e-002) (74, 1.71531945466995240000e-001) (75, 7.13947415351867680000e-002) (76, 1.60575620830059050000e-002) (77, -3.32308560609817500000e-002) (78, 4.56939749419689180000e-002) (79, -3.69412451982498170000e-002) (80, -5.06501011550426480000e-002) (81, -1.44056081771850590000e-001) (82, 1.09082333743572240000e-001) (83, 2.40224339067935940000e-002) (84, -1.14933419972658160000e-002) (0, 8.91740098595619200000e-002) (1, 1.98930844664573670000e-001) (2, -2.32030078768730160000e-001) (3, 8.01823437213897710000e-002) (4, -1.11753404140472410000e-001) (5, -6.68037384748458860000e-002) (6, -1.23092733323574070000e-001) (7, 8.79572778940200810000e-002) (8, -1.47074222564697270000e-001) (9, -4.24547977745532990000e-002) (10, -1.59736678004264830000e-001) (11, 2.21263021230697630000e-001) (12, 5.28160445392131810000e-002) (13, 1.61209166049957280000e-001) (14, -1.62017673254013060000e-001) (15, 6.76183179020881650000e-002) (16, -1.81280910968780520000e-001) (17, 8.37539806962013240000e-002) (18, -1.50855466723442080000e-001) (19, 9.20189823955297470000e-003) (20, 4.37828972935676570000e-002) (21, 2.38342776894569400000e-001) (22, -2.70381923764944080000e-002) (23, 8.67016986012458800000e-002) (24, -1.40474438667297360000e-001) (25, 5.26677593588829040000e-002) (26, -2.41827353835105900000e-001) (27, 1.13189175724983220000e-001) (28, -2.74952650070190430000e-002) (29, -1.29777282476425170000e-001) (30, -2.46425122022628780000e-002) (31, 7.67885223031044010000e-002) (32, 7.75932893157005310000e-002) (33, 1.90723836421966550000e-001) (34, 5.83376847207546230000e-002) (35, 1.43305644392967220000e-001) (36, 1.12515017390251160000e-002) (37, 1.86811819672584530000e-001) (38, -7.99986347556114200000e-002) (39, 7.18118697404861450000e-002) (40, -7.43137001991271970000e-002) (41, -2.46246621012687680000e-001) (42, 1.15317653398960830000e-003) (43, 1.13442815840244290000e-001) (44, 1.43146710470318790000e-002) (45, 4.26895357668399810000e-002) (46, -2.46717989444732670000e-001) (47, -9.35700908303260800000e-002) (48, -1.35791627690196040000e-002) (49, -2.00391113758087160000e-001) (50, -1.95305883884429930000e-001) (51, -6.19336105883121490000e-002) (52, 3.85425082640722390000e-004) (53, 5.14127537608146670000e-002) (54, -3.26029285788536070000e-002) (55, 1.29180118441581730000e-001) (56, -6.94896876811981200000e-002) (57, 1.23501121997833250000e-001) (58, -6.44470304250717160000e-002) (59, 1.57811269164085390000e-002) (60, -9.59056708961725230000e-003) (61, -3.86355705559253690000e-002) (62, -9.48403868824243550000e-003) (63, 2.05363333225250240000e-002) (64, 2.54802536219358440000e-002) (65, 3.80113534629344940000e-002) (66, -2.35752519220113750000e-002) (67, 2.26066969335079190000e-002) (68, -5.33539243042469020000e-002) (69, 1.26344129443168640000e-001) (70, -6.84366598725318910000e-002) (71, 3.64882173016667370000e-003) (72, -7.04526379704475400000e-002) (73, 4.03310172259807590000e-002) (74, -8.92234127968549730000e-003) (75, -4.86251786351203920000e-002) (76, -6.92829713225364690000e-002) (77, -1.27558931708335880000e-001) (78, -2.18739714473485950000e-002) (79, -4.93483915925025940000e-002) (80, -1.39545844867825510000e-002) (81, 1.25315472483634950000e-001) (82, -9.27990153431892400000e-002) (83, 1.62490643560886380000e-002) (84, 1.71580255031585690000e-001) (0, 3.42825278639793400000e-002) (1, -7.56089314818382260000e-002) (2, 1.23307369649410250000e-002) (3, -3.18304300308227540000e-001) (4, -3.42870920896530150000e-001) (5, 2.72034406661987300000e-001) (6, 3.23100000619888310000e-001) (7, -2.83111333847045900000e-001) (8, -3.59143882989883420000e-001) (9, 2.75230586528778080000e-001) (10, -3.95146273076534270000e-002) (11, -3.08914393186569210000e-001) (12, 6.27848580479621890000e-002) (13, -1.22511126101017000000e-001) (14, 7.33028501272201540000e-002) (15, -6.46649077534675600000e-002) (16, -2.62281000614166260000e-001) (17, 1.01013913750648500000e-001) (18, -1.55816867947578430000e-001) (19, 5.25521636009216310000e-002) (20, 6.44127875566482540000e-002) (21, 2.81205698847770690000e-002) (22, -1.73233658075332640000e-001) (23, 4.88900532945990560000e-003) (24, -2.41908967494964600000e-001) (25, 9.35098305344581600000e-002) (26, 5.17080798745155330000e-002) (27, -3.26898060739040370000e-002) (28, -2.64435261487960820000e-001) (29, 3.01393985748291020000e-001) (30, 4.46499250829219820000e-002) (31, 1.15192957222461700000e-001) (32, -2.30674985796213150000e-002) (33, 3.10546696186065670000e-001) (34, 1.05517767369747160000e-001) (35, -1.30096763372421260000e-001) (36, -7.69269317388534550000e-002) (37, 2.84879773855209350000e-001) (38, 3.85409407317638400000e-002) (39, 1.07906095683574680000e-001) (40, -2.25378990173339840000e-001) (41, 3.11595350503921510000e-001) (42, -1.47549271583557130000e-001) (43, -2.78678864240646360000e-001) (44, -1.06534264981746670000e-001) (45, 2.77969360351562500000e-001) (46, -2.08928421139717100000e-001) (47, 1.41052663326263430000e-001) (48, -1.34138733148574830000e-001) (49, -1.58664524555206300000e-001) (50, -2.36158847808837890000e-001) (51, 8.08236300945281980000e-002) (52, -8.81017073988914490000e-002) (53, 3.01507085561752320000e-001) (54, -1.57485663890838620000e-001) (55, -2.58654981851577760000e-001) (56, 1.68033882975578310000e-001) (57, 1.60760041326284410000e-002) (58, -2.20154970884323120000e-001) (59, 1.26911893486976620000e-001) (60, -3.00736904144287110000e-001) (61, 2.25440487265586850000e-001) (62, 1.81075967848300930000e-002) (63, 9.12100151181221010000e-002) (64, -3.29575866460800170000e-001) (65, 1.63227304816246030000e-001) (66, -1.96544095873832700000e-001) (67, 1.39947950839996340000e-001) (68, 2.05568894743919370000e-001) (69, 3.86568009853363040000e-002) (70, -1.72527000308036800000e-001) (71, 2.33012717217206950000e-002) (72, -1.57750874757766720000e-001) (73, 3.22665050625801090000e-002) (74, -3.53415757417678830000e-002) (75, 1.65629595518112180000e-001) (76, -5.07467873394489290000e-002) (77, 8.72264578938484190000e-002) (78, -1.30824431777000430000e-001) (79, 1.25950947403907780000e-001) (80, -1.37526392936706540000e-001) (81, 7.20054805278778080000e-002) (82, -1.12933069467544560000e-001) (83, 9.43310707807540890000e-002) (84, 5.89820891618728640000e-002) (0, 1.01823303848505020000e-002) (1, -4.09527540206909180000e-001) (2, 2.29508075863122940000e-002) (3, -1.17315471172332760000e-001) (4, -5.29736503958702090000e-002) (5, 4.68380227684974670000e-002) (6, 5.06601482629776000000e-002) (7, -3.83537299931049350000e-002) (8, -6.55358284711837770000e-002) (9, 5.74430264532566070000e-003) (10, -3.18913385272026060000e-002) (11, -1.92631527781486510000e-001) (12, 1.97622999548912050000e-002) (13, -4.12540227174758910000e-001) (14, 1.33953168988227840000e-001) (15, -2.19329178333282470000e-001) (16, 1.60960346460342410000e-001) (17, 1.31754413247108460000e-001) (18, 7.36993625760078430000e-002) (19, 3.50773483514785770000e-002) (20, -3.70462760329246520000e-002) (21, -9.51026156544685360000e-002) (22, -1.22555634006857870000e-002) (23, -7.05155059695243840000e-002) (24, 2.24732726812362670000e-001) (25, 8.23379978537559510000e-002) (26, 1.15194238722324370000e-001) (27, -2.46613875031471250000e-001) (28, -5.24496994912624360000e-002) (29, -6.55885832384228710000e-003) (30, -2.85208731889724730000e-001) (31, 1.16532914340496060000e-001) (32, 8.65279510617256160000e-002) (33, 3.13422456383705140000e-002) (34, 1.87255114316940310000e-001) (35, 1.78944677114486690000e-001) (36, 5.49128502607345580000e-002) (37, -5.04823513329029080000e-002) (38, -2.90598124265670780000e-001) (39, 1.17704868316650390000e-001) (40, -1.13429978489875790000e-001) (41, 1.12410537898540500000e-001) (42, -5.15240691602230070000e-002) (43, 2.76661545038223270000e-001) (44, -2.66107112169265750000e-001) (45, 1.70232534408569340000e-001) (46, 1.37250870466232300000e-001) (47, 4.82024773955345150000e-002) (48, -1.95390418171882630000e-001) (49, -1.89906254410743710000e-001) (50, -6.23635239899158480000e-002) (51, -8.21689367294311520000e-002) (52, -2.58936971426010130000e-001) (53, 2.47677773237228390000e-001) (54, -6.07374981045722960000e-002) (55, 2.08296552300453190000e-001) (56, 4.06945757567882540000e-002) (57, 8.85095745325088500000e-002) (58, -4.67260032892227170000e-002) (59, 3.65668572485446930000e-002) (60, -1.82018764317035680000e-002) (61, 1.14698056131601330000e-002) (62, 6.63841366767883300000e-002) (63, 8.67158472537994380000e-002) (64, -2.23307371139526370000e-001) (65, -2.49590024352073670000e-001) (66, -4.55113835632801060000e-002) (67, 1.02319018915295600000e-002) (68, -3.25515307486057280000e-002) (69, 1.17345526814460750000e-001) (70, -7.50687420368194580000e-002) (71, -3.88672798871994020000e-002) (72, -2.99594681710004810000e-002) (73, -4.69271875917911530000e-002) (74, 1.56589061021804810000e-001) (75, 2.30695471167564390000e-001) (76, -4.10212278366088870000e-002) (77, 3.31318341195583340000e-002) (78, -7.48318880796432500000e-002) (79, 6.30794689059257510000e-002) (80, -8.53452309966087340000e-002) (81, -8.22294726967811580000e-002) (82, -3.06350402534008030000e-002) (83, -4.10166606307029720000e-002) (84, 5.45037612318992610000e-002) (0, 1.86536073684692380000e-001) (1, -2.31601715087890630000e-001) (2, -1.86198100447654720000e-001) (3, 2.05160260200500490000e-001) (4, 8.14141258597373960000e-002) (5, -3.44696819782257080000e-001) (6, 1.48530244827270510000e-001) (7, 5.35120032727718350000e-002) (8, 1.31610602140426640000e-001) (9, -3.11735183000564580000e-001) (10, -1.82310029864311220000e-001) (11, 1.57787993550300600000e-001) (12, 1.86011686921119690000e-001) (13, -2.35547512769699100000e-001) (14, 6.45058304071426390000e-002) (15, -9.23750773072242740000e-002) (16, -9.57114771008491520000e-002) (17, 4.08075377345085140000e-002) (18, 3.67978140711784360000e-002) (19, -1.92385613918304440000e-002) (20, 2.50376556068658830000e-002) (21, -1.05628937482833860000e-001) (22, 1.39038041234016420000e-001) (23, 3.50611843168735500000e-002) (24, -5.96508607268333440000e-002) (25, 1.69310405850410460000e-001) (26, 1.01935248821973800000e-002) (27, -3.72921861708164220000e-002) (28, 1.72350332140922550000e-001) (29, 9.64005738496780400000e-002) (30, -1.84780851006507870000e-001) (31, 2.63078156858682630000e-002) (32, -1.32590129971504210000e-001) (33, 5.17613701522350310000e-002) (34, 4.71863374114036560000e-002) (35, -9.18274968862533570000e-002) (36, -1.39849931001663210000e-001) (37, 8.24385806918144230000e-002) (38, -3.52218151092529300000e-002) (39, 1.73451527953147890000e-001) (40, 1.83131322264671330000e-001) (41, 1.10356271266937260000e-001) (42, -1.76866009831428530000e-001) (43, 2.46469937264919280000e-002) (44, -3.51271629333496090000e-002) (45, -2.85331569612026210000e-002) (46, -7.03511610627174380000e-002) (47, 9.00693535804748540000e-002) (48, 1.98429495096206670000e-001) (49, 1.01162366569042210000e-001) (50, 1.99432644876651470000e-004) (51, 9.44729894399642940000e-002) (52, 3.31979803740978240000e-002) (53, 2.99221426248550420000e-002) (54, -2.12301805615425110000e-001) (55, 7.26666375994682310000e-002) (56, -1.37107998132705690000e-001) (57, 4.94854301214218140000e-002) (58, -4.64451536536216740000e-002) (59, -6.15368820726871490000e-002) (60, -2.00607553124427800000e-002) (61, -9.16400328278541560000e-002) (62, 1.64285022765398030000e-002) (63, 6.98001459240913390000e-002) (64, 2.74473298341035840000e-002) (65, 2.89950706064701080000e-002) (66, -6.44502043724060060000e-002) (67, -7.64019638299942020000e-002) (68, 1.38016929849982260000e-002) (69, 9.26351100206375120000e-002) (70, 6.82951733469963070000e-002) (71, 7.19431862235069270000e-002) (72, -3.20090651512146000000e-002) (73, 7.69675849005579950000e-003) (74, -3.55698838829994200000e-002) (75, -7.35302492976188660000e-002) (76, -1.33831128478050230000e-001) (77, -1.23154588043689730000e-001) (78, -2.32402309775352480000e-002) (79, -2.98965852707624440000e-002) (80, -3.79509404301643370000e-002) (81, 9.56845879554748540000e-002) (82, -2.68248724751174450000e-003) (83, 9.14875864982604980000e-002) (84, 4.14794906973838810000e-002) (0, 5.30103072524070740000e-002) (1, -4.58804756402969360000e-001) (2, -3.17966699600219730000e-001) (3, -2.71831303834915160000e-002) (4, -1.70966118574142460000e-001) (5, 4.21703159809112550000e-002) (6, 1.00032445043325420000e-002) (7, 7.09462910890579220000e-002) (8, -1.30473956465721130000e-001) (9, 8.69222581386566160000e-002) (10, -2.02533453702926640000e-001) (11, 6.00817203521728520000e-002) (12, 3.01742926239967350000e-002) (13, -4.20131862163543700000e-001) (14, 4.52919714152812960000e-002) (15, -1.09770596027374270000e-002) (16, -9.80524346232414250000e-002) (17, 2.85837173461914060000e-001) (18, -1.41453832387924190000e-001) (19, -1.33816925808787350000e-002) (20, 9.56334024667739870000e-002) (21, 1.49875015020370480000e-001) (22, -1.22251436114311220000e-001) (23, -3.35132628679275510000e-002) (24, -1.55125841498374940000e-001) (25, 2.65227854251861570000e-001) (26, 1.06332808732986450000e-001) (27, 4.73822467029094700000e-003) (28, -8.50065276026725770000e-002) (29, 8.26017186045646670000e-002) (30, -1.74392893910408020000e-001) (31, 1.55471146106719970000e-001) (32, -9.40544605255126950000e-002) (33, 1.25738725066185000000e-001) (34, 4.34323176741600040000e-002) (35, 7.18365386128425600000e-002) (36, -1.64718493819236760000e-001) (37, 1.88202597200870510000e-002) (38, -1.49474620819091800000e-001) (39, 1.57240375876426700000e-001) (40, -7.64986798167228700000e-002) (41, 7.40339830517768860000e-002) (42, -8.84042605757713320000e-002) (43, 1.12332038581371310000e-001) (44, -1.22587181627750400000e-001) (45, 2.02345419675111770000e-002) (46, 5.47893308103084560000e-002) (47, 2.19720721244812010000e-001) (48, -1.21073953807353970000e-001) (49, -2.13621377944946290000e-001) (50, 4.26872670650482180000e-002) (51, 2.15318813920021060000e-001) (52, -5.79862520098686220000e-002) (53, -7.78565765358507630000e-004) (54, -9.28579568862915040000e-002) (55, 1.45681142807006840000e-001) (56, -5.62116317451000210000e-002) (57, 1.06343040242791180000e-002) (58, -1.09508007764816280000e-001) (59, 4.96313273906707760000e-002) (60, -6.07114620506763460000e-002) (61, 9.63076725602149960000e-002) (62, -1.09111547470092770000e-001) (63, 4.14784960448741910000e-002) (64, -1.54076144099235530000e-001) (65, 2.40435078740119930000e-002) (66, -1.16611503064632420000e-001) (67, 7.11804926395416260000e-002) (68, -4.12412583827972410000e-002) (69, 1.15216588601469990000e-002) (70, -1.30409717559814450000e-001) (71, 2.97207012772560120000e-002) (72, -9.21867713332176210000e-002) (73, 8.56238007545471190000e-002) (74, -1.28993824124336240000e-001) (75, 1.64735950529575350000e-002) (76, 5.60259670019149780000e-002) (77, 1.66835859417915340000e-001) (78, -1.98716759681701660000e-001) (79, -4.49867509305477140000e-002) (80, -3.43531854450702670000e-002) (81, 1.03115856647491460000e-001) (82, -7.88928866386413570000e-002) (83, 4.63988035917282100000e-002) (84, 9.16099473834037780000e-002) (0, 1.65873631834983830000e-001) (1, -7.22812414169311520000e-001) (2, 2.05693989992141720000e-001) (3, -7.85864531993865970000e-001) (4, 2.78934799134731290000e-002) (5, -9.19035911560058590000e-001) (6, -2.47688159346580510000e-001) (7, 1.07987418770790100000e-001) (8, 1.71358417719602580000e-002) (9, -9.27762150764465330000e-001) (10, 2.02483683824539180000e-001) (11, -7.87185668945312500000e-001) (12, 1.61851376295089720000e-001) (13, -7.09554910659790040000e-001) (14, -1.34324714541435240000e-001) (15, -8.60689997673034670000e-001) (16, -7.82728046178817750000e-002) (17, -3.43986190855503080000e-002) (18, -1.83012202382087710000e-001) (19, 1.90327420830726620000e-001) (20, -1.76318481564521790000e-001) (21, 2.63047218322753910000e-001) (22, -1.82917386293411250000e-001) (23, 1.82247593998909000000e-001) (24, -8.79366844892501830000e-002) (25, -4.75977808237075810000e-002) (26, -1.58185303211212160000e-001) (27, -8.65337729454040530000e-001) (28, -2.57358282804489140000e-001) (29, -3.59850168228149410000e-001) (30, 8.86364728212356570000e-002) (31, 4.19753879308700560000e-001) (32, -1.59371033310890200000e-001) (33, 1.42553716897964480000e-001) (34, -1.06351271271705630000e-001) (35, 4.28375571966171260000e-001) (36, -1.61052018404006960000e-001) (37, 1.45832926034927370000e-001) (38, 1.00430861115455630000e-001) (39, 4.23570156097412110000e-001) (40, -2.61678993701934810000e-001) (41, -3.63321363925933840000e-001) (42, -1.64763227105140690000e-001) (43, -4.83783781528472900000e-001) (44, -1.43061175942420960000e-001) (45, 1.26297736167907710000e+000) (46, -2.37286053597927090000e-002) (47, -2.61867552995681760000e-001) (48, -1.68830811977386470000e-001) (49, 1.67755722999572750000e-001) (50, -2.36017052084207530000e-002) (51, -2.78981208801269530000e-001) (52, -1.43350914120674130000e-001) (53, 1.27086710929870610000e+000) (54, -1.81486740708351140000e-001) (55, -4.87533211708068850000e-001) (56, 8.48713293671607970000e-002) (57, -2.32753846794366840000e-002) (58, -7.21051767468452450000e-002) (59, 4.98559921979904170000e-001) (60, 3.24753485620021820000e-002) (61, 2.84964352846145630000e-001) (62, 1.57476350665092470000e-001) (63, 9.05097052454948430000e-002) (64, 1.33141381666064260000e-002) (65, 2.82775968313217160000e-001) (66, -6.98333755135536190000e-002) (67, 5.05233347415924070000e-001) (68, 1.02379567921161650000e-001) (69, -5.86568424478173260000e-003) (70, -5.32502792775630950000e-002) (71, 5.98680138587951660000e-001) (72, 1.05688311159610750000e-001) (73, 5.39833009243011470000e-001) (74, -8.34466293454170230000e-002) (75, 6.45353019237518310000e-001) (76, 2.17198535799980160000e-001) (77, 4.45462316274642940000e-001) (78, -8.13101828098297120000e-002) (79, 6.46539330482482910000e-001) (80, 1.10999368131160740000e-001) (81, 5.70415735244750980000e-001) (82, -4.36703674495220180000e-002) (83, 6.17077350616455080000e-001) (84, -1.91707992553710940000e+000) (0, 5.15724271535873410000e-002) (1, 1.09978780150413510000e-001) (2, 1.09584785997867580000e-001) (3, -2.99682945013046260000e-001) (4, -1.03243783116340640000e-001) (5, 1.21285177767276760000e-001) (6, -2.71172404289245610000e-001) (7, 1.12314075231552120000e-001) (8, -1.02837428450584410000e-001) (9, 8.44499766826629640000e-002) (10, 1.14051364362239840000e-001) (11, -3.61806541681289670000e-001) (12, 1.13073899410665040000e-003) (13, 1.15420162677764890000e-001) (14, 2.49924864619970320000e-002) (15, 3.40577512979507450000e-002) (16, -2.98852920532226560000e-002) (17, 1.47493541240692140000e-001) (18, -7.58648514747619630000e-002) (19, 1.27970516681671140000e-001) (20, -1.91114947199821470000e-001) (21, 2.00293809175491330000e-001) (22, -1.87687456607818600000e-001) (23, 1.09970159828662870000e-001) (24, -6.93170633167028430000e-003) (25, 2.05777019262313840000e-001) (26, 8.02811011672019960000e-002) (27, 3.48639599978923800000e-002) (28, -2.03670740127563480000e-001) (29, 2.61399392038583760000e-002) (30, -2.05224916338920590000e-001) (31, 1.63707107305526730000e-001) (32, -1.48236483335495000000e-001) (33, 1.64220660924911500000e-001) (34, -2.89586305618286130000e-001) (35, -1.57680258154869080000e-001) (36, -1.10248133540153500000e-001) (37, 2.42539122700691220000e-001) (38, -2.36400470137596130000e-001) (39, 7.15618655085563660000e-002) (40, -1.80971682071685790000e-001) (41, 2.49613691121339800000e-002) (42, -7.09870457649230960000e-002) (43, 2.50689893960952760000e-001) (44, -1.52282699942588810000e-001) (45, 2.18156144022941590000e-001) (46, -1.66193798184394840000e-001) (47, 1.53255164623260500000e-001) (48, 1.13374702632427220000e-001) (49, 3.84082019329071040000e-001) (50, -1.37522920966148380000e-001) (51, 2.47416317462921140000e-001) (52, -1.93684384226799010000e-001) (53, 2.02371954917907710000e-001) (54, -1.54165491461753850000e-001) (55, 1.36710897088050840000e-001) (56, -1.09627239406108860000e-001) (57, 5.95732256770133970000e-002) (58, -1.51982344686985020000e-002) (59, 6.72473534941673280000e-002) (60, -1.03121146559715270000e-001) (61, 8.40831995010375980000e-002) (62, -5.01409657299518590000e-002) (63, 7.16224894858896730000e-004) (64, -3.49782109260559080000e-002) (65, 1.58279702067375180000e-001) (66, -5.46846352517604830000e-002) (67, 7.27675035595893860000e-002) (68, -1.17741391062736510000e-001) (69, 1.38829769566655160000e-002) (70, -1.83540165424346920000e-001) (71, 9.98981669545173650000e-002) (72, -1.47543326020240780000e-001) (73, 4.64468486607074740000e-002) (74, -2.07870289683341980000e-001) (75, -6.50626420974731450000e-002) (76, -2.81211584806442260000e-002) (77, -6.82243779301643370000e-002) (78, -9.39849615097045900000e-002) (79, -4.55626808106899260000e-002) (80, -1.36002898216247560000e-001) (81, -1.93001385778188710000e-002) (82, -2.18325823545455930000e-001) (83, 4.26247864961624150000e-002) (84, 2.70570427179336550000e-001) (0, 2.15016469359397890000e-001) (1, 1.88027068972587590000e-001) (2, 2.63214319944381710000e-001) (3, 4.74261015653610230000e-001) (4, 5.10362461209297180000e-002) (5, 1.69771894812583920000e-001) (6, -4.81148451566696170000e-001) (7, 6.10321581363677980000e-001) (8, 5.28313368558883670000e-002) (9, 1.82266905903816220000e-001) (10, 2.75813728570938110000e-001) (11, 4.59313720464706420000e-001) (12, 2.18941763043403630000e-001) (13, 1.99037253856658940000e-001) (14, 2.99646973609924320000e-001) (15, 4.10712450742721560000e-001) (16, -5.01954630017280580000e-002) (17, 4.17590498924255370000e-001) (18, -6.02104105055332180000e-002) (19, 2.17962279915809630000e-001) (20, 4.15170975029468540000e-002) (21, -4.16725222021341320000e-003) (22, -5.97015805542469020000e-002) (23, 2.15010568499565120000e-001) (24, -8.20774659514427190000e-002) (25, 4.04052138328552250000e-001) (26, 3.17402094602584840000e-001) (27, 4.34866160154342650000e-001) (28, 2.88597315549850460000e-001) (29, 4.61491078138351440000e-001) (30, 8.78495201468467710000e-002) (31, 1.42450839281082150000e-001) (32, 6.73163086175918580000e-002) (33, 9.04598236083984380000e-002) (34, 2.03591421246528630000e-001) (35, -1.65299519896507260000e-001) (36, 6.49720504879951480000e-002) (37, 8.82097184658050540000e-002) (38, 9.34547483921051030000e-002) (39, 1.37552812695503230000e-001) (40, 2.73954510688781740000e-001) (41, 4.41365867853164670000e-001) (42, 9.97872948646545410000e-002) (43, 3.20515334606170650000e-001) (44, 2.82643437385559080000e-001) (45, 1.98446691036224370000e-001) (46, 3.92901480197906490000e-001) (47, 1.33835256099700930000e-001) (48, 5.27393817901611330000e-001) (49, -1.48767307400703430000e-001) (50, 3.95146936178207400000e-001) (51, 1.34815543889999390000e-001) (52, 2.83660382032394410000e-001) (53, 2.23150372505187990000e-001) (54, 9.71449762582778930000e-002) (55, 3.07068049907684330000e-001) (56, -1.42634078860282900000e-001) (57, 2.86480218172073360000e-001) (58, 1.38428822159767150000e-001) (59, -1.20076034218072890000e-002) (60, 4.60094898939132690000e-001) (61, -1.30644991993904110000e-001) (62, 1.95162311196327210000e-001) (63, -1.73480525612831120000e-001) (64, 4.88945007324218750000e-001) (65, -1.37169793248176570000e-001) (66, 1.52307942509651180000e-001) (67, -4.47332905605435370000e-003) (68, -1.57525807619094850000e-001) (69, 2.72084057331085210000e-001) (70, 6.49945586919784550000e-002) (71, 1.25356614589691160000e-001) (72, 7.39689692854881290000e-002) (73, 1.75213024020195010000e-001) (74, -1.84802748262882230000e-002) (75, -3.33023965358734130000e-001) (76, 3.17694060504436490000e-002) (77, 7.20549598336219790000e-002) (78, -8.93937516957521440000e-003) (79, -3.42907845973968510000e-001) (80, 6.69451355934143070000e-002) (81, 1.68183892965316770000e-001) (82, 7.30764642357826230000e-002) (83, 1.29644244909286500000e-001) (84, -1.29066836833953860000e+000) (0, 3.39636951684951780000e-001) (1, -9.84181940555572510000e-001) (2, 5.00327229499816890000e-001) (3, -7.00091302394866940000e-001) (4, 2.63290673494338990000e-001) (5, -1.16443887352943420000e-001) (6, 1.01539686322212220000e-001) (7, 1.15035131573677060000e-001) (8, 4.28555607795715330000e-001) (9, -8.90317857265472410000e-001) (10, 2.00070694088935850000e-001) (11, -3.39508354663848880000e-001) (12, 3.48096251487731930000e-001) (13, -5.05539238452911380000e-001) (14, 4.53136861324310300000e-001) (15, -4.33915764093399050000e-001) (16, 4.11632150411605830000e-001) (17, -5.51612854003906250000e-001) (18, -1.95600122213363650000e-001) (19, 2.50309050083160400000e-001) (20, -2.28366360068321230000e-001) (21, 1.40854135155677800000e-001) (22, 2.70306974649429320000e-001) (23, -2.71364241838455200000e-001) (24, -5.29832467436790470000e-002) (25, 6.32437765598297120000e-002) (26, 3.15506190061569210000e-001) (27, -2.83494114875793460000e-001) (28, -4.07996885478496550000e-002) (29, 4.31562066078186040000e-001) (30, -1.14002384245395660000e-001) (31, 5.54182350635528560000e-001) (32, 1.06625854969024660000e-001) (33, -6.71011283993721010000e-002) (34, -3.84895771741867070000e-001) (35, 1.97287887334823610000e-001) (36, -1.55154690146446230000e-001) (37, 6.37951418757438660000e-002) (38, -1.74586385488510130000e-001) (39, 5.78032314777374270000e-001) (40, 1.24077118933200840000e-001) (41, -9.74865108728408810000e-002) (42, -6.94975629448890690000e-002) (43, 1.21279865503311160000e-001) (44, -1.75408780574798580000e-001) (45, -2.64692395925521850000e-001) (46, -2.24653974175453190000e-001) (47, 3.58950793743133540000e-001) (48, -2.61536657810211180000e-001) (49, 2.53102570772171020000e-001) (50, -1.80543195456266400000e-002) (51, 3.36288958787918090000e-001) (52, -2.81656235456466670000e-001) (53, -2.39845931529998780000e-001) (54, 4.04617726802825930000e-001) (55, -4.30026233196258540000e-001) (56, -2.40779072046279910000e-001) (57, 2.79926091432571410000e-001) (58, 1.61699295043945310000e-001) (59, 1.25550330267287790000e-004) (60, -2.53954023122787480000e-001) (61, 1.17163836956024170000e-001) (62, -5.68263292312622070000e-001) (63, 7.65895247459411620000e-001) (64, -3.13523054122924800000e-001) (65, 3.31989079713821410000e-001) (66, -3.69043618440628050000e-001) (67, 3.04139524698257450000e-001) (68, 2.29099839925765990000e-001) (69, -2.21624881029129030000e-001) (70, 1.85138344764709470000e-001) (71, -7.65800654888153080000e-001) (72, -1.42936035990715030000e-001) (73, -6.48826181888580320000e-001) (74, -1.03954541683197020000e+000) (75, 1.90553796291351320000e+000) (76, -1.17853605747222900000e+000) (77, 1.87813210487365720000e+000) (78, -1.69674947857856750000e-001) (79, -1.40317499637603760000e+000) (80, -4.65137213468551640000e-001) (81, 5.78167021274566650000e-001) (82, -3.38478177785873410000e-001) (83, 6.31626188755035400000e-001) (84, 1.36026665568351750000e-001) (0, 8.33095461130142210000e-002) (1, 1.35157266631722450000e-002) (2, 1.50280237197875980000e-001) (3, 2.23523899912834170000e-002) (4, -5.69474808871746060000e-002) (5, -1.22570022940635680000e-001) (6, 2.03527808189392090000e-002) (7, 1.08167482540011410000e-002) (8, -8.29627588391304020000e-002) (9, -1.66483372449874880000e-001) (10, 8.99083241820335390000e-002) (11, 3.19152399897575380000e-002) (12, 1.28746777772903440000e-001) (13, 8.33716914057731630000e-002) (14, -1.94639608263969420000e-001) (15, 2.61871695518493650000e-001) (16, -1.47302160039544110000e-002) (17, 2.15574234724044800000e-001) (18, -4.46694083511829380000e-002) (19, -2.16041691601276400000e-002) (20, 1.43094122409820560000e-001) (21, -1.10606104135513310000e-001) (22, -8.74203741550445560000e-002) (23, -1.57271027565002440000e-002) (24, 3.73519361019134520000e-002) (25, 2.06682756543159480000e-001) (26, -8.26603919267654420000e-002) (27, 2.61854857206344600000e-001) (28, -1.20417363941669460000e-001) (29, 2.88349300622940060000e-001) (30, -1.71543762087821960000e-001) (31, 2.90256142616271970000e-002) (32, 8.96405354142189030000e-002) (33, 1.10172629356384280000e-001) (34, 7.44271352887153630000e-002) (35, -8.73493179678916930000e-002) (36, 9.70360860228538510000e-002) (37, 5.04697971045970920000e-002) (38, -1.80766925215721130000e-001) (39, 5.66270053386688230000e-002) (40, -1.94630518555641170000e-001) (41, 4.01652663946151730000e-001) (42, -2.32845246791839600000e-001) (43, 6.20222128927707670000e-002) (44, -3.17329727113246920000e-002) (45, -1.98348406702280040000e-002) (46, -1.26189693808555600000e-001) (47, -5.40779940783977510000e-002) (48, 1.09781764447689060000e-001) (49, 1.82640478014945980000e-002) (50, -1.57453820109367370000e-001) (51, -7.17551335692405700000e-002) (52, -9.65544581413269040000e-002) (53, 2.22328156232833860000e-002) (54, -3.13049554824829100000e-001) (55, -1.88485719263553620000e-002) (56, -1.84440482407808300000e-002) (57, 3.04651595652103420000e-002) (58, -6.01283200085163120000e-002) (59, 8.06829109787940980000e-002) (60, 2.34605632722377780000e-002) (61, 1.33055329322814940000e-001) (62, 2.16365028172731400000e-002) (63, 1.83672420680522920000e-002) (64, 4.97381761670112610000e-003) (65, -1.02168181911110880000e-002) (66, -8.71359929442405700000e-002) (67, 1.20514161884784700000e-001) (68, -8.01170244812965390000e-002) (69, 3.75102460384368900000e-002) (70, -5.57677485048770900000e-002) (71, 1.12258397042751310000e-001) (72, -2.86558531224727630000e-002) (73, 1.21394820511341090000e-001) (74, 9.60961878299713130000e-002) (75, 9.25599932670593260000e-002) (76, -1.45476385951042180000e-002) (77, 2.53552105277776720000e-002) (78, 6.64619263261556630000e-003) (79, -4.64330725371837620000e-002) (80, -5.38911931216716770000e-002) (81, -2.95487213879823680000e-002) (82, -1.96154359728097920000e-002) (83, 7.01979696750640870000e-002) (84, -1.40074178576469420000e-001) (0, 7.87369683384895320000e-002) (1, -3.79165858030319210000e-001) (2, 9.86145660281181340000e-002) (3, -2.47570872306823730000e-001) (4, 4.43105585873126980000e-002) (5, -6.39316216111183170000e-002) (6, -2.48267799615859990000e-001) (7, -9.23714786767959590000e-003) (8, -2.13128067553043370000e-002) (9, -2.12435275316238400000e-002) (10, 8.87652635574340820000e-002) (11, -1.65274754166603090000e-001) (12, 4.10313680768013000000e-002) (13, -2.90731996297836300000e-001) (14, 2.62928545475006100000e-001) (15, -1.96529850363731380000e-001) (16, 1.29665434360504150000e-001) (17, -2.09252312779426570000e-001) (18, 6.11181221902370450000e-002) (19, -7.01169669628143310000e-003) (20, -5.29115498065948490000e-002) (21, 1.44294798374176030000e-001) (22, 1.13533250987529750000e-001) (23, 6.62234574556350710000e-002) (24, 1.51167318224906920000e-001) (25, -1.87165573239326480000e-001) (26, 2.77144074440002440000e-001) (27, -1.62812128663063050000e-001) (28, 2.53702867776155470000e-002) (29, -2.32995182275772090000e-001) (30, 3.13845649361610410000e-002) (31, -3.56709621846675870000e-002) (32, 1.10774422064423560000e-002) (33, -7.90822952985763550000e-002) (34, -1.38229429721832280000e-001) (35, 1.44468799233436580000e-001) (36, -3.79492230713367460000e-002) (37, -4.94547002017498020000e-002) (38, 6.84895515441894530000e-002) (39, -2.38635074347257610000e-002) (40, 7.29792267084121700000e-002) (41, -2.06007570028305050000e-001) (42, 1.60835921764373780000e-001) (43, -2.87715960294008260000e-002) (44, -6.25203028321266170000e-002) (45, 1.52180586010217670000e-002) (46, -5.33207617700099950000e-002) (47, 1.03018343448638920000e-001) (48, 1.43218666315078740000e-001) (49, 3.07485640048980710000e-001) (50, -8.34487657994031910000e-003) (51, 5.09542003273963930000e-002) (52, -1.02459363639354710000e-001) (53, 9.62338090175762770000e-005) (54, 1.29872635006904600000e-001) (55, -6.61031855270266530000e-003) (56, 1.32023155689239500000e-001) (57, -8.67706462740898130000e-002) (58, -5.02548366785049440000e-002) (59, -1.27711892127990720000e-001) (60, 2.77747083455324170000e-002) (61, 4.79672178626060490000e-002) (62, 6.98361266404390340000e-003) (63, -2.26543530821800230000e-001) (64, 3.94015014171600340000e-002) (65, 8.20664167404174800000e-002) (66, -7.73037075996398930000e-002) (67, -1.45930022001266480000e-001) (68, 2.11621925234794620000e-001) (69, -1.07497401535511020000e-001) (70, 2.89425216615200040000e-002) (71, -1.14382222294807430000e-001) (72, -4.84934858977794650000e-002) (73, 4.38774488866329190000e-002) (74, -8.02092347294092180000e-003) (75, 9.72080007195472720000e-002) (76, -4.01784339919686320000e-003) (77, 5.68842031061649320000e-002) (78, -1.96255538612604140000e-002) (79, 1.27283006906509400000e-001) (80, -2.73665543645620350000e-002) (81, 1.10590420663356780000e-001) (82, 3.38205881416797640000e-002) (83, -1.75162386149168010000e-002) (84, -1.39349609613418580000e-001) (0, -6.22167326509952550000e-002) (1, 3.44180315732955930000e-001) (2, -2.04090178012847900000e-001) (3, 3.81307333707809450000e-001) (4, -2.68493562936782840000e-001) (5, 3.48532497882843020000e-001) (6, 4.33445535600185390000e-002) (7, 4.47847060859203340000e-002) (8, -2.76204466819763180000e-001) (9, 5.69959402084350590000e-001) (10, -2.97423034906387330000e-001) (11, 2.22940012812614440000e-001) (12, -2.28112384676933290000e-001) (13, 2.69438832998275760000e-001) (14, -3.21935743093490600000e-001) (15, 3.88872146606445310000e-001) (16, 6.62015303969383240000e-002) (17, 1.00773952901363370000e-001) (18, -1.07640944421291350000e-001) (19, -2.23577991127967830000e-001) (20, -1.28524210304021840000e-002) (21, -4.21736128628253940000e-002) (22, 7.04283043742179870000e-002) (23, 2.99363136291503910000e-001) (24, -1.58011034131050110000e-001) (25, 1.51134729385375980000e-001) (26, -3.07495504617691040000e-001) (27, 2.28825882077217100000e-001) (28, -1.26543402671813960000e-001) (29, -4.51224111020565030000e-002) (30, 7.72040113806724550000e-002) (31, -1.74772888422012330000e-001) (32, -2.05159097909927370000e-001) (33, -4.34298187494277950000e-001) (34, 1.15635275840759280000e-001) (35, 7.83028826117515560000e-002) (36, 4.03617441654205320000e-001) (37, 9.18541476130485530000e-002) (38, -7.30216801166534420000e-002) (39, -2.96671390533447270000e-001) (40, -1.00714802742004390000e-001) (41, -1.06686271727085110000e-001) (42, 6.77570179104804990000e-002) (43, 2.32523888349533080000e-001) (44, 3.40904772281646730000e-001) (45, 2.42966767400503160000e-002) (46, -1.99283033609390260000e-001) (47, -6.74914181232452390000e-001) (48, -1.67550638318061830000e-001) (49, -3.26122432947158810000e-001) (50, 3.90562325716018680000e-001) (51, 1.92251414060592650000e-001) (52, 2.27534607052803040000e-001) (53, -2.63064682483673100000e-001) (54, 1.44229605793952940000e-001) (55, -4.91909822449088100000e-003) (56, -7.55873769521713260000e-002) (57, 1.31126821041107180000e-001) (58, 1.98511689901351930000e-001) (59, -8.30848589539527890000e-002) (60, -2.91925072669982910000e-001) (61, -5.25652527809143070000e-001) (62, -1.72986611723899840000e-002) (63, 8.47955700010061260000e-003) (64, 6.32442891597747800000e-001) (65, 2.34711989760398860000e-001) (66, -1.47024020552635190000e-001) (67, -3.06504696607589720000e-001) (68, -3.41605991125106810000e-001) (69, 9.33793485164642330000e-002) (70, 1.25234007835388180000e-001) (71, 4.12378728389739990000e-001) (72, 1.60356909036636350000e-001) (73, 2.02637150883674620000e-001) (74, -3.40682804584503170000e-001) (75, -3.74341644346714020000e-002) (76, 1.07930690050125120000e-001) (77, -1.41410246491432190000e-001) (78, 6.95297718048095700000e-001) (79, 2.83816158771514890000e-001) (80, -8.05841088294982910000e-002) (81, -2.73515254259109500000e-001) (82, -1.00141167640686040000e-001) (83, -3.16014111042022710000e-001) (84, 1.52416564524173740000e-002) (0, 7.92311318218708040000e-003) (1, 1.92781627178192140000e-001) (2, 3.16465556621551510000e-001) (3, -1.08720615506172180000e-001) (4, 4.59817722439765930000e-002) (5, 1.16429887712001800000e-001) (6, 1.03912359918467700000e-004) (7, 5.92408254742622380000e-002) (8, 3.92047017812728880000e-002) (9, 1.34277701377868650000e-001) (10, 3.23642998933792110000e-001) (11, -1.44098728895187380000e-001) (12, -8.26078373938798900000e-003) (13, 4.02595214545726780000e-002) (14, -4.03104610741138460000e-002) (15, 1.22038379311561580000e-001) (16, -8.78833457827568050000e-002) (17, 1.92360281944274900000e-002) (18, -1.10316522419452670000e-001) (19, 1.28817245364189150000e-001) (20, -3.34273308515548710000e-001) (21, 1.04143872857093810000e-001) (22, -7.99120962619781490000e-002) (23, 1.12057507038116460000e-001) (24, -1.21176727116107940000e-001) (25, -7.08805397152900700000e-003) (26, -1.30417168140411380000e-001) (27, 1.04168660938739780000e-001) (28, -5.10716214776039120000e-002) (29, -2.21800897270441060000e-002) (30, 7.85802304744720460000e-002) (31, 1.43653273582458500000e-001) (32, 1.78516924381256100000e-001) (33, 9.33389216661453250000e-002) (34, 5.97205944359302520000e-002) (35, -8.71715098619461060000e-002) (36, 1.10345277935266490000e-002) (37, -5.54807856678962710000e-003) (38, 6.53852000832557680000e-002) (39, 1.49613454937934880000e-001) (40, -5.48020377755165100000e-002) (41, -3.56803201138973240000e-002) (42, 4.40216660499572750000e-002) (43, 4.39916783943772320000e-003) (44, -1.48778557777404790000e-001) (45, -1.08456134796142580000e-001) (46, -3.16293351352214810000e-002) (47, 4.96924296021461490000e-002) (48, 2.74884123355150220000e-002) (49, -4.49214391410350800000e-002) (50, -1.30600824952125550000e-001) (51, -6.95226192474365230000e-002) (52, -1.43537536263465880000e-001) (53, -7.42216035723686220000e-002) (54, -4.58567775785923000000e-002) (55, -4.15120180696249010000e-003) (56, -4.16013859212398530000e-002) (57, -4.25314120948314670000e-002) (58, 4.72237281501293180000e-002) (59, 5.75361400842666630000e-002) (60, 4.69164289534091950000e-002) (61, 2.14041873812675480000e-001) (62, -5.78852407634258270000e-002) (63, -3.85925099253654480000e-002) (64, -1.17829568684101100000e-001) (65, 8.69839340448379520000e-002) (66, -1.27289853990077970000e-002) (67, 1.06800571084022520000e-002) (68, -4.59383204579353330000e-002) (69, -8.23482051491737370000e-002) (70, 5.46296685934066770000e-002) (71, 6.97742700576782230000e-002) (72, 3.81103605031967160000e-002) (73, -8.51428136229515080000e-003) (74, 6.26652464270591740000e-002) (75, 3.32564972341060640000e-002) (76, 9.13653001189231870000e-002) (77, 4.21059429645538330000e-002) (78, -8.17274376749992370000e-002) (79, -7.33927935361862180000e-002) (80, -2.86553427577018740000e-002) (81, -4.74758520722389220000e-002) (82, -1.46874291822314260000e-002) (83, 3.38035114109516140000e-002) (84, -5.27035929262638090000e-002) (0, -4.25080001354217530000e-001) (1, 4.66754674911499020000e-001) (2, -3.85808176361024380000e-003) (3, -2.68203914165496830000e-001) (4, 1.53961658477783200000e-001) (5, -1.43817672505974770000e-002) (6, -7.30055244639515880000e-003) (7, 9.76000949740409850000e-002) (8, 1.53263002634048460000e-001) (9, -1.45675882697105410000e-001) (10, -3.81068256683647630000e-003) (11, -2.49061286449432370000e-001) (12, -5.42254149913787840000e-001) (13, 4.64050561189651490000e-001) (14, -1.81148990988731380000e-001) (15, 6.07488714158535000000e-002) (16, 9.22011509537696840000e-002) (17, 2.43368655443191530000e-001) (18, 4.73845340311527250000e-002) (19, 8.87384712696075440000e-002) (20, -4.56068068742752080000e-002) (21, 2.16571852564811710000e-001) (22, -1.50324432179331780000e-002) (23, 4.50061745941638950000e-002) (24, 3.13111841678619380000e-002) (25, 2.54869252443313600000e-001) (26, -3.29525858163833620000e-001) (27, 1.03164866566658020000e-001) (28, 1.21741993352770810000e-002) (29, 9.40619781613349910000e-002) (30, -2.02850118279457090000e-001) (31, 1.04956932365894320000e-001) (32, -1.27877697348594670000e-001) (33, -1.04157999157905580000e-001) (34, -4.29626256227493290000e-002) (35, -1.63068249821662900000e-001) (36, -1.15597933530807500000e-001) (37, -1.09725974500179290000e-001) (38, -2.46626392006874080000e-001) (39, 1.10995821654796600000e-001) (40, 3.68972457945346830000e-002) (41, 3.11377774924039840000e-002) (42, -9.86065790057182310000e-002) (43, 1.66707962751388550000e-001) (44, -1.50113314390182500000e-001) (45, 2.04503014683723450000e-002) (46, 1.24522976577281950000e-001) (47, 1.20346240699291230000e-001) (48, -1.15300770848989490000e-002) (49, 7.02987015247344970000e-002) (50, 8.46237987279891970000e-002) (51, 6.20185621082782750000e-002) (52, -1.16978876292705540000e-001) (53, 2.20840442925691600000e-002) (54, -3.85145433247089390000e-002) (55, 1.12045787274837490000e-001) (56, 1.73201654106378560000e-002) (57, -9.53911542892456050000e-002) (58, 1.13693274557590480000e-001) (59, 7.70328044891357420000e-002) (60, -1.86237897723913190000e-002) (61, -7.06185586750507350000e-004) (62, -2.88020614534616470000e-002) (63, 2.10803031921386720000e-001) (64, -7.87494629621505740000e-002) (65, -1.14277191460132600000e-001) (66, 9.42350551486015320000e-002) (67, 1.73667911440134050000e-002) (68, -9.97494682669639590000e-002) (69, -6.44019767642021180000e-002) (70, -6.96103870868682860000e-002) (71, 8.89063626527786250000e-002) (72, -8.40077828615903850000e-003) (73, 4.51617427170276640000e-002) (74, 5.59333572164177890000e-003) (75, 1.33627699688076970000e-002) (76, -7.52354562282562260000e-002) (77, -1.86088666319847110000e-001) (78, -1.19178570806980130000e-001) (79, -1.33705914020538330000e-001) (80, 2.12335102260112760000e-002) (81, 1.31038855761289600000e-002) (82, -2.39235591143369670000e-002) (83, 8.79172980785369870000e-002) (84, 9.03734639286994930000e-002) (0, -1.63685560226440430000e-001) (1, -9.98179689049720760000e-002) (2, -2.61822551488876340000e-001) (3, 3.63961100578308110000e-001) (4, -1.89244136214256290000e-001) (5, 8.14948603510856630000e-002) (6, 2.75645926594734190000e-002) (7, -2.63504594564437870000e-001) (8, -1.80343806743621830000e-001) (9, 6.06555603444576260000e-002) (10, -1.92488133907318120000e-001) (11, 3.62920850515365600000e-001) (12, -9.28733944892883300000e-002) (13, -2.32735410332679750000e-001) (14, 2.79122591018676760000e-003) (15, 2.40695178508758540000e-001) (16, 4.00542542338371280000e-002) (17, -2.63278223574161530000e-002) (18, -2.47730389237403870000e-002) (19, 1.86794593930244450000e-001) (20, 9.15220379829406740000e-002) (21, 2.71575123071670530000e-001) (22, -3.56740355491638180000e-002) (23, 2.08733052015304570000e-001) (24, 1.09456613659858700000e-001) (25, 3.35237458348274230000e-002) (26, 1.21735292486846450000e-003) (27, 3.03630560636520390000e-001) (28, -3.03392499685287480000e-001) (29, 2.97403663396835330000e-001) (30, -1.31208345293998720000e-001) (31, -1.32715389132499690000e-001) (32, -1.67531520128250120000e-001) (33, -1.84056133031845090000e-001) (34, -3.27309995889663700000e-001) (35, -1.38990461826324460000e-001) (36, -1.53089970350265500000e-001) (37, -1.74653008580207820000e-001) (38, -7.43695795536041260000e-002) (39, -1.29531353712081910000e-001) (40, -2.80110925436019900000e-001) (41, 2.77229994535446170000e-001) (42, -1.89245015382766720000e-001) (43, -5.17189912497997280000e-002) (44, 1.97004109621047970000e-001) (45, 1.60091757774353030000e-001) (46, 2.22035065293312070000e-001) (47, 6.60365074872970580000e-002) (48, 3.37502658367156980000e-002) (49, 5.27373179793357850000e-002) (50, 2.49310910701751710000e-001) (51, 7.02289938926696780000e-002) (52, 1.92692756652832030000e-001) (53, 1.14323399960994720000e-001) (54, -1.35765805840492250000e-001) (55, -3.44704538583755490000e-002) (56, -2.29761912487447260000e-003) (57, -5.64805790781974790000e-002) (58, -1.64774060249328610000e-001) (59, -2.98271384090185170000e-002) (60, 