FANN_FLO_2.1
num_layers=3
learning_rate=0.500000
connection_rate=1.000000
network_type=0
learning_momentum=0.000000
training_algorithm=1
train_error_function=1
train_stop_function=0
cascade_output_change_fraction=0.010000
quickprop_decay=-0.000100
quickprop_mu=1.750000
rprop_increase_factor=1.200000
rprop_decrease_factor=0.500000
rprop_delta_min=0.000000
rprop_delta_max=50.000000
rprop_delta_zero=0.100000
cascade_output_stagnation_epochs=12
cascade_candidate_change_fraction=0.010000
cascade_candidate_stagnation_epochs=12
cascade_max_out_epochs=150
cascade_min_out_epochs=50
cascade_max_cand_epochs=150
cascade_min_cand_epochs=50
cascade_num_candidate_groups=2
bit_fail_limit=3.49999994039535520000e-001
cascade_candidate_limit=1.00000000000000000000e+003
cascade_weight_multiplier=4.00000005960464480000e-001
cascade_activation_functions_count=10
cascade_activation_functions=3 5 7 8 10 11 14 15 16 17 
cascade_activation_steepnesses_count=4
cascade_activation_steepnesses=2.50000000000000000000e-001 5.00000000000000000000e-001 7.50000000000000000000e-001 1.00000000000000000000e+000 
layer_sizes=85 251 2 
scale_included=0
neurons (num_inputs, activation_function, activation_steepness)=(0, 0, 0.00000000000000000000e+000) (0, 0, 0.00000000000000000000e+000) (0, 0, 0.00000000000000000000e+000) (0, 0, 0.00000000000000000000e+000) (0, 0, 0.00000000000000000000e+000) (0, 0, 0.00000000000000000000e+000) (0, 0, 0.00000000000000000000e+000) (0, 0, 0.00000000000000000000e+000) (0, 0, 0.00000000000000000000e+000) (0, 0, 0.00000000000000000000e+000) (0, 0, 0.00000000000000000000e+000) (0, 0, 0.00000000000000000000e+000) (0, 0, 0.00000000000000000000e+000) (0, 0, 0.00000000000000000000e+000) (0, 0, 0.00000000000000000000e+000) (0, 0, 0.00000000000000000000e+000) (0, 0, 0.00000000000000000000e+000) (0, 0, 0.00000000000000000000e+000) (0, 0, 0.00000000000000000000e+000) (0, 0, 0.00000000000000000000e+000) (0, 0, 0.00000000000000000000e+000) (0, 0, 0.00000000000000000000e+000) (0, 0, 0.00000000000000000000e+000) (0, 0, 0.00000000000000000000e+000) (0, 0, 0.00000000000000000000e+000) (0, 0, 0.00000000000000000000e+000) (0, 0, 0.00000000000000000000e+000) (0, 0, 0.00000000000000000000e+000) (0, 0, 0.00000000000000000000e+000) (0, 0, 0.00000000000000000000e+000) (0, 0, 0.00000000000000000000e+000) (0, 0, 0.00000000000000000000e+000) (0, 0, 0.00000000000000000000e+000) (0, 0, 0.00000000000000000000e+000) (0, 0, 0.00000000000000000000e+000) (0, 0, 0.00000000000000000000e+000) (0, 0, 0.00000000000000000000e+000) (0, 0, 0.00000000000000000000e+000) (0, 0, 0.00000000000000000000e+000) (0, 0, 0.00000000000000000000e+000) (0, 0, 0.00000000000000000000e+000) (0, 0, 0.00000000000000000000e+000) (0, 0, 0.00000000000000000000e+000) (0, 0, 0.00000000000000000000e+000) (0, 0, 0.00000000000000000000e+000) (0, 0, 0.00000000000000000000e+000) (0, 0, 0.00000000000000000000e+000) (0, 0, 0.00000000000000000000e+000) (0, 0, 0.00000000000000000000e+000) (0, 0, 0.00000000000000000000e+000) (0, 0, 0.00000000000000000000e+000) (0, 0, 0.00000000000000000000e+000) (0, 0, 0.00000000000000000000e+000) (0, 0, 0.00000000000000000000e+000) (0, 0, 0.00000000000000000000e+000) (0, 0, 0.00000000000000000000e+000) (0, 0, 0.00000000000000000000e+000) (0, 0, 0.00000000000000000000e+000) (0, 0, 0.00000000000000000000e+000) (0, 0, 0.00000000000000000000e+000) (0, 0, 0.00000000000000000000e+000) (0, 0, 0.00000000000000000000e+000) (0, 0, 0.00000000000000000000e+000) (0, 0, 0.00000000000000000000e+000) (0, 0, 0.00000000000000000000e+000) (0, 0, 0.00000000000000000000e+000) (0, 0, 0.00000000000000000000e+000) (0, 0, 0.00000000000000000000e+000) (0, 0, 0.00000000000000000000e+000) (0, 0, 0.00000000000000000000e+000) (0, 0, 0.00000000000000000000e+000) (0, 0, 0.00000000000000000000e+000) (0, 0, 0.00000000000000000000e+000) (0, 0, 0.00000000000000000000e+000) (0, 0, 0.00000000000000000000e+000) (0, 0, 0.00000000000000000000e+000) (0, 0, 0.00000000000000000000e+000) (0, 0, 0.00000000000000000000e+000) (0, 0, 0.00000000000000000000e+000) (0, 0, 0.00000000000000000000e+000) (0, 0, 0.00000000000000000000e+000) (0, 0, 0.00000000000000000000e+000) (0, 0, 0.00000000000000000000e+000) (0, 0, 0.00000000000000000000e+000) (0, 0, 0.00000000000000000000e+000) (85, 6, 1.00000000000000000000e+000) (85, 6, 1.00000000000000000000e+000) (85, 6, 1.00000000000000000000e+000) (85, 6, 1.00000000000000000000e+000) (85, 6, 1.00000000000000000000e+000) (85, 6, 1.00000000000000000000e+000) (85, 6, 1.00000000000000000000e+000) (85, 6, 1.00000000000000000000e+000) (85, 6, 1.00000000000000000000e+000) (85, 6, 1.00000000000000000000e+000) (85, 6, 1.00000000000000000000e+000) (85, 6, 1.00000000000000000000e+000) (85, 6, 1.00000000000000000000e+000) (85, 6, 1.00000000000000000000e+000) (85, 6, 1.00000000000000000000e+000) (85, 6, 1.00000000000000000000e+000) (85, 6, 1.00000000000000000000e+000) (85, 6, 1.00000000000000000000e+000) (85, 6, 1.00000000000000000000e+000) (85, 6, 1.00000000000000000000e+000) (85, 6, 1.00000000000000000000e+000) (85, 6, 1.00000000000000000000e+000) (85, 6, 1.00000000000000000000e+000) (85, 6, 1.00000000000000000000e+000) (85, 6, 1.00000000000000000000e+000) (85, 6, 1.00000000000000000000e+000) (85, 6, 1.00000000000000000000e+000) (85, 6, 1.00000000000000000000e+000) (85, 6, 1.00000000000000000000e+000) (85, 6, 1.00000000000000000000e+000) (85, 6, 1.00000000000000000000e+000) (85, 6, 1.00000000000000000000e+000) (85, 6, 1.00000000000000000000e+000) (85, 6, 1.00000000000000000000e+000) (85, 6, 1.00000000000000000000e+000) (85, 6, 1.00000000000000000000e+000) (85, 6, 1.00000000000000000000e+000) (85, 6, 1.00000000000000000000e+000) (85, 6, 1.00000000000000000000e+000) (85, 6, 1.00000000000000000000e+000) (85, 6, 1.00000000000000000000e+000) (85, 6, 1.00000000000000000000e+000) (85, 6, 1.00000000000000000000e+000) (85, 6, 1.00000000000000000000e+000) (85, 6, 1.00000000000000000000e+000) (85, 6, 1.00000000000000000000e+000) (85, 6, 1.00000000000000000000e+000) (85, 6, 1.00000000000000000000e+000) (85, 6, 1.00000000000000000000e+000) (85, 6, 1.00000000000000000000e+000) (85, 6, 1.00000000000000000000e+000) (85, 6, 1.00000000000000000000e+000) (85, 6, 1.00000000000000000000e+000) (85, 6, 1.00000000000000000000e+000) (85, 6, 1.00000000000000000000e+000) (85, 6, 1.00000000000000000000e+000) (85, 6, 1.00000000000000000000e+000) (85, 6, 1.00000000000000000000e+000) (85, 6, 1.00000000000000000000e+000) (85, 6, 1.00000000000000000000e+000) (85, 6, 1.00000000000000000000e+000) (85, 6, 1.00000000000000000000e+000) (85, 6, 1.00000000000000000000e+000) (85, 6, 1.00000000000000000000e+000) (85, 6, 1.00000000000000000000e+000) (85, 6, 1.00000000000000000000e+000) (85, 6, 1.00000000000000000000e+000) (85, 6, 1.00000000000000000000e+000) (85, 6, 1.00000000000000000000e+000) (85, 6, 1.00000000000000000000e+000) (85, 6, 1.00000000000000000000e+000) (85, 6, 1.00000000000000000000e+000) (85, 6, 1.00000000000000000000e+000) (85, 6, 1.00000000000000000000e+000) (85, 6, 1.00000000000000000000e+000) (85, 6, 1.00000000000000000000e+000) (85, 6, 1.00000000000000000000e+000) (85, 6, 1.00000000000000000000e+000) (85, 6, 1.00000000000000000000e+000) (85, 6, 1.00000000000000000000e+000) (85, 6, 1.00000000000000000000e+000) (85, 6, 1.00000000000000000000e+000) (85, 6, 1.00000000000000000000e+000) (85, 6, 1.00000000000000000000e+000) (85, 6, 1.00000000000000000000e+000) (85, 6, 1.00000000000000000000e+000) (85, 6, 1.00000000000000000000e+000) (85, 6, 1.00000000000000000000e+000) (85, 6, 1.00000000000000000000e+000) (85, 6, 1.00000000000000000000e+000) (85, 6, 1.00000000000000000000e+000) (85, 6, 1.00000000000000000000e+000) (85, 6, 1.00000000000000000000e+000) (85, 6, 1.00000000000000000000e+000) (85, 6, 1.00000000000000000000e+000) (85, 6, 1.00000000000000000000e+000) (85, 6, 1.00000000000000000000e+000) (85, 6, 1.00000000000000000000e+000) (85, 6, 1.00000000000000000000e+000) (85, 6, 1.00000000000000000000e+000) (85, 6, 1.00000000000000000000e+000) (85, 6, 1.00000000000000000000e+000) (85, 6, 1.00000000000000000000e+000) (85, 6, 1.00000000000000000000e+000) (85, 6, 1.00000000000000000000e+000) (85, 6, 1.00000000000000000000e+000) (85, 6, 1.00000000000000000000e+000) (85, 6, 1.00000000000000000000e+000) (85, 6, 1.00000000000000000000e+000) (85, 6, 1.00000000000000000000e+000) (85, 6, 1.00000000000000000000e+000) (85, 6, 1.00000000000000000000e+000) (85, 6, 1.00000000000000000000e+000) (85, 6, 1.00000000000000000000e+000) (85, 6, 1.00000000000000000000e+000) (85, 6, 1.00000000000000000000e+000) (85, 6, 1.00000000000000000000e+000) (85, 6, 1.00000000000000000000e+000) (85, 6, 1.00000000000000000000e+000) (85, 6, 1.00000000000000000000e+000) (85, 6, 1.00000000000000000000e+000) (85, 6, 1.00000000000000000000e+000) (85, 6, 1.00000000000000000000e+000) (85, 6, 1.00000000000000000000e+000) (85, 6, 1.00000000000000000000e+000) (85, 6, 1.00000000000000000000e+000) (85, 6, 1.00000000000000000000e+000) (85, 6, 1.00000000000000000000e+000) (85, 6, 1.00000000000000000000e+000) (85, 6, 1.00000000000000000000e+000) (85, 6, 1.00000000000000000000e+000) (85, 6, 1.00000000000000000000e+000) (85, 6, 1.00000000000000000000e+000) (85, 6, 1.00000000000000000000e+000) (85, 6, 1.00000000000000000000e+000) (85, 6, 1.00000000000000000000e+000) (85, 6, 1.00000000000000000000e+000) (85, 6, 1.00000000000000000000e+000) (85, 6, 1.00000000000000000000e+000) (85, 6, 1.00000000000000000000e+000) (85, 6, 1.00000000000000000000e+000) (85, 6, 1.00000000000000000000e+000) (85, 6, 1.00000000000000000000e+000) (85, 6, 1.00000000000000000000e+000) (85, 6, 1.00000000000000000000e+000) (85, 6, 1.00000000000000000000e+000) (85, 6, 1.00000000000000000000e+000) (85, 6, 1.00000000000000000000e+000) (85, 6, 1.00000000000000000000e+000) (85, 6, 1.00000000000000000000e+000) (85, 6, 1.00000000000000000000e+000) (85, 6, 1.00000000000000000000e+000) (85, 6, 1.00000000000000000000e+000) (85, 6, 1.00000000000000000000e+000) (85, 6, 1.00000000000000000000e+000) (85, 6, 1.00000000000000000000e+000) (85, 6, 1.00000000000000000000e+000) (85, 6, 1.00000000000000000000e+000) (85, 6, 1.00000000000000000000e+000) (85, 6, 1.00000000000000000000e+000) (85, 6, 1.00000000000000000000e+000) (85, 6, 1.00000000000000000000e+000) (85, 6, 1.00000000000000000000e+000) (85, 6, 1.00000000000000000000e+000) (85, 6, 1.00000000000000000000e+000) (85, 6, 1.00000000000000000000e+000) (85, 6, 1.00000000000000000000e+000) (85, 6, 1.00000000000000000000e+000) (85, 6, 1.00000000000000000000e+000) (85, 6, 1.00000000000000000000e+000) (85, 6, 1.00000000000000000000e+000) (85, 6, 1.00000000000000000000e+000) (85, 6, 1.00000000000000000000e+000) (85, 6, 1.00000000000000000000e+000) (85, 6, 1.00000000000000000000e+000) (85, 6, 1.00000000000000000000e+000) (85, 6, 1.00000000000000000000e+000) (85, 6, 1.00000000000000000000e+000) (85, 6, 1.00000000000000000000e+000) (85, 6, 1.00000000000000000000e+000) (85, 6, 1.00000000000000000000e+000) (85, 6, 1.00000000000000000000e+000) (85, 6, 1.00000000000000000000e+000) (85, 6, 1.00000000000000000000e+000) (85, 6, 1.00000000000000000000e+000) (85, 6, 1.00000000000000000000e+000) (85, 6, 1.00000000000000000000e+000) (85, 6, 1.00000000000000000000e+000) (85, 6, 1.00000000000000000000e+000) (85, 6, 1.00000000000000000000e+000) (85, 6, 1.00000000000000000000e+000) (85, 6, 1.00000000000000000000e+000) (85, 6, 1.00000000000000000000e+000) (85, 6, 1.00000000000000000000e+000) (85, 6, 1.00000000000000000000e+000) (85, 6, 1.00000000000000000000e+000) (85, 6, 1.00000000000000000000e+000) (85, 6, 1.00000000000000000000e+000) (85, 6, 1.00000000000000000000e+000) (85, 6, 1.00000000000000000000e+000) (85, 6, 1.00000000000000000000e+000) (85, 6, 1.00000000000000000000e+000) (85, 6, 1.00000000000000000000e+000) (85, 6, 1.00000000000000000000e+000) (85, 6, 1.00000000000000000000e+000) (85, 6, 1.00000000000000000000e+000) (85, 6, 1.00000000000000000000e+000) (85, 6, 1.00000000000000000000e+000) (85, 6, 1.00000000000000000000e+000) (85, 6, 1.00000000000000000000e+000) (85, 6, 1.00000000000000000000e+000) (85, 6, 1.00000000000000000000e+000) (85, 6, 1.00000000000000000000e+000) (85, 6, 1.00000000000000000000e+000) (85, 6, 1.00000000000000000000e+000) (85, 6, 1.00000000000000000000e+000) (85, 6, 1.00000000000000000000e+000) (85, 6, 1.00000000000000000000e+000) (85, 6, 1.00000000000000000000e+000) (85, 6, 1.00000000000000000000e+000) (85, 6, 1.00000000000000000000e+000) (85, 6, 1.00000000000000000000e+000) (85, 6, 1.00000000000000000000e+000) (85, 6, 1.00000000000000000000e+000) (85, 6, 1.00000000000000000000e+000) (85, 6, 1.00000000000000000000e+000) (85, 6, 1.00000000000000000000e+000) (85, 6, 1.00000000000000000000e+000) (85, 6, 1.00000000000000000000e+000) (85, 6, 1.00000000000000000000e+000) (85, 6, 1.00000000000000000000e+000) (85, 6, 1.00000000000000000000e+000) (85, 6, 1.00000000000000000000e+000) (85, 6, 1.00000000000000000000e+000) (85, 6, 1.00000000000000000000e+000) (85, 6, 1.00000000000000000000e+000) (85, 6, 1.00000000000000000000e+000) (85, 6, 1.00000000000000000000e+000) (85, 6, 1.00000000000000000000e+000) (85, 6, 1.00000000000000000000e+000) (85, 6, 1.00000000000000000000e+000) (85, 6, 1.00000000000000000000e+000) (85, 6, 1.00000000000000000000e+000) (85, 6, 1.00000000000000000000e+000) (85, 6, 1.00000000000000000000e+000) (85, 6, 1.00000000000000000000e+000) (85, 6, 1.00000000000000000000e+000) (85, 6, 1.00000000000000000000e+000) (85, 6, 1.00000000000000000000e+000) (85, 6, 1.00000000000000000000e+000) (0, 6, 1.00000000000000000000e+000) (251, 6, 1.00000000000000000000e+000) (0, 6, 1.00000000000000000000e+000) 
connections (connected_to_neuron, weight)=(0, -4.58966270089149480000e-002) (1, -8.53375047445297240000e-002) (2, -8.08288436383008960000e-003) (3, 7.01719224452972410000e-002) (4, -3.36187779903411870000e-001) (5, -1.54078453779220580000e-001) (6, 7.40561634302139280000e-002) (7, 9.96463671326637270000e-002) (8, -2.06793129444122310000e-001) (9, -1.38691186904907230000e-001) (10, 7.22852051258087160000e-002) (11, 7.29370210319757460000e-003) (12, 2.33658030629158020000e-001) (13, 4.42208573222160340000e-002) (14, 1.24938376247882840000e-001) (15, 1.40813335776329040000e-001) (16, -2.90105622261762620000e-002) (17, -5.26741845533251760000e-003) (18, 1.64678886532783510000e-001) (19, 2.42430448532104490000e-001) (20, -8.35602656006813050000e-002) (21, -3.72315943241119380000e-002) (22, 2.43781507015228270000e-001) (23, 2.45406076312065120000e-001) (24, -1.91449344158172610000e-001) (25, -1.37047275900840760000e-001) (26, 8.30482840538024900000e-002) (27, -2.04182360321283340000e-002) (28, -8.69138091802597050000e-002) (29, -8.02882760763168330000e-002) (30, -4.20658290386199950000e-002) (31, -3.55978608131408690000e-002) (32, -2.92624980211257930000e-002) (33, -1.72117780894041060000e-002) (34, -9.60268974304199220000e-002) (35, -7.67430067062377930000e-002) (36, -1.83748766779899600000e-001) (37, -1.30370467901229860000e-001) (38, 7.45850056409835820000e-002) (39, 6.99102282524108890000e-002) (40, -1.36882320046424870000e-001) (41, -1.21301233768463130000e-001) (42, 7.31711983680725100000e-002) (43, 4.74701374769210820000e-002) (44, 1.33030295372009280000e-001) (45, 1.06246277689933780000e-001) (46, 5.05956187844276430000e-002) (47, 5.11404797434806820000e-002) (48, 5.08124120533466340000e-002) (49, 4.82978038489818570000e-002) (50, 6.26729279756546020000e-002) (51, 8.40402171015739440000e-002) (52, 4.14054505527019500000e-002) (53, 2.48254649341106410000e-002) (54, 2.88069471716880800000e-002) (55, 3.93781587481498720000e-002) (56, -5.88424131274223330000e-002) (57, -4.75546009838581090000e-002) (58, -3.96183729171752930000e-002) (59, -3.88285852968692780000e-002) (60, -4.53135631978511810000e-002) (61, -7.44574517011642460000e-002) (62, -1.54733788222074510000e-002) (63, -6.19518477469682690000e-003) (64, -5.16239739954471590000e-002) (65, -3.27774807810783390000e-002) (66, 5.22013427689671520000e-003) (67, 6.72499602660536770000e-003) (68, -5.08803352713584900000e-002) (69, -1.15487398579716680000e-002) (70, 2.09973677992820740000e-002) (71, 1.47407557815313340000e-002) (72, 4.23503853380680080000e-002) (73, 7.76141881942749020000e-003) (74, 2.79727671295404430000e-002) (75, 2.45568584650754930000e-002) (76, 5.64062260091304780000e-002) (77, 2.94876974076032640000e-002) (78, 4.89437244832515720000e-002) (79, 3.05689312517642970000e-002) (80, 9.02539025992155080000e-003) (81, -5.39496261626482010000e-003) (82, 6.98427408933639530000e-002) (83, 3.75421755015850070000e-002) (84, -6.26094117760658260000e-002) (0, -4.22856360673904420000e-002) (1, 1.17679625749588010000e-001) (2, 2.32003465294837950000e-001) (3, 6.44247084856033330000e-002) (4, 1.09931612387299540000e-002) (5, -1.93035528063774110000e-002) (6, -5.75573474634438750000e-004) (7, 3.17346230149269100000e-002) (8, -1.17169812321662900000e-001) (9, 7.02544450759887700000e-002) (10, 1.19016878306865690000e-001) (11, 1.92451357841491700000e-001) (12, -8.54475349187850950000e-002) (13, 9.23407375812530520000e-002) (14, -1.16514220833778380000e-001) (15, -1.27926036715507510000e-001) (16, -2.77991387993097310000e-002) (17, 1.39455627650022510000e-002) (18, -4.01158630847930910000e-002) (19, -3.04427091032266620000e-002) (20, -8.11547562479972840000e-002) (21, -1.42535916529595850000e-003) (22, 1.29826396703720090000e-001) (23, 8.22605639696121220000e-002) (24, 9.98360514640808110000e-002) (25, 2.55748089402914050000e-002) (26, -8.01908448338508610000e-002) (27, -1.10937356948852540000e-002) (28, 8.05501043796539310000e-002) (29, 7.95326381921768190000e-002) (30, -1.37932568788528440000e-001) (31, -1.12228237092494960000e-001) (32, 2.53500584512948990000e-002) (33, -2.03768387436866760000e-002) (34, 1.34262219071388240000e-001) (35, 1.43100276589393620000e-001) (36, -6.85905814170837400000e-002) (37, 1.92908551543951030000e-002) (38, -3.69747102260589600000e-001) (39, -2.32741355895996090000e-001) (40, 9.01328325271606450000e-002) (41, 8.61145555973052980000e-002) (42, 2.74915639311075210000e-002) (43, 5.29787130653858180000e-002) (44, 1.60355105996131900000e-001) (45, 7.81370475888252260000e-002) (46, 5.40371350944042210000e-002) (47, 1.01462818682193760000e-001) (48, -9.27338078618049620000e-002) (49, -6.24051243066787720000e-002) (50, 1.87175527215003970000e-001) (51, 1.69322922825813290000e-001) (52, 2.04976573586463930000e-001) (53, 2.31799170374870300000e-001) (54, 1.85712371021509170000e-002) (55, -3.65805998444557190000e-002) (56, -9.70035195350646970000e-002) (57, -4.78398017585277560000e-002) (58, -8.20081457495689390000e-002) (59, 2.80160177499055860000e-002) (60, -7.16620609164237980000e-002) (61, -1.07826590538024900000e-001) (62, 1.27667650580406190000e-001) (63, 4.26528938114643100000e-002) (64, -9.23997461795806880000e-002) (65, -1.09280394390225410000e-002) (66, 8.13716351985931400000e-002) (67, 3.58710587024688720000e-002) (68, -8.69486480951309200000e-003) (69, 1.04293394833803180000e-002) (70, 3.78806255757808690000e-002) (71, 9.56293288618326190000e-003) (72, 5.50165623426437380000e-002) (73, -1.24696246348321440000e-003) (74, -2.53192298114299770000e-002) (75, 1.00956007838249210000e-001) (76, -1.49464204907417300000e-001) (77, -1.66253387928009030000e-001) (78, 2.74783112108707430000e-002) (79, 9.60830599069595340000e-003) (80, -2.69643403589725490000e-002) (81, -8.19482654333114620000e-002) (82, -1.21045811101794240000e-002) (83, 1.79492216557264330000e-002) (84, 1.17013067007064820000e-001) (0, 3.70028391480445860000e-002) (1, 6.35934323072433470000e-002) (2, -8.16086977720260620000e-002) (3, -5.21630886942148210000e-003) (4, -7.50475004315376280000e-002) (5, -3.50135155022144320000e-002) (6, 4.93665449321269990000e-002) (7, -4.66956719756126400000e-002) (8, 1.27957060933113100000e-001) (9, 6.40447661280632020000e-002) (10, 1.32711499929428100000e-001) (11, 1.39717921614646910000e-001) (12, 2.21322868019342420000e-002) (13, -9.65163931250572200000e-002) (14, 4.71264272928237920000e-002) (15, 7.86515325307846070000e-002) (16, 3.19038197631016370000e-004) (17, 3.15784774720668790000e-002) (18, -3.51571179926395420000e-002) (19, -4.20348811894655230000e-003) (20, 7.76846483349800110000e-002) (21, 6.50118961930274960000e-002) (22, 6.23240023851394650000e-002) (23, 2.08916943520307540000e-002) (24, -1.84902593493461610000e-001) (25, -1.40317857265472410000e-001) (26, -1.41517326235771180000e-001) (27, -1.06473706662654880000e-001) (28, -1.45229369401931760000e-001) (29, -1.06806680560112000000e-001) (30, 1.81291237473487850000e-001) (31, 1.37731090188026430000e-001) (32, -3.02720479667186740000e-002) (33, 2.68614906817674640000e-002) (34, -1.45611166954040530000e-001) (35, -1.64485111832618710000e-001) (36, -2.73353587836027150000e-002) (37, -8.61465856432914730000e-002) (38, 1.35880127549171450000e-001) (39, 1.08377873897552490000e-001) (40, 1.76301956176757810000e-001) (41, 1.48012220859527590000e-001) (42, 1.07015922665596010000e-001) (43, 8.17563533782958980000e-002) (44, -1.11409708857536320000e-001) (45, -1.29504770040512080000e-001) (46, 3.87052223086357120000e-002) (47, 3.50262634456157680000e-002) (48, 8.47900956869125370000e-002) (49, 5.27693517506122590000e-002) (50, -3.24694141745567320000e-002) (51, -3.29886265099048610000e-002) (52, -2.59913448244333270000e-002) (53, -2.98669207841157910000e-002) (54, -5.54140061140060420000e-002) (55, -4.54872027039527890000e-002) (56, -3.94661277532577510000e-002) (57, -5.93530945479869840000e-002) (58, 4.71863970160484310000e-002) (59, -3.23672890663146970000e-002) (60, 2.53057256340980530000e-002) (61, 3.41502390801906590000e-002) (62, -1.22523503378033640000e-002) (63, 2.06198524683713910000e-002) (64, 5.04007609561085700000e-003) (65, -5.03282155841588970000e-003) (66, -2.39550117403268810000e-002) (67, -3.42408195137977600000e-003) (68, 2.34079249203205110000e-002) (69, 1.27263627946376800000e-002) (70, 1.88983902335166930000e-002) (71, 6.88994210213422780000e-003) (72, -1.78094254806637760000e-003) (73, -2.40934430621564390000e-003) (74, -2.29527684859931470000e-003) (75, -6.60287439823150630000e-002) (76, 2.94990139082074170000e-003) (77, -6.44659763202071190000e-003) (78, -2.36802380532026290000e-002) (79, -1.93228907883167270000e-002) (80, -1.07731567695736890000e-002) (81, 4.95702261105179790000e-003) (82, -8.38811625726521020000e-004) (83, -3.10975424945354460000e-002) (84, 2.09454330615699290000e-003) (0, 8.25812965631484990000e-002) (1, -8.22071805596351620000e-002) (2, -5.19284494221210480000e-002) (3, -2.31922604143619540000e-002) (4, -3.10033019632101060000e-002) (5, -3.68437170982360840000e-002) (6, -8.21525231003761290000e-002) (7, 2.41072499193251130000e-004) (8, -1.96421872824430470000e-002) (9, 8.81963744759559630000e-002) (10, -2.82716248184442520000e-002) (11, -1.02590052410960200000e-002) (12, 7.88052827119827270000e-002) (13, -6.90646544098854060000e-002) (14, -8.68623480200767520000e-002) (15, -7.85958617925643920000e-002) (16, 7.38734975457191470000e-002) (17, 8.93759801983833310000e-002) (18, -4.09667566418647770000e-002) (19, 2.64755599200725560000e-002) (20, 1.20291061699390410000e-001) (21, 1.11306183040142060000e-001) (22, -7.01565220952034000000e-002) (23, -5.80648072063922880000e-002) (24, 5.25566227734088900000e-002) (25, -2.63662287034094330000e-003) (26, 6.02086558938026430000e-002) (27, 3.45532409846782680000e-002) (28, 1.47943392395973210000e-001) (29, 9.59237441420555110000e-002) (30, 1.52389397844672200000e-002) (31, -2.01611546799540520000e-003) (32, 1.55463621020317080000e-001) (33, 1.50831937789916990000e-001) (34, 6.46145408973097800000e-003) (35, 8.31454526633024220000e-003) (36, -3.68519984185695650000e-002) (37, 4.06849198043346410000e-003) (38, -4.07773908227682110000e-003) (39, 3.34854237735271450000e-003) (40, -1.38379335403442380000e-001) (41, -7.40944221615791320000e-002) (42, -6.26762360334396360000e-002) (43, 1.04086995124816890000e-002) (44, -1.51011303067207340000e-001) (45, -7.96018913388252260000e-002) (46, -1.77106380462646480000e-001) (47, -1.52787521481513980000e-001) (48, -1.29963204264640810000e-001) (49, -4.86805215477943420000e-002) (50, 7.89402350783348080000e-002) (51, 8.56463983654975890000e-002) (52, -9.44919139146804810000e-003) (53, -1.49454912170767780000e-002) (54, 1.25223934650421140000e-001) (55, 1.19485609233379360000e-001) (56, -6.73424005508422850000e-002) (57, -3.03380563855171200000e-002) (58, -1.24336592853069310000e-002) (59, 5.11776544153690340000e-002) (60, 5.52539229393005370000e-002) (61, 6.29261955618858340000e-002) (62, 1.12605979666113850000e-002) (63, -1.68322846293449400000e-002) (64, -6.52249809354543690000e-003) (65, -2.15155649930238720000e-002) (66, -4.82557564973831180000e-002) (67, -2.26788576692342760000e-002) (68, -9.09394696354866030000e-002) (69, -9.20711383223533630000e-002) (70, -6.47594500333070760000e-003) (71, 3.74129526317119600000e-002) (72, 4.20636544004082680000e-003) (73, -9.30099654942750930000e-003) (74, -4.10537645220756530000e-002) (75, -2.97813583165407180000e-003) (76, -6.32514655590057370000e-002) (77, -4.21805214136838910000e-003) (78, -1.85290109366178510000e-002) (79, 1.89015660434961320000e-002) (80, 3.78757454454898830000e-002) (81, 6.78242295980453490000e-002) (82, -1.66711509227752690000e-002) (83, 4.28567864000797270000e-002) (84, 8.10847505927085880000e-002) (0, 1.41523387283086780000e-002) (1, 1.05135433375835420000e-001) (2, -1.30316361784935000000e-001) (3, 2.26071327924728390000e-002) (4, 2.06784859299659730000e-001) (5, 2.64697559177875520000e-002) (6, -8.30354467034339900000e-002) (7, 4.63579669594764710000e-002) (8, -1.28951177000999450000e-001) (9, -3.33159305155277250000e-002) (10, 1.96525186300277710000e-001) (11, 4.26765866577625270000e-002) (12, 1.21906466782093050000e-001) (13, -3.88121791183948520000e-002) (14, 2.81041301786899570000e-002) (15, -8.29845573753118520000e-003) (16, 3.35626006126403810000e-002) (17, 1.10130131244659420000e-001) (18, -3.04747540503740310000e-002) (19, -1.53157353401184080000e-001) (20, -6.67626932263374330000e-002) (21, -4.62602712213993070000e-002) (22, -2.76876892894506450000e-002) (23, 6.67077228426933290000e-002) (24, -1.08534678816795350000e-001) (25, -1.68348804116249080000e-001) (26, -1.03453777730464940000e-001) (27, -5.73014616966247560000e-002) (28, -1.80341210216283800000e-002) (29, -1.28473890945315360000e-002) (30, -1.90546531230211260000e-002) (31, 3.16972262226045130000e-003) (32, -2.34231483191251750000e-002) (33, -1.07351772487163540000e-001) (34, 3.37939932942390440000e-002) (35, 6.46781846880912780000e-002) (36, 1.35469615459442140000e-001) (37, 1.47241532802581790000e-001) (38, 3.69138866662979130000e-002) (39, 2.57467152550816540000e-003) (40, 3.39425764977931980000e-002) (41, 2.25372556596994400000e-002) (42, 1.87844987958669660000e-002) (43, 1.70895922929048540000e-002) (44, -8.31213966012001040000e-003) (45, 5.93112111091613770000e-002) (46, 4.80326563119888310000e-002) (47, -2.24543567746877670000e-002) (48, 3.71064012870192530000e-003) (49, 6.05731755495071410000e-002) (50, -2.62315012514591220000e-002) (51, -3.19007560610771180000e-002) (52, 2.71996483206748960000e-002) (53, 1.19118243455886840000e-002) (54, -5.36585524678230290000e-002) (55, -1.68621446937322620000e-002) (56, -9.27376560866832730000e-003) (57, -1.93915832787752150000e-002) (58, -8.95284265279769900000e-002) (59, 1.86088948976248500000e-003) (60, 4.04144115746021270000e-002) (61, -4.32764925062656400000e-003) (62, 2.22465358674526210000e-002) (63, -3.66694070398807530000e-002) (64, -3.66420596837997440000e-002) (65, -9.40774008631706240000e-003) (66, 1.87741424888372420000e-002) (67, -3.58162485063076020000e-002) (68, -2.53607910126447680000e-002) (69, 1.03699313476681710000e-002) (70, 4.12646308541297910000e-003) (71, 5.91641617938876150000e-003) (72, 4.02977801859378810000e-002) (73, 1.73089932650327680000e-002) (74, -1.60851534456014630000e-002) (75, -3.27129219658672810000e-003) (76, -7.59366899728775020000e-002) (77, -9.49667990207672120000e-002) (78, 1.54247814789414410000e-002) (79, -4.06520813703536990000e-003) (80, 4.36457917094230650000e-002) (81, -8.34201741963624950000e-003) (82, 2.42795851081609730000e-002) (83, 5.86996562778949740000e-002) (84, 1.04350037872791290000e-001) (0, 5.01551181077957150000e-002) (1, 4.35005575418472290000e-002) (2, 8.44089090824127200000e-002) (3, -4.27778623998165130000e-002) (4, -1.06845088303089140000e-001) (5, 9.95981171727180480000e-002) (6, -1.02602448314428330000e-002) (7, 3.19906584918498990000e-002) (8, 1.26468598842620850000e-001) (9, -4.62699756026268010000e-002) (10, -5.10708168148994450000e-002) (11, -1.04755453765392300000e-001) (12, -9.79190990328788760000e-002) (13, -1.22587651014328000000e-001) (14, 1.45907988771796230000e-002) (15, -6.60367384552955630000e-002) (16, -2.06876009702682500000e-001) (17, -1.64981380105018620000e-001) (18, -7.44728669524192810000e-002) (19, -3.80345769226551060000e-002) (20, -5.68568371236324310000e-002) (21, -7.82567188143730160000e-002) (22, -7.06433281302452090000e-002) (23, -7.05155655741691590000e-002) (24, 2.11278591305017470000e-002) (25, -5.38445971906185150000e-002) (26, -3.44275683164596560000e-002) (27, 4.97404336929321290000e-002) (28, -2.84864902496337890000e-001) (29, -2.10433736443519590000e-001) (30, 1.86530604958534240000e-001) (31, 1.61563113331794740000e-001) (32, 1.00090585649013520000e-001) (33, 1.28988668322563170000e-001) (34, 2.29979515075683590000e-001) (35, 1.81041866540908810000e-001) (36, -7.55058899521827700000e-002) (37, -4.96524199843406680000e-003) (38, -1.30695954430848360000e-003) (39, -2.04612948000431060000e-002) (40, 1.14281401038169860000e-001) (41, 1.38117253780364990000e-001) (42, 2.69136637449264530000e-001) (43, 2.22856715321540830000e-001) (44, -8.14427509903907780000e-002) (45, -6.41631707549095150000e-002) (46, -7.08633810281753540000e-002) (47, -1.53635330498218540000e-002) (48, -4.74724583327770230000e-002) (49, -1.09481595456600190000e-001) (50, 6.25839382410049440000e-002) (51, 8.81345942616462710000e-002) (52, 9.48930308222770690000e-002) (53, 5.28620965778827670000e-002) (54, -9.47005823254585270000e-002) (55, -6.45528063178062440000e-002) (56, -1.22238192707300190000e-002) (57, -2.28746160864830020000e-002) (58, -1.24484170228242870000e-002) (59, -2.64935586601495740000e-002) (60, 5.71500062942504880000e-002) (61, 7.72263780236244200000e-002) (62, -4.04028631746768950000e-002) (63, -2.69993524998426440000e-002) (64, -7.96075761318206790000e-002) (65, -2.53601223230361940000e-002) (66, -6.38888254761695860000e-002) (67, -5.15236295759677890000e-002) (68, 4.24275733530521390000e-002) (69, 7.85633921623229980000e-003) (70, -1.01491035893559460000e-002) (71, -4.77159693837165830000e-002) (72, -2.99608539789915080000e-002) (73, 4.21759225428104400000e-002) (74, -4.99808043241500850000e-002) (75, -5.31011857092380520000e-002) (76, 7.60308513417840000000e-003) (77, 2.76308562606573100000e-002) (78, 1.22562963515520100000e-002) (79, 1.54491513967514040000e-002) (80, -1.20406011119484900000e-002) (81, 2.66409870237112050000e-002) (82, -1.04431025683879850000e-002) (83, -4.84524003695696590000e-004) (84, 1.37385949492454530000e-002) (0, 1.44299179315567020000e-001) (1, 1.02393761277198790000e-001) (2, 8.47774744033813480000e-002) (3, 1.00192409008741380000e-002) (4, -9.97142866253852840000e-002) (5, -8.02981946617364880000e-003) (6, -9.22726243734359740000e-002) (7, -1.47105708718299870000e-001) (8, -3.44485007226467130000e-002) (9, 2.25686579942703250000e-002) (10, 1.93362846970558170000e-001) (11, 7.83894136548042300000e-002) (12, -1.08629144728183750000e-001) (13, 7.47151859104633330000e-003) (14, -2.39651724696159360000e-001) (15, -2.47945025563240050000e-001) (16, -1.59398932009935380000e-002) (17, -5.85378594696521760000e-002) (18, -5.83311803638935090000e-002) (19, -5.36089055240154270000e-002) (20, 1.10459715127944950000e-001) (21, 9.23385247588157650000e-002) (22, 5.88058233261108400000e-002) (23, 3.29554863274097440000e-002) (24, -1.21885821223258970000e-001) (25, -8.11413377523422240000e-002) (26, 1.62672251462936400000e-001) (27, 1.46112889051437380000e-001) (28, 7.26767480373382570000e-002) (29, 2.92326398193836210000e-002) (30, -3.33546400070190430000e-002) (31, -1.20263546705245970000e-004) (32, 1.08733847737312320000e-001) (33, 1.24089248478412630000e-001) (34, -6.08880929648876190000e-002) (35, -4.23502959311008450000e-002) (36, 3.77459600567817690000e-002) (37, 2.22166310995817180000e-002) (38, 1.41021534800529480000e-001) (39, 8.50861668586730960000e-002) (40, -8.44965502619743350000e-002) (41, -1.08130902051925660000e-001) (42, 2.62869130820035930000e-002) (43, 3.67361269891262050000e-002) (44, 9.63542833924293520000e-002) (45, 9.46198627352714540000e-002) (46, 3.74885946512222290000e-002) (47, 4.68239933252334590000e-002) (48, 9.68576967716217040000e-002) (49, 4.74183745682239530000e-002) (50, -6.66932612657547000000e-002) (51, -5.17215989530086520000e-002) (52, -1.20964914560317990000e-001) (53, -9.62267145514488220000e-002) (54, 7.47568858787417410000e-003) (55, -8.67636292241513730000e-004) (56, 3.96262928843498230000e-002) (57, 3.43737266957759860000e-002) (58, -2.59948913007974620000e-002) (59, -7.30723068118095400000e-002) (60, -1.86391368508338930000e-001) (61, -8.44267159700393680000e-002) (62, -6.64297565817832950000e-002) (63, 2.16505140997469430000e-003) (64, -5.25569356977939610000e-003) (65, -2.04267892986536030000e-002) (66, -1.75633318722248080000e-002) (67, 2.71257129497826100000e-003) (68, 4.28900495171546940000e-002) (69, 1.54546340927481650000e-002) (70, -4.33352738618850710000e-002) (71, -3.31209078431129460000e-002) (72, -1.76266860216856000000e-002) (73, -2.76040495373308660000e-003) (74, 1.14231325685977940000e-001) (75, 1.34595083072781560000e-002) (76, 6.91501423716545100000e-002) (77, 3.62257547676563260000e-002) (78, -2.83382218331098560000e-002) (79, -5.25300903245806690000e-003) (80, -3.53394933044910430000e-002) (81, -1.57656818628311160000e-002) (82, -1.86388082802295680000e-002) (83, -1.40421921387314800000e-002) (84, -4.87163737416267400000e-002) (0, 3.84422093629837040000e-002) (1, -6.49596890434622760000e-003) (2, -1.70515894889831540000e-001) (3, -4.00613881647586820000e-002) (4, 5.11095374822616580000e-002) (5, -1.40771856531500820000e-002) (6, -6.07723928987979890000e-002) (7, -7.06200441345572470000e-003) (8, -1.73193052411079410000e-001) (9, -6.13106973469257350000e-003) (10, 1.08457934111356740000e-002) (11, -1.12016856670379640000e-001) (12, -6.08314462006092070000e-002) (13, -9.38822105526924130000e-002) (14, 6.54794648289680480000e-002) (15, 6.57950788736343380000e-002) (16, -7.73194730281829830000e-002) (17, 4.36336249113082890000e-002) (18, -2.20832169055938720000e-001) (19, -1.45105049014091490000e-001) (20, 5.50862438976764680000e-002) (21, 5.21603338420391080000e-002) (22, 1.84368893504142760000e-001) (23, 2.30397924780845640000e-001) (24, -8.09943154454231260000e-002) (25, -6.67764469981193540000e-002) (26, 7.08341971039772030000e-002) (27, 4.49793487787246700000e-002) (28, -3.20599041879177090000e-002) (29, -8.12425240874290470000e-002) (30, 1.12501032650470730000e-001) (31, 1.62936285138130190000e-001) (32, 9.78177934885025020000e-002) (33, 2.19078380614519120000e-002) (34, -3.32188941538333890000e-002) (35, -3.49825732409954070000e-002) (36, -1.88707545399665830000e-001) (37, -1.09031006693840030000e-001) (38, 1.61937505006790160000e-001) (39, 8.06903019547462460000e-002) (40, -3.40241156518459320000e-002) (41, -1.36111397296190260000e-002) (42, -5.65170906484127040000e-002) (43, -2.67429351806640630000e-002) (44, 1.75039339810609820000e-002) (45, 1.39478556811809540000e-002) (46, 1.33549809455871580000e-001) (47, 1.18963398039340970000e-001) (48, 2.94431392103433610000e-002) (49, 7.83318839967250820000e-003) (50, 8.91309008002281190000e-002) (51, 1.48981571197509770000e-001) (52, -9.68101844191551210000e-002) (53, -4.90036010742187500000e-002) (54, -7.08395764231681820000e-002) (55, 7.26871611550450330000e-003) (56, 1.19670391082763670000e-001) (57, 1.05848394334316250000e-001) (58, -7.04504847526550290000e-002) (59, -5.67021220922470090000e-002) (60, -5.30348829925060270000e-002) (61, -8.14957991242408750000e-002) (62, -3.13866175711154940000e-002) (63, -3.63839156925678250000e-002) (64, -3.98314073681831360000e-002) (65, 2.60526081547141080000e-003) (66, 1.39218151569366460000e-001) (67, 9.13038104772567750000e-002) (68, -8.43834504485130310000e-002) (69, -1.86515692621469500000e-002) (70, -5.10343685746192930000e-002) (71, -1.13877905532717700000e-002) (72, -9.62911732494831090000e-003) (73, 7.69386766478419300000e-003) (74, -2.53135561943054200000e-002) (75, -1.27406734973192210000e-002) (76, 3.46358828246593480000e-002) (77, 5.19226491451263430000e-003) (78, -3.64589430391788480000e-002) (79, -5.03204911947250370000e-002) (80, -7.82433152198791500000e-002) (81, -8.35319459438323970000e-002) (82, 7.04658180475234990000e-002) (83, 6.88716992735862730000e-002) (84, 1.96591075509786610000e-002) (0, 1.21423661708831790000e-001) (1, 4.39798980951309200000e-002) (2, -1.25334173440933230000e-001) (3, -6.10813405364751820000e-003) (4, 6.18142113089561460000e-002) (5, -6.67200982570648190000e-003) (6, 1.91625691950321200000e-002) (7, 3.14215384423732760000e-002) (8, 4.95050735771656040000e-002) (9, 5.22583089768886570000e-002) (10, 8.71210917830467220000e-003) (11, -3.14835458993911740000e-002) (12, 2.84460574388504030000e-001) (13, 1.30694746971130370000e-001) (14, -1.47588606923818590000e-002) (15, -3.04319965653121470000e-003) (16, 2.19998836517333980000e-001) (17, 1.73364639282226560000e-001) (18, 2.19536572694778440000e-002) (19, -2.20260974019765850000e-002) (20, -2.49522943049669270000e-002) (21, -1.92462168633937840000e-002) (22, -1.20886698365211490000e-001) (23, -8.91115888953208920000e-002) (24, -1.51982143521308900000e-001) (25, -1.16855196654796600000e-001) (26, -1.54599741101264950000e-001) (27, -1.46047800779342650000e-001) (28, -9.44438725709915160000e-002) (29, -8.58346596360206600000e-002) (30, -1.11871987581253050000e-001) (31, -1.38306975364685060000e-001) (32, 2.24839132279157640000e-002) (33, 2.58609503507614140000e-002) (34, -6.75117149949073790000e-002) (35, -5.10040745139122010000e-002) (36, 6.08880184590816500000e-002) (37, 7.98591226339340210000e-002) (38, 2.09703266620635990000e-001) (39, 1.66740193963050840000e-001) (40, 6.05962686240673070000e-002) (41, 5.36977723240852360000e-002) (42, 5.36174997687339780000e-002) (43, 5.19825890660285950000e-002) (44, -9.79064777493476870000e-003) (45, 3.37994024157524110000e-002) (46, -8.54681655764579770000e-002) (47, -9.35468748211860660000e-002) (48, 3.60358916223049160000e-002) (49, 7.73210376501083370000e-002) (50, 1.81790981441736220000e-002) (51, 7.44661921635270120000e-003) (52, -6.58702701330184940000e-002) (53, -4.20586355030536650000e-002) (54, -1.16293365135788920000e-002) (55, -1.85864064842462540000e-002) (56, 1.44160427153110500000e-002) (57, 1.42834698781371120000e-002) (58, 1.59593741409480570000e-003) (59, 2.60696616023778920000e-002) (60, 2.29259282350540160000e-002) (61, 4.19434383511543270000e-002) (62, 2.68522035330533980000e-002) (63, 1.15896817296743390000e-002) (64, 1.33921867236495020000e-002) (65, 4.10344218835234640000e-003) (66, -2.05239262431859970000e-002) (67, -3.93758192658424380000e-002) (68, 7.76691809296607970000e-002) (69, 5.58783598244190220000e-002) (70, -1.33357336744666100000e-002) (71, 5.18706720322370530000e-003) (72, 1.64567865431308750000e-002) (73, -2.62018050998449330000e-002) (74, 3.26288281939923760000e-004) (75, 9.43915452808141710000e-003) (76, -7.14490860700607300000e-002) (77, -4.30405735969543460000e-002) (78, -1.05211483314633370000e-002) (79, -7.05704907886683940000e-004) (80, 1.20587982237339020000e-002) (81, 9.62693803012371060000e-003) (82, -5.53190037608146670000e-002) (83, -4.67404462397098540000e-002) (84, 5.24326674640178680000e-002) (0, -2.60265409946441650000e-001) (1, -5.92241995036602020000e-002) (2, 7.89425373077392580000e-002) (3, 5.20314350724220280000e-002) (4, 5.78092448413372040000e-002) (5, 1.58036500215530400000e-001) (6, 2.56343856453895570000e-002) (7, -1.82841848582029340000e-002) (8, 2.02814921736717220000e-001) (9, -2.62834224849939350000e-002) (10, -7.55706727504730220000e-002) (11, -5.69419795647263530000e-003) (12, 6.26988941803574560000e-003) (13, -1.23716562986373900000e-001) (14, 2.44270697236061100000e-001) (15, 2.37423121929168700000e-001) (16, 8.32377299666404720000e-002) (17, 8.55774506926536560000e-002) (18, -1.41674190759658810000e-001) (19, -1.18644565343856810000e-001) (20, -6.62750601768493650000e-002) (21, -2.40257456898689270000e-002) (22, 9.84950214624404910000e-002) (23, 2.38470006734132770000e-002) (24, 3.49708721041679380000e-002) (25, 7.22755491733551030000e-002) (26, 8.08410197496414180000e-002) (27, 4.82052676379680630000e-002) (28, -7.65490457415580750000e-002) (29, -8.42077191919088360000e-003) (30, -2.80537717044353490000e-002) (31, -3.10507304966449740000e-002) (32, -9.48423370718955990000e-002) (33, -2.06177625805139540000e-002) (34, -1.09452651813626290000e-002) (35, 4.82429713010787960000e-002) (36, -1.27969086170196530000e-001) (37, -1.39758333563804630000e-001) (38, -2.52281069755554200000e-001) (39, -1.55171841382980350000e-001) (40, -1.80470384657382970000e-002) (41, -3.65866236388683320000e-002) (42, -6.37647230178117750000e-003) (43, -1.99947953224182130000e-002) (44, 1.36348484084010120000e-002) (45, -5.42285814881324770000e-002) (46, 1.53033182024955750000e-001) (47, 1.32313936948776250000e-001) (48, 6.19473233819007870000e-002) (49, -2.92302737943828110000e-003) (50, -4.36058640480041500000e-002) (51, -8.43081697821617130000e-002) (52, 1.80211752653121950000e-001) (53, 1.15751609206199650000e-001) (54, 3.07434443384408950000e-002) (55, -1.18420217186212540000e-002) (56, -3.56314145028591160000e-002) (57, -4.75296936929225920000e-002) (58, 2.03166902065277100000e-002) (59, -3.04009113460779190000e-002) (60, -2.39171851426362990000e-002) (61, -5.20622879266738890000e-002) (62, -4.53138314187526700000e-002) (63, -3.93796972930431370000e-002) (64, 9.57947075366973880000e-002) (65, 1.04212261736392970000e-001) (66, 5.96219822764396670000e-002) (67, 3.56547459959983830000e-002) (68, -4.84545230865478520000e-002) (69, 4.59953024983406070000e-003) (70, 2.60574836283922200000e-002) (71, 9.27746668457984920000e-003) (72, -3.00546456128358840000e-003) (73, 1.33394487202167510000e-002) (74, -6.04606643319129940000e-002) (75, -4.79022040963172910000e-003) (76, 1.71556752175092700000e-002) (77, 1.23753212392330170000e-003) (78, -2.17813793569803240000e-002) (79, -4.60254065692424770000e-002) (80, -6.25486001372337340000e-002) (81, -5.84599152207374570000e-002) (82, -7.75870494544506070000e-003) (83, -6.31089806556701660000e-002) (84, 2.48882248997688290000e-002) (0, -2.93602570891380310000e-002) (1, 6.51844069361686710000e-002) (2, -1.59128513187170030000e-002) (3, 4.05481345951557160000e-002) (4, -7.19405785202980040000e-002) (5, 5.23242019116878510000e-002) (6, -9.21675339341163640000e-002) (7, -4.84080985188484190000e-002) (8, 8.78482908010482790000e-002) (9, 2.30112727731466290000e-002) (10, 1.03990018367767330000e-001) (11, 3.63213419914245610000e-002) (12, 1.31964698433876040000e-001) (13, -3.31281125545501710000e-002) (14, -4.52836975455284120000e-002) (15, -5.67732527852058410000e-002) (16, -1.19091374799609180000e-002) (17, 3.50592210888862610000e-002) (18, 9.12264510989189150000e-002) (19, 1.32486864924430850000e-001) (20, 1.81207600980997090000e-002) (21, 9.48391258716583250000e-002) (22, -7.29779228568077090000e-002) (23, -3.08479033410549160000e-002) (24, 3.36008779704570770000e-002) (25, 2.44814995676279070000e-002) (26, -4.23377715051174160000e-002) (27, -2.29989066720008850000e-002) (28, 5.25538474321365360000e-002) (29, 1.34907752275466920000e-001) (30, 1.43014803528785710000e-001) (31, 1.43980488181114200000e-001) (32, -2.08751395344734190000e-001) (33, -6.14186190068721770000e-002) (34, 2.91753299534320830000e-002) (35, 9.44555401802062990000e-002) (36, -3.00029385834932330000e-002) (37, -5.83650954067707060000e-002) (38, -4.24523837864398960000e-002) (39, -1.47654479369521140000e-002) (40, -7.04415589570999150000e-002) (41, -2.80654467642307280000e-002) (42, -1.33469846332445740000e-004) (43, 4.20514121651649480000e-002) (44, -1.97858467698097230000e-001) (45, -1.43821552395820620000e-001) (46, 5.12365177273750310000e-002) (47, 1.03436894714832310000e-001) (48, -1.16209145635366440000e-002) (49, -3.54006774723529820000e-002) (50, 2.14203130453825000000e-002) (51, -2.07672119140625000000e-002) (52, -6.04741573333740230000e-002) (53, -8.34010913968086240000e-002) (54, 8.07778239250183110000e-002) (55, 8.21183621883392330000e-002) (56, -9.90253612399101260000e-002) (57, -6.88620880246162410000e-002) (58, 8.12672749161720280000e-002) (59, 5.09826727211475370000e-002) (60, -3.83076742291450500000e-002) (61, -2.49534402973949910000e-003) (62, -8.19967463612556460000e-002) (63, -3.69716994464397430000e-002) (64, -1.15378713235259060000e-002) (65, -2.28723865002393720000e-002) (66, -3.96865382790565490000e-002) (67, 2.84874700009822850000e-002) (68, -7.18067064881324770000e-002) (69, -4.29282486438751220000e-002) (70, -8.30605905503034590000e-003) (71, 1.43671212717890740000e-002) (72, -9.35517624020576480000e-002) (73, -4.51059751212596890000e-002) (74, -3.01483012735843660000e-002) (75, -3.42159904539585110000e-002) (76, 1.39392307028174400000e-002) (77, 7.10983946919441220000e-003) (78, -3.28450947999954220000e-002) (79, 7.29378638789057730000e-003) (80, -8.92683304846286770000e-003) (81, 4.70758527517318730000e-002) (82, -3.29455509781837460000e-002) (83, -1.79170742630958560000e-002) (84, 1.17825798690319060000e-001) (0, 3.56275774538517000000e-002) (1, 7.10111036896705630000e-002) (2, 5.57886324822902680000e-002) (3, -2.69209090620279310000e-002) (4, 1.14255987107753750000e-001) (5, 8.82733687758445740000e-002) (6, -1.11893892288208010000e-001) (7, -1.65773838758468630000e-001) (8, 1.33721098303794860000e-001) (9, 3.31870056688785550000e-002) (10, -7.03435763716697690000e-002) (11, -7.89373070001602170000e-002) (12, -1.04319579899311070000e-001) (13, -6.10859245061874390000e-002) (14, -1.09798446297645570000e-001) (15, -9.70412120223045350000e-002) (16, -6.72014243900775910000e-003) (17, -1.14495558664202690000e-002) (18, -1.74136981368064880000e-001) (19, -1.27723455429077150000e-001) (20, 1.86683595180511470000e-001) (21, 1.37653455138206480000e-001) (22, -4.21147942543029790000e-002) (23, -6.98566436767578130000e-002) (24, 1.78513407707214360000e-001) (25, 1.53791204094886780000e-001) (26, 1.16162836551666260000e-001) (27, 1.08995750546455380000e-001) (28, 1.14800460636615750000e-001) (29, 7.87989124655723570000e-002) (30, 8.23396351188421250000e-003) (31, 2.94211674481630330000e-002) (32, 1.34998604655265810000e-001) (33, 1.36105358600616460000e-001) (34, -1.20652336627244950000e-002) (35, -2.57863085716962810000e-002) (36, 1.96611303836107250000e-002) (37, 1.30015360191464420000e-002) (38, -9.88317951560020450000e-002) (39, -1.00374370813369750000e-001) (40, -3.85372713208198550000e-002) (41, -2.14554239064455030000e-002) (42, -6.41380921006202700000e-002) (43, -2.83937174826860430000e-002) (44, -1.92230772227048870000e-002) (45, -3.47166098654270170000e-002) (46, -6.83017000555992130000e-002) (47, -6.24809078872203830000e-002) (48, -4.97714728116989140000e-002) (49, -6.37311190366745000000e-002) (50, -1.04916132986545560000e-001) (51, -1.04573242366313930000e-001) (52, -2.85621564835309980000e-002) (53, -3.19001376628875730000e-002) (54, 5.59211187064647670000e-002) (55, 3.06003447622060780000e-002) (56, -4.00723516941070560000e-003) (57, -2.05220989300869410000e-004) (58, -1.81714666541665790000e-003) (59, -4.17932309210300450000e-002) (60, -2.33475305140018460000e-002) (61, 1.45645777229219680000e-003) (62, -1.47419655695557590000e-002) (63, -8.72672628611326220000e-003) (64, 1.08452208340168000000e-001) (65, 7.30297192931175230000e-002) (66, 1.77802406251430510000e-002) (67, 3.80043014883995060000e-002) (68, -5.79630210995674130000e-002) (69, -6.34104385972023010000e-002) (70, -1.30244102329015730000e-002) (71, 9.06623527407646180000e-003) (72, -3.02541125565767290000e-002) (73, -6.14570081233978270000e-003) (74, -1.29304435104131700000e-002) (75, 7.97431543469429020000e-003) (76, 1.37778567150235180000e-002) (77, 3.40475961565971370000e-002) (78, -5.13822883367538450000e-002) (79, -1.87888517975807190000e-002) (80, -2.68944948911666870000e-002) (81, 7.67775438725948330000e-003) (82, -6.26045325770974160000e-003) (83, 4.56252600997686390000e-003) (84, -1.44715271890163420000e-002) (0, 1.73401951789855960000e-001) (1, 8.99699777364730830000e-002) (2, -7.15288966894149780000e-002) (3, -3.53082898072898390000e-003) (4, 4.13630343973636630000e-002) (5, -1.02780111134052280000e-001) (6, -4.80895526707172390000e-002) (7, 6.19138963520526890000e-002) (8, 8.25332701206207280000e-002) (9, 3.09529714286327360000e-002) (10, -2.02188850380480290000e-003) (11, -5.90862780809402470000e-002) (12, -6.26243129372596740000e-002) (13, 4.85804341733455660000e-002) (14, -4.34142947196960450000e-002) (15, -4.70864400267601010000e-002) (16, 6.31477832794189450000e-002) (17, 2.32216138392686840000e-002) (18, 3.31373028457164760000e-002) (19, 1.26536991447210310000e-002) (20, 7.69827291369438170000e-002) (21, 4.26298528909683230000e-002) (22, 2.43509840220212940000e-002) (23, -5.23276887834072110000e-002) (24, -1.59720554947853090000e-001) (25, -1.14961318671703340000e-001) (26, 1.26306772232055660000e-001) (27, 4.36343550682067870000e-002) (28, -4.81235282495617870000e-003) (29, -1.22952945530414580000e-002) (30, -7.64779374003410340000e-002) (31, -6.10166490077972410000e-002) (32, -1.56855657696723940000e-001) (33, -8.55546444654464720000e-002) (34, 4.79192472994327550000e-002) (35, 2.79571712017059330000e-002) (36, 5.93448011204600330000e-003) (37, -3.30987758934497830000e-002) (38, 1.62612870335578920000e-001) (39, 1.07274480164051060000e-001) (40, -1.24111577868461610000e-001) (41, -1.40524089336395260000e-001) (42, 2.29023527354002000000e-002) (43, -3.23795080184936520000e-002) (44, 9.07163172960281370000e-002) (45, 8.23831334710121150000e-002) (46, 1.04159258306026460000e-001) (47, 1.25965312123298650000e-001) (48, -4.77691330015659330000e-002) (49, -6.95708319544792180000e-002) (50, -3.57858948409557340000e-002) (51, -2.44410764425992970000e-002) (52, 3.02705559879541400000e-002) (53, 4.13240259513258930000e-003) (54, 1.50595963001251220000e-001) (55, 7.71206989884376530000e-002) (56, 3.42805348336696620000e-002) (57, 1.74904186278581620000e-002) (58, -1.62044670432806020000e-002) (59, -3.93990948796272280000e-002) (60, 2.83610746264457700000e-002) (61, -6.66818255558609960000e-003) (62, 2.61812862008810040000e-002) (63, 3.39442901313304900000e-002) (64, 4.89888936281204220000e-002) (65, 3.82934547960758210000e-002) (66, -7.62701183557510380000e-002) (67, -6.72637075185775760000e-002) (68, -4.59452606737613680000e-002) (69, -6.57394155859947200000e-002) (70, -4.72258916124701500000e-003) (71, -2.41422448307275770000e-002) (72, 5.56500069797039030000e-003) (73, 7.37711740657687190000e-003) (74, -2.30470895767211910000e-002) (75, -2.95611377805471420000e-002) (76, 1.44598130136728290000e-002) (77, 1.16842230781912800000e-002) (78, -8.16971436142921450000e-003) (79, -2.05476377159357070000e-002) (80, 2.86180656403303150000e-002) (81, 2.16862112283706670000e-002) (82, 1.57295318786054850000e-003) (83, -1.55077297240495680000e-002) (84, -7.05255568027496340000e-003) (0, -8.63100737333297730000e-002) (1, -8.17586109042167660000e-002) (2, -6.30775839090347290000e-002) (3, -3.32111716270446780000e-002) (4, -1.68361544609069820000e-001) (5, -6.13183304667472840000e-002) (6, 5.39475046098232270000e-002) (7, -4.63305227458477020000e-002) (8, 1.74999818205833440000e-001) (9, 3.94806033000350000000e-003) (10, -1.27196870744228360000e-002) (11, -8.80264490842819210000e-002) (12, -1.70878335833549500000e-001) (13, -8.27691555023193360000e-002) (14, 1.43458753824234010000e-001) (15, 9.20064747333526610000e-002) (16, 2.15018112212419510000e-002) (17, 1.73937231302261350000e-002) (18, 4.87420111894607540000e-002) (19, 1.05513343587517740000e-002) (20, -5.06692193448543550000e-003) (21, 9.58403944969177250000e-003) (22, -5.61993159353733060000e-002) (23, -8.76691117882728580000e-002) (24, 8.68552830070257190000e-003) (25, -9.34158917516469960000e-003) (26, 8.24103057384490970000e-002) (27, 7.88132101297378540000e-002) (28, -5.21454960107803340000e-002) (29, -4.99465204775333400000e-002) (30, 1.02957040071487430000e-002) (31, -3.31169813871383670000e-002) (32, 2.85822190344333650000e-002) (33, -1.15297483280301090000e-002) (34, -9.47877392172813420000e-002) (35, -9.48418155312538150000e-002) (36, 2.70232260227203370000e-002) (37, -6.81708380579948430000e-003) (38, 2.12581604719161990000e-002) (39, 4.42755296826362610000e-002) (40, 1.55001938343048100000e-001) (41, 4.52049784362316130000e-002) (42, 4.16414327919483180000e-002) (43, -2.35274899750947950000e-002) (44, 8.97749885916709900000e-002) (45, 8.24395753443241120000e-003) (46, 7.63211697340011600000e-002) (47, 2.33967229723930360000e-002) (48, 8.09441804885864260000e-002) (49, 7.00590610504150390000e-002) (50, -1.27623733133077620000e-002) (51, -3.70765626430511470000e-002) (52, -5.04362070932984350000e-003) (53, -3.21494303643703460000e-002) (54, -1.22917711734771730000e-001) (55, -1.70357614755630490000e-001) (56, -4.87504974007606510000e-002) (57, -8.33596661686897280000e-002) (58, 1.52992568910121920000e-002) (59, -5.08725605905056000000e-002) (60, -1.05257211253046990000e-002) (61, -2.00949795544147490000e-002) (62, 1.80864054709672930000e-002) (63, 2.14170757681131360000e-002) (64, 3.03987190127372740000e-002) (65, 1.02775031700730320000e-002) (66, 2.75942012667655940000e-002) (67, 1.42961097881197930000e-002) (68, 8.18814188241958620000e-002) (69, 6.52427598834037780000e-002) (70, 4.57940027117729190000e-002) (71, 3.84273775853216650000e-003) (72, 7.18287046765908600000e-005) (73, -4.64996993541717530000e-002) (74, 8.01885779947042470000e-003) (75, -4.18986044824123380000e-002) (76, -4.62551377713680270000e-002) (77, -7.63812810182571410000e-002) (78, 1.11252476926893000000e-003) (79, -3.74626889824867250000e-002) (80, -2.66667548567056660000e-003) (81, -2.77228262275457380000e-002) (82, 2.87320901406928900000e-004) (83, -4.15219254791736600000e-002) (84, 2.80707161873579030000e-002) (0, -4.86209169030189510000e-002) (1, 5.65890371799468990000e-002) (2, 2.36298181116580960000e-002) (3, -5.17040081322193150000e-002) (4, -1.04618117213249210000e-001) (5, -4.71480051055550580000e-003) (6, 1.57632343471050260000e-002) (7, -2.30761747807264330000e-002) (8, -1.37160316109657290000e-001) (9, -4.19409386813640590000e-002) (10, -2.80833654105663300000e-002) (11, 2.70075518637895580000e-002) (12, 2.82768011093139650000e-002) (13, 8.50001648068428040000e-002) (14, 1.26706779003143310000e-001) (15, 1.42225518822669980000e-001) (16, 1.56932845711708070000e-002) (17, -1.20937777683138850000e-002) (18, -7.83870369195938110000e-002) (19, -5.52759766578674320000e-002) (20, -7.76390209794044490000e-002) (21, -9.32195782661437990000e-003) (22, 2.68653064966201780000e-001) (23, 2.14726105332374570000e-001) (24, 2.53646850585937500000e-001) (25, 2.09420353174209590000e-001) (26, -1.63281366229057310000e-001) (27, -1.89170196652412410000e-001) (28, -1.12329851835966110000e-002) (29, 7.44623597711324690000e-003) (30, 1.13333798944950100000e-001) (31, 5.60476444661617280000e-002) (32, 5.37824518978595730000e-002) (33, 6.60649985074996950000e-002) (34, 5.36422953009605410000e-002) (35, 5.20194359123706820000e-002) (36, -1.11805342137813570000e-001) (37, -1.30632027983665470000e-001) (38, -1.84980615973472600000e-001) (39, -1.47748887538909910000e-001) (40, 1.99521463364362720000e-002) (41, -2.49757058918476100000e-002) (42, -1.97149634361267090000e-001) (43, -1.45850330591201780000e-001) (44, -7.32197612524032590000e-002) (45, -1.17987774312496190000e-001) (46, 4.45674434304237370000e-002) (47, 3.24956029653549190000e-002) (48, 2.17768475413322450000e-002) (49, -1.98164395987987520000e-003) (50, 1.03924321010708810000e-002) (51, 2.50762943178415300000e-002) (52, -9.56238210201263430000e-002) (53, -6.59468919038772580000e-002) (54, 6.73604235053062440000e-002) (55, 7.64859840273857120000e-002) (56, 1.25084415078163150000e-001) (57, 9.92983132600784300000e-002) (58, 2.41947527974843980000e-002) (59, 2.63033639639616010000e-002) (60, -3.38627249002456670000e-002) (61, -4.02065142989158630000e-002) (62, 3.92921827733516690000e-002) (63, -2.13011726737022400000e-002) (64, 4.69111278653144840000e-003) (65, -1.56034678220748900000e-002) (66, 8.01652818918228150000e-002) (67, -8.75422637909650800000e-003) (68, -4.41428609192371370000e-002) (69, -3.06799411773681640000e-002) (70, -1.39969410374760630000e-002) (71, 7.39146140404045580000e-004) (72, -1.02909551933407780000e-002) (73, -3.05140726268291470000e-002) (74, 2.21717189997434620000e-002) (75, -2.09479089826345440000e-002) (76, -3.80723848938941960000e-002) (77, -7.42946043610572810000e-002) (78, -2.14018598198890690000e-002) (79, -4.27184253931045530000e-002) (80, 4.16852608323097230000e-002) (81, -1.44090084359049800000e-002) (82, 2.84025669097900390000e-002) (83, 7.75508175138384100000e-004) (84, 5.06809912621974950000e-002) (0, 1.95321723818778990000e-001) (1, -6.56805932521820070000e-002) (2, 8.33076250273734330000e-004) (3, 1.04702092707157140000e-001) (4, -7.71534144878387450000e-002) (5, -2.70486567169427870000e-002) (6, -3.08613618835806850000e-003) (7, 6.15167804062366490000e-002) (8, -6.47165030241012570000e-002) (9, -1.12106606364250180000e-001) (10, 9.91653501987457280000e-002) (11, -6.82306988164782520000e-003) (12, 9.33328941464424130000e-002) (13, -1.02597206830978390000e-001) (14, -1.93918675184249880000e-001) (15, -2.01912373304367070000e-001) (16, -5.50268739461898800000e-002) (17, -8.70767384767532350000e-002) (18, -1.95933692157268520000e-003) (19, -2.15588267892599110000e-002) (20, 4.61992174386978150000e-002) (21, 5.74846751987934110000e-003) (22, 1.12851255107671020000e-003) (23, 3.00884302705526350000e-002) (24, 4.93539385497570040000e-002) (25, -1.97668708860874180000e-002) (26, 8.97145196795463560000e-002) (27, -2.88372393697500230000e-002) (28, 2.72220671176910400000e-001) (29, 1.45467430353164670000e-001) (30, 1.53525263071060180000e-001) (31, 1.46205484867095950000e-001) (32, 1.18509069085121150000e-001) (33, 6.84261545538902280000e-002) (34, -1.01761788129806520000e-001) (35, -2.34374850988388060000e-002) (36, -1.32843852043151860000e-001) (37, -7.82797858119010930000e-002) (38, -2.86553427577018740000e-002) (39, -2.29688547551631930000e-003) (40, -2.76252217590808870000e-002) (41, -1.02655731141567230000e-001) (42, -1.23816430568695070000e-001) (43, -8.66734907031059270000e-002) (44, -2.94791236519813540000e-002) (45, -4.43886555731296540000e-002) (46, -2.29844916611909870000e-002) (47, -3.14468629658222200000e-002) (48, 9.32286307215690610000e-002) (49, 1.00301682949066160000e-001) (50, 1.13683849573135380000e-001) (51, 1.69812604784965520000e-001) (52, -3.91612723469734190000e-002) (53, 5.81144262105226520000e-003) (54, 7.68711119890213010000e-002) (55, 2.39938218146562580000e-002) (56, 4.31168712675571440000e-002) (57, 5.77939897775650020000e-002) (58, 9.72575787454843520000e-003) (59, -1.48453852161765100000e-002) (60, -4.43534590303897860000e-002) (61, -3.44875827431678770000e-002) (62, 2.60129217058420180000e-002) (63, 1.96237657219171520000e-002) (64, -2.93966084718704220000e-002) (65, -2.91781276464462280000e-002) (66, -1.72812584787607190000e-002) (67, -2.98636015504598620000e-002) (68, 4.34061959385871890000e-002) (69, -9.16752126067876820000e-003) (70, -3.30403335392475130000e-002) (71, -2.93107274919748310000e-002) (72, -2.80022304505109790000e-002) (73, -4.47883270680904390000e-002) (74, 4.25663441419601440000e-002) (75, -3.32831242121756080000e-003) (76, -5.20226694643497470000e-002) (77, -5.37475720047950740000e-002) (78, -1.57090984284877780000e-002) (79, -1.20416553691029550000e-002) (80, 2.65053063631057740000e-002) (81, 5.46380393207073210000e-002) (82, -4.53861318528652190000e-002) (83, -1.26665132120251660000e-002) (84, 1.90693121403455730000e-002) (0, -8.08902531862258910000e-002) (1, -1.18525318801403050000e-001) (2, -1.66097000241279600000e-001) (3, 2.46677566319704060000e-002) (4, 3.84838134050369260000e-002) (5, -3.95458042621612550000e-002) (6, -1.29934027791023250000e-001) (7, -4.29390594363212590000e-002) (8, 3.99088151752948760000e-002) (9, 1.42454043030738830000e-001) (10, -7.03527852892875670000e-002) (11, 2.49240193516016010000e-002) (12, 5.65914437174797060000e-002) (13, 6.66015744209289550000e-002) (14, 3.19418519735336300000e-001) (15, 3.06756049394607540000e-001) (16, -4.58414778113365170000e-002) (17, 8.38066078722476960000e-003) (18, 8.39147716760635380000e-002) (19, 5.40530420839786530000e-002) (20, 3.65498177707195280000e-002) (21, 4.29300367832183840000e-002) (22, -9.38712358474731450000e-002) (23, -3.04822921752929690000e-002) (24, 1.04778826236724850000e-001) (25, 5.97579516470432280000e-002) (26, -8.86238440871238710000e-002) (27, -8.26480686664581300000e-002) (28, -1.29236742854118350000e-001) (29, -9.62263941764831540000e-002) (30, 3.94884236156940460000e-002) (31, 2.45558656752109530000e-002) (32, -1.03039830923080440000e-001) (33, -7.26686492562294010000e-002) (34, 1.28397658467292790000e-001) (35, 6.13943748176097870000e-002) (36, -2.70261690020561220000e-002) (37, 1.65582615882158280000e-002) (38, 2.69780457019805910000e-001) (39, 1.67123600840568540000e-001) (40, 7.87375271320343020000e-002) (41, 5.70030063390731810000e-002) (42, -9.95450317859649660000e-002) (43, -1.23203352093696590000e-001) (44, -1.16093661636114120000e-002) (45, 2.30708513408899310000e-002) (46, 4.46762815117836000000e-002) (47, 2.44946498423814770000e-002) (48, -9.59229841828346250000e-002) (49, -9.49995368719100950000e-002) (50, 5.31827972736209630000e-004) (51, 2.46776267886161800000e-002) (52, -2.04350396990776060000e-001) (53, -2.22097352147102360000e-001) (54, -1.16123788058757780000e-001) (55, -5.06858900189399720000e-002) (56, 7.54213258624076840000e-002) (57, 3.82277369499206540000e-002) (58, 1.45489005371928220000e-002) (59, 3.85286249220371250000e-002) (60, 2.19850037246942520000e-002) (61, -1.78248360753059390000e-002) (62, 4.43682782351970670000e-002) (63, -1.01993242278695110000e-002) (64, 8.30569937825202940000e-002) (65, 5.93123175203800200000e-002) (66, -2.29236744344234470000e-002) (67, -4.78390902280807500000e-002) (68, -3.08548007160425190000e-002) (69, -7.14220805093646050000e-003) (70, -2.21193227916955950000e-002) (71, 8.65314388647675510000e-004) (72, -5.95507360994815830000e-002) (73, -8.06483998894691470000e-002) (74, -1.80729087442159650000e-002) (75, -1.36307300999760630000e-002) (76, -6.06438405811786650000e-002) (77, -6.67254850268363950000e-002) (78, -6.95768743753433230000e-002) (79, -9.32383909821510310000e-002) (80, 8.74877497553825380000e-002) (81, 4.26574982702732090000e-002) (82, 7.67359882593154910000e-002) (83, 7.07190185785293580000e-002) (84, 1.11593656241893770000e-001) (0, -6.29210695624351500000e-002) (1, -7.97828659415245060000e-002) (2, -1.13313183188438420000e-001) (3, -2.90397610515356060000e-002) (4, 9.89866182208061220000e-002) (5, -2.90921982377767560000e-002) (6, 7.60097149759531020000e-003) (7, 1.43668875098228450000e-002) (8, -1.50021478533744810000e-001) (9, -4.03748499229550360000e-003) (10, -5.42233884334564210000e-002) (11, -6.13323114812374110000e-002) (12, -1.11816257238388060000e-001) (13, -1.52782099321484570000e-002) (14, 3.05182151496410370000e-002) (15, -2.77786366641521450000e-002) (16, 1.22865200042724610000e-001) (17, 1.13695956766605380000e-001) (18, 3.12625207006931300000e-002) (19, 3.55301871895790100000e-002) (20, -2.13067885488271710000e-003) (21, 3.34037020802497860000e-002) (22, 1.54769137501716610000e-001) (23, 8.34610238671302800000e-002) (24, 2.16577664017677310000e-001) (25, 9.91700142621994020000e-002) (26, 1.51062637567520140000e-001) (27, 1.88364893198013310000e-001) (28, -1.07750482857227330000e-001) (29, -1.09971567988395690000e-001) (30, -1.66272029280662540000e-001) (31, -1.85352072119712830000e-001) (32, 1.11562877893447880000e-001) (33, 4.54232208430767060000e-002) (34, 4.58318926393985750000e-002) (35, -5.18932491540908810000e-002) (36, -1.04515969753265380000e-001) (37, -1.11041791737079620000e-001) (38, 1.65448766201734540000e-002) (39, -7.77472108602523800000e-002) (40, -1.72937020659446720000e-001) (41, -1.46162629127502440000e-001) (42, 1.73853382468223570000e-001) (43, 1.58222749829292300000e-001) (44, 3.99505943059921260000e-002) (45, -1.09012555330991740000e-002) (46, -7.52056315541267400000e-002) (47, -8.25916305184364320000e-002) (48, -9.88284125924110410000e-002) (49, -6.26069009304046630000e-002) (50, 1.69712841510772710000e-001) (51, 1.01538836956024170000e-001) (52, -1.97333082556724550000e-001) (53, -1.72192826867103580000e-001) (54, -1.75190996378660200000e-002) (55, 1.71323157846927640000e-002) (56, -5.71630597114562990000e-002) (57, -4.20231223106384280000e-002) (58, 1.99025403708219530000e-002) (59, 3.11635956168174740000e-002) (60, 3.48101928830146790000e-002) (61, 3.28403711318969730000e-002) (62, 2.94317640364170070000e-002) (63, -9.90840233862400050000e-003) (64, -5.55000416934490200000e-002) (65, -8.88131782412528990000e-002) (66, 1.39072656631469730000e-001) (67, 1.15588396787643430000e-001) (68, 3.03051434457302090000e-002) (69, -9.22083947807550430000e-003) (70, 9.83368791639804840000e-003) (71, 3.58123891055583950000e-003) (72, 2.61118952184915540000e-002) (73, -9.16834641247987750000e-003) (74, 1.47394258528947830000e-002) (75, -3.15962322056293490000e-002) (76, 2.02251803129911420000e-002) (77, 1.44832422956824300000e-002) (78, 4.72685992717742920000e-002) (79, 3.78287397325038910000e-002) (80, 2.67534777522087100000e-002) (81, -1.15555003285408020000e-002) (82, 1.65870357304811480000e-002) (83, 1.77807193249464040000e-002) (84, -6.21438175439834590000e-002) (0, -2.23835721611976620000e-001) (1, -3.58274653553962710000e-002) (2, -1.92715808749198910000e-001) (3, -8.39302912354469300000e-002) (4, -1.93082075566053390000e-002) (5, 2.06685662269592290000e-002) (6, -8.10568258166313170000e-002) (7, -7.75780454277992250000e-002) (8, 5.54866008460521700000e-002) (9, 3.78955192863941190000e-002) (10, 1.85843054205179210000e-002) (11, -3.61999459564685820000e-002) (12, -5.59053719043731690000e-002) (13, 6.48066252470016480000e-002) (14, 1.21893063187599180000e-001) (15, 1.04705490171909330000e-001) (16, -9.24345746170729400000e-004) (17, 4.03787009418010710000e-002) (18, 9.95419397950172420000e-002) (19, 8.26741382479667660000e-003) (20, 9.33765619993209840000e-002) (21, 1.06248497962951660000e-001) (22, 1.41470015048980710000e-001) (23, 1.00411243736743930000e-001) (24, -3.95461358129978180000e-002) (25, -3.15218903124332430000e-002) (26, -4.33207266032695770000e-002) (27, -1.00195165723562240000e-002) (28, -4.66481447219848630000e-002) (29, -4.89914324134588240000e-003) (30, 8.03384408354759220000e-002) (31, 7.40463435649871830000e-002) (32, -1.42847687005996700000e-001) (33, -1.24852702021598820000e-001) (34, -7.98950567841529850000e-002) (35, -1.15767598152160640000e-001) (36, -5.66884241998195650000e-002) (37, -1.16995126008987430000e-001) (38, 1.59862577915191650000e-001) (39, 1.20581835508346560000e-001) (40, 2.04168930649757390000e-001) (41, 1.21374249458312990000e-001) (42, 5.08630834519863130000e-002) (43, 2.48344782739877700000e-002) (44, 6.78305700421333310000e-002) (45, 7.62995006516575810000e-003) (46, 9.25910770893096920000e-002) (47, 1.06650747358798980000e-001) (48, -2.90416516363620760000e-002) (49, -4.52269576489925380000e-002) (50, -1.01326189935207370000e-001) (51, -8.24994221329689030000e-002) (52, -1.48434236645698550000e-001) (53, -1.24374710023403170000e-001) (54, -1.08106717467308040000e-001) (55, -1.32154747843742370000e-001) (56, -7.97361508011817930000e-002) (57, -7.24018961191177370000e-002) (58, -2.88565717637538910000e-002) (59, -8.59939306974411010000e-002) (60, -3.81263196468353270000e-002) (61, -2.30323877185583110000e-002) (62, 5.56856058537960050000e-002) (63, 1.04704730212688450000e-001) (64, 5.09754568338394170000e-002) (65, 3.51246520876884460000e-002) (66, 1.94554664194583890000e-002) (67, 6.30358979105949400000e-002) (68, -1.34326796978712080000e-003) (69, 2.48565021902322770000e-002) (70, 4.68502612784504890000e-003) (71, 1.27090876922011380000e-002) (72, -2.63624060899019240000e-002) (73, -1.39122679829597470000e-002) (74, 1.14883789792656900000e-002) (75, 1.84393618255853650000e-002) (76, -5.09637817740440370000e-002) (77, -4.37651611864566800000e-002) (78, -1.71788800507783890000e-002) (79, 1.93086434155702590000e-002) (80, -1.15138692781329150000e-002) (81, 1.04804970324039460000e-002) (82, 1.78196635097265240000e-002) (83, -9.21442545950412750000e-003) (84, -3.39316576719284060000e-002) (0, -1.51796177029609680000e-001) (1, 6.04679286479949950000e-002) (2, 6.20459951460361480000e-002) (3, 1.05747409164905550000e-001) (4, -3.94351631402969360000e-002) (5, -3.23181040585041050000e-002) (6, -2.99733188003301620000e-002) (7, 4.25018835812807080000e-003) (8, 1.00021325051784520000e-001) (9, -6.46834587678313260000e-003) (10, -5.31782619655132290000e-002) (11, 2.45619155466556550000e-002) (12, -9.76456999778747560000e-002) (13, -9.69688668847084050000e-002) (14, -9.10568311810493470000e-002) (15, -5.88023215532302860000e-002) (16, -2.24428504705429080000e-001) (17, -2.11220622062683110000e-001) (18, -7.41111338138580320000e-002) (19, -9.51956375502049920000e-004) (20, 7.65205547213554380000e-002) (21, 6.22435212135314940000e-002) (22, -1.79538235068321230000e-001) (23, -1.47777080535888670000e-001) (24, 2.18568928539752960000e-002) (25, 3.88568751513957980000e-002) (26, 1.68971836566925050000e-001) (27, 1.50548160076141360000e-001) (28, 1.41619816422462460000e-001) (29, 1.11433155834674840000e-001) (30, 4.19229939579963680000e-002) (31, 8.83222967386245730000e-002) (32, 2.16573730111122130000e-001) (33, 1.84810042381286620000e-001) (34, 2.41407360881567000000e-002) (35, -2.09282524883747100000e-003) (36, 5.43835684657096860000e-002) (37, 9.01124179363250730000e-002) (38, 1.61273166537284850000e-001) (39, 1.69663175940513610000e-001) (40, -1.25334426760673520000e-001) (41, -1.03171907365322110000e-001) (42, -8.18764418363571170000e-002) (43, -5.02833351492881770000e-002) (44, 9.36346426606178280000e-002) (45, 1.46540656685829160000e-001) (46, -7.42294862866401670000e-002) (47, -7.88144245743751530000e-002) (48, -5.81046976149082180000e-002) (49, -5.23028187453746800000e-002) (50, -1.23963700607419010000e-002) (51, 2.00646277517080310000e-002) (52, -1.71986386179924010000e-001) (53, -1.37232199311256410000e-001) (54, 7.59216696023941040000e-002) (55, 7.93735831975936890000e-002) (56, 3.31032127141952510000e-002) (57, 3.56495678424835210000e-002) (58, -6.03476166725158690000e-002) (59, -5.71260079741477970000e-002) (60, -1.29644244909286500000e-001) (61, -6.55942931771278380000e-002) (62, 1.48246437311172490000e-002) (63, 2.73673012852668760000e-002) (64, 1.31772188469767570000e-002) (65, 6.59389514476060870000e-003) (66, -1.58497486263513570000e-002) (67, 2.17735841870307920000e-002) (68, -1.38597134500741960000e-002) (69, -3.04874852299690250000e-002) (70, -4.54592593014240260000e-002) (71, -1.36978225782513620000e-002) (72, -3.67836765944957730000e-002) (73, -3.82921062409877780000e-002) (74, 5.29043264687061310000e-002) (75, 4.29868623614311220000e-002) (76, -3.94396334886550900000e-002) (77, -1.08445063233375550000e-002) (78, -2.55273878574371340000e-002) (79, 2.60918438434600830000e-002) (80, -1.64645723998546600000e-002) (81, 3.77780422568321230000e-002) (82, -1.70459412038326260000e-002) (83, 4.36506047844886780000e-002) (84, 8.61102063208818440000e-003) (0, -1.44432336091995240000e-001) (1, -1.04155026376247410000e-001) (2, -1.73488065600395200000e-001) (3, 1.30725935101509090000e-001) (4, 1.48755282163620000000e-001) (5, 4.90629635751247410000e-002) (6, 8.36828351020812990000e-002) (7, -3.26925143599510190000e-002) (8, -4.65187802910804750000e-002) (9, -6.15396387875080110000e-002) (10, 7.16016739606857300000e-002) (11, -2.11032889783382420000e-002) (12, 1.72199562191963200000e-001) (13, 5.46142794191837310000e-002) (14, 6.58552497625350950000e-002) (15, 7.66261592507362370000e-002) (16, 2.39440843462944030000e-001) (17, 2.68898487091064450000e-001) (18, -8.83630141615867610000e-002) (19, -1.13359928131103520000e-001) (20, -1.10054820775985720000e-001) (21, -6.61809891462326050000e-002) (22, -3.87430726550519470000e-003) (23, 3.34189347922801970000e-002) (24, -2.06292718648910520000e-002) (25, -3.08182113803923130000e-003) (26, -1.57904729247093200000e-001) (27, -8.98834913969039920000e-002) (28, -6.50566071271896360000e-002) (29, -1.95587165653705600000e-002) (30, 9.10651776939630510000e-003) (31, -1.46077647805213930000e-002) (32, 6.90304040908813480000e-002) (33, 2.84455083310604100000e-002) (34, -7.38690719008445740000e-002) (35, -1.70728620141744610000e-002) (36, -2.28063929826021190000e-002) (37, -1.32082318887114520000e-002) (38, -1.89197987318038940000e-001) (39, -1.44091635942459110000e-001) (40, 7.08195269107818600000e-002) (41, 9.64618176221847530000e-002) (42, -1.53636420145630840000e-002) (43, 7.31918960809707640000e-002) (44, -1.84172242879867550000e-001) (45, -1.81353807449340820000e-001) (46, -6.95501416921615600000e-002) (47, -6.49252012372016910000e-002) (48, 7.72603647783398630000e-003) (49, 6.32421970367431640000e-002) (50, -2.87367384880781170000e-002) (51, -3.75965498387813570000e-002) (52, 4.15438972413539890000e-003) (53, 6.59384503960609440000e-002) (54, -7.36800357699394230000e-002) (55, -3.56813520193099980000e-002) (56, -1.02312061935663220000e-002) (57, 2.65779737383127210000e-002) (58, 4.19351048767566680000e-002) (59, 4.55130711197853090000e-002) (60, -2.99845319241285320000e-002) (61, 6.12335395999252800000e-004) (62, -1.72705855220556260000e-002) (63, 2.35178712755441670000e-002) (64, 4.39390428364276890000e-002) (65, 5.72566837072372440000e-002) (66, 1.58523142337799070000e-001) (67, 1.30406916141510010000e-001) (68, 3.46622280776500700000e-002) (69, 7.68909528851509090000e-002) (70, -1.97662301361560820000e-002) (71, 3.66395935416221620000e-002) (72, -3.81898088380694390000e-003) (73, 2.03797854483127590000e-002) (74, -6.43546599894762040000e-003) (75, 6.92958012223243710000e-002) (76, -8.32040142267942430000e-003) (77, 3.63068878650665280000e-002) (78, -2.22991388291120530000e-002) (79, 1.20738474652171130000e-002) (80, -8.84121656417846680000e-002) (81, -4.14936393499374390000e-002) (82, -5.48122972249984740000e-002) (83, -5.66996000707149510000e-002) (84, -7.19293281435966490000e-002) (0, 1.14877991378307340000e-001) (1, -9.30594429373741150000e-002) (2, -1.50850906968116760000e-001) (3, -7.47742950916290280000e-002) (4, 9.81821864843368530000e-003) (5, 3.37128564715385440000e-002) (6, 1.29378780722618100000e-001) (7, -1.18568362668156620000e-002) (8, -2.94339377433061600000e-002) (9, -1.30876541137695310000e-001) (10, 3.95912937819957730000e-002) (11, -6.34019523859024050000e-002) (12, -1.81936532258987430000e-001) (13, 7.88763985037803650000e-002) (14, 2.28754505515098570000e-001) (15, 2.06856921315193180000e-001) (16, 1.05191521346569060000e-001) (17, 1.57662212848663330000e-001) (18, -7.28378444910049440000e-002) (19, -2.12293267250061040000e-002) (20, -4.27563488483428960000e-002) (21, 5.77898183837533000000e-003) (22, 5.17053641378879550000e-002) (23, -3.63707356154918670000e-003) (24, -1.94227024912834170000e-001) (25, -1.45702987909317020000e-001) (26, 2.97183871269226070000e-001) (27, 2.25674480199813840000e-001) (28, -2.06647396087646480000e-001) (29, -1.72488614916801450000e-001) (30, 4.59310002624988560000e-002) (31, -5.32910553738474850000e-003) (32, -1.42363414168357850000e-001) (33, -1.10287077724933620000e-001) (34, 5.24680316448211670000e-002) (35, 6.58207572996616360000e-004) (36, -2.04330347478389740000e-002) (37, -6.01975172758102420000e-002) (38, 2.25021466612815860000e-001) (39, 1.64016559720039370000e-001) (40, -2.63812452554702760000e-001) (41, -2.55760550498962400000e-001) (42, 2.28066816926002500000e-002) (43, -3.43494601547718050000e-002) (44, -6.46599233150482180000e-002) (45, -4.71465662121772770000e-002) (46, 2.38551691174507140000e-001) (47, 1.84390529990196230000e-001) (48, -5.27065917849540710000e-002) (49, -5.89220859110355380000e-002) (50, 1.05190746486186980000e-001) (51, 3.51377017796039580000e-002) (52, -4.03957739472389220000e-002) (53, -5.05882501602172850000e-002) (54, 3.42697314918041230000e-002) (55, 8.08977037668228150000e-002) (56, 8.13818946480751040000e-002) (57, 2.32653040438890460000e-002) (58, -1.14797381684184070000e-002) (59, 1.66668500751256940000e-002) (60, -5.27058839797973630000e-002) (61, -8.94720628857612610000e-002) (62, 5.23976460099220280000e-002) (63, 1.92219782620668410000e-002) (64, -4.78149913251399990000e-002) (65, -5.44580072164535520000e-002) (66, 2.86922845989465710000e-002) (67, -2.82865632325410840000e-002) (68, 1.23496064916253090000e-002) (69, 8.23192577809095380000e-003) (70, -1.23458877205848690000e-002) (71, -2.72406339645385740000e-002) (72, 1.67486649006605150000e-002) (73, -3.83487828075885770000e-002) (74, 2.51521822065114970000e-002) (75, -5.01531809568405150000e-002) (76, -4.23932373523712160000e-002) (77, -6.41452521085739140000e-002) (78, 1.31033081561326980000e-002) (79, -3.24885249137878420000e-002) (80, 2.28278152644634250000e-002) (81, -6.41104346141219140000e-003) (82, 2.83831264823675160000e-003) (83, -3.50676216185092930000e-002) (84, 1.07032582163810730000e-001) (0, -2.04016327857971190000e-001) (1, -7.20607340335845950000e-002) (2, -4.00609858334064480000e-002) (3, 2.62528620660305020000e-002) (4, -2.27328956127166750000e-001) (5, -1.82672336697578430000e-001) (6, 9.41907316446304320000e-002) (7, 3.97517047822475430000e-002) (8, 1.46851902827620510000e-002) (9, 5.99492341279983520000e-002) (10, -2.10716113448143010000e-001) (11, -5.11351376771926880000e-002) (12, 1.29720553755760190000e-001) (13, 9.53908171504735950000e-003) (14, 8.30951929092407230000e-002) (15, 1.35024115443229680000e-001) (16, 1.48393154144287110000e-001) (17, 6.67730867862701420000e-002) (18, 1.47349283099174500000e-001) (19, 1.99250444769859310000e-001) (20, 1.31581211462616920000e-003) (21, 2.21909899264574050000e-002) (22, -2.27796345949172970000e-001) (23, -1.66410312056541440000e-001) (24, 1.45983994007110600000e-001) (25, 2.18604549765586850000e-001) (26, -6.60795792937278750000e-002) (27, -1.02428654208779340000e-002) (28, -4.34244349598884580000e-002) (29, -5.32693639397621150000e-002) (30, -2.08631232380867000000e-001) (31, -2.18543037772178650000e-001) (32, 1.31678149104118350000e-001) (33, 5.40508925914764400000e-002) (34, 2.53124032169580460000e-002) (35, -9.60281640291213990000e-002) (36, 2.64470845460891720000e-001) (37, 2.12130039930343630000e-001) (38, -7.07414448261260990000e-002) (39, -4.89037372171878810000e-002) (40, -3.94880846142768860000e-002) (41, 2.10307780653238300000e-002) (42, -9.85223427414894100000e-002) (43, -5.29514327645301820000e-002) (44, 3.56006771326065060000e-002) (45, 4.97299097478389740000e-002) (46, -1.03150784969329830000e-001) (47, -1.16451315581798550000e-001) (48, -1.29491835832595830000e-001) (49, -8.95754098892211910000e-002) (50, -3.61798442900180820000e-002) (51, -1.09297469258308410000e-001) (52, -7.28379562497138980000e-002) (53, -3.73093113303184510000e-002) (54, -1.17229633033275600000e-001) (55, -7.54260942339897160000e-002) (56, 6.93643465638160710000e-002) (57, 6.20064586400985720000e-002) (58, -5.91872818768024440000e-002) (59, -2.59533040225505830000e-002) (60, -3.60473841428756710000e-002) (61, 3.70784886181354520000e-002) (62, 8.27329829335212710000e-002) (63, 5.06176464259624480000e-002) (64, -4.60659824311733250000e-002) (65, -1.22000351548194890000e-001) (66, 5.12616001069545750000e-002) (67, 4.86622527241706850000e-002) (68, 1.22356109321117400000e-001) (69, 8.83691236376762390000e-002) (70, 1.72428581863641740000e-002) (71, 2.31545362621545790000e-002) (72, 1.02807126939296720000e-001) (73, 4.43657934665679930000e-002) (74, 5.18416762351989750000e-002) (75, -7.29882763698697090000e-003) (76, 2.17312425374984740000e-002) (77, 3.87114994227886200000e-002) (78, 5.38667663931846620000e-002) (79, 6.86528235673904420000e-002) (80, 2.25485004484653470000e-002) (81, 1.97080429643392560000e-003) (82, -9.33331716805696490000e-003) (83, 1.60135496407747270000e-002) (84, -1.12474642693996430000e-001) (0, -1.91323637962341310000e-001) (1, -2.90555488318204880000e-002) (2, -4.94899041950702670000e-002) (3, 1.09428048133850100000e-001) (4, -9.96462106704711910000e-002) (5, -3.73988226056098940000e-002) (6, 1.57097950577735900000e-001) (7, 9.70988795161247250000e-002) (8, -8.75375270843505860000e-002) (9, -3.67250405251979830000e-002) (10, -8.25072289444506170000e-004) (11, -3.08949258178472520000e-002) (12, -1.40723943710327150000e-001) (13, -8.76237154006958010000e-002) (14, -1.40988696366548540000e-002) (15, 1.13337887451052670000e-002) (16, -1.69141247868537900000e-001) (17, -1.06072247028350830000e-001) (18, 1.67512297630310060000e-001) (19, 2.01037913560867310000e-001) (20, -6.40592202544212340000e-002) (21, -1.26367053017020230000e-002) (22, -1.05995498597621920000e-001) (23, -3.59570123255252840000e-002) (24, 1.47814661264419560000e-001) (25, 1.80910632014274600000e-001) (26, -9.10583212971687320000e-002) (27, -2.09596529603004460000e-002) (28, 2.91762240231037140000e-002) (29, 5.62525987625122070000e-002) (30, 1.20444700121879580000e-001) (31, 1.33636295795440670000e-001) (32, -1.37622237205505370000e-001) (33, -1.48082390427589420000e-001) (34, 1.66798643767833710000e-002) (35, -5.20290546119213100000e-002) (36, 6.44163787364959720000e-002) (37, 4.17401269078254700000e-002) (38, -1.26809686422348020000e-001) (39, -3.62314097583293910000e-002) (40, 1.45742669701576230000e-001) (41, 1.82393446564674380000e-001) (42, 2.14685816317796710000e-002) (43, 4.74059954285621640000e-002) (44, -4.09374274313449860000e-002) (45, -4.91822063922882080000e-002) (46, 1.08435586094856260000e-001) (47, 1.10145792365074160000e-001) (48, -6.13366402685642240000e-002) (49, -6.73512294888496400000e-002) (50, 6.46021068096160890000e-002) (51, 2.11789608001708980000e-002) (52, -9.46170762181282040000e-002) (53, -5.56603632867336270000e-002) (54, -1.41616359353065490000e-001) (55, -5.73287643492221830000e-002) (56, -9.81803983449935910000e-002) (57, -6.50974512100219730000e-002) (58, -2.51278979703783990000e-003) (59, -1.18715837597846980000e-002) (60, -1.24639965593814850000e-001) (61, -6.67145624756813050000e-002) (62, 1.33642265573143960000e-002) (63, 4.39983047544956210000e-002) (64, -1.20138451457023620000e-001) (65, -1.17319621145725250000e-001) (66, 5.08219301700592040000e-002) (67, 1.25131577253341670000e-001) (68, 2.33829747885465620000e-002) (69, 2.68228352069854740000e-002) (70, 3.42483371496200560000e-002) (71, 4.30222488939762120000e-002) (72, 1.79081056267023090000e-002) (73, 2.39190161228179930000e-002) (74, 4.46278937160968780000e-002) (75, 3.26415784657001500000e-002) (76, 3.67003120481967930000e-002) (77, 2.85310465842485430000e-002) (78, 4.99039925634860990000e-002) (79, 8.24272185564041140000e-002) (80, -2.72497385740280150000e-002) (81, 1.43483961001038550000e-002) (82, 1.63933336734771730000e-002) (83, 3.79618816077709200000e-002) (84, -7.01107904314994810000e-002) (0, 1.17689430713653560000e-001) (1, -4.13978248834609990000e-002) (2, -1.72869995236396790000e-001) (3, -1.43919110298156740000e-001) (4, -3.49122732877731320000e-002) (5, -8.29723626375198360000e-002) (6, -5.18000088632106780000e-002) (7, 2.35953554511070250000e-002) (8, -1.56546071171760560000e-001) (9, 1.73752848058938980000e-002) (10, -9.05583798885345460000e-002) (11, -3.56481187045574190000e-002) (12, 2.34698429703712460000e-001) (13, 1.73543840646743770000e-002) (14, 3.27664688229560850000e-002) (15, 5.29557131230831150000e-002) (16, 1.34842231869697570000e-001) (17, 1.05320297181606290000e-001) (18, -9.30528119206428530000e-002) (19, -1.09402328729629520000e-001) (20, 4.41364943981170650000e-002) (21, 5.31746782362461090000e-002) (22, -1.29061564803123470000e-002) (23, 4.16111834347248080000e-002) (24, 7.55795091390609740000e-003) (25, 2.49307099729776380000e-002) (26, 1.04826344177126880000e-002) (27, -3.58755178749561310000e-002) (28, -1.72685429453849790000e-001) (29, -1.28416910767555240000e-001) (30, -1.50075918063521390000e-002) (31, -5.75657142326235770000e-003) (32, 1.08056195080280300000e-001) (33, 1.21501088142395020000e-001) (34, -3.22774387896060940000e-002) (35, -2.58100386708974840000e-002) (36, 8.43216031789779660000e-002) (37, 1.17648497223854060000e-001) (38, 9.20619443058967590000e-002) (39, 3.54778990149497990000e-002) (40, -2.22561359405517580000e-001) (41, -1.81552827358245850000e-001) (42, 1.94908436387777330000e-002) (43, 2.68187560141086580000e-002) (44, -8.53382125496864320000e-002) (45, -3.50531493313610550000e-003) (46, -6.25743716955184940000e-002) (47, -7.19983503222465520000e-002) (48, 1.08471908606588840000e-003) (49, 5.43396547436714170000e-002) (50, -1.73465415835380550000e-001) (51, -9.28069576621055600000e-002) (52, -1.32245942950248720000e-001) (53, -7.71947130560874940000e-002) (54, 1.01489074528217320000e-001) (55, 1.30414918065071110000e-001) (56, 1.04944311082363130000e-001) (57, 8.88229608535766600000e-002) (58, -1.53506193310022350000e-002) (59, 1.50678853970021010000e-003) (60, -8.29280447214841840000e-003) (61, 6.70526623725891110000e-002) (62, -6.31926907226443290000e-003) (63, 2.13990565389394760000e-002) (64, 5.25568798184394840000e-002) (65, 4.85218577086925510000e-002) (66, 1.34544661268591880000e-002) (67, -2.13908385485410690000e-002) (68, 2.77510425075888630000e-003) (69, -4.19653672724962230000e-003) (70, -6.09420835971832280000e-002) (71, -8.92488379031419750000e-003) (72, -2.85674612969160080000e-002) (73, 2.29564756155014040000e-002) (74, 4.06853072345256810000e-002) (75, -2.72221118211746220000e-002) (76, -4.31912988424301150000e-002) (77, 4.26037795841693880000e-003) (78, -5.35431839525699620000e-002) (79, -1.41624500975012780000e-002) (80, 6.05401396751403810000e-003) (81, 2.17269994318485260000e-002) (82, -2.89845895022153850000e-002) (83, 8.03192798048257830000e-003) (84, -2.82259173691272740000e-002) (0, 1.91614955663681030000e-001) (1, 8.26413407921791080000e-002) (2, -6.11445866525173190000e-002) (3, 4.17214184999465940000e-002) (4, -9.64876711368560790000e-002) (5, -1.62671692669391630000e-002) (6, 5.61157017946243290000e-002) (7, 5.61623238027095790000e-002) (8, 1.20346769690513610000e-001) (9, -3.17732803523540500000e-002) (10, 2.49894544482231140000e-001) (11, -2.13991943746805190000e-002) (12, -1.48132652044296260000e-001) (13, 4.68108169734478000000e-002) (14, -9.50305759906768800000e-002) (15, -6.05483315885066990000e-002) (16, -2.45598983019590380000e-002) (17, 8.42411722987890240000e-003) (18, 1.81292623281478880000e-001) (19, 2.33007550239562990000e-001) (20, -6.69164583086967470000e-002) (21, -3.82266975939273830000e-002) (22, -4.31371806189417840000e-003) (23, -3.61008271574974060000e-002) (24, -1.72205716371536250000e-001) (25, -1.05692356824874880000e-001) (26, 5.61747327446937560000e-002) (27, -2.23317928612232210000e-002) (28, 3.60718509182333950000e-003) (29, 2.84533780068159100000e-002) (30, 4.33406196534633640000e-002) (31, 6.45811036229133610000e-002) (32, -2.53865987062454220000e-001) (33, -1.60572722554206850000e-001) (34, 3.03531344980001450000e-003) (35, 4.37938868999481200000e-002) (36, 5.15309982001781460000e-002) (37, -2.17801351100206380000e-002) (38, 5.01075237989425660000e-002) (39, 2.84123290330171590000e-002) (40, 2.74428427219390870000e-002) (41, 3.51604670286178590000e-002) (42, -1.35816549882292750000e-002) (43, -1.47227467969059940000e-002) (44, 2.48094145208597180000e-002) (45, 1.50094274431467060000e-002) (46, 3.57855744659900670000e-002) (47, 6.91721886396408080000e-002) (48, -1.47617282345891000000e-003) (49, -1.50091256946325300000e-002) (50, -3.89891639351844790000e-002) (51, -8.27696621417999270000e-002) (52, 4.61552180349826810000e-002) (53, 2.59900409728288650000e-002) (54, 3.28679047524929050000e-002) (55, 3.43737192451953890000e-002) (56, -1.09006864950060840000e-002) (57, -1.78590940777212380000e-003) (58, -3.15223820507526400000e-002) (59, -4.30534109473228450000e-002) (60, 3.61113324761390690000e-002) (61, -2.07400396466255190000e-002) (62, -2.38488172180950640000e-003) (63, 1.23128397390246390000e-002) (64, 3.34565266966819760000e-002) (65, 3.13726514577865600000e-002) (66, -5.79850934445858000000e-002) (67, -3.82079407572746280000e-002) (68, -2.73272544145584110000e-002) (69, -1.50444852188229560000e-002) (70, -1.11726149916648860000e-002) (71, -2.45850998908281330000e-002) (72, -1.17568485438823700000e-002) (73, -7.25790904834866520000e-003) (74, -5.13956323266029360000e-002) (75, -1.27632906660437580000e-002) (76, -1.37488369364291430000e-003) (77, -1.92442964762449260000e-002) (78, -2.09723338484764100000e-002) (79, -1.07502732425928120000e-002) (80, 8.18669050931930540000e-003) (81, 2.52733882516622540000e-002) (82, -7.17625254765152930000e-003) (83, -3.49159836769104000000e-002) (84, 1.02456174790859220000e-001) (0, -1.07449159026145940000e-001) (1, -4.12837080657482150000e-002) (2, -2.03561842441558840000e-001) (3, -5.17451949417591090000e-002) (4, 7.31356739997863770000e-002) (5, 1.32787093520164490000e-001) (6, 5.90976439416408540000e-002) (7, -1.42803834751248360000e-002) (8, 7.31409201398491860000e-003) (9, 9.06766802072525020000e-002) (10, -1.61400227807462220000e-003) (11, 9.09066423773765560000e-002) (12, -3.03678065538406370000e-001) (13, -1.15597292780876160000e-001) (14, 3.11454951763153080000e-001) (15, 2.92356640100479130000e-001) (16, 1.90841615200042720000e-001) (17, 2.17841446399688720000e-001) (18, 2.95409723185002800000e-003) (19, 2.04682885669171810000e-003) (20, -1.60101819783449170000e-002) (21, 2.49519702047109600000e-002) (22, -8.99799168109893800000e-003) (23, -2.89742648601531980000e-002) (24, -4.23166863620281220000e-002) (25, -3.62745076417922970000e-002) (26, 1.14491283893585210000e-001) (27, 1.02254323661327360000e-001) (28, -1.73023656010627750000e-001) (29, -1.58490210771560670000e-001) (30, -7.65169262886047360000e-002) (31, -7.29538574814796450000e-002) (32, -1.27999395132064820000e-001) (33, -1.25545531511306760000e-001) (34, -6.19214698672294620000e-002) (35, -1.08563445508480070000e-001) (36, 2.34965085983276370000e-002) (37, -4.06160578131675720000e-002) (38, 8.53179842233657840000e-002) (39, 7.78884664177894590000e-002) (40, 9.15321335196495060000e-002) (41, 9.59121063351631160000e-002) (42, 3.18720936775207520000e-002) (43, 2.55401190370321270000e-002) (44, -5.77799305319786070000e-002) (45, -5.43772988021373750000e-002) (46, 1.04562237858772280000e-001) (47, 9.31903943419456480000e-002) (48, -2.33507864177227020000e-002) (49, 9.15221811737865210000e-004) (50, -1.96920800954103470000e-002) (51, -7.88587108254432680000e-002) (52, -3.46986129879951480000e-002) (53, -8.76426398754119870000e-002) (54, -1.17522373795509340000e-001) (55, -3.01990564912557600000e-002) (56, -1.21321175247430800000e-002) (57, -2.61207018047571180000e-002) (58, -3.65054719150066380000e-002) (59, -1.77617594599723820000e-002) (60, 3.47103029489517210000e-002) (61, 4.22820635139942170000e-003) (62, -1.71546433120965960000e-002) (63, -1.24304965138435360000e-002) (64, 1.55364759266376500000e-002) (65, -7.26950075477361680000e-003) (66, 2.23780628293752670000e-002) (67, 2.76013221591711040000e-002) (68, -9.93539541959762570000e-002) (69, -4.02879118919372560000e-002) (70, -2.12011374533176420000e-002) (71, 1.20940443594008680000e-003) (72, 3.32196466624736790000e-002) (73, 2.47808024287223820000e-002) (74, -6.02975115180015560000e-002) (75, -4.32803072035312650000e-002) (76, -1.75062252674251790000e-003) (77, 1.90884154289960860000e-003) (78, 1.36649496853351590000e-002) (79, -4.14550770074129100000e-003) (80, 2.64263320714235310000e-002) (81, 2.52106077969074250000e-002) (82, 6.58718347549438480000e-002) (83, 4.67277429997920990000e-002) (84, 3.57525944709777830000e-002) (0, 1.81924253702163700000e-001) (1, 1.46209904924035070000e-002) (2, 1.77322477102279660000e-002) (3, -4.77546686306595800000e-003) (4, -1.33868560194969180000e-001) (5, -1.50177851319313050000e-001) (6, -1.17840379476547240000e-001) (7, -6.75054565072059630000e-002) (8, -1.51825532317161560000e-001) (9, -3.11103630810976030000e-002) (10, 8.84169936180114750000e-002) (11, 4.19064238667488100000e-002) (12, -3.47559824585914610000e-002) (13, 3.16948443651199340000e-002) (14, -1.47087261080741880000e-001) (15, -1.99094295501708980000e-001) (16, 9.81497615575790410000e-002) (17, 7.43097215890884400000e-002) (18, 5.26412576436996460000e-002) (19, 3.58742401003837590000e-002) (20, 1.34507089853286740000e-001) (21, 1.06862798333168030000e-001) (22, 1.46109208464622500000e-001) (23, 1.42769321799278260000e-001) (24, -2.35136166214942930000e-001) (25, -2.17103749513626100000e-001) (26, 1.84194892644882200000e-001) (27, 1.00404523313045500000e-001) (28, 8.98341760039329530000e-002) (29, 3.95354552892968060000e-004) (30, 3.44773083925247190000e-002) (31, -1.63618882652372120000e-003) (32, 1.20056390762329100000e-001) (33, 6.98307603597640990000e-002) (34, -1.21502596884965900000e-002) (35, -2.02563889324665070000e-002) (36, -4.13227155804634090000e-002) (37, -3.89499738812446590000e-002) (38, 2.51091778278350830000e-001) (39, 1.63815543055534360000e-001) (40, -9.12650376558303830000e-002) (41, -1.08268275856971740000e-001) (42, -1.10659468919038770000e-002) (43, 3.33447381854057310000e-002) (44, -7.05740973353385930000e-002) (45, -5.56829720735549930000e-002) (46, -7.35419467091560360000e-002) (47, -3.12858484685420990000e-002) (48, -6.82847648859024050000e-002) (49, -3.27065438032150270000e-002) (50, -5.50519861280918120000e-002) (51, 6.12640613690018650000e-003) (52, -1.27585247159004210000e-001) (53, -7.98252820968627930000e-002) (54, 2.98294592648744580000e-002) (55, 3.62156642950139940000e-005) (56, 1.74623671919107440000e-002) (57, 2.85066850483417510000e-002) (58, -5.40073364973068240000e-002) (59, -3.33503112196922300000e-002) (60, -5.48055022954940800000e-002) (61, -2.59987525641918180000e-002) (62, 2.58888639509677890000e-002) (63, 5.07817044854164120000e-002) (64, 3.46688926219940190000e-002) (65, 1.81619692593812940000e-002) (66, 5.51290772855281830000e-002) (67, 4.81525063514709470000e-002) (68, -2.90130861103534700000e-002) (69, -3.31405028700828550000e-002) (70, -3.72308306396007540000e-002) (71, -1.01785212755203250000e-002) (72, 2.43390351533889770000e-002) (73, 1.95586346089839940000e-002) (74, 3.03947664797306060000e-002) (75, 2.22976449877023700000e-002) (76, -4.94885891675949100000e-002) (77, -2.61099617928266530000e-002) (78, -2.77616698294878010000e-002) (79, -1.06623757164925340000e-003) (80, -3.09630203992128370000e-002) (81, -2.67850253731012340000e-002) (82, -1.14743353333324190000e-003) (83, 1.36538501828908920000e-002) (84, 4.82854084111750130000e-004) (0, -1.19623197242617610000e-002) (1, 9.85455662012100220000e-002) (2, -1.56306073069572450000e-001) (3, -1.99109446257352830000e-002) (4, 7.48606696724891660000e-002) (5, -4.26617935299873350000e-002) (6, -4.61378023028373720000e-002) (7, -5.15895150601863860000e-002) (8, -5.48977889120578770000e-002) (9, -5.13262040913105010000e-002) (10, 1.75739973783493040000e-001) (11, 6.80478662252426150000e-003) (12, -1.13909229636192320000e-001) (13, 4.72779572010040280000e-002) (14, 7.23066702485084530000e-002) (15, 4.40927557647228240000e-002) (16, 5.05819916725158690000e-002) (17, 1.06641776859760280000e-001) (18, -7.63611719012260440000e-002) (19, -1.07832901179790500000e-001) (20, 1.35856106877326970000e-001) (21, 1.24834805727005000000e-001) (22, -1.71364068984985350000e-001) (23, -1.23354896903038020000e-001) (24, -6.36914148926734920000e-002) (25, -1.61372542381286620000e-001) (26, 8.75793844461441040000e-002) (27, 1.05611138045787810000e-001) (28, -3.78152206540107730000e-002) (29, -2.91622243821620940000e-002) (30, 1.38550192117691040000e-001) (31, 1.44886076450347900000e-001) (32, -3.21981646120548250000e-002) (33, -7.97693431377410890000e-002) (34, -2.67922207713127140000e-002) (35, -4.62481267750263210000e-002) (36, 8.27734619379043580000e-002) (37, 5.73112890124320980000e-002) (38, -2.25959252566099170000e-002) (39, -4.25572507083415990000e-002) (40, -3.46493571996688840000e-002) (41, -7.03115910291671750000e-002) (42, 5.91911142691969870000e-003) (43, 9.64671280235052110000e-003) (44, -1.87013164162635800000e-001) (45, -1.59587547183036800000e-001) (46, 1.51845604181289670000e-001) (47, 1.62006393074989320000e-001) (48, -3.93146909773349760000e-002) (49, -1.12189669162034990000e-002) (50, 6.58813863992691040000e-002) (51, 7.77953118085861210000e-002) (52, 6.08028881251811980000e-002) (53, 7.01096430420875550000e-002) (54, 2.80951219610869880000e-003) (55, 2.22474313341081140000e-003) (56, 4.52601201832294460000e-002) (57, 3.43699157238006590000e-002) (58, 3.46068032085895540000e-002) (59, 3.77340689301490780000e-002) (60, -4.04788143932819370000e-002) (61, -4.87435236573219300000e-002) (62, 4.36867177486419680000e-002) (63, 5.36139160394668580000e-002) (64, -4.29647155106067660000e-002) (65, -2.56449300795793530000e-002) (66, 3.78505773842334750000e-002) (67, 2.74982601404190060000e-002) (68, -3.41156683862209320000e-002) (69, -2.60643735527992250000e-002) (70, -4.50673066079616550000e-002) (71, -4.22842167317867280000e-002) (72, -3.13462615013122560000e-002) (73, -9.51308012008666990000e-003) (74, 8.55757854878902440000e-003) (75, -2.49301884323358540000e-002) (76, -5.91805428266525270000e-002) (77, -5.24355620145797730000e-002) (78, -1.54826194047927860000e-002) (79, -3.35792489349842070000e-002) (80, -2.02094893902540210000e-002) (81, 7.18350894749164580000e-003) (82, 3.61305690603330730000e-004) (83, 3.42562906444072720000e-002) (84, 4.01851013302803040000e-002) (0, -7.61303976178169250000e-002) (1, 1.13207906484603880000e-001) (2, -9.00774821639060970000e-002) (3, -1.14947512745857240000e-001) (4, -3.26940491795539860000e-002) (5, 2.50550527125597000000e-002) (6, 3.86631079018116000000e-002) (7, 4.14737537503242490000e-002) (8, 2.27189019322395320000e-001) (9, 1.01034417748451230000e-001) (10, -1.57010093331336980000e-001) (11, -8.36964622139930730000e-002) (12, -2.29056984186172490000e-001) (13, -8.88768211007118230000e-002) (14, -1.48695528507232670000e-001) (15, -8.85581523180007930000e-002) (16, -5.24914339184761050000e-002) (17, 3.82034517824649810000e-002) (18, -1.31743699312210080000e-001) (19, 3.36446659639477730000e-003) (20, 4.42015007138252260000e-003) (21, 3.45810540020465850000e-002) (22, -2.09845267236232760000e-002) (23, -2.31329705566167830000e-002) (24, 1.58225327730178830000e-001) (25, 1.66813656687736510000e-001) (26, 1.52836695313453670000e-001) (27, 1.80452689528465270000e-001) (28, 1.21686205267906190000e-001) (29, 1.06048084795475010000e-001) (30, 1.38815283775329590000e-001) (31, 1.79833441972732540000e-001) (32, 1.11571080982685090000e-001) (33, 7.43167921900749210000e-002) (34, -7.24588856101036070000e-002) (35, -1.52221992611885070000e-002) (36, -8.74344035983085630000e-002) (37, -1.14247851073741910000e-001) (38, -6.70540779829025270000e-002) (39, -3.63975539803504940000e-002) (40, -2.95245405286550520000e-002) (41, -4.62050753412768240000e-004) (42, -1.20972849428653720000e-001) (43, -2.68120598047971730000e-002) (44, 