FANN_FLO_2.1
num_layers=3
learning_rate=0.100000
connection_rate=1.000000
network_type=0
learning_momentum=0.000000
training_algorithm=1
train_error_function=1
train_stop_function=0
cascade_output_change_fraction=0.010000
quickprop_decay=-0.000100
quickprop_mu=1.750000
rprop_increase_factor=1.200000
rprop_decrease_factor=0.500000
rprop_delta_min=0.000000
rprop_delta_max=50.000000
rprop_delta_zero=0.100000
cascade_output_stagnation_epochs=12
cascade_candidate_change_fraction=0.010000
cascade_candidate_stagnation_epochs=12
cascade_max_out_epochs=150
cascade_min_out_epochs=50
cascade_max_cand_epochs=150
cascade_min_cand_epochs=50
cascade_num_candidate_groups=2
bit_fail_limit=3.49999994039535520000e-001
cascade_candidate_limit=1.00000000000000000000e+003
cascade_weight_multiplier=4.00000005960464480000e-001
cascade_activation_functions_count=10
cascade_activation_functions=3 5 7 8 10 11 14 15 16 17 
cascade_activation_steepnesses_count=4
cascade_activation_steepnesses=2.50000000000000000000e-001 5.00000000000000000000e-001 7.50000000000000000000e-001 1.00000000000000000000e+000 
layer_sizes=85 81 2 
scale_included=0
neurons (num_inputs, activation_function, activation_steepness)=(0, 0, 0.00000000000000000000e+000) (0, 0, 0.00000000000000000000e+000) (0, 0, 0.00000000000000000000e+000) (0, 0, 0.00000000000000000000e+000) (0, 0, 0.00000000000000000000e+000) (0, 0, 0.00000000000000000000e+000) (0, 0, 0.00000000000000000000e+000) (0, 0, 0.00000000000000000000e+000) (0, 0, 0.00000000000000000000e+000) (0, 0, 0.00000000000000000000e+000) (0, 0, 0.00000000000000000000e+000) (0, 0, 0.00000000000000000000e+000) (0, 0, 0.00000000000000000000e+000) (0, 0, 0.00000000000000000000e+000) (0, 0, 0.00000000000000000000e+000) (0, 0, 0.00000000000000000000e+000) (0, 0, 0.00000000000000000000e+000) (0, 0, 0.00000000000000000000e+000) (0, 0, 0.00000000000000000000e+000) (0, 0, 0.00000000000000000000e+000) (0, 0, 0.00000000000000000000e+000) (0, 0, 0.00000000000000000000e+000) (0, 0, 0.00000000000000000000e+000) (0, 0, 0.00000000000000000000e+000) (0, 0, 0.00000000000000000000e+000) (0, 0, 0.00000000000000000000e+000) (0, 0, 0.00000000000000000000e+000) (0, 0, 0.00000000000000000000e+000) (0, 0, 0.00000000000000000000e+000) (0, 0, 0.00000000000000000000e+000) (0, 0, 0.00000000000000000000e+000) (0, 0, 0.00000000000000000000e+000) (0, 0, 0.00000000000000000000e+000) (0, 0, 0.00000000000000000000e+000) (0, 0, 0.00000000000000000000e+000) (0, 0, 0.00000000000000000000e+000) (0, 0, 0.00000000000000000000e+000) (0, 0, 0.00000000000000000000e+000) (0, 0, 0.00000000000000000000e+000) (0, 0, 0.00000000000000000000e+000) (0, 0, 0.00000000000000000000e+000) (0, 0, 0.00000000000000000000e+000) (0, 0, 0.00000000000000000000e+000) (0, 0, 0.00000000000000000000e+000) (0, 0, 0.00000000000000000000e+000) (0, 0, 0.00000000000000000000e+000) (0, 0, 0.00000000000000000000e+000) (0, 0, 0.00000000000000000000e+000) (0, 0, 0.00000000000000000000e+000) (0, 0, 0.00000000000000000000e+000) (0, 0, 0.00000000000000000000e+000) (0, 0, 0.00000000000000000000e+000) (0, 0, 0.00000000000000000000e+000) (0, 0, 0.00000000000000000000e+000) (0, 0, 0.00000000000000000000e+000) (0, 0, 0.00000000000000000000e+000) (0, 0, 0.00000000000000000000e+000) (0, 0, 0.00000000000000000000e+000) (0, 0, 0.00000000000000000000e+000) (0, 0, 0.00000000000000000000e+000) (0, 0, 0.00000000000000000000e+000) (0, 0, 0.00000000000000000000e+000) (0, 0, 0.00000000000000000000e+000) (0, 0, 0.00000000000000000000e+000) (0, 0, 0.00000000000000000000e+000) (0, 0, 0.00000000000000000000e+000) (0, 0, 0.00000000000000000000e+000) (0, 0, 0.00000000000000000000e+000) (0, 0, 0.00000000000000000000e+000) (0, 0, 0.00000000000000000000e+000) (0, 0, 0.00000000000000000000e+000) (0, 0, 0.00000000000000000000e+000) (0, 0, 0.00000000000000000000e+000) (0, 0, 0.00000000000000000000e+000) (0, 0, 0.00000000000000000000e+000) (0, 0, 0.00000000000000000000e+000) (0, 0, 0.00000000000000000000e+000) (0, 0, 0.00000000000000000000e+000) (0, 0, 0.00000000000000000000e+000) (0, 0, 0.00000000000000000000e+000) (0, 0, 0.00000000000000000000e+000) (0, 0, 0.00000000000000000000e+000) (0, 0, 0.00000000000000000000e+000) (0, 0, 0.00000000000000000000e+000) (0, 0, 0.00000000000000000000e+000) (85, 6, 1.00000000000000000000e+000) (85, 6, 1.00000000000000000000e+000) (85, 6, 1.00000000000000000000e+000) (85, 6, 1.00000000000000000000e+000) (85, 6, 1.00000000000000000000e+000) (85, 6, 1.00000000000000000000e+000) (85, 6, 1.00000000000000000000e+000) (85, 6, 1.00000000000000000000e+000) (85, 6, 1.00000000000000000000e+000) (85, 6, 1.00000000000000000000e+000) (85, 6, 1.00000000000000000000e+000) (85, 6, 1.00000000000000000000e+000) (85, 6, 1.00000000000000000000e+000) (85, 6, 1.00000000000000000000e+000) (85, 6, 1.00000000000000000000e+000) (85, 6, 1.00000000000000000000e+000) (85, 6, 1.00000000000000000000e+000) (85, 6, 1.00000000000000000000e+000) (85, 6, 1.00000000000000000000e+000) (85, 6, 1.00000000000000000000e+000) (85, 6, 1.00000000000000000000e+000) (85, 6, 1.00000000000000000000e+000) (85, 6, 1.00000000000000000000e+000) (85, 6, 1.00000000000000000000e+000) (85, 6, 1.00000000000000000000e+000) (85, 6, 1.00000000000000000000e+000) (85, 6, 1.00000000000000000000e+000) (85, 6, 1.00000000000000000000e+000) (85, 6, 1.00000000000000000000e+000) (85, 6, 1.00000000000000000000e+000) (85, 6, 1.00000000000000000000e+000) (85, 6, 1.00000000000000000000e+000) (85, 6, 1.00000000000000000000e+000) (85, 6, 1.00000000000000000000e+000) (85, 6, 1.00000000000000000000e+000) (85, 6, 1.00000000000000000000e+000) (85, 6, 1.00000000000000000000e+000) (85, 6, 1.00000000000000000000e+000) (85, 6, 1.00000000000000000000e+000) (85, 6, 1.00000000000000000000e+000) (85, 6, 1.00000000000000000000e+000) (85, 6, 1.00000000000000000000e+000) (85, 6, 1.00000000000000000000e+000) (85, 6, 1.00000000000000000000e+000) (85, 6, 1.00000000000000000000e+000) (85, 6, 1.00000000000000000000e+000) (85, 6, 1.00000000000000000000e+000) (85, 6, 1.00000000000000000000e+000) (85, 6, 1.00000000000000000000e+000) (85, 6, 1.00000000000000000000e+000) (85, 6, 1.00000000000000000000e+000) (85, 6, 1.00000000000000000000e+000) (85, 6, 1.00000000000000000000e+000) (85, 6, 1.00000000000000000000e+000) (85, 6, 1.00000000000000000000e+000) (85, 6, 1.00000000000000000000e+000) (85, 6, 1.00000000000000000000e+000) (85, 6, 1.00000000000000000000e+000) (85, 6, 1.00000000000000000000e+000) (85, 6, 1.00000000000000000000e+000) (85, 6, 1.00000000000000000000e+000) (85, 6, 1.00000000000000000000e+000) (85, 6, 1.00000000000000000000e+000) (85, 6, 1.00000000000000000000e+000) (85, 6, 1.00000000000000000000e+000) (85, 6, 1.00000000000000000000e+000) (85, 6, 1.00000000000000000000e+000) (85, 6, 1.00000000000000000000e+000) (85, 6, 1.00000000000000000000e+000) (85, 6, 1.00000000000000000000e+000) (85, 6, 1.00000000000000000000e+000) (85, 6, 1.00000000000000000000e+000) (85, 6, 1.00000000000000000000e+000) (85, 6, 1.00000000000000000000e+000) (85, 6, 1.00000000000000000000e+000) (85, 6, 1.00000000000000000000e+000) (85, 6, 1.00000000000000000000e+000) (85, 6, 1.00000000000000000000e+000) (85, 6, 1.00000000000000000000e+000) (85, 6, 1.00000000000000000000e+000) (0, 6, 1.00000000000000000000e+000) (81, 6, 1.00000000000000000000e+000) (0, 6, 1.00000000000000000000e+000) 
connections (connected_to_neuron, weight)=(0, -1.52017325162887570000e-001) (1, 3.24814021587371830000e-002) (2, 4.64593246579170230000e-003) (3, -2.81146056950092320000e-002) (4, -1.20497435331344600000e-001) (5, 8.76550450921058650000e-002) (6, -5.29008246958255770000e-002) (7, 5.97913973033428190000e-002) (8, -3.41210477054119110000e-002) (9, 6.74198195338249210000e-003) (10, 1.40263646841049190000e-001) (11, -3.57887824065983300000e-003) (12, -1.44013181328773500000e-001) (13, 1.25249370932579040000e-001) (14, -1.31017863750457760000e-001) (15, -5.97210563719272610000e-002) (16, -6.05195313692092900000e-002) (17, 2.65421010553836820000e-002) (18, -5.35214953124523160000e-002) (19, 1.78127028048038480000e-002) (20, -1.17708452045917510000e-001) (21, 7.01449438929557800000e-002) (22, -1.27624318003654480000e-001) (23, 9.65753104537725450000e-003) (24, -2.71959844976663590000e-002) (25, 8.12848135828971860000e-002) (26, -2.56185457110404970000e-002) (27, 1.02664574980735780000e-001) (28, -5.61830122023820880000e-003) (29, -2.00112792663276200000e-003) (30, -2.91241873055696490000e-002) (31, -5.89340105652809140000e-002) (32, 3.74210365116596220000e-002) (33, -5.26292435824871060000e-002) (34, -2.99172215163707730000e-002) (35, 6.80105313658714290000e-002) (36, 8.38294923305511470000e-002) (37, -5.51425991579890250000e-003) (38, -3.02032269537448880000e-002) (39, 4.47500906884670260000e-002) (40, 3.28265801072120670000e-002) (41, 5.58865442872047420000e-002) (42, 8.07774513959884640000e-002) (43, 8.63707065582275390000e-002) (44, 4.95768859982490540000e-002) (45, -3.05816214531660080000e-002) (46, -2.34989039599895480000e-002) (47, -6.61685094237327580000e-002) (48, 9.33577790856361390000e-002) (49, 1.96844544261693950000e-002) (50, -2.40824441425502300000e-003) (51, -2.81215775758028030000e-002) (52, 9.02547463774681090000e-002) (53, 3.58950309455394740000e-002) (54, 7.49625731259584430000e-003) (55, 1.38832584023475650000e-001) (56, 9.83849465847015380000e-002) (57, 8.53757560253143310000e-002) (58, 6.26770779490470890000e-002) (59, 2.41009634919464590000e-004) (60, 2.20482219010591510000e-002) (61, -1.12425617873668670000e-001) (62, 6.71170726418495180000e-002) (63, -1.15767829120159150000e-001) (64, 7.05863088369369510000e-002) (65, -4.63295308873057370000e-003) (66, 9.40213426947593690000e-002) (67, 2.49397549778223040000e-002) (68, -2.25383304059505460000e-002) (69, 9.54027660191059110000e-003) (70, -3.97529713809490200000e-002) (71, -2.80032698065042500000e-002) (72, -7.14158415794372560000e-002) (73, 1.18137672543525700000e-001) (74, -9.85803231596946720000e-002) (75, -3.07057201862335210000e-002) (76, 1.97855569422245030000e-002) (77, -7.73025825619697570000e-002) (78, 1.84115709271281960000e-003) (79, -2.44555026292800900000e-002) (80, -5.36251068115234380000e-002) (81, 2.52676475793123250000e-002) (82, -8.40813294053077700000e-003) (83, -7.88676664233207700000e-002) (84, -1.15407840348780160000e-003) (0, -1.04652509093284610000e-001) (1, 4.79732938110828400000e-002) (2, -1.50225967168807980000e-001) (3, -3.71527150273323060000e-002) (4, -1.02804258465766910000e-001) (5, 7.90723785758018490000e-002) (6, -2.04318854957818980000e-002) (7, 4.65749092400074010000e-002) (8, -1.42707318067550660000e-001) (9, -1.47507712244987490000e-002) (10, -1.88062235713005070000e-001) (11, -3.30034159123897550000e-002) (12, -1.55816569924354550000e-001) (13, 5.50740249454975130000e-002) (14, -5.08670099079608920000e-002) (15, 6.94863125681877140000e-002) (16, -1.27727380022406580000e-002) (17, 6.44569844007492070000e-002) (18, -1.19959942996501920000e-001) (19, -1.17310725152492520000e-001) (20, -4.00284826755523680000e-002) (21, -3.11999842524528500000e-002) (22, -1.24291338026523590000e-001) (23, -1.10633231699466710000e-001) (24, -1.48201346397399900000e-001) (25, 4.93510253727436070000e-002) (26, 1.85883902013301850000e-002) (27, 6.53911605477333070000e-002) (28, -1.91016346216201780000e-001) (29, -2.23176949657499790000e-003) (30, -8.90904013067483900000e-003) (31, -3.99202592670917510000e-002) (32, -7.90680646896362300000e-002) (33, -2.18929965049028400000e-002) (34, 3.68919856846332550000e-002) (35, -1.56803190708160400000e-001) (36, -9.56134423613548280000e-002) (37, 7.21429660916328430000e-002) (38, 1.89087595790624620000e-002) (39, 7.64568820595741270000e-002) (40, -1.06953360140323640000e-001) (41, -5.71734309196472170000e-002) (42, -1.64236519485712050000e-002) (43, 7.01066553592681880000e-002) (44, 5.47072775661945340000e-002) (45, 4.20850217342376710000e-002) (46, -1.83851942420005800000e-002) (47, 6.21865466237068180000e-002) (48, 1.81979741901159290000e-002) (49, 8.65584239363670350000e-003) (50, -3.84487807750701900000e-002) (51, 4.36650812625885010000e-002) (52, 7.08414539694786070000e-002) (53, -4.33899313211441040000e-002) (54, 5.14390952885150910000e-002) (55, -3.82086001336574550000e-002) (56, 7.43237463757395740000e-003) (57, 5.48489615321159360000e-002) (58, 5.40155582129955290000e-002) (59, 3.19880209863185880000e-002) (60, -2.01132856309413910000e-002) (61, -6.39511412009596820000e-003) (62, -9.89694744348526000000e-002) (63, -3.59794907271862030000e-002) (64, 1.01552426815032960000e-001) (65, 7.02934637665748600000e-002) (66, -1.35471085086464880000e-002) (67, 6.87050148844718930000e-002) (68, 3.11487130820751190000e-002) (69, -5.60430176556110380000e-002) (70, -5.31179364770650860000e-003) (71, -1.81092489510774610000e-002) (72, -5.72980679571628570000e-002) (73, -4.88372296094894410000e-002) (74, -4.27624806761741640000e-002) (75, 1.24149210751056670000e-001) (76, 4.97005209326744080000e-002) (77, -5.27989529073238370000e-002) (78, 8.17180126905441280000e-002) (79, 1.42537832260131840000e-001) (80, 7.45121017098426820000e-002) (81, -2.45583876967430110000e-002) (82, -9.07700210809707640000e-002) (83, 4.43675853312015530000e-002) (84, -2.08234786987304690000e-002) (0, 4.85949590802192690000e-002) (1, -1.22903473675251010000e-002) (2, -4.21306118369102480000e-002) (3, 1.31413176655769350000e-001) (4, -3.30671444535255430000e-002) (5, 6.13740459084510800000e-002) (6, -5.03400573506951330000e-003) (7, 2.62191221117973330000e-002) (8, -6.43748939037323000000e-002) (9, 7.45290368795394900000e-002) (10, 9.92382615804672240000e-002) (11, 7.12779387831687930000e-002) (12, -1.28246828913688660000e-001) (13, 9.96404513716697690000e-002) (14, -6.09704293310642240000e-004) (15, -6.11397139728069310000e-002) (16, 3.87202091515064240000e-002) (17, -8.16987711004912850000e-004) (18, -2.28567980229854580000e-002) (19, -5.72313107550144200000e-002) (20, 1.06303639709949490000e-001) (21, -2.52669423818588260000e-001) (22, -1.27411618828773500000e-001) (23, 1.46163254976272580000e-002) (24, 1.78741104900836940000e-002) (25, 8.98832678794860840000e-002) (26, -1.24105989933013920000e-001) (27, -1.11334174871444700000e-001) (28, 3.44283953309059140000e-002) (29, 1.88005454838275910000e-002) (30, -1.14000201225280760000e-001) (31, 2.29266081005334850000e-002) (32, -1.70669648796319960000e-002) (33, -8.41730907559394840000e-002) (34, 1.06500044465065000000e-001) (35, 5.91998137533664700000e-002) (36, 1.58448740839958190000e-001) (37, -2.14922189712524410000e-001) (38, 1.39148429036140440000e-001) (39, -2.47487634420394900000e-001) (40, 1.65841072797775270000e-001) (41, -1.72524943947792050000e-001) (42, -4.58003506064414980000e-002) (43, -4.89977449178695680000e-002) (44, 2.11010783910751340000e-001) (45, -1.41120165586471560000e-001) (46, 2.05124039202928540000e-002) (47, 1.51214465498924260000e-001) (48, 2.20748241990804670000e-002) (49, 4.46557164192199710000e-001) (50, -2.77757018804550170000e-001) (51, 4.04679238796234130000e-001) (52, -1.39185875654220580000e-001) (53, 5.72466969490051270000e-001) (54, -2.17658922076225280000e-001) (55, 4.12336736917495730000e-001) (56, -7.05885365605354310000e-002) (57, -4.20027459040284160000e-003) (58, 7.05117136240005490000e-002) (59, 1.75271406769752500000e-001) (60, -4.51196767389774320000e-002) (61, 1.89872920513153080000e-001) (62, 3.33866775035858150000e-001) (63, -2.66231507062911990000e-001) (64, 4.64744642376899720000e-002) (65, -2.54445016384124760000e-001) (66, 1.68074518442153930000e-001) (67, -6.92417174577713010000e-002) (68, 1.50074083358049390000e-002) (69, 5.34957088530063630000e-003) (70, -5.70858865976333620000e-002) (71, 9.01892781257629390000e-002) (72, 1.37559875845909120000e-001) (73, -8.67422446608543400000e-002) (74, 1.64570376276969910000e-001) (75, -1.75467863678932190000e-001) (76, 2.63796418905258180000e-001) (77, -4.83631193637847900000e-001) (78, 8.74006152153015140000e-002) (79, -1.30114942789077760000e-001) (80, 1.29537045955657960000e-001) (81, -1.96797296404838560000e-001) (82, -1.61273963749408720000e-002) (83, 4.83005158603191380000e-002) (84, -3.37854236364364620000e-001) (0, -1.71999827027320860000e-001) (1, 1.50393694639205930000e-001) (2, -7.29323318228125570000e-003) (3, -6.83109089732170100000e-002) (4, -1.35130524635314940000e-001) (5, 1.35255128145217900000e-001) (6, -1.11742496490478520000e-001) (7, 8.54842066764831540000e-002) (8, -8.85137021541595460000e-002) (9, -1.58374737948179240000e-002) (10, -5.67327886819839480000e-002) (11, -4.97572012245655060000e-002) (12, -9.52051281929016110000e-002) (13, 1.37705922126770020000e-001) (14, -7.19393715262413020000e-002) (15, 1.07076890766620640000e-001) (16, -1.47670701146125790000e-001) (17, 3.22457775473594670000e-002) (18, -4.16065342724323270000e-002) (19, -9.88510996103286740000e-002) (20, -1.97749748826026920000e-001) (21, 1.53071016073226930000e-001) (22, -8.53110030293464660000e-002) (23, 9.67040881514549260000e-002) (24, -1.05473004281520840000e-001) (25, 1.59245550632476810000e-001) (26, -1.28922238945961000000e-001) (27, 4.99925278127193450000e-002) (28, -1.47477183490991590000e-002) (29, -9.79214385151863100000e-002) (30, -7.29303136467933650000e-002) (31, -1.65913730859756470000e-001) (32, -5.00449463725090030000e-002) (33, 1.13325221464037900000e-002) (34, -5.76552823185920720000e-002) (35, -6.32571205496788020000e-002) (36, -6.19241148233413700000e-002) (37, -2.15643495321273800000e-001) (38, -5.63555657863616940000e-002) (39, -1.04775317013263700000e-001) (40, -1.94701656699180600000e-001) (41, 6.24044649302959440000e-002) (42, 3.88152077794075010000e-002) (43, 6.07765913009643550000e-002) (44, -3.84307932108640670000e-003) (45, -4.15280237793922420000e-002) (46, 1.13595537841320040000e-001) (47, -2.21231207251548770000e-002) (48, 8.42314958572387700000e-002) (49, -1.73605173826217650000e-001) (50, -3.73371550813317300000e-003) (51, -8.10652151703834530000e-002) (52, 8.04223492741584780000e-002) (53, 1.10796891152858730000e-001) (54, -5.86943849921226500000e-002) (55, 3.31593081355094910000e-002) (56, 7.90227353572845460000e-002) (57, 7.81263969838619230000e-003) (58, 6.61839470267295840000e-002) (59, -9.63192060589790340000e-002) (60, 8.57633873820304870000e-002) (61, 2.74196639657020570000e-002) (62, 1.35399118065834050000e-001) (63, -2.20368921756744380000e-001) (64, 1.33040428161621090000e-001) (65, -1.74875631928443910000e-001) (66, 6.31016790866851810000e-002) (67, -1.01818293333053590000e-001) (68, -2.62844301760196690000e-002) (69, 1.57825738191604610000e-001) (70, -9.11057286430150270000e-004) (71, 9.58554446697235110000e-002) (72, -2.98030227422714230000e-002) (73, -8.51197317242622380000e-002) (74, 4.85731586813926700000e-002) (75, -1.59559905529022220000e-001) (76, 1.79695293307304380000e-001) (77, -1.06186285614967350000e-001) (78, -1.07148557901382450000e-001) (79, 4.96837310492992400000e-002) (80, 2.11840439587831500000e-002) (81, -1.19391463696956630000e-001) (82, 8.19687396287918090000e-002) (83, 8.99482332170009610000e-003) (84, 1.53830349445343020000e-001) (0, 8.38267654180526730000e-002) (1, -5.99027387797832490000e-002) (2, 1.77563633769750600000e-002) (3, -2.49312832951545720000e-001) (4, 5.00579327344894410000e-002) (5, -1.47212505340576170000e-001) (6, 2.43120923638343810000e-001) (7, -3.19548785686492920000e-001) (8, 5.66751174628734590000e-002) (9, -1.60111352801322940000e-001) (10, 1.12946191802620890000e-002) (11, -2.68298625946044920000e-001) (12, 1.08529701828956600000e-001) (13, -6.89899474382400510000e-002) (14, -1.41472881659865380000e-002) (15, -9.71686914563179020000e-002) (16, -5.40402019396424290000e-003) (17, -3.87625768780708310000e-002) (18, -6.14542663097381590000e-002) (19, -1.52013495564460750000e-001) (20, 2.03334107995033260000e-001) (21, 4.74112071096897130000e-002) (22, -2.85753924399614330000e-002) (23, -9.75424945354461670000e-002) (24, -5.39184268563985820000e-003) (25, -3.83738242089748380000e-002) (26, -3.44424210488796230000e-002) (27, -1.22641734778881070000e-001) (28, 9.92851406335830690000e-002) (29, -1.42413839697837830000e-001) (30, 7.64171108603477480000e-002) (31, 1.05989813804626460000e-001) (32, 9.12314727902412410000e-002) (33, 1.77472114562988280000e-001) (34, -1.09199300408363340000e-001) (35, 1.54115930199623110000e-001) (36, 4.55297566950321200000e-002) (37, 1.72585904598236080000e-001) (38, 6.90718218684196470000e-002) (39, 1.27562448382377620000e-001) (40, 5.64963929355144500000e-002) (41, -1.58468008041381840000e-001) (42, 1.80352374911308290000e-001) (43, -2.66620129346847530000e-001) (44, -3.59820872545242310000e-002) (45, 2.90352702140808110000e-001) (46, 2.81848385930061340000e-002) (47, 4.83902126550674440000e-001) (48, -8.87129902839660640000e-002) (49, 6.38997435569763180000e-001) (50, 4.47365734726190570000e-003) (51, 5.58852732181549070000e-001) (52, -2.45983060449361800000e-002) (53, 2.83976435661315920000e-001) (54, 2.31166496872901920000e-001) (55, -2.71444410085678100000e-001) (56, 9.59382057189941410000e-002) (57, 3.04492563009262080000e-001) (58, -1.74043253064155580000e-001) (59, 5.37511706352233890000e-001) (60, -5.42079396545886990000e-002) (61, 6.26445651054382320000e-001) (62, -2.25246712565422060000e-001) (63, 5.40321946144104000000e-001) (64, -1.13087087869644170000e-001) (65, 6.33234798908233640000e-001) (66, -1.49139747023582460000e-001) (67, 5.40885806083679200000e-001) (68, 7.26874321699142460000e-002) (69, 2.49932929873466490000e-001) (70, 1.53424143791198730000e-001) (71, 2.23691314458847050000e-001) (72, 2.52590864896774290000e-001) (73, 2.66589730978012080000e-001) (74, 1.27362936735153200000e-001) (75, 4.45953682065010070000e-002) (76, 1.31202027201652530000e-001) (77, -3.01771730184555050000e-001) (78, 1.65341019630432130000e-001) (79, 9.24964323639869690000e-002) (80, 2.57465153932571410000e-001) (81, 2.58941352367401120000e-001) (82, 1.21721848845481870000e-001) (83, 2.29728862643241880000e-001) (84, -5.33664107322692870000e-001) (0, -1.50428801774978640000e-001) (1, 1.06515958905220030000e-002) (2, -1.60411924123764040000e-001) (3, -1.01814620196819310000e-001) (4, -1.06168307363986970000e-001) (5, -1.34071305394172670000e-001) (6, 7.11241662502288820000e-002) (7, -2.20941796898841860000e-001) (8, -1.23327001929283140000e-001) (9, 1.07690775766968730000e-002) (10, -1.62601858377456670000e-001) (11, 3.98908518254756930000e-002) (12, -1.86627119779586790000e-001) (13, 7.11754262447357180000e-002) (14, -6.79310858249664310000e-002) (15, -2.03793689608573910000e-001) (16, -4.96310628950595860000e-002) (17, -2.90440350770950320000e-001) (18, 1.41448915004730220000e-001) (19, -3.44124227762222290000e-001) (20, -1.68195031583309170000e-002) (21, -2.60750383138656620000e-001) (22, 8.83563831448554990000e-002) (23, -2.19386473298072810000e-001) (24, -1.11238621175289150000e-001) (25, -2.35004171729087830000e-001) (26, -8.36224183440208440000e-002) (27, -6.56781792640686040000e-002) (28, -1.32031753659248350000e-001) (29, -1.01204710081219670000e-002) (30, -3.42956781387329100000e-002) (31, -3.83112765848636630000e-002) (32, 3.11027187854051590000e-002) (33, -1.09102196991443630000e-001) (34, -1.61613479256629940000e-001) (35, -7.90153816342353820000e-002) (36, -1.04119017720222470000e-001) (37, 3.95478047430515290000e-002) (38, -1.11702680587768550000e-001) (39, 8.00016708672046660000e-003) (40, -1.47620886564254760000e-001) (41, 8.00237059593200680000e-002) (42, 4.26153987646102910000e-002) (43, -3.23437422513961790000e-001) (44, -1.47421464323997500000e-001) (45, -8.81419852375984190000e-002) (46, 4.79518249630928040000e-002) (47, -1.74097940325737000000e-001) (48, -1.67665407061576840000e-001) (49, -3.35346847772598270000e-001) (50, -9.38877984881401060000e-002) (51, 1.00043632090091710000e-001) (52, -1.09643049538135530000e-001) (53, 1.01196207106113430000e-002) (54, 3.98575924336910250000e-002) (55, -8.50140973925590520000e-002) (56, -8.61957222223281860000e-002) (57, -3.59198749065399170000e-002) (58, -1.55299454927444460000e-001) (59, 5.95151036977767940000e-002) (60, -8.84247869253158570000e-002) (61, 7.27261304855346680000e-002) (62, -2.72169530391693120000e-001) (63, 1.79025337100028990000e-001) (64, -1.30807995796203610000e-001) (65, 4.51748557388782500000e-002) (66, -6.18062578141689300000e-002) (67, 1.49523541331291200000e-001) (68, -5.36839887499809270000e-002) (69, -4.12661805748939510000e-002) (70, -4.06930446624755860000e-002) (71, -1.59802094101905820000e-001) (72, 8.08171927928924560000e-003) (73, 1.87856659293174740000e-001) (74, 2.30375993996858600000e-002) (75, 7.25932791829109190000e-002) (76, -2.36064285039901730000e-001) (77, 1.25888481736183170000e-001) (78, 3.63369435071945190000e-002) (79, 6.61836117506027220000e-002) (80, -4.12054872140288350000e-003) (81, 2.18050986528396610000e-001) (82, -2.13569421321153640000e-002) (83, -8.75834971666336060000e-002) (84, 2.11732566356658940000e-001) (0, 1.47599130868911740000e-001) (1, -1.66801929473876950000e-001) (2, -1.61726832389831540000e-001) (3, 2.84611195325851440000e-001) (4, -1.74350202083587650000e-001) (5, 3.56707662343978880000e-001) (6, -1.04039713740348820000e-001) (7, 1.29307866096496580000e-001) (8, 5.25001734495162960000e-002) (9, -2.04237247817218300000e-003) (10, 4.63681071996688840000e-002) (11, -1.44836634397506710000e-001) (12, -9.85172465443611150000e-002) (13, 4.56492491066455840000e-002) (14, -1.43530676141381260000e-002) (15, -1.61958485841751100000e-001) (16, 8.61729681491851810000e-003) (17, 8.77498164772987370000e-002) (18, -4.08937662839889530000e-001) (19, 4.95695918798446660000e-001) (20, -1.09660722315311430000e-001) (21, 7.21721723675727840000e-002) (22, 4.72066644579172130000e-003) (23, -2.32069015502929690000e-001) (24, 5.52227646112442020000e-002) (25, -3.10107264667749400000e-002) (26, -1.84396490454673770000e-001) (27, 2.02270522713661190000e-001) (28, -1.90002880990505220000e-002) (29, -6.62314072251319890000e-002) (30, -1.81667823344469070000e-002) (31, -5.05897939205169680000e-001) (32, -4.99996125698089600000e-001) (33, 4.80551421642303470000e-001) (34, -1.76382635254412890000e-003) (35, -2.17444270849227910000e-001) (36, 3.10106053948402400000e-002) (37, 2.89987232536077500000e-002) (38, -1.62185251712799070000e-001) (39, 8.77061039209365840000e-002) (40, -1.04831449687480930000e-001) (41, 1.41955211758613590000e-001) (42, -3.26654136180877690000e-001) (43, 5.21604955196380620000e-001) (44, -5.78375682234764100000e-002) (45, 7.59332656860351560000e-001) (46, 1.19891613721847530000e-002) (47, -1.51251971721649170000e+000) (48, -1.65515586733818050000e-001) (49, 7.54839301109313960000e-001) (50, -2.16654032468795780000e-001) (51, 6.29453182220458980000e-001) (52, -7.42188543081283570000e-002) (53, 2.72976428270339970000e-001) (54, -1.51809379458427430000e-001) (55, -1.18658378720283510000e-001) (56, -7.15312436223030090000e-002) (57, 1.47919416427612300000e-001) (58, -2.32057467103004460000e-001) (59, -2.08746626973152160000e-001) (60, -3.54795396327972410000e-001) (61, 3.45694631338119510000e-001) (62, -1.28559648990631100000e-001) (63, -2.00499236583709720000e-001) (64, 5.50248213112354280000e-002) (65, 9.82704386115074160000e-002) (66, -8.63240584731101990000e-002) (67, 1.25421941280364990000e-001) (68, -1.65476828813552860000e-001) (69, 1.27038255333900450000e-001) (70, -7.86549970507621770000e-003) (71, -2.18054354190826420000e-001) (72, 3.14189456403255460000e-002) (73, 1.99273899197578430000e-002) (74, 1.60916503518819810000e-002) (75, 2.14341998100280760000e-001) (76, -2.14964747428894040000e-001) (77, 2.04886510968208310000e-001) (78, 3.16419228911399840000e-002) (79, -6.74576684832572940000e-002) (80, -3.63699570298194890000e-002) (81, 1.39273732900619510000e-001) (82, -6.95141404867172240000e-002) (83, 4.39321622252464290000e-002) (84, 4.55574929714202880000e-001) (0, -3.10563623905181880000e-001) (1, 8.50979983806610110000e-002) (2, -1.23121976852416990000e-001) (3, -4.89394292235374450000e-002) (4, -2.10592776536941530000e-001) (5, 2.46159940958023070000e-001) (6, 7.13643357157707210000e-002) (7, -3.38834285736083980000e-001) (8, -2.06494405865669250000e-001) (9, 2.36143708229064940000e-001) (10, -1.11329756677150730000e-001) (11, -3.98579053580760960000e-002) (12, -2.98669576644897460000e-001) (13, 5.80762922763824460000e-002) (14, -5.16216568648815160000e-002) (15, -1.02652065455913540000e-001) (16, -9.04837399721145630000e-002) (17, -4.48853313922882080000e-001) (18, -2.17482984066009520000e-001) (19, 1.97892457246780400000e-001) (20, -2.52067238092422490000e-001) (21, 4.39467042684555050000e-001) (22, -1.96263805031776430000e-001) (23, 1.70532181859016420000e-001) (24, -1.01018838584423070000e-001) (25, -4.27550256252288820000e-001) (26, -3.48512120544910430000e-002) (27, -9.52901765704154970000e-002) (28, -1.34716033935546880000e-001) (29, -8.40596184134483340000e-002) (30, 1.14941336214542390000e-001) (31, 4.79010283946990970000e-001) (32, -1.77438512444496150000e-001) (33, -4.27628964185714720000e-001) (34, 1.40177896246314050000e-002) (35, 3.43803673982620240000e-001) (36, -1.57213389873504640000e-001) (37, -3.81689965724945070000e-001) (38, 8.33215937018394470000e-002) (39, 4.89199876785278320000e-001) (40, -1.19381807744503020000e-001) (41, -1.21898740530014040000e-001) (42, -2.35767781734466550000e-001) (43, -1.03111922740936280000e-001) (44, -3.12786132097244260000e-001) (45, -6.28871768712997440000e-002) (46, -2.25169822573661800000e-001) (47, -2.45854869484901430000e-001) (48, 2.14417725801467900000e-001) (49, 2.96921700239181520000e-001) (50, -1.77983552217483520000e-001) (51, -1.88131466507911680000e-001) (52, -3.54089975357055660000e-001) (53, -5.12084998190402980000e-002) (54, -2.39291295409202580000e-001) (55, -1.33597999811172490000e-001) (56, -1.16149052977561950000e-001) (57, 3.58272075653076170000e-001) (58, 7.09498673677444460000e-002) (59, -2.93188869953155520000e-001) (60, -2.44462981820106510000e-001) (61, 6.50576651096343990000e-001) (62, 5.29007256031036380000e-001) (63, -6.63815200328826900000e-001) (64, -2.31503725051879880000e-001) (65, 6.69723868370056150000e-001) (66, 2.77828816324472430000e-002) (67, -3.11993122100830080000e-001) (68, -1.27159237861633300000e-001) (69, 3.62341523170471190000e-001) (70, -6.05778023600578310000e-002) (71, 1.73464030027389530000e-001) (72, -1.17505922913551330000e-001) (73, -1.85402557253837590000e-001) (74, 4.74541522562503810000e-002) (75, 6.88101500272750850000e-002) (76, 5.40518283843994140000e-001) (77, 7.77354598045349120000e-001) (78, 1.40937954187393190000e-001) (79, 8.12408328056335450000e-002) (80, -1.45051047205924990000e-001) (81, -1.75597131252288820000e-001) (82, -3.82453165948390960000e-002) (83, 1.58184051513671880000e-001) (84, 3.35760444402694700000e-001) (0, 5.17624691128730770000e-002) (1, -1.00783467292785640000e-001) (2, -3.18741463124752040000e-002) (3, -5.97067065536975860000e-002) (4, -8.09000711888074870000e-003) (5, -4.31276559829711910000e-002) (6, 9.24238711595535280000e-002) (7, -7.08702802658081050000e-002) (8, 9.14897173643112180000e-002) (9, -1.42099065706133840000e-002) (10, -7.82249867916107180000e-003) (11, 3.19165526889264580000e-003) (12, 3.16353107336908580000e-004) (13, -8.49153921008110050000e-002) (14, -6.12400844693183900000e-002) (15, -3.42595420079305770000e-004) (16, 1.48319378495216370000e-002) (17, -1.01391427218914030000e-001) (18, -4.78840107098221780000e-003) (19, -6.43417462706565860000e-002) (20, -8.06747823953628540000e-002) (21, 8.91050770878791810000e-002) (22, -3.37124499492347240000e-003) (23, -1.15697365254163740000e-002) (24, -1.32274208590388300000e-002) (25, 3.29741835594177250000e-003) (26, -2.36684475094079970000e-002) (27, -1.11461766064167020000e-002) (28, -6.40668123960495000000e-002) (29, 9.32699516415596010000e-002) (30, 1.31040886044502260000e-001) (31, -6.79670423269271850000e-002) (32, 5.40907867252826690000e-002) (33, 9.24780219793319700000e-002) (34, 6.57281279563903810000e-002) (35, -3.13061736524105070000e-002) (36, 5.10943681001663210000e-002) (37, -7.62290805578231810000e-002) (38, 1.75539270043373110000e-001) (39, 5.67359514534473420000e-002) (40, -3.46623547375202180000e-002) (41, -6.46386761218309400000e-003) (42, 1.00128695368766780000e-001) (43, 8.74384269118309020000e-002) (44, -1.26809909939765930000e-001) (45, 2.14183479547500610000e-001) (46, 4.22529205679893490000e-002) (47, -7.83487558364868160000e-002) (48, 7.00860321521759030000e-002) (49, -1.93842351436614990000e-001) (50, -5.14176115393638610000e-002) (51, -5.27319905813783410000e-004) (52, 7.13743790984153750000e-002) (53, 1.19988478720188140000e-001) (54, -6.59005120396614070000e-002) (55, -2.18990091234445570000e-002) (56, -9.31030511856079100000e-003) (57, 7.80118978582322600000e-004) (58, -7.71450921893119810000e-002) (59, -5.37098683416843410000e-002) (60, 1.11637510359287260000e-001) (61, -1.16674020886421200000e-001) (62, 7.57948681712150570000e-002) (63, -2.23001949489116670000e-002) (64, -2.48540425673127170000e-003) (65, -1.20105102658271790000e-001) (66, -1.00003644824028020000e-001) (67, -1.91590055823326110000e-001) (68, -3.91281880438327790000e-002) (69, -8.08700621128082280000e-002) (70, 2.53185648471117020000e-002) (71, 1.00097544491291050000e-002) (72, 2.44581829756498340000e-002) (73, 1.16960182785987850000e-001) (74, 1.36644169688224790000e-001) (75, -3.76452170312404630000e-002) (76, 3.98708693683147430000e-002) (77, 2.69279703497886660000e-002) (78, 2.88234390318393710000e-002) (79, -1.53613224625587460000e-001) (80, 1.02406166493892670000e-001) (81, -1.37123867869377140000e-001) (82, 1.30403432995080950000e-002) (83, -6.07493659481406210000e-003) (84, -7.03371986746788020000e-002) (0, 1.00172623991966250000e-001) (1, 1.38469934463500980000e-001) (2, 9.27438959479331970000e-002) (3, -2.16698199510574340000e-002) (4, 2.95608937740325930000e-002) (5, -3.67574058473110200000e-002) (6, -9.18612405657768250000e-002) (7, 6.62207826972007750000e-002) (8, 1.86189692467451100000e-002) (9, -6.00476190447807310000e-002) (10, -3.44942994415760040000e-002) (11, 8.35237056016922000000e-002) (12, -1.10040530562400820000e-001) (13, 1.09504856169223790000e-001) (14, 1.34860426187515260000e-001) (15, -2.45520606637001040000e-001) (16, 1.07495374977588650000e-001) (17, -1.88436247408390050000e-002) (18, 7.28160887956619260000e-002) (19, -2.41240859031677250000e-002) (20, -1.71347215771675110000e-001) (21, 2.02730149030685420000e-001) (22, 1.76285326480865480000e-001) (23, -2.26439103484153750000e-001) (24, 8.96483957767486570000e-002) (25, -1.55559912323951720000e-001) (26, 9.24470275640487670000e-003) (27, -3.28696556389331820000e-002) (28, -4.92671839892864230000e-002) (29, 1.93842068314552310000e-001) (30, 5.77154979109764100000e-002) (31, 4.28139492869377140000e-002) (32, 1.02785699069499970000e-001) (33, -1.70198038220405580000e-001) (34, 8.45043286681175230000e-002) (35, -3.74100297689437870000e-001) (36, -1.01952657103538510000e-001) (37, 2.05624133348464970000e-001) (38, 1.10630124807357790000e-001) (39, -4.78188544511795040000e-001) (40, -2.36994326114654540000e-002) (41, -7.96701386570930480000e-002) (42, -4.07768040895462040000e-002) (43, -1.68525621294975280000e-001) (44, 3.42257879674434660000e-002) (45, 5.24537153542041780000e-002) (46, -5.64126530662178990000e-003) (47, 2.32398778200149540000e-001) (48, 4.11048054695129390000e-001) (49, -4.05076086521148680000e-001) (50, 3.35369914770126340000e-001) (51, -4.60080772638320920000e-001) (52, 1.46028518676757810000e-001) (53, 2.43663728237152100000e-001) (54, 1.20157882571220400000e-001) (55, 8.45811143517494200000e-002) (56, 1.42406657338142400000e-001) (57, -2.96078979969024660000e-001) (58, 2.20749735832214360000e-001) (59, -5.51611065864562990000e-001) (60, 1.49748697876930240000e-001) (61, -2.17872664332389830000e-001) (62, -2.42803022265434270000e-001) (63, 6.83764576911926270000e-001) (64, -1.20954439043998720000e-001) (65, 2.66998380422592160000e-001) (66, -3.30948948860168460000e-001) (67, 3.12293171882629390000e-001) (68, -2.64344722032547000000e-001) (69, 6.34101688861846920000e-001) (70, 1.91597133874893190000e-001) (71, -2.86211103200912480000e-001) (72, 1.23957291245460510000e-001) (73, -6.92747905850410460000e-002) (74, 1.11714258790016170000e-001) (75, -8.69599357247352600000e-002) (76, -3.92678938806056980000e-003) (77, -1.71727582812309270000e-001) (78, 2.42720633745193480000e-001) (79, -2.68933951854705810000e-001) (80, -1.02275572717189790000e-001) (81, -1.32495939731597900000e-001) (82, -1.05495542287826540000e-001) (83, -1.23255066573619840000e-001) (84, 2.88905531167984010000e-001) (0, 4.77864816784858700000e-002) (1, -2.07371991127729420000e-002) (2, 6.49372413754463200000e-002) (3, 5.88922314345836640000e-002) (4, -9.39376577734947200000e-002) (5, -6.34931772947311400000e-002) (6, 7.51661658287048340000e-002) (7, -8.50576348602771760000e-003) (8, 1.46854976192116740000e-002) (9, 8.96597802639007570000e-002) (10, 3.89363467693328860000e-002) (11, -9.56796761602163310000e-003) (12, 9.12277176976203920000e-002) (13, -1.07344053685665130000e-001) (14, 8.02944786846637730000e-003) (15, -5.00292032957077030000e-002) (16, 6.64869844913482670000e-002) (17, 3.11790537089109420000e-002) (18, 1.27091765403747560000e-001) (19, 3.82301770150661470000e-002) (20, 9.98328477144241330000e-002) (21, 3.70007306337356570000e-002) (22, 1.21781572699546810000e-001) (23, -2.11618002504110340000e-002) (24, -5.90652041137218480000e-002) (25, -5.81788718700408940000e-002) (26, 7.83536955714225770000e-002) (27, -9.18752178549766540000e-002) (28, 1.11774764955043790000e-001) (29, -6.06732517480850220000e-002) (30, 4.90953326225280760000e-002) (31, -1.38143524527549740000e-001) (32, 3.21058928966522220000e-002) (33, -2.44179293513298030000e-002) (34, 5.55961653590202330000e-002) (35, 3.47159132361412050000e-002) (36, 4.88673262298107150000e-002) (37, -5.12066036462783810000e-002) (38, 1.22616365551948550000e-001) (39, 2.77651678770780560000e-002) (40, 1.63900420069694520000e-001) (41, -6.81510865688323970000e-002) (42, 3.21501679718494420000e-003) (43, 3.41822430491447450000e-002) (44, -4.84632886946201320000e-002) (45, -1.31194695830345150000e-001) (46, 4.45121750235557560000e-002) (47, 6.17188727483153340000e-003) (48, -9.09254252910614010000e-002) (49, 1.41622230876237150000e-003) (50, 1.99292283505201340000e-002) (51, 1.71339660882949830000e-001) (52, -7.88166522979736330000e-002) (53, -4.79755811393260960000e-002) (54, 3.79704572260379790000e-002) (55, 3.88608612120151520000e-002) (56, -8.83702039718627930000e-002) (57, 2.32127886265516280000e-002) (58, 1.99179090559482570000e-002) (59, -7.61126773431897160000e-003) (60, 3.03998123854398730000e-002) (61, 1.20644015260040760000e-003) (62, -3.77894565463066100000e-002) (63, 1.03620409965515140000e-001) (64, -1.02505475282669070000e-001) (65, 6.39859810471534730000e-002) (66, -6.51737824082374570000e-002) (67, 7.73649215698242190000e-002) (68, -8.34085419774055480000e-002) (69, 1.98483821004629140000e-002) (70, -8.40926244854927060000e-002) (71, 2.22315173596143720000e-002) (72, 6.05914928019046780000e-002) (73, -4.57633994519710540000e-002) (74, 8.23421552777290340000e-002) (75, -3.98948080837726590000e-002) (76, -7.60941207408905030000e-003) (77, 1.14224731922149660000e-001) (78, -5.55466152727603910000e-002) (79, 7.59811401367187500000e-002) (80, -2.01187264174222950000e-002) (81, -2.73042507469654080000e-002) (82, -2.39475145936012270000e-002) (83, -7.37464800477027890000e-002) (84, -1.04268260300159450000e-001) (0, 5.57211972773075100000e-002) (1, -3.40886302292346950000e-002) (2, 2.06482887268066410000e-001) (3, -6.32895827293396000000e-002) (4, 1.08945239335298540000e-002) (5, -3.34801435470581050000e-001) (6, -6.88796043395996090000e-002) (7, -2.94054038822650910000e-002) (8, 1.06010042130947110000e-001) (9, -1.05863630771636960000e-001) (10, 7.26671218872070310000e-002) (11, -8.43810364603996280000e-002) (12, 1.14008719101548190000e-002) (13, -2.99781680107116700000e-001) (14, 2.03084480017423630000e-002) (15, -2.96004563570022580000e-001) (16, 7.75283873081207280000e-002) (17, -1.26095846295356750000e-001) (18, 1.29706069827079770000e-001) (19, -1.85643166303634640000e-001) (20, 3.31450253725051880000e-003) (21, -5.50067722797393800000e-002) (22, -3.25343608856201170000e-002) (23, -1.63942694664001460000e-001) (24, 7.13529214262962340000e-002) (25, -1.83561012148857120000e-001) (26, 2.91323754936456680000e-002) (27, -1.27377673983573910000e-001) (28, -3.72543856501579280000e-002) (29, -1.28063142299652100000e-001) (30, -1.33035510778427120000e-001) (31, -8.93822982907295230000e-002) (32, 4.51928637921810150000e-002) (33, -9.74578931927680970000e-002) (34, -9.34254974126815800000e-002) (35, -4.56967353820800780000e-002) (36, 1.38025432825088500000e-001) (37, -2.73168146610260010000e-001) (38, 2.00593456625938420000e-001) (39, -5.49854815006256100000e-001) (40, -1.12581010907888410000e-002) (41, -2.83228695392608640000e-001) (42, 3.76107171177864070000e-003) (43, 7.87871703505516050000e-002) (44, -1.04459933936595920000e-001) (45, -2.40462437272071840000e-001) (46, -1.58044368028640750000e-001) (47, -2.14937776327133180000e-001) (48, -1.13522492349147800000e-001) (49, -1.56408116221427920000e-001) (50, 2.52654626965522770000e-002) (51, -2.80832439661026000000e-001) (52, 1.90076276659965520000e-001) (53, -3.32524120807647710000e-001) (54, 9.24741476774215700000e-002) (55, -1.64382636547088620000e-001) (56, -5.75645528733730320000e-002) (57, -9.60935428738594060000e-002) (58, 4.40517142415046690000e-002) (59, -2.22720220685005190000e-001) (60, -1.86413004994392400000e-002) (61, -3.73772457242012020000e-002) (62, 9.90845635533332820000e-003) (63, -2.79113277792930600000e-002) (64, -2.73701213300228120000e-002) (65, -1.84555556625127790000e-002) (66, -1.13678827881813050000e-001) (67, -1.35380566120147710000e-001) (68, 1.82948708534240720000e-002) (69, -1.50304138660430910000e-001) (70, -1.47172927856445310000e-001) (71, 6.55885398387908940000e-001) (72, -4.43534284830093380000e-001) (73, 5.99448144435882570000e-001) (74, 6.03393435478210450000e-001) (75, -8.81184458732604980000e-001) (76, -1.00971853733062740000e+000) (77, 1.08406281471252440000e+000) (78, -5.45806825160980220000e-001) (79, 1.17662334442138670000e+000) (80, -5.96359260380268100000e-002) (81, -6.36915266513824460000e-002) (82, 1.09684109687805180000e-001) (83, -2.81477451324462890000e-001) (84, -6.19958102703094480000e-001) (0, 2.78335530310869220000e-002) (1, -6.61119520664215090000e-002) (2, 3.05246673524379730000e-002) (3, 4.88514751195907590000e-002) (4, 6.48389905691146850000e-002) (5, 1.08793666586279870000e-002) (6, 4.66773584485054020000e-002) (7, -2.74457484483718870000e-002) (8, 4.51663620769977570000e-002) (9, -1.02143816649913790000e-001) (10, 8.57697278261184690000e-002) (11, 4.57904376089572910000e-002) (12, 1.57847758382558820000e-002) (13, -2.54688579589128490000e-002) (14, -2.63284123502671720000e-003) (15, -5.66093735396862030000e-002) (16, -5.25990547612309460000e-003) (17, -7.90985375642776490000e-002) (18, 1.80997475981712340000e-001) (19, -4.06594239175319670000e-002) (20, 4.50510084629058840000e-002) (21, -1.93426385521888730000e-002) (22, 1.13295696675777440000e-001) (23, -3.80860641598701480000e-002) (24, 9.86380502581596370000e-002) (25, -1.16028062999248500000e-001) (26, 1.96778634563088420000e-003) (27, 8.79970379173755650000e-003) (28, -3.44035727903246880000e-003) (29, -8.60623568296432500000e-002) (30, -3.29485274851322170000e-002) (31, -3.38842496275901790000e-002) (32, 4.70091290771961210000e-002) (33, -5.40436571463942530000e-003) (34, 3.97755056619644170000e-002) (35, 1.28010800108313560000e-002) (36, -4.58100723335519430000e-004) (37, -4.20088022947311400000e-002) (38, 1.78177375346422200000e-002) (39, -4.32185316458344460000e-003) (40, -7.06354826688766480000e-002) (41, -4.11986522376537320000e-002) (42, 7.74071440100669860000e-002) (43, -9.18085202574729920000e-002) (44, 1.41476001590490340000e-002) (45, 3.38342860341072080000e-002) (46, 3.11482194811105730000e-002) (47, 8.77597406506538390000e-002) (48, -4.10100109875202180000e-002) (49, -2.60083246976137160000e-002) (50, -7.56169110536575320000e-002) (51, -2.38349642604589460000e-002) (52, 6.77481368184089660000e-002) (53, 9.59268361330032350000e-002) (54, 1.59071698784828190000e-001) (55, -7.45988786220550540000e-002) (56, 1.04429963976144790000e-002) (57, 6.21156841516494750000e-002) (58, -1.52870931196957830000e-003) (59, 4.05314814997836950000e-004) (60, 1.00493639707565310000e-001) (61, 7.86546468734741210000e-002) (62, -2.57803723216056820000e-002) (63, 1.09686292707920070000e-001) (64, 5.01014851033687590000e-002) (65, 5.39809167385101320000e-002) (66, -1.53369968757033350000e-002) (67, 5.34630045294761660000e-002) (68, 8.82200971245765690000e-002) (69, -2.99409753642976280000e-003) (70, 3.58804874122142790000e-002) (71, 3.53994444012641910000e-002) (72, -6.90640658140182500000e-002) (73, -3.26617695391178130000e-002) (74, 8.47694755066186190000e-004) (75, -5.04744872450828550000e-002) (76, -9.58514139056205750000e-002) (77, -1.23190246522426610000e-002) (78, -1.29513312131166460000e-002) (79, -2.79619474895298480000e-003) (80, -3.17884758114814760000e-002) (81, -7.31732472777366640000e-002) (82, 9.69690736383199690000e-003) (83, -8.03311541676521300000e-003) (84, -6.61074593663215640000e-002) (0, -3.26864197850227360000e-002) (1, 2.50669717788696290000e-001) (2, -9.24103036522865300000e-002) (3, 2.49640151858329770000e-001) (4, -2.40924265235662460000e-002) (5, 5.79790398478508000000e-002) (6, 1.71983577311038970000e-002) (7, 8.13861042261123660000e-002) (8, -1.32599065545946360000e-003) (9, 3.29935967922210690000e-001) (10, -1.34682372212409970000e-001) (11, 3.07596236467361450000e-001) (12, 6.48579373955726620000e-002) (13, 1.14930622279644010000e-001) (14, -9.17807221412658690000e-003) (15, -2.05541431903839110000e-001) (16, 1.44066577777266500000e-002) (17, -8.92940983176231380000e-002) (18, -3.59471961855888370000e-002) (19, -1.47272855043411250000e-001) (20, 5.44769912958145140000e-002) (21, -1.03323988616466520000e-001) (22, 6.58888602629303930000e-003) (23, -1.30174398422241210000e-001) (24, -5.17321974039077760000e-002) (25, -2.59481910616159440000e-002) (26, 5.33761084079742430000e-002) (27, -2.25559413433074950000e-001) (28, 3.38197126984596250000e-002) (29, 9.96051430702209470000e-002) (30, 7.13964551687240600000e-002) (31, 5.81303611397743230000e-004) (32, 1.20120912790298460000e-001) (33, -1.94377556443214420000e-001) (34, 2.12851278483867650000e-002) (35, -3.44873845577239990000e-001) (36, 1.09036169946193700000e-001) (37, -6.69722676277160640000e-001) (38, 8.37573781609535220000e-002) (39, -6.74190580844879150000e-001) (40, 2.43712127208709720000e-001) (41, -5.92251837253570560000e-001) (42, -5.08239381015300750000e-002) (43, -1.32004976272583010000e-001) (44, 6.39130175113677980000e-002) (45, 2.99697015434503560000e-002) (46, -5.19978925585746770000e-002) (47, 4.53847423195838930000e-002) (48, 8.53389352560043330000e-002) (49, 2.77810008265078070000e-003) (50, 6.41937375068664550000e-001) (51, -2.95492112636566160000e-001) (52, 5.88580667972564700000e-001) (53, -2.32796519994735720000e-001) (54, 2.15581074357032780000e-001) (55, -3.76070700585842130000e-002) (56, 1.10367715358734130000e-001) (57, -1.27700924873352050000e-001) (58, 3.29914018511772160000e-002) (59, -1.02209232747554780000e-001) (60, -2.31797248125076290000e-001) (61, 3.00711244344711300000e-001) (62, -1.49632886052131650000e-001) (63, 1.11231076717376710000e+000) (64, -4.83253598213195800000e-001) (65, 9.55336332321166990000e-001) (66, -3.36695551872253420000e-001) (67, 7.24082708358764650000e-001) (68, -2.00937688350677490000e-001) (69, 4.82943832874298100000e-001) (70, 9.46194902062416080000e-002) (71, 4.16408814489841460000e-002) (72, 2.16451473534107210000e-002) (73, 1.82134270668029790000e-001) (74, 9.41933616995811460000e-002) (75, -1.24814204871654510000e-001) (76, -3.92021417617797850000e-001) (77, -7.09515690803527830000e-001) (78, -1.14505976438522340000e-001) (79, -2.44775012135505680000e-001) (80, -1.21430628001689910000e-001) (81, -2.37921834923326970000e-004) (82, 6.60104909911751750000e-003) (83, 5.40507817640900610000e-003) (84, -7.96381607651710510000e-002) (0, -1.78558174520730970000e-002) (1, 6.58015832304954530000e-002) (2, 5.10900542140007020000e-002) (3, 4.05884906649589540000e-002) (4, -2.63407640159130100000e-002) (5, -3.60486134886741640000e-002) (6, -2.80388724058866500000e-002) (7, 1.14648519083857540000e-002) (8, 7.11438879370689390000e-002) (9, -1.34377386420965190000e-002) (10, -4.55902814865112300000e-002) (11, 4.17704833671450610000e-003) (12, -4.83813323080539700000e-002) (13, 2.56522912532091140000e-002) (14, 3.50770982913672920000e-003) (15, -1.00704744458198550000e-001) (16, -3.47942002117633820000e-002) (17, -4.48947697877883910000e-002) (18, -5.56715950369834900000e-002) (19, -9.47713404893875120000e-002) (20, -1.41215786337852480000e-001) (21, -2.08436138927936550000e-003) (22, 4.44845408201217650000e-002) (23, -5.09313419461250310000e-002) (24, -1.22848130762577060000e-001) (25, 6.75825774669647220000e-003) (26, 4.72248122096061710000e-002) (27, -7.64988213777542110000e-002) (28, -7.91100338101387020000e-002) (29, 6.80059567093849180000e-003) (30, 1.01173920556902890000e-002) (31, -3.55941578745841980000e-002) (32, 2.35522463917732240000e-002) (33, 6.31377696990966800000e-002) (34, 1.98996216058731080000e-002) (35, -8.10724571347236630000e-002) (36, 2.51752417534589770000e-002) (37, -5.71776293218135830000e-002) (38, -4.16957177221775050000e-002) (39, 4.37336005270481110000e-002) (40, 1.58773157745599750000e-002) (41, -3.06903533637523650000e-002) (42, 9.35246646404266360000e-002) (43, -4.00441363453865050000e-002) (44, -3.33418697118759160000e-002) (45, 1.44115760922431950000e-002) (46, -8.41425433754920960000e-002) (47, -6.55687302350997920000e-002) (48, -8.76827612519264220000e-002) (49, -2.55287792533636090000e-002) (50, -5.56568801403045650000e-002) (51, -1.23014599084854130000e-001) (52, 5.47211035154759880000e-004) (53, -1.32798841223120690000e-002) (54, 7.70317018032073970000e-003) (55, -5.14999367296695710000e-002) (56, -1.02123208343982700000e-001) (57, -7.05474568530917170000e-003) (58, -6.27147480845451350000e-002) (59, -1.29987196996808050000e-002) (60, -2.90882196277379990000e-002) (61, 4.47018928825855260000e-002) (62, 1.93379729986190800000e-001) (63, -2.23722204566001890000e-001) (64, -6.39012083411216740000e-002) (65, -1.05497784912586210000e-001) (66, -1.03113546967506410000e-001) (67, -7.93103501200675960000e-002) (68, -1.22814439237117770000e-001) (69, -1.35837746784091000000e-002) (70, -2.78684236109256740000e-002) (71, -8.59583392739295960000e-002) (72, 1.44419297575950620000e-001) (73, -1.33110746741294860000e-001) (74, 6.00481443107128140000e-002) (75, 9.39706936478614810000e-002) (76, 1.22997529804706570000e-001) (77, -4.40254919230937960000e-002) (78, 1.62998959422111510000e-001) (79, -1.55152961611747740000e-001) (80, 3.29360254108905790000e-002) (81, -1.07994144782423970000e-002) (82, -2.55562271922826770000e-002) (83, 8.95018801093101500000e-002) (84, 1.22902154922485350000e-001) (0, -6.62724003195762630000e-002) (1, 1.88607890158891680000e-002) (2, 1.02866545319557190000e-001) (3, 4.21627387404441830000e-002) (4, -3.25101573253050450000e-004) (5, 4.54827994108200070000e-002) (6, 8.40826183557510380000e-002) (7, 1.24487213790416720000e-001) (8, 5.86455166339874270000e-002) (9, -1.08801618218421940000e-001) (10, -9.20404121279716490000e-003) (11, 5.06574586033821110000e-002) (12, 3.99145111441612240000e-002) (13, 2.78645046055316930000e-002) (14, 8.15406255424022670000e-003) (15, 1.12225390970706940000e-001) (16, -3.19115519523620610000e-002) (17, 3.01462896168231960000e-002) (18, -3.51224020123481750000e-002) (19, -5.43826855719089510000e-002) (20, -9.54824239015579220000e-002) (21, 2.09207646548748020000e-002) (22, 5.27177788317203520000e-002) (23, -2.54044141620397570000e-002) (24, -2.14871317148208620000e-002) (25, 9.34409536421298980000e-003) (26, -4.71129268407821660000e-002) (27, 5.74984028935432430000e-002) (28, -1.45958185195922850000e-001) (29, 8.07630717754364010000e-002) (30, -6.18414804339408870000e-002) (31, -9.75884720683097840000e-002) (32, 2.31217518448829650000e-002) (33, -4.19919826090335850000e-002) (34, 1.47145800292491910000e-002) (35, -1.43311634659767150000e-001) (36, 5.91089427471160890000e-002) (37, -1.49150229990482330000e-002) (38, -3.94206717610359190000e-002) (39, -1.11255697906017300000e-001) (40, -7.31014162302017210000e-002) (41, -5.46526387333869930000e-002) (42, -1.98022462427616120000e-002) (43, 5.54052405059337620000e-002) (44, -5.93717955052852630000e-002) (45, 1.41118206083774570000e-002) (46, -6.88385367393493650000e-002) (47, -1.03532290086150170000e-002) (48, 7.40279182791709900000e-002) (49, -7.17631280422210690000e-002) (50, 4.66461945325136180000e-003) (51, -7.64797851443290710000e-002) (52, -4.12780009210109710000e-002) (53, 1.63404926657676700000e-001) (54, 1.77812075708061460000e-003) (55, -4.89330738782882690000e-002) (56, -6.78297830745577810000e-003) (57, 1.00616388022899630000e-001) (58, -3.79875185899436470000e-003) (59, -7.44459703564643860000e-002) (60, 2.92256250977516170000e-002) (61, -1.82337947189807890000e-002) (62, 6.90443888306617740000e-002) (63, -3.58797758817672730000e-002) (64, 2.27174535393714900000e-002) (65, -8.23288708925247190000e-002) (66, 1.14683415740728380000e-002) (67, 2.31209024786949160000e-003) (68, -1.05486765503883360000e-001) (69, 6.56911060214042660000e-002) (70, -1.57719310373067860000e-002) (71, -8.42762961983680730000e-002) (72, -3.60589893534779550000e-003) (73, -6.43115267157554630000e-002) (74, 8.73141288757324220000e-002) (75, 3.55161428451538090000e-002) (76, 1.65580704808235170000e-001) (77, -1.03023219853639600000e-002) (78, 3.03674060851335530000e-002) (79, 8.14196392893791200000e-002) (80, -1.20389582589268680000e-002) (81, -8.61967280507087710000e-002) (82, 1.04988083243370060000e-001) (83, -8.71380791068077090000e-002) (84, 9.91735830903053280000e-002) (0, 1.15881450474262240000e-002) (1, 2.19235703349113460000e-001) (2, -5.81968529149889950000e-003) (3, 1.83017089962959290000e-001) (4, -3.60049493610858920000e-002) (5, -2.69582793116569520000e-002) (6, -2.00616747140884400000e-001) (7, 8.81680399179458620000e-002) (8, 5.70528320968151090000e-002) (9, 1.76461517810821530000e-001) (10, 5.32453134655952450000e-002) (11, 1.11998938024044040000e-001) (12, 1.51622816920280460000e-001) (13, -1.77948679774999620000e-002) (14, -2.38333772867918010000e-002) (15, -4.89852055907249450000e-002) (16, -9.22793336212635040000e-003) (17, -3.72445285320281980000e-002) (18, -8.44954252243041990000e-002) (19, 9.55100879073143010000e-002) (20, -1.72595873475074770000e-001) (21, -4.52850833535194400000e-002) (22, -1.46064504981040950000e-001) (23, 9.52609181404113770000e-002) (24, -1.50973079726099970000e-002) (25, 1.22536838054656980000e-001) (26, -3.08738071471452710000e-002) (27, -3.64676043391227720000e-002) (28, -4.39021885395050050000e-002) (29, 2.48000279068946840000e-001) (30, -1.74132138490676880000e-001) (31, -7.12575763463974000000e-003) (32, -9.76072996854782100000e-002) (33, 1.68614313006401060000e-001) (34, 2.93360780924558640000e-002) (35, -6.57650455832481380000e-002) (36, -1.50024726986885070000e-001) (37, 1.90779402852058410000e-001) (38, -2.67426282167434690000e-001) (39, -1.58989235758781430000e-001) (40, 1.48004069924354550000e-001) (41, -2.52080857753753660000e-001) (42, 1.06866724789142610000e-001) (43, -3.10828864574432370000e-001) (44, -1.62518888711929320000e-001) (45, 2.03248038887977600000e-001) (46, -6.37235939502716060000e-002) (47, -4.47334609925746920000e-002) (48, -2.22060143947601320000e-001) (49, 5.49114942550659180000e-001) (50, -1.26238286495208740000e-001) (51, -4.85721565783023830000e-002) (52, 4.45560097694396970000e-001) (53, -2.30743438005447390000e-001) (54, 3.34246605634689330000e-002) (55, 6.41462430357933040000e-002) (56, 1.13005153834819790000e-001) (57, -1.37376397848129270000e-001) (58, -7.49137718230485920000e-004) (59, 5.29639720916748050000e-002) (60, -7.71674066781997680000e-002) (61, 8.45070779323577880000e-002) (62, -1.93246558308601380000e-001) (63, -1.28112118691205980000e-002) (64, -7.19131156802177430000e-002) (65, 1.33096992969512940000e-001) (66, 1.87448471784591670000e-001) (67, -1.23379632830619810000e-001) (68, -1.69709429144859310000e-001) (69, 1.30061313509941100000e-001) (70, 3.14763337373733520000e-002) (71, 2.03874796628952030000e-001) (72, 6.63229972124099730000e-002) (73, 2.96289823018014430000e-003) (74, 4.75561410188674930000e-001) (75, -1.71169281005859380000e-001) (76, 7.98706710338592530000e-001) (77, -9.16436254978179930000e-001) (78, 4.39273118972778320000e-001) (79, -9.77246046066284180000e-001) (80, 5.55596530437469480000e-001) (81, -5.84618508815765380000e-001) (82, 4.41369056701660160000e-001) (83, -6.21931970119476320000e-001) (84, 3.49442392587661740000e-001) (0, -1.10731959342956540000e-001) (1, 1.88524231314659120000e-001) (2, -7.23202079534530640000e-002) (3, 6.51743337512016300000e-002) (4, -3.78753594122827050000e-003) (5, 8.37347470223903660000e-003) (6, 5.93664161860942840000e-002) (7, -6.49221912026405330000e-002) (8, -9.34182778000831600000e-002) (9, 3.07040512561798100000e-001) (10, -6.94257318973541260000e-002) (11, 8.22072625160217290000e-002) (12, -1.50786146521568300000e-001) (13, 1.21616125106811520000e-001) (14, -1.19979873299598690000e-001) (15, -1.29177615046501160000e-001) (16, -4.01442795991897580000e-002) (17, 1.66955925524234770000e-002) (18, -1.88159551471471790000e-002) (19, -8.07984843850135800000e-002) (20, -1.75228744745254520000e-001) (21, 1.93056669086217880000e-002) (22, -2.30927973985672000000e-001) (23, 5.62073774635791780000e-002) (24, -1.37379705905914310000e-001) (25, 1.55982628464698790000e-001) (26, -1.54731899499893190000e-001) (27, 2.61916890740394590000e-002) (28, -4.57876399159431460000e-002) (29, -9.59131345152854920000e-002) (30, 2.25622598081827160000e-002) (31, 7.12280198931694030000e-002) (32, 2.80553903430700300000e-002) (33, 6.40968084335327150000e-002) (34, -6.73575624823570250000e-002) (35, 1.07666432857513430000e-001) (36, -1.35336935520172120000e-001) (37, -2.00997292995452880000e-003) (38, 1.02938212454319000000e-001) (39, -8.01789574325084690000e-003) (40, 1.22659979388117790000e-002) (41, 8.38668737560510640000e-003) (42, -9.72926840186119080000e-002) (43, 7.91159793734550480000e-002) (44, 1.19575947523117070000e-001) (45, 6.01780451834201810000e-002) (46, 2.25618943572044370000e-001) (47, -2.71495938301086430000e-001) (48, 1.69746950268745420000e-001) (49, -2.28613540530204770000e-001) (50, -1.55584111809730530000e-001) (51, -1.87664646655321120000e-002) (52, -1.25637888908386230000e-001) (53, 8.16350951790809630000e-002) (54, -1.28314599394798280000e-001) (55, 1.13844022154808040000e-001) (56, 2.26221028715372090000e-002) (57, -2.80760005116462710000e-002) (58, 1.07893377542495730000e-001) (59, 4.57206480205059050000e-002) (60, 1.25343441963195800000e-001) (61, -2.66433414071798320000e-002) (62, 1.83973416686058040000e-001) (63, -4.91047143936157230000e-001) (64, 3.98428201675415040000e-001) (65, -4.04570609331130980000e-001) (66, -3.37134450674057010000e-002) (67, 2.65326142311096190000e-001) (68, 2.44428515434265140000e-002) (69, -1.52035309001803400000e-002) (70, 1.19890533387660980000e-001) (71, -2.01788663864135740000e-001) (72, 5.32941371202468870000e-002) (73, 2.16523408889770510000e-001) (74, 1.86061352491378780000e-001) (75, -2.41539224982261660000e-001) (76, 1.81691080331802370000e-001) (77, -2.07505598664283750000e-001) (78, 1.50586634874343870000e-001) (79, -1.27673819661140440000e-001) (80, 1.25958934426307680000e-001) (81, 7.40378256887197490000e-003) (82, -8.65894481539726260000e-002) (83, -3.63478399813175200000e-002) (84, -1.91605892032384870000e-002) (0, 8.45651477575302120000e-002) (1, 2.06061333417892460000e-001) (2, -1.88065603375434880000e-001) (3, -2.69977729767560960000e-002) (4, -1.34587988257408140000e-001) (5, 1.37134611606597900000e-001) (6, -1.25934109091758730000e-001) (7, 4.15195852518081670000e-001) (8, -1.45272016525268550000e-001) (9, 1.54353007674217220000e-001) (10, -1.99661076068878170000e-001) (11, -4.49073351919651030000e-002) (12, 8.22600200772285460000e-002) (13, 1.96260064840316770000e-001) (14, -5.65597936511039730000e-002) (15, -4.81801107525825500000e-002) (16, -1.64148081094026570000e-002) (17, -1.75978779792785640000e-001) (18, -3.81678529083728790000e-002) (19, -1.79853335022926330000e-001) (20, -8.70259225368499760000e-001) (21, 1.22126781940460210000e+000) (22, -3.84201034903526310000e-002) (23, -1.80584862828254700000e-001) (24, -3.06536499410867690000e-002) (25, -1.53493613004684450000e-001) (26, -6.08232915401458740000e-002) (27, -2.51432508230209350000e-002) (28, 6.45629037171602250000e-003) (29, 1.12153962254524230000e-001) (30, -2.77487337589263920000e-002) (31, 3.04308645427227020000e-002) (32, 3.68450544774532320000e-002) (33, -3.48174035549163820000e-001) (34, -7.26825237274169920000e-001) (35, 9.86890554428100590000e-001) (36, 8.71821679174900050000e-003) (37, -3.36949139833450320000e-001) (38, -7.49148949980735780000e-002) (39, 6.80198818445205690000e-002) (40, -1.68467015027999880000e-002) (41, 1.42845794558525090000e-001) (42, -3.71505320072174070000e-002) (43, -1.63056313991546630000e-001) (44, -2.89785768836736680000e-002) (45, -3.71478289365768430000e-001) (46, 4.22268640249967580000e-003) (47, -3.45566123723983760000e-001) (48, -6.58261537551879880000e-001) (49, 1.45736563205718990000e+000) (50, 3.07732261717319490000e-002) (51, -3.59480857849121090000e-001) (52, -6.64068907499313350000e-002) (53, -3.86601835489273070000e-001) (54, -2.54940614104270940000e-002) (55, -1.81136935949325560000e-001) (56, 5.97053840756416320000e-002) (57, -2.62502208352088930000e-002) (58, -5.75754120945930480000e-002) (59, -1.05933055281639100000e-001) (60, 2.40151248872280120000e-002) (61, -1.73234134912490840000e-001) (62, -1.50649487972259520000e-001) (63, 1.10419295728206630000e-001) (64, 4.53201048076152800000e-002) (65, -2.05295696854591370000e-001) (66, -5.61453327536582950000e-002) (67, -1.35993972420692440000e-001) (68, 3.49306873977184300000e-002) (69, -2.53424886614084240000e-002) (70, 1.82916164398193360000e-001) (71, -6.10353685915470120000e-002) (72, 6.29710182547569270000e-002) (73, -9.78702902793884280000e-002) (74, 5.83831332623958590000e-002) (75, -7.55743756890296940000e-002) (76, -9.26375091075897220000e-002) (77, 3.53285640478134160000e-001) (78, 5.06366305053234100000e-002) (79, -7.64164477586746220000e-002) (80, 5.18758557736873630000e-002) (81, -1.15195572376251220000e-001) (82, 1.96675628423690800000e-001) (83, -1.19575619697570800000e-001) (84, -5.93486726284027100000e-001) (0, 5.69449104368686680000e-002) (1, 6.84510841965675350000e-002) (2, -1.73164561390876770000e-001) (3, 9.70361977815628050000e-002) (4, -3.88345941901206970000e-002) (5, 3.21803927421569820000e-001) (6, 4.50614131987094880000e-002) (7, -6.10760189592838290000e-002) (8, 2.20192372798919680000e-002) (9, 1.64832789450883870000e-002) (10, -1.07394829392433170000e-001) (11, 9.60097685456275940000e-002) (12, 1.15449473261833190000e-001) (13, -1.13945625722408290000e-001) (14, -1.23830251395702360000e-001) (15, 2.33239397406578060000e-001) (16, 8.92425253987312320000e-002) (17, -1.99085325002670290000e-001) (18, -3.34506928920745850000e-002) (19, -3.21791589260101320000e-001) (20, 1.81605026125907900000e-001) (21, -3.22727501392364500000e-001) (22, -6.11243210732936860000e-003) (23, 3.64848375320434570000e-002) (24, -2.29102782905101780000e-002) (25, 1.49976000189781190000e-001) (26, 6.27299621701240540000e-002) (27, -1.74750275909900670000e-002) (28, -3.55662405490875240000e-002) (29, -4.27196808159351350000e-002) (30, -4.65520611032843590000e-003) (31, 2.55421787500381470000e-001) (32, 1.60353615880012510000e-001) (33, -7.54095077514648440000e-001) (34, 1.15407519042491910000e-002) (35, -4.65294010937213900000e-002) (36, -2.37954035401344300000e-001) (37, 6.91521406173706050000e-001) (38, -1.88611179590225220000e-001) (39, 3.07972311973571780000e-001) (40, 4.97477054595947270000e-002) (41, -4.16135527193546300000e-002) (42, -1.71273313462734220000e-002) (43, -4.56052422523498540000e-002) (44, -3.03054779767990110000e-001) (45, -7.51126110553741460000e-002) (46, 5.53828060626983640000e-001) (47, -2.18102648854255680000e-001) (48, -1.26140803098678590000e-001) (49, 6.22739791870117190000e-001) (50, -1.58085688948631290000e-001) (51, -4.49562788009643550000e-001) (52, 7.40097090601921080000e-002) (53, -4.96340125799179080000e-001) (54, 1.61062270402908330000e-001) (55, -2.35079750418663020000e-001) (56, -1.46436974406242370000e-001) (57, -7.32163116335868840000e-002) (58, 2.47567724436521530000e-002) (59, -4.83896657824516300000e-002) (60, -2.29254007339477540000e-001) (61, 6.06033444404602050000e-001) (62, -3.01833003759384160000e-002) (63, -7.95407712459564210000e-001) (64, 2.81926751136779790000e-001) (65, -1.42294794321060180000e-001) (66, 8.67503061890602110000e-002) (67, 6.13562501966953280000e-002) (68, 5.60896210372447970000e-002) (69, 4.07713577151298520000e-002) (70, 6.23982176184654240000e-002) (71, -3.42017650604248050000e-001) (72, -2.89476990699768070000e-001) (73, 1.81591555476188660000e-001) (74, 9.23615321516990660000e-002) (75, -5.42380392551422120000e-001) (76, 3.56788337230682370000e-001) (77, -1.15214742720127110000e-001) (78, 1.19093552231788640000e-001) (79, -1.48527666926383970000e-001) (80, 3.51928956806659700000e-002) (81, -9.53230187296867370000e-002) (82, -1.60856992006301880000e-001) (83, 2.15477254241704940000e-002) (84, 1.01548261940479280000e-001) (0, 1.51438727974891660000e-001) (1, -1.88716948032379150000e-001) (2, -7.99363553524017330000e-002) (3, 3.61059047281742100000e-002) (4, 1.65773741900920870000e-002) (5, 4.80576492846012120000e-002) (6, 4.30968925356864930000e-002) (7, 3.55607084929943080000e-002) (8, 7.52192586660385130000e-002) (9, 1.00379496812820430000e-001) (10, -5.90621158480644230000e-002) (11, 1.26380756497383120000e-001) (12, 1.66375383734703060000e-001) (13, -9.47299376130104060000e-002) (14, 2.85246577113866810000e-002) (15, 7.62176793068647380000e-003) (16, 1.32956802845001220000e-002) (17, 2.78339087963104250000e-002) (18, 2.41343351081013680000e-003) (19, 5.68545376881957050000e-003) (20, 6.68144144583493470000e-004) (21, -6.78036585450172420000e-002) (22, 6.51595890522003170000e-002) (23, -2.27653328329324720000e-002) (24, -5.68513162434101100000e-002) (25, 3.51475588977336880000e-002) (26, 3.03957033902406690000e-002) (27, 7.12239816784858700000e-002) (28, 1.64522096514701840000e-001) (29, -5.09743839502334590000e-002) (30, 2.34622396528720860000e-002) (31, 1.95619324222207070000e-003) (32, 1.27284571528434750000e-001) (33, 4.14803959429264070000e-002) (34, -7.82088786363601680000e-002) (35, 1.02963708341121670000e-001) (36, -2.15436797589063640000e-002) (37, 1.92389115691185000000e-002) (38, 1.61715280264616010000e-002) (39, -5.77130587771534920000e-003) (40, 1.15126281976699830000e-001) (41, -8.28686356544494630000e-002) (42, -2.36943382769823070000e-002) (43, 4.89194467663764950000e-002) (44, -3.99897843599319460000e-002) (45, -5.32394610345363620000e-002) (46, -3.46709489822387700000e-002) (47, 6.19626343250274660000e-002) (48, -9.61505323648452760000e-002) (49, -4.78555746376514430000e-002) (50, -4.73299771547317500000e-002) (51, 1.63387432694435120000e-001) (52, 3.87915521860122680000e-002) (53, -3.06679867208004000000e-002) (54, 4.21917513012886050000e-002) (55, 8.04673284292221070000e-002) (56, -8.10851231217384340000e-002) (57, -3.36270919069647790000e-003) (58, -7.99633115530014040000e-002) (59, 6.57807663083076480000e-002) (60, 7.95329827815294270000e-003) (61, 1.69888839125633240000e-001) (62, 3.93711701035499570000e-002) (63, 7.77516067028045650000e-002) (64, -4.40175347030162810000e-002) (65, 1.10959462821483610000e-001) (66, -2.45563294738531110000e-002) (67, 4.32478822767734530000e-002) (68, -8.47835838794708250000e-002) (69, 1.38981491327285770000e-002) (70, 4.37475852668285370000e-002) (71, -1.24357901513576510000e-001) (72, -1.05075255036354060000e-001) (73, 2.55232211202383040000e-003) (74, -5.17226457595825200000e-002) (75, 1.28256678581237790000e-001) (76, -1.22757308185100560000e-001) (77, 1.00405380129814150000e-001) (78, 2.81525421887636180000e-002) (79, -6.29928633570671080000e-002) (80, 7.20796063542366030000e-002) (81, 7.04636797308921810000e-003) (82, 5.04894135519862170000e-003) (83, -3.34204547107219700000e-002) (84, -1.09490163624286650000e-001) (0, -1.54299205169081690000e-002) (1, 3.66266779601573940000e-002) (2, 7.63355642557144170000e-002) (3, -4.29637841880321500000e-002) (4, -4.50136698782444000000e-002) (5, -3.15635390579700470000e-002) (6, -4.32117655873298650000e-002) (7, 6.59616738557815550000e-002) (8, -1.68261975049972530000e-002) (9, -1.95404980331659320000e-002) (10, 5.00268600881099700000e-002) (11, -2.70341522991657260000e-002) (12, -1.39351978898048400000e-001) (13, 5.64224570989608760000e-002) (14, -9.84970107674598690000e-003) (15, -6.08185864984989170000e-002) (16, 2.21140962094068530000e-002) (17, 1.64309621322900060000e-003) (18, 3.56000252068042760000e-002) (19, 6.71169310808181760000e-002) (20, -1.39079421758651730000e-001) (21, 5.78952487558126450000e-003) (22, -2.46728658676147460000e-002) (23, -6.55208602547645570000e-002) (24, 1.22906677424907680000e-001) (25, -1.53394667431712150000e-002) (26, -7.23609179258346560000e-002) (27, -1.80935356765985490000e-002) (28, 5.96020855009555820000e-002) (29, 1.13729357719421390000e-001) (30, -2.29718573391437530000e-002) (31, -4.41769212484359740000e-002) (32, -6.89577385783195500000e-002) (33, -1.57579049468040470000e-001) (34, 1.24114356935024260000e-001) (35, -8.61581191420555110000e-002) (36, -9.46149602532386780000e-003) (37, -2.75118704885244370000e-002) (38, -5.48221990466117860000e-002) (39, -1.11567586660385130000e-001) (40, -6.06024339795112610000e-002) (41, 9.12301521748304370000e-003) (42, -3.15439999103546140000e-002) (43, 2.08452269434928890000e-002) (44, 4.48606759309768680000e-002) (45, 5.25870174169540410000e-002) (46, 1.07922583818435670000e-001) (47, -3.90878040343523030000e-003) (48, -2.74989213794469830000e-002) (49, 1.30694806575775150000e-002) (50, 7.12280422449111940000e-002) (51, -3.90747142955660820000e-003) (52, 1.65492929518222810000e-002) (53, 1.11154079437255860000e-001) (54, -6.63639158010482790000e-002) (55, 2.75244899094104770000e-002) (56, 2.68522016704082490000e-002) (57, 6.97130709886550900000e-003) (58, -8.05597528815269470000e-002) (59, -1.98945309966802600000e-002) (60, 4.77386005222797390000e-002) (61, -1.16349034011363980000e-001) (62, -3.68545725941658020000e-002) (63, -5.85841014981269840000e-002) (64, 8.33200104534626010000e-003) (65, -1.65927976369857790000e-001) (66, -3.65591049194335940000e-002) (67, -3.42924632132053380000e-002) (68, 9.39220841974020000000e-003) (69, -4.05859164893627170000e-002) (70, -1.92916765809059140000e-002) (71, -2.85116061568260190000e-002) (72, 3.72977070510387420000e-002) (73, 7.50711336731910710000e-002) (74, -3.34439636208117010000e-003) (75, -2.26606391370296480000e-002) (76, 1.61456778645515440000e-001) (77, -5.42577281594276430000e-002) (78, 4.39235717058181760000e-002) (79, 1.49915926158428190000e-002) (80, 7.38950818777084350000e-003) (81, 1.08723141252994540000e-001) (82, -4.06031683087348940000e-002) (83, -7.89370387792587280000e-002) (84, 1.12356670200824740000e-001) (0, 5.16814291477203370000e-002) (1, -6.48277178406715390000e-002) (2, 6.35746493935585020000e-002) (3, -9.89739447832107540000e-002) (4, 1.20882317423820500000e-001) (5, -2.68900841474533080000e-002) (6, -8.30536335706710820000e-003) (7, -6.64655268192291260000e-002) (8, -3.67141626775264740000e-002) (9, -1.51601452380418780000e-002) (10, 2.63243783265352250000e-002) (11, 7.08277076482772830000e-002) (12, 1.07471160590648650000e-001) (13, 1.98266450315713880000e-002) (14, 2.88060512393713000000e-002) (15, 8.34508519619703290000e-003) (16, -1.66533440351486210000e-002) (17, -4.44160327315330510000e-002) (18, 8.79047717899084090000e-003) (19, -1.67083755135536190000e-001) (20, -1.66140422224998470000e-002) (21, 3.43557596206665040000e-002) (22, -1.76793932914733890000e-002) (23, 1.68542563915252690000e-001) (24, -2.23331414163112640000e-002) (25, -3.70445214211940770000e-002) (26, 6.43668463453650470000e-003) (27, -2.49078311026096340000e-002) (28, -7.87769630551338200000e-002) (29, -2.09919527173042300000e-001) (30, -8.06687921285629270000e-002) (31, -2.84746676683425900000e-001) (32, 3.72974271886050700000e-003) (33, 3.22912752628326420000e-001) (34, -3.23438108898699280000e-003) (35, 1.61613021045923230000e-002) (36, -5.06723970174789430000e-002) (37, -2.28267684578895570000e-001) (38, 1.05561584234237670000e-001) (39, 3.51856023073196410000e-001) (40, 8.62311422824859620000e-002) (41, 2.25727975368499760000e-001) (42, -1.54460087418556210000e-001) (43, -1.38926833868026730000e-001) (44, -9.94663387537002560000e-002) (45, -1.35212153196334840000e-001) (46, 2.40133613348007200000e-001) (47, 4.76627707481384280000e-001) (48, -6.44790679216384890000e-002) (49, -3.30407470464706420000e-002) (50, -1.93240001797676090000e-001) (51, -5.08231163024902340000e-001) (52, 6.47136196494102480000e-002) (53, 3.04292663931846620000e-002) (54, 6.69231787323951720000e-002) (55, 1.70534148812294010000e-001) (56, -1.04292891919612880000e-002) (57, -1.07990726828575130000e-001) (58, -1.36022772639989850000e-002) (59, 5.20924739539623260000e-002) (60, 2.35136777162551880000e-001) (61, 2.69671380519866940000e-001) (62, 2.72904634475708010000e-002) (63, 6.96138888597488400000e-002) (64, -2.24747523665428160000e-001) (65, -1.83129936456680300000e-001) (66, 1.36586902663111690000e-002) (67, -1.27996671944856640000e-002) (68, 8.68829861283302310000e-002) (69, 7.76520445942878720000e-002) (70, -2.36402004957199100000e-002) (71, 1.23912230134010310000e-001) (72, -3.03943932056427000000e-001) (73, 3.38569223880767820000e-001) (74, 2.20268622040748600000e-001) (75, -4.73582595586776730000e-001) (76, -4.47905212640762330000e-002) (77, 1.42079353332519530000e-001) (78, -6.09120726585388180000e-002) (79, 8.11487078666687010000e-001) (80, 3.42674255371093750000e-001) (81, -1.50839462876319890000e-001) (82, 4.29406054317951200000e-002) (83, 2.44630090892314910000e-002) (84, 6.36188507080078130000e-001) (0, 1.10337786376476290000e-001) (1, -1.16280600428581240000e-001) (2, -4.25454117357730870000e-002) (3, -4.25035841763019560000e-002) (4, -1.20946936309337620000e-001) (5, -6.96509033441543580000e-002) (6, 7.75567963719367980000e-002) (7, -5.59614179655909540000e-003) (8, -4.26834151148796080000e-002) (9, -7.37404450774192810000e-002) (10, -4.15423810482025150000e-002) (11, -6.75765052437782290000e-002) (12, 2.43515130132436750000e-002) (13, -1.45708948373794560000e-001) (14, 2.10790354758501050000e-002) (15, -4.97315712273120880000e-002) (16, 8.88509526848793030000e-002) (17, 6.04227036237716670000e-002) (18, 5.05122505128383640000e-002) (19, 1.28179594874382020000e-001) (20, -2.81717982143163680000e-002) (21, 4.15977500379085540000e-002) (22, 4.08776029944419860000e-002) (23, 1.67382016777992250000e-001) (24, -3.57828959822654720000e-002) (25, -7.54907354712486270000e-002) (26, 9.40303802490234380000e-002) (27, -9.13759097456932070000e-002) (28, 2.49614994972944260000e-002) (29, -8.44109579920768740000e-002) (30, 9.99107807874679570000e-002) (31, 5.25374673306941990000e-002) (32, -9.25911813974380490000e-002) (33, 6.37566000223159790000e-002) (34, 4.09312583506107330000e-002) (35, 4.74452525377273560000e-002) (36, -7.17595070600509640000e-002) (37, 3.46473045647144320000e-002) (38, -3.63381691277027130000e-002) (39, -2.51279789954423900000e-002) (40, -2.21886634826660160000e-002) (41, 1.31814777851104740000e-001) (42, -2.22378131002187730000e-003) (43, 6.52654170989990230000e-002) (44, -1.00802585482597350000e-001) (45, 4.94731925427913670000e-002) (46, 2.97351665794849400000e-002) (47, -1.42118930816650390000e-002) (48, 1.47091418504714970000e-001) (49, -9.50530520640313630000e-004) (50, 1.98438465595245360000e-002) (51, -3.69203910231590270000e-002) (52, -3.67025658488273620000e-002) (53, 1.19793295860290530000e-001) (54, -1.39310508966445920000e-001) (55, -3.22089679539203640000e-002) (56, -6.48420155048370360000e-002) (57, 4.19950857758522030000e-002) (58, 4.83531169593334200000e-002) (59, 2.51092622056603430000e-003) (60, 4.10144515335559840000e-002) (61, 5.94501383602619170000e-003) (62, 5.08459694683551790000e-002) (63, -2.10408225655555730000e-001) (64, 1.24900685623288150000e-002) (65, -2.47429520823061470000e-003) (66, 7.13970512151718140000e-002) (67, -2.35087238252162930000e-002) (68, -6.55377730727195740000e-002) (69, 8.84720683097839360000e-002) (70, 7.83969997428357600000e-004) (71, 2.51368973404169080000e-002) (72, 4.47962014004588130000e-003) (73, 6.04807771742343900000e-002) (74, 4.56778556108474730000e-002) (75, 1.42869465053081510000e-002) (76, -2.56738886237144470000e-002) (77, -1.90268337726593020000e-001) (78, 6.89059942960739140000e-002) (79, -6.30982294678688050000e-002) (80, 6.20170906186103820000e-002) (81, -2.14872378855943680000e-002) (82, -7.85117894411087040000e-002) (83, -3.51719632744789120000e-002) (84, -6.06381297111511230000e-002) (0, 1.49641469120979310000e-001) (1, -1.32752105593681340000e-001) (2, -7.94658213853836060000e-002) (3, 1.88288297504186630000e-002) (4, 1.31949344649910930000e-002) (5, 4.48552006855607030000e-003) (6, 7.61538669466972350000e-002) (7, -1.14620849490165710000e-001) (8, 2.24945526570081710000e-002) (9, 3.12436431646347050000e-001) (10, -1.44277378916740420000e-001) (11, 7.66532346606254580000e-002) (12, 9.92120429873466490000e-002) (13, 8.34693908691406250000e-002) (14, 1.08832240104675290000e-001) (15, -5.57414889335632320000e-002) (16, -3.60264256596565250000e-002) (17, 1.17400683462619780000e-001) (18, -2.23275292664766310000e-002) (19, 1.99000481516122820000e-002) (20, 2.37108469009399410000e-001) (21, -3.57259511947631840000e-001) (22, 2.20879283733665940000e-003) (23, -3.48958522081375120000e-001) (24, 1.18399031460285190000e-001) (25, -2.05440938472747800000e-001) (26, -1.42970934510231020000e-001) (27, 2.06948816776275630000e-001) (28, 8.50843489170074460000e-002) (29, -5.28971552848815920000e-002) (30, -1.64537400007247920000e-001) (31, 2.66576439142227170000e-001) (32, -1.85444340109825130000e-001) (33, 6.73435628414154050000e-001) (34, 8.19136351346969600000e-002) (35, -1.07062034308910370000e-001) (36, 1.60482391715049740000e-001) (37, -7.02341258525848390000e-001) (38, 5.03093330189585690000e-003) (39, 1.49337470531463620000e-001) (40, -1.32132209837436680000e-002) (41, -3.90059240162372590000e-002) (42, 1.96534499526023860000e-001) (43, -3.07708710432052610000e-001) (44, 1.18774257600307460000e-001) (45, -5.22537946701049800000e-001) (46, -1.26517012715339660000e-001) (47, -4.87733483314514160000e-001) (48, -1.09124369919300080000e-001) (49, 5.76139092445373540000e-001) (50, 5.05665063858032230000e-001) (51, -2.17179104685783390000e-001) (52, -2.25793123245239260000e-001) (53, -5.58735132217407230000e-002) (54, -1.99492219835519790000e-002) (55, -8.28717499971389770000e-002) (56, 6.99445530772209170000e-002) (57, -1.28126787021756170000e-002) (58, 6.60329461097717290000e-002) (59, 6.12034797668457030000e-002) (60, 3.10395985841751100000e-001) (61, -1.49351298809051510000e-001) (62, -3.41803207993507390000e-002) (63, -8.01121175289154050000e-001) (64, -2.20055848360061650000e-001) (65, 5.40809750556945800000e-001) (66, 4.36116680502891540000e-002) (67, -1.16635873913764950000e-001) (68, -1.05333328247070310000e-001) (69, -9.64223518967628480000e-002) (70, -1.09903044998645780000e-001) (71, 5.38502307608723640000e-003) (72, 4.27899509668350220000e-002) (73, -1.32172852754592900000e-001) (74, 1.10079325735569000000e-001) (75, -1.37656152248382570000e-001) (76, 3.95798951387405400000e-001) (77, -1.09149694442749020000e-001) (78, 1.21858388185501100000e-001) (79, -5.65531194210052490000e-001) (80, -2.44241595268249510000e-001) (81, 1.70485571026802060000e-001) (82, 1.04913488030433650000e-001) (83, -3.85903835296630860000e-001) (84, 8.59629362821578980000e-002) (0, 1.96194760501384740000e-002) (1, -1.86780057847499850000e-002) (2, 7.03199580311775210000e-002) (3, 4.53447774052619930000e-002) (4, 1.09024837613105770000e-001) (5, -1.04389330372214320000e-002) (6, 1.36844977736473080000e-001) (7, 2.67910119146108630000e-002) (8, -4.66173924505710600000e-002) (9, -8.79688188433647160000e-003) (10, 1.74104794859886170000e-002) (11, 3.83617505431175230000e-002) (12, -1.71557515859603880000e-002) (13, 1.79098531603813170000e-001) (14, 1.39964595437049870000e-002) (15, 1.98866337537765500000e-001) (16, 3.08588761836290360000e-002) (17, 2.13228568434715270000e-001) (18, 5.06531447172164920000e-002) (19, -2.30813801288604740000e-001) (20, 1.41129314899444580000e-001) (21, -2.84970879554748540000e-001) (22, 2.68675893545150760000e-001) (23, -2.86579839885234830000e-002) (24, 1.33900403976440430000e-001) (25, 1.16922343149781230000e-002) (26, -2.98663992434740070000e-002) (27, 8.96136909723281860000e-002) (28, -2.10177674889564510000e-001) (29, 5.48057675361633300000e-001) (30, -8.62605720758438110000e-002) (31, -6.64966106414794920000e-002) (32, -8.78446386195719240000e-004) (33, -7.70814791321754460000e-002) (34, -4.43324893712997440000e-002) (35, -1.84594795107841490000e-001) (36, 1.71432167291641240000e-001) (37, 1.12352157011628150000e-002) (38, 1.85729354619979860000e-001) (39, -1.84650924056768420000e-002) (40, 4.95721213519573210000e-002) (41, 2.75693863630294800000e-001) (42, -2.75698930025100710000e-001) (43, 3.27509403228759770000e-001) (44, -3.95443849265575410000e-002) (45, -6.83835595846176150000e-002) (46, -1.80150166153907780000e-001) (47, -2.10064232349395750000e-001) (48, -1.40322625637054440000e-001) (49, -1.79534375667572020000e-001) (50, -3.52581180632114410000e-002) (51, -1.06483422219753270000e-001) (52, 8.55359733104705810000e-002) (53, 1.08985006809234620000e-001) (54, 8.17813724279403690000e-002) (55, 5.55328987538814540000e-002) (56, -2.99208760261535640000e-001) (57, 4.54447329044342040000e-001) (58, -3.22194635868072510000e-001) (59, -2.22724482417106630000e-001) (60, -2.50516623258590700000e-001) (61, -4.68032568693161010000e-001) (62, 9.26826447248458860000e-002) (63, -5.89308679103851320000e-001) (64, 1.59801259636878970000e-001) (65, 2.41021037101745610000e-001) (66, 8.45351666212081910000e-002) (67, 7.32213854789733890000e-002) (68, 7.35040530562400820000e-002) (69, 3.37818562984466550000e-002) (70, -3.57495009899139400000e-001) (71, 1.77474111318588260000e-001) (72, -1.25214308500289920000e-001) (73, -2.37749934196472170000e-001) (74, 1.93048864603042600000e-001) (75, -4.17116492986679080000e-001) (76, 1.73627674579620360000e-001) (77, -5.91814160346984860000e-001) (78, 1.38169139623641970000e-001) (79, 2.88113683462142940000e-001) (80, 3.63241955637931820000e-002) (81, 9.11303460597991940000e-002) (82, 2.49535962939262390000e-001) (83, -2.34093949198722840000e-001) (84, 1.19250752031803130000e-001) (0, -1.41341779381036760000e-002) (1, -1.37544563040137290000e-002) (2, 6.17624074220657350000e-002) (3, -9.50598642230033870000e-002) (4, 1.21320284903049470000e-001) (5, 4.04404886066913600000e-002) (6, -6.57349675893783570000e-002) (7, 6.77690804004669190000e-002) (8, 1.11694648861885070000e-001) (9, 2.25671511143445970000e-002) (10, 4.19617518782615660000e-002) (11, -1.77003830671310420000e-001) (12, 9.19869244098663330000e-002) (13, 3.24576757848262790000e-002) (14, 6.44780788570642470000e-003) (15, 6.67931661009788510000e-002) (16, -2.56036743521690370000e-002) (17, 9.55398306250572200000e-002) (18, 5.08659705519676210000e-002) (19, 1.52578115463256840000e-001) (20, 3.59100475907325740000e-002) (21, -2.26810500025749210000e-001) (22, 1.98034998029470440000e-002) (23, 1.16704836487770080000e-001) (24, -1.06234028935432430000e-001) (25, 7.35726282000541690000e-002) (26, -1.05966823175549510000e-002) (27, 9.48909670114517210000e-002) (28, 1.24799488112330440000e-002) (29, -2.14342311024665830000e-001) (30, 1.51473939418792720000e-001) (31, -3.30199748277664180000e-001) (32, -5.88361658155918120000e-002) (33, -3.56448092497885230000e-003) (34, -1.58508464694023130000e-001) (35, 3.31117898225784300000e-001) (36, -6.97283493354916570000e-003) (37, 9.49382781982421880000e-003) (38, 1.32700040936470030000e-001) (39, -1.37893423438072200000e-001) (40, 6.74331188201904300000e-002) (41, -1.14082120358943940000e-001) (42, -6.09869956970214840000e-002) (43, -3.92117202281951900000e-001) (44, -1.95263355970382690000e-001) (45, 6.80277049541473390000e-001) (46, -1.35264948010444640000e-001) (47, 9.57301184535026550000e-002) (48, 2.14016083627939220000e-002) (49, -3.50712269544601440000e-001) (50, -4.26680073142051700000e-002) (51, -6.94805756211280820000e-002) (52, -3.38911451399326320000e-002) (53, 4.85996246337890630000e-001) (54, -1.98244526982307430000e-002) (55, -2.74493247270584110000e-001) (56, -1.46975696086883540000e-001) (57, 1.41794169321656230000e-002) (58, -6.91195949912071230000e-002) (59, -4.56010967493057250000e-001) (60, -1.08660340309143070000e-001) (61, 8.40901955962181090000e-002) (62, -5.25671765208244320000e-002) (63, -5.48653602600097660000e-002) (64, -9.63881462812423710000e-002) (65, 2.24110558629035950000e-002) (66, 3.52061353623867030000e-002) (67, -3.66731882095336910000e-001) (68, -1.02088190615177150000e-001) (69, 1.10786199569702150000e-001) (70, -1.08128584921360020000e-001) (71, -2.42246419191360470000e-001) (72, -3.39004486799240110000e-001) (73, -4.13947433233261110000e-001) (74, 1.55894726514816280000e-001) (75, 1.10306270420551300000e-001) (76, 1.93455308675765990000e-001) (77, -3.80795985460281370000e-001) (78, 1.93397700786590580000e-001) (79, 1.52352273464202880000e-001) (80, -2.51639753580093380000e-001) (81, -3.09945076704025270000e-001) (82, -8.50544050335884090000e-002) (83, -2.00963199138641360000e-001) (84, 2.55658328533172610000e-001) (0, 1.41407400369644170000e-001) (1, -1.83853343129158020000e-001) (2, -3.78343835473060610000e-002) (3, -9.06303822994232180000e-002) (4, 8.62895697355270390000e-002) (5, -2.16283693909645080000e-001) (6, 3.24407145380973820000e-002) (7, 7.99683555960655210000e-002) (8, 2.12598860263824460000e-001) (9, -2.62674957513809200000e-001) (10, 1.13132670521736150000e-001) (11, 9.10452753305435180000e-003) (12, 2.03388735651969910000e-001) (13, -6.22891932725906370000e-002) (14, -6.03778362274169920000e-002) (15, 1.60535469651222230000e-001) (16, -5.54004088044166560000e-002) (17, -7.17125684022903440000e-002) (18, -1.31484996527433400000e-002) (19, 2.73120939731597900000e-001) (20, 4.87415306270122530000e-002) (21, 3.84306907653808590000e-002) (22, 3.80455762147903440000e-001) (23, -3.63064795732498170000e-001) (24, 1.28751575946807860000e-001) (25, -1.54735118150711060000e-001) (26, 2.13105995208024980000e-002) (27, -1.19429510086774830000e-002) (28, -1.50333404541015630000e-001) (29, 2.70550638437271120000e-001) (30, -6.38719424605369570000e-002) (31, 7.09650143980979920000e-002) (32, 8.09149742126464840000e-002) (33, 1.85643926262855530000e-001) (34, -2.31209307909011840000e-001) (35, 3.84588539600372310000e-001) (36, 2.20467358827590940000e-001) (37, -3.53275239467620850000e-001) (38, -9.32870209217071530000e-002) (39, 5.38449048995971680000e-001) (40, 1.07081606984138490000e-001) (41, 1.34627044200897220000e-001) (42, -9.28097367286682130000e-002) (43, -7.91838467121124270000e-002) (44, -1.81757524609565730000e-001) (45, 1.01192139089107510000e-001) (46, -2.11677700281143190000e-001) (47, 9.80532765388488770000e-002) (48, 8.40858295559883120000e-002) (49, 8.38487073779106140000e-002) (50, 6.39271199703216550000e-001) (51, -5.75796127319335940000e-001) (52, -3.81215885281562810000e-002) (53, -4.38619583845138550000e-001) (54, -1.01666264235973360000e-001) (55, -5.84264099597930910000e-002) (56, 2.62342318892478940000e-002) (57, 1.27186626195907590000e-001) (58, -9.01106745004653930000e-002) (59, 3.66241842508316040000e-001) (60, 6.76151039078831670000e-003) (61, -6.44790008664131160000e-003) (62, -1.95808678865432740000e-001) (63, 5.77950119972229000000e-001) (64, 5.51711432635784150000e-002) (65, 1.48425579071044920000e-001) (66, -3.27655137516558170000e-003) (67, 5.20834147930145260000e-001) (68, 1.99716284871101380000e-001) (69, -2.12021484971046450000e-001) (70, -3.98166775703430180000e-002) (71, -4.90255467593669890000e-002) (72, -1.96822583675384520000e-002) (73, -1.72531008720397950000e-001) (74, -1.01191334426403050000e-001) (75, -3.41087281703948970000e-001) (76, -1.65881544351577760000e-001) (77, -2.97436177730560300000e-001) (78, 9.55930799245834350000e-002) (79, -3.17686796188354490000e-001) (80, -2.90589942596852780000e-003) (81, 1.42473459243774410000e-001) (82, -1.19508393108844760000e-001) (83, 4.18534606695175170000e-001) (84, -3.15506428480148320000e-001) (0, -8.08609474916011100000e-004) (1, 5.78714255243539810000e-003) (2, -3.62993106245994570000e-002) (3, 3.76191884279251100000e-002) (4, 4.14740703999996190000e-002) (5, 4.72260601818561550000e-002) (6, 1.50421723723411560000e-001) (7, -1.10134869813919070000e-001) (8, -9.17552337050437930000e-002) (9, 1.21261756867170330000e-002) (10, 1.30910445004701610000e-002) (11, -5.15312105417251590000e-002) (12, -1.60680431872606280000e-002) (13, -2.07673255354166030000e-002) (14, 7.37389549612998960000e-002) (15, -5.37253059446811680000e-002) (16, -5.29791973531246190000e-003) (17, 4.52945521101355550000e-003) (18, -2.24411729723215100000e-002) (19, -2.66643259674310680000e-002) (20, -4.49568070471286770000e-002) (21, 3.64979058504104610000e-002) (22, -8.34923386573791500000e-002) (23, -5.09388884529471400000e-003) (24, 1.58249028027057650000e-002) (25, 4.41831573843955990000e-002) (26, -6.17845170199871060000e-002) (27, 6.56286329030990600000e-002) (28, 2.30406261980533600000e-002) (29, -6.51613473892211910000e-002) (30, 5.58907501399517060000e-002) (31, 2.49285586178302760000e-002) (32, 1.03477090597152710000e-002) (33, 1.35689442977309230000e-002) (34, -5.31990975141525270000e-002) (35, -1.27027276903390880000e-002) (36, 1.49252906441688540000e-001) (37, -3.37214283645153050000e-002) (38, -8.19308534264564510000e-002) (39, -9.50510203838348390000e-002) (40, 1.40901980921626090000e-002) (41, 3.15436208620667460000e-003) (42, -2.43199174292385580000e-003) (43, 1.00922465324401860000e-001) (44, -4.77351993322372440000e-002) (45, 4.41803187131881710000e-002) (46, -1.48328514769673350000e-002) (47, -3.12450993806123730000e-003) (48, -8.53471271693706510000e-003) (49, 9.10222604870796200000e-002) (50, -2.34413091093301770000e-002) (51, -5.50174303352832790000e-002) (52, 6.28113448619842530000e-002) (53, 3.56357693672180180000e-002) (54, 7.83909410238265990000e-002) (55, -2.14768368750810620000e-002) (56, 1.81936938315629960000e-002) (57, 9.24443304538726810000e-002) (58, 2.38743703812360760000e-002) (59, -4.31285500526428220000e-002) (60, 5.90305477380752560000e-002) (61, -8.05408954620361330000e-002) (62, -9.78412106633186340000e-002) (63, -6.51969686150550840000e-002) (64, 4.22445088624954220000e-002) (65, -2.29294765740633010000e-002) (66, 2.01638191938400270000e-002) (67, -1.44662961363792420000e-001) (68, -7.86194205284118650000e-002) (69, 6.08645903412252660000e-004) (70, 1.11428359523415570000e-002) (71, 3.29159162938594820000e-002) (72, 6.32951036095619200000e-002) (73, -2.82648690044879910000e-002) (74, -4.39432151615619660000e-002) (75, -4.83722873032093050000e-002) (76, 7.12975040078163150000e-002) (77, 7.78950564563274380000e-003) (78, -1.92844774574041370000e-002) (79, -7.25738629698753360000e-002) (80, 5.26687949895858760000e-002) (81, 2.22108792513608930000e-002) (82, 2.01872065663337710000e-002) (83, 7.51366317272186280000e-002) (84, 3.62170562148094180000e-002) (0, -1.06294006109237670000e-001) (1, 5.01543357968330380000e-002) (2, 7.90925472974777220000e-002) (3, 6.94797709584236150000e-002) (4, 3.18480515852570530000e-003) (5, 4.29733954370021820000e-002) (6, -4.24432754516601560000e-002) (7, -8.66026952862739560000e-002) (8, -6.11703209578990940000e-002) (9, 1.42743989825248720000e-001) (10, 4.20562503859400750000e-003) (11, 7.71091133356094360000e-002) (12, -1.26821547746658330000e-001) (13, -5.87093783542513850000e-003) (14, -4.83733415603637700000e-002) (15, -1.67157948017120360000e-002) (16, -1.60930287092924120000e-002) (17, 6.04309439659118650000e-002) (18, -7.92106688022613530000e-002) (19, -2.73739714175462720000e-002) (20, 1.27637505531311040000e-001) (21, 5.53917065262794490000e-002) (22, -5.99164292216300960000e-002) (23, -1.68234929442405700000e-001) (24, -1.23491019010543820000e-001) (25, 2.64907404780387880000e-002) (26, -8.34039449691772460000e-002) (27, -7.83136412501335140000e-002) (28, 2.42867246270179750000e-002) (29, -7.62055367231369020000e-002) (30, 5.06624020636081700000e-002) (31, -7.47331324964761730000e-003) (32, -6.54244050383567810000e-002) (33, -1.08892276883125310000e-001) (34, 7.89369735866785050000e-003) (35, -2.24915221333503720000e-001) (36, -1.01144641637802120000e-001) (37, 4.62957844138145450000e-002) (38, 4.50214333832263950000e-002) (39, 2.38515853881835940000e-001) (40, 2.80036870390176770000e-002) (41, -3.13830338418483730000e-002) (42, -8.56523066759109500000e-002) (43, 1.15890257060527800000e-001) (44, -1.25822082161903380000e-001) (45, 2.62357413768768310000e-001) (46, -1.73547551035881040000e-001) (47, -2.63381265103816990000e-002) (48, -1.51507809758186340000e-001) (49, -1.64150550961494450000e-001) (50, 9.70583558082580570000e-002) (51, -2.66640812158584590000e-001) (52, 2.62717474251985550000e-002) (53, 1.12808391451835630000e-001) (54, 3.01894824951887130000e-002) (55, 2.10839107632637020000e-001) (56, -7.74944126605987550000e-002) (57, -1.17208575829863550000e-003) (58, -1.80322915315628050000e-001) (59, 2.81437844038009640000e-001) (60, 1.40940040349960330000e-001) (61, -3.20174485445022580000e-001) (62, -3.36627103388309480000e-002) (63, -3.93328160047531130000e-001) (64, -4.96834777295589450000e-002) (65, -1.23778298497200010000e-001) (66, 4.83205318450927730000e-002) (67, 3.71382027864456180000e-001) (68, 5.86212091147899630000e-002) (69, -1.80905103683471680000e-001) (70, 3.45454812049865720000e-002) (71, -8.89672711491584780000e-002) (72, -3.63345518708229060000e-002) (73, -6.51227608323097230000e-002) (74, 5.77710084617137910000e-002) (75, -1.25334933400154110000e-001) (76, 1.39732822775840760000e-001) (77, -4.75062951445579530000e-002) (78, 1.88195616006851200000e-001) (79, -1.06746986508369450000e-001) (80, 3.95709946751594540000e-002) (81, 1.53603270649909970000e-001) (82, -2.29963827878236770000e-002) (83, -1.28995776176452640000e-001) (84, 1.41928181052207950000e-001) (0, 8.07009190320968630000e-002) (1, -7.53182638436555860000e-003) (2, 5.38657642900943760000e-002) (3, -3.45216318964958190000e-003) (4, -1.04900647420436140000e-003) (5, 2.68776509910821910000e-002) (6, 2.77292430400848390000e-002) (7, 2.75474712252616880000e-002) (8, -5.52709400653839110000e-002) (9, 5.27657717466354370000e-002) (10, 8.78082811832427980000e-002) (11, 7.12262690067291260000e-002) (12, 5.57161308825016020000e-002) (13, -2.15333271771669390000e-002) (14, 2.49355304986238480000e-002) (15, 1.25113561749458310000e-001) (16, -6.62223845720291140000e-002) (17, -5.08606582880020140000e-002) (18, -1.20334038510918620000e-002) (19, -3.12481336295604710000e-002) (20, -8.92605558037757870000e-002) (21, 6.57561793923377990000e-002) (22, -8.15778672695159910000e-002) (23, 3.35188694298267360000e-002) (24, 3.86541634798049930000e-002) (25, -1.14652486518025400000e-002) (26, 7.65142217278480530000e-002) (27, -4.17924672365188600000e-002) (28, -4.41916584968566890000e-002) (29, 3.98082286119461060000e-002) (30, 2.44399011135101320000e-002) (31, -2.62941978871822360000e-002) (32, -2.14275587350130080000e-002) (33, -1.09438970685005190000e-001) (34, -4.78603914380073550000e-002) (35, 2.81216502189636230000e-002) (36, -3.47727425396442410000e-002) (37, -3.87518294155597690000e-002) (38, 2.92093325406312940000e-002) (39, -1.57099664211273190000e-002) (40, 5.73453940451145170000e-002) (41, -7.02841877937316890000e-002) (42, -4.86416779458522800000e-002) (43, -1.38688767328858380000e-002) (44, -4.52129915356636050000e-002) (45, 3.89015078544616700000e-002) (46, -1.45398115273565050000e-003) (47, 9.29777231067419050000e-003) (48, -2.04697754234075550000e-002) (49, -1.52548290789127350000e-002) (50, 5.57200871407985690000e-002) (51, -3.78172472119331360000e-002) (52, -1.09746001660823820000e-001) (53, -4.07095849514007570000e-002) (54, -3.75950080342590810000e-003) (55, 7.58083313703536990000e-002) (56, 1.92639306187629700000e-002) (57, 6.20232075452804570000e-002) (58, -2.66571179963648320000e-003) (59, -8.41693654656410220000e-002) (60, -1.03002293035387990000e-002) (61, 8.31501483917236330000e-002) (62, 3.32856662571430210000e-002) (63, -6.85947621241211890000e-003) (64, 3.50741781294345860000e-002) (65, 1.12384883686900140000e-002) (66, 6.64327964186668400000e-002) (67, -5.01472018659114840000e-002) (68, 6.66490271687507630000e-002) (69, 4.72854226827621460000e-002) (70, 7.29061383754014970000e-003) (71, -2.27612219750881200000e-002) (72, 6.05266280472278590000e-002) (73, 1.57781392335891720000e-002) (74, 8.77016186714172360000e-002) (75, 7.45850726962089540000e-002) (76, -4.03311215341091160000e-002) (77, -5.90029023587703700000e-002) (78, 3.40837724506855010000e-002) (79, -1.67921353131532670000e-002) (80, 1.37958452105522160000e-002) (81, 6.79070279002189640000e-002) (82, -7.90819451212883000000e-002) (83, -4.90156523883342740000e-002) (84, -3.98578345775604250000e-002) (0, 3.18806841969490050000e-002) (1, -1.63923531770706180000e-001) (2, -1.92880079150199890000e-001) (3, -2.60796248912811280000e-002) (4, 1.51385937351733450000e-003) (5, -4.76224571466445920000e-002) (6, -1.25437662005424500000e-001) (7, -7.84692019224166870000e-002) (8, 2.06706449389457700000e-002) (9, -4.85430173575878140000e-002) (10, -1.22803725302219390000e-001) (11, -3.27770151197910310000e-002) (12, 4.41143400967121120000e-002) (13, -1.86310559511184690000e-001) (14, -2.57970243692398070000e-001) (15, -1.80782806128263470000e-002) (16, -2.19430506229400630000e-001) (17, -2.75264054536819460000e-001) (18, -1.93937480449676510000e-001) (19, 1.10625006258487700000e-001) (20, 1.73954978585243230000e-001) (21, 1.73605620861053470000e-001) (22, -1.62925913929939270000e-001) (23, 1.03891022503376010000e-001) (24, -2.15691342949867250000e-001) (25, -3.00252020359039310000e-001) (26, -2.23873913288116460000e-001) (27, -2.81614661216735840000e-002) (28, 5.73983378708362580000e-002) (29, -9.44413095712661740000e-002) (30, -4.77059304714202880000e-001) (31, 4.88834269344806670000e-002) (32, -3.71727347373962400000e-002) (33, 1.54591053724288940000e-001) (34, -3.00728619098663330000e-001) (35, -1.70698449015617370000e-001) (36, -5.49677349627017970000e-002) (37, 1.72644764184951780000e-001) (38, -4.82220083475112920000e-001) (39, 4.70078848302364350000e-002) (40, 3.04369516670703890000e-002) (41, -9.86920967698097230000e-002) (42, -1.85301035642623900000e-001) (43, -7.51637220382690430000e-002) (44, -1.38255819678306580000e-001) (45, -5.57674705982208250000e-001) (46, -1.55922695994377140000e-001) (47, -7.23998770117759700000e-002) (48, -1.85043290257453920000e-001) (49, 1.89399302005767820000e-001) (50, -1.27739563584327700000e-001) (51, -1.22617483139038090000e-001) (52, -1.30981862545013430000e-001) (53, -5.81651449203491210000e-001) (54, -2.13043048977851870000e-001) (55, -6.26631528139114380000e-002) (56, 