FANN_FLO_2.1
num_layers=3
learning_rate=0.500000
connection_rate=1.000000
network_type=0
learning_momentum=0.000000
training_algorithm=1
train_error_function=1
train_stop_function=0
cascade_output_change_fraction=0.010000
quickprop_decay=-0.000100
quickprop_mu=1.750000
rprop_increase_factor=1.200000
rprop_decrease_factor=0.500000
rprop_delta_min=0.000000
rprop_delta_max=50.000000
rprop_delta_zero=0.100000
cascade_output_stagnation_epochs=12
cascade_candidate_change_fraction=0.010000
cascade_candidate_stagnation_epochs=12
cascade_max_out_epochs=150
cascade_min_out_epochs=50
cascade_max_cand_epochs=150
cascade_min_cand_epochs=50
cascade_num_candidate_groups=2
bit_fail_limit=3.49999994039535520000e-001
cascade_candidate_limit=1.00000000000000000000e+003
cascade_weight_multiplier=4.00000005960464480000e-001
cascade_activation_functions_count=10
cascade_activation_functions=3 5 7 8 10 11 14 15 16 17 
cascade_activation_steepnesses_count=4
cascade_activation_steepnesses=2.50000000000000000000e-001 5.00000000000000000000e-001 7.50000000000000000000e-001 1.00000000000000000000e+000 
layer_sizes=85 81 2 
scale_included=0
neurons (num_inputs, activation_function, activation_steepness)=(0, 0, 0.00000000000000000000e+000) (0, 0, 0.00000000000000000000e+000) (0, 0, 0.00000000000000000000e+000) (0, 0, 0.00000000000000000000e+000) (0, 0, 0.00000000000000000000e+000) (0, 0, 0.00000000000000000000e+000) (0, 0, 0.00000000000000000000e+000) (0, 0, 0.00000000000000000000e+000) (0, 0, 0.00000000000000000000e+000) (0, 0, 0.00000000000000000000e+000) (0, 0, 0.00000000000000000000e+000) (0, 0, 0.00000000000000000000e+000) (0, 0, 0.00000000000000000000e+000) (0, 0, 0.00000000000000000000e+000) (0, 0, 0.00000000000000000000e+000) (0, 0, 0.00000000000000000000e+000) (0, 0, 0.00000000000000000000e+000) (0, 0, 0.00000000000000000000e+000) (0, 0, 0.00000000000000000000e+000) (0, 0, 0.00000000000000000000e+000) (0, 0, 0.00000000000000000000e+000) (0, 0, 0.00000000000000000000e+000) (0, 0, 0.00000000000000000000e+000) (0, 0, 0.00000000000000000000e+000) (0, 0, 0.00000000000000000000e+000) (0, 0, 0.00000000000000000000e+000) (0, 0, 0.00000000000000000000e+000) (0, 0, 0.00000000000000000000e+000) (0, 0, 0.00000000000000000000e+000) (0, 0, 0.00000000000000000000e+000) (0, 0, 0.00000000000000000000e+000) (0, 0, 0.00000000000000000000e+000) (0, 0, 0.00000000000000000000e+000) (0, 0, 0.00000000000000000000e+000) (0, 0, 0.00000000000000000000e+000) (0, 0, 0.00000000000000000000e+000) (0, 0, 0.00000000000000000000e+000) (0, 0, 0.00000000000000000000e+000) (0, 0, 0.00000000000000000000e+000) (0, 0, 0.00000000000000000000e+000) (0, 0, 0.00000000000000000000e+000) (0, 0, 0.00000000000000000000e+000) (0, 0, 0.00000000000000000000e+000) (0, 0, 0.00000000000000000000e+000) (0, 0, 0.00000000000000000000e+000) (0, 0, 0.00000000000000000000e+000) (0, 0, 0.00000000000000000000e+000) (0, 0, 0.00000000000000000000e+000) (0, 0, 0.00000000000000000000e+000) (0, 0, 0.00000000000000000000e+000) (0, 0, 0.00000000000000000000e+000) (0, 0, 0.00000000000000000000e+000) (0, 0, 0.00000000000000000000e+000) (0, 0, 0.00000000000000000000e+000) (0, 0, 0.00000000000000000000e+000) (0, 0, 0.00000000000000000000e+000) (0, 0, 0.00000000000000000000e+000) (0, 0, 0.00000000000000000000e+000) (0, 0, 0.00000000000000000000e+000) (0, 0, 0.00000000000000000000e+000) (0, 0, 0.00000000000000000000e+000) (0, 0, 0.00000000000000000000e+000) (0, 0, 0.00000000000000000000e+000) (0, 0, 0.00000000000000000000e+000) (0, 0, 0.00000000000000000000e+000) (0, 0, 0.00000000000000000000e+000) (0, 0, 0.00000000000000000000e+000) (0, 0, 0.00000000000000000000e+000) (0, 0, 0.00000000000000000000e+000) (0, 0, 0.00000000000000000000e+000) (0, 0, 0.00000000000000000000e+000) (0, 0, 0.00000000000000000000e+000) (0, 0, 0.00000000000000000000e+000) (0, 0, 0.00000000000000000000e+000) (0, 0, 0.00000000000000000000e+000) (0, 0, 0.00000000000000000000e+000) (0, 0, 0.00000000000000000000e+000) (0, 0, 0.00000000000000000000e+000) (0, 0, 0.00000000000000000000e+000) (0, 0, 0.00000000000000000000e+000) (0, 0, 0.00000000000000000000e+000) (0, 0, 0.00000000000000000000e+000) (0, 0, 0.00000000000000000000e+000) (0, 0, 0.00000000000000000000e+000) (0, 0, 0.00000000000000000000e+000) (85, 6, 1.00000000000000000000e+000) (85, 6, 1.00000000000000000000e+000) (85, 6, 1.00000000000000000000e+000) (85, 6, 1.00000000000000000000e+000) (85, 6, 1.00000000000000000000e+000) (85, 6, 1.00000000000000000000e+000) (85, 6, 1.00000000000000000000e+000) (85, 6, 1.00000000000000000000e+000) (85, 6, 1.00000000000000000000e+000) (85, 6, 1.00000000000000000000e+000) (85, 6, 1.00000000000000000000e+000) (85, 6, 1.00000000000000000000e+000) (85, 6, 1.00000000000000000000e+000) (85, 6, 1.00000000000000000000e+000) (85, 6, 1.00000000000000000000e+000) (85, 6, 1.00000000000000000000e+000) (85, 6, 1.00000000000000000000e+000) (85, 6, 1.00000000000000000000e+000) (85, 6, 1.00000000000000000000e+000) (85, 6, 1.00000000000000000000e+000) (85, 6, 1.00000000000000000000e+000) (85, 6, 1.00000000000000000000e+000) (85, 6, 1.00000000000000000000e+000) (85, 6, 1.00000000000000000000e+000) (85, 6, 1.00000000000000000000e+000) (85, 6, 1.00000000000000000000e+000) (85, 6, 1.00000000000000000000e+000) (85, 6, 1.00000000000000000000e+000) (85, 6, 1.00000000000000000000e+000) (85, 6, 1.00000000000000000000e+000) (85, 6, 1.00000000000000000000e+000) (85, 6, 1.00000000000000000000e+000) (85, 6, 1.00000000000000000000e+000) (85, 6, 1.00000000000000000000e+000) (85, 6, 1.00000000000000000000e+000) (85, 6, 1.00000000000000000000e+000) (85, 6, 1.00000000000000000000e+000) (85, 6, 1.00000000000000000000e+000) (85, 6, 1.00000000000000000000e+000) (85, 6, 1.00000000000000000000e+000) (85, 6, 1.00000000000000000000e+000) (85, 6, 1.00000000000000000000e+000) (85, 6, 1.00000000000000000000e+000) (85, 6, 1.00000000000000000000e+000) (85, 6, 1.00000000000000000000e+000) (85, 6, 1.00000000000000000000e+000) (85, 6, 1.00000000000000000000e+000) (85, 6, 1.00000000000000000000e+000) (85, 6, 1.00000000000000000000e+000) (85, 6, 1.00000000000000000000e+000) (85, 6, 1.00000000000000000000e+000) (85, 6, 1.00000000000000000000e+000) (85, 6, 1.00000000000000000000e+000) (85, 6, 1.00000000000000000000e+000) (85, 6, 1.00000000000000000000e+000) (85, 6, 1.00000000000000000000e+000) (85, 6, 1.00000000000000000000e+000) (85, 6, 1.00000000000000000000e+000) (85, 6, 1.00000000000000000000e+000) (85, 6, 1.00000000000000000000e+000) (85, 6, 1.00000000000000000000e+000) (85, 6, 1.00000000000000000000e+000) (85, 6, 1.00000000000000000000e+000) (85, 6, 1.00000000000000000000e+000) (85, 6, 1.00000000000000000000e+000) (85, 6, 1.00000000000000000000e+000) (85, 6, 1.00000000000000000000e+000) (85, 6, 1.00000000000000000000e+000) (85, 6, 1.00000000000000000000e+000) (85, 6, 1.00000000000000000000e+000) (85, 6, 1.00000000000000000000e+000) (85, 6, 1.00000000000000000000e+000) (85, 6, 1.00000000000000000000e+000) (85, 6, 1.00000000000000000000e+000) (85, 6, 1.00000000000000000000e+000) (85, 6, 1.00000000000000000000e+000) (85, 6, 1.00000000000000000000e+000) (85, 6, 1.00000000000000000000e+000) (85, 6, 1.00000000000000000000e+000) (85, 6, 1.00000000000000000000e+000) (0, 6, 1.00000000000000000000e+000) (81, 6, 1.00000000000000000000e+000) (0, 6, 1.00000000000000000000e+000) 
connections (connected_to_neuron, weight)=(0, -1.18016466498374940000e-001) (1, 1.33716762065887450000e-001) (2, 1.01043403148651120000e-001) (3, -2.66502320766448970000e-001) (4, 4.08450692892074580000e-001) (5, 1.21931778267025950000e-002) (6, 6.64063915610313420000e-002) (7, 1.68228030204772950000e-001) (8, 4.13222074508666990000e-001) (9, -6.99840812012553220000e-003) (10, 1.23334936797618870000e-001) (11, -2.32256352901458740000e-001) (12, -1.39414712786674500000e-001) (13, 9.36667919158935550000e-002) (14, -2.69343227148056030000e-001) (15, 1.85855086892843250000e-002) (16, -2.56140828132629390000e-002) (17, 3.98983135819435120000e-002) (18, -4.07167196273803710000e-001) (19, 6.03339314460754390000e-001) (20, -1.45092964172363280000e-001) (21, 2.07536742091178890000e-001) (22, -3.86703133583068850000e-001) (23, 6.40081167221069340000e-001) (24, -1.71538405120372770000e-002) (25, 3.02075482904911040000e-002) (26, -2.60717302560806270000e-001) (27, 6.36999160051345830000e-002) (28, -2.58817952126264570000e-002) (29, -2.14593902230262760000e-001) (30, -1.32689923048019410000e-001) (31, -2.72436980158090590000e-002) (32, -3.47824692726135250000e-001) (33, 3.42242330312728880000e-001) (34, -1.16859804838895800000e-002) (35, 5.08917830884456630000e-002) (36, -3.89251828193664550000e-001) (37, 3.44313323497772220000e-001) (38, -1.22873470187187190000e-001) (39, -2.13616099208593370000e-002) (40, -3.35045941174030300000e-002) (41, -1.84990912675857540000e-001) (42, 4.12440765649080280000e-003) (43, 3.43705490231513980000e-002) (44, 5.64038346055895090000e-004) (45, 1.82939633727073670000e-001) (46, -3.00057679414749150000e-001) (47, -3.29460725188255310000e-002) (48, -1.16355977952480320000e-001) (49, 5.49237690865993500000e-002) (50, -3.22232663631439210000e-001) (51, -3.82242426276206970000e-002) (52, -2.61824596673250200000e-002) (53, 1.86620816588401790000e-001) (54, 1.72932464629411700000e-002) (55, 7.70731717348098750000e-002) (56, -5.95547892153263090000e-002) (57, 2.05144658684730530000e-001) (58, -1.78904421627521510000e-002) (59, 2.29026734828948970000e-001) (60, -9.92140397429466250000e-002) (61, 7.46602416038513180000e-002) (62, -7.46664479374885560000e-002) (63, -1.22575759887695310000e-001) (64, -1.24068506062030790000e-001) (65, 4.01055179536342620000e-002) (66, -4.88615781068801880000e-002) (67, 2.53025233745574950000e-001) (68, -4.09133322536945340000e-002) (69, 2.20497667789459230000e-001) (70, 6.25852216035127640000e-003) (71, 3.97687256336212160000e-002) (72, -1.66781634092330930000e-001) (73, 2.02637970447540280000e-001) (74, -6.98052123188972470000e-002) (75, 1.18348062038421630000e-001) (76, 7.45518878102302550000e-002) (77, 3.41880731284618380000e-002) (78, -9.06024053692817690000e-002) (79, 9.52027663588523860000e-002) (80, -1.86227202415466310000e-001) (81, 1.91983282566070560000e-001) (82, 2.32329592108726500000e-002) (83, 6.24655222054570910000e-004) (84, -9.75803211331367490000e-002) (0, 1.13753810524940490000e-001) (1, 8.67890864610672000000e-002) (2, -4.32402864098548890000e-002) (3, -6.69319406151771550000e-002) (4, -6.29313588142395020000e-002) (5, 5.62572740018367770000e-002) (6, -1.06307253241539000000e-001) (7, 1.75336465239524840000e-001) (8, 1.32139772176742550000e-002) (9, 1.23843938112258910000e-001) (10, -8.25724750757217410000e-002) (11, 1.57913491129875180000e-002) (12, -3.08176339603960510000e-003) (13, 1.54185891151428220000e-001) (14, -1.44838318228721620000e-001) (15, 3.73966731131076810000e-002) (16, 4.73425015807151790000e-002) (17, 7.52951502799987790000e-002) (18, -1.41943059861660000000e-002) (19, -7.49121010303497310000e-002) (20, -3.76652814447879790000e-002) (21, -2.61844515800476070000e-001) (22, -5.45241124927997590000e-002) (23, -5.25905378162860870000e-002) (24, 8.80158692598342900000e-002) (25, -6.20385780930519100000e-002) (26, -1.48219674825668330000e-001) (27, 5.70296980440616610000e-002) (28, -3.53733263909816740000e-002) (29, -4.59989458322525020000e-002) (30, 2.17745736241340640000e-001) (31, 2.96939499676227570000e-002) (32, -6.39143064618110660000e-002) (33, -2.03616637736558910000e-002) (34, 1.39363795518875120000e-001) (35, 9.44608747959136960000e-002) (36, -4.23898808658123020000e-002) (37, -1.26973576843738560000e-002) (38, 1.14208877086639400000e-001) (39, -6.10482208430767060000e-002) (40, -1.35485962033271790000e-001) (41, -1.07966244220733640000e-001) (42, 6.83393329381942750000e-002) (43, 1.31623312830924990000e-001) (44, 2.99469456076622010000e-002) (45, 3.50621566176414490000e-002) (46, 5.43089732527732850000e-002) (47, 6.84464648365974430000e-002) (48, 4.66756857931613920000e-002) (49, -8.30990299582481380000e-002) (50, 5.89669719338417050000e-002) (51, 9.02243852615356450000e-002) (52, 2.84890364855527880000e-002) (53, -3.07159707881510260000e-003) (54, 2.18735984526574610000e-003) (55, 9.46784541010856630000e-002) (56, -7.05325677990913390000e-002) (57, 9.52514931559562680000e-002) (58, -6.45712539553642270000e-002) (59, -8.88440385460853580000e-003) (60, -8.01238417625427250000e-002) (61, 2.72469278424978260000e-002) (62, -1.20263591408729550000e-001) (63, -2.25899592041969300000e-002) (64, -7.00955688953399660000e-002) (65, 2.37695965915918350000e-002) (66, -6.62489756941795350000e-002) (67, -8.69048163294792180000e-002) (68, -1.45648002624511720000e-001) (69, 2.15463861823081970000e-002) (70, 5.79039528965950010000e-002) (71, 9.79034751653671260000e-002) (72, -1.93539671599864960000e-002) (73, -4.31599207222461700000e-002) (74, 1.96005385369062420000e-002) (75, -1.63969211280345920000e-002) (76, 7.89740085601806640000e-002) (77, 1.72264665365219120000e-001) (78, 6.12745285034179690000e-002) (79, 1.03942081332206730000e-001) (80, -8.11885744333267210000e-002) (81, 4.67420322820544240000e-004) (82, -8.24720934033393860000e-002) (83, 1.73226520419120790000e-002) (84, -4.18345145881175990000e-002) (0, 4.69818681478500370000e-001) (1, 4.70953285694122310000e-002) (2, 1.05960696935653690000e-001) (3, 1.76925271749496460000e-001) (4, 4.50302928686141970000e-001) (5, 7.70303457975387570000e-002) (6, 4.07048672437667850000e-001) (7, 3.23367230594158170000e-002) (8, 4.53837871551513670000e-001) (9, 8.32704454660415650000e-002) (10, 9.13848727941513060000e-002) (11, 1.55903056263923650000e-001) (12, 5.01994788646698000000e-001) (13, 6.45591467618942260000e-002) (14, 1.67035177350044250000e-001) (15, -8.98132547736167910000e-002) (16, 1.72082886099815370000e-001) (17, 2.59082853794097900000e-001) (18, 1.39644056558609010000e-001) (19, 7.71242305636405940000e-002) (20, 3.61270159482955930000e-001) (21, -3.68003904819488530000e-001) (22, 1.47677898406982420000e-001) (23, 7.14131966233253480000e-002) (24, 1.49525955319404600000e-001) (25, 2.61220037937164310000e-001) (26, 1.50199443101882930000e-001) (27, -7.48782902956008910000e-002) (28, 2.07939352840185170000e-002) (29, 3.24318706989288330000e-001) (30, 7.36397281289100650000e-002) (31, 2.98510104417800900000e-001) (32, -2.53526896238327030000e-001) (33, 7.83044576644897460000e-001) (34, -6.46362528204917910000e-002) (35, 1.55244886875152590000e-001) (36, -2.70680725574493410000e-001) (37, 7.83794879913330080000e-001) (38, 6.36469945311546330000e-002) (39, 2.88612842559814450000e-001) (40, 1.85861866921186450000e-002) (41, 3.10395270586013790000e-001) (42, -2.17576891183853150000e-001) (43, 2.41305440664291380000e-001) (44, -1.67746081948280330000e-001) (45, -1.05991967022418980000e-001) (46, 2.64684736728668210000e-001) (47, -4.83073174953460690000e-001) (48, 5.09954281151294710000e-002) (49, -8.05179774761199950000e-001) (50, 2.65514522790908810000e-001) (51, -4.79331165552139280000e-001) (52, -1.71467304229736330000e-001) (53, -1.00839249789714810000e-001) (54, -2.32843071222305300000e-001) (55, 2.54691064357757570000e-001) (56, -2.45013106614351270000e-002) (57, 2.59415835142135620000e-001) (58, 3.05544376373291020000e-001) (59, 1.51495158672332760000e-001) (60, 1.80674925446510310000e-001) (61, 5.71527302265167240000e-001) (62, 1.43296137452125550000e-001) (63, 5.74408888816833500000e-001) (64, 1.74507692456245420000e-001) (65, 5.82766532897949220000e-001) (66, 3.19158524274826050000e-001) (67, 1.48485139012336730000e-001) (68, -3.26216779649257660000e-002) (69, 2.60166376829147340000e-001) (70, 2.00847879052162170000e-001) (71, 9.07470360398292540000e-002) (72, -3.10886874794960020000e-002) (73, 6.45419731736183170000e-002) (74, -6.16873353719711300000e-002) (75, -7.39205405116081240000e-002) (76, -4.18544411659240720000e-001) (77, -3.18880468606948850000e-001) (78, -8.01236703991889950000e-002) (79, -9.21019613742828370000e-002) (80, -1.78976338356733320000e-002) (81, 4.80869375169277190000e-002) (82, 1.91391289234161380000e-001) (83, 1.04528047144412990000e-001) (84, -8.07102024555206300000e-001) (0, 2.85976380109786990000e-001) (1, -5.17850458621978760000e-001) (2, 3.33913177251815800000e-001) (3, -3.54977428913116460000e-001) (4, 1.04329539462924000000e-002) (5, 9.22448560595512390000e-002) (6, 9.33358632028102870000e-003) (7, 1.24507397413253780000e-001) (8, 7.07023823633790020000e-003) (9, 8.56983289122581480000e-002) (10, 3.08816164731979370000e-001) (11, -4.16842967271804810000e-001) (12, 2.93088734149932860000e-001) (13, -3.43873888254165650000e-001) (14, 3.36360633373260500000e-001) (15, -3.87100517749786380000e-001) (16, 1.85854006558656690000e-002) (17, -9.09118056297302250000e-002) (18, -1.24372437596321110000e-001) (19, -1.17561191320419310000e-001) (20, -1.75611719489097600000e-001) (21, 7.31447860598564150000e-002) (22, -3.31199951469898220000e-002) (23, 1.17962323129177090000e-002) (24, 2.11355723440647130000e-002) (25, -1.25207528471946720000e-001) (26, 3.80511015653610230000e-001) (27, -3.78527104854583740000e-001) (28, -2.17370595782995220000e-002) (29, 4.56735715270042420000e-002) (30, 4.73218485713005070000e-002) (31, 2.22493976354599000000e-001) (32, -4.79191951453685760000e-002) (33, 2.72489320486783980000e-002) (34, -1.28706932067871090000e-001) (35, 3.31877857446670530000e-001) (36, -2.07030903548002240000e-002) (37, 1.00270591676235200000e-001) (38, 4.61504086852073670000e-002) (39, 1.58523991703987120000e-001) (40, -3.79094183444976810000e-002) (41, 9.52885597944259640000e-002) (42, 1.16977758705616000000e-001) (43, -1.79608911275863650000e-001) (44, -1.85532107949256900000e-001) (45, -3.11640743166208270000e-002) (46, 3.46925072371959690000e-002) (47, 2.78361916542053220000e-001) (48, -1.40129536390304570000e-001) (49, -1.80928260087966920000e-002) (50, 6.56553581357002260000e-002) (51, 3.27085137367248540000e-001) (52, -2.61261016130447390000e-001) (53, 5.08330808952450750000e-003) (54, 8.26050266623497010000e-002) (55, -1.32626578211784360000e-001) (56, 1.58273652195930480000e-002) (57, 3.80005016922950740000e-002) (58, -1.32480874657630920000e-001) (59, 8.30760598182678220000e-002) (60, -1.19210094213485720000e-001) (61, 7.91567489504814150000e-002) (62, -1.54441431164741520000e-001) (63, 1.48978099226951600000e-001) (64, -2.16479995287954810000e-003) (65, 1.40174835920333860000e-001) (66, -2.36912637948989870000e-001) (67, 6.12109228968620300000e-002) (68, 2.77796164155006410000e-002) (69, 1.70251224189996720000e-002) (70, -1.79133579134941100000e-001) (71, 9.63772684335708620000e-002) (72, -9.30284634232521060000e-002) (73, 8.88942852616310120000e-002) (74, -1.00167773663997650000e-001) (75, -4.81122694909572600000e-002) (76, -7.45875388383865360000e-002) (77, -8.78107324242591860000e-002) (78, -1.19318516226485370000e-004) (79, 1.05457797646522520000e-001) (80, -5.87366186082363130000e-002) (81, 4.58135977387428280000e-002) (82, -6.90836831927299500000e-002) (83, 3.69788855314254760000e-002) (84, -3.74223142862319950000e-002) (0, -4.04029451310634610000e-002) (1, -1.29712745547294620000e-001) (2, -7.08576813340187070000e-002) (3, 2.58280277252197270000e-001) (4, -1.42630357295274730000e-002) (5, 1.08824543654918670000e-001) (6, 2.63512462377548220000e-001) (7, -1.46850571036338810000e-001) (8, 4.29491549730300900000e-002) (9, 2.03358918428421020000e-001) (10, 2.69749369472265240000e-002) (11, 2.03056991100311280000e-001) (12, -4.88725788891315460000e-002) (13, -1.21863245964050290000e-001) (14, 1.69749595224857330000e-002) (15, -1.78053677082061770000e-001) (16, -1.68801173567771910000e-001) (17, 8.59631523489952090000e-002) (18, 3.51559668779373170000e-002) (19, -7.63865113258361820000e-002) (20, -1.67801350355148320000e-001) (21, 9.68000739812850950000e-002) (22, 4.97837588191032410000e-002) (23, -7.96645581722259520000e-002) (24, -3.05671960115432740000e-001) (25, -1.43512887880206110000e-002) (26, -3.50522510707378390000e-002) (27, -1.57913684844970700000e-001) (28, 6.73435106873512270000e-002) (29, -2.58914269506931300000e-002) (30, -3.70405390858650210000e-002) (31, 6.83041960000991820000e-002) (32, 1.27684161067008970000e-001) (33, 4.33489419519901280000e-002) (34, -7.10957646369934080000e-002) (35, 1.52469411492347720000e-001) (36, 1.21250510215759280000e-001) (37, 1.15241352468729020000e-002) (38, -1.52779027819633480000e-001) (39, 7.16966390609741210000e-002) (40, 2.80619412660598750000e-003) (41, -3.01346573978662490000e-002) (42, 1.10985361039638520000e-001) (43, 1.07449673116207120000e-001) (44, 1.12500347197055820000e-001) (45, 1.88123807311058040000e-002) (46, -8.42677354812622070000e-002) (47, -1.39338463544845580000e-001) (48, 1.06612674891948700000e-001) (49, -1.04328885674476620000e-001) (50, -1.51898153126239780000e-002) (51, -9.99239161610603330000e-002) (52, 4.06452901661396030000e-002) (53, 4.61102500557899480000e-002) (54, 9.95304733514785770000e-002) (55, 1.16956599056720730000e-001) (56, -9.24507975578308110000e-002) (57, 1.38726336881518360000e-002) (58, 4.40936535596847530000e-002) (59, -9.23363566398620610000e-002) (60, -3.02481874823570250000e-002) (61, -3.03943511098623280000e-002) (62, 2.81490162014961240000e-002) (63, -2.04357996582984920000e-001) (64, 1.25352665781974790000e-001) (65, 5.83957834169268610000e-003) (66, 2.73171421140432360000e-002) (67, -1.23701252043247220000e-001) (68, -1.14685222506523130000e-001) (69, 1.48679772391915320000e-002) (70, 1.52661809697747230000e-002) (71, -8.61938968300819400000e-002) (72, -2.65360660851001740000e-002) (73, -1.24490477144718170000e-001) (74, -3.52779291570186610000e-002) (75, -1.70278642326593400000e-002) (76, 5.48032820224761960000e-002) (77, 6.76471889019012450000e-002) (78, 6.54017999768257140000e-002) (79, 5.10092638432979580000e-002) (80, 8.27076658606529240000e-003) (81, -5.40069602429866790000e-002) (82, 4.70953807234764100000e-003) (83, -7.83669427037239070000e-002) (84, 1.29354104399681090000e-001) (0, 1.07212342321872710000e-001) (1, 3.40154059231281280000e-002) (2, 1.60724520683288570000e-002) (3, -1.01042784750461580000e-001) (4, 1.36156812310218810000e-001) (5, 7.98938609659671780000e-003) (6, -3.77231001853942870000e-001) (7, 4.03788775205612180000e-001) (8, 1.02212570607662200000e-001) (9, 6.44898638129234310000e-002) (10, 9.20670777559280400000e-002) (11, -3.36660481989383700000e-002) (12, 7.76899755001068120000e-002) (13, 1.70132461935281750000e-002) (14, 5.79877905547618870000e-002) (15, -3.06821137666702270000e-001) (16, 1.37996941804885860000e-001) (17, -2.09123075008392330000e-001) (18, 1.03614524006843570000e-001) (19, 1.68186828494071960000e-001) (20, 3.70736420154571530000e-002) (21, 1.05372585356235500000e-001) (22, 1.12020753324031830000e-001) (23, 1.14786364138126370000e-001) (24, 1.55582576990127560000e-001) (25, -1.76688611507415770000e-001) (26, 1.02558776736259460000e-001) (27, -2.55834221839904790000e-001) (28, 1.13722994923591610000e-001) (29, -4.73756715655326840000e-002) (30, 2.49920845031738280000e-001) (31, -4.23459969460964200000e-002) (32, -3.64859580993652340000e-001) (33, -6.43103197216987610000e-002) (34, -1.10356539487838750000e-001) (35, -1.56914085149765010000e-001) (36, -2.66980946063995360000e-001) (37, -4.22982312738895420000e-003) (38, 1.91014572978019710000e-001) (39, -1.09580948948860170000e-001) (40, 1.77317574620246890000e-001) (41, 2.56982259452342990000e-002) (42, 1.20098583400249480000e-001) (43, 1.43443718552589420000e-001) (44, -9.90105271339416500000e-002) (45, 2.62026600539684300000e-002) (46, -2.73985061794519420000e-002) (47, 1.48246422410011290000e-001) (48, 1.67991355061531070000e-001) (49, 2.40221932530403140000e-001) (50, 7.30356499552726750000e-002) (51, 2.94198155403137210000e-001) (52, -6.93242028355598450000e-002) (53, -3.08137219399213790000e-002) (54, 1.70912191271781920000e-001) (55, 1.79184958338737490000e-001) (56, -1.72263681888580320000e-001) (57, -9.61431711912155150000e-002) (58, -1.27534210681915280000e-001) (59, 1.07058048248291020000e-001) (60, -2.38422930240631100000e-001) (61, 5.42436540126800540000e-002) (62, -3.57447504997253420000e-001) (63, -1.60583898425102230000e-001) (64, -1.43782153725624080000e-001) (65, 2.34432637691497800000e-001) (66, -1.59406810998916630000e-001) (67, 4.24784421920776370000e-002) (68, -1.27642884850502010000e-001) (69, -3.75314801931381230000e-002) (70, 7.66063258051872250000e-002) (71, -3.80104384385049340000e-003) (72, -1.42087906599044800000e-001) (73, 1.08231164515018460000e-001) (74, -1.19417384266853330000e-001) (75, 1.39816035516560080000e-003) (76, 2.78422962874174120000e-002) (77, 4.90402430295944210000e-001) (78, -1.03883780539035800000e-001) (79, 9.08519402146339420000e-002) (80, -1.76273956894874570000e-001) (81, 1.19978770613670350000e-001) (82, 1.02981515228748320000e-002) (83, -7.72119164466857910000e-002) (84, -9.32050049304962160000e-002) (0, 2.83100515604019170000e-001) (1, 1.06128323823213580000e-002) (2, 3.90340900048613550000e-003) (3, -2.37551912665367130000e-001) (4, 1.47023171186447140000e-001) (5, 6.22031725943088530000e-002) (6, 1.66309356689453130000e-001) (7, -1.00724883377552030000e-001) (8, 1.32401108741760250000e-001) (9, -2.62353923171758650000e-002) (10, -5.38700185716152190000e-002) (11, -1.95968881249427800000e-001) (12, 2.59388625621795650000e-001) (13, -7.93826505541801450000e-002) (14, 4.70541834831237790000e-001) (15, -2.06357419490814210000e-001) (16, 1.03097774088382720000e-001) (17, -1.43011659383773800000e-001) (18, 8.31732675433158870000e-002) (19, -1.97049155831336980000e-001) (20, 1.22717648744583130000e-001) (21, 7.25915729999542240000e-002) (22, 6.97096064686775210000e-002) (23, -2.55795866250991820000e-001) (24, 1.00005067884922030000e-001) (25, -1.18241272866725920000e-001) (26, 3.93063217401504520000e-001) (27, -2.31678351759910580000e-001) (28, -6.44251555204391480000e-002) (29, 2.24547028541564940000e-001) (30, 4.00322414934635160000e-002) (31, 1.77203658968210220000e-002) (32, 1.14602290093898770000e-001) (33, 2.42252856492996220000e-001) (34, -1.37687936425209050000e-001) (35, 1.14617049694061280000e-001) (36, -3.18592637777328490000e-002) (37, 1.80549934506416320000e-001) (38, 7.45162814855575560000e-002) (39, 4.83118183910846710000e-002) (40, -1.67164161801338200000e-001) (41, 1.88314303755760190000e-001) (42, -8.96416530013084410000e-002) (43, 2.45106257498264310000e-002) (44, -6.15023523569107060000e-002) (45, -2.62868572026491170000e-002) (46, 7.45683014392852780000e-002) (47, 6.67594373226165770000e-002) (48, -2.42098778486251830000e-001) (49, 2.37798620946705340000e-003) (50, -6.53995424509048460000e-002) (51, -3.94749566912651060000e-002) (52, 4.34854673221707340000e-003) (53, -1.09155848622322080000e-002) (54, -7.67018785700201990000e-003) (55, 3.95094929262995720000e-003) (56, -1.22707277536392210000e-001) (57, 1.96298822760581970000e-001) (58, 6.78884563967585560000e-003) (59, 1.47527545690536500000e-001) (60, -1.22630581259727480000e-001) (61, 1.23777933418750760000e-001) (62, -1.25885203480720520000e-001) (63, 1.62841290235519410000e-001) (64, -2.99042701721191410000e-001) (65, -9.40899401903152470000e-002) (66, 2.06299889832735060000e-002) (67, 1.89841687679290770000e-001) (68, -1.63205683231353760000e-001) (69, 1.21568381786346440000e-001) (70, -1.70360907912254330000e-001) (71, -7.20455199480056760000e-002) (72, -5.08495718240737920000e-002) (73, 9.49740409851074220000e-002) (74, -5.34366965293884280000e-002) (75, 1.49505674839019780000e-001) (76, -1.74878656864166260000e-001) (77, 2.79891520738601680000e-001) (78, -1.90042853355407710000e-001) (79, 8.72709751129150390000e-002) (80, -1.09379515051841740000e-002) (81, 1.06253556907176970000e-001) (82, -1.10484175384044650000e-001) (83, 7.94011447578668590000e-003) (84, -9.65457707643508910000e-002) (0, -1.20131373405456540000e-001) (1, 1.84575058519840240000e-002) (2, -3.83709408342838290000e-002) (3, -2.32426747679710390000e-001) (4, -3.08393537998199460000e-001) (5, -1.42730221152305600000e-001) (6, -1.08870398253202440000e-002) (7, 4.53156344592571260000e-002) (8, -1.92289516329765320000e-001) (9, -1.52805343270301820000e-001) (10, -2.33876351267099380000e-002) (11, -2.50400930643081670000e-001) (12, 6.44833520054817200000e-002) (13, 3.52859944105148320000e-002) (14, -1.47202655673027040000e-001) (15, 1.85871317982673650000e-001) (16, 3.21101956069469450000e-002) (17, 1.60107448697090150000e-001) (18, 4.22538146376609800000e-002) (19, 1.58643022179603580000e-001) (20, 1.21668688952922820000e-001) (21, 1.00774029269814490000e-002) (22, -2.71122604608535770000e-002) (23, 1.76421850919723510000e-001) (24, 9.57476627081632610000e-003) (25, 9.76909026503562930000e-002) (26, -1.94184988737106320000e-001) (27, 1.36836320161819460000e-001) (28, -6.23427554965019230000e-002) (29, -3.11728529632091520000e-002) (30, 1.87760367989540100000e-002) (31, 6.62097334861755370000e-002) (32, -1.16595983505249020000e-001) (33, 1.90713424235582350000e-002) (34, -1.36877417564392090000e-001) (35, -5.75547851622104640000e-002) (36, -1.12625092267990110000e-001) (37, 3.81002798676490780000e-002) (38, -1.04572344571352010000e-002) (39, 6.37847408652305600000e-002) (40, -1.10915802419185640000e-001) (41, -6.90000057220458980000e-002) (42, 7.31531158089637760000e-002) (43, 1.53834402561187740000e-001) (44, 1.75313707441091540000e-002) (45, -4.95094060897827150000e-002) (46, 3.70899811387062070000e-002) (47, 5.58205433189868930000e-002) (48, -8.66547375917434690000e-002) (49, 2.83998399972915650000e-001) (50, 1.14005573093891140000e-001) (51, 1.24567463994026180000e-001) (52, -7.44628906250000000000e-002) (53, -8.38759765028953550000e-002) (54, 1.89369283616542820000e-002) (55, 1.05421893298625950000e-001) (56, 2.41449568420648570000e-002) (57, 2.28529367595911030000e-002) (58, -8.65879002958536150000e-003) (59, 7.72894024848937990000e-002) (60, -1.69685736298561100000e-001) (61, -7.37831816077232360000e-002) (62, -2.02221274375915530000e-001) (63, -8.82104188203811650000e-002) (64, -1.05226598680019380000e-001) (65, -7.65689369291067120000e-003) (66, -6.66190311312675480000e-002) (67, 1.03992603719234470000e-001) (68, -1.25619351863861080000e-001) (69, -1.22454017400741580000e-002) (70, 7.00674206018447880000e-002) (71, 4.86345924437046050000e-002) (72, -3.16227078437805180000e-002) (73, 1.05597265064716340000e-001) (74, 1.33494073525071140000e-002) (75, 1.14641167223453520000e-001) (76, 1.48974105715751650000e-001) (77, 1.21362954378128050000e-001) (78, 9.62004810571670530000e-003) (79, 1.68748557567596440000e-001) (80, -1.96188017725944520000e-002) (81, 5.78628517687320710000e-002) (82, -2.08832230418920520000e-002) (83, 1.59308329224586490000e-001) (84, -3.10658782720565800000e-001) (0, -4.29483987390995030000e-002) (1, -5.00265471637248990000e-002) (2, -3.12637910246849060000e-002) (3, -9.61646363139152530000e-002) (4, 4.77294139564037320000e-002) (5, 5.84755763411521910000e-002) (6, 3.08214902877807620000e-001) (7, -3.37364017963409420000e-001) (8, 9.02875363826751710000e-002) (9, 3.58514338731765750000e-002) (10, 1.47371422499418260000e-002) (11, -2.90206242352724080000e-002) (12, -1.22091054916381840000e-001) (13, -1.06866978108882900000e-001) (14, 1.93383947014808650000e-001) (15, -1.06058903038501740000e-001) (16, 1.57626643776893620000e-002) (17, 6.49200230836868290000e-002) (18, 2.19704657793045040000e-001) (19, -8.14069733023643490000e-002) (20, 1.20628923177719120000e-001) (21, -6.19938932359218600000e-002) (22, 1.71122893691062930000e-001) (23, -1.65670633316040040000e-001) (24, -2.42494908161461350000e-003) (25, 6.70476853847503660000e-002) (26, 1.90220877528190610000e-001) (27, -5.46409301459789280000e-002) (28, -1.15435428917407990000e-001) (29, 1.17882750928401950000e-001) (30, -3.87968160212039950000e-002) (31, 2.41049267351627350000e-002) (32, -1.14209443330764770000e-001) (33, -1.41137152910232540000e-001) (34, 1.97063982486724850000e-001) (35, -8.27324390411376950000e-002) (36, -7.65238106250762940000e-002) (37, -1.45986333489418030000e-001) (38, -9.29767563939094540000e-002) (39, -6.92548081278800960000e-002) (40, -8.52408930659294130000e-002) (41, 1.73474490642547610000e-001) (42, -5.09603582322597500000e-002) (43, 9.98267456889152530000e-002) (44, 7.69245028495788570000e-002) (45, -2.10655793547630310000e-001) (46, 2.06674218177795410000e-001) (47, -6.98850303888320920000e-002) (48, 1.10659703612327580000e-001) (49, -2.66709327697753910000e-001) (50, 2.14254140853881840000e-001) (51, -5.17485961318016050000e-002) (52, 8.00198540091514590000e-002) (53, -2.86764889955520630000e-001) (54, -1.37870058417320250000e-001) (55, 2.89918575435876850000e-002) (56, -6.51596710085868840000e-002) (57, -9.86583307385444640000e-002) (58, 1.29322394728660580000e-001) (59, -4.45025712251663210000e-002) (60, 8.26666802167892460000e-002) (61, -2.63028949499130250000e-001) (62, 3.56805413961410520000e-001) (63, 3.99900116026401520000e-002) (64, 7.77794569730758670000e-002) (65, -1.91587701439857480000e-001) (66, 1.40588819980621340000e-001) (67, -5.52727580070495610000e-002) (68, -7.70542174577713010000e-002) (69, -1.02492555975914000000e-001) (70, 1.07454091310501100000e-001) (71, 1.32027700543403630000e-001) (72, 1.21527276933193210000e-001) (73, -8.12472105026245120000e-002) (74, 2.09607124328613280000e-001) (75, -1.14824615418910980000e-001) (76, -1.21743954718112950000e-001) (77, -3.92799824476242070000e-001) (78, 2.96056389808654790000e-001) (79, -9.19556021690368650000e-002) (80, 1.47742152214050290000e-001) (81, -8.78082513809204100000e-002) (82, 7.87424147129058840000e-002) (83, 1.64686501026153560000e-001) (84, 1.78657714277505870000e-002) (0, -4.01483178138732910000e-001) (1, 3.08892339468002320000e-001) (2, 2.81731426715850830000e-001) (3, -3.60408872365951540000e-001) (4, -2.84822024405002590000e-002) (5, -3.17978002130985260000e-002) (6, 3.39060455560684200000e-001) (7, -6.05934783816337590000e-002) (8, -1.40525633469223980000e-004) (9, 3.50766703486442570000e-002) (10, 2.54717737436294560000e-001) (11, -4.10704404115676880000e-001) (12, -3.47300231456756590000e-001) (13, 3.63554149866104130000e-001) (14, -3.21997225284576420000e-001) (15, 2.75320708751678470000e-002) (16, 2.46252983808517460000e-001) (17, -2.33322948217391970000e-001) (18, -6.14683628082275390000e-002) (19, -9.22284200787544250000e-002) (20, 6.33086413145065310000e-002) (21, 1.00161023437976840000e-001) (22, -6.22623637318611150000e-002) (23, -1.30148306488990780000e-001) (24, 2.53473967313766480000e-001) (25, -1.87273696064949040000e-001) (26, -2.99861639738082890000e-001) (27, 7.19957053661346440000e-002) (28, -8.77893250435590740000e-003) (29, -7.86245018243789670000e-002) (30, 7.33669707551598550000e-003) (31, -4.08083898946642880000e-003) (32, 1.90708339214324950000e-002) (33, 8.91791880130767820000e-002) (34, 2.78620999306440350000e-002) (35, 1.70723587274551390000e-001) (36, 3.40276621282100680000e-002) (37, 1.21946014463901520000e-001) (38, 2.19388566911220550000e-002) (39, 1.09156537801027300000e-002) (40, 6.89410716295242310000e-002) (41, -2.78217643499374390000e-002) (42, 1.62636682391166690000e-001) (43, -7.59590044617652890000e-002) (44, 1.34358435869216920000e-001) (45, -9.17353630065917970000e-002) (46, -9.77312400937080380000e-002) (47, 4.16225492954254150000e-002) (48, -1.60932779312133790000e-001) (49, 5.15813864767551420000e-002) (50, -1.01066567003726960000e-001) (51, 1.33076742291450500000e-001) (52, 1.19690224528312680000e-001) (53, -1.10975004732608800000e-001) (54, 1.92791640758514400000e-001) (55, -8.81652813404798510000e-003) (56, 6.33968561887741090000e-002) (57, 3.21040898561477660000e-002) (58, -5.98074160516262050000e-002) (59, 2.78802495449781420000e-002) (60, -1.17740277200937270000e-002) (61, 1.01883590221405030000e-001) (62, -1.81802392005920410000e-001) (63, 1.32899865508079530000e-001) (64, -3.28232347965240480000e-002) (65, 9.15739312767982480000e-002) (66, -1.03551112115383150000e-002) (67, 2.45786271989345550000e-002) (68, 9.66876670718193050000e-002) (69, 3.15806781873106960000e-003) (70, -6.85878172516822810000e-002) (71, 1.16425953805446620000e-001) (72, -8.63935705274343490000e-003) (73, 3.38454321026802060000e-002) (74, 4.93354490026831630000e-003) (75, 1.44310183823108670000e-002) (76, -4.71716187894344330000e-002) (77, -1.82247739285230640000e-002) (78, -4.87586893141269680000e-002) (79, 1.00383616983890530000e-001) (80, -7.74167031049728390000e-002) (81, 1.01079471409320830000e-001) (82, -2.55375001579523090000e-002) (83, 1.23081333935260770000e-001) (84, -2.34691083431243900000e-001) (0, -2.52624481916427610000e-001) (1, -8.16965922713279720000e-002) (2, -3.94421309232711790000e-001) (3, 4.17454361915588380000e-001) (4, -6.09612464904785160000e-002) (5, -2.81987171620130540000e-002) (6, -2.58172675967216490000e-002) (7, -2.13137548416852950000e-002) (8, 8.27452987432479860000e-002) (9, 1.35183008387684820000e-002) (10, -2.95880854129791260000e-001) (11, 4.37479168176651000000e-001) (12, -1.29342585802078250000e-001) (13, -1.17720410227775570000e-001) (14, 2.32854425907135010000e-001) (15, -1.63689836859703060000e-001) (16, -2.35623136162757870000e-001) (17, 9.56880226731300350000e-002) (18, -2.42863640189170840000e-001) (19, 5.21357730031013490000e-002) (20, 7.54058063030242920000e-002) (21, -1.62080064415931700000e-001) (22, -2.47815132141113280000e-001) (23, 7.64066353440284730000e-002) (24, -1.84836536645889280000e-001) (25, 1.03862583637237550000e-001) (26, 1.70136243104934690000e-001) (27, -3.08273911476135250000e-001) (28, 1.29871383309364320000e-001) (29, -4.81118820607662200000e-002) (30, 2.49685630202293400000e-001) (31, -1.70985341072082520000e-001) (32, 7.17192143201828000000e-002) (33, -7.14800879359245300000e-002) (34, 1.18320517241954800000e-001) (35, -1.44373908638954160000e-001) (36, 9.65880528092384340000e-002) (37, -2.95140990056097510000e-003) (38, 1.84778332710266110000e-001) (39, -1.44549742341041560000e-001) (40, 1.13183744251728060000e-001) (41, -1.33109912276268010000e-001) (42, 8.09461623430252080000e-002) (43, 5.90532496571540830000e-002) (44, 6.60977810621261600000e-002) (45, 4.83299605548381810000e-002) (46, -5.19130751490592960000e-002) (47, -8.33200365304946900000e-002) (48, 2.02899038791656490000e-001) (49, -1.33971497416496280000e-001) (50, 1.01534701883792880000e-001) (51, 1.01005323231220250000e-002) (52, 1.56667843461036680000e-001) (53, 5.70388063788414000000e-002) (54, 1.18963606655597690000e-001) (55, 2.73043401539325710000e-002) (56, -2.98256725072860720000e-002) (57, 3.96303385496139530000e-002) (58, 2.33745463192462920000e-002) (59, -6.17416091263294220000e-002) (60, 1.22211508452892300000e-001) (61, -1.70223355293273930000e-001) (62, 2.60468482971191410000e-001) (63, -1.33920097723603250000e-002) (64, 1.73944935202598570000e-001) (65, 1.18143603205680850000e-001) (66, -2.34242770820856090000e-002) (67, -1.28509819507598880000e-001) (68, -1.10974319279193880000e-001) (69, 5.23940473794937130000e-002) (70, 4.52535487711429600000e-002) (71, -6.72374069690704350000e-002) (72, 1.16678722202777860000e-001) (73, -3.89402396976947780000e-002) (74, 8.01323503255844120000e-002) (75, -1.48978292942047120000e-001) (76, 3.32299694418907170000e-002) (77, -3.12039822340011600000e-001) (78, 1.56404107809066770000e-001) (79, -8.46834033727645870000e-002) (80, 9.26094800233840940000e-002) (81, -1.43888995051383970000e-001) (82, -1.23404935002326970000e-001) (83, -1.71999149024486540000e-002) (84, 4.96204104274511340000e-003) (0, -1.59277901053428650000e-001) (1, -2.05878950655460360000e-002) (2, -1.53949484229087830000e-001) (3, -1.15065760910511020000e-001) (4, 1.57905891537666320000e-001) (5, -2.85863608121871950000e-001) (6, -1.06508610770106320000e-002) (7, 2.17394098639488220000e-001) (8, 1.54955685138702390000e-001) (9, -2.71636337041854860000e-001) (10, -1.08017235994338990000e-001) (11, -4.44502271711826320000e-002) (12, -1.30415126681327820000e-001) (13, 9.47572141885757450000e-002) (14, -8.54913294315338130000e-002) (15, -1.90839678049087520000e-001) (16, 1.16836242377758030000e-001) (17, 2.64330059289932250000e-002) (18, -6.78135529160499570000e-002) (19, 6.14662729203701020000e-002) (20, -2.24571265280246730000e-002) (21, 1.34373009204864500000e-001) (22, -3.97069752216339110000e-002) (23, 5.74359707534313200000e-002) (24, 5.71633353829383850000e-002) (25, 2.25326251238584520000e-002) (26, 7.24522583186626430000e-003) (27, -1.26585602760314940000e-001) (28, 3.54604758322238920000e-002) (29, -9.37034040689468380000e-002) (30, 5.76371736824512480000e-002) (31, 2.29702413082122800000e-001) (32, 1.13088510930538180000e-001) (33, 1.58889502286911010000e-001) (34, -1.30949229001998900000e-001) (35, -2.83360928297042850000e-001) (36, 1.69774010777473450000e-001) (37, 1.69224336743354800000e-001) (38, -2.45278165675699710000e-003) (39, 2.02209830284118650000e-001) (40, 9.28451027721166610000e-003) (41, -8.62322896718978880000e-002) (42, 1.92019209265708920000e-001) (43, -1.36671245098114010000e-001) (44, 5.08385859429836270000e-002) (45, 1.92452650517225270000e-002) (46, -1.62514612078666690000e-001) (47, -1.53250033035874370000e-002) (48, -2.39133071154356000000e-002) (49, 2.38497734069824220000e-001) (50, -1.29283487796783450000e-001) (51, -3.05299144238233570000e-002) (52, 1.89912728965282440000e-002) (53, -1.54025172814726830000e-002) (54, 1.93630218505859380000e-001) (55, -8.63078534603118900000e-002) (56, 1.82841435074806210000e-001) (57, 3.20534333586692810000e-002) (58, -1.23371314257383350000e-002) (59, 6.54425248503685000000e-002) (60, 5.69923557341098790000e-002) (61, 1.43375145271420480000e-002) (62, -5.86562193930149080000e-002) (63, -1.39119932428002360000e-002) (64, 5.60820251703262330000e-002) (65, 4.08182526007294650000e-003) (66, -2.41797640919685360000e-002) (67, 1.76190622150897980000e-002) (68, 1.40161737799644470000e-001) (69, 4.73816879093647000000e-002) (70, -9.82281938195228580000e-002) (71, 1.06345370411872860000e-001) (72, -7.25044384598731990000e-002) (73, -2.07109227776527400000e-002) (74, -1.68043702840805050000e-001) (75, 1.56977683305740360000e-001) (76, 3.48168946802616120000e-002) (77, -1.26435488462448120000e-001) (78, -7.09974020719528200000e-002) (79, 5.50109855830669400000e-002) (80, -2.18311194330453870000e-002) (81, -1.98720563203096390000e-002) (82, -6.17545396089553830000e-002) (83, -2.68988143652677540000e-002) (84, -1.50505855679512020000e-001) (0, 7.38842040300369260000e-002) (1, -5.11952452361583710000e-002) (2, 1.87896773219108580000e-001) (3, -2.38447904586791990000e-001) (4, -1.53879560530185700000e-002) (5, -2.05451294779777530000e-001) (6, -2.99609988927841190000e-001) (7, 1.98833405971527100000e-001) (8, -6.33772984147071840000e-002) (9, -1.57291471958160400000e-001) (10, 1.91201329231262210000e-001) (11, -2.41809308528900150000e-001) (12, 1.04781575500965120000e-001) (13, -6.80696144700050350000e-002) (14, 2.44151964783668520000e-001) (15, -1.65030688047409060000e-001) (16, -3.80905531346797940000e-002) (17, 5.15130944550037380000e-002) (18, 2.14482787996530530000e-002) (19, 1.87600702047348020000e-001) (20, -1.85152560472488400000e-001) (21, -3.88880074024200440000e-003) (22, 1.39001719653606410000e-002) (23, 1.45290732383728030000e-001) (24, 2.34905332326889040000e-002) (25, 1.17968738079071040000e-001) (26, 1.87237262725830080000e-001) (27, -1.27576380968093870000e-001) (28, 8.35504382848739620000e-003) (29, -1.71091809868812560000e-001) (30, 5.42097836732864380000e-002) (31, -1.06892101466655730000e-002) (32, -6.31127581000328060000e-002) (33, -7.53185749053955080000e-002) (34, -5.93995042145252230000e-002) (35, 7.18540176749229430000e-002) (36, -1.90186947584152220000e-001) (37, -2.07582131028175350000e-001) (38, 5.29388003051280980000e-002) (39, -9.21780522912740710000e-003) (40, 2.43178326636552810000e-002) (41, -7.12923631072044370000e-002) (42, 3.96210402250289920000e-002) (43, -2.10441932082176210000e-001) (44, -7.19018131494522090000e-002) (45, -7.32576008886098860000e-003) (46, 1.24141693115234380000e-001) (47, 2.04936042428016660000e-001) (48, -7.09216743707656860000e-002) (49, 7.12819583714008330000e-003) (50, 3.31655628979206090000e-002) (51, 1.67629629373550420000e-001) (52, -9.26896557211875920000e-002) (53, 2.06863563507795330000e-002) (54, 9.67569127678871150000e-002) (55, -2.64672413468360900000e-002) (56, 8.63244011998176570000e-003) (57, 9.30100381374359130000e-002) (58, 1.94793585687875750000e-002) (59, 2.20667243003845210000e-001) (60, -9.32945758104324340000e-002) (61, 6.68116956949234010000e-002) (62, 1.71593576669692990000e-002) (63, 1.85522153973579410000e-001) (64, -1.93350568413734440000e-001) (65, -1.62056565284729000000e-001) (66, 3.78862395882606510000e-003) (67, 2.87088215351104740000e-001) (68, -2.06211265176534650000e-002) (69, 1.23107485473155980000e-001) (70, -1.27637356519699100000e-001) (71, 1.21334731578826900000e-001) (72, -1.45604208111763000000e-001) (73, 1.18098556995391850000e-002) (74, -5.00348918139934540000e-002) (75, 7.62066841125488280000e-002) (76, -1.03444032371044160000e-001) (77, -1.54563829302787780000e-001) (78, -1.07537485659122470000e-001) (79, -7.23255006596446040000e-003) (80, -4.17640022933483120000e-002) (81, 3.25174890458583830000e-002) (82, 2.87976413965225220000e-002) (83, 1.80784612894058230000e-001) (84, -7.96255171298980710000e-002) (0, -3.03915470838546750000e-001) (1, -2.33019188046455380000e-001) (2, 1.36906415224075320000e-001) (3, -3.87708932161331180000e-001) (4, 2.08690781146287920000e-002) (5, -1.04640983045101170000e-001) (6, 3.46741937100887300000e-002) (7, -2.97117263078689580000e-001) (8, 2.23961863666772840000e-002) (9, -9.32278707623481750000e-002) (10, 2.91667312383651730000e-001) (11, -3.78869205713272090000e-001) (12, -2.69271165132522580000e-001) (13, -1.72945708036422730000e-001) (14, 2.02349379658699040000e-001) (15, -2.32108861207962040000e-001) (16, -1.76240995526313780000e-001) (17, 2.47339352965354920000e-001) (18, -8.38490277528762820000e-002) (19, -5.04749156534671780000e-002) (20, 9.81959700584411620000e-002) (21, 3.90752358362078670000e-003) (22, -9.46159064769744870000e-002) (23, -8.17373171448707580000e-002) (24, -2.08317592740058900000e-001) (25, 3.31681728363037110000e-001) (26, 1.65888264775276180000e-001) (27, -1.61489769816398620000e-001) (28, -1.52119755744934080000e-001) (29, 5.12108169496059420000e-002) (30, -7.83958956599235530000e-002) (31, 2.34793812036514280000e-001) (32, -5.55663593113422390000e-002) (33, 1.88259817659854890000e-002) (34, 2.47083202004432680000e-001) (35, -2.77408659458160400000e-001) (36, -2.96516735106706620000e-002) (37, 4.07028906047344210000e-002) (38, -4.52020093798637390000e-002) (39, 2.57772624492645260000e-001) (40, -1.11711598932743070000e-001) (41, -3.16748768091201780000e-002) (42, 1.69333387166261670000e-002) (43, -4.57403138279914860000e-002) (44, 1.22817873954772950000e-001) (45, -1.18958540260791780000e-001) (46, 9.53636877238750460000e-003) (47, -1.42437415197491650000e-002) (48, 1.05993233621120450000e-001) (49, -9.59023386240005490000e-002) (50, 6.02309331297874450000e-002) (51, 6.01580999791622160000e-002) (52, 1.12076103687286380000e-001) (53, -1.38087719678878780000e-001) (54, 8.04219767451286320000e-002) (55, -4.12351489067077640000e-002) (56, -7.06866756081581120000e-002) (57, 3.33880096673965450000e-001) (58, 3.53106372058391570000e-002) (59, -4.66692671179771420000e-002) (60, -1.60293519496917720000e-001) (61, 9.08436626195907590000e-003) (62, 1.96893423795700070000e-001) (63, -2.36800406128168110000e-002) (64, -1.33957162499427800000e-001) (65, 5.89258037507534030000e-002) (66, 6.01917095482349400000e-002) (67, -9.52434018254280090000e-002) (68, -5.86753413081169130000e-002) (69, 3.17345589399337770000e-001) (70, 8.72062742710113530000e-002) (71, -8.03241580724716190000e-002) (72, 2.34710332006216050000e-003) (73, -4.68864711001515390000e-003) (74, 4.55097034573554990000e-002) (75, 7.60875791311264040000e-002) (76, -1.19754314422607420000e-001) (77, 3.57681922614574430000e-002) (78, 9.51085314154624940000e-002) (79, 8.50293040275573730000e-002) (80, -2.22006998956203460000e-002) (81, 1.24505592975765470000e-003) (82, -2.30409135110676290000e-003) (83, -1.00968837738037110000e-001) (84, -1.31201520562171940000e-001) (0, 3.34612280130386350000e-001) (1, -3.46593677997589110000e-001) (2, 1.78103536367416380000e-001) (3, -1.60912111401557920000e-001) (4, 3.15590687096118930000e-002) (5, -9.64736267924308780000e-002) (6, 3.22808235883712770000e-001) (7, -6.90268695354461670000e-001) (8, 5.42958639562129970000e-002) (9, -7.44572281837463380000e-002) (10, 1.24256387352943420000e-001) (11, -1.88742309808731080000e-001) (12, 3.63534271717071530000e-001) (13, -3.42746585607528690000e-001) (14, -8.43870863318443300000e-002) (15, 1.14403270184993740000e-001) (16, -5.46127138659358020000e-003) (17, -2.61337906122207640000e-001) (18, 2.29536974802613260000e-003) (19, 1.74839392304420470000e-001) (20, -3.56284864246845250000e-002) (21, 2.22937873331829910000e-004) (22, -2.41516735404729840000e-002) (23, 9.57011505961418150000e-002) (24, 2.77088172733783720000e-002) (25, -1.96219787001609800000e-001) (26, -6.80404230952262880000e-002) (27, 1.40232533216476440000e-001) (28, -6.09319321811199190000e-002) (29, 4.57534268498420720000e-002) (30, 1.63727715611457820000e-001) (31, 1.47627918049693110000e-002) (32, -3.25199775397777560000e-002) (33, 2.95525997877120970000e-001) (34, 1.51765719056129460000e-002) (35, 9.83888804912567140000e-002) (36, -9.55554246902465820000e-002) (37, 1.52188554406166080000e-001) (38, 1.90544039011001590000e-001) (39, 2.74490956217050550000e-002) (40, -3.11679244041442870000e-002) (41, 4.39869761466979980000e-002) (42, -1.78949698805809020000e-001) (43, -3.79950813949108120000e-002) (44, 8.23736637830734250000e-002) (45, 5.20672462880611420000e-002) (46, -7.04871416091918950000e-002) (47, 2.10413083434104920000e-001) (48, -3.30296635627746580000e-001) (49, 1.17628611624240880000e-001) (50, -1.64674580097198490000e-001) (51, 6.47440701723098750000e-002) (52, 1.16727590560913090000e-001) (53, 1.50083433836698530000e-002) (54, -1.48961350321769710000e-001) (55, -3.85761796496808530000e-003) (56, 1.67753219604492190000e-001) (57, -1.78116321563720700000e-001) (58, -8.85153263807296750000e-002) (59, -6.90065845847129820000e-002) (60, -2.77016498148441310000e-002) (61, 2.24999338388442990000e-001) (62, 1.63511466234922410000e-002) (63, 6.34335502982139590000e-002) (64, -2.16894015669822690000e-001) (65, 6.33511319756507870000e-002) (66, -5.99925033748149870000e-002) (67, -3.61201278865337370000e-002) (68, 1.88204348087310790000e-001) (69, -1.78897351026535030000e-001) (70, -8.67588892579078670000e-002) (71, 3.55694675818085670000e-004) (72, -4.26168404519557950000e-002) (73, -2.51286309212446210000e-002) (74, 7.02151060104370120000e-002) (75, 3.26210595667362210000e-002) (76, -5.50165697932243350000e-002) (77, 2.03432403504848480000e-002) (78, -4.32582832872867580000e-002) (79, -1.47786930203437810000e-001) (80, -2.57884394377470020000e-002) (81, -8.62478986382484440000e-002) (82, -8.10363665223121640000e-002) (83, 3.44480089843273160000e-002) (84, 1.65232852101325990000e-001) (0, 1.95374161005020140000e-001) (1, 1.91007956862449650000e-001) (2, 2.63378202915191650000e-001) (3, -2.32367500662803650000e-001) (4, 5.00961303710937500000e-001) (5, -3.70049357414245610000e-001) (6, -1.74740448594093320000e-001) (7, 9.94731634855270390000e-002) (8, 5.14879286289215090000e-001) (9, -4.06546056270599370000e-001) (10, 2.59032517671585080000e-001) (11, -8.74351635575294490000e-002) (12, 1.51076063513755800000e-001) (13, 2.99719423055648800000e-002) (14, 1.49974972009658810000e-001) (15, 5.65258339047431950000e-002) (16, 2.60061502456665040000e-001) (17, 1.51219159364700320000e-001) (18, 3.01056597381830220000e-002) (19, -5.85022242739796640000e-003) (20, -1.00943937897682190000e-001) (21, -1.21080987155437470000e-002) (22, -6.36337846517562870000e-002) (23, -5.01262024044990540000e-002) (24, 1.96986809372901920000e-001) (25, 7.62423276901245120000e-002) (26, 1.19993425905704500000e-001) (27, 6.76766782999038700000e-002) (28, -2.66945272684097290000e-001) (29, 1.32047280669212340000e-001) (30, 3.34967598319053650000e-002) (31, -5.97183220088481900000e-002) (32, 3.30642610788345340000e-002) (33, 1.50232270359992980000e-001) (34, 9.65452641248703000000e-002) (35, 1.89463999122381210000e-002) (36, 6.08386099338531490000e-002) (37, 1.91954284906387330000e-001) (38, -1.35933673009276390000e-002) (39, -9.58544090390205380000e-002) (40, -3.14620256423950200000e-001) (41, 9.40825641155242920000e-002) (42, 1.18308356031775470000e-002) (43, 1.06107577681541440000e-001) (44, -6.76522031426429750000e-002) (45, -3.64104434847831730000e-002) (46, -8.66729319095611570000e-002) (47, -5.43511398136615750000e-002) (48, -1.64691358804702760000e-001) (49, 1.60642623901367190000e-001) (50, -7.91442692279815670000e-002) (51, -1.07420980930328370000e-001) (52, -9.59266945719718930000e-002) (53, -8.51668417453765870000e-002) (54, 3.81476953625679020000e-002) (55, 9.69808101654052730000e-002) (56, -1.13824076950550080000e-001) (57, 1.05590792372822760000e-003) (58, -5.59917949140071870000e-002) (59, -7.72023200988769530000e-002) (60, -1.18520744144916530000e-001) (61, 1.35495558381080630000e-001) (62, -1.36870712041854860000e-001) (63, -6.50682020932435990000e-003) (64, -1.42795845866203310000e-001) (65, 1.18837177753448490000e-001) (66, 4.48996480554342270000e-003) (67, -2.44993679225444790000e-002) (68, -1.22150912880897520000e-001) (69, 2.37867329269647600000e-002) (70, -1.45455459132790570000e-002) (71, 2.90718767791986470000e-003) (72, -5.81699758768081670000e-002) (73, 1.53770923614501950000e-001) (74, -1.35344520211219790000e-001) (75, 2.18486879020929340000e-002) (76, -8.65687504410743710000e-002) (77, 1.32764682173728940000e-001) (78, -9.84769985079765320000e-002) (79, 2.61931531131267550000e-002) (80, -8.15475583076477050000e-002) (81, 1.63388043642044070000e-001) (82, -8.32658261060714720000e-003) (83, 4.08684872090816500000e-002) (84, 3.56683284044265750000e-002) (0, -1.10768675804138180000e-001) (1, 2.85146534442901610000e-001) (2, 4.36958447098731990000e-002) (3, 6.22670464217662810000e-002) (4, -1.72300115227699280000e-001) (5, 2.16783717274665830000e-001) (6, -4.94911707937717440000e-002) (7, 2.11962506175041200000e-001) (8, -3.27556699514389040000e-001) (9, 2.51847207546234130000e-001) (10, 4.23988187685608860000e-003) (11, 9.92131680250167850000e-002) (12, -1.02877482771873470000e-001) (13, 2.34704017639160160000e-001) (14, -1.06119118630886080000e-001) (15, 6.33668228983879090000e-002) (16, -2.08350010216236110000e-002) (17, -9.69897806644439700000e-002) (18, -4.62398789823055270000e-002) (19, -1.09698608517646790000e-001) (20, -6.48569664917886260000e-004) (21, -1.71003773808479310000e-001) (22, -8.03872719407081600000e-002) (23, -7.13734924793243410000e-002) (24, 8.69669914245605470000e-002) (25, 1.37197980657219890000e-002) (26, -2.69287638366222380000e-002) (27, 5.32849319279193880000e-002) (28, 3.02070137113332750000e-002) (29, -1.40541672706604000000e-001) (30, -8.19946900010108950000e-002) (31, -2.81093418598175050000e-002) (32, 2.69209265708923340000e-001) (33, 7.14116916060447690000e-002) (34, 2.34783843159675600000e-001) (35, -1.40117838978767400000e-001) (36, 2.13102355599403380000e-001) (37, 1.61863304674625400000e-003) (38, 9.84675735235214230000e-002) (39, 1.51006998494267460000e-002) (40, 3.48162725567817690000e-002) (41, -4.02693822979927060000e-002) (42, 1.33283600211143490000e-001) (43, -2.69462801516056060000e-002) (44, 1.74442633986473080000e-001) (45, -5.56796863675117490000e-002) (46, 1.11701875925064090000e-001) (47, -6.26785010099411010000e-002) (48, 1.83366402983665470000e-001) (49, -8.77268612384796140000e-003) (50, -7.94856324791908260000e-002) (51, -2.60351598262786870000e-001) (52, 1.73980280756950380000e-001) (53, -1.76966395229101180000e-002) (54, 1.03665709495544430000e-001) (55, -1.83628331869840620000e-002) (56, -1.16387367248535160000e-001) (57, -3.74426953494548800000e-002) (58, -3.21165099740028380000e-002) (59, -2.09634885191917420000e-001) (60, 1.54897704720497130000e-001) (61, 1.13726213574409480000e-001) (62, 1.20968103408813480000e-001) (63, 8.51806104183197020000e-002) (64, -6.41741454601287840000e-002) (65, -1.31989717483520510000e-001) (66, 4.21811379492282870000e-002) (67, -2.30313781648874280000e-002) (68, -7.75128602981567380000e-002) (69, 1.04974389076232910000e-001) (70, -1.80430740118026730000e-001) (71, 3.06845251470804210000e-002) (72, 2.40574553608894350000e-002) (73, 6.55711740255355830000e-002) (74, -3.19944135844707490000e-002) (75, 2.33118757605552670000e-001) (76, -2.37153135240077970000e-002) (77, -2.03460734337568280000e-002) (78, -1.40951164066791530000e-002) (79, -1.39391869306564330000e-001) (80, 7.13380724191665650000e-002) (81, -2.78852432966232300000e-002) (82, 7.47803375124931340000e-002) (83, -4.78045754134655000000e-002) (84, -1.00233562290668490000e-001) (0, -1.59414812922477720000e-001) (1, -1.21403440833091740000e-001) (2, -1.93377450108528140000e-001) (3, 3.62489998340606690000e-001) (4, 8.55659916996955870000e-002) (5, -2.02100172638893130000e-001) (6, -1.02771528065204620000e-001) (7, 8.41718092560768130000e-002) (8, 7.37300291657447810000e-002) (9, -1.62140861153602600000e-001) (10, -3.99233549833297730000e-001) (11, 2.25866183638572690000e-001) (12, -6.88458085060119630000e-002) (13, 6.30816966295242310000e-002) (14, -9.54815968871116640000e-002) (15, 1.31564319133758540000e-001) (16, -1.30555137991905210000e-001) (17, 1.83147698640823360000e-001) (18, 1.93953514099121090000e-001) (19, -2.53009609878063200000e-002) (20, -7.48502239584922790000e-002) (21, 9.87093746662139890000e-002) (22, 2.35383570194244380000e-001) (23, 2.01804824173450470000e-002) (24, -6.66804164648056030000e-002) (25, 1.66087403893470760000e-001) (26, 1.24421808868646620000e-002) (27, 1.51211768388748170000e-001) (28, -6.78877159953117370000e-002) (29, 9.47014391422271730000e-002) (30, -1.03017382323741910000e-001) (31, 4.52414825558662410000e-002) (32, 2.95707173645496370000e-002) (33, 1.68102439492940900000e-002) (34, 5.93865588307380680000e-002) (35, -1.01187728345394130000e-001) (36, -9.13595557212829590000e-002) (37, -5.02901077270507810000e-002) (38, -1.85870349407196040000e-001) (39, -5.18219172954559330000e-002) (40, 3.13691869378089900000e-002) (41, 4.27569001913070680000e-002) (42, -4.73792152479290960000e-003) (43, 1.63367450237274170000e-001) (44, 5.41696371510624890000e-003) (45, -1.40310794115066530000e-001) (46, 1.77806049585342410000e-001) (47, 2.26389486342668530000e-002) (48, 4.56326492130756380000e-002) (49, -1.65753901004791260000e-001) (50, 8.83119627833366390000e-002) (51, -1.22448079288005830000e-001) (52, 1.73698998987674710000e-002) (53, -1.28767877817153930000e-001) (54, 8.93278121948242190000e-002) (55, 1.79960086941719060000e-001) (56, -1.38792097568511960000e-001) (57, 8.08323174715042110000e-002) (58, 1.34896710515022280000e-001) (59, -2.50832885503768920000e-002) (60, 1.08583375811576840000e-001) (61, -5.81885762512683870000e-002) (62, 1.95332229137420650000e-001) (63, 2.64629945158958440000e-002) (64, -8.10865685343742370000e-002) (65, -2.29486688971519470000e-001) (66, 9.25710946321487430000e-002) (67, -1.96638256311416630000e-002) (68, -1.57053083181381230000e-001) (69, 3.19890887476503850000e-003) (70, -3.13315354287624360000e-002) (71, -3.96240279078483580000e-002) (72, 1.04939274489879610000e-001) (73, -4.05846759676933290000e-002) (74, 1.74027085304260250000e-001) (75, 4.26895543932914730000e-002) (76, -6.63065933622419830000e-004) (77, -1.45372077822685240000e-001) (78, -2.04309895634651180000e-002) (79, -1.12296856939792630000e-001) (80, -1.48548139259219170000e-002) (81, -9.43832024931907650000e-002) (82, -2.81541720032691960000e-002) (83, -2.29186732321977620000e-002) (84, 9.90098789334297180000e-002) (0, -3.63497018814086910000e-001) (1, 9.68879640102386470000e-001) (2, -4.56780344247817990000e-001) (3, 4.88743036985397340000e-001) (4, -2.26808741688728330000e-001) (5, 6.24629259109497070000e-001) (6, -2.31304168701171880000e-001) (7, 6.22997164726257320000e-001) (8, -2.20644742250442500000e-001) (9, 5.92961668968200680000e-001) (10, -1.39171138405799870000e-001) (11, -1.05762489140033720000e-001) (12, -1.78124979138374330000e-002) (13, 4.06184405088424680000e-001) (14, -1.44297525286674500000e-001) (15, 4.18860167264938350000e-001) (16, -2.13912606239318850000e-001) (17, 1.73932954668998720000e-001) (18, -3.96801322698593140000e-001) (19, 2.39286825060844420000e-001) (20, -4.30979803204536440000e-002) (21, 7.76267647743225100000e-002) (22, -4.59240097552537920000e-003) (23, -1.57794579863548280000e-001) (24, 8.13464298844337460000e-002) (25, -4.05581668019294740000e-002) (26, -2.64527052640914920000e-001) (27, 2.02348113059997560000e-001) (28, -1.57570764422416690000e-001) (29, 1.92158035933971410000e-002) (30, 8.32246840000152590000e-002) (31, -3.62954735755920410000e-001) (32, -9.94956865906715390000e-002) (33, 3.05124789476394650000e-001) (34, 2.41289883852005000000e-001) (35, -2.79985994100570680000e-001) (36, 1.36588230729103090000e-001) (37, -3.07940542697906490000e-001) (38, -1.52358025312423710000e-001) (39, -6.09168745577335360000e-002) (40, -3.33246171474456790000e-001) (41, 6.87170401215553280000e-002) (42, -3.51900933310389520000e-003) (43, 5.74623167514801030000e-001) (44, -1.37731745839118960000e-001) (45, 1.23946584761142730000e-001) (46, 1.44406005740165710000e-001) (47, -2.94764906167984010000e-001) (48, -6.39261584728956220000e-003) (49, -8.21375027298927310000e-002) (50, 1.88534542918205260000e-001) (51, -5.13792514801025390000e-001) (52, 1.40643194317817690000e-001) (53, -1.56608551740646360000e-001) (54, -5.56516684591770170000e-002) (55, 1.21010325849056240000e-001) (56, -2.13022217154502870000e-001) (57, 4.03987616300582890000e-001) (58, -1.23033523559570310000e-002) (59, -2.47345834970474240000e-001) (60, -9.57067683339118960000e-002) (61, 8.60873460769653320000e-002) (62, 4.32639390230178830000e-001) (63, -5.09066998958587650000e-001) (64, 9.86362099647521970000e-002) (65, -1.36886134743690490000e-001) (66, 2.00996816158294680000e-001) (67, -2.33397141098976140000e-001) (68, 1.25101044774055480000e-001) (69, 9.20855775475502010000e-002) (70, -3.61150890588760380000e-001) (71, 4.07344967126846310000e-001) (72, 8.05069208145141600000e-002) (73, -1.19463391602039340000e-001) (74, 7.47814059257507320000e-001) (75, -1.72019529342651370000e+000) (76, 1.20046544075012210000e+000) (77, -1.18123519420623780000e+000) (78, -5.42698979377746580000e-001) (79, 2.69404649734497070000e-001) (80, 4.92967188358306880000e-001) (81, -7.83078849315643310000e-001) (82, 3.92669081687927250000e-001) (83, -9.33549761772155760000e-001) (84, 1.39426052570343020000e+000) (0, 1.17501586675643920000e-001) (1, 8.38539898395538330000e-002) (2, -1.89747419208288190000e-002) (3, -5.80038549378514290000e-003) (4, 1.32436335086822510000e-001) (5, 8.78754183650016780000e-002) (6, 8.77755433320999150000e-002) (7, 8.76529812812805180000e-002) (8, 8.73221978545188900000e-002) (9, 6.95604085922241210000e-002) (10, 8.72325599193573000000e-002) (11, -1.15360274910926820000e-001) (12, 1.23072586953639980000e-001) (13, 1.38114705681800840000e-001) (14, -1.20696742087602620000e-002) (15, -1.34499035775661470000e-002) (16, 5.13900583609938620000e-003) (17, -1.15952849388122560000e-001) (18, -4.57015149295330050000e-002) (19, -1.41356229782104490000e-001) (20, -3.23526822030544280000e-002) (21, 9.69828944653272630000e-003) (22, -5.99461346864700320000e-002) (23, -1.27444967627525330000e-001) (24, 1.21938616037368770000e-001) (25, 7.74915218353271480000e-002) (26, -3.00566405057907100000e-002) (27, -7.74114429950714110000e-002) (28, -8.63456949591636660000e-002) (29, -1.31430909037590030000e-001) (30, -4.44438606500625610000e-002) (31, -7.34139159321784970000e-002) (32, 2.02711135149002080000e-001) (33, 2.11743846535682680000e-001) (34, -7.11041167378425600000e-002) (35, 1.19332242757081990000e-002) (36, 8.98970216512680050000e-002) (37, 7.59741067886352540000e-002) (38, 1.07046544551849370000e-001) (39, 7.22633451223373410000e-002) (40, -1.59086376428604130000e-001) (41, -1.60855217836797240000e-003) (42, 9.33877825736999510000e-002) (43, -4.32944782078266140000e-002) (44, -1.03118114173412320000e-001) (45, -1.53765678405761720000e-001) (46, 1.42536601051688190000e-002) (47, -1.21056653559207920000e-001) (48, -6.63838014006614690000e-002) (49, -4.14626561105251310000e-002) (50, 1.74806676805019380000e-002) (51, -1.97239339351654050000e-001) (52, 6.14007711410522460000e-002) (53, -5.55502157658338550000e-003) (54, 2.35096998512744900000e-002) (55, 4.49238717555999760000e-002) (56, -3.07580884546041490000e-002) (57, -4.34613749384880070000e-002) (58, -3.38435061275959010000e-002) (59, -9.73448529839515690000e-002) (60, 1.14964470267295840000e-002) (61, 4.13110107183456420000e-002) (62, 1.11103672534227370000e-002) (63, -1.20294541120529170000e-002) (64, -5.31235150992870330000e-003) (65, 8.85972008109092710000e-002) (66, 7.19259604811668400000e-002) (67, 2.83155054785311220000e-003) (68, 5.16108907759189610000e-002) (69, 7.06243375316262250000e-003) (70, -1.28875777591019870000e-004) (71, 2.08077114075422290000e-002) (72, 1.91007405519485470000e-002) (73, 5.65193295478820800000e-002) (74, 5.09170349687337880000e-003) (75, 1.61341428756713870000e-002) (76, 2.08061058074235920000e-002) (77, 9.77829918265342710000e-002) (78, -7.13894665241241460000e-002) (79, -1.49623796343803410000e-001) (80, 4.33225445449352260000e-002) (81, 2.93961111456155780000e-002) (82, 4.36216592788696290000e-002) (83, 1.05009973049163820000e-002) (84, -6.73526106402277950000e-003) (0, 4.22989010810852050000e-001) (1, 5.42582750320434570000e-001) (2, 3.57676446437835690000e-001) (3, 2.37978890538215640000e-001) (4, 1.93166464567184450000e-001) (5, 1.94810837507247920000e-001) (6, 1.70749247074127200000e-001) (7, 1.68946966528892520000e-001) (8, 1.91171392798423770000e-001) (9, 1.92305505275726320000e-001) (10, 3.31398725509643550000e-001) (11, 2.25002810359001160000e-001) (12, 4.59018796682357790000e-001) (13, 6.01167082786560060000e-001) (14, 1.15952782332897190000e-001) (15, 3.80303680896759030000e-001) (16, -2.03330442309379580000e-001) (17, 3.74972194433212280000e-001) (18, 5.47547340393066410000e-002) (19, 1.22035406529903410000e-001) (20, -3.87988626956939700000e-001) (21, 3.81336688995361330000e-001) (22, 5.97259476780891420000e-002) (23, 1.29519358277320860000e-001) (24, -2.01004952192306520000e-001) (25, 3.64008158445358280000e-001) (26, 1.16269737482070920000e-001) (27, 3.59902173280715940000e-001) (28, -2.59044617414474490000e-001) (29, 6.07017695903778080000e-001) (30, 1.37839779257774350000e-001) (31, -3.97537499666213990000e-001) (32, -9.83377546072006230000e-002) (33, -6.30513504147529600000e-002) (34, -2.74132192134857180000e-001) (35, 1.12661555409431460000e-001) (36, -7.18006268143653870000e-002) (37, -6.87298774719238280000e-002) (38, 1.29534363746643070000e-001) (39, -3.76285225152969360000e-001) (40, -2.26646259427070620000e-001) (41, 5.81987082958221440000e-001) (42, -5.09127259254455570000e-001) (43, 2.05332309007644650000e-001) (44, 4.08224016427993770000e-001) (45, -3.59168127179145810000e-002) (46, 2.98513062298297880000e-002) (47, -1.35965406894683840000e-001) (48, -1.46673247218132020000e-001) (49, 2.37442385405302050000e-002) (50, 4.47441376745700840000e-002) (51, -1.13478854298591610000e-001) (52, 4.17006164789199830000e-001) (53, -5.56559525430202480000e-002) (54, -5.09841442108154300000e-001) (55, 1.93643763661384580000e-001) (56, -4.26235757768154140000e-002) (57, -5.37355095148086550000e-002) (58, 1.43417447805404660000e-001) (59, -1.98012664914131160000e-001) (60, 2.71000981330871580000e-001) (61, -2.59573340415954590000e-001) (62, -6.78005367517471310000e-002) (63, 2.33152285218238830000e-001) (64, 2.77870208024978640000e-001) (65, -2.33592540025711060000e-001) (66, 1.42447650432586670000e-001) (67, -1.99542880058288570000e-001) (68, -1.95831973105669020000e-002) (69, -4.92786131799221040000e-002) (70, -4.19940128922462460000e-002) (71, 5.58253005146980290000e-002) (72, -4.80034165084362030000e-002) (73, 4.62875887751579280000e-002) (74, -1.01569555699825290000e-001) (75, 6.96571096777915950000e-002) (76, 2.16045528650283810000e-001) (77, -3.55592280626297000000e-001) (78, -7.09952488541603090000e-002) (79, 7.45140239596366880000e-002) (80, -4.39936332404613490000e-002) (81, 2.24055629223585130000e-002) (82, -4.52355258166790010000e-002) (83, 4.84529733657836910000e-002) (84, 9.05073061585426330000e-002) (0, 8.54999870061874390000e-002) (1, -1.68268233537673950000e-001) (2, -9.66021046042442320000e-003) (3, 1.83260366320610050000e-001) (4, 2.60335928760468960000e-003) (5, 1.88920751214027400000e-001) (6, -1.13362960517406460000e-001) (7, 2.41405993700027470000e-001) (8, 1.20182773098349570000e-002) (9, 1.53148695826530460000e-001) (10, -9.04257316142320630000e-003) (11, 2.53808945417404170000e-001) (12, 1.72744929790496830000e-001) (13, -2.95166373252868650000e-001) (14, 9.85151305794715880000e-002) (15, 9.92638170719146730000e-002) (16, -1.05342149734497070000e-001) (17, -8.55247974395751950000e-002) (18, -3.36065404117107390000e-002) (19, -5.64535930752754210000e-002) (20, -4.83711855486035350000e-003) (21, 4.20267730951309200000e-002) (22, -6.27886876463890080000e-002) (23, -7.22570493817329410000e-002) (24, -9.30366367101669310000e-002) (25, -2.13900104165077210000e-001) (26, 5.80519959330558780000e-002) (27, 1.07269518077373500000e-001) (28, -1.27521917223930360000e-001) (29, 6.36779740452766420000e-002) (30, 8.22718143463134770000e-002) (31, 8.37543457746505740000e-002) (32, 1.95241421461105350000e-001) (33, -3.18495519459247590000e-002) (34, -1.67501807212829590000e-001) (35, -7.84760639071464540000e-002) (36, 1.54104411602020260000e-001) (37, -6.31030723452568050000e-002) (38, -5.25173218920826910000e-003) (39, -1.66059471666812900000e-002) (40, -7.84219354391098020000e-002) (41, 7.86416605114936830000e-002) (42, -1.56601428985595700000e-001) (43, -4.81135323643684390000e-002) (44, 1.99545640498399730000e-002) (45, -1.21472515165805820000e-001) (46, 3.53276245296001430000e-002) (47, -1.55991734936833380000e-002) (48, 1.61312371492385860000e-001) (49, 1.10661029815673830000e-001) (50, -4.10173721611499790000e-002) (51, -5.36323972046375270000e-002) (52, -3.18684391677379610000e-002) (53, -1.11950650811195370000e-001) (54, -9.84522253274917600000e-002) (55, 2.00111381709575650000e-002) (56, -4.33523859828710560000e-003) (57, 9.27332937717437740000e-002) (58, 1.15939147770404820000e-001) (59, 6.19121789932250980000e-002) (60, -3.21824029088020320000e-002) (61, 2.46779203414916990000e-001) (62, -8.04509893059730530000e-002) (63, 3.24670821428298950000e-002) (64, -1.68607234954833980000e-001) (65, 1.55230462551116940000e-001) (66, 4.48192581534385680000e-002) (67, 4.73372600972652440000e-002) (68, 3.08539792895317080000e-002) (69, 1.66134983301162720000e-001) (70, -2.41042692214250560000e-002) (71, -5.25000914931297300000e-002) (72, 2.04992685467004780000e-002) (73, 6.34116381406784060000e-002) (74, -9.61802229285240170000e-002) (75, -7.83467218279838560000e-002) (76, -3.92961949110031130000e-002) (77, 1.29030004143714900000e-001) (78, -8.16340893507003780000e-002) (79, -1.69316958636045460000e-002) (80, -4.00230754166841510000e-003) (81, 5.40183251723647120000e-003) (82, 1.25185968354344370000e-002) (83, -1.81741248816251750000e-002) (84, -1.41532927751541140000e-001) (0, 7.94078409671783450000e-003) (1, -2.02674001455307010000e-001) (2, 1.31152287125587460000e-001) (3, 5.97856938838958740000e-002) (4, 2.43166789412498470000e-001) (5, -3.01450997591018680000e-001) (6, 2.64134526252746580000e-001) (7, -2.38215431571006770000e-001) (8, 2.09956809878349300000e-001) (9, -1.98248237371444700000e-001) (10, 1.59793213009834290000e-001) (11, 3.83545905351638790000e-002) (12, 3.64779271185398100000e-002) (13, -8.27468633651733400000e-002) (14, 3.17259691655635830000e-002) (15, -1.05249151587486270000e-001) (16, 2.69399513490498070000e-003) (17, -3.60358990728855130000e-002) (18, 7.95292779803276060000e-002) (19, -2.48407542705535890000e-001) (20, 2.40825042128562930000e-001) (21, -2.82127320766448970000e-001) (22, 1.24072492122650150000e-001) (23, -1.32459998130798340000e-001) (24, -2.04559378325939180000e-002) (25, -1.39883205294609070000e-001) (26, 9.08627361059188840000e-002) (27, -5.83283156156539920000e-002) (28, 6.03698613122105600000e-003) (29, 2.57800847291946410000e-001) (30, -3.00580188632011410000e-002) (31, 2.39914432168006900000e-002) (32, -4.57694046199321750000e-002) (33, -7.19384849071502690000e-002) (34, -1.83523729443550110000e-001) (35, 7.43572637438774110000e-002) (36, 8.43072235584259030000e-002) (37, 1.23164243996143340000e-001) (38, -1.45519688725471500000e-001) (39, -4.94768060743808750000e-002) (40, -4.31227944791316990000e-002) (41, 2.32688352465629580000e-001) (42, -6.19804225862026210000e-002) (43, -2.13047295808792110000e-001) (44, 2.93466951698064800000e-002) (45, 8.47396478056907650000e-002) (46, -1.57148391008377080000e-001) (47, -7.98896029591560360000e-002) (48, -3.80777902901172640000e-002) (49, 3.64890903234481810000e-001) (50, 6.36858493089675900000e-002) (51, 1.45701527595520020000e-001) (52, -3.13874222338199620000e-002) (53, 1.31923347711563110000e-001) (54, -9.43528115749359130000e-002) (55, -2.44602560997009280000e-001) (56, 1.25593155622482300000e-001) (57, -8.98390784859657290000e-002) (58, 3.19411121308803560000e-002) (59, 2.12498717010021210000e-002) (60, -3.36976915597915650000e-001) (61, -4.88722249865531920000e-002) (62, 1.70464850962162020000e-002) (63, 1.71156123280525210000e-001) (64, -6.56693279743194580000e-002) (65, 2.07207173109054570000e-001) (66, -5.68828620016574860000e-002) (67, -6.34018629789352420000e-002) (68, 1.14481009542942050000e-001) (69, -1.38811871409416200000e-001) (70, 5.04305325448513030000e-002) (71, 2.68602430820465090000e-001) (72, 1.39663353562355040000e-001) (73, 1.34038060903549190000e-001) (74, -8.10393989086151120000e-002) (75, -6.90798228606581690000e-003) (76, -1.08352117240428920000e-001) (77, 1.02201528847217560000e-001) (78, 8.95325019955635070000e-002) (79, 2.08185926079750060000e-001) (80, 8.04071053862571720000e-002) (81, 9.49569344520568850000e-002) (82, 2.67581231892108920000e-002) (83, 8.76886472105979920000e-002) (84, -4.54246580600738530000e-001) (0, 1.77252545952796940000e-001) (1, -1.38951331377029420000e-001) (2, 1.50535672903060910000e-001) (3, -2.49941274523735050000e-001) (4, -2.40288138389587400000e-001) (5, 2.69822150468826290000e-001) (6, 3.90098899602890010000e-001) (7, -2.45872065424919130000e-001) (8, -2.67278462648391720000e-001) (9, 2.80353903770446780000e-001) (10, 1.03941760957241060000e-001) (11, -2.62397170066833500000e-001) (12, 2.16662764549255370000e-001) (13, -4.19465005397796630000e-002) (14, -3.60019147396087650000e-001) (15, 2.53637224435806270000e-001) (16, 2.45719030499458310000e-001) (17, -2.20693871378898620000e-001) (18, -3.06463718414306640000e-001) (19, 2.05016657710075380000e-001) (20, 1.37153476476669310000e-001) (21, -2.45593935251235960000e-001) (22, -3.07263851165771480000e-001) (23, 2.32235297560691830000e-001) (24, 2.25633412599563600000e-001) (25, -1.57377332448959350000e-001) (26, -3.64722311496734620000e-001) (27, 2.31119245290756230000e-001) (28, -1.56914874911308290000e-001) (29, 3.59295368194580080000e-001) (30, 1.99395120143890380000e-001) (31, -6.74757584929466250000e-002) (32, 1.98660157620906830000e-002) (33, -7.95933455228805540000e-002) (34, 1.02890171110630040000e-001) (35, 4.53693903982639310000e-002) (36, 2.21808347851037980000e-003) (37, -2.01560650020837780000e-002) (38, 1.79096922278404240000e-001) (39, -1.47323623299598690000e-001) (40, -1.47895246744155880000e-001) (41, 3.51232349872589110000e-001) (42, 2.32555717229843140000e-002) (43, -2.24330082535743710000e-001) (44, 1.60610765218734740000e-001) (45, -8.30494239926338200000e-002) (46, -4.12543155252933500000e-002) (47, -1.49507345631718640000e-002) (48, 7.71415829658508300000e-002) (49, -1.03963211178779600000e-001) (50, -9.12321582436561580000e-002) (51, 3.04440930485725400000e-002) (52, 1.46559014916419980000e-001) (53, -1.18635892868041990000e-001) (54, -1.88682954758405690000e-002) (55, -2.30463474988937380000e-001) (56, -7.25295692682266240000e-002) (57, -5.39214722812175750000e-002) (58, -5.56907206773757930000e-002) (59, 1.42868056893348690000e-001) (60, -1.92567855119705200000e-002) (61, 1.99744820594787600000e-001) (62, -7.13877230882644650000e-002) (63, 6.72630965709686280000e-003) (64, 2.38545984029769900000e-002) (65, 1.66156515479087830000e-001) (66, -9.33268070220947270000e-002) (67, 1.75915405154228210000e-001) (68, -3.98976765573024750000e-002) (69, -8.20478610694408420000e-003) (70, -3.20871770381927490000e-002) (71, 1.22258570045232770000e-002) (72, -7.00754821300506590000e-002) (73, -6.91340342164039610000e-002) (74, 2.47785244137048720000e-002) (75, -7.08043873310089110000e-002) (76, 1.29995778203010560000e-001) (77, 1.47683337330818180000e-001) (78, 1.42424367368221280000e-002) (79, 1.73677744896849620000e-005) (80, -9.78069454431533810000e-002) (81, -1.16451874375343320000e-001) (82, 3.82317826151847840000e-002) (83, 4.10275198519229890000e-002) (84, -1.95037379860877990000e-001) (0, -1.82637143880128860000e-002) (1, -1.16894091479480270000e-003) (2, -6.33375942707061770000e-002) (3, -2.34535798430442810000e-001) (4, -2.03976277261972430000e-002) (5, -1.21441911906003950000e-002) (6, 7.73867219686508180000e-002) (7, -1.17342650890350340000e-001) (8, -8.60565155744552610000e-003) (9, -2.16467157006263730000e-002) (10, 7.46841961517930030000e-003) (11, -1.70913755893707280000e-001) (12, -6.54612407088279720000e-002) (13, 1.77566986531019210000e-002) (14, 5.51197677850723270000e-002) (15, -2.50984672456979750000e-002) (16, -6.92770853638648990000e-002) (17, -4.93848733603954320000e-002) (18, -2.35831681638956070000e-002) (19, 8.46825465559959410000e-002) (20, -1.03140063583850860000e-001) (21, 5.76988793909549710000e-002) (22, -1.21875787153840070000e-002) (23, 1.18096455931663510000e-001) (24, -1.13772094249725340000e-001) (25, -2.76189949363470080000e-002) (26, 2.05639824271202090000e-001) (27, 2.99140475690364840000e-002) (28, -8.72908998280763630000e-003) (29, 7.37609043717384340000e-002) (30, 1.31960660219192500000e-001) (31, 1.52084663510322570000e-001) (32, -8.18901509046554570000e-002) (33, -4.40194234251976010000e-002) (34, -4.77705299854278560000e-002) (35, 1.30522295832633970000e-001) (36, -5.99681353196501730000e-003) (37, -3.35333906114101410000e-002) (38, 1.04256540536880490000e-001) (39, 1.10210582613945010000e-001) (40, -2.76890695095062260000e-002) (41, -3.36136892437934880000e-002) (42, 2.09456160664558410000e-002) (43, 2.77003571391105650000e-002) (44, -7.24919661879539490000e-002) (45, -2.86993924528360370000e-002) (46, -3.27671766281127930000e-002) (47, -2.09830589592456820000e-002) (48, -3.52597571909427640000e-002) (49, 1.35369509458541870000e-001) (50, -5.72370775043964390000e-002) (51, -8.72099548578262330000e-002) (52, 1.37137053534388540000e-002) (53, 2.57275067269802090000e-002) (54, 2.80298218131065370000e-002) (55, -6.72715827822685240000e-002) (56, -6.10895082354545590000e-002) (57, -7.63190444558858870000e-003) (58, -1.64130441844463350000e-002) (59, -7.55838751792907710000e-002) (60, 1.36199910193681720000e-002) (61, 1.38990301638841630000e-002) (62, -2.68750023096799850000e-002) (63, -6.41836151480674740000e-002) (64, 2.60891596553847190000e-004) (65, 2.94898264110088350000e-002) (66, -4.12803106009960170000e-002) (67, -5.36772273480892180000e-002) (68, 6.11491443123668430000e-004) (69, 3.39730605483055110000e-002) (70, 1.71251557767391200000e-002) (71, 5.23896180093288420000e-002) (72, -1.86865814030170440000e-002) (73, 1.10473297536373140000e-001) (74, 8.01367014646530150000e-002) (75, 4.02593612670898440000e-002) (76, -7.22382441163063050000e-002) (77, -8.21815580129623410000e-002) (78, 2.31003668159246440000e-002) (79, 5.24726472795009610000e-002) (80, -6.21644854545593260000e-002) (81, 3.77417840063571930000e-002) (82, -2.41936836391687390000e-002) (83, 1.36056318879127500000e-001) (84, -8.49364623427391050000e-002) (0, 1.69961571693420410000e-001) (1, 1.08653709292411800000e-001) (2, -9.61716994643211360000e-002) (3, 1.08074061572551730000e-002) (4, -3.66409942507743840000e-002) (5, 4.41751033067703250000e-002) (6, 2.87306636571884160000e-001) (7, -2.73488998413085940000e-001) (8, -1.50473549962043760000e-001) (9, 1.22824870049953460000e-001) (10, -9.60594788193702700000e-002) (11, 5.38120344281196590000e-002) (12, 4.41733449697494510000e-002) (13, 7.14504495263099670000e-002) (14, -6.97729587554931640000e-002) (15, 1.46160304546356200000e-001) (16, -1.89504381269216540000e-002) (17, -5.35781076177954670000e-003) (18, 8.22117403149604800000e-002) (19, 5.38574047386646270000e-002) (20, 1.11593278124928470000e-002) (21, -6.54372572898864750000e-003) (22, 8.07733088731765750000e-002) (23, 1.37196597643196580000e-003) (24, -7.94911980628967290000e-002) (25, -6.05339594185352330000e-002) (26, -1.68536752462387080000e-001) (27, 1.20663553476333620000e-001) (28, -1.81993246078491210000e-001) (29, -3.41633856296539310000e-001) (30, 8.43601301312446590000e-002) (31, 4.54501546919345860000e-002) (32, -5.93524165451526640000e-002) (33, -1.00416056811809540000e-001) (34, -6.86345249414443970000e-002) (35, -3.83232459425926210000e-002) (36, -1.73717454075813290000e-001) (37, -2.04848349094390870000e-001) (38, 3.91795337200164790000e-002) (39, 1.00698970258235930000e-001) (40, -9.29348990321159360000e-002) (41, -2.51819342374801640000e-001) (42, 1.58120736479759220000e-001) (43, -7.79370218515396120000e-003) (44, 5.12726865708827970000e-002) (45, -3.20499427616596220000e-002) (46, 1.94890573620796200000e-001) (47, 1.29246428608894350000e-001) (48, -6.53160884976387020000e-002) (49, 4.96562644839286800000e-002) (50, 7.84440264105796810000e-002) (51, 7.09008285775780680000e-003) (52, 2.05353461205959320000e-002) (53, 1.12381912767887120000e-002) (54, 2.02573299407958980000e-001) (55, 1.73423960804939270000e-002) (56, 1.49214148521423340000e-001) (57, 1.00342202931642530000e-002) (58, -1.62675634026527400000e-001) (59, -1.04743927717208860000e-001) (60, 8.05172771215438840000e-002) (61, -8.49158465862274170000e-002) (62, 3.51108461618423460000e-002) (63, 3.94583567976951600000e-002) (64, -6.51611387729644780000e-002) (65, -2.66995936632156370000e-001) (66, -1.72936916351318360000e-002) (67, 2.70340219140052800000e-002) (68, 2.16221958398818970000e-001) (69, 4.06143888831138610000e-002) (70, -6.64855018258094790000e-002) (71, -5.43416813015937810000e-002) (72, 1.28777891397476200000e-001) (73, 3.79794426262378690000e-002) (74, 1.51196017861366270000e-001) (75, 5.62524572014808650000e-002) (76, 1.51663765311241150000e-001) (77, -8.96396264433860780000e-002) (78, 5.39171732962131500000e-002) (79, 7.65604898333549500000e-003) (80, 1.26155227422714230000e-001) (81, 1.00216738879680630000e-001) (82, 3.59686911106109620000e-002) (83, 1.66877135634422300000e-002) (84, -1.54360070824623110000e-001) (0, -8.27872976660728450000e-002) (1, -2.07207649946212770000e-001) (2, -1.68431937694549560000e-001) (3, 2.29765862226486210000e-001) (4, -3.99656623601913450000e-001) (5, 5.21846950054168700000e-001) (6, -3.96834462881088260000e-002) (7, -2.46423948556184770000e-002) (8, -3.75945270061492920000e-001) (9, 5.48886895179748540000e-001) (10, -1.84037104249000550000e-001) (11, 2.71706193685531620000e-001) (12, -9.10978391766548160000e-002) (13, -5.85576109588146210000e-002) (14, 1.00768849253654480000e-001) (15, -1.31027892231941220000e-001) (16, 9.02499407529830930000e-002) (17, 1.80777266621589660000e-001) (18, -3.00373464822769170000e-001) (19, 2.75194376707077030000e-001) (20, -2.88720756769180300000e-001) (21, 1.19667805731296540000e-001) (22, -2.98617273569107060000e-001) (23, 3.31158012151718140000e-001) (24, 6.17863200604915620000e-002) (25, 1.48520752787590030000e-001) (26, 7.81158059835433960000e-002) (27, -1.26830980181694030000e-001) (28, -2.95308176428079610000e-002) (29, -7.19494223594665530000e-002) (30, -4.94774989783763890000e-002) (31, -1.36210128664970400000e-001) (32, -1.35176777839660640000e-001) (33, -8.44994038343429570000e-002) (34, -7.78065472841262820000e-002) (35, -8.11201781034469600000e-002) (36, 3.25544271618127820000e-003) (37, 5.64003624022006990000e-002) (38, -3.40541489422321320000e-002) (39, -1.66583731770515440000e-001) (40, 1.89559459686279300000e-002) (41, -9.29103568196296690000e-002) (42, 5.96734620630741120000e-002) (43, 2.05877237021923070000e-002) (44, -2.52275131642818450000e-002) (45, 1.21682267636060710000e-002) (46, -6.32693916559219360000e-002) (47, -8.90871882438659670000e-002) (48, 8.00777375698089600000e-002) (49, -2.38574028015136720000e-001) (50, 9.40125435590744020000e-002) (51, 1.20783984661102290000e-001) (52, -1.05201169848442080000e-001) (53, -3.88142205774784090000e-002) (54, 7.47605264186859130000e-002) (55, 1.22175342403352260000e-003) (56, 9.11204069852828980000e-002) (57, -1.72068372368812560000e-001) (58, -5.97923845052719120000e-002) (59, -1.19894616305828090000e-001) (60, 1.36606311425566670000e-002) (61, -2.59066998958587650000e-001) (62, 1.34103640913963320000e-001) (63, -9.80544686317443850000e-002) (64, 2.45028719305992130000e-001) (65, -8.45563262701034550000e-002) (66, -4.44982759654521940000e-002) (67, -1.38959586620330810000e-001) (68, 7.43254274129867550000e-002) (69, -2.00895041227340700000e-001) (70, 1.82025551795959470000e-001) (71, -3.14932949841022490000e-002) (72, 1.56815201044082640000e-001) (73, 6.59670727327466010000e-003) (74, 9.45111922919750210000e-003) (75, -2.63765584677457810000e-002) (76, 1.04322046041488650000e-001) (77, -2.10496768355369570000e-001) (78, 2.43139192461967470000e-001) (79, 1.92115828394889830000e-001) (80, 7.27781876921653750000e-002) (81, -8.34216475486755370000e-002) (82, 1.09959229826927190000e-001) (83, -1.47139072418212890000e-001) (84, 3.39488461613655090000e-002) (0, 9.20895710587501530000e-002) (1, -2.78115961700677870000e-002) (2, -2.32018366456031800000e-001) (3, 5.79903926700353620000e-003) (4, -9.07248780131340030000e-002) (5, -1.74434427171945570000e-002) (6, -1.44667863845825200000e-001) (7, 1.13414406776428220000e-001) (8, -1.66656188666820530000e-002) (9, -2.77940798550844190000e-002) (10, -2.10082679986953740000e-001) (11, -7.35931023955345150000e-002) (12, 2.81114112585783000000e-002) (13, -7.83542990684509280000e-002) (14, -2.83493131399154660000e-001) (15, 9.26400814205408100000e-003) (16, 8.21457058191299440000e-002) (17, -5.13275302946567540000e-002) (18, 4.92320582270622250000e-002) (19, -9.09806862473487850000e-002) (20, -2.79951959848403930000e-001) (21, -1.28998920321464540000e-001) (22, 5.63216544687747960000e-002) (23, -1.19574546813964840000e-001) (24, 5.86301945149898530000e-002) (25, -1.25314146280288700000e-001) (26, -2.45120361447334290000e-001) (27, -2.98911388963460920000e-002) (28, 1.12783670425415040000e-001) (29, -3.52059230208396910000e-002) (30, 6.29770383238792420000e-003) (31, 1.63071915507316590000e-001) (32, 1.18167161941528320000e-001) (33, -5.07497042417526250000e-002) (34, 1.69308960437774660000e-001) (35, -3.20973694324493410000e-002) (36, 9.92871448397636410000e-002) (37, -8.03622826933860780000e-002) (38, 5.65466657280921940000e-002) (39, 2.11522653698921200000e-001) (40, 8.54011923074722290000e-002) (41, -3.29094082117080690000e-002) (42, 1.90891623497009280000e-001) (43, -7.95911550521850590000e-002) (44, -2.37717747688293460000e-001) (45, 1.21429078280925750000e-001) (46, -8.59343167394399640000e-003) (47, -7.68783614039421080000e-002) (48, 7.13396072387695310000e-002) (49, -9.07533019781112670000e-002) (50, -1.15969656035304070000e-002) (51, -1.48377820849418640000e-001) (52, -1.68791502714157100000e-001) (53, 1.72319635748863220000e-001) (54, 2.36635297536849980000e-001) (55, -1.32763996720314030000e-001) (56, 1.14747859537601470000e-001) (57, -3.74969430267810820000e-002) (58, -6.45647644996643070000e-002) (59, -8.10751691460609440000e-003) (60, 8.06844234466552730000e-002) (61, -9.56537947058677670000e-002) (62, 5.87026169523596760000e-003) (63, -2.29145176708698270000e-002) (64, 1.48731027729809280000e-003) (65, -9.78724658489227290000e-002) (66, -4.57084961235523220000e-002) (67, -2.68802493810653690000e-002) (68, 1.08923964202404020000e-001) (69, -1.04909710586071010000e-001) (70, -5.89353106915950780000e-002) (71, 6.13171830773353580000e-002) (72, -1.35884303599596020000e-002) (73, 4.23095151782035830000e-002) (74, 6.44005015492439270000e-002) (75, 2.36778348684310910000e-001) (76, 8.26321840286254880000e-002) (77, 3.41455191373825070000e-002) (78, 6.81783929467201230000e-002) (79, 1.98321536183357240000e-001) (80, -7.73380836471915250000e-003) (81, 4.42211218178272250000e-002) (82, -5.00003397464752200000e-002) (83, 1.01272627711296080000e-001) (84, -1.93025171756744380000e-001) (0, -5.72305992245674130000e-002) (1, -1.18222080171108250000e-001) (2, 3.18502373993396760000e-002) (3, 7.18732848763465880000e-002) (4, 1.09514065086841580000e-001) (5, -1.90375775098800660000e-001) (6, -2.74738594889640810000e-002) (7, -2.39144545048475270000e-002) (8, -2.88984831422567370000e-003) (9, -2.38067865371704100000e-001) (10, 5.41234575212001800000e-002) (11, 1.23300246894359590000e-001) (12, -1.44227534532547000000e-001) (13, -2.27806463837623600000e-001) (14, 4.14177179336547850000e-002) (15, -9.71442088484764100000e-002) (16, -1.07787497341632840000e-001) (17, -3.57073724269866940000e-001) (18, 1.96249902248382570000e-001) (19, -1.84110313653945920000e-001) (20, -5.44430911540985110000e-002) (21, 6.59696906805038450000e-002) (22, 1.64268612861633300000e-001) (23, -1.97526395320892330000e-001) (24, -3.22371050715446470000e-002) (25, -2.57939547300338750000e-001) (26, 9.37031283974647520000e-002) (27, -1.09339371323585510000e-001) (28, 4.26842346787452700000e-002) (29, -1.43511155620217320000e-002) (30, 7.00303837656974790000e-002) (31, 1.19201958179473880000e-001) (32, 1.24860823154449460000e-001) (33, 5.56544996798038480000e-002) (34, 1.01910591125488280000e-001) (35, 1.55239015817642210000e-001) (36, 1.14729292690753940000e-001) (37, 3.95563766360282900000e-002) (38, 1.02567508816719060000e-001) (39, 1.32843211293220520000e-001) (40, 7.60424602776765820000e-003) (41, -6.70925108715891840000e-003) (42, 5.47652058303356170000e-002) (43, -2.47417110949754710000e-002) (44, -1.02626308798789980000e-001) (45, -3.33540029823780060000e-002) (46, 3.75834330916404720000e-002) (47, -4.86680790781974790000e-002) (48, -1.55600890517234800000e-001) (49, -1.30971893668174740000e-001) (50, 1.78229082375764850000e-002) (51, -5.88218402117490770000e-003) (52, -4.73182499408721920000e-002) (53, 5.61282868147827680000e-005) (54, -5.33230341970920560000e-002) (55, -7.10880104452371600000e-003) (56, 1.67284473776817320000e-001) (57, 1.38344923034310340000e-002) (58, -2.07484140992164610000e-002) (59, -6.29242658615112300000e-002) (60, -1.99280120432376860000e-002) (61, -1.00140936672687530000e-001) (62, 9.35141462832689290000e-003) (63, -2.15213596820831300000e-002) (64, -5.71412891149520870000e-002) (65, -1.50925204157829280000e-001) (66, 5.23856543004512790000e-002) (67, 4.57495357841253280000e-003) (68, 1.34260073304176330000e-001) (69, 2.93554738163948060000e-002) (70, -1.18561722338199620000e-001) (71, -3.57395522296428680000e-002) (72, 3.27873565256595610000e-002) (73, 5.36336749792099000000e-002) (74, 2.92044021189212800000e-002) (75, 1.34904339909553530000e-001) (76, -2.15011257678270340000e-002) (77, -1.75952457357198000000e-003) (78, 1.04785755276679990000e-001) (79, 8.52953344583511350000e-002) (80, 8.17696452140808110000e-002) (81, 1.41503084450960160000e-002) (82, -8.48379209637641910000e-002) (83, -6.84562176465988160000e-002) (84, -2.59098540991544720000e-002) (0, 1.50614202022552490000e-001) (1, -4.11668000742793080000e-003) (2, 1.53422877192497250000e-001) (3, 1.72624979168176650000e-002) (4, 2.16164946556091310000e-001) (5, -1.84842035174369810000e-001) (6, -1.05677865445613860000e-001) (7, -7.43191316723823550000e-002) (8, 2.47976690530776980000e-001) (9, -2.03635871410369870000e-001) (10, 1.40793964266777040000e-001) (11, 1.13417422398924830000e-002) (12, 3.51399481296539310000e-001) (13, -1.57275989651679990000e-001) (14, -1.91778883337974550000e-001) (15, -1.62223801016807560000e-001) (16, 2.38202422857284550000e-001) (17, -1.42037287354469300000e-001) (18, 8.67953523993492130000e-002) (19, -1.93964779376983640000e-001) (20, -7.05706179141998290000e-002) (21, -3.06106746196746830000e-001) (22, 1.01778559386730190000e-001) (23, -2.72645980119705200000e-001) (24, 1.03142969310283660000e-001) (25, -1.38287795707583430000e-002) (26, -1.99385359883308410000e-001) (27, 5.96283469349145890000e-003) (28, -2.42987647652626040000e-002) (29, -6.87303543090820310000e-002) (30, -5.95826143398880960000e-003) (31, -3.86374965310096740000e-002) (32, 1.00237205624580380000e-001) (33, 1.76941901445388790000e-001) (34, 1.25391811132431030000e-001) (35, 1.80489003658294680000e-001) (36, -2.59210471995174880000e-003) (37, 4.39938530325889590000e-002) (38, 3.80338355898857120000e-002) (39, -3.07873357087373730000e-002) (40, 8.96111801266670230000e-002) (41, -1.18582420051097870000e-001) (42, -1.30498700309544800000e-003) (43, -8.82996693253517150000e-002) (44, -2.49665956944227220000e-002) (45, 6.61031380295753480000e-002) (46, 1.01185522973537450000e-001) (47, 8.31334143877029420000e-002) (48, -5.38524240255355830000e-002) (49, 5.15325814485549930000e-002) (50, -4.59584146738052370000e-002) (51, 2.89803314954042430000e-002) (52, -6.25987276434898380000e-002) (53, 3.75362820923328400000e-002) (54, -3.73680889606475830000e-002) (55, -7.45324185118079190000e-003) (56, 1.18098385632038120000e-001) (57, -2.95874550938606260000e-002) (58, -9.54052433371543880000e-003) (59, -6.57212883234024050000e-002) (60, -2.06058565527200700000e-002) (61, -1.65095645934343340000e-002) (62, 5.80516606569290160000e-002) (63, 1.40891626477241520000e-001) (64, -1.67468354105949400000e-001) (65, -2.59173244237899780000e-001) (66, 5.60152286197990180000e-004) (67, -1.61511898040771480000e-002) (68, 1.56413674354553220000e-001) (69, -1.74716357141733170000e-002) (70, 2.25142221897840500000e-002) (71, 3.77465337514877320000e-002) (72, 4.40341196954250340000e-002) (73, 2.08173468708992000000e-002) (74, 2.50329002737998960000e-002) (75, 9.91948768496513370000e-002) (76, -1.81443825364112850000e-001) (77, -1.29855126142501830000e-001) (78, -4.24855947494506840000e-003) (79, -1.53146013617515560000e-002) (80, 1.09134376049041750000e-001) (81, -5.54106058552861210000e-003) (82, 3.08886673301458360000e-002) (83, 7.32052102684974670000e-002) (84, 3.94233241677284240000e-002) (0, -2.24807739257812500000e-001) (1, -6.43786713480949400000e-002) (2, -2.32474282383918760000e-002) (3, 1.00474148988723750000e-001) (4, 5.68915791809558870000e-002) (5, -6.45861402153968810000e-002) (6, 3.85851025581359860000e-001) (7, -6.27374872565269470000e-002) (8, 8.21318030357360840000e-002) (9, -7.56924450397491460000e-002) (10, -4.04130704700946810000e-002) (11, 7.78769180178642270000e-002) (12, -1.11223377287387850000e-001) (13, -3.79132218658924100000e-002) (14, 7.83521384000778200000e-002) (15, -8.03705900907516480000e-002) (16, -4.71284054219722750000e-003) (17, -1.00028164684772490000e-001) (18, 1.55471935868263240000e-001) (19, -1.83909922838211060000e-001) (20, -1.47112548351287840000e-001) (21, 1.09907373785972600000e-001) (22, 1.08154907822608950000e-001) (23, -1.99735641479492190000e-001) (24, -2.21376903355121610000e-002) (25, 2.58018597960472110000e-002) (26, -1.40790434670634570000e-004) (27, -9.23977792263031010000e-002) (28, 4.21571917831897740000e-002) (29, 1.08668887987732890000e-002) (30, -6.38630390167236330000e-002) (31, -4.26528183743357660000e-003) (32, -2.39439532160758970000e-002) (33, 9.63171720504760740000e-002) (34, -1.12817756831645970000e-001) (35, -7.50306341797113420000e-003) (36, -6.49239793419837950000e-002) (37, 8.50713551044464110000e-002) (38, 7.40522295236587520000e-002) (39, 1.84268057346343990000e-001) (40, 2.83361785113811490000e-002) (41, 1.56440457794815300000e-003) (42, -4.43866662681102750000e-002) (43, -5.96437901258468630000e-002) (44, -1.82986661791801450000e-001) (45, -1.55927374958992000000e-001) (46, 6.90729497000575070000e-003) (47, 1.20984755456447600000e-001) (48, 4.12207879126071930000e-002) (49, -2.96136587858200070000e-002) (50, -2.37640133127570150000e-003) (51, 6.58206194639205930000e-002) (52, -1.06694571673870090000e-001) (53, -9.93528589606285100000e-002) (54, -1.21879708021879200000e-002) (55, -5.11512607336044310000e-002) (56, -5.35773001611232760000e-002) (57, 2.45551280677318570000e-002) (58, 1.39814540743827820000e-002) (59, 1.39569818973541260000e-001) (60, 2.91908495128154750000e-002) (61, -2.51644458621740340000e-002) (62, -5.92005662620067600000e-002) (63, 8.44794288277626040000e-002) (64, -3.79464440047740940000e-002) (65, -8.56544971466064450000e-002) (66, 7.81621411442756650000e-002) (67, 1.61373585462570190000e-001) (68, -1.93564891815185550000e-002) (69, 2.68505364656448360000e-002) (70, 3.51349152624607090000e-002) (71, 1.42045959830284120000e-001) (72, -1.18646509945392610000e-002) (73, 1.78331497590988870000e-003) (74, -3.55491451919078830000e-002) (75, 4.04416657984256740000e-002) (76, -1.56572815030813220000e-002) (77, -1.16084115579724310000e-002) (78, -1.59207776188850400000e-001) (79, -6.57433643937110900000e-002) (80, -3.15784960985183720000e-002) (81, 4.28509861230850220000e-002) (82, 3.58064076863229270000e-003) (83, 8.73219594359397890000e-002) (84, -4.28607724606990810000e-002) (0, -1.01429097354412080000e-001) (1, 8.38290229439735410000e-002) (2, 5.36705851554870610000e-002) (3, -1.65816619992256160000e-002) (4, -1.41117259860038760000e-001) (5, 6.96976706385612490000e-002) (6, -5.05411960184574130000e-002) (7, -1.53411120176315310000e-001) (8, -1.74431383609771730000e-001) (9, -1.42262224107980730000e-002) (10, 9.44953337311744690000e-002) (11, 7.50011205673217770000e-002) (12, -6.67318552732467650000e-002) (13, 5.07604740560054780000e-002) (14, -8.54804217815399170000e-002) (15, 1.46920561790466310000e-001) (16, 2.42376681417226790000e-002) (17, -1.03914790088310840000e-004) (18, 1.80957391858100890000e-002) (19, 1.41480505466461180000e-001) (20, 2.39930748939514160000e-002) (21, -7.04690292477607730000e-002) (22, 3.13927568495273590000e-002) (23, 1.51516735553741460000e-001) (24, 3.17090749740600590000e-002) (25, 7.69079721067100760000e-004) (26, -1.39790654182434080000e-001) (27, 1.52632549405097960000e-001) (28, -9.21105891466140750000e-002) (29, -4.95240837335586550000e-002) (30, 1.58018647198332470000e-005) (31, -6.56221061944961550000e-002) (32, -5.32479882240295410000e-002) (33, 3.12955938279628750000e-002) (34, 9.50977727770805360000e-002) (35, -1.13902641460299490000e-002) (36, -3.30263189971446990000e-002) (37, -5.76506508514285090000e-003) (38, -3.64451222121715550000e-002) (39, -7.64095038175582890000e-002) (40, -7.06118196249008180000e-002) (41, -3.53161804378032680000e-002) (42, 1.66274324059486390000e-001) (43, -3.54896038770675660000e-002) (44, 7.90457800030708310000e-002) (45, -5.62969269230961800000e-003) (46, 1.44296383950859310000e-003) (47, 4.92176553234457970000e-003) (48, 8.22544768452644350000e-002) (49, -7.09249218925833700000e-003) (50, -1.41165405511856080000e-002) (51, 3.97579371929168700000e-002) (52, 1.54800683259963990000e-001) (53, 4.72064763307571410000e-002) (54, 1.40542879700660710000e-001) (55, -3.92845161259174350000e-002) (56, -1.80945899337530140000e-002) (57, -1.03110514581203460000e-001) (58, 2.19750832766294480000e-002) (59, 1.96131132543087010000e-002) 