FANN_FLO_2.1
num_layers=3
learning_rate=0.500000
connection_rate=1.000000
network_type=0
learning_momentum=0.000000
training_algorithm=1
train_error_function=1
train_stop_function=0
cascade_output_change_fraction=0.010000
quickprop_decay=-0.000100
quickprop_mu=1.750000
rprop_increase_factor=1.200000
rprop_decrease_factor=0.500000
rprop_delta_min=0.000000
rprop_delta_max=50.000000
rprop_delta_zero=0.100000
cascade_output_stagnation_epochs=12
cascade_candidate_change_fraction=0.010000
cascade_candidate_stagnation_epochs=12
cascade_max_out_epochs=150
cascade_min_out_epochs=50
cascade_max_cand_epochs=150
cascade_min_cand_epochs=50
cascade_num_candidate_groups=2
bit_fail_limit=3.49999994039535520000e-001
cascade_candidate_limit=1.00000000000000000000e+003
cascade_weight_multiplier=4.00000005960464480000e-001
cascade_activation_functions_count=10
cascade_activation_functions=3 5 7 8 10 11 14 15 16 17 
cascade_activation_steepnesses_count=4
cascade_activation_steepnesses=2.50000000000000000000e-001 5.00000000000000000000e-001 7.50000000000000000000e-001 1.00000000000000000000e+000 
layer_sizes=85 81 2 
scale_included=0
neurons (num_inputs, activation_function, activation_steepness)=(0, 0, 0.00000000000000000000e+000) (0, 0, 0.00000000000000000000e+000) (0, 0, 0.00000000000000000000e+000) (0, 0, 0.00000000000000000000e+000) (0, 0, 0.00000000000000000000e+000) (0, 0, 0.00000000000000000000e+000) (0, 0, 0.00000000000000000000e+000) (0, 0, 0.00000000000000000000e+000) (0, 0, 0.00000000000000000000e+000) (0, 0, 0.00000000000000000000e+000) (0, 0, 0.00000000000000000000e+000) (0, 0, 0.00000000000000000000e+000) (0, 0, 0.00000000000000000000e+000) (0, 0, 0.00000000000000000000e+000) (0, 0, 0.00000000000000000000e+000) (0, 0, 0.00000000000000000000e+000) (0, 0, 0.00000000000000000000e+000) (0, 0, 0.00000000000000000000e+000) (0, 0, 0.00000000000000000000e+000) (0, 0, 0.00000000000000000000e+000) (0, 0, 0.00000000000000000000e+000) (0, 0, 0.00000000000000000000e+000) (0, 0, 0.00000000000000000000e+000) (0, 0, 0.00000000000000000000e+000) (0, 0, 0.00000000000000000000e+000) (0, 0, 0.00000000000000000000e+000) (0, 0, 0.00000000000000000000e+000) (0, 0, 0.00000000000000000000e+000) (0, 0, 0.00000000000000000000e+000) (0, 0, 0.00000000000000000000e+000) (0, 0, 0.00000000000000000000e+000) (0, 0, 0.00000000000000000000e+000) (0, 0, 0.00000000000000000000e+000) (0, 0, 0.00000000000000000000e+000) (0, 0, 0.00000000000000000000e+000) (0, 0, 0.00000000000000000000e+000) (0, 0, 0.00000000000000000000e+000) (0, 0, 0.00000000000000000000e+000) (0, 0, 0.00000000000000000000e+000) (0, 0, 0.00000000000000000000e+000) (0, 0, 0.00000000000000000000e+000) (0, 0, 0.00000000000000000000e+000) (0, 0, 0.00000000000000000000e+000) (0, 0, 0.00000000000000000000e+000) (0, 0, 0.00000000000000000000e+000) (0, 0, 0.00000000000000000000e+000) (0, 0, 0.00000000000000000000e+000) (0, 0, 0.00000000000000000000e+000) (0, 0, 0.00000000000000000000e+000) (0, 0, 0.00000000000000000000e+000) (0, 0, 0.00000000000000000000e+000) (0, 0, 0.00000000000000000000e+000) (0, 0, 0.00000000000000000000e+000) (0, 0, 0.00000000000000000000e+000) (0, 0, 0.00000000000000000000e+000) (0, 0, 0.00000000000000000000e+000) (0, 0, 0.00000000000000000000e+000) (0, 0, 0.00000000000000000000e+000) (0, 0, 0.00000000000000000000e+000) (0, 0, 0.00000000000000000000e+000) (0, 0, 0.00000000000000000000e+000) (0, 0, 0.00000000000000000000e+000) (0, 0, 0.00000000000000000000e+000) (0, 0, 0.00000000000000000000e+000) (0, 0, 0.00000000000000000000e+000) (0, 0, 0.00000000000000000000e+000) (0, 0, 0.00000000000000000000e+000) (0, 0, 0.00000000000000000000e+000) (0, 0, 0.00000000000000000000e+000) (0, 0, 0.00000000000000000000e+000) (0, 0, 0.00000000000000000000e+000) (0, 0, 0.00000000000000000000e+000) (0, 0, 0.00000000000000000000e+000) (0, 0, 0.00000000000000000000e+000) (0, 0, 0.00000000000000000000e+000) (0, 0, 0.00000000000000000000e+000) (0, 0, 0.00000000000000000000e+000) (0, 0, 0.00000000000000000000e+000) (0, 0, 0.00000000000000000000e+000) (0, 0, 0.00000000000000000000e+000) (0, 0, 0.00000000000000000000e+000) (0, 0, 0.00000000000000000000e+000) (0, 0, 0.00000000000000000000e+000) (0, 0, 0.00000000000000000000e+000) (0, 0, 0.00000000000000000000e+000) (85, 6, 1.00000000000000000000e+000) (85, 6, 1.00000000000000000000e+000) (85, 6, 1.00000000000000000000e+000) (85, 6, 1.00000000000000000000e+000) (85, 6, 1.00000000000000000000e+000) (85, 6, 1.00000000000000000000e+000) (85, 6, 1.00000000000000000000e+000) (85, 6, 1.00000000000000000000e+000) (85, 6, 1.00000000000000000000e+000) (85, 6, 1.00000000000000000000e+000) (85, 6, 1.00000000000000000000e+000) (85, 6, 1.00000000000000000000e+000) (85, 6, 1.00000000000000000000e+000) (85, 6, 1.00000000000000000000e+000) (85, 6, 1.00000000000000000000e+000) (85, 6, 1.00000000000000000000e+000) (85, 6, 1.00000000000000000000e+000) (85, 6, 1.00000000000000000000e+000) (85, 6, 1.00000000000000000000e+000) (85, 6, 1.00000000000000000000e+000) (85, 6, 1.00000000000000000000e+000) (85, 6, 1.00000000000000000000e+000) (85, 6, 1.00000000000000000000e+000) (85, 6, 1.00000000000000000000e+000) (85, 6, 1.00000000000000000000e+000) (85, 6, 1.00000000000000000000e+000) (85, 6, 1.00000000000000000000e+000) (85, 6, 1.00000000000000000000e+000) (85, 6, 1.00000000000000000000e+000) (85, 6, 1.00000000000000000000e+000) (85, 6, 1.00000000000000000000e+000) (85, 6, 1.00000000000000000000e+000) (85, 6, 1.00000000000000000000e+000) (85, 6, 1.00000000000000000000e+000) (85, 6, 1.00000000000000000000e+000) (85, 6, 1.00000000000000000000e+000) (85, 6, 1.00000000000000000000e+000) (85, 6, 1.00000000000000000000e+000) (85, 6, 1.00000000000000000000e+000) (85, 6, 1.00000000000000000000e+000) (85, 6, 1.00000000000000000000e+000) (85, 6, 1.00000000000000000000e+000) (85, 6, 1.00000000000000000000e+000) (85, 6, 1.00000000000000000000e+000) (85, 6, 1.00000000000000000000e+000) (85, 6, 1.00000000000000000000e+000) (85, 6, 1.00000000000000000000e+000) (85, 6, 1.00000000000000000000e+000) (85, 6, 1.00000000000000000000e+000) (85, 6, 1.00000000000000000000e+000) (85, 6, 1.00000000000000000000e+000) (85, 6, 1.00000000000000000000e+000) (85, 6, 1.00000000000000000000e+000) (85, 6, 1.00000000000000000000e+000) (85, 6, 1.00000000000000000000e+000) (85, 6, 1.00000000000000000000e+000) (85, 6, 1.00000000000000000000e+000) (85, 6, 1.00000000000000000000e+000) (85, 6, 1.00000000000000000000e+000) (85, 6, 1.00000000000000000000e+000) (85, 6, 1.00000000000000000000e+000) (85, 6, 1.00000000000000000000e+000) (85, 6, 1.00000000000000000000e+000) (85, 6, 1.00000000000000000000e+000) (85, 6, 1.00000000000000000000e+000) (85, 6, 1.00000000000000000000e+000) (85, 6, 1.00000000000000000000e+000) (85, 6, 1.00000000000000000000e+000) (85, 6, 1.00000000000000000000e+000) (85, 6, 1.00000000000000000000e+000) (85, 6, 1.00000000000000000000e+000) (85, 6, 1.00000000000000000000e+000) (85, 6, 1.00000000000000000000e+000) (85, 6, 1.00000000000000000000e+000) (85, 6, 1.00000000000000000000e+000) (85, 6, 1.00000000000000000000e+000) (85, 6, 1.00000000000000000000e+000) (85, 6, 1.00000000000000000000e+000) (85, 6, 1.00000000000000000000e+000) (85, 6, 1.00000000000000000000e+000) (0, 6, 1.00000000000000000000e+000) (81, 6, 1.00000000000000000000e+000) (0, 6, 1.00000000000000000000e+000) 
connections (connected_to_neuron, weight)=(0, 4.12197858095169070000e-001) (1, -2.60064572095870970000e-001) (2, 2.02054977416992190000e-001) (3, -4.51842844486236570000e-002) (4, 1.99603080749511720000e-001) (5, 2.10464507341384890000e-001) (6, -4.79314625263214110000e-002) (7, 2.00554758310317990000e-001) (8, 1.94422662258148190000e-001) (9, 2.01253190636634830000e-001) (10, 2.36997514963150020000e-001) (11, -5.80720119178295140000e-002) (12, 3.91789883375167850000e-001) (13, -2.29196950793266300000e-001) (14, 8.40728208422660830000e-002) (15, -1.16217255592346190000e-001) (16, -6.22499994933605190000e-002) (17, 2.23566442728042600000e-001) (18, -7.29968622326850890000e-002) (19, 1.77764207124710080000e-001) (20, -1.84414565563201900000e-001) (21, -9.32986736297607420000e-002) (22, -8.98368284106254580000e-002) (23, 1.79324209690093990000e-001) (24, -7.97044485807418820000e-002) (25, 2.42857173085212710000e-001) (26, 6.10507689416408540000e-002) (27, -1.13595657050609590000e-001) (28, 1.50923177599906920000e-001) (29, 3.43724071979522710000e-001) (30, -1.75123393535614010000e-001) (31, -7.69372507929801940000e-002) (32, -1.58672690391540530000e-001) (33, -7.85225033760070800000e-002) (34, -7.51918479800224300000e-002) (35, 1.26624524593353270000e-001) (36, -1.51024281978607180000e-001) (37, -1.00883260369300840000e-001) (38, -1.69223934412002560000e-001) (39, -9.96217876672744750000e-002) (40, 1.49346470832824710000e-001) (41, 3.37369590997695920000e-001) (42, -1.85264140367507930000e-001) (43, 4.36758361756801610000e-002) (44, 5.94819672405719760000e-002) (45, 1.12596251070499420000e-001) (46, 1.38254076242446900000e-001) (47, 2.74425268173217770000e-001) (48, -1.87066256999969480000e-001) (49, 2.05382466316223140000e-001) (50, 1.29469856619834900000e-001) (51, 2.84901797771453860000e-001) (52, 6.26873970031738280000e-002) (53, 1.08894608914852140000e-001) (54, -2.05716252326965330000e-001) (55, 4.58485521376132970000e-002) (56, -2.46768921613693240000e-001) (57, -1.27214314416050910000e-002) (58, 5.50996884703636170000e-002) (59, 2.43490532040596010000e-001) (60, -1.94933399558067320000e-001) (61, -3.59748639166355130000e-002) (62, -5.82732893526554110000e-002) (63, 7.04012960195541380000e-002) (64, -1.66688174009323120000e-001) (65, -1.27672834787517790000e-003) (66, 5.59428259730339050000e-002) (67, 2.04291209578514100000e-001) (68, -2.47885420918464660000e-001) (69, -2.41419170051813130000e-002) (70, -1.01172648370265960000e-001) (71, 5.19589483737945560000e-002) (72, -1.56565085053443910000e-001) (73, -1.71581543982028960000e-002) (74, -4.60194647312164310000e-002) (75, 5.11097609996795650000e-002) (76, -8.21668729186058040000e-002) (77, -7.48510751873254780000e-003) (78, -1.77420992404222490000e-002) (79, 6.92668333649635310000e-002) (80, -1.77417144179344180000e-001) (81, -4.88604158163070680000e-002) (82, -1.10865287482738490000e-001) (83, 3.90111096203327180000e-002) (84, -2.80493311583995820000e-002) (0, -1.93978279829025270000e-001) (1, -9.21945944428443910000e-002) (2, 1.73034146428108220000e-002) (3, -1.90892025828361510000e-001) (4, 4.93150204420089720000e-002) (5, -2.37717285752296450000e-001) (6, -4.39052917063236240000e-002) (7, 3.35257090628147130000e-002) (8, 2.71148383617401120000e-002) (9, -2.34928265213966370000e-001) (10, 8.95277876406908040000e-003) (11, -1.05024114251136780000e-001) (12, -2.19062224030494690000e-001) (13, -9.49095189571380620000e-002) (14, 1.70219704508781430000e-001) (15, 1.85518905520439150000e-001) (16, -1.28672778606414790000e-001) (17, -1.10856644809246060000e-001) (18, 2.61809676885604860000e-001) (19, 6.61430880427360530000e-002) (20, -2.28387668728828430000e-001) (21, -1.57231211662292480000e-001) (22, 2.60616779327392580000e-001) (23, 4.34695631265640260000e-002) (24, -1.06891334056854250000e-001) (25, -6.73513785004615780000e-002) (26, 1.33728519082069400000e-001) (27, 1.75068736076354980000e-001) (28, 9.08961147069931030000e-003) (29, 1.64140075445175170000e-001) (30, -5.14202043414115910000e-002) (31, 4.24432717263698580000e-002) (32, 1.36024251580238340000e-001) (33, 4.23293970525264740000e-002) (34, -6.50790892541408540000e-003) (35, -1.21830120682716370000e-001) (36, 1.16630278527736660000e-001) (37, 4.45335768163204190000e-002) (38, -2.58619319647550580000e-002) (39, 4.12138849496841430000e-002) (40, 8.00726413726806640000e-002) (41, 1.81918725371360780000e-001) (42, -1.51120945811271670000e-001) (43, -1.20301567018032070000e-001) (44, -4.46578674018383030000e-002) (45, 5.20945563912391660000e-002) (46, -4.81663979589939120000e-002) (47, -9.57860201597213750000e-002) (48, 4.23415489494800570000e-002) (49, 6.53589293360710140000e-002) (50, 5.68757466971874240000e-002) (51, -2.00377758592367170000e-002) (52, 4.46376688778400420000e-002) (53, 5.37501946091651920000e-002) (54, -1.09228163957595830000e-001) (55, -1.19635164737701420000e-001) (56, -5.83606325089931490000e-002) (57, -2.25072130560874940000e-002) (58, 4.10683490335941310000e-002) (59, -6.51528388261795040000e-002) (60, -3.46574187278747560000e-002) (61, -1.66950047016143800000e-001) (62, 8.39429572224617000000e-002) (63, -4.71445247530937190000e-002) (64, 1.24614527449011800000e-002) (65, -1.39327466487884520000e-001) (66, 5.87802417576313020000e-002) (67, -4.65298146009445190000e-002) (68, -1.26470737159252170000e-002) (69, -4.08779345452785490000e-002) (70, 5.15561364591121670000e-002) (71, 2.38021425902843480000e-002) (72, -3.19478437304496770000e-002) (73, -1.60973332822322850000e-002) (74, -1.45769089460372920000e-001) (75, -1.66569143533706670000e-001) (76, 5.54707646369934080000e-002) (77, 8.23646485805511470000e-002) (78, -1.25924125313758850000e-001) (79, -1.79502621293067930000e-001) (80, 9.89820528775453570000e-003) (81, -1.40009569004178050000e-002) (82, 7.35298618674278260000e-002) (83, 3.85786332190036770000e-002) (84, 1.40285074710845950000e-001) (0, 2.35876198858022690000e-002) (1, 2.41396754980087280000e-001) (2, 3.01258675754070280000e-002) (3, 1.28345447592437270000e-003) (4, 2.12418064475059510000e-002) (5, -1.64910435676574710000e-001) (6, 7.38859549164772030000e-002) (7, 1.95296034216880800000e-002) (8, 5.50379641354084010000e-002) (9, -1.94697663187980650000e-001) (10, 6.74915239214897160000e-002) (11, -6.93481564521789550000e-002) (12, -2.23262198269367220000e-002) (13, 2.13419258594512940000e-001) (14, -3.81722986698150630000e-001) (15, -2.02221170067787170000e-001) (16, 4.83104176819324490000e-002) (17, -2.49232854694128040000e-002) (18, 3.00694435834884640000e-001) (19, 4.35325540602207180000e-002) (20, 4.32921759784221650000e-002) (21, 2.41198409348726270000e-002) (22, 2.13692888617515560000e-001) (23, -3.97245623171329500000e-002) (24, 7.54288285970687870000e-002) (25, -4.31109815835952760000e-002) (26, -4.19373512268066410000e-001) (27, -2.89180874824523930000e-001) (28, 6.53696507215499880000e-002) (29, 1.75699248909950260000e-001) (30, -5.48936948180198670000e-002) (31, -2.26890034973621370000e-002) (32, -4.36221025884151460000e-002) (33, -5.67707829177379610000e-002) (34, -6.72394060529768470000e-004) (35, -9.54551771283149720000e-002) (36, -3.78905273973941800000e-002) (37, -9.28185582160949710000e-002) (38, -3.33071383647620680000e-003) (39, 6.60152686759829520000e-003) (40, 4.26909551024436950000e-002) (41, 9.60552990436553960000e-002) (42, -1.53094884008169170000e-002) (43, 5.93133829534053800000e-002) (44, 6.96554966270923610000e-003) (45, 1.17000527679920200000e-002) (46, 1.53167337179183960000e-001) (47, 1.15361861884593960000e-001) (48, 5.51955625414848330000e-002) (49, 3.22398841381073000000e-002) (50, 8.62746983766555790000e-002) (51, 5.68132102489471440000e-002) (52, 7.44108632206916810000e-002) (53, 4.89777103066444400000e-002) (54, 1.59862153232097630000e-002) (55, 3.58248762786388400000e-002) (56, 3.44979427754879000000e-002) (57, -4.41345162689685820000e-002) (58, -9.64334756135940550000e-002) (59, -1.57070443034172060000e-001) (60, -1.05157621204853060000e-001) (61, -1.17516480386257170000e-001) (62, 7.92952254414558410000e-002) (63, 7.89810493588447570000e-002) (64, -6.53557032346725460000e-002) (65, -7.51721486449241640000e-002) (66, -1.06301121413707730000e-001) (67, -2.15099141001701350000e-001) (68, 7.77951925992965700000e-002) (69, -1.15797063335776330000e-002) (70, 4.84265275299549100000e-002) (71, -6.06935331597924230000e-003) (72, 2.67200078815221790000e-002) (73, 2.38227900117635730000e-002) (74, 2.88590807467699050000e-002) (75, 5.27971610426902770000e-003) (76, -1.44142702221870420000e-001) (77, -8.39588344097137450000e-002) (78, 8.35997983813285830000e-002) (79, 3.62312197685241700000e-002) (80, 2.54618655890226360000e-002) (81, 1.49888936430215840000e-002) (82, 4.92186397314071660000e-002) (83, 1.07519151642918590000e-002) (84, -1.40004819259047510000e-002) (0, 2.68851935863494870000e-001) (1, -1.25091493129730220000e+000) (2, 5.61111092567443850000e-001) (3, -1.21432483196258540000e+000) (4, 2.90948927402496340000e-001) (5, -5.13445079326629640000e-001) (6, 4.47696745395660400000e-001) (7, -1.67364791035652160000e-001) (8, 4.97400015592575070000e-001) (9, -7.89861619472503660000e-001) (10, 2.06219926476478580000e-001) (11, -2.96417474746704100000e-001) (12, -1.37937329709529880000e-002) (13, -2.72761732339859010000e-001) (14, 6.09637141227722170000e-001) (15, -5.45174241065979000000e-001) (16, 2.33799889683723450000e-001) (17, -4.43507671356201170000e-001) (18, -5.95427155494689940000e-002) (19, 1.81465759873390200000e-001) (20, 1.06636755168437960000e-001) (21, 1.01457662880420680000e-001) (22, 4.26800906658172610000e-001) (23, 1.30230188369750980000e-001) (24, -1.53229862451553340000e-001) (25, 2.13868334889411930000e-001) (26, 6.32911324501037600000e-002) (27, 8.32840278744697570000e-002) (28, 1.35919243097305300000e-001) (29, 6.54200077056884770000e-001) (30, -9.29769948124885560000e-002) (31, 1.43676564097404480000e-001) (32, -3.06197583675384520000e-001) (33, 7.35374763607978820000e-002) (34, -3.03563714027404790000e-001) (35, 3.26593935489654540000e-001) (36, -2.25410819053649900000e-001) (37, 3.59964907169342040000e-001) (38, -2.23546430468559270000e-001) (39, 1.45519986748695370000e-001) (40, 3.42014759778976440000e-001) (41, 8.69762443471699950000e-004) (42, -1.59735798835754390000e-001) (43, -4.02523726224899290000e-002) (44, -2.64833003282547000000e-001) (45, 2.65116393566131590000e-001) (46, -1.55342280864715580000e-001) (47, -1.79018050432205200000e-001) (48, -3.62048476934432980000e-001) (49, 1.49019002914428710000e-001) (50, -3.20390731096267700000e-001) (51, 2.26250365376472470000e-001) (52, -2.90975332260131840000e-001) (53, -1.91963508725166320000e-001) (54, -7.56981149315834050000e-002) (55, -4.22263815999031070000e-002) (56, -2.20995862036943440000e-002) (57, 2.79955804347991940000e-001) (58, -2.03131332993507390000e-001) (59, 1.98087319731712340000e-001) (60, -3.32344919443130490000e-001) (61, 9.90987941622734070000e-002) (62, -2.82809436321258540000e-001) (63, 2.74413228034973140000e-001) (64, -1.19470413774251940000e-002) (65, 2.89419889450073240000e-001) (66, -2.93608635663986210000e-001) (67, -6.00816346704959870000e-002) (68, 2.39029098302125930000e-002) (69, -1.98134586215019230000e-001) (70, 2.43688479065895080000e-001) (71, -1.08081769943237300000e+000) (72, 5.29201366007328030000e-002) (73, -7.57182061672210690000e-001) (74, -1.40540039539337160000e+000) (75, 1.87413740158081050000e+000) (76, -5.33540666103363040000e-001) (77, 1.31495046615600590000e+000) (78, 1.02272018790245060000e-001) (79, -1.61555671691894530000e+000) (80, -3.02941381931304930000e-001) (81, 7.28223562240600590000e-001) (82, -7.62318968772888180000e-001) (83, 8.83069634437561040000e-001) (84, 2.73017510771751400000e-002) (0, -1.58455178141593930000e-001) (1, -2.80561566352844240000e-001) (2, 4.17597107589244840000e-002) (3, 1.87794230878353120000e-002) (4, -7.63341635465621950000e-002) (5, 1.84366017580032350000e-001) (6, -1.45435363054275510000e-001) (7, -6.39996454119682310000e-002) (8, 4.70488471910357480000e-003) (9, 1.94659605622291560000e-001) (10, 2.43769641965627670000e-002) (11, -2.81141586601734160000e-002) (12, -1.97464719414711000000e-001) (13, -1.47486194968223570000e-001) (14, 1.11759632825851440000e-001) (15, 3.02414596080780030000e-002) (16, 3.46049142535775900000e-004) (17, 3.12731415033340450000e-002) (18, -2.36463099718093870000e-001) (19, -4.88446205854415890000e-002) (20, 1.03291265666484830000e-001) (21, 7.68549144268035890000e-002) (22, -1.55070319771766660000e-001) (23, 1.81674899067729710000e-003) (24, 5.92789426445961000000e-003) (25, -3.64742912352085110000e-002) (26, 1.11732870340347290000e-001) (27, 2.92409881949424740000e-002) (28, 1.69593185186386110000e-001) (29, -4.63503673672676090000e-002) (30, 3.52988578379154210000e-003) (31, -8.99466872215271000000e-002) (32, 3.50571908056735990000e-002) (33, 2.17988774180412290000e-001) (34, 8.29075574874877930000e-002) (35, 1.06578143313527110000e-002) (36, -1.76436938345432280000e-002) (37, 1.38780653476715090000e-001) (38, 9.66309458017349240000e-002) (39, 5.06803672760725020000e-003) (40, 1.43214032053947450000e-001) (41, -3.16610522568225860000e-002) (42, 6.00508153438568120000e-002) (43, -2.72382758557796480000e-002) (44, 2.48130760155618190000e-003) (45, -9.38859134912490840000e-002) (46, 2.04348433762788770000e-002) (47, 1.55094310641288760000e-001) (48, 3.10785621404647830000e-002) (49, -7.73152559995651250000e-002) (50, -2.20041826367378230000e-001) (51, -1.15521550178527830000e-001) (52, -3.44980061054229740000e-002) (53, 3.85266691446304320000e-002) (54, 1.10070757567882540000e-001) (55, -5.36190047860145570000e-002) (56, 7.94953927397727970000e-002) (57, 2.95334458351135250000e-002) (58, -2.29792166501283650000e-002) (59, -2.07395348697900770000e-002) (60, 1.47874861955642700000e-001) (61, 1.77038133144378660000e-001) (62, 2.57108919322490690000e-002) (63, -5.30383922159671780000e-002) (64, -5.34772686660289760000e-002) (65, -1.02573476731777190000e-001) (66, 7.14038219302892680000e-003) (67, 6.99959993362426760000e-002) (68, 4.07101064920425420000e-002) (69, 1.60877466201782230000e-001) (70, -6.26432150602340700000e-002) (71, -4.15117032825946810000e-002) (72, -1.82564705610275270000e-002) (73, -2.57506016641855240000e-002) (74, 4.03155200183391570000e-002) (75, 3.67217250168323520000e-002) (76, -1.30694061517715450000e-001) (77, -1.20383881032466890000e-001) (78, -1.78662300109863280000e-001) (79, -1.29157528281211850000e-001) (80, -9.70314163714647290000e-003) (81, 6.86999261379241940000e-002) (82, -1.32259458303451540000e-001) (83, -4.73171891644597050000e-003) (84, 3.43382596969604490000e-001) (0, -1.37442767620086670000e-001) (1, -2.73747801780700680000e-001) (2, -1.44753798842430110000e-001) (3, -9.69294607639312740000e-002) (4, -1.66118681430816650000e-001) (5, 8.49129632115364070000e-002) (6, -1.32906973361968990000e-001) (7, -2.57548779249191280000e-001) (8, -1.69805198907852170000e-001) (9, 9.48919579386711120000e-002) (10, -1.49478942155838010000e-001) (11, -1.05361685156822200000e-001) (12, -1.83914363384246830000e-001) (13, -3.39981913566589360000e-001) (14, -1.48016631603240970000e-001) (15, 1.38896942138671880000e-001) (16, -9.55448672175407410000e-002) (17, 2.02932015061378480000e-001) (18, 2.00215671211481090000e-002) (19, 1.21821090579032900000e-001) (20, -5.65972626209259030000e-002) (21, 1.64823114871978760000e-001) (22, -2.89960671216249470000e-002) (23, 6.66938275098800660000e-002) (24, -1.21568195521831510000e-001) (25, 1.81773468852043150000e-001) (26, -1.42604053020477290000e-001) (27, 1.39441430568695070000e-001) (28, -1.23960085213184360000e-001) (29, 2.66035467386245730000e-001) (30, 1.49997975677251820000e-003) (31, 1.70053824782371520000e-001) (32, -1.02030277252197270000e-001) (33, -3.60800400376319890000e-002) (34, 1.98228415101766590000e-002) (35, 2.00552493333816530000e-001) (36, -1.37269452214241030000e-001) (37, -9.27078127861022950000e-002) (38, -5.57061731815338130000e-002) (39, 1.37464448809623720000e-001) (40, -6.92761540412902830000e-002) (41, 3.14024418592453000000e-001) (42, -7.05350190401077270000e-002) (43, 1.15356892347335820000e-001) (44, -3.11789452098309990000e-003) (45, 3.75864543020725250000e-002) (46, -7.86126963794231410000e-003) (47, 7.20776468515396120000e-002) (48, -1.03124447166919710000e-001) (49, 3.65529879927635190000e-002) (50, -1.07159856706857680000e-002) (51, 8.15274640917778020000e-002) (52, -5.91742694377899170000e-002) (53, -1.91858708858489990000e-002) (54, -7.90070146322250370000e-002) (55, 1.04313917458057400000e-001) (56, -1.06736831367015840000e-001) (57, 3.76302376389503480000e-002) (58, -1.67493104934692380000e-001) (59, -6.12082891166210170000e-002) (60, -8.60771834850311280000e-002) (61, 1.00667670369148250000e-001) (62, -1.07511207461357120000e-002) (63, 2.08502918481826780000e-001) (64, -6.11779056489467620000e-002) (65, 1.32052734494209290000e-001) (66, -2.32730373740196230000e-001) (67, -1.05077050626277920000e-001) (68, -6.13604076206684110000e-002) (69, 6.46143406629562380000e-002) (70, -8.22817385196685790000e-002) (71, 4.41682897508144380000e-002) (72, 7.78743177652359010000e-002) (73, 1.47698879241943360000e-001) (74, -1.25074144452810290000e-002) (75, 4.85013946890830990000e-002) (76, -1.56248822808265690000e-001) (77, -7.87546038627624510000e-002) (78, -5.36230802536010740000e-002) (79, 3.35849635303020480000e-002) (80, 3.43959517776966090000e-002) (81, 1.24031946063041690000e-001) (82, -8.57343748211860660000e-002) (83, 3.03200483322143550000e-002) (84, -1.26585245132446290000e-001) (0, 2.00014546513557430000e-001) (1, -1.65690988302230830000e-001) (2, 1.03212602436542510000e-001) (3, -1.83362782001495360000e-001) (4, -1.30057498812675480000e-001) (5, -1.37379691004753110000e-001) (6, 1.69722661375999450000e-002) (7, -1.11646568402647970000e-002) (8, -1.07742711901664730000e-001) (9, -1.28162547945976260000e-001) (10, 1.02527149021625520000e-001) (11, -1.99193730950355530000e-001) (12, 1.89922362565994260000e-001) (13, -1.51330292224884030000e-001) (14, -2.03787475824356080000e-001) (15, 8.49292799830436710000e-003) (16, -1.00061871111392970000e-001) (17, 1.07059665024280550000e-001) (18, -2.25676260888576510000e-002) (19, -2.35733538866043090000e-002) (20, -6.50792522355914120000e-003) (21, 8.48763957619667050000e-002) (22, -3.61434631049633030000e-002) (23, -3.38751003146171570000e-002) (24, -8.84075462818145750000e-002) (25, 1.20747946202754970000e-001) (26, -2.01703712344169620000e-001) (27, 1.05387775693088770000e-003) (28, 8.27897042036056520000e-002) (29, 2.18548327684402470000e-001) (30, -1.61743551492691040000e-001) (31, -1.81717753410339360000e-001) (32, 9.50793623924255370000e-002) (33, 1.15754261612892150000e-001) (34, -9.21470895409584050000e-002) (35, -4.90222088992595670000e-002) (36, 1.03835202753543850000e-001) (37, 1.45398288965225220000e-001) (38, -1.55397564172744750000e-001) (39, -1.67724162340164180000e-001) (40, 9.96639877557754520000e-002) (41, 2.15557977557182310000e-001) (42, -8.23938176035881040000e-002) (43, -1.57923609018325810000e-001) (44, 1.76269859075546260000e-001) (45, 1.62879645824432370000e-001) (46, -3.74779365956783290000e-002) (47, -1.00821249186992650000e-001) (48, 1.49669619277119640000e-002) (49, 5.99997676908969880000e-002) (50, -3.06204520165920260000e-003) (51, -8.36096107959747310000e-002) (52, 2.05413177609443660000e-001) (53, 1.62211954593658450000e-001) (54, -8.01357477903366090000e-002) (55, -1.59132942557334900000e-001) (56, -7.79114812612533570000e-002) (57, 8.17932561039924620000e-002) (58, -1.32190406322479250000e-001) (59, -5.57480156421661380000e-002) (60, 6.30276203155517580000e-002) (61, 9.93741005659103390000e-002) (62, -1.39109686017036440000e-001) (63, -1.21807128190994260000e-001) (64, 7.26417899131774900000e-002) (65, 1.38332575559616090000e-001) (66, -1.19356080889701840000e-001) (67, -5.14968261122703550000e-002) (68, -6.01365752518177030000e-002) (69, 8.78806784749031070000e-002) (70, 6.37014629319310190000e-003) (71, 4.74062412977218630000e-002) (72, 2.64900103211402890000e-002) (73, 5.37949204444885250000e-002) (74, -1.50529772043228150000e-001) (75, -1.11724853515625000000e-001) (76, 1.11895389854907990000e-001) (77, 6.65968582034111020000e-002) (78, -1.36561021208763120000e-001) (79, -1.00387349724769590000e-001) (80, 4.66609448194503780000e-002) (81, 5.50188757479190830000e-002) (82, 2.34026275575160980000e-002) (83, 5.92047460377216340000e-002) (84, 6.89801350235939030000e-002) (0, -2.10107892751693730000e-001) (1, 1.18602007627487180000e-001) (2, -4.46390882134437560000e-002) (3, 4.92657609283924100000e-002) (4, -3.37362810969352720000e-002) (5, 7.84173700958490370000e-003) (6, 7.02579170465469360000e-002) (7, -3.64168407395482060000e-003) (8, -5.81459701061248780000e-002) (9, 5.83131387829780580000e-002) (10, 1.41603359952569010000e-002) (11, 1.07439033687114720000e-001) (12, -9.78817641735076900000e-002) (13, 1.61431640386581420000e-001) (14, -2.95788496732711790000e-001) (15, -1.23810388147830960000e-001) (16, 1.00974790751934050000e-001) (17, 1.47973257116973400000e-003) (18, 1.08720129355788230000e-002) (19, 5.73952905833721160000e-002) (20, -2.14386329054832460000e-001) (21, -1.58224359154701230000e-001) (22, 4.88222576677799220000e-002) (23, 1.75037030130624770000e-002) (24, 5.06701953709125520000e-002) (25, 3.42837870121002200000e-002) (26, -2.33281761407852170000e-001) (27, -1.31224483251571660000e-001) (28, 7.90466293692588810000e-002) (29, -9.86807197332382200000e-002) (30, -1.39353170990943910000e-001) (31, -1.36532649397850040000e-001) (32, -2.00825914740562440000e-001) (33, -1.35988667607307430000e-001) (34, 1.00913308560848240000e-001) (35, -1.34263942018151280000e-002) (36, -1.20562881231307980000e-001) (37, -8.46964120864868160000e-003) (38, -1.25141903758049010000e-001) (39, -7.88880214095115660000e-002) (40, 1.67268916964530940000e-001) (41, 5.75618259608745570000e-003) (42, -1.71081982553005220000e-002) (43, -3.02870012819767000000e-002) (44, -4.18907105922698970000e-002) (45, -5.10155409574508670000e-002) (46, 2.82766520977020260000e-002) (47, 1.08862169086933140000e-001) (48, 1.23836517333984380000e-001) (49, 5.04559874534606930000e-002) (50, 2.57221728563308720000e-001) (51, 2.67041534185409550000e-001) (52, 1.98979526758193970000e-002) (53, 8.96845236420631410000e-002) (54, 9.82689559459686280000e-002) (55, 2.96538639813661580000e-002) (56, 1.01100094616413120000e-001) (57, 5.23994751274585720000e-002) (58, -1.15807786583900450000e-001) (59, -1.71092137694358830000e-001) (60, 4.79196421802043910000e-002) (61, -1.49631118401885030000e-002) (62, 1.11585587263107300000e-001) (63, 8.96218791604042050000e-002) (64, 4.05001565814018250000e-002) (65, -7.23832054063677790000e-003) (66, 7.07734897732734680000e-002) (67, 5.34197688102722170000e-003) (68, 1.73547968268394470000e-001) (69, 5.61912208795547490000e-002) (70, -5.70571646094322200000e-002) (71, -7.90579710155725480000e-003) (72, -1.18160836398601530000e-001) (73, 4.21832641586661340000e-003) (74, -1.22901827096939090000e-001) (75, -6.82590976357460020000e-002) (76, -1.86298549175262450000e-001) (77, -6.93558529019355770000e-002) (78, -8.89434665441513060000e-002) (79, -1.97992727160453800000e-001) (80, 1.09883852303028110000e-001) (81, 1.21809549629688260000e-001) (82, 9.71813797950744630000e-002) (83, -7.49320955947041510000e-004) (84, 9.83554571866989140000e-002) (0, -1.03307448327541350000e-001) (1, 1.91905990242958070000e-001) (2, -8.58664289116859440000e-002) (3, 1.76029384136199950000e-001) (4, 1.36885598301887510000e-001) (5, -1.37780487537384030000e-001) (6, 1.03292547166347500000e-001) (7, -7.12703019380569460000e-002) (8, 1.34092509746551510000e-001) (9, -1.78237184882164000000e-001) (10, -2.33077574521303180000e-002) (11, 2.38462761044502260000e-001) (12, -3.42317856848239900000e-002) (13, 1.44254356622695920000e-001) (14, -9.81488302350044250000e-002) (15, -9.20674055814743040000e-002) (16, -2.00749963521957400000e-001) (17, 1.22701652348041530000e-001) (18, 1.13229371607303620000e-001) (19, -2.49901756644248960000e-001) (20, 8.25099274516105650000e-002) (21, 1.41572535037994380000e-001) (22, 1.19146443903446200000e-001) (23, -1.90819576382637020000e-001) (24, -1.92128181457519530000e-001) (25, 7.07917511463165280000e-002) (26, -8.02129432559013370000e-002) (27, -1.10738709568977360000e-001) (28, -1.25500217080116270000e-001) (29, 1.49839790537953380000e-002) (30, -3.68315018713474270000e-002) (31, 3.37959490716457370000e-002) (32, 9.45285335183143620000e-002) (33, 1.30454842001199720000e-002) (34, 2.17901431024074550000e-002) (35, -2.12553486227989200000e-001) (36, 4.63211685419082640000e-002) (37, -1.02230019867420200000e-001) (38, -5.60224279761314390000e-002) (39, 6.77655562758445740000e-002) (40, -1.36752501130104060000e-001) (41, 1.47461378946900370000e-002) (42, 9.13063585758209230000e-002) (43, 1.41624718904495240000e-001) (44, -1.05163164436817170000e-001) (45, -7.73413106799125670000e-002) (46, 1.71673223376274110000e-001) (47, 1.80694665759801860000e-002) (48, 3.25999483466148380000e-002) (49, -1.50705710053443910000e-001) (50, -9.81246381998062130000e-002) (51, -2.29204237461090090000e-001) (52, -1.00616432726383210000e-001) (53, 2.44458764791488650000e-002) (54, 1.17514081299304960000e-001) (55, 1.56652964651584630000e-002) (56, 7.52467811107635500000e-002) (57, -5.76416170224547390000e-003) (58, 1.13439373672008510000e-001) (59, -6.81946650147438050000e-002) (60, 2.84031540155410770000e-001) (61, 1.35131865739822390000e-001) (62, 1.04664459824562070000e-001) (63, 1.34603921324014660000e-002) (64, -1.12818241119384770000e-001) (65, -2.59109526872634890000e-001) (66, 6.53202086687088010000e-002) (67, 1.05646299198269840000e-002) (68, -2.38464958965778350000e-002) (69, -9.23636090010404590000e-003) (70, 9.25533547997474670000e-002) (71, -7.25668594241142270000e-002) (72, 8.86168181896209720000e-002) (73, -6.69018104672431950000e-002) (74, 1.84461861848831180000e-001) (75, 6.63673877716064450000e-002) (76, 5.12589886784553530000e-002) (77, 7.68038704991340640000e-002) (78, -1.32559239864349370000e-001) (79, -9.71959158778190610000e-002) (80, 5.06378747522830960000e-002) (81, -4.25030216574668880000e-002) (82, 6.32513090968132020000e-002) (83, 6.96857925504446030000e-003) (84, -3.72551716864109040000e-002) (0, -4.24461960792541500000e-002) (1, 2.19269052147865300000e-001) (2, 1.11218348145484920000e-001) (3, -5.61409629881381990000e-003) (4, 5.80201111733913420000e-002) (5, -1.26010134816169740000e-001) (6, -1.63577437400817870000e-001) (7, 8.56729969382286070000e-002) (8, 7.21986368298530580000e-002) (9, -2.14077923446893690000e-002) (10, 1.43586292862892150000e-001) (11, -4.84844632446765900000e-002) (12, -5.38000389933586120000e-002) (13, 1.92664220929145810000e-001) (14, 3.22975032031536100000e-002) (15, -8.91425609588623050000e-002) (16, -7.26312249898910520000e-002) (17, 6.40546530485153200000e-002) (18, 7.17858076095581050000e-002) (19, 6.47279098629951480000e-002) (20, 2.68516778945922850000e-001) (21, 1.23718924820423130000e-001) (22, 9.94206219911575320000e-002) (23, 5.58210946619510650000e-002) (24, -7.91908055543899540000e-002) (25, 5.17464131116867070000e-002) (26, -1.65853817015886310000e-002) (27, -1.20876021683216090000e-001) (28, 1.14476062357425690000e-001) (29, -4.86782863736152650000e-002) (30, -7.66855403780937190000e-002) (31, 9.57114025950431820000e-002) (32, -1.39064431190490720000e-001) (33, -1.22444085776805880000e-001) (34, -4.53959107398986820000e-002) (35, -1.49346798658370970000e-001) (36, -8.04634094238281250000e-002) (37, -1.10663972795009610000e-001) (38, -2.72260792553424840000e-002) (39, 1.93342268466949460000e-001) (40, 4.27915863692760470000e-002) (41, -7.84021988511085510000e-003) (42, 4.62903380393981930000e-002) (43, 7.55647867918014530000e-002) (44, -1.38229653239250180000e-001) (45, -8.65887552499771120000e-002) (46, -2.83606909215450290000e-003) (47, 2.41807457059621810000e-002) (48, 3.99394519627094270000e-002) (49, 4.00426834821701050000e-002) (50, -1.20815623085945840000e-003) (51, -3.28153930604457860000e-003) (52, -1.07296057045459750000e-001) (53, -3.25833074748516080000e-003) (54, -1.05459215119481090000e-002) (55, 8.95000062882900240000e-003) (56, -4.29021008312702180000e-002) (57, -3.27241197228431700000e-002) (58, 8.43640416860580440000e-002) (59, 8.35597366094589230000e-002) (60, 1.17365956306457520000e-001) (61, 8.49644169211387630000e-002) (62, -9.96528118848800660000e-002) (63, -7.44007378816604610000e-002) (64, 1.23229920864105220000e-001) (65, 9.16541814804077150000e-002) (66, 1.67397126555442810000e-001) (67, 1.30719065666198730000e-001) (68, -1.20373480021953580000e-001) (69, -1.31642028689384460000e-001) (70, -2.98229092732071880000e-003) (71, 5.05288653075695040000e-002) (72, -9.01145339012146000000e-002) (73, -6.47964030504226680000e-002) (74, -2.31855697929859160000e-002) (75, 3.42560075223445890000e-002) (76, 1.19815515354275700000e-002) (77, 3.30439582467079160000e-002) (78, 1.29905929788947110000e-002) (79, -2.02829092741012570000e-002) (80, -5.52339628338813780000e-002) (81, -7.49507322907447810000e-002) (82, -3.75857716426253320000e-003) (83, 1.40167167410254480000e-003) (84, 1.62833277136087420000e-002) (0, -4.80848737061023710000e-003) (1, 6.71551525592803960000e-002) (2, -2.62663513422012330000e-001) (3, 2.47022584080696110000e-001) (4, -2.13788017630577090000e-001) (5, 2.32567071914672850000e-001) (6, 9.37492847442626950000e-002) (7, -6.74884244799613950000e-002) (8, -1.44041582942008970000e-001) (9, 2.41014152765274050000e-001) (10, -2.42107301950454710000e-001) (11, 2.32115909457206730000e-001) (12, -6.46195933222770690000e-002) (13, 3.60674411058425900000e-002) (14, 2.95119863003492360000e-002) (15, -4.70086075365543370000e-002) (16, 1.85088425874710080000e-001) (17, -2.51171499490737920000e-001) (18, -1.85679450631141660000e-001) (19, -9.96297039091587070000e-003) (20, 1.71164646744728090000e-001) (21, 1.88765659928321840000e-001) (22, -2.00926482677459720000e-001) (23, -1.66669045574963090000e-003) (24, 2.22282618284225460000e-001) (25, -2.39706546068191530000e-001) (26, -1.82433128356933590000e-002) (27, -7.38216042518615720000e-002) (28, 2.05355107784271240000e-001) (29, 1.14554174244403840000e-001) (30, 4.14426662027835850000e-002) (31, -3.72072964906692500000e-001) (32, -1.01350799202919010000e-001) (33, -7.57702291011810300000e-002) (34, -2.34241038560867310000e-001) (35, -1.05929568409919740000e-001) (36, -9.92741957306861880000e-002) (37, -8.65368768572807310000e-002) (38, 9.60295125842094420000e-002) (39, -2.97831624746322630000e-001) (40, 1.90404757857322690000e-001) (41, 7.54472836852073670000e-002) (42, -1.64600789546966550000e-001) (43, -2.82274689525365830000e-002) (44, 1.77122503519058230000e-001) (45, -1.93248149007558820000e-002) (46, 2.35670715570449830000e-001) (47, 1.88954621553421020000e-001) (48, 1.80307745933532710000e-001) (49, 1.73478335142135620000e-001) (50, 2.40026473999023440000e-001) (51, 1.86211645603179930000e-001) (52, 2.40135818719863890000e-001) (53, 4.46539558470249180000e-002) (54, -1.80078700184822080000e-001) (55, -4.33381199836730960000e-002) (56, -7.08270911127328870000e-003) (57, -9.14024934172630310000e-002) (58, -7.13199302554130550000e-002) (59, -3.29042561352252960000e-002) (60, 7.26196989417076110000e-002) (61, 8.88552665710449220000e-002) (62, -1.42212808132171630000e-001) (63, -1.21833151206374170000e-002) (64, 6.69241324067115780000e-002) (65, 7.75024741888046260000e-002) (66, -2.96701025217771530000e-002) (67, -1.13064348697662350000e-002) (68, 2.82313805073499680000e-002) (69, -7.77810364961624150000e-002) (70, -2.60918233543634410000e-002) (71, 1.02439858019351960000e-002) (72, -9.53679606318473820000e-002) (73, 3.06902732700109480000e-002) (74, -1.69046923518180850000e-001) (75, -1.22079893946647640000e-001) (76, 4.42962832748889920000e-002) (77, 1.05510510504245760000e-001) (78, -1.59853816032409670000e-001) (79, -1.33756682276725770000e-001) (80, -4.42956984043121340000e-002) (81, 4.38305847346782680000e-002) (82, 1.37117784470319750000e-002) (83, 3.70774120092391970000e-002) (84, 3.92466895282268520000e-002) (0, -6.73860609531402590000e-002) (1, -1.73028986901044850000e-002) (2, -3.18037122488021850000e-002) (3, -8.02368819713592530000e-002) (4, -6.61206468939781190000e-002) (5, 5.39021678268909450000e-002) (6, -6.54351189732551570000e-002) (7, -1.20027372613549230000e-002) (8, -8.34004133939743040000e-002) (9, 2.32811234891414640000e-002) (10, -9.56892222166061400000e-002) (11, 2.83759948797523980000e-003) (12, -1.40252970159053800000e-002) (13, 1.71693470329046250000e-002) (14, 2.47946437448263170000e-002) (15, -2.05100630410015580000e-003) (16, -9.38270911574363710000e-002) (17, 6.86661452054977420000e-002) (18, 2.06712596118450160000e-002) (19, -3.08232530951499940000e-002) (20, 8.08191597461700440000e-002) (21, 9.59109812974929810000e-002) (22, 7.76605829596519470000e-002) (23, 5.93622960150241850000e-002) (24, -5.48342317342758180000e-002) (25, -8.75894054770469670000e-002) (26, 2.30960696935653690000e-002) (27, -5.13765588402748110000e-002) (28, 3.03489834070205690000e-001) (29, 3.06348562240600590000e-001) (30, 7.47484266757965090000e-002) (31, 2.09664463996887210000e-001) (32, 1.59094501286745070000e-002) (33, -4.34327237308025360000e-002) (34, 4.78340126574039460000e-002) (35, 3.30551378428936000000e-002) (36, 1.45565653219819070000e-002) (37, -7.85425379872322080000e-002) (38, 3.76082062721252440000e-002) (39, 1.24152988195419310000e-001) (40, 2.50635683536529540000e-001) (41, 3.30148696899414060000e-001) (42, -2.03664839267730710000e-001) (43, -2.63048291206359860000e-001) (44, 5.25314249098300930000e-002) (45, 8.46324209123849870000e-003) (46, 3.05666821077466010000e-003) (47, -4.00882698595523830000e-002) (48, -1.74507796764373780000e-001) (49, -1.32166489958763120000e-001) (50, -6.56961649656295780000e-003) (51, -4.65450286865234380000e-002) (52, -1.71724390238523480000e-002) (53, 1.21896462514996530000e-002) (54, -1.83449953794479370000e-001) (55, -1.68220058083534240000e-001) (56, -5.95180355012416840000e-002) (57, -9.08386856317520140000e-002) (58, 3.39076817035675050000e-002) (59, -2.95173539780080320000e-003) (60, -4.25648735836148260000e-003) (61, -1.82480067014694210000e-002) (62, 1.18771251291036610000e-002) (63, 5.26093281805515290000e-002) (64, -8.44247043132781980000e-002) (65, -1.38253837823867800000e-001) (66, 6.91518513485789300000e-003) (67, 4.31515499949455260000e-002) (68, -7.93038308620452880000e-002) (69, -3.58288362622261050000e-002) (70, 1.99315492063760760000e-002) (71, 4.25227778032422070000e-003) (72, 2.51355804502964020000e-002) (73, -1.76595263183116910000e-002) (74, 8.87937471270561220000e-002) (75, 4.70018982887268070000e-002) (76, -6.60681724548339840000e-002) (77, -8.79094675183296200000e-002) (78, 8.17915946245193480000e-002) (79, 5.73613680899143220000e-002) (80, -5.17933666706085210000e-002) (81, -5.67105747759342190000e-002) (82, -3.80098521709442140000e-002) (83, -3.80748771131038670000e-002) (84, 5.45475669205188750000e-002) (0, 3.98664534091949460000e-001) (1, -8.34436789155006410000e-002) (2, 4.17952358722686770000e-001) (3, 1.57889500260353090000e-001) (4, 5.25490105152130130000e-001) (5, -6.57283142209053040000e-002) (6, -1.32395559921860690000e-002) (7, -1.40292003750801090000e-001) (8, 5.06505072116851810000e-001) (9, -8.37411135435104370000e-002) (10, 4.11912024021148680000e-001) (11, 1.46043702960014340000e-001) (12, 4.12521511316299440000e-001) (13, -1.07384175062179570000e-001) (14, 2.83246815204620360000e-001) (15, 1.74227226525545120000e-002) (16, 3.29692274332046510000e-001) (17, -1.30392432212829590000e-001) (18, -2.08504304289817810000e-001) (19, 1.53346359729766850000e-001) (20, 1.77529100328683850000e-002) (21, -1.03652060031890870000e-001) (22, -2.23417952656745910000e-001) (23, 1.47742971777915950000e-001) (24, 3.04646134376525880000e-001) (25, -1.36760666966438290000e-001) (26, 2.57989943027496340000e-001) (27, 1.81038735900074240000e-003) (28, -5.63165023922920230000e-002) (29, 1.86162516474723820000e-001) (30, -8.74760895967483520000e-002) (31, 1.26904249191284180000e-001) (32, 3.19687239825725560000e-002) (33, 2.58343219757080080000e-001) (34, 8.28685611486434940000e-003) (35, 2.86672025918960570000e-001) (36, 3.35843339562416080000e-002) (37, 2.47099235653877260000e-001) (38, -9.02995765209198000000e-002) (39, 1.04657307267189030000e-001) (40, -6.11035078763961790000e-002) (41, 1.81614369153976440000e-001) (42, -2.89194375276565550000e-001) (43, 2.29084491729736330000e-001) (44, 1.16556510329246520000e-001) (45, 1.72742187976837160000e-001) (46, -3.81603777408599850000e-001) (47, 1.23145088553428650000e-001) (48, -1.49866670370101930000e-001) (49, 1.64712309837341310000e-001) (50, -4.12366062402725220000e-001) (51, 1.06261037290096280000e-001) (52, 1.02590091526508330000e-001) (53, 1.68217942118644710000e-001) (54, -2.92801290750503540000e-001) (55, 2.26418256759643550000e-001) (56, -3.67940992116928100000e-001) (57, -1.77315413951873780000e-001) (58, -1.34384438395500180000e-001) (59, -5.38447424769401550000e-002) (60, -1.92582964897155760000e-001) (61, 1.55513539910316470000e-001) (62, -7.54326358437538150000e-002) (63, 5.50332292914390560000e-002) (64, -2.38927051424980160000e-001) (65, 1.08629874885082240000e-001) (66, -1.54875382781028750000e-001) (67, -3.52443084120750430000e-002) (68, -3.65707844495773320000e-001) (69, -1.69322893023490910000e-001) (70, -5.32294511795043950000e-002) (71, 1.21756888926029210000e-001) (72, -1.71586275100708010000e-001) (73, 1.00592322647571560000e-001) (74, -5.03072440624237060000e-002) (75, 1.79468855261802670000e-001) (76, -2.10269913077354430000e-001) (77, -2.29866039007902150000e-002) (78, -1.13638684153556820000e-001) (79, 1.42916828393936160000e-001) (80, -1.76090419292449950000e-001) (81, 1.05964235961437230000e-001) (82, -7.15864375233650210000e-002) (83, 1.35432720184326170000e-001) (84, 9.56880599260330200000e-002) (0, 1.14330790936946870000e-001) (1, -5.37555776536464690000e-002) (2, -1.83949276804924010000e-001) (3, -8.02504941821098330000e-002) (4, 1.55933871865272520000e-001) (5, 8.31326320767402650000e-002) (6, 1.32250592112541200000e-001) (7, -1.15018978714942930000e-001) (8, 4.94291409850120540000e-002) (9, 9.01956409215927120000e-002) (10, -2.51507133245468140000e-001) (11, -6.97459205985069270000e-002) (12, -6.54247915372252460000e-003) (13, -8.09547230601310730000e-002) (14, 1.67204719036817550000e-002) (15, -6.40866113826632500000e-003) (16, 1.14774420857429500000e-001) (17, 9.37485396862030030000e-002) (18, -4.10956479609012600000e-002) (19, 5.59776872396469120000e-002) (20, 4.58289310336112980000e-002) (21, 1.72961857169866560000e-002) (22, -8.27087685465812680000e-002) (23, 3.84466275572776790000e-002) (24, 7.30980411171913150000e-002) (25, 7.50602781772613530000e-002) (26, -4.96577471494674680000e-002) (27, -1.41704659909009930000e-002) (28, -5.34041151404380800000e-002) (29, -1.24681062996387480000e-001) (30, 3.71027179062366490000e-002) (31, 2.48143007047474380000e-003) (32, -8.90637114644050600000e-002) (33, -3.29120755195617680000e-002) (34, -2.13045194745063780000e-001) (35, -4.68396991491317750000e-002) (36, -1.38288915157318120000e-001) (37, -5.95193766057491300000e-002) (38, 1.29321977496147160000e-001) (39, 2.65601966530084610000e-002) (40, -9.46846157312393190000e-002) (41, -1.38702124357223510000e-001) (42, 2.87855621427297590000e-002) (43, 4.53439690172672270000e-002) (44, -1.01035267114639280000e-001) (45, -1.52900107204914090000e-002) (46, 1.01224519312381740000e-001) (47, 9.74825471639633180000e-002) (48, 1.88379317522048950000e-001) (49, 2.91956633329391480000e-001) (50, 8.39412808418273930000e-002) (51, 8.77322405576705930000e-002) (52, -1.16031439974904060000e-002) (53, -2.25030519068241120000e-002) (54, -3.30703496001660820000e-003) (55, 8.12455713748931880000e-002) (56, 5.53251355886459350000e-002) (57, 1.22041307389736180000e-001) (58, -1.27147778868675230000e-001) (59, -1.88205530866980550000e-003) (60, -1.45560935139656070000e-001) (61, 1.52263082563877110000e-002) (62, -1.78084492683410640000e-001) (63, -6.16411045193672180000e-002) (64, -4.38319109380245210000e-002) (65, 1.10600844025611880000e-001) (66, -1.61526091396808620000e-002) (67, 3.54396998882293700000e-002) (68, 6.32273789960891010000e-004) (69, 5.78473322093486790000e-003) (70, -5.74779286980628970000e-002) (71, 5.86594548076391220000e-003) (72, -6.82313889265060420000e-002) (73, -7.85781070590019230000e-003) (74, 4.19648103415966030000e-002) (75, 9.85093042254447940000e-002) (76, 6.39220401644706730000e-002) (77, -5.38709154352545740000e-003) (78, 1.18681453168392180000e-001) (79, 1.18206605315208440000e-001) (80, 2.76635810732841490000e-002) (81, 4.58933040499687190000e-002) (82, -8.31650123000144960000e-002) (83, -2.03791614621877670000e-002) (84, -1.52897447347640990000e-001) (0, -1.05401888489723210000e-001) (1, -6.79226890206336980000e-002) (2, 5.30963689088821410000e-002) (3, -1.96012631058692930000e-001) (4, 1.52605563402175900000e-001) (5, -1.19328729808330540000e-001) (6, -1.79146956652402880000e-002) (7, 6.53291419148445130000e-002) (8, 1.57168895006179810000e-001) (9, -3.68195295333862300000e-001) (10, 4.11363169550895690000e-002) (11, 3.87107022106647490000e-002) (12, 1.08771979808807370000e-001) (13, -4.06730353832244870000e-001) (14, 1.69942155480384830000e-001) (15, -3.06704729795455930000e-001) (16, 1.72169491648674010000e-001) (17, -2.06589967012405400000e-001) (18, -9.23190191388130190000e-002) (19, -5.12003488838672640000e-002) (20, 8.01605731248855590000e-002) (21, -1.89558416604995730000e-001) (22, 1.57638177275657650000e-001) (23, -6.90814331173896790000e-002) (24, 2.94348839670419690000e-002) (25, 5.14825619757175450000e-002) (26, 8.01490619778633120000e-002) (27, -2.19986006617546080000e-001) (28, 1.94262862205505370000e-001) (29, -8.55090543627738950000e-002) (30, -2.84837722778320310000e-001) (31, 3.73237788677215580000e-001) (32, 4.28831487894058230000e-001) (33, -2.11350589990615840000e-001) (34, 5.58682791888713840000e-002) (35, -8.64829197525978090000e-002) (36, -2.56095498800277710000e-001) (37, 6.48214876651763920000e-001) (38, 1.41679376363754270000e-001) (39, -2.73595035076141360000e-001) (40, 4.53685894608497620000e-002) (41, -7.39110931754112240000e-002) (42, 5.70395588874816890000e-001) (43, -8.01229476928710940000e-001) (44, 1.05735190212726590000e-001) (45, -2.29546070098876950000e-001) (46, -4.64101552963256840000e-001) (47, 1.11864912509918210000e+000) (48, 1.33485466241836550000e-001) (49, 3.49206775426864620000e-001) (50, 3.28662306070327760000e-001) (51, -8.81277024745941160000e-001) (52, -5.14625608921051030000e-001) (53, 5.56949913501739500000e-001) (54, -6.68556094169616700000e-001) (55, 8.78068506717681880000e-001) (56, 1.81031540036201480000e-001) (57, -2.63932436704635620000e-001) (58, -1.05971880257129670000e-001) (59, 3.89259517192840580000e-001) (60, 6.73514604568481450000e-002) (61, -3.36688309907913210000e-001) (62, -2.15958923101425170000e-001) (63, 1.30869690328836440000e-002) (64, -2.33361899852752690000e-001) (65, 6.25898003578186040000e-001) (66, 1.75733473151922230000e-002) (67, -2.49196499586105350000e-001) (68, -3.34858030080795290000e-001) (69, 2.51711130142211910000e-001) (70, 7.40145593881607060000e-002) (71, 1.74574270844459530000e-001) (72, 7.24879130721092220000e-002) (73, -1.06626845896244050000e-001) (74, -1.26334995031356810000e-001) (75, 8.30964818596839900000e-002) (76, 4.64820712804794310000e-002) (77, 2.21549257636070250000e-001) (78, -1.40068069100379940000e-001) (79, -5.86117058992385860000e-002) (80, -9.22132730484008790000e-002) (81, 1.59209147095680240000e-001) (82, -1.44610032439231870000e-001) (83, -4.61678616702556610000e-002) (84, -1.05259351432323460000e-001) (0, 1.79655998945236210000e-001) (1, 2.05276578664779660000e-001) (2, 6.43731132149696350000e-002) (3, -6.70798942446708680000e-002) (4, -3.89311999082565310000e-001) (5, 1.42761036753654480000e-001) (6, -9.14506241679191590000e-002) (7, 3.06593962013721470000e-002) (8, -2.68524199724197390000e-001) (9, 1.46272137761116030000e-001) (10, 2.18289196491241460000e-002) (11, -3.22515554726123810000e-002) (12, 5.81576712429523470000e-002) (13, 2.19283942133188250000e-002) (14, 2.97068297863006590000e-001) (15, -3.64819392561912540000e-002) (16, 1.74919143319129940000e-001) (17, -3.89033593237400050000e-002) (18, -1.02895729243755340000e-001) (19, -4.83007580041885380000e-002) (20, -1.63829850498586890000e-003) (21, 8.32689628005027770000e-002) (22, -7.46889635920524600000e-002) (23, 5.73141276836395260000e-002) (24, 1.41736522316932680000e-001) (25, 1.72505923546850680000e-003) (26, 1.70184582471847530000e-001) (27, -7.86791592836380000000e-002) (28, -1.24483950436115260000e-001) (29, -1.90001532435417180000e-001) (30, 1.92614585161209110000e-001) (31, -2.90981996804475780000e-002) (32, -1.24411948025226590000e-001) (33, -3.05276606231927870000e-002) (34, 5.40692843496799470000e-002) (35, 1.85983255505561830000e-002) (36, 5.31044714152812960000e-002) (37, 1.36512190103530880000e-001) (38, 7.83940404653549190000e-002) (39, -1.58249855041503910000e-001) (40, -1.35966604575514790000e-002) (41, -1.89896553754806520000e-001) (42, 1.72354295849800110000e-001) (43, 6.58451616764068600000e-002) (44, 1.20834395289421080000e-001) (45, -4.04292382299900050000e-002) (46, -1.66669800877571110000e-001) (47, -1.00247837603092190000e-001) (48, -1.00478291511535640000e-001) (49, -1.05357810854911800000e-001) (50, 1.20826587080955510000e-001) (51, 2.56328582763671880000e-001) (52, 1.62706509232521060000e-001) (53, -7.05080404877662660000e-002) (54, 1.54528051614761350000e-001) (55, 5.31710833311080930000e-002) (56, -9.32583957910537720000e-002) (57, -4.01705615222454070000e-002) (58, 2.64013074338436130000e-002) (59, 4.67515587806701660000e-002) (60, -9.93712469935417180000e-002) (61, -1.92714899778366090000e-001) (62, 1.06169544160366060000e-001) (63, 5.95999285578727720000e-002) (64, 1.11637048423290250000e-001) (65, 9.16144773364067080000e-002) (66, -2.49056890606880190000e-002) (67, -7.82110318541526790000e-002) (68, -2.30324137955904010000e-002) (69, -6.40107467770576480000e-002) (70, -9.44243296980857850000e-002) (71, -1.22414808720350270000e-002) (72, 3.56465838849544530000e-002) (73, 2.83099208027124400000e-002) (74, -1.57410368323326110000e-001) (75, -5.74068352580070500000e-002) (76, -1.32096692919731140000e-001) (77, -7.41571038961410520000e-002) (78, 1.36378526687622070000e-001) (79, 9.17268246412277220000e-002) (80, 8.60004220157861710000e-003) (81, -5.80304593313485380000e-004) (82, 4.21988181769847870000e-002) (83, -8.42203793581575160000e-004) (84, 1.73641249537467960000e-001) (0, 1.40263512730598450000e-001) (1, -3.72223079204559330000e-001) (2, -1.61687880754470830000e-001) (3, 3.52179408073425290000e-002) (4, -4.86697517335414890000e-002) (5, -1.54703715816140170000e-002) (6, -6.54231458902359010000e-002) (7, 8.18913653492927550000e-002) (8, 6.62708207964897160000e-002) (9, 5.91214634478092190000e-002) (10, -1.51226371526718140000e-001) (11, 7.11761042475700380000e-002) (12, 2.61864453554153440000e-001) (13, -3.80928456783294680000e-001) (14, 2.09230005741119380000e-001) (15, -1.89354158937931060000e-002) (16, -3.48360314965248110000e-002) (17, 1.75385460257530210000e-001) (18, 2.42139156907796860000e-002) (19, 6.21863687410950660000e-003) (20, 7.34399333596229550000e-002) (21, 5.45281544327735900000e-002) (22, 9.65199023485183720000e-002) (23, 6.15327283740043640000e-002) (24, -1.61813814193010330000e-002) (25, 2.20898121595382690000e-001) (26, 2.19055518507957460000e-001) (27, 1.09958462417125700000e-001) (28, -7.92720466852188110000e-002) (29, 1.80002301931381230000e-002) (30, -5.73625601828098300000e-002) (31, 2.02462002635002140000e-001) (32, -1.97136193513870240000e-001) (33, -1.35972961783409120000e-001) (34, -2.32722274959087370000e-002) (35, -3.49214853486046200000e-004) (36, -1.21798358857631680000e-001) (37, 4.15050163865089420000e-002) (38, 1.31027504801750180000e-001) (39, 3.24668884277343750000e-001) (40, -4.48462367057800290000e-002) (41, 6.15452416241168980000e-002) (42, -9.18246507644653320000e-002) (43, -1.27772226929664610000e-001) (44, -3.58029305934906010000e-001) (45, -7.17383697628974910000e-002) (46, -1.35683342814445500000e-001) (47, -4.33939360082149510000e-002) (48, -1.25834390521049500000e-001) (49, -1.82782579213380810000e-002) (50, 1.16381786763668060000e-001) (51, 1.58404946327209470000e-001) (52, -1.31288722157478330000e-001) (53, 8.17360356450080870000e-002) (54, -7.10324421525001530000e-002) (55, -1.03844013065099720000e-002) (56, -1.51204630732536320000e-001) (57, 3.20753152482211590000e-003) (58, -2.39299595355987550000e-001) (59, -1.26523971557617190000e-002) (60, -1.10170096158981320000e-001) (61, -1.59880146384239200000e-002) (62, -4.09013666212558750000e-002) (63, -7.47898817062377930000e-002) (64, 9.78796333074569700000e-002) (65, 2.02757969498634340000e-001) (66, -5.42117794975638390000e-003) (67, 1.24303363263607030000e-001) (68, -6.46716821938753130000e-003) (69, 1.35137081146240230000e-001) (70, -1.54029071331024170000e-001) (71, 7.37899169325828550000e-002) (72, -2.10625603795051570000e-001) (73, -6.54820501804351810000e-002) (74, -1.52370378375053410000e-001) (75, 8.11462178826332090000e-002) (76, 2.04233124852180480000e-001) (77, 2.28208780288696290000e-001) (78, 6.55690953135490420000e-002) (79, 6.27512857317924500000e-003) (80, 9.88320708274841310000e-002) (81, 1.37281725183129310000e-002) (82, 1.11808277666568760000e-001) (83, 9.53964069485664370000e-002) (84, -1.62545219063758850000e-001) (0, -1.49998128414154050000e-001) (1, 2.66431123018264770000e-001) (2, -6.31313025951385500000e-002) (3, -1.48172214627265930000e-001) (4, -2.92852465063333510000e-002) (5, 2.93152809143066410000e-001) (6, 3.47403176128864290000e-002) (7, -6.65522962808609010000e-002) (8, -7.59861916303634640000e-002) (9, 2.93534696102142330000e-001) (10, -4.18111905455589290000e-002) (11, -1.14055708050727840000e-001) (12, -1.77656576037406920000e-001) (13, 2.40952298045158390000e-001) (14, -3.50984752178192140000e-001) (15, 2.87481993436813350000e-001) (16, -9.17518734931945800000e-002) (17, -1.72123640775680540000e-001) (18, -1.39879181981086730000e-001) (19, 4.47244159877300260000e-002) (20, -3.67240220308303830000e-001) (21, -1.73574686050415040000e-001) (22, -1.16378344595432280000e-001) (23, 6.26648962497711180000e-002) (24, 1.70120205730199810000e-002) (25, -1.34932652115821840000e-001) (26, -3.66265565156936650000e-001) (27, 1.79477185010910030000e-001) (28, -4.28020179271698000000e-001) (29, -4.31049205362796780000e-002) (30, -4.17137658223509790000e-003) (31, 1.87405765056610110000e-001) (32, -1.37278527021408080000e-001) (33, -3.21634113788604740000e-003) (34, -1.32588371634483340000e-001) (35, 2.09000185132026670000e-002) (36, -1.26911759376525880000e-001) (37, 1.29171210573986170000e-004) (38, 3.03520914167165760000e-002) (39, 1.99968218803405760000e-001) (40, -3.99453699588775630000e-001) (41, -3.32301892340183260000e-002) (42, -4.12921570241451260000e-002) (43, 2.25387468934059140000e-001) (44, -1.26866921782493590000e-001) (45, -3.97937633097171780000e-002) (46, -2.00286030769348140000e-001) (47, -3.48668247461318970000e-002) (48, 4.45843301713466640000e-002) (49, 6.82731196284294130000e-002) (50, -1.92442551255226140000e-001) (51, -8.66289734840393070000e-002) (52, -6.73989057540893550000e-002) (53, 4.09366786479949950000e-002) (54, -3.38814547285437580000e-003) (55, 2.35988870263099670000e-001) (56, -1.63787484169006350000e-001) (57, 4.33166213333606720000e-002) (58, 4.47217002511024480000e-002) (59, 1.05964772403240200000e-001) (60, 2.46439836919307710000e-002) (61, 1.20465651154518130000e-001) (62, -6.40742853283882140000e-002) (63, 3.99937853217124940000e-002) (64, -2.91804969310760500000e-002) (65, 7.63389095664024350000e-002) (66, 1.30272358655929570000e-001) (67, 1.79923862218856810000e-001) (68, -1.69029131531715390000e-001) (69, 1.38787832111120220000e-002) (70, 3.11055388301610950000e-002) (71, 1.43992781639099120000e-001) (72, -2.27019160985946660000e-001) (73, -4.32007983326911930000e-002) (74, -6.98273479938507080000e-002) (75, 1.28575026988983150000e-001) (76, 1.43901914358139040000e-001) (77, 3.27104747295379640000e-001) (78, -6.72307908535003660000e-002) (79, 6.69421851634979250000e-002) (80, -1.48742511868476870000e-001) (81, -7.95903801918029790000e-003) (82, 8.95559880882501600000e-003) (83, 1.24217137694358830000e-001) (84, -3.22876065969467160000e-001) (0, -3.98772284388542180000e-002) (1, -1.99446260929107670000e-001) (2, 2.15077996253967290000e-001) (3, -7.69184380769729610000e-002) (4, 3.69652621448040010000e-002) (5, -1.68609265238046650000e-002) (6, -5.70908933877944950000e-002) (7, -4.49812225997447970000e-002) (8, 5.80519922077655790000e-002) (9, 1.41726937144994740000e-002) (10, 2.20913663506507870000e-001) (11, 9.37487371265888210000e-003) (12, 6.48556975647807120000e-004) (13, -4.95088174939155580000e-002) (14, 2.38758310675621030000e-001) (15, -1.02486185729503630000e-001) (16, -7.05066695809364320000e-002) (17, -3.84450815618038180000e-002) (18, 2.10911296308040620000e-002) (19, 8.17855261266231540000e-003) (20, 8.56172442436218260000e-002) (21, -4.53672558069229130000e-002) (22, 6.72717839479446410000e-002) (23, 6.34931772947311400000e-002) (24, 6.73915222287178040000e-002) (25, -3.56027036905288700000e-002) (26, 3.14839959144592290000e-001) (27, -9.55197587609291080000e-002) (28, -5.04133030772209170000e-002) (29, -1.87767878174781800000e-001) (30, 8.74381884932518010000e-002) (31, -5.17198778688907620000e-002) (32, 7.98924937844276430000e-002) (33, 4.68179285526275630000e-002) (34, -1.08098201453685760000e-001) (35, -7.39501863718032840000e-002) (36, 5.55982254445552830000e-002) (37, 4.76424582302570340000e-002) (38, -1.90537713933736090000e-003) (39, -5.65918125212192540000e-002) (40, 9.27387624979019170000e-002) (41, -8.96175578236579900000e-002) (42, 1.82920247316360470000e-001) (43, 8.34383442997932430000e-002) (44, 6.30853176116943360000e-002) (45, -9.47648584842681880000e-002) (46, -9.30274054408073430000e-002) (47, 9.53095220029354100000e-003) (48, 5.47302961349487300000e-002) (49, 1.70498371124267580000e-001) (50, -6.65126927196979520000e-003) (51, 5.59748932719230650000e-002) (52, 7.70939439535140990000e-002) (53, 3.96104529500007630000e-003) (54, 2.26266741752624510000e-001) (55, 1.24953970313072200000e-001) (56, -7.11562260985374450000e-002) (57, -1.33033215999603270000e-001) (58, 5.21326437592506410000e-002) (59, -2.50798687338829040000e-002) (60, -4.51035089790821080000e-002) (61, -5.60458078980445860000e-002) (62, 9.99018698930740360000e-002) (63, 3.47339697182178500000e-002) (64, -9.53291282057762150000e-002) (65, -1.06274232268333440000e-001) (66, 9.29961632937192920000e-003) (67, -2.13782154023647310000e-002) (68, -9.43969562649726870000e-003) (69, -5.67809715867042540000e-002) (70, 1.46434074267745020000e-002) (71, 1.81955061852931980000e-002) (72, 1.39552075415849690000e-002) (73, 2.33507882803678510000e-002) (74, 9.12836492061614990000e-002) (75, 9.15370509028434750000e-002) (76, -3.42951342463493350000e-002) (77, -4.71669808030128480000e-002) (78, 8.64527076482772830000e-002) (79, 8.69513675570487980000e-002) (80, 3.80265293642878530000e-003) (81, -3.34979267790913580000e-003) (82, 2.00393106788396840000e-002) (83, 1.32378851994872090000e-002) (84, -4.97254617512226100000e-002) (0, 7.94356390833854680000e-002) (1, 2.09882929921150210000e-001) (2, 1.67280569672584530000e-001) (3, -2.66879349946975710000e-001) (4, 4.25760746002197270000e-002) (5, 1.51798412203788760000e-001) (6, 6.28350749611854550000e-002) (7, -8.84113907814025880000e-002) (8, 7.21758827567100520000e-002) (9, 1.26721218228340150000e-001) (10, 1.50191143155097960000e-001) (11, -2.08149671554565430000e-001) (12, 1.08139313757419590000e-001) (13, 1.60560116171836850000e-001) (14, -1.78455468267202380000e-002) (15, -2.44123232550919060000e-003) (16, -2.57272049784660340000e-002) (17, -1.23801827430725100000e-003) (18, 7.17380200512707230000e-004) (19, 7.49924927949905400000e-002) (20, -1.56125491484999660000e-002) (21, 6.19917586445808410000e-002) (22, 1.03044649586081500000e-002) (23, 8.57379883527755740000e-002) (24, -3.01315146498382090000e-003) (25, -3.79247212549671530000e-005) (26, -4.18452918529510500000e-003) (27, -4.98253479599952700000e-002) (28, -4.20555360615253450000e-002) (29, -9.60603356361389160000e-002) (30, 1.17562897503376010000e-001) (31, -9.80466231703758240000e-002) (32, -1.17721937596797940000e-001) (33, -1.37698486447334290000e-001) (34, 1.80428698658943180000e-001) (35, 2.07594156265258790000e-001) (36, -8.00622105598449710000e-002) (37, -1.13702073693275450000e-001) (38, 9.02761220932006840000e-002) (39, -1.14384517073631290000e-001) (40, 9.80219338089227680000e-003) (41, -8.36961418390274050000e-002) (42, -2.16498356312513350000e-002) (43, 3.74361276626586910000e-002) (44, 2.44700148701667790000e-001) (45, 1.34591296315193180000e-001) (46, 4.43044379353523250000e-002) (47, 9.30249467492103580000e-002) (48, -1.16530112922191620000e-001) (49, -2.90442872792482380000e-002) (50, 6.67563304305076600000e-002) (51, 1.35679736733436580000e-001) (52, 2.11847424507141110000e-001) (53, 1.07784293591976170000e-001) (54, 6.80859154090285300000e-003) (55, 1.31197469308972360000e-002) (56, 6.22392520308494570000e-002) (57, 1.01516447961330410000e-001) (58, -2.80234273523092270000e-002) (59, 8.31315070390701290000e-002) (60, -5.81221580505371090000e-002) (61, -2.49599963426589970000e-002) (62, -2.32275217771530150000e-001) (63, -1.95893540978431700000e-001) (64, -1.07106849551200870000e-001) (65, -4.97310906648635860000e-002) (66, -2.45769731700420380000e-002) (67, 6.62595480680465700000e-002) (68, 3.74906361103057860000e-002) (69, 7.29497149586677550000e-002) (70, -3.67590039968490600000e-002) (71, 4.18494176119565960000e-003) (72, -7.10996985435485840000e-002) (73, -1.03353470563888550000e-001) (74, 2.21624337136745450000e-002) (75, -1.43311759456992150000e-002) (76, 1.98492616415023800000e-001) (77, 4.19489108026027680000e-002) (78, 4.26233001053333280000e-002) (79, -3.38214333169162270000e-003) (80, -8.39759856462478640000e-002) (81, -1.11556924879550930000e-001) (82, -4.18396182358264920000e-002) (83, -2.95391096733510490000e-003) (84, 4.65972721576690670000e-002) (0, 2.56031919270753860000e-002) (1, -4.19160835444927220000e-002) (2, 3.02550584077835080000e-001) (3, -4.83915880322456360000e-002) (4, -5.95269165933132170000e-002) (5, -6.92567750811576840000e-002) (6, 3.78698445856571200000e-002) (7, 1.57033577561378480000e-001) (8, -1.59451812505722050000e-001) (9, -1.21390394866466520000e-001) (10, 2.92264640331268310000e-001) (11, -1.04043267667293550000e-001) (12, -1.98081769049167630000e-002) (13, -9.29559618234634400000e-002) (14, -1.06650479137897490000e-001) (15, -1.23111009597778320000e-001) (16, -2.89203599095344540000e-002) (17, -7.66702517867088320000e-002) (18, -4.78881970047950740000e-002) (19, 7.39628672599792480000e-002) (20, 2.19877451658248900000e-001) (21, 1.70213878154754640000e-001) (22, -8.81403535604476930000e-002) (23, 3.07655446231365200000e-002) (24, 6.20213113725185390000e-002) (25, -1.59685537219047550000e-002) (26, -1.47988453507423400000e-001) (27, -1.35481700301170350000e-001) (28, 3.95523644983768460000e-002) (29, 6.82779848575592040000e-002) (30, 7.96142145991325380000e-002) (31, 3.84154655039310460000e-002) (32, 1.06708779931068420000e-001) (33, 9.07858237624168400000e-002) (34, -1.19671218097209930000e-001) (35, -1.63366883993148800000e-001) (36, 7.79269784688949580000e-002) (37, 1.14533439278602600000e-001) (38, 1.58922225236892700000e-001) (39, 1.09024561941623690000e-001) (40, 1.75087034702301030000e-001) (41, 2.13610202074050900000e-001) (42, -9.04244706034660340000e-002) (43, -7.27257803082466130000e-002) (44, -1.63713455200195310000e-001) (45, -1.21970795094966890000e-001) (46, -2.11020812392234800000e-001) (47, -2.06039711833000180000e-001) (48, 6.67588785290718080000e-002) (49, 2.67709065228700640000e-002) (50, -5.58226630091667180000e-002) (51, -1.33482694625854490000e-001) (52, -9.49602201581001280000e-003) (53, -7.95044451951980590000e-002) (54, -3.47760096192359920000e-002) (55, 4.42974343895912170000e-002) (56, -9.94224660098552700000e-003) (57, 4.88139353692531590000e-002) (58, -1.79225832223892210000e-001) (59, -9.94429811835289000000e-002) (60, 7.06116110086441040000e-002) (61, 1.24721430242061610000e-001) (62, -8.05660486221313480000e-002) (63, -8.12464579939842220000e-002) (64, 1.30292728543281560000e-001) (65, 2.28525862097740170000e-001) (66, -4.20111306011676790000e-002) (67, -1.73699203878641130000e-002) (68, 3.49470339715480800000e-002) (69, 2.15837825089693070000e-002) (70, -4.29646968841552730000e-002) (71, -3.03637385368347170000e-002) (72, -2.92567610740661620000e-002) (73, 3.26153934001922610000e-002) (74, -1.03955708444118500000e-001) (75, -2.60261129587888720000e-002) (76, 1.95310898125171660000e-002) (77, 1.14327538758516310000e-002) (78, 1.62090826779603960000e-002) (79, -1.55006768181920050000e-002) (80, 4.29117195308208470000e-002) (81, 1.23643865808844570000e-002) (82, -2.42379549890756610000e-002) (83, -7.22163841128349300000e-002) (84, 7.10224956274032590000e-002) (0, 3.23548555374145510000e-001) (1, 6.42997547984123230000e-002) (2, 5.96918351948261260000e-002) (3, -1.08423441648483280000e-001) (4, -2.44973991066217420000e-002) (5, 2.86957211792469020000e-002) (6, -1.19271650910377500000e-001) (7, 1.65470719337463380000e-001) (8, -1.11098336055874820000e-002) (9, 7.88705646991729740000e-002) (10, 3.04810218513011930000e-002) (11, -5.66324666142463680000e-002) (12, 2.52890259027481080000e-001) (13, 8.27605947852134700000e-002) (14, -3.12939211726188660000e-002) (15, -1.84170648455619810000e-001) (16, -2.12597046047449110000e-002) (17, -1.25570252537727360000e-001) (18, 8.77990871667861940000e-002) (19, 2.30128224939107890000e-002) (20, 8.00324156880378720000e-002) (21, 1.44896730780601500000e-001) (22, 8.80983695387840270000e-002) (23, 6.41846284270286560000e-002) (24, 4.38074395060539250000e-002) (25, -2.12558079510927200000e-002) (26, -1.32082760334014890000e-001) (27, -1.59915000200271610000e-001) (28, -1.29606397822499280000e-002) (29, -5.33360168337821960000e-002) (30, -7.85741806030273440000e-002) (31, 1.25063732266426090000e-001) (32, -1.42597913742065430000e-001) (33, -1.13654017448425290000e-001) (34, -3.23688685894012450000e-002) (35, 1.72914341092109680000e-002) (36, -8.10843929648399350000e-002) (37, -1.21939126402139660000e-002) (38, -2.66804136335849760000e-002) (39, 1.59775495529174800000e-001) (40, 2.47542597353458400000e-002) (41, -2.66382303088903430000e-002) (42, 5.05451038479804990000e-002) (43, 1.16290494799613950000e-001) (44, -1.10163807868957520000e-001) (45, 5.13036400079727170000e-002) (46, -1.27120509743690490000e-001) (47, 3.94670404493808750000e-002) (48, -2.47558075934648510000e-002) (49, 9.94794815778732300000e-002) (50, 3.96676287055015560000e-002) (51, 1.35054051876068120000e-001) (52, -3.19632813334465030000e-002) (53, 2.74902265518903730000e-002) (54, 5.89323416352272030000e-002) (55, 1.17594890296459200000e-001) (56, -1.15244999527931210000e-001) (57, -1.39569845050573350000e-002) (58, -7.58349075913429260000e-002) (59, 3.57638932764530180000e-002) (60, -6.50607496500015260000e-002) (61, -7.44046550244092940000e-003) (62, -9.82166528701782230000e-002) (63, -2.61142663657665250000e-002) (64, 4.74141985177993770000e-002) (65, 1.14147149026393890000e-001) (66, 7.13009685277938840000e-002) (67, 1.20364829897880550000e-001) (68, -6.34396672248840330000e-002) (69, -5.62081746757030490000e-002) (70, -9.08376872539520260000e-002) (71, 7.15079233050346370000e-002) (72, -1.67620435357093810000e-001) (73, -5.03364205360412600000e-002) (74, -1.92507393658161160000e-002) (75, 1.33244335651397710000e-001) (76, -3.99680063128471370000e-002) (77, 2.37079560756683350000e-002) (78, 5.04634156823158260000e-002) (79, 7.90262967348098750000e-002) (80, -2.40147905424237250000e-003) (81, 5.25109469890594480000e-002) (82, -2.78046587482094760000e-003) (83, 7.02820643782615660000e-002) (84, -4.96553964912891390000e-002) (0, -5.32325915992259980000e-003) (1, 8.75747203826904300000e-003) (2, 4.19299416244030000000e-002) (3, -2.41356462240219120000e-001) (4, 1.55201524496078490000e-001) (5, -4.19559367001056670000e-002) (6, -1.09092332422733310000e-002) (7, -2.61228680610656740000e-002) (8, 1.72939524054527280000e-001) (9, 2.29637362062931060000e-002) (10, 5.66912181675434110000e-002) (11, -2.98062384128570560000e-001) (12, -2.42437869310379030000e-002) (13, 5.19912876188755040000e-002) (14, -8.74147415161132810000e-002) (15, 2.24848417565226550000e-003) (16, 1.69242605566978450000e-001) (17, 4.71035242080688480000e-002) (18, 3.08678369037806990000e-003) (19, -6.28531649708747860000e-002) (20, -7.67764896154403690000e-002) (21, 9.78446751832962040000e-003) (22, 4.76432107388973240000e-002) (23, 3.21758748032152650000e-003) (24, 2.84945964813232420000e-001) (25, 1.62107214331626890000e-001) (26, -1.30783721804618840000e-001) (27, -8.52225497364997860000e-002) (28, -6.05832459405064580000e-003) (29, 1.30913212895393370000e-001) (30, 1.05045381933450700000e-002) (31, -1.23623870313167570000e-001) (32, 2.25370097905397420000e-002) (33, 3.73300611972808840000e-002) (34, 5.29881343245506290000e-002) (35, 1.33705779910087590000e-001) (36, 8.72934833168983460000e-002) (37, 9.65854302048683170000e-002) (38, 1.13037601113319400000e-001) (39, 1.82076487690210340000e-002) (40, 3.76509949564933780000e-002) (41, 1.49177968502044680000e-001) (42, -2.36196100711822510000e-001) (43, -1.34325459599494930000e-001) (44, -3.78485471010208130000e-002) (45, -5.97196854650974270000e-002) (46, -2.13463809341192250000e-002) (47, -3.25349681079387660000e-002) (48, -1.05834370478987690000e-002) (49, 3.76905463635921480000e-002) (50, 5.68002946674823760000e-002) (51, -7.84655660390853880000e-003) (52, 8.90654176473617550000e-002) (53, 4.18996475636959080000e-002) (54, -1.78070917725563050000e-001) (55, -1.15566760301589970000e-001) (56, 8.71808603405952450000e-002) (57, 1.21882706880569460000e-001) (58, -1.85813248157501220000e-001) (59, -1.63671076297760010000e-001) (60, -9.78213176131248470000e-002) (61, -1.12820966169238090000e-002) (62, -4.43863272666931150000e-002) (63, -4.32655662298202510000e-002) (64, -1.34469985961914060000e-001) (65, -8.76221992075443270000e-003) (66, -1.04445241391658780000e-001) (67, -1.13685563206672670000e-001) (68, 1.05427451431751250000e-001) (69, 5.71106784045696260000e-002) (70, -6.89831525087356570000e-002) (71, -6.13212063908576970000e-002) (72, 8.30318257212638850000e-002) (73, 4.94591183960437770000e-002) (74, 4.78665418922901150000e-002) (75, 5.45126050710678100000e-002) (76, 4.83185797929763790000e-002) (77, -8.98505840450525280000e-003) (78, 8.70119631290435790000e-002) (79, -1.36212836951017380000e-002) (80, 1.16459175944328310000e-001) (81, 3.24109308421611790000e-002) (82, -6.32009729743003850000e-002) (83, -7.63197690248489380000e-002) (84, -6.26329034566879270000e-002) (0, -6.67361170053482060000e-002) (1, -3.54322582483291630000e-001) (2, 2.34249234199523930000e-001) (3, -5.23241639137268070000e-001) (4, -2.15118646621704100000e-001) (5, 6.14810347557067870000e-001) (6, -2.13576048612594600000e-001) (7, -1.38164563104510310000e-002) (8, -2.02120169997215270000e-001) (9, 6.07312321662902830000e-001) (10, 2.50927805900573730000e-001) (11, -5.48305034637451170000e-001) (12, -5.90654350817203520000e-002) (13, -3.61602753400802610000e-001) (14, 1.12287275493144990000e-001) (15, -4.45484489202499390000e-001) (16, 2.08344385027885440000e-001) (17, -1.21718429028987880000e-001) (18, 5.44166900217533110000e-002) (19, -2.78281927108764650000e-001) (20, -2.37840816378593440000e-001) (21, -8.51878374814987180000e-002) (22, 5.93272298574447630000e-002) (23, -2.47583419084548950000e-001) (24, 2.24688217043876650000e-001) (25, -1.02594889700412750000e-001) (26, 1.14877864718437190000e-001) (27, -4.52284008264541630000e-001) (28, 1.16658927872776990000e-002) (29, -2.73271203041076660000e-002) (30, 1.10541261732578280000e-001) (31, 1.48497536778450010000e-001) (32, -1.28404214978218080000e-001) (33, -2.41727288812398910000e-002) (34, 2.05090060830116270000e-001) (35, 2.12807938456535340000e-001) (36, -1.05242125689983370000e-001) (37, 7.52333225682377820000e-003) (38, 1.15860238671302800000e-001) (39, 1.59371241927146910000e-001) (40, 2.55107097327709200000e-002) (41, -4.40480858087539670000e-002) (42, 1.35535046458244320000e-001) (43, 7.37048611044883730000e-002) (44, 5.76570406556129460000e-002) (45, -9.03283357620239260000e-002) (46, -7.93547332286834720000e-002) (47, 4.22352626919746400000e-002) (48, -2.12347120046615600000e-001) (49, -1.07407405972480770000e-001) (50, -4.46669422090053560000e-002) (51, 5.97210489213466640000e-002) (52, 4.99657578766345980000e-002) (53, -9.86318215727806090000e-002) (54, 1.40005752444267270000e-001) (55, 5.80592788755893710000e-002) (56, 1.16244502365589140000e-001) (57, 6.46294057369232180000e-002) (58, 5.31999729573726650000e-002) (59, 5.71854338049888610000e-002) (60, 9.72451418638229370000e-002) (61, 1.00474044680595400000e-001) (62, 5.10523375123739240000e-003) (63, -1.18424132466316220000e-001) (64, 1.25027373433113100000e-001) (65, 1.26148909330368040000e-001) (66, 4.93435487151145940000e-002) (67, 3.08055207133293150000e-002) (68, 1.00808151066303250000e-001) (69, 6.36281222105026250000e-002) (70, 3.47553901374340060000e-002) (71, 3.98134142160415650000e-002) (72, -1.21197827160358430000e-001) (73, -4.11441810429096220000e-002) (74, -6.19954168796539310000e-002) (75, -1.02627605199813840000e-001) (76, -2.44739994406700130000e-001) (77, -2.33998313546180730000e-001) (78, -4.88214455544948580000e-002) (79, -8.74894931912422180000e-002) (80, -1.42136007547378540000e-001) (81, -6.94067180156707760000e-002) (82, 2.64565013349056240000e-002) (83, 3.15524265170097350000e-002) (84, 1.48191004991531370000e-001) (0, 6.92274272441864010000e-002) (1, 1.79368946701288220000e-002) (2, 2.85669624805450440000e-001) (3, 1.85284614562988280000e-002) (4, 1.20441623032093050000e-001) (5, 1.60423412919044490000e-001) (6, -3.10007691383361820000e-001) (7, 1.26845106482505800000e-001) (8, 1.08996316790580750000e-001) (9, 1.39064475893974300000e-001) (10, 2.82415628433227540000e-001) (11, 8.33723973482847210000e-003) (12, 5.07851168513298030000e-002) (13, -1.35812524240463970000e-003) (14, -9.64804738759994510000e-002) (15, 1.54308825731277470000e-001) (16, 3.87782812118530270000e-001) (17, -6.70772135257720950000e-001) (18, 7.45364129543304440000e-002) (19, -3.38911786675453190000e-002) (20, -1.28633037209510800000e-001) (21, -5.17269186675548550000e-002) (22, 3.86033765971660610000e-002) (23, -2.33443286269903180000e-002) (24, 3.42032521963119510000e-001) (25, -7.17926740646362300000e-001) (26, -8.97612795233726500000e-002) (27, 1.25904053449630740000e-001) (28, 1.21943494305014610000e-002) (29, 8.39369967579841610000e-002) (30, 4.09468173980712890000e-001) (31, 2.84465886652469640000e-002) (32, 6.41962587833404540000e-002) (33, 1.20332047343254090000e-001) (34, -2.13157664984464650000e-002) (35, 3.97018939256668090000e-002) (36, 2.93866433203220370000e-002) (37, 9.27684530615806580000e-002) (38, 3.07661503553390500000e-001) (39, -3.00986599177122120000e-002) (40, 9.70798730850219730000e-003) (41, 8.15683007240295410000e-002) (42, -2.67767637968063350000e-001) (43, -8.26869457960128780000e-002) (44, -1.05309277772903440000e-001) (45, 4.53919917345047000000e-002) (46, -1.13266043365001680000e-001) (47, 9.10063982009887700000e-002) (48, -5.97871989011764530000e-002) (49, 4.48916070163249970000e-002) (50, -1.37879967689514160000e-001) (51, 7.81838446855545040000e-002) (52, -1.68402448296546940000e-001) (53, -3.74716185033321380000e-002) (54, -3.04782480001449580000e-001) (55, -6.33877441287040710000e-002) (56, 1.02395135909318920000e-002) (57, 5.76529651880264280000e-002) (58, -1.22039495036005970000e-002) (59, 1.55288666486740110000e-001) (60, -1.71911835670471190000e-001) (61, 2.89085544645786290000e-002) (62, 1.20463736355304720000e-001) (63, 1.33038967847824100000e-001) (64, -1.73707813024520870000e-001) (65, 7.19112306833267210000e-002) (66, -8.37146639823913570000e-002) (67, 6.89708516001701350000e-002) (68, 7.49075028579682110000e-004) (69, 5.19974008202552800000e-002) (70, -4.78310137987136840000e-002) (71, 4.46717664599418640000e-002) (72, -3.69968190789222720000e-002) (73, 3.36460024118423460000e-002) (74, -4.58271764218807220000e-002) (75, 1.43357113003730770000e-001) (76, -1.68160676956176760000e-001) (77, -4.66993870213627820000e-003) (78, -5.77022396028041840000e-002) (79, 1.65439173579216000000e-001) (80, -1.30429074168205260000e-001) (81, 2.07040971145033840000e-003) (82, -9.55481678247451780000e-002) (83, 5.17854206264019010000e-002) (84, -2.33236566185951230000e-001) (0, -1.94429099559783940000e-001) (1, 1.20498463511466980000e-001) (2, 2.80911386013031010000e-001) (3, -2.63500750064849850000e-001) (4, 1.46458223462104800000e-001) (5, 8.32938996609300370000e-004) (6, 3.35240289568901060000e-002) (7, 1.08754090964794160000e-001) (8, 1.01591147482395170000e-001) (9, -6.45931065082550050000e-003) (10, 2.53230929374694820000e-001) (11, -2.39680573344230650000e-001) (12, -3.02157759666442870000e-001) (13, 2.94140148907899860000e-002) (14, 1.08137987554073330000e-001) (15, 4.46723327040672300000e-002) (16, 5.19628152251243590000e-002) (17, -4.53381389379501340000e-002) (18, -5.28290085494518280000e-002) (19, -1.97725370526313780000e-001) (20, 1.69300109148025510000e-001) (21, 1.09278813004493710000e-001) (22, -5.18567934632301330000e-002) (23, -1.70020267367362980000e-001) (24, 6.87133446335792540000e-002) (25, -2.86727566272020340000e-002) (26, 7.10405642166733740000e-003) (27, -4.03398722410202030000e-002) (28, -8.10018256306648250000e-002) (29, 5.77420331537723540000e-002) (30, -1.95688113570213320000e-001) (31, -9.60658192634582520000e-002) (32, 6.07356727123260500000e-002) (33, -5.97333237528800960000e-002) (34, -5.34880086779594420000e-002) (35, -2.06716835498809810000e-001) (36, 9.66693460941314700000e-002) (37, -7.19228237867355350000e-002) (38, -2.48344555497169490000e-001) (39, -1.16605922579765320000e-001) (40, -9.73588526248931880000e-002) (41, 6.89936056733131410000e-002) (42, -1.90270647406578060000e-001) (43, 4.08227322623133660000e-004) (44, 1.73879653215408330000e-001) (45, 2.55601733922958370000e-001) (46, 1.12321294844150540000e-001) (47, -1.43874078989028930000e-001) (48, 1.56287044286727910000e-001) (49, -1.96725614368915560000e-002) (50, 2.09634900093078610000e-001) (51, -3.52032892405986790000e-002) (52, 2.02461749315261840000e-001) (53, 2.68480807542800900000e-001) (54, -1.97322696447372440000e-001) (55, -1.30108336452394720000e-003) (56, 1.65035560727119450000e-001) (57, 7.79796540737152100000e-002) (58, -1.20896875858306880000e-001) (59, -1.77585765719413760000e-001) (60, 7.93616697192192080000e-002) (61, 1.78735554218292240000e-002) (62, -6.10696412622928620000e-002) (63, -1.26441806554794310000e-001) (64, 9.40484702587127690000e-002) (65, 7.65348449349403380000e-002) (66, -1.02092236280441280000e-001) (67, -1.59573510289192200000e-001) (68, 2.11726740002632140000e-001) (69, 7.76928290724754330000e-002) (70, -8.07643532752990720000e-002) (71, -1.75417825579643250000e-001) (72, 1.73990219831466670000e-001) (73, 6.09477572143077850000e-002) (74, -9.74669903516769410000e-002) (75, -1.73551231622695920000e-001) (76, 3.42113897204399110000e-002) (77, -3.14342826604843140000e-002) (78, 1.20643926784396170000e-002) (79, -1.57337784767150880000e-001) (80, 1.52761757373809810000e-001) (81, 1.17736328393220900000e-002) (82, -2.00768895447254180000e-002) (83, -1.91158458590507510000e-001) (84, 7.19612464308738710000e-002) (0, -3.15961204469203950000e-002) (1, 8.94922167062759400000e-002) (2, 1.86529517173767090000e-001) (3, -2.51035094261169430000e-001) (4, 1.60335749387741090000e-001) (5, 4.96925748884677890000e-002) (6, -4.04829829931259160000e-002) (7, -1.67218800634145740000e-002) (8, 1.20012596249580380000e-001) (9, 3.26887369155883790000e-002) (10, 1.48009702563285830000e-001) (11, -2.82424390316009520000e-001) (12, 3.18745896220207210000e-003) (13, 2.60639935731887820000e-001) (14, -2.22416415810585020000e-001) (15, -2.41507843136787410000e-001) (16, 1.54191151261329650000e-001) (17, -3.26953157782554630000e-002) (18, -9.23035517334938050000e-002) (19, -8.99208933115005490000e-002) (20, 7.20018297433853150000e-002) (21, 1.06861360371112820000e-001) (22, -8.91347900032997130000e-002) (23, -8.45393016934394840000e-002) (24, 7.93596878647804260000e-002) (25, -3.03066093474626540000e-002) (26, 3.77641767263412480000e-002) (27, -1.18632532656192780000e-001) (28, 9.74549353122711180000e-003) (29, 4.00032065808773040000e-002) (30, 1.39475874602794650000e-002) (31, 3.20168919861316680000e-002) (32, 1.92588448524475100000e-001) (33, 1.03382267057895660000e-001) (34, -5.47053143382072450000e-002) (35, -9.27560850977897640000e-002) (36, 1.24932967126369480000e-001) (37, -3.10574704781174660000e-003) (38, -8.18900689482688900000e-002) (39, -1.01480357348918910000e-001) (40, 4.59305979311466220000e-002) (41, 1.47395491600036620000e-001) (42, -1.12647913396358490000e-001) (43, -1.22586227953433990000e-002) (44, 2.31148362159729000000e-001) (45, 1.42922610044479370000e-001) (46, -5.35573437809944150000e-002) (47, -1.24272219836711880000e-001) (48, 4.95411222800612450000e-003) (49, -2.69494205713272090000e-002) (50, -9.84803140163421630000e-002) (51, -1.27699285745620730000e-001) (52, 1.39573439955711360000e-002) (53, -1.76356285810470580000e-002) (54, 1.04238688945770260000e-002) (55, 1.22792512178421020000e-001) (56, -2.34186998568475250000e-003) (57, -4.34703230857849120000e-002) (58, 9.54974070191383360000e-002) (59, 2.63185240328311920000e-002) (60, 8.01569744944572450000e-002) (61, 6.51479810476303100000e-002) (62, -2.86871641874313350000e-002) (63, -4.49001938104629520000e-002) (64, 6.03071302175521850000e-002) (65, 3.89981530606746670000e-002) (66, -8.66600200533866880000e-002) (67, -1.20525710284709930000e-001) (68, 4.94973175227642060000e-003) (69, -6.00912747904658320000e-003) (70, 3.62676456570625310000e-002) (71, -3.44818122684955600000e-002) (72, 7.60749503970146180000e-002) (73, 2.24071796983480450000e-002) (74, 2.97384876757860180000e-002) (75, -5.79314194619655610000e-002) (76, 2.22288211807608600000e-003) (77, 3.82094234228134160000e-002) (78, -1.09499581158161160000e-001) (79, -4.12477441132068630000e-002) (80, -8.25686007738113400000e-002) (81, -5.71076460182666780000e-002) (82, -4.03737798333168030000e-002) (83, -2.71348208189010620000e-002) (84, 7.59528875350952150000e-002) (0, -6.55980929732322690000e-002) (1, -1.95222571492195130000e-001) (2, -1.00774705410003660000e-001) (3, -4.51807647943496700000e-001) (4, -1.32351398468017580000e-001) (5, -4.30036872625350950000e-001) (6, -3.29134613275527950000e-001) (7, 2.71129637956619260000e-001) (8, -1.28575116395950320000e-001) (9, -4.21609222888946530000e-001) (10, -9.93719920516014100000e-002) (11, -4.46861356496810910000e-001) (12, -6.57046213746070860000e-002) (13, -2.10291862487792970000e-001) (14, -1.01440623402595520000e-001) (15, -1.26206979155540470000e-001) (16, -1.48326173424720760000e-001) (17, -2.49697819352149960000e-001) (18, -3.71298134326934810000e-001) (19, 1.11783012747764590000e-001) (20, -3.55176806449890140000e-001) (21, 1.57753989100456240000e-001) (22, -3.64528715610504150000e-001) (23, 1.06299266219139100000e-001) (24, -1.43090620636940000000e-001) (25, -2.48969525098800660000e-001) (26, -1.04315936565399170000e-001) (27, -1.22003585100173950000e-001) (28, -9.79248434305191040000e-002) (29, -2.53682017326354980000e-001) (30, -2.79999375343322750000e-001) (31, -2.80575513839721680000e-001) (32, -3.30845654010772710000e-001) (33, -2.94674515724182130000e-001) (34, -5.35350561141967770000e-001) (35, -3.44765812158584590000e-001) (36, -3.35689395666122440000e-001) (37, -2.88704276084899900000e-001) (38, -2.87802308797836300000e-001) (39, -2.68901437520980830000e-001) (40, -1.04336544871330260000e-001) (41, -2.41961434483528140000e-001) (42, 5.42842224240303040000e-002) (43, -2.90388643741607670000e-001) (44, -1.12663619220256810000e-001) (45, -6.09773807227611540000e-002) (46, -1.84130802750587460000e-001) (47, 1.02900192141532900000e-001) (48, -1.49114593863487240000e-001) (49, 2.31065526604652400000e-001) (50, -1.77810400724411010000e-001) (51, 1.12764261662960050000e-001) (52, -1.17528162896633150000e-001) (53, -6.21009394526481630000e-002) (54, 4.80182506144046780000e-002) (55, -2.95206695795059200000e-001) (56, -8.60691443085670470000e-002) (57, -6.39966875314712520000e-002) (58, -2.36647889018058780000e-001) (59, -1.71280592679977420000e-001) (60, -2.14371845126152040000e-001) (61, -1.07008710503578190000e-001) (62, -3.29251736402511600000e-001) (63, 4.93502199649810790000e-001) (64, -2.10634976625442500000e-001) (65, -1.05570666491985320000e-001) (66, -2.39536821842193600000e-001) (67, -1.78594753146171570000e-001) (68, -8.67031440138816830000e-002) (69, -5.91474510729312900000e-002) (70, -2.86078512668609620000e-001) (71, -1.48904591798782350000e-001) (72, -2.52671718597412110000e-001) (73, -2.29770094156265260000e-001) (74, -3.98846507072448730000e-001) (75, -2.15662658214569090000e-001) (76, 3.51241886615753170000e-001) (77, -1.70199334621429440000e+000) (78, -3.96309137344360350000e-001) (79, -2.14577764272689820000e-001) (80, -2.47215822339057920000e-001) (81, -2.35898315906524660000e-001) (82, -2.76216864585876460000e-001) (83, -1.45860403776168820000e-001) (84, 2.04736328125000000000e+000) (0, -5.51104322075843810000e-002) (1, -8.32502171397209170000e-002) (2, -5.79533055424690250000e-002) (3, 2.22767397761344910000e-001) (4, -2.24715881049633030000e-002) (5, -5.11596500873565670000e-002) (6, 9.69109460711479190000e-002) (7, -1.40028178691864010000e-001) (8, -2.33912710100412370000e-002) (9, -6.56640604138374330000e-002) (10, -3.68709750473499300000e-002) (11, 2.10609421133995060000e-001) (12, 1.23869530856609340000e-001) (13, 8.67056939750909810000e-003) (14, 7.87970647215843200000e-002) (15, 4.99796047806739810000e-002) (16, -6.34734928607940670000e-002) (17, -7.00815618038177490000e-002) (18, 1.03551745414733890000e-002) (19, -4.88919727504253390000e-002) (20, 2.40963906049728390000e-001) (21, 1.59725695848464970000e-001) (22, 1.63360878825187680000e-001) (23, 3.49832624197006230000e-002) (24, -5.06013371050357820000e-002) (25, -1.32981399074196820000e-002) (26, 1.50548949837684630000e-001) (27, 1.04868397116661070000e-001) (28, -6.87671825289726260000e-002) (29, 1.15602416917681690000e-002) (30, 2.57027931511402130000e-002) (31, -2.07780703902244570000e-001) (32, -6.21575899422168730000e-002) (33, -1.41357287764549260000e-001) (34, 2.29454580694437030000e-002) (35, 4.61838580667972560000e-002) (36, -1.20397107675671580000e-002) (37, -3.45734804868698120000e-002) (38, 1.01137183606624600000e-001) (39, -7.13467225432395940000e-002) (40, 6.50710687041282650000e-002) (41, 1.68282240629196170000e-001) (42, -1.22184418141841890000e-001) (43, -9.44823473691940310000e-002) (44, 1.56810432672500610000e-002) (45, -1.01692125201225280000e-001) (46, 6.61881566047668460000e-002) (47, 8.59551057219505310000e-002) (48, -1.23267441987991330000e-001) (49, -1.18124194443225860000e-001) (50, 1.50820657610893250000e-001) (51, 8.29350650310516360000e-002) (52, 4.86568696796894070000e-002) (53, -2.55439598113298420000e-002) (54, 2.57305204868316650000e-002) (55, 7.54550546407699580000e-002) (56, -1.14406898617744450000e-001) (57, -1.42882689833641050000e-001) (58, 1.25731956213712690000e-002) (59, -1.07567878440022470000e-002) (60, -2.87857037037611010000e-002) (61, -2.72528007626533510000e-002) (62, -1.85041408985853200000e-003) (63, 4.78412210941314700000e-002) (64, -8.96623134613037110000e-002) (65, -5.89932128787040710000e-002) (66, 9.61591377854347230000e-002) (67, 1.18740893900394440000e-001) (68, -3.06678488850593570000e-002) (69, 1.14385513588786130000e-002) (70, 2.64144111424684520000e-002) (71, -1.63077246397733690000e-002) (72, -2.14415951631963250000e-003) (73, -3.48429232835769650000e-002) (74, 5.67411631345748900000e-002) (75, 1.00494183599948880000e-001) (76, 5.60875833034515380000e-002) (77, 1.34681696072220800000e-002) (78, 1.79221983999013900000e-002) (79, -1.87315344810485840000e-002) (80, 6.67573437094688420000e-002) (81, -4.04702126979827880000e-002) (82, 1.66342500597238540000e-002) (83, -2.04325485974550250000e-002) (84, -7.91941210627555850000e-002) (0, -1.53531551361083980000e-001) (1, 2.22596675157547000000e-001) (2, -1.72658637166023250000e-001) (3, 1.57941386103630070000e-001) (4, 1.73966065049171450000e-001) (5, -1.27300117164850230000e-002) (6, 2.56435573101043700000e-001) (7, 5.32190166413784030000e-002) (8, 2.12278008460998540000e-001) (9, -6.35069422423839570000e-003) (10, -2.12719723582267760000e-001) (11, 1.58126533031463620000e-001) (12, -8.07580947875976560000e-002) (13, 1.47150412201881410000e-001) (14, 7.01997876167297360000e-002) (15, -4.37932126224040990000e-002) (16, -4.42019999027252200000e-002) (17, -8.32471996545791630000e-003) (18, -1.51864578947424890000e-002) (19, 1.69597864151000980000e-001) (20, 2.02616117894649510000e-002) (21, -8.55465605854988100000e-002) (22, 1.49917872622609140000e-002) (23, 2.04721301794052120000e-001) (24, -1.78863145411014560000e-002) (25, 1.60659234970808030000e-002) (26, 1.09309889376163480000e-001) (27, -2.59396638721227650000e-002) (28, 1.68411090970039370000e-001) (29, -1.75462171435356140000e-001) (30, -1.47258602082729340000e-002) (31, -1.47451102733612060000e-001) (32, -1.92197948694229130000e-001) (33, -2.32928320765495300000e-002) (34, -2.20659580081701280000e-002) (35, 6.66594132781028750000e-002) (36, -1.87925383448600770000e-001) (37, 5.79554689466021960000e-005) (38, 5.11457137763500210000e-002) (39, -8.99185091257095340000e-002) (40, 1.62754774093627930000e-001) (41, -1.60272881388664250000e-001) (42, 1.30710542201995850000e-001) (43, 3.78679707646369930000e-002) (44, -2.94341724365949630000e-002) (45, -1.32483029738068580000e-002) (46, -9.72712934017181400000e-002) (47, 1.12534493207931520000e-001) (48, -1.36715501546859740000e-001) (49, 5.07534891366958620000e-002) (50, -3.50949279963970180000e-002) (51, 1.37928038835525510000e-001) (52, 3.99901308119297030000e-002) (53, 1.53060560114681720000e-003) (54, 1.16542540490627290000e-001) (55, 3.44058033078908920000e-004) (56, -5.93691319227218630000e-002) (57, -5.12186810374259950000e-002) (58, -6.25361949205398560000e-002) (59, 2.01779454946517940000e-002) (60, -7.08410292863845830000e-002) (61, 3.50620821118354800000e-002) (62, -6.39105290174484250000e-002) (63, 2.34426502138376240000e-002) (64, -3.65571081638336180000e-002) (65, 4.92553599178791050000e-002) (66, 4.65760519728064540000e-003) (67, 9.90124270319938660000e-002) (68, -4.46760281920433040000e-002) (69, -2.87132002413272860000e-002) (70, -5.36244884133338930000e-002) (71, 2.61732991784811020000e-002) (72, -4.01110202074050900000e-002) (73, 3.80065888166427610000e-002) (74, 2.28314008563756940000e-002) (75, 1.15697599947452550000e-001) (76, 1.25142216682434080000e-001) (77, 1.10200323164463040000e-001) (78, 3.56258861720561980000e-002) (79, 8.25085341930389400000e-002) (80, 2.22595576196908950000e-002) (81, 6.18772692978382110000e-002) (82, 5.04035502672195430000e-003) (83, 3.37109006941318510000e-002) (84, -1.50282979011535640000e-001) (0, -1.57324254512786870000e-001) (1, 2.73167937994003300000e-001) (2, 1.43954321742057800000e-001) (3, -1.62170454859733580000e-001) (4, 1.16528756916522980000e-001) (5, -3.08187883347272870000e-002) (6, -5.11419586837291720000e-002) (7, -4.26775179803371430000e-002) (8, 9.87662822008132930000e-002) (9, 7.83102028071880340000e-003) (10, 1.92309588193893430000e-001) (11, -1.12837813794612880000e-001) (12, -7.55977258086204530000e-002) (13, 2.18396291136741640000e-001) (14, 5.37160076200962070000e-002) (15, 7.24723413586616520000e-002) (16, 7.39522725343704220000e-002) (17, -1.24769352376461030000e-001) (18, 6.49855360388755800000e-002) (19, -3.50290685892105100000e-002) (20, 4.80721965432167050000e-002) (21, -9.67934876680374150000e-002) (22, 2.27975137531757350000e-002) (23, -4.35985326766967770000e-002) (24, 1.83144748210906980000e-001) (25, -4.77820858359336850000e-002) (26, 3.41042652726173400000e-002) (27, 1.36282950639724730000e-001) (28, -8.98770764470100400000e-002) (29, -1.97121769189834590000e-001) (30, -3.83628569543361660000e-002) (31, -3.25775414705276490000e-001) (32, 3.40287983417510990000e-002) (33, -1.63446530699729920000e-001) (34, 1.28082215785980220000e-001) (35, -6.69491523876786230000e-003) (36, 1.12047843635082240000e-001) (37, 1.04180919006466870000e-002) (38, 1.40004739165306090000e-001) (39, -2.10113689303398130000e-001) (40, -8.36068391799926760000e-002) (41, -2.32119038701057430000e-001) (42, 1.82092282921075820000e-002) (43, -1.52123793959617610000e-001) (44, 9.18927341699600220000e-002) (45, -1.65443658828735350000e-001) (46, -6.67062997817993160000e-002) (47, -1.87940388917922970000e-001) (48, 3.19047421216964720000e-002) (49, -1.72887071967124940000e-001) (50, 2.60291159152984620000e-001) (51, 7.96737745404243470000e-002) (52, 2.88333833217620850000e-001) (53, -9.50879976153373720000e-002) (54, 1.74123756587505340000e-002) (55, -6.04293942451477050000e-002) (56, 8.51922258734703060000e-002) (57, -3.62875349819660190000e-002) (58, 3.03428191691637040000e-002) (59, -1.46412163972854610000e-001) (60, -1.56742721796035770000e-001) (61, -3.31089854240417480000e-001) (62, 1.51094958186149600000e-001) (63, 5.34519404172897340000e-002) (64, 1.71301499009132390000e-001) (65, 2.02369689941406250000e-002) (66, 2.20584124326705930000e-001) (67, -2.77858297340571880000e-003) (68, 2.12194353342056270000e-001) (69, 3.17310914397239690000e-002) (70, 2.84482035785913470000e-002) (71, 8.69006442371755840000e-004) (72, -4.89854514598846440000e-002) (73, -7.87121206521987920000e-002) (74, -9.96109694242477420000e-002) (75, -6.18916153907775880000e-002) (76, -6.23952634632587430000e-002) (77, -1.31844878196716310000e-001) (78, 1.78785905241966250000e-001) (79, -8.44009220600128170000e-002) (80, 2.11849242448806760000e-001) (81, -1.65963787585496900000e-002) (82, 2.07167491316795350000e-001) (83, -4.78187613189220430000e-002) (84, 1.26623883843421940000e-001) (0, -3.49061265587806700000e-002) (1, 4.89347195252776150000e-003) (2, 3.21161776781082150000e-001) (3, -1.30132481455802920000e-001) (4, -6.94092884659767150000e-002) (5, -1.69462382793426510000e-001) (6, 1.52698263525962830000e-001) (7, -1.88003201037645340000e-002) (8, -1.38839766383171080000e-001) (9, -1.94370225071907040000e-001) (10, 3.00703406333923340000e-001) (11, -1.28782778978347780000e-001) (12, -9.25715193152427670000e-002) (13, 7.59236440062522890000e-002) (14, -9.00636054575443270000e-003) (15, 9.24869701266288760000e-002) (16, 1.55478669330477710000e-002) (17, 3.83237041532993320000e-002) (18, 2.83311665058135990000e-001) (19, 1.91504344344139100000e-001) (20, -1.04140108451247220000e-002) (21, 7.52633959054946900000e-002) (22, 2.11437433958053590000e-001) (23, 1.67878851294517520000e-001) (24, -2.21031084656715390000e-002) (25, -5.83716221153736110000e-002) (26, 1.34920086711645130000e-002) (27, 1.00459836423397060000e-001) (28, -3.50353755056858060000e-002) (29, -4.05419282615184780000e-002) (30, 3.99055220186710360000e-002) (31, 9.07268822193145750000e-002) (32, -1.40161365270614620000e-001) (33, -8.64204689860343930000e-002) (34, -1.96961611509323120000e-002) (35, 2.04398073256015780000e-002) (36, -1.64777219295501710000e-001) (37, -1.59358188509941100000e-001) (38, -1.60266861319541930000e-001) (39, -7.16783925890922550000e-002) (40, -3.13843339681625370000e-002) (41, -5.86294606328010560000e-002) (42, 1.51785146445035930000e-002) (43, 5.84397800266742710000e-002) (44, 2.51845140010118480000e-002) (45, 7.38845989108085630000e-002) (46, 1.83875903487205510000e-001) (47, 2.16779097914695740000e-001) (48, -1.75784174352884290000e-002) (49, 1.19410492479801180000e-001) (50, 6.75893500447273250000e-002) (51, 2.03210517764091490000e-001) (52, -1.64935797452926640000e-001) (53, -9.31585431098937990000e-002) (54, 1.62403639405965810000e-002) (55, 1.01384170353412630000e-001) (56, -1.58916134387254710000e-002) (57, -1.09146826434880500000e-003) (58, 