FANN_FLO_2.1
num_layers=3
learning_rate=0.500000
connection_rate=1.000000
network_type=0
learning_momentum=0.000000
training_algorithm=1
train_error_function=1
train_stop_function=0
cascade_output_change_fraction=0.010000
quickprop_decay=-0.000100
quickprop_mu=1.750000
rprop_increase_factor=1.200000
rprop_decrease_factor=0.500000
rprop_delta_min=0.000000
rprop_delta_max=50.000000
rprop_delta_zero=0.100000
cascade_output_stagnation_epochs=12
cascade_candidate_change_fraction=0.010000
cascade_candidate_stagnation_epochs=12
cascade_max_out_epochs=150
cascade_min_out_epochs=50
cascade_max_cand_epochs=150
cascade_min_cand_epochs=50
cascade_num_candidate_groups=2
bit_fail_limit=3.49999994039535520000e-001
cascade_candidate_limit=1.00000000000000000000e+003
cascade_weight_multiplier=4.00000005960464480000e-001
cascade_activation_functions_count=10
cascade_activation_functions=3 5 7 8 10 11 14 15 16 17 
cascade_activation_steepnesses_count=4
cascade_activation_steepnesses=2.50000000000000000000e-001 5.00000000000000000000e-001 7.50000000000000000000e-001 1.00000000000000000000e+000 
layer_sizes=85 81 2 
scale_included=0
neurons (num_inputs, activation_function, activation_steepness)=(0, 0, 0.00000000000000000000e+000) (0, 0, 0.00000000000000000000e+000) (0, 0, 0.00000000000000000000e+000) (0, 0, 0.00000000000000000000e+000) (0, 0, 0.00000000000000000000e+000) (0, 0, 0.00000000000000000000e+000) (0, 0, 0.00000000000000000000e+000) (0, 0, 0.00000000000000000000e+000) (0, 0, 0.00000000000000000000e+000) (0, 0, 0.00000000000000000000e+000) (0, 0, 0.00000000000000000000e+000) (0, 0, 0.00000000000000000000e+000) (0, 0, 0.00000000000000000000e+000) (0, 0, 0.00000000000000000000e+000) (0, 0, 0.00000000000000000000e+000) (0, 0, 0.00000000000000000000e+000) (0, 0, 0.00000000000000000000e+000) (0, 0, 0.00000000000000000000e+000) (0, 0, 0.00000000000000000000e+000) (0, 0, 0.00000000000000000000e+000) (0, 0, 0.00000000000000000000e+000) (0, 0, 0.00000000000000000000e+000) (0, 0, 0.00000000000000000000e+000) (0, 0, 0.00000000000000000000e+000) (0, 0, 0.00000000000000000000e+000) (0, 0, 0.00000000000000000000e+000) (0, 0, 0.00000000000000000000e+000) (0, 0, 0.00000000000000000000e+000) (0, 0, 0.00000000000000000000e+000) (0, 0, 0.00000000000000000000e+000) (0, 0, 0.00000000000000000000e+000) (0, 0, 0.00000000000000000000e+000) (0, 0, 0.00000000000000000000e+000) (0, 0, 0.00000000000000000000e+000) (0, 0, 0.00000000000000000000e+000) (0, 0, 0.00000000000000000000e+000) (0, 0, 0.00000000000000000000e+000) (0, 0, 0.00000000000000000000e+000) (0, 0, 0.00000000000000000000e+000) (0, 0, 0.00000000000000000000e+000) (0, 0, 0.00000000000000000000e+000) (0, 0, 0.00000000000000000000e+000) (0, 0, 0.00000000000000000000e+000) (0, 0, 0.00000000000000000000e+000) (0, 0, 0.00000000000000000000e+000) (0, 0, 0.00000000000000000000e+000) (0, 0, 0.00000000000000000000e+000) (0, 0, 0.00000000000000000000e+000) (0, 0, 0.00000000000000000000e+000) (0, 0, 0.00000000000000000000e+000) (0, 0, 0.00000000000000000000e+000) (0, 0, 0.00000000000000000000e+000) (0, 0, 0.00000000000000000000e+000) (0, 0, 0.00000000000000000000e+000) (0, 0, 0.00000000000000000000e+000) (0, 0, 0.00000000000000000000e+000) (0, 0, 0.00000000000000000000e+000) (0, 0, 0.00000000000000000000e+000) (0, 0, 0.00000000000000000000e+000) (0, 0, 0.00000000000000000000e+000) (0, 0, 0.00000000000000000000e+000) (0, 0, 0.00000000000000000000e+000) (0, 0, 0.00000000000000000000e+000) (0, 0, 0.00000000000000000000e+000) (0, 0, 0.00000000000000000000e+000) (0, 0, 0.00000000000000000000e+000) (0, 0, 0.00000000000000000000e+000) (0, 0, 0.00000000000000000000e+000) (0, 0, 0.00000000000000000000e+000) (0, 0, 0.00000000000000000000e+000) (0, 0, 0.00000000000000000000e+000) (0, 0, 0.00000000000000000000e+000) (0, 0, 0.00000000000000000000e+000) (0, 0, 0.00000000000000000000e+000) (0, 0, 0.00000000000000000000e+000) (0, 0, 0.00000000000000000000e+000) (0, 0, 0.00000000000000000000e+000) (0, 0, 0.00000000000000000000e+000) (0, 0, 0.00000000000000000000e+000) (0, 0, 0.00000000000000000000e+000) (0, 0, 0.00000000000000000000e+000) (0, 0, 0.00000000000000000000e+000) (0, 0, 0.00000000000000000000e+000) (0, 0, 0.00000000000000000000e+000) (0, 0, 0.00000000000000000000e+000) (85, 6, 1.00000000000000000000e+000) (85, 6, 1.00000000000000000000e+000) (85, 6, 1.00000000000000000000e+000) (85, 6, 1.00000000000000000000e+000) (85, 6, 1.00000000000000000000e+000) (85, 6, 1.00000000000000000000e+000) (85, 6, 1.00000000000000000000e+000) (85, 6, 1.00000000000000000000e+000) (85, 6, 1.00000000000000000000e+000) (85, 6, 1.00000000000000000000e+000) (85, 6, 1.00000000000000000000e+000) (85, 6, 1.00000000000000000000e+000) (85, 6, 1.00000000000000000000e+000) (85, 6, 1.00000000000000000000e+000) (85, 6, 1.00000000000000000000e+000) (85, 6, 1.00000000000000000000e+000) (85, 6, 1.00000000000000000000e+000) (85, 6, 1.00000000000000000000e+000) (85, 6, 1.00000000000000000000e+000) (85, 6, 1.00000000000000000000e+000) (85, 6, 1.00000000000000000000e+000) (85, 6, 1.00000000000000000000e+000) (85, 6, 1.00000000000000000000e+000) (85, 6, 1.00000000000000000000e+000) (85, 6, 1.00000000000000000000e+000) (85, 6, 1.00000000000000000000e+000) (85, 6, 1.00000000000000000000e+000) (85, 6, 1.00000000000000000000e+000) (85, 6, 1.00000000000000000000e+000) (85, 6, 1.00000000000000000000e+000) (85, 6, 1.00000000000000000000e+000) (85, 6, 1.00000000000000000000e+000) (85, 6, 1.00000000000000000000e+000) (85, 6, 1.00000000000000000000e+000) (85, 6, 1.00000000000000000000e+000) (85, 6, 1.00000000000000000000e+000) (85, 6, 1.00000000000000000000e+000) (85, 6, 1.00000000000000000000e+000) (85, 6, 1.00000000000000000000e+000) (85, 6, 1.00000000000000000000e+000) (85, 6, 1.00000000000000000000e+000) (85, 6, 1.00000000000000000000e+000) (85, 6, 1.00000000000000000000e+000) (85, 6, 1.00000000000000000000e+000) (85, 6, 1.00000000000000000000e+000) (85, 6, 1.00000000000000000000e+000) (85, 6, 1.00000000000000000000e+000) (85, 6, 1.00000000000000000000e+000) (85, 6, 1.00000000000000000000e+000) (85, 6, 1.00000000000000000000e+000) (85, 6, 1.00000000000000000000e+000) (85, 6, 1.00000000000000000000e+000) (85, 6, 1.00000000000000000000e+000) (85, 6, 1.00000000000000000000e+000) (85, 6, 1.00000000000000000000e+000) (85, 6, 1.00000000000000000000e+000) (85, 6, 1.00000000000000000000e+000) (85, 6, 1.00000000000000000000e+000) (85, 6, 1.00000000000000000000e+000) (85, 6, 1.00000000000000000000e+000) (85, 6, 1.00000000000000000000e+000) (85, 6, 1.00000000000000000000e+000) (85, 6, 1.00000000000000000000e+000) (85, 6, 1.00000000000000000000e+000) (85, 6, 1.00000000000000000000e+000) (85, 6, 1.00000000000000000000e+000) (85, 6, 1.00000000000000000000e+000) (85, 6, 1.00000000000000000000e+000) (85, 6, 1.00000000000000000000e+000) (85, 6, 1.00000000000000000000e+000) (85, 6, 1.00000000000000000000e+000) (85, 6, 1.00000000000000000000e+000) (85, 6, 1.00000000000000000000e+000) (85, 6, 1.00000000000000000000e+000) (85, 6, 1.00000000000000000000e+000) (85, 6, 1.00000000000000000000e+000) (85, 6, 1.00000000000000000000e+000) (85, 6, 1.00000000000000000000e+000) (85, 6, 1.00000000000000000000e+000) (85, 6, 1.00000000000000000000e+000) (0, 6, 1.00000000000000000000e+000) (81, 6, 1.00000000000000000000e+000) (0, 6, 1.00000000000000000000e+000) 
connections (connected_to_neuron, weight)=(0, 2.91720300912857060000e-001) (1, -3.13809186220169070000e-001) (2, -3.06175667792558670000e-002) (3, 1.72993198037147520000e-001) (4, 1.39010429382324220000e-001) (5, -1.17632701992988590000e-001) (6, -1.94240361452102660000e-001) (7, 9.79491323232650760000e-002) (8, 5.41246496140956880000e-002) (9, -1.40086114406585690000e-001) (10, -9.70312058925628660000e-002) (11, 8.86506512761116030000e-002) (12, 2.11129993200302120000e-001) (13, -2.62937307357788090000e-001) (14, 6.07867836952209470000e-002) (15, -1.03552803397178650000e-001) (16, -4.10628244280815120000e-002) (17, -1.83486822061240670000e-003) (18, 2.14775633066892620000e-002) (19, 1.57270934432744980000e-002) (20, -4.11617606878280640000e-002) (21, 8.35208222270011900000e-002) (22, -3.72110344469547270000e-002) (23, 4.98448237776756290000e-002) (24, -1.33756726980209350000e-001) (25, -1.20365820825099950000e-001) (26, -2.84627196379005910000e-003) (27, -2.38140910863876340000e-001) (28, -4.48920391499996190000e-002) (29, 1.68666511774063110000e-001) (30, 1.74854427576065060000e-001) (31, 1.84949457645416260000e-001) (32, 4.82920510694384570000e-003) (33, -8.62205550074577330000e-002) (34, -2.45272312313318250000e-002) (35, -9.45175066590309140000e-002) (36, 3.44128976576030250000e-003) (37, -7.86281600594520570000e-002) (38, -1.92117840051651000000e-002) (39, 3.00639700144529340000e-002) (40, -8.08997154235839840000e-002) (41, 1.28760904073715210000e-001) (42, -7.93960541486740110000e-002) (43, -6.11575804650783540000e-002) (44, 1.45763739943504330000e-001) (45, -6.19209371507167820000e-003) (46, 2.11851652711629870000e-002) (47, 4.08384986221790310000e-002) (48, 1.56442523002624510000e-001) (49, -1.15783259272575380000e-001) (50, -1.95850748568773270000e-002) (51, 3.08613814413547520000e-002) (52, -1.27975866198539730000e-001) (53, -2.39999815821647640000e-001) (54, -5.66928945481777190000e-002) (55, -8.41317623853683470000e-002) (56, 1.10934242606163020000e-001) (57, -2.83306501805782320000e-002) (58, 1.53031244874000550000e-001) (59, 6.78915977478027340000e-002) (60, 9.86409187316894530000e-002) (61, 7.82951861619949340000e-002) (62, 2.47693769633769990000e-002) (63, -9.97547134757041930000e-002) (64, 8.96472204476594920000e-003) (65, -7.86975771188735960000e-002) (66, -5.39427902549505230000e-003) (67, -6.36138096451759340000e-002) (68, 1.73118766397237780000e-002) (69, -3.22494283318519590000e-002) (70, 7.54318386316299440000e-002) (71, -3.07557284832000730000e-002) (72, 1.58023968338966370000e-001) (73, -1.95836070924997330000e-002) (74, 7.82237127423286440000e-002) (75, -1.08975321054458620000e-001) (76, 7.56295323371887210000e-002) (77, 1.38199757784605030000e-002) (78, -7.13846683502197270000e-002) (79, -2.06368207931518550000e-001) (80, -4.84780967235565190000e-002) (81, -1.45948737859725950000e-001) (82, 1.53188973665237430000e-001) (83, 2.17244420200586320000e-002) (84, 5.29549792408943180000e-002) (0, 1.76697626709938050000e-001) (1, 1.07170425355434420000e-001) (2, -1.18174180388450620000e-001) (3, -6.94012939929962160000e-002) (4, 6.95920437574386600000e-002) (5, -5.60941807925701140000e-002) (6, 1.36414930224418640000e-001) (7, -7.68309533596038820000e-002) (8, 1.13373681902885440000e-001) (9, -3.20139490067958830000e-002) (10, -7.99373090267181400000e-002) (11, -4.39482070505619050000e-002) (12, 1.65862143039703370000e-001) (13, 1.33679389953613280000e-001) (14, -7.70943388342857360000e-002) (15, 2.13999018073081970000e-001) (16, 3.55593077838420870000e-002) (17, -1.33767537772655490000e-002) (18, 7.41989091038703920000e-002) (19, -1.72465085983276370000e-001) (20, -5.73737770318984990000e-002) (21, -1.93804442882537840000e-001) (22, 7.32074454426765440000e-002) (23, -1.28612756729125980000e-001) (24, 8.36901143193244930000e-002) (25, 2.95597109943628310000e-002) (26, -1.19418807327747340000e-001) (27, 2.70487695932388310000e-001) (28, -1.30438819527626040000e-001) (29, 7.62316137552261350000e-002) (30, 3.37185361422598360000e-003) (31, -8.22831243276596070000e-002) (32, 1.08294151723384860000e-001) (33, -2.13356405496597290000e-001) (34, 2.08642274141311650000e-001) (35, 1.31594046950340270000e-001) (36, 1.56012997031211850000e-001) (37, -1.60755291581153870000e-001) (38, 1.50479346513748170000e-001) (39, 9.66390129178762440000e-003) (40, -7.18806982040405270000e-002) (41, 1.21237918734550480000e-001) (42, -1.44319146871566770000e-001) (43, -2.38366290926933290000e-001) (44, -1.99795477092266080000e-002) (45, 7.14166983962059020000e-002) (46, 1.81897222995758060000e-001) (47, 1.73276569694280620000e-002) (48, 7.92182236909866330000e-002) (49, -1.33040830492973330000e-001) (50, 2.66996562480926510000e-001) (51, 7.00497776269912720000e-002) (52, 1.11102290451526640000e-001) (53, 9.20883491635322570000e-002) (54, -7.75433331727981570000e-002) (55, -1.64264112710952760000e-001) (56, 1.75298511981964110000e-001) (57, 4.00778427720069890000e-002) (58, -1.43454968929290770000e-001) (59, -1.85933500528335570000e-001) (60, -5.24789514020085330000e-003) (61, -1.02984607219696040000e-001) (62, 1.79606884717941280000e-001) (63, -4.97131496667861940000e-002) (64, 1.31040230393409730000e-001) (65, 1.63314957171678540000e-002) (66, -5.02671822905540470000e-002) (67, -1.60539820790290830000e-001) (68, 2.30005502700805660000e-001) (69, 6.88422322273254390000e-002) (70, -2.72873807698488240000e-002) (71, -1.08448207378387450000e-001) (72, 1.95356551557779310000e-002) (73, -9.87997651100158690000e-002) (74, -5.73802478611469270000e-002) (75, -1.29265591502189640000e-001) (76, -1.17501860950142150000e-003) (77, -1.10525317490100860000e-001) (78, -7.78812356293201450000e-003) (79, -8.42627882957458500000e-002) (80, 1.61920562386512760000e-001) (81, 2.24698875099420550000e-002) (82, -4.45963395759463310000e-003) (83, -8.22933465242385860000e-002) (84, 1.06834478676319120000e-001) (0, 1.17116952314972880000e-002) (1, 4.28140133619308470000e-001) (2, 2.26865738630294800000e-001) (3, -1.93369925022125240000e-001) (4, -4.07992005348205570000e-002) (5, -3.43067459762096410000e-002) (6, 3.16341757774353030000e-001) (7, -1.28113910555839540000e-001) (8, -1.48142889142036440000e-001) (9, -4.61069755256175990000e-002) (10, 2.34775334596633910000e-001) (11, -1.60481154918670650000e-001) (12, -7.37808048725128170000e-002) (13, 5.14829337596893310000e-001) (14, 8.66965577006340030000e-002) (15, -1.34704008698463440000e-001) (16, 1.97682335972785950000e-001) (17, -9.21496972441673280000e-002) (18, 1.10547684133052830000e-001) (19, -2.03129425644874570000e-001) (20, 2.83888038247823720000e-002) (21, 2.57292203605175020000e-002) (22, 1.16871505975723270000e-001) (23, -2.18166813254356380000e-001) (24, 1.98755338788032530000e-001) (25, -1.59135118126869200000e-001) (26, 2.57958918809890750000e-002) (27, -2.13724479079246520000e-001) (28, 1.73131242394447330000e-001) (29, -6.96233138442039490000e-002) (30, -1.44867971539497380000e-001) (31, -2.19262093305587770000e-001) (32, -1.10670693218708040000e-001) (33, 8.06460976600646970000e-002) (34, 4.64774630963802340000e-002) (35, 3.54607366025447850000e-002) (36, -1.07904411852359770000e-001) (37, 1.14720165729522710000e-001) (38, -1.54739513993263240000e-001) (39, -1.78451478481292720000e-001) (40, 1.64554625749588010000e-001) (41, -5.88339678943157200000e-002) (42, -1.30843311548233030000e-001) (43, 8.86642709374427800000e-002) (44, 2.51109600067138670000e-001) (45, 1.89110666513442990000e-001) (46, 5.95715418457984920000e-002) (47, 1.75316095352172850000e-001) (48, -4.90633919835090640000e-002) (49, -2.97038629651069640000e-002) (50, 5.26372417807579040000e-002) (51, 1.32589712738990780000e-001) (52, 2.80376642942428590000e-001) (53, 2.17863008379936220000e-001) (54, -1.32444113492965700000e-001) (55, 8.17093551158905030000e-002) (56, 2.07434110343456270000e-002) (57, -9.81465056538581850000e-002) (58, -6.86235204339027400000e-002) (59, -1.73083394765853880000e-001) (60, 6.93437382578849790000e-002) (61, -4.82739172875881200000e-002) (62, -2.49694082885980610000e-002) (63, 9.02292653918266300000e-002) (64, 7.80992731451988220000e-002) (65, -1.93454753607511520000e-002) (66, -1.21317490935325620000e-001) (67, -2.12728187441825870000e-001) (68, 2.51083076000213620000e-002) (69, -9.55082327127456670000e-002) (70, 8.34170207381248470000e-002) (71, 1.82418432086706160000e-002) (72, 2.48129274696111680000e-002) (73, 1.03500157594680790000e-001) (74, -1.06418980285525320000e-002) (75, -8.66971835494041440000e-002) (76, -4.53763864934444430000e-002) (77, -1.76615808159112930000e-002) (78, 4.93596978485584260000e-002) (79, -1.12859522923827170000e-002) (80, -6.89423754811286930000e-002) (81, 1.36530548334121700000e-002) (82, 1.52124082669615750000e-002) (83, -4.79728318750858310000e-002) (84, -4.59748469293117520000e-002) (0, -1.90450802445411680000e-001) (1, 6.61805689334869380000e-001) (2, -1.00666046142578120000e-001) (3, -5.45519217848777770000e-002) (4, -4.33134026825428010000e-002) (5, -1.52632594108581540000e-001) (6, -3.55182737112045290000e-001) (7, 5.10110676288604740000e-001) (8, -3.72880063951015470000e-002) (9, -1.78709045052528380000e-001) (10, -9.39415171742439270000e-002) (11, -3.50978896021842960000e-002) (12, -2.00606822967529300000e-001) (13, 6.61491572856903080000e-001) (14, -2.08671260625123980000e-002) (15, 4.82685714960098270000e-002) (16, 7.90087580680847170000e-002) (17, -8.69915634393692020000e-002) (18, 7.50580653548240660000e-002) (19, -1.11551657319068910000e-001) (20, -1.20003484189510350000e-001) (21, -8.66284519433975220000e-002) (22, 7.25810676813125610000e-002) (23, -1.08793288469314580000e-001) (24, 3.27701829373836520000e-002) (25, -1.28404691815376280000e-001) (26, -2.21423096954822540000e-002) (27, 8.71189236640930180000e-002) (28, -2.77553144842386250000e-002) (29, -8.83643031120300290000e-002) (30, 6.22722506523132320000e-002) (31, -1.00448161363601680000e-001) (32, 2.82621860504150390000e-001) (33, -1.54653936624526980000e-001) (34, -5.19677530974149700000e-003) (35, -7.81942531466484070000e-002) (36, 3.39937031269073490000e-001) (37, -1.25444516539573670000e-001) (38, 4.02017906308174130000e-002) (39, -1.25299558043479920000e-001) (40, -5.03218732774257660000e-002) (41, -1.14090226590633390000e-001) (42, 1.06269881129264830000e-001) (43, 1.16219565272331240000e-001) (44, 2.90908813476562500000e-001) (45, -9.15156397968530650000e-003) (46, 4.25314195454120640000e-002) (47, -2.63940840959548950000e-001) (48, 2.47054293751716610000e-001) (49, 2.00005769729614260000e-002) (50, 1.01258583366870880000e-001) (51, -2.44495689868927000000e-001) (52, 2.62998551130294800000e-001) (53, -2.47353669255971910000e-002) (54, 8.36625099182128910000e-002) (55, 7.49486982822418210000e-002) (56, 7.63361081480979920000e-002) (57, -2.41127744317054750000e-001) (58, 1.15604154765605930000e-001) (59, -4.32482548058032990000e-002) (60, 1.40749275684356690000e-001) (61, -2.49190554022789000000e-001) (62, -1.74730271100997920000e-001) (63, -2.20151871442794800000e-001) (64, 1.96683928370475770000e-001) (65, -1.70721933245658870000e-001) (66, 7.17251226305961610000e-002) (67, -8.02620723843574520000e-002) (68, 7.25532770156860350000e-002) (69, -2.62318760156631470000e-001) (70, 1.30401188507676120000e-002) (71, -1.43467813730239870000e-001) (72, 2.14286088943481450000e-001) (73, -1.02946557104587550000e-001) (74, 9.78513434529304500000e-002) (75, -9.23253372311592100000e-002) (76, 3.68085205554962160000e-001) (77, 1.13209515810012820000e-001) (78, 1.90008714795112610000e-001) (79, -6.31672590970993040000e-002) (80, 1.73699885606765750000e-001) (81, -1.32421448826789860000e-001) (82, -6.04259176179766650000e-003) (83, -1.75249621272087100000e-001) (84, -1.45021498203277590000e-001) (0, 9.10062044858932500000e-002) (1, -9.93694961071014400000e-002) (2, -2.50272780656814580000e-001) (3, 4.63742583990097050000e-001) (4, -5.90080991387367250000e-002) (5, 1.15512996912002560000e-001) (6, 2.60354489088058470000e-001) (7, -2.53005981445312500000e-001) (8, -8.65659117698669430000e-002) (9, 1.11473940312862400000e-001) (10, -3.42972010374069210000e-001) (11, 4.41631436347961430000e-001) (12, 6.31510540843009950000e-002) (13, -1.42473071813583370000e-001) (14, 1.45231112837791440000e-001) (15, -1.96059480309486390000e-001) (16, 1.60892367362976070000e-001) (17, -1.93965405225753780000e-001) (18, 1.45366862416267400000e-001) (19, 9.72910895943641660000e-002) (20, -8.94885696470737460000e-003) (21, -3.75204719603061680000e-002) (22, 9.58092361688613890000e-002) (23, 5.47322556376457210000e-002) (24, 5.90155199170112610000e-002) (25, -3.23420494794845580000e-001) (26, 1.18849419057369230000e-001) (27, -2.46293678879737850000e-001) (28, 1.60561218857765200000e-001) (29, -1.66194573044776920000e-001) (30, 1.54422789812088010000e-001) (31, -5.28580136597156520000e-002) (32, 1.30611136555671690000e-001) (33, -2.25999668240547180000e-001) (34, 7.46090114116668700000e-002) (35, -1.01158199831843380000e-002) (36, 4.85390126705169680000e-002) (37, -2.54927337169647220000e-001) (38, 3.28252539038658140000e-002) (39, -1.82610228657722470000e-001) (40, 2.07595407962799070000e-001) (41, -2.03431069850921630000e-001) (42, 1.30338162183761600000e-001) (43, -2.12124809622764590000e-002) (44, 2.99394279718399050000e-002) (45, -1.04769751429557800000e-001) (46, 2.17223852872848510000e-001) (47, -1.57652586698532100000e-001) (48, -8.73052887618541720000e-003) (49, -1.85139283537864690000e-001) (50, 1.84667155146598820000e-001) (51, -1.65789186954498290000e-001) (52, -2.93700806796550750000e-002) (53, -1.12343922257423400000e-001) (54, 7.32696056365966800000e-002) (55, -1.08541235327720640000e-001) (56, 1.27739369869232180000e-001) (57, -2.66860991716384890000e-001) (58, 2.64440357685089110000e-001) (59, 1.02943472564220430000e-001) (60, 1.02217100560665130000e-001) (61, 2.84585356712341310000e-002) (62, 1.82425349950790410000e-001) (63, -3.28562036156654360000e-002) (64, 3.81908267736434940000e-002) (65, -6.29640296101570130000e-002) (66, 1.39484182000160220000e-001) (67, -1.65352169424295430000e-002) (68, 2.28786207735538480000e-002) (69, -2.65195578336715700000e-001) (70, 1.91920384764671330000e-001) (71, 2.38034166395664220000e-002) (72, 7.51448720693588260000e-002) (73, -5.78916780650615690000e-002) (74, -5.57369180023670200000e-002) (75, -1.55359849333763120000e-001) (76, 8.22871401906013490000e-002) (77, -2.16834098100662230000e-001) (78, -5.55466711521148680000e-002) (79, -2.26831838488578800000e-001) (80, 9.05731320381164550000e-003) (81, -2.09674045443534850000e-001) (82, 7.89471939206123350000e-002) (83, -9.57312583923339840000e-002) (84, 2.80244708061218260000e-001) (0, 5.78819252550601960000e-002) (1, 9.84476879239082340000e-002) (2, 2.21613124012947080000e-001) (3, -2.19077039510011670000e-002) (4, -3.50823290646076200000e-002) (5, 5.31204417347908020000e-003) (6, 3.02858576178550720000e-002) (7, 1.01278811693191530000e-001) (8, -1.07335411012172700000e-001) (9, 6.21152222156524660000e-002) (10, 1.82231798768043520000e-001) (11, -1.17275230586528780000e-001) (12, 7.60900676250457760000e-002) (13, 2.04548716545104980000e-001) (14, -7.06307366490364070000e-002) (15, -7.06369131803512570000e-002) (16, 8.89479964971542360000e-002) (17, -8.97686183452606200000e-002) (18, 3.95740475505590440000e-003) (19, 7.72588104009628300000e-002) (20, 1.01671278476715090000e-001) (21, 7.42189493030309680000e-003) (22, -1.34818986058235170000e-001) (23, 5.20453080534935000000e-002) (24, 1.92964777350425720000e-001) (25, -8.41554775834083560000e-002) (26, -6.96975365281105040000e-002) (27, -2.79999859631061550000e-002) (28, 1.43042623996734620000e-001) (29, -1.34388431906700130000e-001) (30, 1.47541433572769170000e-001) (31, -6.65021985769271850000e-002) (32, -1.48710101842880250000e-001) (33, 1.82579830288887020000e-002) (34, 4.66275922954082490000e-002) (35, -1.80440687108784910000e-003) (36, -7.81348198652267460000e-002) (37, 6.62294104695320130000e-002) (38, 1.13080561161041260000e-001) (39, -6.76409900188446040000e-002) (40, 1.15752138197422030000e-001) (41, -1.02254241704940800000e-001) (42, 1.63349360227584840000e-001) (43, -5.19342646002769470000e-002) (44, 3.83294820785522460000e-002) (45, -6.31105005741119380000e-002) (46, 4.66671027243137360000e-002) (47, 5.19485659897327420000e-002) (48, -2.82369609922170640000e-002) (49, -3.56738753616809840000e-002) (50, 1.16237150505185130000e-002) (51, 1.48481810465455060000e-002) (52, -8.96831788122653960000e-003) (53, -1.18975736200809480000e-001) (54, 7.97248184680938720000e-002) (55, -1.05186708271503450000e-001) (56, 7.76566118001937870000e-002) (57, -3.49584631621837620000e-002) (58, 1.07188217341899870000e-001) (59, -2.74338778108358380000e-002) (60, 1.03257425129413600000e-001) (61, 1.54691301286220550000e-002) (62, 1.43903732299804690000e-001) (63, 6.16056509315967560000e-002) (64, 6.40797335654497150000e-003) (65, -7.33994022011756900000e-002) (66, -7.95722976326942440000e-002) (67, -1.64267852902412410000e-001) (68, 7.74044319987297060000e-002) (69, -3.02374549210071560000e-002) (70, 2.78084594756364820000e-002) (71, -2.56076976656913760000e-002) (72, 7.61085525155067440000e-002) (73, 3.95549871027469640000e-002) (74, -2.28839963674545290000e-002) (75, -3.81008833646774290000e-002) (76, -1.03206023573875430000e-001) (77, -1.13195329904556270000e-001) (78, -1.60518158227205280000e-002) (79, -5.43158352375030520000e-002) (80, 1.38542596250772480000e-002) (81, -2.65536308288574220000e-002) (82, -4.78078797459602360000e-002) (83, -1.30818724632263180000e-001) (84, 8.90522301197052000000e-002) (0, -1.19779363274574280000e-001) (1, 2.59901553392410280000e-001) (2, 1.58717799931764600000e-002) (3, 2.15304583311080930000e-001) (4, -8.35883338004350660000e-003) (5, 2.55876313894987110000e-002) (6, -3.87657812098041180000e-004) (7, 3.74021418392658230000e-002) (8, -3.07352412492036820000e-002) (9, 5.47812469303607940000e-002) (10, 4.27710264921188350000e-002) (11, 1.35036364197731020000e-001) (12, -1.54820993542671200000e-001) (13, 2.27231130003929140000e-001) (14, 3.70786804705858230000e-003) (15, -1.02895610034465790000e-001) (16, -1.70711070299148560000e-001) (17, 9.70412194728851320000e-002) (18, -1.11745722591876980000e-001) (19, 1.21866436675190930000e-002) (20, 1.56141281127929690000e-001) (21, -6.60701766610145570000e-002) (22, -7.80981853604316710000e-002) (23, 3.62287322059273720000e-003) (24, -1.88935697078704830000e-001) (25, 4.35819923877716060000e-002) (26, -6.09651859849691390000e-003) (27, -9.11743938922882080000e-002) (28, -1.08672827482223510000e-002) (29, -9.48164537549018860000e-002) (30, -2.63990730047225950000e-001) (31, -1.27570420503616330000e-001) (32, 1.38419985771179200000e-001) (33, 1.44131630659103390000e-002) (34, -6.23586513102054600000e-002) (35, -5.21370284259319310000e-002) (36, 1.44768729805946350000e-001) (37, 3.51802185177803040000e-002) (38, -3.27607452869415280000e-001) (39, -1.13557226955890660000e-001) (40, 1.05083240196108820000e-002) (41, -9.74181666970252990000e-002) (42, 2.25477498024702070000e-002) (43, 1.19917653501033780000e-001) (44, 1.95464491844177250000e-002) (45, 2.71059453487396240000e-001) (46, -7.02126473188400270000e-002) (47, -4.19870670884847640000e-003) (48, 1.32506256923079490000e-002) (49, -1.08858365565538410000e-002) (50, -3.05341426283121110000e-002) (51, -1.70668940991163250000e-002) (52, -5.71600981056690220000e-002) (53, 2.02143058180809020000e-001) (54, -7.22549110651016240000e-002) (55, 1.69760674238204960000e-001) (56, -4.03978936374187470000e-002) (57, 8.48248377442359920000e-002) (58, -2.60438080877065660000e-002) (59, -3.22992615401744840000e-002) (60, -6.14155083894729610000e-003) (61, 3.93984466791152950000e-002) (62, 1.88060160726308820000e-002) (63, -3.80363315343856810000e-002) (64, -3.22181247174739840000e-002) (65, 9.08181592822074890000e-002) (66, -4.70077954232692720000e-002) (67, -7.89015665650367740000e-002) (68, 2.81364545226097110000e-002) (69, 5.17077855765819550000e-002) (70, -3.49784567952156070000e-002) (71, 3.57385240495204930000e-002) (72, -1.92202161997556690000e-002) (73, -1.74337308853864670000e-002) (74, 2.11389604955911640000e-002) (75, 3.24913710355758670000e-002) (76, 1.04909006040543320000e-003) (77, 2.32226345688104630000e-002) (78, -7.55743831396102910000e-002) (79, -3.52948252111673360000e-003) (80, 2.69002169370651250000e-002) (81, 7.86254107952117920000e-002) (82, 1.55567796900868420000e-002) (83, 1.28649264574050900000e-001) (84, -2.81419586390256880000e-002) (0, 6.55407607555389400000e-002) (1, -8.85057076811790470000e-002) (2, -3.62303882837295530000e-001) (3, 3.80553305149078370000e-001) (4, -8.51757545024156570000e-003) (5, -3.50493267178535460000e-002) (6, 1.02802686393260960000e-001) (7, -3.46993386745452880000e-001) (8, -7.61602893471717830000e-002) (9, -3.70170548558235170000e-002) (10, -4.15989190340042110000e-001) (11, 3.44993412494659420000e-001) (12, 4.07847464084625240000e-002) (13, -3.86134758591651920000e-002) (14, 9.19718444347381590000e-002) (15, 1.07540927827358250000e-001) (16, -1.52773633599281310000e-001) (17, 3.41440796852111820000e-001) (18, 4.27873879671096800000e-002) (19, -1.78180672228336330000e-002) (20, 2.24696993827819820000e-002) (21, -3.08137744665145870000e-001) (22, -2.49068811535835270000e-002) (23, -4.41253446042537690000e-002) (24, -1.55955538153648380000e-001) (25, 3.55388879776000980000e-001) (26, 9.38739329576492310000e-002) (27, 1.33433461189270020000e-001) (28, 1.06717616319656370000e-001) (29, -3.19347530603408810000e-001) (30, 1.48978233337402340000e-001) (31, -5.99622819572687150000e-003) (32, 7.63844773173332210000e-002) (33, -1.41291290521621700000e-001) (34, 1.66915044188499450000e-001) (35, -1.63202092051506040000e-001) (36, 2.39709559828042980000e-002) (37, -1.63964599370956420000e-001) (38, 9.82384011149406430000e-002) (39, -7.39492475986480710000e-002) (40, 8.25478062033653260000e-002) (41, -3.43090802431106570000e-001) (42, 2.34010085463523860000e-001) (43, -5.17774978652596470000e-003) (44, -5.12143895030021670000e-002) (45, -2.10788249969482420000e-001) (46, 5.49949668347835540000e-002) (47, 1.70895636081695560000e-001) (48, 9.28299352526664730000e-002) (49, 5.45055232942104340000e-002) (50, -3.93779054284095760000e-002) (51, 1.20206274092197420000e-001) (52, -8.88148620724678040000e-002) (53, -2.37753078341484070000e-001) (54, 2.81880319118499760000e-001) (55, -8.67262855172157290000e-003) (56, -8.91163200139999390000e-002) (57, -5.94877190887928010000e-002) (58, 2.35161423683166500000e-001) (59, 8.12951475381851200000e-002) (60, 4.82797250151634220000e-002) (61, 7.93740898370742800000e-003) (62, 6.06361478567123410000e-002) (63, 9.53079573810100560000e-003) (64, 2.08558049052953720000e-002) (65, -9.03875008225440980000e-002) (66, 2.31149822473526000000e-001) (67, 9.53943058848381040000e-002) (68, -7.62300938367843630000e-002) (69, -4.76132407784461980000e-002) (70, -9.10354405641555790000e-003) (71, 4.01917137205600740000e-002) (72, 1.98192000389099120000e-002) (73, -2.90609430521726610000e-002) (74, 1.39783665537834170000e-001) (75, 1.84144321829080580000e-002) (76, 8.70008021593093870000e-002) (77, 4.42369878292083740000e-002) (78, 8.48546698689460750000e-002) (79, 1.31907826289534570000e-003) (80, -8.73657502233982090000e-003) (81, -8.97394120693206790000e-002) (82, 1.57760195434093480000e-002) (83, -1.29616064950823780000e-002) (84, -1.72933876514434810000e-001) (0, 4.17354166507720950000e-001) (1, -9.85905341804027560000e-003) (2, 5.49559444189071660000e-002) (3, 3.48904639482498170000e-001) (4, 4.04066622257232670000e-001) (5, 9.49630811810493470000e-002) (6, 6.82539418339729310000e-002) (7, -1.33780792355537410000e-001) (8, 4.00741606950759890000e-001) (9, 9.39472913742065430000e-002) (10, 6.55745044350624080000e-002) (11, 3.45586985349655150000e-001) (12, 4.30015772581100460000e-001) (13, 9.61890444159507750000e-003) (14, -1.50991156697273250000e-002) (15, -1.20299234986305240000e-001) (16, -4.15269508957862850000e-002) (17, 1.26387044787406920000e-001) (18, -2.32640504837036130000e-001) (19, 3.14495146274566650000e-001) (20, -3.26585620641708370000e-002) (21, -6.46802317351102830000e-003) (22, -2.37999945878982540000e-001) (23, 3.05697560310363770000e-001) (24, -2.91276257485151290000e-002) (25, 1.49701714515686040000e-001) (26, -2.45982259511947630000e-002) (27, -1.45507484674453740000e-001) (28, -1.30067154765129090000e-001) (29, 1.53917416930198670000e-001) (30, 7.77023211121559140000e-002) (31, -1.82316571474075320000e-001) (32, -2.37057060003280640000e-001) (33, 4.15477961301803590000e-001) (34, -3.44590768218040470000e-002) (35, 4.37372535467147830000e-001) (36, -2.27079063653945920000e-001) (37, 4.01537150144577030000e-001) (38, 7.93953761458396910000e-002) (39, -1.66264951229095460000e-001) (40, -1.28748372197151180000e-001) (41, 1.55926361680030820000e-001) (42, 5.05908057093620300000e-002) (43, -4.05571371316909790000e-001) (44, -1.60784527659416200000e-001) (45, -1.64394363760948180000e-001) (46, -4.93670463562011720000e-001) (47, 7.06868320703506470000e-002) (48, -2.84298300743103030000e-001) (49, 8.28503295779228210000e-002) (50, -4.72264975309371950000e-001) (51, 7.65398591756820680000e-002) (52, -1.39310806989669800000e-001) (53, -1.29808098077774050000e-001) (54, 3.98527048528194430000e-002) (55, -4.26564961671829220000e-001) (56, 2.05803334712982180000e-001) (57, -1.15693345665931700000e-001) (58, 2.74457018822431560000e-002) (59, 2.34464019536972050000e-001) (60, -1.73664912581443790000e-001) (61, -6.58956021070480350000e-002) (62, -2.28419557213783260000e-001) (63, -1.15428408607840540000e-002) (64, -1.74344390630722050000e-001) (65, -4.85249124467372890000e-002) (66, 4.56342026591300960000e-002) (67, 2.19189286231994630000e-001) (68, 2.38472476601600650000e-001) (69, -1.16493612527847290000e-001) (70, -2.84075021743774410000e-001) (71, 8.17864686250686650000e-002) (72, -4.11646105349063870000e-002) (73, -1.34000834077596660000e-002) (74, -4.11329828202724460000e-002) (75, -5.39827235043048860000e-002) (76, 4.18963432312011720000e-002) (77, 2.18966796994209290000e-001) (78, -3.51124703884124760000e-002) (79, -2.73031163960695270000e-002) (80, -3.37955122813582420000e-003) (81, -9.83806513249874110000e-003) (82, -2.87332028150558470000e-001) (83, 7.95814245939254760000e-002) (84, 1.07770517468452450000e-001) (0, 8.77745226025581360000e-002) (1, 7.86108523607254030000e-002) (2, -3.69981452822685240000e-002) (3, -5.31669408082962040000e-002) (4, 4.32967580854892730000e-002) (5, 1.84187546372413640000e-001) (6, 9.16809663176536560000e-002) (7, -6.59890298265963790000e-004) (8, 4.87385280430316930000e-002) (9, 1.75481319427490230000e-001) (10, -5.00102713704109190000e-002) (11, -9.72663890570402150000e-003) (12, 1.24010309576988220000e-001) (13, 9.25891920924186710000e-002) (14, -2.52444744110107420000e-001) (15, -2.73405201733112340000e-002) (16, 2.26488277316093440000e-001) (17, -2.46395036578178410000e-001) (18, -1.22356832027435300000e-001) (19, -1.69237852096557620000e-001) (20, 1.46856799721717830000e-001) (21, 6.95827156305313110000e-002) (22, -1.14241406321525570000e-001) (23, -1.57816529273986820000e-001) (24, 1.54911547899246220000e-001) (25, -2.96633452177047730000e-001) (26, -1.58876463770866390000e-001) (27, -2.88669541478157040000e-002) (28, 2.60726362466812130000e-001) (29, -1.30267087370157240000e-002) (30, 3.80446724593639370000e-002) (31, -8.11467543244361880000e-002) (32, 5.59552013874053960000e-002) (33, 1.11821830272674560000e-001) (34, -6.61911517381668090000e-002) (35, -1.76060914993286130000e-001) (36, 7.41417184472084050000e-002) (37, 1.04977108538150790000e-001) (38, 7.79933556914329530000e-002) (39, -1.51701897382736210000e-001) (40, 2.20473304390907290000e-001) (41, -7.45130926370620730000e-002) (42, 1.60864442586898800000e-001) (43, -2.85663962364196780000e-001) (44, -1.51704132556915280000e-001) (45, -4.14594225585460660000e-002) (46, 5.34545779228210450000e-002) (47, -3.99195961654186250000e-002) (48, 3.70287820696830750000e-002) (49, -3.78611646592617030000e-002) (50, 2.22453866153955460000e-002) (51, -1.05321630835533140000e-001) (52, -7.92741924524307250000e-002) (53, -1.16160523612052200000e-003) (54, 1.28042444586753850000e-001) (55, -3.48565280437469480000e-001) (56, 1.86844110488891600000e-001) (57, -9.53098461031913760000e-002) (58, 1.35320723056793210000e-001) (59, -5.14936111867427830000e-002) (60, 6.99399262666702270000e-002) (61, 2.08658035844564440000e-002) (62, 5.38907982409000400000e-002) (63, -1.60231050103902820000e-002) (64, 1.22769060544669630000e-003) (65, -9.24943387508392330000e-002) (66, 1.47346153855323790000e-001) (67, 6.18104869499802590000e-003) (68, 1.61112457513809200000e-001) (69, -1.48251906037330630000e-001) (70, 2.08456307649612430000e-001) (71, -2.13291738182306290000e-002) (72, 3.45538780093193050000e-002) (73, -5.22374734282493590000e-002) (74, 9.14948880672454830000e-002) (75, -9.14714634418487550000e-002) (76, 4.89075109362602230000e-002) (77, -2.94906534254550930000e-002) (78, 5.79475983977317810000e-002) (79, -1.03988699615001680000e-001) (80, -4.12641987204551700000e-002) (81, -9.68127027153968810000e-002) (82, 1.56610921025276180000e-001) (83, -8.89367312192916870000e-002) (84, 4.94364202022552490000e-002) (0, 1.24898210167884830000e-001) (1, 3.30215066671371460000e-001) (2, 4.09574247896671300000e-002) (3, -2.22062968532554810000e-004) (4, 7.90324285626411440000e-002) (5, -1.29033133387565610000e-001) (6, -4.11436371505260470000e-002) (7, -2.55366027355194090000e-001) (8, 8.20661410689353940000e-002) (9, -1.70414388179779050000e-001) (10, 5.94530627131462100000e-002) (11, 4.12251912057399750000e-002) (12, 1.39671355485916140000e-001) (13, 3.48949760198593140000e-001) (14, -2.81266868114471440000e-001) (15, -4.62778657674789430000e-002) (16, 4.00795973837375640000e-002) (17, 3.87718752026557920000e-002) (18, 1.39314517378807070000e-001) (19, -5.74856139719486240000e-002) (20, 1.25524058938026430000e-001) (21, 2.03281491994857790000e-001) (22, 1.12999364733695980000e-001) (23, -9.72337871789932250000e-002) (24, 3.19375097751617430000e-002) (25, 7.93706104159355160000e-002) (26, -2.98166364431381230000e-001) (27, -4.10849787294864650000e-002) (28, 8.37722793221473690000e-002) (29, 3.82382422685623170000e-002) (30, -2.20771785825490950000e-002) (31, 7.86239057779312130000e-002) (32, 1.15958355367183690000e-001) (33, -4.27773669362068180000e-002) (34, -2.46932078152894970000e-002) (35, -5.07131442427635190000e-002) (36, 4.04501482844352720000e-002) (37, -1.11966498196125030000e-001) (38, 4.81089809909462930000e-003) (39, 5.94820827245712280000e-002) (40, 9.85990539193153380000e-002) (41, 2.09615137428045270000e-002) (42, 1.51443872600793840000e-002) (43, -2.19183266162872310000e-001) (44, -1.13253541290760040000e-001) (45, -8.22791680693626400000e-002) (46, 1.03797748684883120000e-001) (47, 9.92888864129781720000e-003) (48, 7.16488659381866460000e-002) (49, 6.92510092630982400000e-003) (50, -1.55954074580222370000e-003) (51, 5.22455461323261260000e-002) (52, -2.13124409317970280000e-001) (53, -1.26179799437522890000e-001) (54, 6.42734766006469730000e-002) (55, -2.21747159957885740000e-001) (56, 1.33380964398384090000e-001) (57, 8.05451069027185440000e-003) (58, 1.44113868474960330000e-001) (59, 2.14975047856569290000e-002) (60, 5.19830174744129180000e-002) (61, -1.60876065492630000000e-001) (62, -2.99639031291008000000e-002) (63, -1.64736866950988770000e-001) (64, 1.00665889680385590000e-001) (65, -1.72204345464706420000e-001) (66, 4.54055815935134890000e-002) (67, -4.77888137102127080000e-002) (68, 1.86580151319503780000e-001) (69, 9.13198217749595640000e-002) (70, 7.41526251658797260000e-003) (71, -5.78263513743877410000e-002) (72, 1.42601549625396730000e-001) (73, 1.74549426883459090000e-002) (74, 5.38573786616325380000e-002) (75, -4.35259565711021420000e-002) (76, 1.25163523480296130000e-002) (77, 5.90776726603508000000e-002) (78, 8.98336023092269900000e-002) (79, -4.00130972266197200000e-002) (80, 4.18293885886669160000e-002) (81, -1.07131913304328920000e-001) (82, 3.47113199532032010000e-002) (83, -8.28056186437606810000e-002) (84, -1.07801808044314380000e-002) (0, 4.21681314706802370000e-001) (1, -2.18331709504127500000e-001) (2, 3.19406092166900630000e-002) (3, 1.22536480426788330000e-001) (4, 1.26180544495582580000e-001) (5, 1.93491801619529720000e-001) (6, -6.18011832237243650000e-001) (7, 3.86050194501876830000e-001) (8, 8.30119103193283080000e-002) (9, 1.65304288268089290000e-001) (10, 2.43504829704761510000e-002) (11, 1.24876230955123900000e-001) (12, 4.44576889276504520000e-001) (13, -1.99628949165344240000e-001) (14, 1.16586536169052120000e-001) (15, -1.08469724655151370000e-001) (16, 1.84615142643451690000e-002) (17, -1.71436741948127750000e-002) (18, -3.36124636232852940000e-002) (19, -1.89559236168861390000e-001) (20, -2.01172158122062680000e-001) (21, 2.13918477296829220000e-001) (22, -5.81185519695281980000e-002) (23, -1.42976582050323490000e-001) (24, 4.63320612907409670000e-002) (25, 1.85214623343199490000e-003) (26, 1.34840145707130430000e-001) (27, -6.31233975291252140000e-002) (28, -1.82765841484069820000e-001) (29, 1.72527447342872620000e-001) (30, 8.79597850143909450000e-003) (31, 1.90095920115709300000e-002) (32, -1.62595331668853760000e-001) (33, -9.49916094541549680000e-002) (34, 2.16308057308197020000e-001) (35, 1.51382550597190860000e-001) (36, -1.32536172866821290000e-001) (37, -8.41703265905380250000e-002) (38, 3.21428403258323670000e-002) (39, 4.01804745197296140000e-002) (40, -1.81608408689498900000e-001) (41, 1.62308171391487120000e-001) (42, -3.31135064363479610000e-001) (43, 2.00639620423316960000e-001) (44, -1.57058447599411010000e-001) (45, 7.95037075877189640000e-002) (46, -1.29395902156829830000e-001) (47, 8.25786739587783810000e-002) (48, -8.15540086477994920000e-003) (49, -9.74182114005088810000e-002) (50, -1.19021713733673100000e-001) (51, 9.50058847665786740000e-002) (52, -1.10303997993469240000e-001) (53, 1.04706175625324250000e-001) (54, -3.03026884794235230000e-001) (55, 2.23749771714210510000e-001) (56, -1.51443824172019960000e-001) (57, 9.52883437275886540000e-002) (58, -6.36274665594100950000e-002) (59, 1.23567230999469760000e-001) (60, -4.88940677314531060000e-005) (61, 1.68787524104118350000e-001) (62, -6.16820454597473140000e-002) (63, -1.61088153719902040000e-001) (64, -2.21028700470924380000e-002) (65, 1.85903429985046390000e-001) (66, -2.58767679333686830000e-002) (67, 1.41095638275146480000e-001) (68, -1.21509119868278500000e-001) (69, 1.05572581291198730000e-001) (70, 1.63374356925487520000e-002) (71, -1.88494380563497540000e-002) (72, -1.95817183703184130000e-002) (73, 2.12110392749309540000e-003) (74, -1.36422943323850630000e-002) (75, -2.90863811969757080000e-002) (76, -8.15821886062622070000e-002) (77, -1.26904368400573730000e-001) (78, -3.11434064060449600000e-002) (79, 2.79818437993526460000e-002) (80, -2.30408902280032630000e-003) (81, 2.81453728675842290000e-002) (82, 1.88270751386880870000e-002) (83, -1.69980141799896960000e-003) (84, 1.77600011229515080000e-001) (0, 1.10514976084232330000e-001) (1, 1.42313614487648010000e-001) (2, -8.45088437199592590000e-002) (3, 4.95778098702430730000e-002) (4, 1.13430647179484370000e-002) (5, -2.32941940426826480000e-001) (6, -1.73700526356697080000e-001) (7, 1.67098894715309140000e-001) (8, 8.64690355956554410000e-003) (9, -1.92243978381156920000e-001) (10, -7.24778026342391970000e-002) (11, 3.34376916289329530000e-002) (12, 1.04512147605419160000e-001) (13, 1.47737249732017520000e-001) (14, -6.48483932018280030000e-001) (15, 7.92169272899627690000e-001) (16, 4.51613776385784150000e-002) (17, 9.52592864632606510000e-002) (18, -1.52414366602897640000e-002) (19, -8.82392153143882750000e-002) (20, -9.63980518281459810000e-003) (21, 2.81635314226150510000e-001) (22, -4.30005043745040890000e-002) (23, -1.02505244314670560000e-001) (24, 7.19840675592422490000e-002) (25, 1.22462421655654910000e-001) (26, -6.68231308460235600000e-001) (27, 7.60654032230377200000e-001) (28, -8.15798193216323850000e-002) (29, -2.99615621566772460000e-001) (30, -1.63157761096954350000e-001) (31, 1.31253510713577270000e-001) (32, -4.60427626967430110000e-002) (33, -3.18335294723510740000e-001) (34, -3.33760678768157960000e-001) (35, 6.49898424744606020000e-002) (36, -3.68396863341331480000e-002) (37, -2.99911588430404660000e-001) (38, -1.40507563948631290000e-001) (39, 1.36466011404991150000e-001) (40, -7.07687363028526310000e-002) (41, -2.95237481594085690000e-001) (42, 2.67709374427795410000e-001) (43, -2.75359272956848140000e-001) (44, -1.98322445154190060000e-001) (45, 1.09792627394199370000e-001) (46, 1.09235413372516630000e-001) (47, -4.36787791550159450000e-002) (48, -9.17829573154449460000e-003) (49, -2.36609075218439100000e-002) (50, 1.40769958496093750000e-001) (51, -2.63184644281864170000e-002) (52, -1.84341609477996830000e-001) (53, 1.20245203375816350000e-001) (54, 2.91801750659942630000e-001) (55, -2.75260090827941890000e-001) (56, 6.29132837057113650000e-002) (57, 1.80766150355339050000e-001) (58, -1.53343468904495240000e-001) (59, 9.35517773032188420000e-002) (60, 3.22046279907226560000e-002) (61, 2.42628492414951320000e-002) (62, -8.25230684131383900000e-003) (63, -1.20166905224323270000e-001) (64, 8.92201364040374760000e-002) (65, 7.37900584936141970000e-002) (66, -1.47210001945495610000e-001) (67, 1.21974699199199680000e-001) (68, 5.98656460642814640000e-002) (69, 1.77278608083724980000e-001) (70, 1.02859754115343090000e-002) (71, -1.84746831655502320000e-002) (72, -9.03145596385002140000e-003) (73, -6.91742356866598130000e-003) (74, 1.45065814256668090000e-001) (75, -2.15902086347341540000e-002) (76, 3.28234910964965820000e-001) (77, -2.96788420528173450000e-002) (78, 1.73836752772331240000e-001) (79, 3.31685766577720640000e-002) (80, 1.35202668607234950000e-002) (81, -2.05282829701900480000e-002) (82, -8.07796511799097060000e-003) (83, -3.29082161188125610000e-002) (84, 1.43475815653800960000e-001) (0, -2.01958969235420230000e-001) (1, 1.47310793399810790000e-001) (2, -2.99366295337677000000e-001) (3, 2.12264850735664370000e-001) (4, 9.40266549587249760000e-002) (5, -1.07210047543048860000e-001) (6, -2.24477887153625490000e-001) (7, 2.80492424964904790000e-001) (8, -2.74535221979022030000e-003) (9, -1.35262757539749150000e-001) (10, -3.37208509445190430000e-001) (11, 2.37940236926078800000e-001) (12, -1.76000565290451050000e-001) (13, 1.18964858353137970000e-001) (14, 1.46379247307777400000e-001) (15, -1.26216515898704530000e-001) (16, -1.90965354442596440000e-001) (17, 2.68921971321105960000e-001) (18, -1.05541735887527470000e-001) (19, 1.36408433318138120000e-001) (20, 1.43576219677925110000e-001) (21, -6.95597613230347630000e-003) (22, -9.61682647466659550000e-002) (23, 1.18052378296852110000e-001) (24, -2.25337862968444820000e-001) (25, 2.67419695854187010000e-001) (26, 1.21501177549362180000e-001) (27, -1.40097960829734800000e-001) (28, 1.05662338435649870000e-001) (29, 5.86914923042058940000e-003) (30, -1.35625690221786500000e-001) (31, 2.90012508630752560000e-001) (32, -4.25290763378143310000e-002) (33, -9.01499316096305850000e-002) (34, -2.55543440580368040000e-001) (35, -3.97499650716781620000e-002) (36, 1.63413435220718380000e-002) (37, -2.44929585605859760000e-002) (38, -1.38170257210731510000e-001) (39, 3.16947907209396360000e-001) (40, 1.52601853013038640000e-001) (41, 5.57749643921852110000e-002) (42, -7.67245292663574220000e-002) (43, -4.43454869091510770000e-002) (44, -1.55685305595397950000e-001) (45, 5.30307628214359280000e-002) (46, -3.10053839348256590000e-003) (47, -3.33235003054142000000e-002) (48, 7.34180882573127750000e-002) (49, 1.25925883650779720000e-001) (50, 1.91606726730242370000e-004) (51, -5.24660423398017880000e-002) (52, -6.52787759900093080000e-002) (53, 1.13648392260074620000e-001) (54, -8.13291221857070920000e-002) (55, -2.79058534651994710000e-002) (56, -1.12612083554267880000e-001) (57, 1.67523562908172610000e-001) (58, -9.04253944754600520000e-002) (59, -3.66397239267826080000e-002) (60, 5.87144494056701660000e-002) (61, 3.26169282197952270000e-002) (62, -1.21651813387870790000e-001) (63, -1.16907663643360140000e-001) (64, 4.72076013684272770000e-002) (65, 4.53319866210222240000e-003) (66, -5.21257892251014710000e-002) (67, -2.14312840253114700000e-002) (68, -1.00645452737808230000e-001) (69, 1.68730795383453370000e-001) (70, -5.58511316776275630000e-002) (71, 8.03780853748321530000e-002) (72, -1.15601923316717150000e-002) (73, 3.46730239689350130000e-002) (74, -3.54685746133327480000e-002) (75, -2.29078903794288640000e-002) (76, 1.20117142796516420000e-001) (77, 3.67010310292243960000e-002) (78, -4.36311177909374240000e-002) (79, -1.03031294420361520000e-002) (80, -1.03700747713446620000e-002) (81, 3.72601635754108430000e-002) (82, -1.06201939284801480000e-001) (83, 5.88407889008522030000e-002) (84, 4.09238040447235110000e-002) (0, -7.50891566276550290000e-002) (1, 2.09024846553802490000e-001) (2, -9.49340462684631350000e-002) (3, 1.85380384325981140000e-001) (4, -1.48923531174659730000e-001) (5, 2.44316682219505310000e-001) (6, -3.98653388023376460000e-001) (7, 5.00477910041809080000e-001) (8, -1.20556697249412540000e-001) (9, 8.41126777231693270000e-003) (10, -2.17241537757217880000e-003) (11, 2.81247764825820920000e-001) (12, 5.13474047183990480000e-002) (13, 1.75012022256851200000e-001) (14, -4.90415245294570920000e-002) (15, 9.03111621737480160000e-002) (16, -2.63833105564117430000e-001) (17, 2.11717844009399410000e-001) (18, 7.38785266876220700000e-002) (19, 2.36651718616485600000e-001) (20, -1.66822850704193120000e-001) (21, 3.06186266243457790000e-002) (22, -1.02144025266170500000e-001) (23, -1.13107919692993160000e-001) (24, -1.81999877095222470000e-001) (25, 2.49686270952224730000e-001) (26, -8.56875106692314150000e-002) (27, 2.97760814428329470000e-001) (28, 8.24576765298843380000e-002) (29, -3.88185560703277590000e-001) (30, 7.31770601123571400000e-003) (31, -2.66511648893356320000e-001) (32, 2.68950492143630980000e-001) (33, 2.17919856309890750000e-001) (34, 1.26305148005485530000e-001) (35, -9.86319556832313540000e-002) (36, -2.91451960802078250000e-001) (37, -1.54917165637016300000e-001) (38, -1.55822977423667910000e-001) (39, -2.10951328277587890000e-001) (40, 7.78133571147918700000e-002) (41, -3.65313202142715450000e-001) (42, 2.90669381618499760000e-001) (43, -7.93451368808746340000e-002) (44, 2.07821562886238100000e-001) (45, -3.72520089149475100000e-002) (46, 2.94000267982482910000e-001) (47, 6.25926852226257320000e-001) (48, 1.18413582444190980000e-001) (49, -2.68603354692459110000e-001) (50, -4.46858406066894530000e-001) (51, -5.65831005573272710000e-001) (52, 2.32624843716621400000e-001) (53, 8.24258700013160710000e-002) (54, 1.94762423634529110000e-001) (55, 7.14149102568626400000e-002) (56, 1.49510666728019710000e-001) (57, -1.34414508938789370000e-001) (58, -2.45731875300407410000e-001) (59, -9.72173511981964110000e-002) (60, 6.96417808532714840000e-001) (61, 2.75834828615188600000e-001) (62, 2.26849675178527830000e-001) (63, -1.11154235899448390000e-001) (64, -4.70143109560012820000e-001) (65, -7.71320939064025880000e-001) (66, -5.91605491936206820000e-002) (67, 8.48988890647888180000e-002) (68, 1.92298606038093570000e-001) (69, -1.47232577204704280000e-001) (70, -3.43299098312854770000e-002) (71, -2.73259729146957400000e-001) (72, 6.37583509087562560000e-002) (73, -1.73997610807418820000e-001) (74, 6.78397834300994870000e-001) (75, 2.17070221900939940000e-001) (76, 6.31472915410995480000e-002) (77, -2.68244266510009770000e-001) (78, -3.40606927871704100000e-001) (79, -5.96328616142272950000e-001) (80, 3.00394088029861450000e-001) (81, -1.48319508880376820000e-002) (82, 1.83911979198455810000e-001) (83, 5.71696981787681580000e-002) (84, 3.09675276279449460000e-001) (0, -9.36368422117084260000e-004) (1, 3.20411510765552520000e-002) (2, 1.18244908750057220000e-001) (3, 2.47873753309249880000e-001) (4, 1.17227159440517430000e-001) (5, 8.93174037337303160000e-002) (6, -9.68838557600975040000e-002) (7, 1.57143667340278630000e-001) (8, 1.58904954791069030000e-001) (9, 1.02423094213008880000e-001) (10, 1.04036599397659300000e-001) (11, 2.77148693799972530000e-001) (12, -6.97148963809013370000e-002) (13, 8.86646211147308350000e-002) (14, -5.88056482374668120000e-002) (15, -1.92433506250381470000e-001) (16, -1.81565675884485240000e-002) (17, 8.06582495570182800000e-002) (18, -1.02648355066776280000e-001) (19, 8.18917527794837950000e-002) (20, 9.36080068349838260000e-002) (21, -3.33764925599098210000e-002) (22, -1.04221850633621220000e-001) (23, 1.00881859660148620000e-001) (24, -4.97484840452671050000e-002) (25, 8.10841917991638180000e-002) (26, -6.27031475305557250000e-002) (27, -1.54999002814292910000e-001) (28, 1.47089391946792600000e-001) (29, -4.44273948669433590000e-002) (30, -1.52553636580705640000e-002) (31, -1.11840078607201580000e-002) (32, -1.25848352909088130000e-001) (33, -4.58226837217807770000e-002) (34, -6.83942213654518130000e-002) (35, -9.73417907953262330000e-002) (36, -5.84331862628459930000e-002) (37, -2.86857578903436660000e-002) (38, 2.03724130988121030000e-002) (39, -3.94647158682346340000e-002) (40, 1.45448789000511170000e-001) (41, 8.20476934313774110000e-003) (42, 5.47681525349617000000e-002) (43, -8.42059552669525150000e-002) (44, 8.93382057547569270000e-002) (45, 3.44973914325237270000e-002) (46, -6.10780827701091770000e-002) (47, -6.81053753942251210000e-003) (48, 9.46371927857398990000e-002) (49, 1.59674555063247680000e-001) (50, -8.45479890704154970000e-002) (51, 2.52734832465648650000e-002) (52, 1.26140370965003970000e-001) (53, 8.60758498311042790000e-002) (54, 1.29907429218292240000e-001) (55, -4.32286262512207030000e-002) (56, 1.22567526996135710000e-001) (57, -1.01209312677383420000e-001) (58, 1.59037653356790540000e-002) (59, -1.30630686879158020000e-001) (60, -9.77372229099273680000e-002) (61, 1.68263986706733700000e-001) (62, 3.28592620790004730000e-002) (63, 1.14678610116243360000e-002) (64, -1.11086636781692500000e-001) (65, 1.59411519765853880000e-001) (66, 3.82033456116914750000e-003) (67, -1.35520368814468380000e-001) (68, 6.26978874206542970000e-002) (69, -7.70705565810203550000e-002) (70, -5.20755350589752200000e-002) (71, -8.05502459406852720000e-002) (72, -7.14023038744926450000e-002) (73, -6.29048720002174380000e-002) (74, -1.03697665035724640000e-002) (75, 1.28561640158295630000e-002) (76, 8.55441465973854060000e-002) (77, 1.28223253414034840000e-002) (78, 1.90724823623895650000e-002) (79, -1.46012390032410620000e-002) (80, -2.27206144481897350000e-002) (81, -5.77817037701606750000e-002) (82, -3.03847938776016240000e-002) (83, -7.45121687650680540000e-002) (84, 1.02958030998706820000e-001) (0, 1.18866749107837680000e-001) (1, -5.95738776028156280000e-002) (2, 1.16928078234195710000e-001) (3, -1.19955725967884060000e-001) (4, -4.77584861218929290000e-002) (5, 4.11594957113265990000e-002) (6, 2.17053651809692380000e-001) (7, -1.22377075254917140000e-001) (8, -1.12276256084442140000e-001) (9, 6.76539093255996700000e-002) (10, 1.49452298879623410000e-001) (11, -1.23575456440448760000e-001) (12, 1.41185030341148380000e-001) (13, -1.95823702961206440000e-002) (14, -7.79436752200126650000e-002) (15, -1.53519168496131900000e-001) (16, -8.95936265587806700000e-002) (17, 7.70901236683130260000e-003) (18, 1.23428799211978910000e-001) (19, -2.53530368208885190000e-002) (20, -7.36282244324684140000e-002) (21, -2.28462263941764830000e-001) (22, 9.93181318044662480000e-002) (23, -1.03522397577762600000e-001) (24, -1.63666550070047380000e-002) (25, 4.43116724491119380000e-002) (26, 3.49477455019950870000e-002) (27, -1.82100147008895870000e-001) (28, 5.97008578479290010000e-002) (29, 1.72489032149314880000e-001) (30, 1.49909649044275280000e-002) (31, 3.28169157728552820000e-003) (32, 1.56068652868270870000e-001) (33, -1.38033032417297360000e-001) (34, 1.88501123338937760000e-002) (35, 1.71991158276796340000e-002) (36, 1.97573721408843990000e-001) (37, -8.58274176716804500000e-002) (38, -2.56390515714883800000e-002) (39, -9.58449169993400570000e-002) (40, 8.30753594636917110000e-002) (41, 7.15353488922119140000e-002) (42, -1.26749789342284200000e-002) (43, -3.69859091006219390000e-003) (44, 8.84337127208709720000e-002) (45, 4.69191148877143860000e-002) (46, -1.31653924472630020000e-003) (47, -1.53304770588874820000e-001) (48, 1.87758252024650570000e-001) (49, 1.37930259108543400000e-001) (50, 4.99219335615634920000e-002) (51, -1.15740917623043060000e-001) (52, 7.91699215769767760000e-002) (53, 2.01564114540815350000e-002) (54, -3.43161448836326600000e-002) (55, -6.42579942941665650000e-002) (56, 1.30581054836511610000e-002) (57, -7.60042145848274230000e-002) (58, 1.03627480566501620000e-001) (59, -1.24707957729697230000e-002) (60, 1.82716101408004760000e-002) (61, -4.47881780564785000000e-003) (62, -2.47076898813247680000e-002) (63, -8.75946283340454100000e-002) (64, 3.01341265439987180000e-002) (65, 7.55496555939316750000e-003) (66, 3.78441996872425080000e-002) (67, -4.99602593481540680000e-002) (68, 9.43697616457939150000e-002) (69, -5.54590635001659390000e-002) (70, -4.68716919422149660000e-002) (71, -6.10778927803039550000e-002) (72, -2.23292429000139240000e-002) (73, -8.92661809921264650000e-002) (74, 5.03942556679248810000e-002) (75, 3.69832254946231840000e-002) (76, -2.11133100092411040000e-002) (77, -2.10372861474752430000e-002) (78, 1.90716609358787540000e-002) (79, 2.99731874838471410000e-003) (80, -4.37380187213420870000e-002) (81, -1.47465720772743230000e-001) (82, 4.80938591063022610000e-002) (83, 6.46121576428413390000e-002) (84, 4.93472851812839510000e-002) (0, 9.92978587746620180000e-002) (1, 2.57318139076232910000e-001) (2, -2.11727648973464970000e-001) (3, 7.91007727384567260000e-002) (4, -1.34273871779441830000e-001) (5, -5.91767542064189910000e-002) (6, -3.75262349843978880000e-002) (7, -2.69379504024982450000e-002) (8, -1.87239259481430050000e-001) (9, -5.00333085656166080000e-002) (10, -1.29469394683837890000e-001) (11, 1.78746372461318970000e-001) (12, 2.81360931694507600000e-002) (13, 2.23557934165000920000e-001) (14, -7.56612122058868410000e-002) (15, 3.00649441778659820000e-002) (16, -1.76144897937774660000e-001) (17, 1.25094026327133180000e-001) (18, -1.59488454461097720000e-001) (19, -3.09845991432666780000e-002) (20, -7.49241653829813000000e-003) (21, 1.57322347164154050000e-001) (22, -8.87655839323997500000e-002) (23, 2.49311663210392000000e-002) (24, -1.62445962429046630000e-001) (25, 1.19931623339653020000e-001) (26, -1.77983239293098450000e-001) (27, 3.21854278445243840000e-002) (28, -5.52716329693794250000e-002) (29, -2.20520924776792530000e-002) (30, 3.55559438467025760000e-002) (31, 2.32384912669658660000e-002) (32, 3.74894328415393830000e-002) (33, 2.05595090985298160000e-001) (34, 4.52894382178783420000e-002) (35, 1.67605578899383540000e-001) (36, -2.68756300210952760000e-002) (37, 1.68027594685554500000e-001) (38, -2.03921534121036530000e-002) (39, -1.93948822561651470000e-003) (40, -1.44557118415832520000e-001) (41, -1.48015066981315610000e-001) (42, 6.89262077212333680000e-002) (43, 1.09399154782295230000e-001) (44, -2.44600679725408550000e-002) (45, 6.94644972681999210000e-002) (46, -1.59039542078971860000e-001) (47, 5.26853417977690700000e-003) (48, -9.62427929043769840000e-002) (49, 2.52023767679929730000e-002) (50, -1.87114536762237550000e-001) (51, 2.39701326936483380000e-002) (52, -5.14758341014385220000e-002) (53, 7.93511047959327700000e-002) (54, 2.65064779669046400000e-002) (55, 8.06141793727874760000e-002) (56, -1.09393978491425510000e-002) (57, 1.27374351024627690000e-001) (58, -1.39752179384231570000e-001) (59, 2.60995011776685710000e-002) (60, 9.96332839131355290000e-002) (61, 1.24331014230847360000e-002) (62, -8.27328562736511230000e-002) (63, -4.25990335643291470000e-002) (64, 1.01228222250938420000e-001) (65, -1.93564370274543760000e-002) (66, -1.19816273450851440000e-001) (67, 4.20521795749664310000e-002) (68, -6.24364987015724180000e-002) (69, 1.54690995812416080000e-001) (70, -8.05877372622489930000e-002) (71, 1.21028032153844830000e-002) (72, -5.69598563015460970000e-002) (73, 3.23739498853683470000e-002) (74, 4.43619955331087110000e-003) (75, 3.32211554050445560000e-002) (76, -1.30477532744407650000e-001) (77, -6.57295137643814090000e-002) (78, -4.74732816219329830000e-002) (79, -3.63861918449401860000e-002) (80, 2.95833684504032140000e-002) (81, 6.50806352496147160000e-002) (82, -1.03738844394683840000e-001) (83, 6.80280383676290510000e-004) (84, 6.95050954818725590000e-002) (0, -1.46602377295494080000e-001) (1, -2.13132761418819430000e-002) (2, -2.46550962328910830000e-001) (3, -4.17695432901382450000e-001) (4, -5.03392696380615230000e-001) (5, 9.67507287859916690000e-002) (6, -3.05098444223403930000e-001) (7, 1.24317854642868040000e-001) (8, -4.93457734584808350000e-001) (9, 9.02132838964462280000e-002) (10, -2.57005602121353150000e-001) (11, -4.44655239582061770000e-001) (12, -1.50959387421607970000e-001) (13, -4.06984575092792510000e-002) (14, -1.90274044871330260000e-002) (15, -9.79782342910766600000e-002) (16, -3.76418083906173710000e-001) (17, -1.21515974402427670000e-001) (18, -2.49941259622573850000e-001) (19, -2.46637556701898570000e-002) (20, -3.81983995437622070000e-001) (21, 2.65550669282674790000e-002) (22, -2.36452385783195500000e-001) (23, -4.92857433855533600000e-002) (24, -3.68983656167984010000e-001) (25, -1.20729885995388030000e-001) (26, -3.70649546384811400000e-002) (27, -1.07694409787654880000e-001) (28, -1.34697750210762020000e-001) (29, 2.18247383832931520000e-001) (30, -1.17322795093059540000e-001) (31, -7.04637244343757630000e-002) (32, -3.74338954687118530000e-001) (33, 4.50825214385986330000e-001) (34, 2.43272528052330020000e-001) (35, 6.04624114930629730000e-002) (36, -3.67821484804153440000e-001) (37, 4.36377495527267460000e-001) (38, -1.01827487349510190000e-001) (39, -7.37750157713890080000e-002) (40, -1.28465428948402400000e-001) (41, 2.16075986623764040000e-001) (42, -1.40416547656059270000e-001) (43, -3.86937886476516720000e-001) (44, -2.06458419561386110000e-001) (45, 4.99397695064544680000e-001) (46, -1.85433909296989440000e-001) (47, -9.98406335711479190000e-002) (48, 1.15219093859195710000e-001) (49, 3.07991243898868560000e-002) (50, -2.18182429671287540000e-001) (51, -1.17674537003040310000e-001) (52, -2.14867249131202700000e-001) (53, 4.92799252271652220000e-001) (54, -1.39151573181152340000e-001) (55, -3.91674906015396120000e-001) (56, -1.67730629444122310000e-001) (57, 1.84134304523468020000e-001) (58, -8.97926390171051030000e-002) (59, -9.40673127770423890000e-002) (60, -2.53330990672111510000e-002) (61, 1.01068302989006040000e-001) (62, 5.30903100967407230000e-001) (63, -1.55207917094230650000e-001) (64, -2.11384091526269910000e-002) (65, 8.53114277124404910000e-002) (66, -8.79125520586967470000e-002) (67, -8.95318761467933650000e-002) (68, -1.80596798658370970000e-001) (69, 2.05146357417106630000e-001) (70, -4.11763340234756470000e-002) (71, 1.30910009145736690000e-001) (72, 1.22952863574028020000e-001) (73, 7.67839178442955020000e-002) (74, 8.78598764538764950000e-002) (75, 3.45385707914829250000e-002) (76, -1.15041155368089680000e-002) (77, -1.39453103765845300000e-002) (78, 9.01597142219543460000e-002) (79, 1.05912517756223680000e-002) (80, 1.39359071850776670000e-001) (81, 5.49685396254062650000e-002) (82, -2.07159928977489470000e-002) (83, 1.38043627142906190000e-001) (84, 4.62357252836227420000e-001) (0, 8.52810069918632510000e-002) (1, -4.14036333560943600000e-001) (2, -1.41826793551445010000e-002) (3, -6.74622133374214170000e-003) (4, -2.53905206918716430000e-001) (5, 1.68162390589714050000e-001) (6, 2.76725646108388900000e-002) (7, -8.92837718129158020000e-002) (8, -2.30458229780197140000e-001) (9, 1.98773190379142760000e-001) (10, -6.32779821753501890000e-002) (11, -6.40669390559196470000e-002) (12, 7.98095837235450740000e-002) (13, -3.84209930896759030000e-001) (14, 1.45166024565696720000e-001) (15, -1.25680863857269290000e-001) (16, 2.00630351901054380000e-001) (17, 2.03653872013092040000e-001) (18, 8.89271646738052370000e-002) (19, -1.39985561370849610000e-001) (20, -1.39501139521598820000e-001) (21, 2.58399676531553270000e-002) (22, 1.04730166494846340000e-001) (23, -9.59756746888160710000e-002) (24, 1.89073309302330020000e-001) (25, 1.79630547761917110000e-001) (26, 9.82161685824394230000e-002) (27, -1.08714722096920010000e-001) (28, -1.32168129086494450000e-001) (29, 8.83026793599128720000e-002) (30, -1.86393111944198610000e-001) (31, 9.73619818687438960000e-002) (32, 9.51061919331550600000e-002) (33, 3.84181626141071320000e-002) (34, 1.58536106348037720000e-001) (35, 1.69857531785964970000e-001) (36, 6.80952444672584530000e-002) (37, -1.15379169583320620000e-002) (38, -1.97421252727508540000e-001) (39, 6.05283901095390320000e-002) (40, -2.14631870388984680000e-001) (41, 1.44742205739021300000e-001) (42, 3.19906771183013920000e-002) (43, 1.96062847971916200000e-001) (44, -2.73986905813217160000e-001) (45, 2.37474828958511350000e-001) (46, 2.40761861205101010000e-001) (47, 2.03956931829452510000e-001) (48, -1.51156231760978700000e-001) (49, -2.25796505808830260000e-001) (50, 8.58502164483070370000e-002) (51, 1.27021476626396180000e-001) (52, -3.39534312486648560000e-001) (53, 2.18496203422546390000e-001) (54, -1.77573971450328830000e-002) (55, 1.26615524291992190000e-001) (56, -5.77015280723571780000e-002) (57, -1.09848603606224060000e-002) (58, 1.48002216592431070000e-002) (59, 5.91073632240295410000e-002) (60, -9.17614251375198360000e-002) (61, -1.50400876998901370000e-001) (62, 1.99925359338521960000e-002) (63, 2.88484934717416760000e-002) (64, -2.13054895401000980000e-001) (65, -3.23410511016845700000e-001) (66, -5.29594756662845610000e-002) (67, 1.34402150288224220000e-002) (68, -1.51234731078147890000e-001) (69, 8.34756437689065930000e-003) (70, -1.36031704023480420000e-002) (71, 5.30687812715768810000e-003) (72, 4.08563911914825440000e-002) (73, -5.02224452793598180000e-002) (74, 1.37827217578887940000e-001) (75, 1.55431881546974180000e-001) (76, -5.18945790827274320000e-002) (77, 1.26046463847160340000e-001) (78, 1.84002239257097240000e-002) (79, 8.37533026933670040000e-002) (80, -4.53597642481327060000e-002) (81, -1.22744441032409670000e-001) (82, -8.97391419857740400000e-003) (83, -8.63020047545433040000e-002) (84, 7.20299109816551210000e-002) (0, 8.41780304908752440000e-002) (1, -2.74317502975463870000e-001) (2, -1.48240625858306880000e-001) (3, 1.29427716135978700000e-001) (4, 9.78962481021881100000e-002) (5, -1.31206706166267400000e-001) (6, -1.17879427969455720000e-001) (7, 2.47526332736015320000e-001) (8, 8.55235382914543150000e-002) (9, -1.36732086539268490000e-001) (10, -1.15305431187152860000e-001) (11, 1.32795169949531560000e-001) (12, 8.17671790719032290000e-002) (13, -2.71130055189132690000e-001) (14, 1.14924423396587370000e-001) (15, -1.57017916440963750000e-001) (16, -1.08091928064823150000e-001) (17, -1.07145145535469060000e-001) (18, 4.57720682024955750000e-002) (19, -8.36132690310478210000e-002) (20, -1.13299794495105740000e-001) (21, 2.63650193810462950000e-002) (22, 1.23313106596469880000e-001) (23, -5.44412843883037570000e-002) (24, 1.31093244999647140000e-002) (25, 4.47105281054973600000e-002) (26, 8.18509608507156370000e-002) (27, -1.14661879837512970000e-001) (28, 1.65544021874666210000e-002) (29, 5.32997585833072660000e-002) (30, -2.08207458257675170000e-001) (31, 4.77867238223552700000e-002) (32, 3.07972775772213940000e-004) (33, 4.75412420928478240000e-002) (34, -1.77681028842926030000e-001) (35, -1.29649266600608830000e-001) (36, 5.42175918817520140000e-002) (37, 1.15621440112590790000e-001) (38, -1.91272906959056850000e-002) (39, 2.92404294013977050000e-001) (40, 1.45260710269212720000e-002) (41, 9.73471626639366150000e-002) (42, -1.46778449416160580000e-001) (43, -9.55558195710182190000e-002) (44, -1.03455454111099240000e-001) (45, -8.34446176886558530000e-002) (46, -1.31951808929443360000e-001) (47, -5.71158342063426970000e-002) (48, 7.26948678493499760000e-002) (49, 1.76070749759674070000e-001) (50, -2.78907418251037600000e-002) (51, -1.75263788551092150000e-002) (52, 2.95910239219665530000e-002) (53, 1.07742138206958770000e-002) (54, -1.21997073292732240000e-001) (55, -4.03001308441162110000e-002) (56, -1.01813979446887970000e-001) (57, -1.25534860417246820000e-002) (58, 1.89388357102870940000e-002) (59, 9.25685465335845950000e-002) (60, -1.69940263032913210000e-001) (61, -7.83771201968193050000e-002) (62, 6.01425655186176300000e-002) (63, 2.12372153997421260000e-001) (64, -7.25946128368377690000e-002) (65, 6.37084990739822390000e-002) (66, 8.00824090838432310000e-002) (67, 8.14463943243026730000e-002) (68, 2.40062307566404340000e-002) (69, 6.08450435101985930000e-002) (70, 7.36092254519462590000e-002) (71, 9.15253162384033200000e-002) (72, -5.72278797626495360000e-002) (73, -4.80426363646984100000e-002) (74, 2.25177146494388580000e-002) (75, -5.27993477880954740000e-002) (76, -1.04494564235210420000e-001) (77, -2.10365206003189090000e-001) (78, 4.05594594776630400000e-002) (79, 3.12558412551879880000e-002) (80, 2.70959921181201930000e-002) (81, 4.20407280325889590000e-002) (82, 5.27897626161575320000e-002) (83, 9.05153602361679080000e-002) (84, -1.14976912736892700000e-002) (0, -1.34603247046470640000e-001) (1, -4.64025437831878660000e-001) (2, -2.23900035023689270000e-001) (3, 3.38921099901199340000e-002) (4, -1.46086961030960080000e-001) (5, 2.02679291367530820000e-001) (6, -1.59106507897377010000e-001) (7, 1.11276119947433470000e-001) (8, -1.10502995550632480000e-001) (9, 2.21879243850708010000e-001) (10, -1.36041343212127690000e-001) (11, 1.00579917430877690000e-001) (12, -1.42011120915412900000e-001) (13, -4.54762250185012820000e-001) (14, 1.07974961400032040000e-001) (15, 2.11110860109329220000e-002) (16, 4.72317710518836980000e-002) (17, 2.29437291622161870000e-001) (18, -1.05482310056686400000e-001) (19, -6.56954757869243620000e-003) (20, 3.90841960906982420000e-002) (21, 3.40905487537384030000e-002) (22, -6.26261010766029360000e-002) (23, -2.02832631766796110000e-002) (24, -7.88529310375452040000e-003) (25, 1.91811129450798030000e-001) (26, 1.28958076238632200000e-001) (27, -1.26610575243830680000e-002) (28, -5.08571118116378780000e-002) (29, 5.95576912164688110000e-002) (30, -1.52777627110481260000e-001) (31, 1.44420281052589420000e-001) (32, -1.08826428651809690000e-001) (33, 8.66423174738883970000e-002) (34, 5.49067258834838870000e-002) (35, 1.29370942711830140000e-001) (36, -1.67535245418548580000e-001) (37, 3.94057147204875950000e-002) (38, -1.75981715321540830000e-001) (39, 8.72088000178337100000e-002) (40, -6.46180063486099240000e-002) (41, -4.71023702993988990000e-003) (42, -1.43515124917030330000e-001) (43, 2.61686086654663090000e-001) (44, -1.07320308685302730000e-001) (45, 8.39004889130592350000e-002) (46, -9.45224985480308530000e-002) (47, 2.28453189134597780000e-001) (48, -9.59936901926994320000e-002) (49, -1.13150961697101590000e-001) (50, -5.19361980259418490000e-002) (51, 2.22286969423294070000e-001) (52, -1.12774908542633060000e-001) (53, 4.65465076267719270000e-002) (54, -1.75557792186737060000e-001) (55, 2.36724108457565310000e-001) (56, -2.17763543128967290000e-001) (57, 1.44305124878883360000e-001) (58, -9.27025675773620610000e-002) (59, 9.73184779286384580000e-002) (60, -1.16512954235076900000e-001) (61, 1.65797263383865360000e-001) (62, -1.11632853746414180000e-001) (63, 9.47828888893127440000e-002) (64, -1.70442074537277220000e-001) (65, 1.29381731152534480000e-001) (66, -1.27163678407669070000e-001) (67, 8.36857184767723080000e-002) (68, -2.59061664342880250000e-001) (69, 1.38535097241401670000e-001) (70, -1.12301670014858250000e-001) (71, 1.17044523358345030000e-002) (72, -3.78466099500656130000e-002) (73, 1.02231159806251530000e-001) (74, -2.90469788014888760000e-002) (75, -7.67474761232733730000e-003) (76, 6.87908977270126340000e-002) (77, 5.95075897872447970000e-002) (78, -3.55867706239223480000e-002) (79, -3.16603779792785640000e-002) (80, -4.36386168003082280000e-002) (81, 1.14834621548652650000e-001) (82, -1.08982138335704800000e-001) (83, 1.60084925591945650000e-002) (84, 8.96990112960338590000e-003) (0, 1.98250412940979000000e-001) (1, -5.87776243686676030000e-001) (2, 5.29902160167694090000e-001) (3, -9.30868804454803470000e-001) (4, 1.98127701878547670000e-001) (5, -8.97287547588348390000e-001) (6, 1.61382090300321580000e-002) (7, -1.09382450580596920000e-001) (8, 2.11337596178054810000e-001) (9, -8.85445415973663330000e-001) (10, 5.10512351989746090000e-001) (11, -9.37616169452667240000e-001) (12, 2.18291044235229490000e-001) (13, -6.00836515426635740000e-001) (14, 6.77129477262496950000e-002) (15, -5.37830531597137450000e-001) (16, -8.67815129458904270000e-003) (17, -2.02898103743791580000e-002) (18, -2.38182798027992250000e-001) (19, 9.44065749645233150000e-002) (20, -2.67803311347961430000e-001) (21, 4.93389308452606200000e-001) (22, -2.42448344826698300000e-001) (23, 1.06538794934749600000e-001) (24, -5.96785452216863630000e-003) (25, -1.88812576234340670000e-002) (26, 7.65326097607612610000e-002) (27, -5.42336821556091310000e-001) (28, 2.45058536529541020000e-001) (29, -7.14616298675537110000e-001) (30, -1.36771574616432190000e-001) (31, 7.05237150192260740000e-001) (32, 1.26719370484352110000e-001) (33, -9.28888097405433650000e-002) (34, -2.31479823589324950000e-001) (35, 5.91350555419921880000e-001) (36, 1.12082146108150480000e-001) (37, -8.09806212782859800000e-002) (38, -1.42096772789955140000e-001) (39, 6.96741044521331790000e-001) (40, 2.40672856569290160000e-001) (41, -7.06433475017547610000e-001) (42, -4.40924257040023800000e-001) (43, -3.48255515098571780000e-001) (44, -2.48182058334350590000e-001) (45, 1.34804749488830570000e+000) (46, 3.05302031338214870000e-002) (47, -2.16934725642204280000e-001) (48, -3.87452036142349240000e-001) (49, 2.15367838740348820000e-001) (50, 3.88525687158107760000e-002) (51, -2.20774307847023010000e-001) (52, -2.40875050425529480000e-001) (53, 1.34483516216278080000e+000) (54, -4.46628898382186890000e-001) (55, -3.40475589036941530000e-001) (56, -4.10435907542705540000e-002) (57, 1.20562106370925900000e-001) (58, -2.79365807771682740000e-001) (59, 3.33095967769622800000e-001) (60, -1.35612890124320980000e-001) (61, 6.35875821113586430000e-001) (62, 3.17068666219711300000e-001) (63, -2.19863783568143840000e-002) (64, -1.38130694627761840000e-001) (65, 6.02579832077026370000e-001) (66, -2.74952501058578490000e-001) (67, 3.52287262678146360000e-001) (68, -3.90614047646522520000e-002) (69, 1.34285449981689450000e-001) (70, -1.42498910427093510000e-001) (71, 5.64821243286132810000e-001) (72, -5.22291362285614010000e-002) (73, 6.28501713275909420000e-001) (74, 2.34125498682260510000e-002) (75, 8.77830564975738530000e-001) (76, -3.16922634840011600000e-001) (77, 7.56367623805999760000e-001) (78, 1.42830945551395420000e-002) (79, 8.80844771862030030000e-001) (80, -4.89143654704093930000e-002) (81, 6.18788480758666990000e-001) (82, -1.26369327306747440000e-001) (83, 5.59923946857452390000e-001) (84, -2.12481164932250980000e+000) (0, 4.66759540140628810000e-002) (1, 1.49505928158760070000e-001) (2, -1.58004667609930040000e-002) (3, -1.47579371929168700000e-001) (4, -1.24178327620029450000e-001) (5, -3.09997871518135070000e-002) (6, -2.14939326047897340000e-001) (7, 3.72023023664951320000e-002) (8, -1.21384993195533750000e-001) (9, -1.03607632219791410000e-001) (10, 4.11168159916996960000e-003) (11, -1.95172280073165890000e-001) (12, 1.82792097330093380000e-002) (13, 1.45234882831573490000e-001) (14, -1.04228809475898740000e-001) (15, 1.00909769535064700000e-001) (16, 4.48331721127033230000e-002) (17, 5.41037954390048980000e-002) (18, 1.06558926403522490000e-001) (19, -1.88003689981997010000e-003) (20, -6.74960836768150330000e-002) (21, 1.53144598007202150000e-001) (22, 9.80294193141162400000e-004) (23, 1.24180521816015240000e-002) (24, 8.24486464262008670000e-002) (25, 1.31241634488105770000e-001) (26, -2.89798602461814880000e-002) (27, 1.37259483337402340000e-001) (28, -1.55219852924346920000e-001) (29, 1.21735177934169770000e-001) (30, -2.71406590938568120000e-001) (31, 1.06101796030998230000e-001) (32, -2.51158118247985840000e-001) (33, 1.07088744640350340000e-001) (34, -2.27995559573173520000e-001) (35, -2.80525356531143190000e-001) (36, -2.23343804478645320000e-001) (37, 9.22108739614486690000e-002) (38, -2.56442248821258540000e-001) (39, 4.70634549856185910000e-002) (40, -1.36896073818206790000e-001) (41, 1.48818522691726680000e-001) (42, -1.09637692570686340000e-001) (43, 3.05635452270507810000e-001) (44, -1.24262489378452300000e-001) (45, 3.08329075574874880000e-001) (46, -3.07114957831799980000e-003) (47, 2.21977621316909790000e-001) (48, 5.28891161084175110000e-002) (49, 1.57898694276809690000e-001) (50, -5.81427887082099910000e-002) (51, 2.71777808666229250000e-001) (52, -1.34729772806167600000e-001) (53, 3.12345862388610840000e-001) (54, -1.34248077869415280000e-001) (55, 2.25546792149543760000e-001) (56, -2.37041071057319640000e-001) (57, 1.72082453966140750000e-001) (58, -1.19338005781173710000e-001) (59, 2.62029707431793210000e-001) (60, 8.90065729618072510000e-003) (61, 3.69282476603984830000e-002) (62, -3.81352310068905350000e-003) (63, 1.61118626594543460000e-001) (64, 6.60857632756233220000e-002) (65, 1.49776984471827750000e-003) (66, -1.20726034045219420000e-001) (67, 2.78019696474075320000e-001) (68, -2.84943044185638430000e-001) (69, 1.78850337862968440000e-001) (70, -1.94781407713890080000e-001) (71, -3.64135988056659700000e-002) (72, -1.37404203414916990000e-001) (73, 9.17357429862022400000e-002) (74, -1.91573455929756160000e-001) (75, 5.70741258561611180000e-002) (76, -1.89990580081939700000e-001) (77, 9.05435457825660710000e-002) (78, -1.54444873332977290000e-001) (79, -1.60883255302906040000e-002) (80, -1.13040775060653690000e-001) (81, 7.74808973073959350000e-002) (82, -1.63517326116561890000e-001) (83, -2.70654000341892240000e-002) (84, 7.40125700831413270000e-002) (0, 1.28786593675613400000e-001) (1, 8.39918926358222960000e-002) (2, 3.31413924694061280000e-001) (3, 3.98840248584747310000e-001) (4, 7.62073397636413570000e-002) (5, 3.59105430543422700000e-002) (6, -4.74247068166732790000e-001) (7, 5.77539682388305660000e-001) (8, 6.12117536365985870000e-002) (9, 2.67793852835893630000e-002) (10, 3.31309735774993900000e-001) (11, 3.88487219810485840000e-001) (12, 1.26026406884193420000e-001) (13, 1.05734884738922120000e-001) (14, 1.85926318168640140000e-001) (15, 3.25446158647537230000e-001) (16, 1.30334392189979550000e-001) (17, 5.94452619552612300000e-001) (18, -2.05486178398132320000e-001) (19, 4.42673742771148680000e-001) (20, -4.13488537073135380000e-001) (21, 3.17905128002166750000e-001) (22, -2.11460039019584660000e-001) (23, 4.38937723636627200000e-001) (24, 1.31815865635871890000e-001) (25, 5.94833910465240480000e-001) (26, 1.86039447784423830000e-001) (27, 3.34627002477645870000e-001) (28, 8.69167223572731020000e-002) (29, 2.12915226817131040000e-001) (30, -2.92182317934930320000e-003) (31, 2.99916177988052370000e-001) (32, 1.63326665759086610000e-001) (33, -4.85997460782527920000e-002) (34, -1.51748448610305790000e-001) (35, -1.33061826229095460000e-001) (36, 1.65139272809028630000e-001) (37, -5.44227473437786100000e-002) (38, 7.93876871466636660000e-003) (39, 3.03846985101699830000e-001) (40, 7.31891691684722900000e-002) (41, 2.11838707327842710000e-001) (42, 8.56591314077377320000e-002) (43, 2.23621159791946410000e-001) (44, 2.56630957126617430000e-001) (45, 2.20262538641691210000e-003) (46, 8.72506499290466310000e-002) (47, 1.07166491448879240000e-001) (48, 1.53282079845666890000e-002) (49, 1.34980157017707820000e-001) (50, 8.73001813888549800000e-002) (51, 9.94931906461715700000e-002) (52, 2.54956543445587160000e-001) (53, -3.87885211966931820000e-003) (54, 7.90795385837554930000e-002) (55, 2.43395119905471800000e-001) (56, 1.95287436246871950000e-001) (57, 2.91086107492446900000e-001) (58, 1.59279048442840580000e-001) (59, -6.57312059774994850000e-003) (60, -2.92999949306249620000e-002) (61, 2.04211547970771790000e-001) (62, 4.78414237499237060000e-001) (63, -6.68325901031494140000e-001) (64, -2.34569087624549870000e-002) (65, 1.97008460760116580000e-001) (66, 1.62541121244430540000e-001) (67, -2.17253454029560090000e-002) (68, 1.93914994597435000000e-001) (69, 2.99394935369491580000e-001) (70, 3.41894805431365970000e-001) (71, -1.70739009976387020000e-001) (72, 1.17818370461463930000e-001) (73, 1.35691627860069270000e-001) (74, -2.95958369970321660000e-002) (75, -3.89460951089859010000e-001) (76, -1.11866876482963560000e-001) (77, 1.14871188998222350000e-001) (78, -4.46647293865680690000e-002) (79, -3.93077671527862550000e-001) (80, 1.30950391292572020000e-001) (81, 1.35397106409072880000e-001) (82, 3.35841953754425050000e-001) (83, -1.64957076311111450000e-001) (84, -1.72448182106018070000e+000) (0, 5.54634273052215580000e-001) (1, -1.09262156486511230000e+000) (2, 4.81908023357391360000e-001) (3, -7.60272562503814700000e-001) (4, 1.32185801863670350000e-001) (5, -5.81176653504371640000e-002) (6, 2.97230422496795650000e-001) (7, -9.28937569260597230000e-002) (8, 2.32183933258056640000e-001) (9, -6.73287570476531980000e-001) (10, 2.83196270465850830000e-001) (11, -3.77356857061386110000e-001) (12, 4.90400433540344240000e-001) (13, -6.39362156391143800000e-001) (14, 4.36492413282394410000e-001) (15, -4.24246996641159060000e-001) (16, 4.71171706914901730000e-001) (17, -3.35264563560485840000e-001) (18, -5.04986755549907680000e-002) (19, 1.65866687893867490000e-001) (20, -2.55298823118209840000e-001) (21, 2.51533955335617070000e-001) (22, 4.23079341650009160000e-001) (23, -3.23308408260345460000e-001) (24, -1.13752381876111030000e-002) (25, -1.06191728264093400000e-002) (26, 5.18886387348175050000e-001) (27, -4.21611636877059940000e-001) (28, 1.20051570236682890000e-001) (29, 4.44172948598861690000e-001) (30, -1.06193944811820980000e-001) (31, 5.28568863868713380000e-001) (32, -9.76700782775878910000e-002) (33, 6.59099370241165160000e-002) (34, -3.44753623008728030000e-001) (35, 3.85554164648056030000e-001) (36, -3.33206117153167720000e-001) (37, 3.89681637287139890000e-001) (38, 3.14040593802928920000e-002) (39, 4.02895599603652950000e-001) (40, 1.17031067609786990000e-001) (41, 8.53859856724739070000e-002) (42, -1.35434895753860470000e-001) (43, 1.83016851544380190000e-001) (44, -1.87317475676536560000e-001) (45, 7.68953876104205850000e-004) (46, -3.49595963954925540000e-001) (47, 6.80276274681091310000e-001) (48, -4.18949097394943240000e-001) (49, 3.64426434040069580000e-001) (50, -3.60578596591949460000e-002) (51, 2.82834470272064210000e-001) (52, -5.63806951045989990000e-001) (53, -1.42677128314971920000e-001) (54, 2.06404298543930050000e-001) (55, -3.79427075386047360000e-001) (56, 1.08438163995742800000e-001) (57, -7.21035301685333250000e-002) (58, -5.03112256526947020000e-001) (59, 5.92604756355285640000e-001) (60, -1.55411973595619200000e-001) (61, -2.18814894556999210000e-001) (62, -5.63926994800567630000e-001) (63, 5.53462862968444820000e-001) (64, -2.38403633236885070000e-001) (65, 4.43391114473342900000e-001) (66, 2.51390397548675540000e-001) (67, -2.76189625263214110000e-001) (68, 2.42801874876022340000e-001) (69, -3.69734428822994230000e-002) (70, 1.85715500265359880000e-002) (71, -3.99296760559082030000e-001) (72, -3.04782181978225710000e-001) (73, -4.59521740674972530000e-001) (74, -1.06000483036041260000e+000) (75, 1.82696938514709470000e+000) (76, -9.56951916217803960000e-001) (77, 1.65122771263122560000e+000) (78, -2.31561943888664250000e-001) (79, -1.19502937793731690000e+000) (80, -7.04016983509063720000e-001) (81, 6.90058887004852290000e-001) (82, -2.52160131931304930000e-001) (83, 7.31342077255249020000e-001) (84, 7.70999956876039510000e-003) (0, -1.83500181883573530000e-002) (1, -1.43510680645704270000e-002) (2, 2.62360870838165280000e-002) (3, -1.11021799966692920000e-002) (4, -1.30183354020118710000e-001) (5, -1.25922143459320070000e-001) (6, -9.21326130628585820000e-002) (7, 3.31312161870300770000e-003) (8, -1.00668422877788540000e-001) (9, -1.55294761061668400000e-001) (10, -3.45725640654563900000e-002) (11, -1.70923918485641480000e-002) (12, 3.61338481307029720000e-002) (13, 1.30782006308436390000e-002) (14, -9.95761007070541380000e-002) (15, 5.57349845767021180000e-002) (16, -5.29859028756618500000e-002) (17, 1.56755462288856510000e-001) (18, -8.41476097702980040000e-002) (19, 1.05499811470508580000e-001) (20, 7.50901475548744200000e-002) (21, -6.51051616296172140000e-003) (22, -9.17741507291793820000e-002) (23, 1.69230923056602480000e-001) (24, -2.63256244361400600000e-002) (25, 1.57398104667663570000e-001) (26, -5.49063161015510560000e-002) (27, 4.18139323592185970000e-002) (28, -8.02455246448516850000e-002) (29, 3.17570894956588750000e-001) (30, -9.70477387309074400000e-002) (31, -2.93743703514337540000e-002) (32, 5.02687357366085050000e-002) (33, 9.57517623901367190000e-002) (34, -1.02118618786334990000e-001) (35, -4.78612184524536130000e-002) (36, 5.91216869652271270000e-002) (37, 9.16765704751014710000e-002) (38, -1.06509596109390260000e-001) (39, -9.80380689725279810000e-004) (40, -1.70387402176856990000e-001) (41, 3.83189409971237180000e-001) (42, -2.10503458976745610000e-001) (43, -3.54734808206558230000e-003) (44, -6.64619952440261840000e-002) (45, 3.36819179356098180000e-002) (46, -2.41212174296379090000e-001) (47, -5.69658502936363220000e-002) (48, 3.28231193125247960000e-002) (49, -7.00076343491673470000e-003) (50, -2.44025900959968570000e-001) (51, -1.01230539381504060000e-001) (52, -1.27310246229171750000e-001) (53, 6.45829439163208010000e-002) (54, -3.33365619182586670000e-001) (55, -3.14223095774650570000e-002) (56, 8.70027095079422000000e-002) (57, 6.41466155648231510000e-002) (58, 4.14728112518787380000e-002) (59, -5.41393971070647240000e-003) (60, -6.34509325027465820000e-002) (61, 2.34744846820831300000e-001) (62, 1.12851731479167940000e-001) (63, 6.91946744918823240000e-002) (64, -8.28998014330863950000e-002) (65, 1.66337668895721440000e-001) (66, 4.38915230333805080000e-002) (67, 6.71318769454956050000e-002) (68, 4.86412420868873600000e-002) (69, 3.26059535145759580000e-002) (70, -1.17643456906080250000e-002) (71, 1.92454941570758820000e-002) (72, -2.94174477458000180000e-002) (73, 4.52220775187015530000e-002) (74, 6.84693604707717900000e-002) (75, 5.40830567479133610000e-002) (76, 3.91832515597343440000e-002) (77, -5.78751973807811740000e-002) (78, 5.22987507283687590000e-002) (79, -3.28044705092906950000e-002) (80, -1.99477691203355790000e-002) (81, -2.70866286009550090000e-002) (82, -2.33267880976200100000e-002) (83, 2.60322373360395430000e-002) (84, -5.95140419900417330000e-002) (0, 1.14580005407333370000e-001) (1, -3.84127974510192870000e-001) (2, -2.26297485642135140000e-003) (3, -1.32673427462577820000e-001) (4, 8.10782164335250850000e-002) (5, -1.31078287959098820000e-001) (6, 1.07812033966183660000e-002) (7, -4.26083914935588840000e-002) (8, 9.87509638071060180000e-003) (9, -1.07783354818820950000e-001) (10, -1.65087785571813580000e-002) (11, -9.12766531109809880000e-002) (12, 6.61276504397392270000e-002) (13, -3.15588921308517460000e-001) (14, 3.42425316572189330000e-001) (15, -1.18872903287410740000e-001) (16, 3.97589802742004390000e-001) (17, -4.34261918067932130000e-001) (18, 1.37022614479064940000e-001) (19, 9.69528406858444210000e-003) (20, 5.52602931857109070000e-002) (21, -1.58091038465499880000e-002) (22, 2.36902505159378050000e-001) (23, 8.92599951475858690000e-003) (24, 3.75290036201477050000e-001) (25, -3.48628640174865720000e-001) (26, 2.96362161636352540000e-001) (27, -1.24943643808364870000e-001) (28, -6.31315037608146670000e-002) (29, -2.05373093485832210000e-001) (30, 6.66491165757179260000e-002) (31, -6.67105093598365780000e-002) (32, -1.37201413512229920000e-001) (33, -9.40093398094177250000e-002) (34, -8.22823196649551390000e-002) (35, -1.27029675059020520000e-003) (36, -8.30434858798980710000e-002) (37, -1.61056481301784520000e-002) (38, 1.31215050816535950000e-001) (39, 9.23007447272539140000e-003) (40, -4.78602051734924320000e-002) (41, -2.33245804905891420000e-001) (42, 2.02463880181312560000e-001) (43, 7.34674036502838130000e-002) (44, 1.07052281498909000000e-001) (45, -9.84773039817810060000e-002) (46, -5.87203130125999450000e-002) (47, 2.53062874078750610000e-001) (48, 4.23628464341163640000e-002) (49, 1.64783924818038940000e-001) (50, 8.24276357889175420000e-002) (51, 1.94526508450508120000e-001) (52, 1.70685619115829470000e-001) (53, -6.82168230414390560000e-002) (54, 1.38707175850868230000e-001) (55, 1.35621204972267150000e-001) (56, 2.61077973991632460000e-002) (57, -9.13460552692413330000e-003) (58, -1.41592487692832950000e-001) (59, 1.73201989382505420000e-002) (60, -1.51638716459274290000e-001) (61, -1.52872011065483090000e-001) (62, -1.35215267539024350000e-001) (63, 9.75750833749771120000e-002) (64, -9.14879739284515380000e-002) (65, 1.98794808238744740000e-002) (66, -9.04381424188613890000e-002) (67, 4.48053069412708280000e-002) (68, 1.23805783689022060000e-001) (69, -6.60275518894195560000e-002) (70, -7.24047645926475520000e-002) (71, -6.69685378670692440000e-002) (72, -5.22333011031150820000e-002) (73, 4.16868505999445920000e-003) (74, 1.86963286250829700000e-002) (75, 9.70607474446296690000e-002) (76, -8.92258584499359130000e-002) (77, 1.91951114684343340000e-002) (78, 3.22886258363723750000e-002) (79, 2.27031782269477840000e-001) (80, 5.20805194973945620000e-002) (81, 1.64480313658714290000e-001) (82, -4.54652532935142520000e-002) (83, 1.13967135548591610000e-001) (84, -2.40225687623023990000e-001) (0, -2.75702979415655140000e-002) (1, 5.87484836578369140000e-001) (2, -3.44391375780105590000e-001) (3, 6.26030683517456050000e-001) (4, -3.49857062101364140000e-001) (5, 3.93906831741333010000e-001) (6, 1.07924675103276970000e-003) (7, 3.10810595750808720000e-001) (8, -4.32909071445465090000e-001) (9, 7.13226377964019780000e-001) (10, -2.81269758939743040000e-001) (11, 3.01490515470504760000e-001) (12, -2.19877675175666810000e-001) (13, 4.70972448587417600000e-001) (14, -3.37482869625091550000e-001) (15, 4.76731449365615840000e-001) (16, -1.11715935170650480000e-001) (17, 1.18143074214458470000e-001) (18, -1.66077598929405210000e-001) (19, -7.68467336893081670000e-002) (20, 1.10628537833690640000e-001) (21, -1.22371733188629150000e-001) (22, -1.06524489820003510000e-001) (23, 4.57871347665786740000e-001) (24, -5.79029358923435210000e-002) (25, 4.72728312015533450000e-002) (26, -1.57212525606155400000e-001) (27, 9.78098139166831970000e-002) (28, 4.35856282711029050000e-002) (29, -1.50572657585144040000e-001) (30, -4.31928671896457670000e-002) (31, -1.93960011005401610000e-001) (32, -3.55486690998077390000e-001) (33, -2.94742554426193240000e-001) (34, 1.15554980933666230000e-001) (35, 5.03579415380954740000e-002) (36, 3.32966238260269170000e-001) (37, -2.66631301492452620000e-002) (38, 1.81568726897239690000e-001) (39, -3.25449764728546140000e-001) (40, -8.56343060731887820000e-002) (41, -2.38229304552078250000e-001) (42, -1.41340512782335280000e-002) (43, 3.39831858873367310000e-001) (44, 1.84651076793670650000e-001) (45, 1.25439599156379700000e-001) (46, -2.84331232309341430000e-001) (47, -9.01392221450805660000e-001) (48, -3.85452993214130400000e-002) (49, -3.60821038484573360000e-001) (50, 3.95512878894805910000e-001) (51, 5.76744854450225830000e-001) (52, 1.29911676049232480000e-001) (53, -2.35433578491210940000e-002) (54, 4.04824055731296540000e-002) (55, 8.30622985959053040000e-002) (56, 1.67846292257308960000e-001) (57, 7.37809762358665470000e-003) (58, 6.20351992547512050000e-002) (59, 8.46113264560699460000e-003) (60, -4.62985128164291380000e-001) (61, -9.98173236846923830000e-001) (62, 1.42070844769477840000e-001) (63, -1.39854401350021360000e-001) (64, 1.12916851043701170000e+000) (65, 4.80174750089645390000e-001) (66, -6.16059079766273500000e-002) (67, -2.92261242866516110000e-001) (68, -1.54780924320220950000e-001) (69, -5.03385346382856370000e-003) (70, 1.71350747346878050000e-001) (71, 2.46035769581794740000e-001) (72, 3.01530808210372920000e-001) (73, 6.14884346723556520000e-002) (74, -4.82185930013656620000e-001) (75, -5.34694790840148930000e-001) (76, 1.45104303956031800000e-001) (77, -6.65617361664772030000e-002) (78, 1.06081128120422360000e+000) (79, 3.36566299200057980000e-001) (80, -1.14149972796440120000e-001) (81, -3.59725713729858400000e-001) (82, -1.05553753674030300000e-001) (83, -4.01152849197387700000e-001) (84, 9.99351665377616880000e-002) (0, 2.14054509997367860000e-002) (1, 1.80551201105117800000e-001) (2, 2.54651099443435670000e-001) (3, -1.65209949016571040000e-001) (4, 9.53790321946144100000e-002) (5, 1.00097209215164180000e-001) (6, 1.39831990003585820000e-001) (7, -1.07834108173847200000e-001) (8, 9.16374400258064270000e-002) (9, 1.52347728610038760000e-001) (10, 2.47823268175125120000e-001) (11, -2.39676848053932190000e-001) (12, -3.72660090215504170000e-003) (13, 1.79211311042308810000e-002) (14, -1.47529048845171930000e-002) (15, 9.14841592311859130000e-002) (16, -2.51945070922374730000e-002) (17, -3.15109863877296450000e-002) (18, -9.40316468477249150000e-002) (19, 6.85065984725952150000e-002) (20, -5.66135495901107790000e-002) (21, -1.88094079494476320000e-001) (22, -7.29243978857994080000e-002) (23, 6.44459873437881470000e-002) (24, -4.89069074392318730000e-002) (25, -8.25728625059127810000e-002) (26, -1.34220436215400700000e-001) (27, 3.82357314229011540000e-002) (28, -1.37093737721443180000e-001) (29, 9.74540486931800840000e-002) (30, 1.32305353879928590000e-001) (31, 1.80597543716430660000e-001) (32, 6.96050599217414860000e-002) (33, 1.34699925780296330000e-001) (34, -1.84181734919548030000e-001) (35, -7.88864865899086000000e-002) (36, -5.73856793344020840000e-002) (37, 5.52212893962860110000e-002) (38, 6.98964446783065800000e-002) (39, 1.33778512477874760000e-001) (40, -1.76861673593521120000e-001) (41, 2.59607452899217610000e-002) (42, 7.05300867557525630000e-002) (43, 1.41957417130470280000e-001) (44, -1.38545349240303040000e-001) (45, -2.61656492948532100000e-002) (46, -1.11818984150886540000e-001) (47, 2.87240985780954360000e-002) (48, 8.13440978527069090000e-002) (49, 1.72616869211196900000e-001) (50, -1.82442396879196170000e-001) (51, -3.74280251562595370000e-002) (52, -1.68264359235763550000e-001) (53, -7.79232708737254140000e-003) (54, -7.25262388586997990000e-002) (55, 1.06488011777400970000e-001) (56, -8.03865119814872740000e-003) (57, -2.45263203978538510000e-002) (58, 8.16750079393386840000e-002) (59, 1.03517651557922360000e-001) (60, 1.89561679959297180000e-001) (61, 6.95528090000152590000e-002) (62, 2.70487600937485690000e-003) (63, -5.35652823746204380000e-002) (64, 7.27804973721504210000e-002) (65, 1.44484248012304310000e-002) (66, -3.90329062938690190000e-002) (67, 1.90695039927959440000e-002) (68, -5.50854466855525970000e-002) (69, -8.11309665441513060000e-002) (70, 1.07010245323181150000e-001) (71, 1.29529222846031190000e-001) (72, -3.68840224109590050000e-003) (73, -2.41884496062994000000e-003) (74, -5.03081567585468290000e-002) (75, -5.25192804634571080000e-002) (76, 5.26024289429187770000e-002) (77, 1.29374638199806210000e-001) (78, -6.95003271102905270000e-002) (79, -9.76528525352478030000e-002) (80, -9.32681858539581300000e-002) (81, -8.11722204089164730000e-002) (82, -5.27383163571357730000e-002) (83, -1.09693184494972230000e-002) (84, 1.44907627254724500000e-002) (0, -4.20066833496093750000e-001) (1, 3.98592829704284670000e-001) (2, 5.19886948168277740000e-002) (3, -2.99064308404922490000e-001) (4, -5.44874854385852810000e-002) (5, -5.60177341103553770000e-002) (6, -1.60051971673965450000e-001) (7, 9.03182476758956910000e-002) (8, -3.65391373634338380000e-002) (9, -1.22007690370082860000e-001) (10, 4.15674373507499690000e-002) (11, -2.94195801019668580000e-001) (12, -5.03367304801940920000e-001) (13, 3.76322597265243530000e-001) (14, -3.39291930198669430000e-001) (15, 1.55324473977088930000e-001) (16, 9.77184176445007320000e-002) (17, 1.79243803024291990000e-001) (18, 1.40680059790611270000e-001) (19, -1.11372306942939760000e-001) (20, 4.45762090384960170000e-002) (21, 1.41718745231628420000e-001) (22, 1.72817736864089970000e-001) (23, -9.07900780439376830000e-002) (24, 5.41533939540386200000e-002) (25, 1.65103837847709660000e-001) (26, -4.61381942033767700000e-001) (27, 1.58234819769859310000e-001) (28, -1.70358717441558840000e-001) (29, 2.60457426309585570000e-001) (30, -8.10146182775497440000e-002) (31, 1.38629795983433720000e-002) (32, -7.80240073800086980000e-002) (33, -1.58420547842979430000e-001) (34, -8.63220095634460450000e-002) (35, -1.09956510365009310000e-001) (36, -9.93830524384975430000e-003) (37, -1.86851114034652710000e-001) (38, -1.17865987122058870000e-001) (39, -3.36488895118236540000e-002) (40, -1.86237156391143800000e-001) (41, 2.01681077480316160000e-001) (42, -6.24848678708076480000e-002) (43, 1.26246064901351930000e-001) (44, -1.04774706065654750000e-001) (45, 4.13418784737586980000e-002) (46, 1.13322392106056210000e-001) (47, 8.85327626019716260000e-003) (48, -8.94043371081352230000e-002) (49, -8.95885005593299870000e-002) (50, 5.09933456778526310000e-002) (51, -1.69198447838425640000e-003) (52, -1.21091485023498540000e-001) (53, 1.17374099791049960000e-002) (54, -2.27212365716695790000e-002) (55, 6.57521933317184450000e-002) (56, -1.15075960755348210000e-001) (57, 1.55349578708410260000e-002) (58, 4.38900068402290340000e-002) (59, 1.75285056233406070000e-001) (60, 5.88427968323230740000e-002) (61, 2.82300692051649090000e-002) (62, 2.93036904186010360000e-002) (63, 1.30147635936737060000e-001) (64, 4.30486947298049930000e-002) (65, -8.23279246687889100000e-002) (66, 2.66666673123836520000e-002) (67, 9.19978246092796330000e-002) (68, -1.95382371544837950000e-001) (69, 2.45516430586576460000e-002) (70, -3.41261103749275210000e-002) (71, 1.24190799891948700000e-001) (72, -4.69222217798233030000e-002) (73, 4.41564843058586120000e-002) (74, 1.54636392835527660000e-003) (75, 6.46773353219032290000e-002) (76, -4.01148460805416110000e-002) (77, -8.33442360162734990000e-002) (78, -3.57419922947883610000e-002) (79, -5.24452216923236850000e-002) (80, -6.10448271036148070000e-002) (81, -5.70858642458915710000e-003) (82, 1.01129608228802680000e-002) (83, 6.98829740285873410000e-002) (84, 5.37353269755840300000e-002) (0, -6.94897845387458800000e-002) (1, -4.90861907601356510000e-002) (2, -3.88744711875915530000e-001) (3, 3.18257570266723630000e-001) (4, -1.28176182508468630000e-001) (5, 4.42523322999477390000e-002) (6, -3.10322374105453490000e-001) (7, 1.03393167257308960000e-001) (8, -1.31299793720245360000e-001) (9, 4.08982746303081510000e-002) (10, -3.08207184076309200000e-001) (11, 3.33214372396469120000e-001) (12, -7.82733410596847530000e-002) (13, -1.61340281367301940000e-001) (14, 8.30304324626922610000e-002) (15, 2.18434229493141170000e-001) (16, 5.79627007246017460000e-002) (17, -1.25323861837387080000e-001) (18, -1.09937764704227450000e-001) (19, 1.99834018945693970000e-001) (20, 2.14951947331428530000e-001) (21, 1.80881395936012270000e-001) (22, -1.37324377894401550000e-001) (23, 1.79630190134048460000e-001) (24, 1.50875851511955260000e-001) (25, -7.00971707701683040000e-002) (26, 8.67165029048919680000e-002) (27, 2.58561342954635620000e-001) (28, -1.90916016697883610000e-001) (29, 2.19875782728195190000e-001) (30, -1.20340026915073390000e-001) (31, -1.45000442862510680000e-001) (32, -3.55625122785568240000e-001) (33, 1.06434158980846410000e-001) (34, -2.43510887026786800000e-001) (35, -2.59265244007110600000e-001) (36, -2.84227550029754640000e-001) (37, 1.64522856473922730000e-001) (38, -7.77089223265647890000e-002) (39, -1.05455256998538970000e-001) (40, -1.11029230058193210000e-001) (41, 2.15400770306587220000e-001) (42, -2.51905709505081180000e-001) (43, -6.01235069334506990000e-002) (44, 1.52039587497711180000e-001) (45, 5.38406185805797580000e-002) (46, -3.91671657562255860000e-002) (47, 1.68755471706390380000e-001) (48, 5.77347651124000550000e-002) (49, 1.17670103907585140000e-001) (50, -5.43833849951624870000e-003) (51, 2.34922856092453000000e-001) (52, 2.01726421713829040000e-001) (53, 3.58705706894397740000e-002) (54, -1.63854345679283140000e-001) (55, -4.07728403806686400000e-002) (56, 4.47734929621219640000e-002) (57, -2.15588465332984920000e-001) (58, -1.22098341584205630000e-001) (59, 