FANN_FLO_2.1
num_layers=3
learning_rate=0.100000
connection_rate=1.000000
network_type=0
learning_momentum=0.000000
training_algorithm=2
train_error_function=1
train_stop_function=0
cascade_output_change_fraction=0.010000
quickprop_decay=-0.000100
quickprop_mu=1.750000
rprop_increase_factor=1.200000
rprop_decrease_factor=0.500000
rprop_delta_min=0.000000
rprop_delta_max=50.000000
rprop_delta_zero=0.100000
cascade_output_stagnation_epochs=12
cascade_candidate_change_fraction=0.010000
cascade_candidate_stagnation_epochs=12
cascade_max_out_epochs=150
cascade_min_out_epochs=50
cascade_max_cand_epochs=150
cascade_min_cand_epochs=50
cascade_num_candidate_groups=2
bit_fail_limit=3.49999994039535520000e-001
cascade_candidate_limit=1.00000000000000000000e+003
cascade_weight_multiplier=4.00000005960464480000e-001
cascade_activation_functions_count=10
cascade_activation_functions=3 5 7 8 10 11 14 15 16 17 
cascade_activation_steepnesses_count=4
cascade_activation_steepnesses=2.50000000000000000000e-001 5.00000000000000000000e-001 7.50000000000000000000e-001 1.00000000000000000000e+000 
layer_sizes=85 31 2 
scale_included=0
neurons (num_inputs, activation_function, activation_steepness)=(0, 0, 0.00000000000000000000e+000) (0, 0, 0.00000000000000000000e+000) (0, 0, 0.00000000000000000000e+000) (0, 0, 0.00000000000000000000e+000) (0, 0, 0.00000000000000000000e+000) (0, 0, 0.00000000000000000000e+000) (0, 0, 0.00000000000000000000e+000) (0, 0, 0.00000000000000000000e+000) (0, 0, 0.00000000000000000000e+000) (0, 0, 0.00000000000000000000e+000) (0, 0, 0.00000000000000000000e+000) (0, 0, 0.00000000000000000000e+000) (0, 0, 0.00000000000000000000e+000) (0, 0, 0.00000000000000000000e+000) (0, 0, 0.00000000000000000000e+000) (0, 0, 0.00000000000000000000e+000) (0, 0, 0.00000000000000000000e+000) (0, 0, 0.00000000000000000000e+000) (0, 0, 0.00000000000000000000e+000) (0, 0, 0.00000000000000000000e+000) (0, 0, 0.00000000000000000000e+000) (0, 0, 0.00000000000000000000e+000) (0, 0, 0.00000000000000000000e+000) (0, 0, 0.00000000000000000000e+000) (0, 0, 0.00000000000000000000e+000) (0, 0, 0.00000000000000000000e+000) (0, 0, 0.00000000000000000000e+000) (0, 0, 0.00000000000000000000e+000) (0, 0, 0.00000000000000000000e+000) (0, 0, 0.00000000000000000000e+000) (0, 0, 0.00000000000000000000e+000) (0, 0, 0.00000000000000000000e+000) (0, 0, 0.00000000000000000000e+000) (0, 0, 0.00000000000000000000e+000) (0, 0, 0.00000000000000000000e+000) (0, 0, 0.00000000000000000000e+000) (0, 0, 0.00000000000000000000e+000) (0, 0, 0.00000000000000000000e+000) (0, 0, 0.00000000000000000000e+000) (0, 0, 0.00000000000000000000e+000) (0, 0, 0.00000000000000000000e+000) (0, 0, 0.00000000000000000000e+000) (0, 0, 0.00000000000000000000e+000) (0, 0, 0.00000000000000000000e+000) (0, 0, 0.00000000000000000000e+000) (0, 0, 0.00000000000000000000e+000) (0, 0, 0.00000000000000000000e+000) (0, 0, 0.00000000000000000000e+000) (0, 0, 0.00000000000000000000e+000) (0, 0, 0.00000000000000000000e+000) (0, 0, 0.00000000000000000000e+000) (0, 0, 0.00000000000000000000e+000) (0, 0, 0.00000000000000000000e+000) (0, 0, 0.00000000000000000000e+000) (0, 0, 0.00000000000000000000e+000) (0, 0, 0.00000000000000000000e+000) (0, 0, 0.00000000000000000000e+000) (0, 0, 0.00000000000000000000e+000) (0, 0, 0.00000000000000000000e+000) (0, 0, 0.00000000000000000000e+000) (0, 0, 0.00000000000000000000e+000) (0, 0, 0.00000000000000000000e+000) (0, 0, 0.00000000000000000000e+000) (0, 0, 0.00000000000000000000e+000) (0, 0, 0.00000000000000000000e+000) (0, 0, 0.00000000000000000000e+000) (0, 0, 0.00000000000000000000e+000) (0, 0, 0.00000000000000000000e+000) (0, 0, 0.00000000000000000000e+000) (0, 0, 0.00000000000000000000e+000) (0, 0, 0.00000000000000000000e+000) (0, 0, 0.00000000000000000000e+000) (0, 0, 0.00000000000000000000e+000) (0, 0, 0.00000000000000000000e+000) (0, 0, 0.00000000000000000000e+000) (0, 0, 0.00000000000000000000e+000) (0, 0, 0.00000000000000000000e+000) (0, 0, 0.00000000000000000000e+000) (0, 0, 0.00000000000000000000e+000) (0, 0, 0.00000000000000000000e+000) (0, 0, 0.00000000000000000000e+000) (0, 0, 0.00000000000000000000e+000) (0, 0, 0.00000000000000000000e+000) (0, 0, 0.00000000000000000000e+000) (0, 0, 0.00000000000000000000e+000) (85, 6, 1.00000000000000000000e+000) (85, 6, 1.00000000000000000000e+000) (85, 6, 1.00000000000000000000e+000) (85, 6, 1.00000000000000000000e+000) (85, 6, 1.00000000000000000000e+000) (85, 6, 1.00000000000000000000e+000) (85, 6, 1.00000000000000000000e+000) (85, 6, 1.00000000000000000000e+000) (85, 6, 1.00000000000000000000e+000) (85, 6, 1.00000000000000000000e+000) (85, 6, 1.00000000000000000000e+000) (85, 6, 1.00000000000000000000e+000) (85, 6, 1.00000000000000000000e+000) (85, 6, 1.00000000000000000000e+000) (85, 6, 1.00000000000000000000e+000) (85, 6, 1.00000000000000000000e+000) (85, 6, 1.00000000000000000000e+000) (85, 6, 1.00000000000000000000e+000) (85, 6, 1.00000000000000000000e+000) (85, 6, 1.00000000000000000000e+000) (85, 6, 1.00000000000000000000e+000) (85, 6, 1.00000000000000000000e+000) (85, 6, 1.00000000000000000000e+000) (85, 6, 1.00000000000000000000e+000) (85, 6, 1.00000000000000000000e+000) (85, 6, 1.00000000000000000000e+000) (85, 6, 1.00000000000000000000e+000) (85, 6, 1.00000000000000000000e+000) (85, 6, 1.00000000000000000000e+000) (85, 6, 1.00000000000000000000e+000) (0, 6, 1.00000000000000000000e+000) (31, 6, 1.00000000000000000000e+000) (0, 6, 1.00000000000000000000e+000) 
connections (connected_to_neuron, weight)=(0, 1.50000000000000000000e+003) (1, 1.50000000000000000000e+003) (2, 1.50000000000000000000e+003) (3, 1.50000000000000000000e+003) (4, 1.50000000000000000000e+003) (5, 1.50000000000000000000e+003) (6, 1.50000000000000000000e+003) (7, 1.50000000000000000000e+003) (8, 1.50000000000000000000e+003) (9, 1.50000000000000000000e+003) (10, 1.50000000000000000000e+003) (11, 1.50000000000000000000e+003) (12, 1.50000000000000000000e+003) (13, 1.50000000000000000000e+003) (14, 1.50000000000000000000e+003) (15, 1.50000000000000000000e+003) (16, 1.50000000000000000000e+003) (17, 1.50000000000000000000e+003) (18, 1.50000000000000000000e+003) (19, 1.50000000000000000000e+003) (20, 1.50000000000000000000e+003) (21, 1.50000000000000000000e+003) (22, 1.50000000000000000000e+003) (23, 1.50000000000000000000e+003) (24, 1.50000000000000000000e+003) (25, 1.50000000000000000000e+003) (26, 1.50000000000000000000e+003) (27, 1.50000000000000000000e+003) (28, 1.50000000000000000000e+003) (29, 1.50000000000000000000e+003) (30, 1.50000000000000000000e+003) (31, -9.09199951171875000000e+002) (32, 1.50000000000000000000e+003) (33, 1.50000000000000000000e+003) (34, 1.50000000000000000000e+003) (35, 1.50000000000000000000e+003) (36, 1.06944360351562500000e+003) (37, -1.07898231506347660000e+002) (38, 1.50000000000000000000e+003) (39, 1.50000000000000000000e+003) (40, -9.09199951171875000000e+002) (41, 1.32250048828125000000e+003) (42, 1.50000000000000000000e+003) (43, 1.50000000000000000000e+003) (44, 7.96104919433593750000e+002) (45, 1.19481457519531250000e+003) (46, 1.50000000000000000000e+003) (47, 1.50000000000000000000e+003) (48, 1.50000000000000000000e+003) (49, 1.50000000000000000000e+003) (50, -7.96206817626953120000e+001) (51, 1.02188366699218750000e+003) (52, 1.50000000000000000000e+003) (53, 1.50000000000000000000e+003) (54, -1.07898231506347660000e+002) (55, -1.15366737365722660000e+002) (56, 1.38450158691406250000e+003) (57, -1.15767590332031250000e+003) (58, 7.96104919433593750000e+002) (59, 1.19689660644531250000e+003) (60, 1.50000000000000000000e+003) (61, 1.50000000000000000000e+003) (62, 1.50000000000000000000e+003) (63, 1.50000000000000000000e+003) (64, 1.36967211914062500000e+003) (65, -2.55953979492187500000e+002) (66, 1.50000000000000000000e+003) (67, 1.50000000000000000000e+003) (68, 1.22980308532714840000e+002) (69, 1.49996362304687500000e+003) (70, 1.37981164550781250000e+003) (71, -4.64537750244140620000e+002) (72, 2.91787910461425780000e+000) (73, 6.18762145996093750000e+002) (74, 1.47751147460937500000e+003) (75, -1.19356909179687500000e+003) (76, 1.49914501953125000000e+003) (77, -2.06876861572265620000e+002) (78, 1.49268493652343750000e+003) (79, -1.24687951660156250000e+003) (80, 7.69802185058593750000e+002) (81, 8.96971557617187500000e+002) (82, 1.42359387207031250000e+003) (83, 1.40424377441406250000e+003) (84, 3.71871411800384520000e-001) (0, 1.50000000000000000000e+003) (1, 1.50000000000000000000e+003) (2, 1.50000000000000000000e+003) (3, 1.50000000000000000000e+003) (4, 1.50000000000000000000e+003) (5, 1.50000000000000000000e+003) (6, 1.50000000000000000000e+003) (7, 1.50000000000000000000e+003) (8, 1.50000000000000000000e+003) (9, 1.50000000000000000000e+003) (10, 1.50000000000000000000e+003) (11, 1.50000000000000000000e+003) (12, 1.50000000000000000000e+003) (13, 1.50000000000000000000e+003) (14, 1.50000000000000000000e+003) (15, 1.50000000000000000000e+003) (16, 1.50000000000000000000e+003) (17, 1.50000000000000000000e+003) (18, 1.50000000000000000000e+003) (19, 1.50000000000000000000e+003) (20, 1.50000000000000000000e+003) (21, 1.50000000000000000000e+003) (22, 1.50000000000000000000e+003) (23, 1.50000000000000000000e+003) (24, 1.50000000000000000000e+003) (25, 1.50000000000000000000e+003) (26, 1.50000000000000000000e+003) (27, 1.50000000000000000000e+003) (28, 1.50000000000000000000e+003) (29, 1.50000000000000000000e+003) (30, 1.50000000000000000000e+003) (31, 1.50000000000000000000e+003) (32, 1.50000000000000000000e+003) (33, 1.50000000000000000000e+003) (34, 1.50000000000000000000e+003) (35, 1.50000000000000000000e+003) (36, -4.38649932861328130000e+002) (37, 1.40176733398437500000e+003) (38, 1.50000000000000000000e+003) (39, 1.50000000000000000000e+003) (40, 1.50000000000000000000e+003) (41, -6.22346679687500000000e+002) (42, 1.50000000000000000000e+003) (43, 1.50000000000000000000e+003) (44, -1.47278491210937500000e+003) (45, 1.41290539550781250000e+003) (46, 1.50000000000000000000e+003) (47, 1.50000000000000000000e+003) (48, 1.50000000000000000000e+003) (49, 1.50000000000000000000e+003) (50, -2.07943084716796870000e+002) (51, 1.39927209472656250000e+003) (52, 1.50000000000000000000e+003) (53, 1.50000000000000000000e+003) (54, 1.50000000000000000000e+003) (55, -1.47278491210937500000e+003) (56, 7.09276000976562500000e+002) (57, 1.10532250976562500000e+003) (58, -1.22785087585449220000e+002) (59, 1.50000000000000000000e+003) (60, 1.50000000000000000000e+003) (61, 1.50000000000000000000e+003) (62, 1.50000000000000000000e+003) (63, 1.50000000000000000000e+003) (64, 9.58048828125000000000e+002) (65, -9.30111450195312500000e+002) (66, 1.50000000000000000000e+003) (67, 1.50000000000000000000e+003) (68, 5.60192504882812500000e+002) (69, 8.31604553222656250000e+002) (70, -4.78603485107421870000e+002) (71, 1.04793005371093750000e+003) (72, 5.60109519958496090000e+001) (73, 3.73514205217361450000e-001) (74, 9.28980773925781250000e+002) (75, 1.44480273437500000000e+003) (76, 7.37438476562500000000e+002) (77, 5.11766693115234370000e+002) (78, -7.81211181640625000000e+002) (79, 1.50000000000000000000e+003) (80, 1.41290539550781250000e+003) (81, -4.99383789062500000000e+002) (82, 2.64212310791015630000e+002) (83, 1.02481933593750000000e+003) (84, 5.04146099090576170000e-001) (0, 1.50000000000000000000e+003) (1, 1.50000000000000000000e+003) (2, 1.50000000000000000000e+003) (3, 1.50000000000000000000e+003) (4, 1.50000000000000000000e+003) (5, 1.50000000000000000000e+003) (6, 1.50000000000000000000e+003) (7, 1.50000000000000000000e+003) (8, 1.50000000000000000000e+003) (9, 1.50000000000000000000e+003) (10, 1.50000000000000000000e+003) (11, 1.50000000000000000000e+003) (12, 1.50000000000000000000e+003) (13, 1.50000000000000000000e+003) (14, 1.50000000000000000000e+003) (15, 1.50000000000000000000e+003) (16, 1.50000000000000000000e+003) (17, 1.50000000000000000000e+003) (18, 1.50000000000000000000e+003) (19, 1.50000000000000000000e+003) (20, 1.50000000000000000000e+003) (21, 1.50000000000000000000e+003) (22, 1.50000000000000000000e+003) (23, 1.50000000000000000000e+003) (24, 1.50000000000000000000e+003) (25, 1.50000000000000000000e+003) (26, 1.50000000000000000000e+003) (27, 1.50000000000000000000e+003) (28, 1.50000000000000000000e+003) (29, 1.50000000000000000000e+003) (30, 1.50000000000000000000e+003) (31, 1.50000000000000000000e+003) (32, 1.50000000000000000000e+003) (33, 1.50000000000000000000e+003) (34, 1.50000000000000000000e+003) (35, 1.50000000000000000000e+003) (36, -4.38649932861328130000e+002) (37, 1.50000000000000000000e+003) (38, 1.50000000000000000000e+003) (39, 1.50000000000000000000e+003) (40, 1.50000000000000000000e+003) (41, -6.22346679687500000000e+002) (42, 1.50000000000000000000e+003) (43, 1.50000000000000000000e+003) (44, -1.22785087585449220000e+002) (45, 1.41290539550781250000e+003) (46, 1.50000000000000000000e+003) (47, 1.50000000000000000000e+003) (48, 1.50000000000000000000e+003) (49, 1.50000000000000000000e+003) (50, -1.48188684082031250000e+003) (51, 1.50000000000000000000e+003) (52, 1.50000000000000000000e+003) (53, 1.50000000000000000000e+003) (54, 1.50000000000000000000e+003) (55, -1.02808813476562500000e+003) (56, 1.50000000000000000000e+003) (57, -9.81791687011718750000e+000) (58, -1.22785087585449220000e+002) (59, 1.50000000000000000000e+003) (60, 1.50000000000000000000e+003) (61, 1.50000000000000000000e+003) (62, 1.50000000000000000000e+003) (63, 1.45236657714843750000e+003) (64, 1.50000000000000000000e+003) (65, -1.43136193847656250000e+003) (66, 1.50000000000000000000e+003) (67, 1.50000000000000000000e+003) (68, 1.50000000000000000000e+003) (69, -1.08995263671875000000e+003) (70, 1.47312145996093750000e+003) (71, 6.82801696777343750000e+002) (72, 2.67553672790527340000e+001) (73, -7.08031921386718750000e+002) (74, 1.09905505371093750000e+003) (75, 1.48717883300781250000e+003) (76, 7.31388732910156250000e+002) (77, 1.44588745117187500000e+002) (78, 8.64787719726562500000e+002) (79, -8.61048583984375000000e+002) (80, 9.97199340820312500000e+002) (81, 1.90368392944335940000e+002) (82, -8.96792968750000000000e+002) (83, 6.00360229492187500000e+002) (84, -5.00343441963195800000e-002) (0, 1.50000000000000000000e+003) (1, 1.50000000000000000000e+003) (2, 1.50000000000000000000e+003) (3, 1.50000000000000000000e+003) (4, 1.50000000000000000000e+003) (5, 1.50000000000000000000e+003) (6, 1.50000000000000000000e+003) (7, 1.50000000000000000000e+003) (8, 1.50000000000000000000e+003) (9, 1.50000000000000000000e+003) (10, 1.50000000000000000000e+003) (11, 1.50000000000000000000e+003) (12, 1.50000000000000000000e+003) (13, 1.50000000000000000000e+003) (14, 1.50000000000000000000e+003) (15, 1.50000000000000000000e+003) (16, 1.50000000000000000000e+003) (17, 1.50000000000000000000e+003) (18, 1.50000000000000000000e+003) (19, 1.50000000000000000000e+003) (20, 1.50000000000000000000e+003) (21, 1.50000000000000000000e+003) (22, 1.50000000000000000000e+003) (23, 1.50000000000000000000e+003) (24, 1.50000000000000000000e+003) (25, 1.50000000000000000000e+003) (26, 1.50000000000000000000e+003) (27, 1.50000000000000000000e+003) (28, 1.50000000000000000000e+003) (29, 1.50000000000000000000e+003) (30, 1.50000000000000000000e+003) (31, 1.50000000000000000000e+003) (32, 1.50000000000000000000e+003) (33, 1.50000000000000000000e+003) (34, 1.50000000000000000000e+003) (35, 1.50000000000000000000e+003) (36, -4.38649932861328130000e+002) (37, 1.50000000000000000000e+003) (38, 1.50000000000000000000e+003) (39, 1.50000000000000000000e+003) (40, 1.50000000000000000000e+003) (41, -6.22346679687500000000e+002) (42, 1.50000000000000000000e+003) (43, 1.50000000000000000000e+003) (44, -2.70670135498046870000e+002) (45, 1.41290539550781250000e+003) (46, 1.50000000000000000000e+003) (47, 1.50000000000000000000e+003) (48, 1.50000000000000000000e+003) (49, 1.50000000000000000000e+003) (50, 6.14093444824218750000e+002) (51, 9.87497558593750000000e+002) (52, 1.50000000000000000000e+003) (53, 1.50000000000000000000e+003) (54, 1.50000000000000000000e+003) (55, -1.47455541992187500000e+003) (56, 7.66560058593750000000e+002) (57, -5.34478942871093750000e+002) (58, -1.24555450439453120000e+002) (59, 1.50000000000000000000e+003) (60, 1.50000000000000000000e+003) (61, 1.50000000000000000000e+003) (62, 1.50000000000000000000e+003) (63, 1.50000000000000000000e+003) (64, 9.00015075683593750000e+002) (65, 9.78450073242187500000e+002) (66, 1.50000000000000000000e+003) (67, 1.50000000000000000000e+003) (68, 1.72673202514648440000e+002) (69, 9.13469848632812500000e+002) (70, -1.15040161132812500000e+003) (71, 9.12384094238281250000e+002) (72, -2.79702663421630860000e+001) (73, 1.20027880859375000000e+003) (74, 1.48015551757812500000e+003) (75, -1.31107043457031250000e+003) (76, 1.49399633789062500000e+003) (77, -1.16746109008789060000e+002) (78, -4.93094360351562500000e+002) (79, 1.41047766113281250000e+003) (80, 1.41290539550781250000e+003) (81, -5.13214782714843750000e+002) (82, 9.00772888183593750000e+002) (83, 1.02481933593750000000e+003) (84, 5.79756200313568120000e-001) (0, 1.50000000000000000000e+003) (1, 1.50000000000000000000e+003) (2, 1.50000000000000000000e+003) (3, 1.50000000000000000000e+003) (4, 1.50000000000000000000e+003) (5, 1.50000000000000000000e+003) (6, 1.50000000000000000000e+003) (7, 1.50000000000000000000e+003) (8, 1.50000000000000000000e+003) (9, 1.50000000000000000000e+003) (10, 1.50000000000000000000e+003) (11, 1.50000000000000000000e+003) (12, 1.50000000000000000000e+003) (13, 1.50000000000000000000e+003) (14, 1.50000000000000000000e+003) (15, 1.50000000000000000000e+003) (16, 1.50000000000000000000e+003) (17, 1.50000000000000000000e+003) (18, 1.50000000000000000000e+003) (19, 1.50000000000000000000e+003) (20, 1.50000000000000000000e+003) (21, 1.50000000000000000000e+003) (22, 1.50000000000000000000e+003) (23, 1.50000000000000000000e+003) (24, 1.50000000000000000000e+003) (25, 1.50000000000000000000e+003) (26, 1.50000000000000000000e+003) (27, 1.50000000000000000000e+003) (28, 1.50000000000000000000e+003) (29, 1.50000000000000000000e+003) (30, 1.50000000000000000000e+003) (31, -1.50000000000000000000e+003) (32, 1.50000000000000000000e+003) (33, 1.50000000000000000000e+003) (34, 1.50000000000000000000e+003) (35, 1.50000000000000000000e+003) (36, 1.49775366210937500000e+003) (37, -1.49069824218750000000e+003) (38, 1.50000000000000000000e+003) (39, 1.50000000000000000000e+003) (40, -1.50000000000000000000e+003) (41, 1.49775366210937500000e+003) (42, 1.50000000000000000000e+003) (43, 1.50000000000000000000e+003) (44, 8.59453308105468750000e+002) (45, 3.44814849853515620000e+002) (46, 1.50000000000000000000e+003) (47, 1.50000000000000000000e+003) (48, 1.50000000000000000000e+003) (49, 1.50000000000000000000e+003) (50, 1.49982531738281250000e+003) (51, -1.70477523803710940000e+002) (52, 1.50000000000000000000e+003) (53, 1.50000000000000000000e+003) (54, -9.57898193359375000000e+002) (55, -2.11091171264648440000e+002) (56, 1.87987197875976560000e+002) (57, 1.49993029785156250000e+003) (58, 1.49992724609375000000e+003) (59, -4.03073547363281250000e+002) (60, 1.50000000000000000000e+003) (61, 1.50000000000000000000e+003) (62, 1.50000000000000000000e+003) (63, 1.50000000000000000000e+003) (64, -4.51834442138671870000e+002) (65, -2.91599182128906250000e+002) (66, 1.50000000000000000000e+003) (67, 1.50000000000000000000e+003) (68, -8.08670593261718750000e+002) (69, 1.49996362304687500000e+003) (70, 2.87588928222656250000e+002) (71, 1.49742419433593750000e+003) (72, 3.77462158203125000000e+001) (73, 7.72741210937500000000e+002) (74, 5.44814514160156250000e+002) (75, 1.46450646972656250000e+003) (76, 7.39198669433593750000e+002) (77, 1.87001998901367190000e+002) (78, -8.96110778808593750000e+002) (79, 1.36313635253906250000e+003) (80, 4.85918457031250000000e+002) (81, -3.87638854980468750000e+002) (82, 1.42919799804687500000e+003) (83, 6.62641967773437500000e+002) (84, -1.17356598377227780000e+000) (0, 1.50000000000000000000e+003) (1, 1.50000000000000000000e+003) (2, 1.50000000000000000000e+003) (3, 1.50000000000000000000e+003) (4, 1.50000000000000000000e+003) (5, 1.50000000000000000000e+003) (6, 1.50000000000000000000e+003) (7, 1.50000000000000000000e+003) (8, 1.50000000000000000000e+003) (9, 1.50000000000000000000e+003) (10, 1.50000000000000000000e+003) (11, 1.50000000000000000000e+003) (12, 1.50000000000000000000e+003) (13, 1.50000000000000000000e+003) (14, 1.50000000000000000000e+003) (15, 1.50000000000000000000e+003) (16, 1.50000000000000000000e+003) (17, 1.50000000000000000000e+003) (18, 1.50000000000000000000e+003) (19, 1.50000000000000000000e+003) (20, 1.50000000000000000000e+003) (21, 1.50000000000000000000e+003) (22, 1.50000000000000000000e+003) (23, 1.50000000000000000000e+003) (24, 1.50000000000000000000e+003) (25, 1.50000000000000000000e+003) (26, 1.50000000000000000000e+003) (27, 1.50000000000000000000e+003) (28, 1.50000000000000000000e+003) (29, 1.50000000000000000000e+003) (30, 1.50000000000000000000e+003) (31, 1.50000000000000000000e+003) (32, 1.50000000000000000000e+003) (33, 1.50000000000000000000e+003) (34, 1.50000000000000000000e+003) (35, 1.50000000000000000000e+003) (36, -1.05211059570312500000e+003) (37, 1.50000000000000000000e+003) (38, 1.50000000000000000000e+003) (39, 1.50000000000000000000e+003) (40, 1.50000000000000000000e+003) (41, 7.68453369140625000000e+002) (42, 1.50000000000000000000e+003) (43, 1.50000000000000000000e+003) (44, 1.26801513671875000000e+003) (45, 6.72105529785156250000e+002) (46, 1.50000000000000000000e+003) (47, 1.50000000000000000000e+003) (48, 1.50000000000000000000e+003) (49, 1.50000000000000000000e+003) (50, 1.26624462890625000000e+003) (51, 3.19756103515625000000e+002) (52, 1.50000000000000000000e+003) (53, 1.50000000000000000000e+003) (54, 1.60659255981445310000e+002) (55, 1.26801513671875000000e+003) (56, 7.19956726074218750000e+002) (57, -1.13571594238281250000e+003) (58, 1.26801513671875000000e+003) (59, 5.72281799316406250000e+002) (60, 1.50000000000000000000e+003) (61, 1.50000000000000000000e+003) (62, 1.50000000000000000000e+003) (63, 1.50000000000000000000e+003) (64, 1.08502636718750000000e+003) (65, 1.42934606933593750000e+003) (66, 1.50000000000000000000e+003) (67, 1.50000000000000000000e+003) (68, 7.90255249023437500000e+002) (69, 1.14204551696777340000e+002) (70, -6.90509216308593750000e+002) (71, 8.85986389160156250000e+002) (72, 1.12064294815063480000e+001) (73, -7.67696655273437500000e+002) (74, 1.48263122558593750000e+003) (75, -1.18098657226562500000e+003) (76, 1.49983850097656250000e+003) (77, -1.73740554809570310000e+002) (78, -2.05360534667968750000e+002) (79, 1.49501147460937500000e+003) (80, -1.02789465332031250000e+003) (81, 1.67802032470703120000e+002) (82, 1.07287329101562500000e+003) (83, -1.31817504882812500000e+003) (84, 1.04246065020561220000e-001) (0, 1.50000000000000000000e+003) (1, 1.50000000000000000000e+003) (2, 1.50000000000000000000e+003) (3, 1.50000000000000000000e+003) (4, 1.50000000000000000000e+003) (5, 1.50000000000000000000e+003) (6, 1.50000000000000000000e+003) (7, 1.50000000000000000000e+003) (8, 1.50000000000000000000e+003) (9, 1.50000000000000000000e+003) (10, 1.50000000000000000000e+003) (11, 1.50000000000000000000e+003) (12, 1.50000000000000000000e+003) (13, 1.50000000000000000000e+003) (14, 1.50000000000000000000e+003) (15, 1.50000000000000000000e+003) (16, 1.50000000000000000000e+003) (17, 1.50000000000000000000e+003) (18, 1.50000000000000000000e+003) (19, 1.50000000000000000000e+003) (20, 1.50000000000000000000e+003) (21, 1.50000000000000000000e+003) (22, 1.50000000000000000000e+003) (23, 1.50000000000000000000e+003) (24, 1.50000000000000000000e+003) (25, 1.50000000000000000000e+003) (26, 1.50000000000000000000e+003) (27, 1.50000000000000000000e+003) (28, 1.50000000000000000000e+003) (29, 1.50000000000000000000e+003) (30, 1.50000000000000000000e+003) (31, 4.10999938964843750000e+002) (32, 1.50000000000000000000e+003) (33, 1.50000000000000000000e+003) (34, 1.50000000000000000000e+003) (35, 1.50000000000000000000e+003) (36, 1.46802563476562500000e+003) (37, -1.29505102539062500000e+003) (38, 1.50000000000000000000e+003) (39, 1.50000000000000000000e+003) (40, 4.10999938964843750000e+002) (41, 1.46802563476562500000e+003) (42, 1.50000000000000000000e+003) (43, 1.50000000000000000000e+003) (44, 1.49727697753906250000e+003) (45, 7.99330261230468750000e+002) (46, 1.50000000000000000000e+003) (47, 1.50000000000000000000e+003) (48, 1.50000000000000000000e+003) (49, 1.50000000000000000000e+003) (50, -5.44148742675781250000e+002) (51, 6.30557739257812500000e+002) (52, 1.50000000000000000000e+003) (53, 1.50000000000000000000e+003) (54, -2.99341857910156250000e+002) (55, -2.03417327880859370000e+002) (56, 1.46494567871093750000e+003) (57, 1.41278527832031250000e+003) (58, 1.49727697753906250000e+003) (59, 8.28099853515625000000e+002) (60, 1.50000000000000000000e+003) (61, 1.50000000000000000000e+003) (62, 1.50000000000000000000e+003) (63, 1.50000000000000000000e+003) (64, 1.01347192382812500000e+003) (65, -1.28446386718750000000e+003) (66, 1.50000000000000000000e+003) (67, 1.50000000000000000000e+003) (68, -1.49302551269531250000e+003) (69, 1.49930566406250000000e+003) (70, 1.32668737792968750000e+003) (71, 1.49323889160156250000e+003) (72, 3.55436973571777340000e+001) (73, 5.39642272949218750000e+002) (74, 1.40322558593750000000e+003) (75, -6.09727539062500000000e+002) (76, 7.47451354980468750000e+002) (77, 5.33211402893066410000e+001) (78, 1.28044042968750000000e+003) (79, -1.37814233398437500000e+003) (80, 7.99330261230468750000e+002) (81, 6.93330612182617190000e+001) (82, 1.49804907226562500000e+003) (83, 1.49550024414062500000e+003) (84, 5.87716996669769290000e-001) (0, 1.50000000000000000000e+003) (1, 1.50000000000000000000e+003) (2, 1.50000000000000000000e+003) (3, 1.50000000000000000000e+003) (4, 1.50000000000000000000e+003) (5, 1.50000000000000000000e+003) (6, 1.50000000000000000000e+003) (7, 1.50000000000000000000e+003) (8, 1.50000000000000000000e+003) (9, 1.50000000000000000000e+003) (10, 1.50000000000000000000e+003) (11, 1.50000000000000000000e+003) (12, 1.50000000000000000000e+003) (13, 1.50000000000000000000e+003) (14, 1.50000000000000000000e+003) (15, 1.50000000000000000000e+003) (16, 1.50000000000000000000e+003) (17, 1.50000000000000000000e+003) (18, 1.50000000000000000000e+003) (19, 1.50000000000000000000e+003) (20, 1.50000000000000000000e+003) (21, 1.50000000000000000000e+003) (22, 1.50000000000000000000e+003) (23, 1.50000000000000000000e+003) (24, 1.50000000000000000000e+003) (25, 1.50000000000000000000e+003) (26, 1.50000000000000000000e+003) (27, 1.50000000000000000000e+003) (28, 1.50000000000000000000e+003) (29, 1.50000000000000000000e+003) (30, 1.50000000000000000000e+003) (31, -1.50000000000000000000e+003) (32, 1.50000000000000000000e+003) (33, 1.50000000000000000000e+003) (34, 1.50000000000000000000e+003) (35, 1.50000000000000000000e+003) (36, 6.42736328125000000000e+002) (37, -1.19956640625000000000e+003) (38, 1.50000000000000000000e+003) (39, 1.50000000000000000000e+003) (40, -1.50000000000000000000e+003) (41, 1.49775366210937500000e+003) (42, 1.50000000000000000000e+003) (43, 1.50000000000000000000e+003) (44, 1.49992724609375000000e+003) (45, -9.59851684570312500000e+001) (46, 1.50000000000000000000e+003) (47, 1.50000000000000000000e+003) (48, 1.50000000000000000000e+003) (49, 1.50000000000000000000e+003) (50, 1.75998458862304690000e+002) (51, 4.17258575439453120000e+002) (52, 1.50000000000000000000e+003) (53, 1.50000000000000000000e+003) (54, -1.49069824218750000000e+003) (55, 1.49992724609375000000e+003) (56, 1.30291809082031250000e+003) (57, -8.99219787597656250000e+002) (58, 1.49992724609375000000e+003) (59, -9.37256774902343750000e+001) (60, 1.50000000000000000000e+003) (61, 1.50000000000000000000e+003) (62, 1.50000000000000000000e+003) (63, 1.50000000000000000000e+003) (64, 7.99355712890625000000e+002) (65, -6.79184579849243160000e+000) (66, 1.50000000000000000000e+003) (67, 1.50000000000000000000e+003) (68, 9.33093109130859370000e+001) (69, -4.61750701904296870000e+002) (70, 1.49787512207031250000e+003) (71, 1.08361129760742190000e+002) (72, 1.26779258728027340000e+002) (73, -5.88317642211914060000e+001) (74, 1.33510156250000000000e+003) (75, 1.27931225585937500000e+003) (76, 7.48245971679687500000e+002) (77, 2.02553161621093750000e+002) (78, 1.49999731445312500000e+003) (79, -1.30512670898437500000e+003) (80, -1.19598547363281250000e+003) (81, 1.22359399414062500000e+003) (82, 3.74953399658203120000e+002) (83, -2.00932312011718750000e+002) (84, 3.51863801479339600000e-002) (0, 1.50000000000000000000e+003) (1, 1.50000000000000000000e+003) (2, 1.50000000000000000000e+003) (3, 1.50000000000000000000e+003) (4, 1.50000000000000000000e+003) (5, 1.50000000000000000000e+003) (6, 1.50000000000000000000e+003) (7, 1.50000000000000000000e+003) (8, 1.50000000000000000000e+003) (9, 1.50000000000000000000e+003) (10, 1.50000000000000000000e+003) (11, 1.50000000000000000000e+003) (12, 1.50000000000000000000e+003) (13, 1.50000000000000000000e+003) (14, 1.50000000000000000000e+003) (15, 1.50000000000000000000e+003) (16, 1.50000000000000000000e+003) (17, 1.50000000000000000000e+003) (18, 1.50000000000000000000e+003) (19, 1.50000000000000000000e+003) (20, 1.50000000000000000000e+003) (21, 1.50000000000000000000e+003) (22, 1.50000000000000000000e+003) (23, 1.50000000000000000000e+003) (24, 1.50000000000000000000e+003) (25, 1.50000000000000000000e+003) (26, 1.50000000000000000000e+003) (27, 1.50000000000000000000e+003) (28, 1.50000000000000000000e+003) (29, 1.50000000000000000000e+003) (30, 1.50000000000000000000e+003) (31, -1.50000000000000000000e+003) (32, 1.50000000000000000000e+003) (33, 1.50000000000000000000e+003) (34, 1.50000000000000000000e+003) (35, 1.50000000000000000000e+003) (36, 6.42736328125000000000e+002) (37, -1.19956640625000000000e+003) (38, 1.50000000000000000000e+003) (39, 1.50000000000000000000e+003) (40, -1.50000000000000000000e+003) (41, 1.49775366210937500000e+003) (42, 1.50000000000000000000e+003) (43, 1.50000000000000000000e+003) (44, 1.49992724609375000000e+003) (45, -9.59851684570312500000e+001) (46, 1.50000000000000000000e+003) (47, 1.50000000000000000000e+003) (48, 1.50000000000000000000e+003) (49, 1.50000000000000000000e+003) (50, 1.41971508789062500000e+003) (51, 4.16846130371093750000e+002) (52, 1.50000000000000000000e+003) (53, 1.50000000000000000000e+003) (54, -1.49069824218750000000e+003) (55, 1.49992724609375000000e+003) (56, 1.30291809082031250000e+003) (57, -8.62399475097656250000e+002) (58, 1.49992724609375000000e+003) (59, -9.39038467407226560000e+001) (60, 1.50000000000000000000e+003) (61, 1.50000000000000000000e+003) (62, 1.50000000000000000000e+003) (63, 1.50000000000000000000e+003) (64, 7.99177490234375000000e+002) (65, 1.49996362304687500000e+003) (66, 1.50000000000000000000e+003) (67, 1.50000000000000000000e+003) (68, 9.33093109130859370000e+001) (69, -1.92125946044921870000e+002) (70, 1.37987036132812500000e+003) (71, 7.59836044311523440000e+001) (72, 3.88504943847656250000e+001) (73, -5.68612548828125000000e+002) (74, 1.42915136718750000000e+003) (75, -1.29403881835937500000e+003) (76, 1.49999926757812500000e+003) (77, -3.19559143066406250000e+002) (78, 1.49999731445312500000e+003) (79, -1.27003137207031250000e+003) (80, -1.19598547363281250000e+003) (81, 1.06226574707031250000e+003) (82, 7.01976501464843750000e+002) (83, -2.65011138916015620000e+002) (84, -8.67128819227218630000e-002) (0, 1.50000000000000000000e+003) (1, 1.50000000000000000000e+003) (2, 1.50000000000000000000e+003) (3, 1.50000000000000000000e+003) (4, 1.50000000000000000000e+003) (5, 1.50000000000000000000e+003) (6, 1.50000000000000000000e+003) (7, 1.50000000000000000000e+003) (8, 1.50000000000000000000e+003) (9, 1.50000000000000000000e+003) (10, 1.50000000000000000000e+003) (11, 1.50000000000000000000e+003) (12, 1.50000000000000000000e+003) (13, 1.50000000000000000000e+003) (14, 1.50000000000000000000e+003) (15, 1.50000000000000000000e+003) (16, 1.50000000000000000000e+003) (17, 1.50000000000000000000e+003) (18, 1.50000000000000000000e+003) (19, 1.50000000000000000000e+003) (20, 1.50000000000000000000e+003) (21, 1.50000000000000000000e+003) (22, 1.50000000000000000000e+003) (23, 1.50000000000000000000e+003) (24, 1.50000000000000000000e+003) (25, 1.50000000000000000000e+003) (26, 1.50000000000000000000e+003) (27, 1.50000000000000000000e+003) (28, 1.50000000000000000000e+003) (29, 1.50000000000000000000e+003) (30, 1.50000000000000000000e+003) (31, 1.50000000000000000000e+003) (32, 1.50000000000000000000e+003) (33, 1.50000000000000000000e+003) (34, 1.50000000000000000000e+003) (35, 1.50000000000000000000e+003) (36, -4.38649932861328130000e+002) (37, 1.50000000000000000000e+003) (38, 1.50000000000000000000e+003) (39, 1.50000000000000000000e+003) (40, 1.50000000000000000000e+003) (41, -6.22346679687500000000e+002) (42, 1.50000000000000000000e+003) (43, 1.50000000000000000000e+003) (44, -1.47278491210937500000e+003) (45, 1.41290539550781250000e+003) (46, 1.50000000000000000000e+003) (47, 1.50000000000000000000e+003) (48, 1.50000000000000000000e+003) (49, 1.50000000000000000000e+003) (50, 1.90744308471679690000e+002) (51, 2.58373382568359370000e+002) (52, 1.50000000000000000000e+003) (53, 1.50000000000000000000e+003) (54, 1.50000000000000000000e+003) (55, -1.47278491210937500000e+003) (56, 7.09276000976562500000e+002) (57, 1.17319873046875000000e+003) (58, -1.22785087585449220000e+002) (59, 1.50000000000000000000e+003) (60, 1.50000000000000000000e+003) (61, 1.50000000000000000000e+003) (62, 1.50000000000000000000e+003) (63, 1.50000000000000000000e+003) (64, 7.00208282470703130000e+001) (65, 6.99716918945312500000e+002) (66, 1.50000000000000000000e+003) (67, 1.50000000000000000000e+003) (68, 1.72673202514648440000e+002) (69, 8.56353698730468750000e+002) (70, 2.85145324707031250000e+002) (71, 1.14294934082031250000e+003) (72, -2.12742557525634770000e+001) (73, 1.89507720947265620000e+002) (74, 9.28980773925781250000e+002) (75, 1.05101013183593750000e+003) (76, 1.37780920410156250000e+003) (77, 5.22796203613281250000e+002) (78, -3.02704498291015620000e+002) (79, 1.50000000000000000000e+003) (80, 1.41290539550781250000e+003) (81, -7.37868652343750000000e+002) (82, -5.21169548034667970000e+001) (83, 1.01576452636718750000e+003) (84, 3.67123246192932130000e-001) (0, 1.50000000000000000000e+003) (1, 1.50000000000000000000e+003) (2, 1.50000000000000000000e+003) (3, 1.50000000000000000000e+003) (4, 1.50000000000000000000e+003) (5, 1.50000000000000000000e+003) (6, 1.50000000000000000000e+003) (7, 1.50000000000000000000e+003) (8, 1.50000000000000000000e+003) (9, 1.50000000000000000000e+003) (10, 1.50000000000000000000e+003) (11, 1.50000000000000000000e+003) (12, 1.50000000000000000000e+003) (13, 1.50000000000000000000e+003) (14, 1.50000000000000000000e+003) (15, 1.50000000000000000000e+003) (16, 1.50000000000000000000e+003) (17, 1.50000000000000000000e+003) (18, 1.50000000000000000000e+003) (19, 1.50000000000000000000e+003) (20, 1.50000000000000000000e+003) (21, 1.50000000000000000000e+003) (22, 1.50000000000000000000e+003) (23, 1.50000000000000000000e+003) (24, 1.50000000000000000000e+003) (25, 1.50000000000000000000e+003) (26, 1.50000000000000000000e+003) (27, 1.50000000000000000000e+003) (28, 1.50000000000000000000e+003) (29, 1.50000000000000000000e+003) (30, 1.50000000000000000000e+003) (31, 1.50000000000000000000e+003) (32, 1.50000000000000000000e+003) (33, 1.50000000000000000000e+003) (34, 1.50000000000000000000e+003) (35, 1.50000000000000000000e+003) (36, -4.38649932861328130000e+002) (37, 1.50000000000000000000e+003) (38, 1.50000000000000000000e+003) (39, 1.50000000000000000000e+003) (40, 1.50000000000000000000e+003) (41, -6.22346679687500000000e+002) (42, 1.50000000000000000000e+003) (43, 1.50000000000000000000e+003) (44, -1.47278491210937500000e+003) (45, 1.41290539550781250000e+003) (46, 1.50000000000000000000e+003) (47, 1.50000000000000000000e+003) (48, 1.50000000000000000000e+003) (49, 1.50000000000000000000e+003) (50, 1.90744308471679690000e+002) (51, 1.39928137207031250000e+003) (52, 1.50000000000000000000e+003) (53, 1.50000000000000000000e+003) (54, 1.50000000000000000000e+003) (55, -1.47278491210937500000e+003) (56, 7.09276000976562500000e+002) (57, 1.17319873046875000000e+003) (58, -1.22785087585449220000e+002) (59, 1.50000000000000000000e+003) (60, 1.50000000000000000000e+003) (61, 1.50000000000000000000e+003) (62, 1.50000000000000000000e+003) (63, 1.50000000000000000000e+003) (64, 9.58048828125000000000e+002) (65, 6.99716918945312500000e+002) (66, 1.50000000000000000000e+003) (67, 1.50000000000000000000e+003) (68, 5.60192504882812500000e+002) (69, 9.14076599121093750000e+002) (70, -1.26904455566406250000e+003) (71, 1.14294934082031250000e+003) (72, -6.80551300048828130000e+001) (73, 1.20027880859375000000e+003) (74, 9.28980773925781250000e+002) (75, 3.54656677246093750000e+002) (76, 1.49096936035156250000e+003) (77, 2.83012485504150390000e+001) (78, -7.77499938964843750000e+002) (79, 1.50000000000000000000e+003) (80, 1.41290539550781250000e+003) (81, -7.58317199707031250000e+002) (82, 2.81015075683593750000e+002) (83, 1.02481933593750000000e+003) (84, 6.66129171848297120000e-001) (0, 1.50000000000000000000e+003) (1, 1.50000000000000000000e+003) (2, 1.50000000000000000000e+003) (3, 1.50000000000000000000e+003) (4, 1.50000000000000000000e+003) (5, 1.50000000000000000000e+003) (6, 1.50000000000000000000e+003) (7, 1.50000000000000000000e+003) (8, 1.50000000000000000000e+003) (9, 1.50000000000000000000e+003) (10, 1.50000000000000000000e+003) (11, 1.50000000000000000000e+003) (12, 1.50000000000000000000e+003) (13, 1.50000000000000000000e+003) (14, 1.50000000000000000000e+003) (15, 1.50000000000000000000e+003) (16, 1.50000000000000000000e+003) (17, 1.50000000000000000000e+003) (18, 1.50000000000000000000e+003) (19, 1.50000000000000000000e+003) (20, 1.50000000000000000000e+003) (21, 1.50000000000000000000e+003) (22, 1.50000000000000000000e+003) (23, 1.50000000000000000000e+003) (24, 1.50000000000000000000e+003) (25, 1.50000000000000000000e+003) (26, 1.50000000000000000000e+003) (27, 1.50000000000000000000e+003) (28, 1.50000000000000000000e+003) (29, 1.50000000000000000000e+003) (30, 1.50000000000000000000e+003) (31, -1.50000000000000000000e+003) (32, 1.50000000000000000000e+003) (33, 1.50000000000000000000e+003) (34, 1.50000000000000000000e+003) (35, 1.50000000000000000000e+003) (36, 9.61159606933593750000e+002) (37, -8.01304992675781250000e+002) (38, 1.50000000000000000000e+003) (39, 1.50000000000000000000e+003) (40, -1.50000000000000000000e+003) (41, 1.49798779296875000000e+003) (42, 1.50000000000000000000e+003) (43, 1.50000000000000000000e+003) (44, 1.49887268066406250000e+003) (45, 1.71668823242187500000e+002) (46, 1.50000000000000000000e+003) (47, 1.50000000000000000000e+003) (48, 1.50000000000000000000e+003) (49, 1.50000000000000000000e+003) (50, 1.68929031372070310000e+002) (51, 1.05833264160156250000e+003) (52, 1.50000000000000000000e+003) (53, 1.50000000000000000000e+003) (54, -1.49069824218750000000e+003) (55, 1.49887268066406250000e+003) (56, 8.84689208984375000000e+002) (57, -3.15694694519042970000e+001) (58, 1.49887268066406250000e+003) (59, -4.76984313964843750000e+002) (60, 1.50000000000000000000e+003) (61, 1.50000000000000000000e+003) (62, 1.50000000000000000000e+003) (63, 1.50000000000000000000e+003) (64, 7.07966674804687500000e+002) (65, 2.41085937500000000000e+002) (66, 1.50000000000000000000e+003) (67, 1.50000000000000000000e+003) (68, -1.18444931030273440000e+002) (69, -7.50874755859375000000e+002) (70, 1.36216638183593750000e+003) (71, 1.42984448242187500000e+003) (72, 1.18801727294921870000e+002) (73, -5.89303710937500000000e+002) (74, 6.34919189453125000000e+002) (75, 1.08837402343750000000e+003) (76, 7.37985473632812500000e+002) (77, 4.60565704345703120000e+002) (78, 1.06663488769531250000e+003) (79, 1.29724987792968750000e+003) (80, -1.12833117675781250000e+003) (81, 7.33056518554687500000e+002) (82, -7.35623474121093750000e+002) (83, -5.49807800292968750000e+002) (84, 3.63014042377471920000e-001) (0, 1.50000000000000000000e+003) (1, 1.50000000000000000000e+003) (2, 1.50000000000000000000e+003) (3, 1.50000000000000000000e+003) (4, 1.50000000000000000000e+003) (5, 1.50000000000000000000e+003) (6, 1.50000000000000000000e+003) (7, 1.50000000000000000000e+003) (8, 1.50000000000000000000e+003) (9, 1.50000000000000000000e+003) (10, 1.50000000000000000000e+003) (11, 1.50000000000000000000e+003) (12, 1.50000000000000000000e+003) (13, 1.50000000000000000000e+003) (14, 1.50000000000000000000e+003) (15, 1.50000000000000000000e+003) (16, 1.50000000000000000000e+003) (17, 1.50000000000000000000e+003) (18, 1.50000000000000000000e+003) (19, 1.50000000000000000000e+003) (20, 1.50000000000000000000e+003) (21, 1.50000000000000000000e+003) (22, 1.50000000000000000000e+003) (23, 1.50000000000000000000e+003) (24, 1.50000000000000000000e+003) (25, 1.50000000000000000000e+003) (26, 1.50000000000000000000e+003) (27, 1.50000000000000000000e+003) (28, 1.50000000000000000000e+003) (29, 1.50000000000000000000e+003) (30, 1.50000000000000000000e+003) (31, -1.31753857421875000000e+003) (32, 1.50000000000000000000e+003) (33, 1.50000000000000000000e+003) (34, 1.50000000000000000000e+003) (35, 1.50000000000000000000e+003) (36, 1.49775366210937500000e+003) (37, 3.30765533447265620000e+002) (38, 1.50000000000000000000e+003) (39, 1.50000000000000000000e+003) (40, -1.31753857421875000000e+003) (41, 1.49775366210937500000e+003) (42, 1.50000000000000000000e+003) (43, 1.50000000000000000000e+003) (44, 1.33234313964843750000e+003) (45, 6.53697570800781250000e+002) (46, 1.50000000000000000000e+003) (47, 1.50000000000000000000e+003) (48, 1.50000000000000000000e+003) (49, 1.50000000000000000000e+003) (50, -9.84133789062500000000e+002) (51, 1.20837634277343750000e+003) (52, 1.50000000000000000000e+003) (53, 1.50000000000000000000e+003) (54, -1.10486047363281250000e+003) (55, 8.58516540527343750000e+002) (56, 1.42530517578125000000e+003) (57, 1.37434375000000000000e+003) (58, 1.33234313964843750000e+003) (59, 2.46134735107421870000e+002) (60, 1.50000000000000000000e+003) (61, 1.50000000000000000000e+003) (62, 1.50000000000000000000e+003) (63, 1.50000000000000000000e+003) (64, 1.28131201171875000000e+003) (65, -1.28063317871093750000e+003) (66, 1.50000000000000000000e+003) (67, 1.50000000000000000000e+003) (68, -1.47456872558593750000e+003) (69, 1.45705847167968750000e+003) (70, 1.47592907714843750000e+003) (71, 1.27673144531250000000e+003) (72, 5.83646545410156250000e+001) (73, -6.23576477050781250000e+002) (74, 1.46646740722656250000e+003) (75, -5.65216247558593750000e+002) (76, 1.49755969238281250000e+003) (77, 1.99028873443603520000e+000) (78, 1.49616491699218750000e+003) (79, -1.30776818847656250000e+003) (80, 5.37602050781250000000e+002) (81, 3.45101745605468750000e+002) (82, 1.43361059570312500000e+003) (83, 4.00791168212890630000e+002) (84, 6.38134837150573730000e-001) (0, 1.50000000000000000000e+003) (1, 1.50000000000000000000e+003) (2, 1.50000000000000000000e+003) (3, 1.50000000000000000000e+003) (4, 1.50000000000000000000e+003) (5, 1.50000000000000000000e+003) (6, 1.50000000000000000000e+003) (7, 1.50000000000000000000e+003) (8, 1.50000000000000000000e+003) (9, 1.50000000000000000000e+003) (10, 1.50000000000000000000e+003) (11, 1.50000000000000000000e+003) (12, 1.50000000000000000000e+003) (13, 1.50000000000000000000e+003) (14, 1.50000000000000000000e+003) (15, 1.50000000000000000000e+003) (16, 1.50000000000000000000e+003) (17, 1.50000000000000000000e+003) (18, 1.50000000000000000000e+003) (19, 1.50000000000000000000e+003) (20, 1.50000000000000000000e+003) (21, 1.50000000000000000000e+003) (22, 1.50000000000000000000e+003) (23, 1.50000000000000000000e+003) (24, 1.50000000000000000000e+003) (25, 1.50000000000000000000e+003) (26, 1.50000000000000000000e+003) (27, 1.50000000000000000000e+003) (28, 1.50000000000000000000e+003) (29, 1.50000000000000000000e+003) (30, 1.50000000000000000000e+003) (31, -1.50000000000000000000e+003) (32, 1.50000000000000000000e+003) (33, 1.50000000000000000000e+003) (34, 1.50000000000000000000e+003) (35, 1.50000000000000000000e+003) (36, 1.49775366210937500000e+003) (37, -1.49069824218750000000e+003) (38, 1.50000000000000000000e+003) (39, 1.50000000000000000000e+003) (40, -1.50000000000000000000e+003) (41, 1.49775366210937500000e+003) (42, 1.50000000000000000000e+003) (43, 1.50000000000000000000e+003) (44, 1.26306567382812500000e+003) (45, 4.44814819335937500000e+002) (46, 1.50000000000000000000e+003) (47, 1.50000000000000000000e+003) (48, 1.50000000000000000000e+003) (49, 1.50000000000000000000e+003) (50, 5.09234893798828120000e+002) (51, -7.80083560943603520000e+000) (52, 1.50000000000000000000e+003) (53, 1.50000000000000000000e+003) (54, -8.57898193359375000000e+002) (55, -2.53895172119140620000e+002) (56, 5.25022277832031250000e+002) (57, 1.49445092773437500000e+003) (58, 1.49992724609375000000e+003) (59, 3.20568542480468750000e+002) (60, 1.50000000000000000000e+003) (61, 1.50000000000000000000e+003) (62, 1.50000000000000000000e+003) (63, 1.50000000000000000000e+003) (64, 5.06365722656250000000e+002) (65, 8.22664489746093750000e+002) (66, 1.50000000000000000000e+003) (67, 1.50000000000000000000e+003) (68, -1.29699450683593750000e+003) (69, 1.41197241210937500000e+003) (70, 6.91383483886718750000e+002) (71, 1.48973291015625000000e+003) (72, 1.04454360961914060000e+002) (73, 6.36732910156250000000e+002) (74, 6.89298583984375000000e+002) (75, 8.68419860839843750000e+002) (76, 7.31100341796875000000e+002) (77, 4.81065612792968750000e+002) (78, -3.98311706542968750000e+002) (79, 1.48588171386718750000e+003) (80, 3.36134643554687500000e+002) (81, -5.40254745483398440000e+001) (82, 7.50045837402343750000e+002) (83, 1.15652038574218750000e+003) (84, 2.31674507260322570000e-001) (0, 1.50000000000000000000e+003) (1, 1.50000000000000000000e+003) (2, 1.50000000000000000000e+003) (3, 1.50000000000000000000e+003) (4, 1.50000000000000000000e+003) (5, 1.50000000000000000000e+003) (6, 1.50000000000000000000e+003) (7, 1.50000000000000000000e+003) (8, 1.50000000000000000000e+003) (9, 1.50000000000000000000e+003) (10, 1.50000000000000000000e+003) (11, 1.50000000000000000000e+003) (12, 1.50000000000000000000e+003) (13, 1.50000000000000000000e+003) (14, 1.50000000000000000000e+003) (15, 1.50000000000000000000e+003) (16, 1.50000000000000000000e+003) (17, 1.50000000000000000000e+003) (18, 1.50000000000000000000e+003) (19, 1.50000000000000000000e+003) (20, 1.50000000000000000000e+003) (21, 1.50000000000000000000e+003) (22, 1.50000000000000000000e+003) (23, 1.50000000000000000000e+003) (24, 1.50000000000000000000e+003) (25, 1.50000000000000000000e+003) (26, 1.50000000000000000000e+003) (27, 1.50000000000000000000e+003) (28, 1.50000000000000000000e+003) (29, 1.50000000000000000000e+003) (30, 1.50000000000000000000e+003) (31, 1.50000000000000000000e+003) (32, 1.50000000000000000000e+003) (33, 1.50000000000000000000e+003) (34, 1.50000000000000000000e+003) (35, 1.50000000000000000000e+003) (36, -4.38649932861328130000e+002) (37, 1.50000000000000000000e+003) (38, 1.50000000000000000000e+003) (39, 1.50000000000000000000e+003) (40, 1.50000000000000000000e+003) (41, -6.22346679687500000000e+002) (42, 1.50000000000000000000e+003) (43, 1.50000000000000000000e+003) (44, -1.47278491210937500000e+003) (45, 1.41290539550781250000e+003) (46, 1.50000000000000000000e+003) (47, 1.50000000000000000000e+003) (48, 1.50000000000000000000e+003) (49, 1.50000000000000000000e+003) (50, 1.90744308471679690000e+002) (51, 1.39928137207031250000e+003) (52, 1.50000000000000000000e+003) (53, 1.50000000000000000000e+003) (54, 1.50000000000000000000e+003) (55, -1.47278491210937500000e+003) (56, 7.09276000976562500000e+002) (57, 1.17319873046875000000e+003) (58, -1.22785087585449220000e+002) (59, 1.50000000000000000000e+003) (60, 1.50000000000000000000e+003) (61, 1.50000000000000000000e+003) (62, 1.50000000000000000000e+003) (63, 1.50000000000000000000e+003) (64, 9.58048828125000000000e+002) (65, 5.64478454589843750000e+002) (66, 1.50000000000000000000e+003) (67, 1.50000000000000000000e+003) (68, 5.60192504882812500000e+002) (69, 8.56353698730468750000e+002) (70, -5.34843872070312500000e+002) (71, 1.14294934082031250000e+003) (72, -6.92613143920898440000e+001) (73, 1.20027880859375000000e+003) (74, 9.28980773925781250000e+002) (75, 7.30070373535156250000e+002) (76, 1.47667785644531250000e+003) (77, 2.16862731933593750000e+002) (78, -6.91627563476562500000e+002) (79, 1.50000000000000000000e+003) (80, 1.41290539550781250000e+003) (81, -7.82939514160156250000e+002) (82, -5.21169548034667970000e+001) (83, 1.02481933593750000000e+003) (84, -4.69094440340995790000e-002) (0, 1.50000000000000000000e+003) (1, 1.50000000000000000000e+003) (2, 1.50000000000000000000e+003) (3, 1.50000000000000000000e+003) (4, 1.50000000000000000000e+003) (5, 1.50000000000000000000e+003) (6, 1.50000000000000000000e+003) (7, 1.50000000000000000000e+003) (8, 1.50000000000000000000e+003) (9, 1.50000000000000000000e+003) (10, 1.50000000000000000000e+003) (11, 1.50000000000000000000e+003) (12, 1.50000000000000000000e+003) (13, 1.50000000000000000000e+003) (14, 1.50000000000000000000e+003) (15, 1.50000000000000000000e+003) (16, 1.50000000000000000000e+003) (17, 1.50000000000000000000e+003) (18, 1.50000000000000000000e+003) (19, 1.50000000000000000000e+003) (20, 1.50000000000000000000e+003) (21, 1.50000000000000000000e+003) (22, 1.50000000000000000000e+003) (23, 1.50000000000000000000e+003) (24, 1.50000000000000000000e+003) (25, 1.50000000000000000000e+003) (26, 1.50000000000000000000e+003) (27, 1.50000000000000000000e+003) (28, 1.50000000000000000000e+003) (29, 1.50000000000000000000e+003) (30, 1.50000000000000000000e+003) (31, 1.50000000000000000000e+003) (32, 1.50000000000000000000e+003) (33, 1.50000000000000000000e+003) (34, 1.50000000000000000000e+003) (35, 1.50000000000000000000e+003) (36, -1.15211059570312500000e+003) (37, 1.50000000000000000000e+003) (38, 1.50000000000000000000e+003) (39, 1.50000000000000000000e+003) (40, 1.50000000000000000000e+003) (41, 7.18453369140625000000e+002) (42, 1.50000000000000000000e+003) (43, 1.50000000000000000000e+003) (44, 1.21801513671875000000e+003) (45, 7.72105529785156250000e+002) (46, 1.50000000000000000000e+003) (47, 1.50000000000000000000e+003) (48, 1.50000000000000000000e+003) (49, 1.50000000000000000000e+003) (50, 6.46810607910156250000e+002) (51, 1.50000000000000000000e+003) (52, 1.50000000000000000000e+003) (53, 1.50000000000000000000e+003) (54, 2.10659240722656250000e+002) (55, 1.21801513671875000000e+003) (56, 1.47432910156250000000e+003) (57, -1.15688757324218750000e+003) (58, 1.21801513671875000000e+003) (59, 7.09757751464843750000e+002) (60, 1.50000000000000000000e+003) (61, 1.50000000000000000000e+003) (62, 1.50000000000000000000e+003) (63, 1.50000000000000000000e+003) (64, 1.50000000000000000000e+003) (65, 1.32858837890625000000e+003) (66, 1.50000000000000000000e+003) (67, 1.50000000000000000000e+003) (68, 9.30696899414062500000e+002) (69, -7.87896362304687500000e+002) (70, 1.37739270019531250000e+003) (71, -2.53583801269531250000e+002) (72, 9.52192878723144530000e+000) (73, -1.33291015625000000000e+003) (74, 1.50000000000000000000e+003) (75, -8.26729675292968750000e+002) (76, 1.49897180175781250000e+003) (77, -1.82614639282226560000e+002) (78, 1.49595593261718750000e+003) (79, -1.23335876464843750000e+003) (80, -9.77894531250000000000e+002) (81, 8.85892211914062500000e+002) (82, 7.97753906250000000000e+001) (83, -1.45962048339843750000e+003) (84, -2.28642299771308900000e-001) (0, 1.50000000000000000000e+003) (1, 1.50000000000000000000e+003) (2, 1.50000000000000000000e+003) (3, 1.50000000000000000000e+003) (4, 1.50000000000000000000e+003) (5, 1.50000000000000000000e+003) (6, 1.50000000000000000000e+003) (7, 1.50000000000000000000e+003) (8, 1.50000000000000000000e+003) (9, 1.50000000000000000000e+003) (10, 1.50000000000000000000e+003) (11, 1.50000000000000000000e+003) (12, 1.50000000000000000000e+003) (13, 1.50000000000000000000e+003) (14, 1.50000000000000000000e+003) (15, 1.50000000000000000000e+003) (16, 1.50000000000000000000e+003) (17, 1.50000000000000000000e+003) (18, 1.50000000000000000000e+003) (19, 1.50000000000000000000e+003) (20, 1.50000000000000000000e+003) (21, 1.50000000000000000000e+003) (22, 1.50000000000000000000e+003) (23, 1.50000000000000000000e+003) (24, 1.50000000000000000000e+003) (25, 1.50000000000000000000e+003) (26, 1.50000000000000000000e+003) (27, 1.50000000000000000000e+003) (28, 1.50000000000000000000e+003) (29, 1.50000000000000000000e+003) (30, 1.50000000000000000000e+003) (31, -9.09199951171875000000e+002) (32, 1.50000000000000000000e+003) (33, 1.50000000000000000000e+003) (34, 1.50000000000000000000e+003) (35, 1.50000000000000000000e+003) (36, -3.48975189208984370000e+002) (37, -1.07898231506347660000e+002) (38, 1.50000000000000000000e+003) (39, 1.50000000000000000000e+003) (40, -9.09199951171875000000e+002) (41, 1.49775366210937500000e+003) (42, 1.50000000000000000000e+003) (43, 1.50000000000000000000e+003) (44, 1.38690478515625000000e+003) (45, 1.19481457519531250000e+003) (46, 1.50000000000000000000e+003) (47, 1.50000000000000000000e+003) (48, 1.50000000000000000000e+003) (49, 1.50000000000000000000e+003) (50, -6.19773010253906250000e+002) (51, 1.29851318359375000000e+003) (52, 1.50000000000000000000e+003) (53, 1.50000000000000000000e+003) (54, -1.49069824218750000000e+003) (55, 1.17614086914062500000e+003) (56, 1.43586022949218750000e+003) (57, -1.23525390625000000000e+003) (58, 1.38690478515625000000e+003) (59, 1.19689660644531250000e+003) (60, 1.50000000000000000000e+003) (61, 1.50000000000000000000e+003) (62, 1.50000000000000000000e+003) (63, 1.50000000000000000000e+003) (64, 1.45571423339843750000e+003) (65, -9.08707763671875000000e+002) (66, 1.50000000000000000000e+003) (67, 1.50000000000000000000e+003) (68, 1.16140124511718750000e+003) (69, -1.30026342773437500000e+003) (70, 1.49675390625000000000e+003) (71, -4.04483917236328120000e+002) (72, 9.05352859497070310000e+001) (73, 1.11768237304687500000e+003) (74, 1.48922021484375000000e+003) (75, 1.01329931640625000000e+003) (76, 7.40895690917968750000e+002) (77, 3.04710510253906250000e+002) (78, 1.35701098632812500000e+003) (79, -1.24680371093750000000e+003) (80, -7.58573730468750000000e+002) (81, 8.49859008789062500000e+002) (82, -4.55023254394531250000e+002) (83, 1.22737097167968750000e+003) (84, -2.62107066810131070000e-002) (0, 1.50000000000000000000e+003) (1, 1.50000000000000000000e+003) (2, 1.50000000000000000000e+003) (3, 1.50000000000000000000e+003) (4, 1.50000000000000000000e+003) (5, 1.50000000000000000000e+003) (6, 1.50000000000000000000e+003) (7, 1.50000000000000000000e+003) (8, 1.50000000000000000000e+003) (9, 1.50000000000000000000e+003) (10, 1.50000000000000000000e+003) (11, 1.50000000000000000000e+003) (12, 1.50000000000000000000e+003) (13, 1.50000000000000000000e+003) (14, 1.50000000000000000000e+003) (15, 1.50000000000000000000e+003) (16, 1.50000000000000000000e+003) (17, 1.50000000000000000000e+003) (18, 1.50000000000000000000e+003) (19, 1.50000000000000000000e+003) (20, 1.50000000000000000000e+003) (21, 1.50000000000000000000e+003) (22, 1.50000000000000000000e+003) (23, 1.50000000000000000000e+003) (24, 1.50000000000000000000e+003) (25, 1.50000000000000000000e+003) (26, 1.50000000000000000000e+003) (27, 1.50000000000000000000e+003) (28, 1.50000000000000000000e+003) (29, 1.50000000000000000000e+003) (30, 1.50000000000000000000e+003) (31, 1.50000000000000000000e+003) (32, 1.50000000000000000000e+003) (33, 1.50000000000000000000e+003) (34, 1.50000000000000000000e+003) (35, 1.50000000000000000000e+003) (36, -4.38649932861328130000e+002) (37, 1.50000000000000000000e+003) (38, 1.50000000000000000000e+003) (39, 1.50000000000000000000e+003) (40, 1.50000000000000000000e+003) (41, -6.22346679687500000000e+002) (42, 1.50000000000000000000e+003) (43, 1.50000000000000000000e+003) (44, -1.47278491210937500000e+003) (45, 1.41290539550781250000e+003) (46, 1.50000000000000000000e+003) (47, 1.50000000000000000000e+003) (48, 1.50000000000000000000e+003) (49, 1.50000000000000000000e+003) (50, 1.90744308471679690000e+002) (51, 1.39928137207031250000e+003) (52, 1.50000000000000000000e+003) (53, 1.50000000000000000000e+003) (54, 1.50000000000000000000e+003) (55, -1.47278491210937500000e+003) (56, 7.09276000976562500000e+002) (57, 1.17319873046875000000e+003) (58, -1.22785087585449220000e+002) (59, 1.50000000000000000000e+003) (60, 1.50000000000000000000e+003) (61, 1.50000000000000000000e+003) (62, 1.50000000000000000000e+003) (63, 1.50000000000000000000e+003) (64, 7.09581726074218750000e+002) (65, 6.99716918945312500000e+002) (66, 1.50000000000000000000e+003) (67, 1.50000000000000000000e+003) (68, 8.04888549804687500000e+002) (69, 8.56353698730468750000e+002) (70, -1.31485461425781250000e+003) (71, 1.14294934082031250000e+003) (72, -1.41015655517578120000e+002) (73, 9.84218811035156250000e+002) (74, 9.28980773925781250000e+002) (75, 7.02089965820312500000e+002) (76, 1.48981188964843750000e+003) (77, 2.82885837554931640000e+001) (78, -7.77681701660156250000e+002) (79, 1.50000000000000000000e+003) (80, 1.41290539550781250000e+003) (81, -7.58227600097656250000e+002) (82, -5.21169548034667970000e+001) (83, 1.02481933593750000000e+003) (84, 6.17903470993041990000e-001) (0, 1.50000000000000000000e+003) (1, 1.50000000000000000000e+003) (2, 1.50000000000000000000e+003) (3, 1.50000000000000000000e+003) (4, 1.50000000000000000000e+003) (5, 1.50000000000000000000e+003) (6, 1.50000000000000000000e+003) (7, 1.50000000000000000000e+003) (8, 1.50000000000000000000e+003) (9, 1.50000000000000000000e+003) (10, 1.50000000000000000000e+003) (11, 1.50000000000000000000e+003) (12, 1.50000000000000000000e+003) (13, 1.50000000000000000000e+003) (14, 1.50000000000000000000e+003) (15, 1.50000000000000000000e+003) (16, 1.50000000000000000000e+003) (17, 1.50000000000000000000e+003) (18, 1.50000000000000000000e+003) (19, 1.50000000000000000000e+003) (20, 1.50000000000000000000e+003) (21, 1.50000000000000000000e+003) (22, 1.50000000000000000000e+003) (23, 1.50000000000000000000e+003) (24, 1.50000000000000000000e+003) (25, 1.50000000000000000000e+003) (26, 1.50000000000000000000e+003) (27, 1.50000000000000000000e+003) (28, 1.50000000000000000000e+003) (29, 1.50000000000000000000e+003) (30, 1.50000000000000000000e+003) (31, 1.50000000000000000000e+003) (32, 1.50000000000000000000e+003) (33, 1.50000000000000000000e+003) (34, 1.50000000000000000000e+003) (35, 1.50000000000000000000e+003) (36, -1.43134643554687500000e+003) (37, 1.50000000000000000000e+003) (38, 1.50000000000000000000e+003) (39, 1.50000000000000000000e+003) (40, 1.50000000000000000000e+003) (41, -6.22346679687500000000e+002) (42, 1.50000000000000000000e+003) (43, 1.50000000000000000000e+003) (44, -1.22785087585449220000e+002) (45, 1.41290539550781250000e+003) (46, 1.50000000000000000000e+003) (47, 1.50000000000000000000e+003) (48, 1.50000000000000000000e+003) (49, 1.50000000000000000000e+003) (50, -1.47455541992187500000e+003) (51, 1.50000000000000000000e+003) (52, 1.50000000000000000000e+003) (53, 1.50000000000000000000e+003) (54, 1.50000000000000000000e+003) (55, -7.62805786132812500000e+002) (56, 1.50000000000000000000e+003) (57, -1.44234228515625000000e+003) (58, -1.22785087585449220000e+002) (59, 1.50000000000000000000e+003) (60, 1.50000000000000000000e+003) (61, 1.50000000000000000000e+003) (62, 1.50000000000000000000e+003) (63, 1.50000000000000000000e+003) (64, 1.50000000000000000000e+003) (65, 4.47426330566406250000e+002) (66, 1.50000000000000000000e+003) (67, 1.50000000000000000000e+003) (68, 1.72673202514648440000e+002) (69, -1.30483642578125000000e+003) (70, 1.37678686523437500000e+003) (71, -5.59444274902343750000e+002) (72, -5.69454574584960940000e+001) (73, 9.05067825317382810000e+001) (74, 1.50000000000000000000e+003) (75, -1.26536621093750000000e+003) (76, 1.49676770019531250000e+003) (77, -1.64246002197265620000e+002) (78, 1.48572180175781250000e+003) (79, -1.04436022949218750000e+003) (80, 2.35305541992187500000e+002) (81, 6.16216552734375000000e+002) (82, -4.37164428710937500000e+002) (83, 8.75902587890625000000e+002) (84, 1.08331277966499330000e-001) (0, 1.50000000000000000000e+003) (1, 1.50000000000000000000e+003) (2, 1.50000000000000000000e+003) (3, 1.50000000000000000000e+003) (4, 1.50000000000000000000e+003) (5, 1.50000000000000000000e+003) (6, 1.50000000000000000000e+003) (7, 1.50000000000000000000e+003) (8, 1.50000000000000000000e+003) (9, 1.50000000000000000000e+003) (10, 1.50000000000000000000e+003) (11, 1.50000000000000000000e+003) (12, 1.50000000000000000000e+003) (13, 1.50000000000000000000e+003) (14, 1.50000000000000000000e+003) (15, 1.50000000000000000000e+003) (16, 1.50000000000000000000e+003) (17, 1.50000000000000000000e+003) (18, 1.50000000000000000000e+003) (19, 1.50000000000000000000e+003) (20, 1.50000000000000000000e+003) (21, 1.50000000000000000000e+003) (22, 1.50000000000000000000e+003) (23, 1.50000000000000000000e+003) (24, 1.50000000000000000000e+003) (25, 1.50000000000000000000e+003) (26, 1.50000000000000000000e+003) (27, 1.50000000000000000000e+003) (28, 1.50000000000000000000e+003) (29, 1.50000000000000000000e+003) (30, 1.50000000000000000000e+003) (31, -1.50000000000000000000e+003) (32, 1.50000000000000000000e+003) (33, 1.50000000000000000000e+003) (34, 1.50000000000000000000e+003) (35, 1.50000000000000000000e+003) (36, 6.42736328125000000000e+002) (37, -1.19956640625000000000e+003) (38, 1.50000000000000000000e+003) (39, 1.50000000000000000000e+003) (40, -1.50000000000000000000e+003) (41, 1.49775366210937500000e+003) (42, 1.50000000000000000000e+003) (43, 1.50000000000000000000e+003) (44, 1.49992724609375000000e+003) (45, -9.59851684570312500000e+001) (46, 1.50000000000000000000e+003) (47, 1.50000000000000000000e+003) (48, 1.50000000000000000000e+003) (49, 1.50000000000000000000e+003) (50, 1.41971508789062500000e+003) (51, 4.16846130371093750000e+002) (52, 1.50000000000000000000e+003) (53, 1.50000000000000000000e+003) (54, -1.49069824218750000000e+003) (55, 1.49992724609375000000e+003) (56, 1.30291809082031250000e+003) (57, -8.63263977050781250000e+002) (58, 1.49992724609375000000e+003) (59, -9.39038467407226560000e+001) (60, 1.50000000000000000000e+003) (61, 1.50000000000000000000e+003) (62, 1.50000000000000000000e+003) (63, 1.50000000000000000000e+003) (64, 7.99177490234375000000e+002) (65, 1.49996362304687500000e+003) (66, 1.50000000000000000000e+003) (67, 1.50000000000000000000e+003) (68, 9.33093109130859370000e+001) (69, 1.31816558837890630000e+002) (70, 1.38063903808593750000e+003) (71, -8.88610656738281250000e+002) (72, 3.34082069396972660000e+001) (73, -2.54702926635742190000e+002) (74, 1.33498828125000000000e+003) (75, -1.16842565917968750000e+003) (76, 1.49999926757812500000e+003) (77, -1.81080505371093750000e+002) (78, 1.49999731445312500000e+003) (79, -1.30512670898437500000e+003) (80, -1.19598547363281250000e+003) (81, 5.11358032226562500000e+002) (82, 1.02591894531250000000e+003) (83, -6.41371679306030270000e+000) (84, -2.69698128104209900000e-002) (0, 1.50000000000000000000e+003) (1, 1.50000000000000000000e+003) (2, 1.50000000000000000000e+003) (3, 1.50000000000000000000e+003) (4, 1.50000000000000000000e+003) (5, 1.50000000000000000000e+003) (6, 1.50000000000000000000e+003) (7, 1.50000000000000000000e+003) (8, 1.50000000000000000000e+003) (9, 1.50000000000000000000e+003) (10, 1.50000000000000000000e+003) (11, 1.50000000000000000000e+003) (12, 1.50000000000000000000e+003) (13, 1.50000000000000000000e+003) (14, 1.50000000000000000000e+003) (15, 1.50000000000000000000e+003) (16, 1.50000000000000000000e+003) (17, 1.50000000000000000000e+003) (18, 1.50000000000000000000e+003) (19, 1.50000000000000000000e+003) (20, 1.50000000000000000000e+003) (21, 1.50000000000000000000e+003) (22, 1.50000000000000000000e+003) (23, 1.50000000000000000000e+003) (24, 1.50000000000000000000e+003) (25, 1.50000000000000000000e+003) (26, 1.50000000000000000000e+003) (27, 1.50000000000000000000e+003) (28, 1.50000000000000000000e+003) (29, 1.50000000000000000000e+003) (30, 1.50000000000000000000e+003) (31, -1.50000000000000000000e+003) (32, 1.50000000000000000000e+003) (33, 1.50000000000000000000e+003) (34, 1.50000000000000000000e+003) (35, 1.50000000000000000000e+003) (36, 5.76936279296875000000e+002) (37, -1.08376635742187500000e+003) (38, 1.50000000000000000000e+003) (39, 1.50000000000000000000e+003) (40, -1.50000000000000000000e+003) (41, 1.49775366210937500000e+003) (42, 1.50000000000000000000e+003) (43, 1.50000000000000000000e+003) (44, 1.49992724609375000000e+003) (45, 1.98148136138916020000e+001) (46, 1.50000000000000000000e+003) (47, 1.50000000000000000000e+003) (48, 1.50000000000000000000e+003) (49, 1.50000000000000000000e+003) (50, 5.13297424316406250000e+002) (51, 5.90159729003906250000e+002) (52, 1.50000000000000000000e+003) (53, 1.50000000000000000000e+003) (54, -1.49069824218750000000e+003) (55, 1.49992724609375000000e+003) (56, 1.38507507324218750000e+003) (57, -1.04018823242187500000e+003) (58, 1.49992724609375000000e+003) (59, 2.18961238861083980000e+001) (60, 1.50000000000000000000e+003) (61, 1.50000000000000000000e+003) (62, 1.50000000000000000000e+003) (63, 1.50000000000000000000e+003) (64, 1.00693829345703120000e+003) (65, 7.63463134765625000000e+002) (66, 1.50000000000000000000e+003) (67, 1.50000000000000000000e+003) (68, 2.09109268188476560000e+002) (69, -8.42576110839843750000e+002) (70, 6.52890136718750000000e+002) (71, 4.81365692138671870000e+002) (72, -7.53268766403198240000e+000) (73, 2.97908782958984380000e+002) (74, 1.43410083007812500000e+003) (75, -1.04513549804687500000e+003) (76, 1.49999987792968750000e+003) (77, -8.76777725219726560000e+001) (78, 6.24173706054687500000e+002) (79, 8.68901733398437500000e+002) (80, -1.02071508789062500000e+003) (81, 2.87880840301513670000e+001) (82, -4.89209075927734370000e+002) (83, 3.23377563476562500000e+002) (84, 6.51643931865692140000e-001) (0, 1.50000000000000000000e+003) (1, 1.50000000000000000000e+003) (2, 1.50000000000000000000e+003) (3, 1.50000000000000000000e+003) (4, 1.50000000000000000000e+003) (5, 1.50000000000000000000e+003) (6, 1.50000000000000000000e+003) (7, 1.50000000000000000000e+003) (8, 1.50000000000000000000e+003) (9, 1.50000000000000000000e+003) (10, 1.50000000000000000000e+003) (11, 1.50000000000000000000e+003) (12, 1.50000000000000000000e+003) (13, 1.50000000000000000000e+003) (14, 1.50000000000000000000e+003) (15, 1.50000000000000000000e+003) (16, 1.50000000000000000000e+003) (17, 1.50000000000000000000e+003) (18, 1.50000000000000000000e+003) (19, 1.50000000000000000000e+003) (20, 1.50000000000000000000e+003) (21, 1.50000000000000000000e+003) (22, 1.50000000000000000000e+003) (23, 1.50000000000000000000e+003) (24, 1.50000000000000000000e+003) (25, 1.50000000000000000000e+003) (26, 1.50000000000000000000e+003) (27, 1.50000000000000000000e+003) (28, 1.50000000000000000000e+003) (29, 1.50000000000000000000e+003) (30, 1.50000000000000000000e+003) (31, 1.50000000000000000000e+003) (32, 1.50000000000000000000e+003) (33, 1.50000000000000000000e+003) (34, 1.50000000000000000000e+003) (35, 1.50000000000000000000e+003) (36, -4.38649932861328130000e+002) (37, 1.50000000000000000000e+003) (38, 1.50000000000000000000e+003) (39, 1.50000000000000000000e+003) (40, 1.50000000000000000000e+003) (41, -6.22346679687500000000e+002) (42, 1.50000000000000000000e+003) (43, 1.50000000000000000000e+003) (44, -9.88844726562500000000e+002) (45, 1.41290539550781250000e+003) (46, 1.50000000000000000000e+003) (47, 1.50000000000000000000e+003) (48, 1.50000000000000000000e+003) (49, 1.50000000000000000000e+003) (50, 1.90744308471679690000e+002) (51, 1.39928137207031250000e+003) (52, 1.50000000000000000000e+003) (53, 1.50000000000000000000e+003) (54, 1.50000000000000000000e+003) (55, -1.47278491210937500000e+003) (56, 7.09276000976562500000e+002) (57, 1.17319873046875000000e+003) (58, -1.22785087585449220000e+002) (59, 1.50000000000000000000e+003) (60, 1.50000000000000000000e+003) (61, 1.50000000000000000000e+003) (62, 1.50000000000000000000e+003) (63, 1.50000000000000000000e+003) (64, 9.58048828125000000000e+002) (65, 6.99716918945312500000e+002) (66, 1.50000000000000000000e+003) (67, 1.50000000000000000000e+003) (68, 1.72673202514648440000e+002) (69, 8.95529724121093750000e+002) (70, 2.85145324707031250000e+002) (71, 1.14294934082031250000e+003) (72, -2.25577548146247860000e-001) (73, 1.20027880859375000000e+003) (74, 9.74235168457031250000e+002) (75, 1.44433618164062500000e+003) (76, 7.24460449218750000000e+002) (77, 5.59255004882812500000e+002) (78, -7.05765625000000000000e+002) (79, 1.50000000000000000000e+003) (80, 1.41290539550781250000e+003) (81, -2.75508056640625000000e+002) (82, -1.29409027099609380000e+001) (83, 1.02481933593750000000e+003) (84, 3.76118957996368410000e-001) (0, 1.50000000000000000000e+003) (1, 1.50000000000000000000e+003) (2, 1.50000000000000000000e+003) (3, 1.50000000000000000000e+003) (4, 1.50000000000000000000e+003) (5, 1.50000000000000000000e+003) (6, 1.50000000000000000000e+003) (7, 1.50000000000000000000e+003) (8, 1.50000000000000000000e+003) (9, 1.50000000000000000000e+003) (10, 1.50000000000000000000e+003) (11, 1.50000000000000000000e+003) (12, 1.50000000000000000000e+003) (13, 1.50000000000000000000e+003) (14, 1.50000000000000000000e+003) (15, 1.50000000000000000000e+003) (16, 1.50000000000000000000e+003) (17, 1.50000000000000000000e+003) (18, 1.50000000000000000000e+003) (19, 1.50000000000000000000e+003) (20, 1.50000000000000000000e+003) (21, 1.50000000000000000000e+003) (22, 1.50000000000000000000e+003) (23, 1.50000000000000000000e+003) (24, 1.50000000000000000000e+003) (25, 1.50000000000000000000e+003) (26, 1.50000000000000000000e+003) (27, 1.50000000000000000000e+003) (28, 1.50000000000000000000e+003) (29, 1.50000000000000000000e+003) (30, 1.50000000000000000000e+003) (31, -1.50000000000000000000e+003) (32, 1.50000000000000000000e+003) (33, 1.50000000000000000000e+003) (34, 1.50000000000000000000e+003) (35, 1.50000000000000000000e+003) (36, 1.49775366210937500000e+003) (37, -1.19956640625000000000e+003) (38, 1.50000000000000000000e+003) (39, 1.50000000000000000000e+003) (40, -1.50000000000000000000e+003) (41, 1.49775366210937500000e+003) (42, 1.50000000000000000000e+003) (43, 1.50000000000000000000e+003) (44, 1.49992724609375000000e+003) (45, -9.59851684570312500000e+001) (46, 1.50000000000000000000e+003) (47, 1.50000000000000000000e+003) (48, 1.50000000000000000000e+003) (49, 1.50000000000000000000e+003) (50, 9.87956237792968750000e+002) (51, 2.32830917358398440000e+002) (52, 1.50000000000000000000e+003) (53, 1.50000000000000000000e+003) (54, -1.49069824218750000000e+003) (55, 1.49992724609375000000e+003) (56, 1.43566381835937500000e+003) (57, 1.49993029785156250000e+003) (58, 1.49992724609375000000e+003) (59, -9.39038467407226560000e+001) (60, 1.50000000000000000000e+003) (61, 1.50000000000000000000e+003) (62, 1.50000000000000000000e+003) (63, 1.50000000000000000000e+003) (64, 6.60581054687500000000e+002) (65, -7.52103149414062500000e+002) (66, 1.50000000000000000000e+003) (67, 1.50000000000000000000e+003) (68, 9.33093109130859370000e+001) (69, 4.11671829223632810000e+001) (70, 1.27653759765625000000e+003) (71, 1.48973291015625000000e+003) (72, 1.04609252929687500000e+002) (73, 9.45076446533203130000e+001) (74, 1.07482080078125000000e+003) (75, 6.98992065429687500000e+002) (76, 7.54739990234375000000e+002) (77, 2.32187026977539060000e+002) (78, 1.17639990234375000000e+003) (79, -1.39746032714843750000e+003) (80, -1.19598547363281250000e+003) (81, 1.67556343078613280000e+001) (82, 1.34767990112304690000e+002) (83, 1.47630493164062500000e+002) (84, 4.86927449703216550000e-001) (0, 1.50000000000000000000e+003) (1, 1.50000000000000000000e+003) (2, 1.50000000000000000000e+003) (3, 1.50000000000000000000e+003) (4, 1.50000000000000000000e+003) (5, 1.50000000000000000000e+003) (6, 1.50000000000000000000e+003) (7, 1.50000000000000000000e+003) (8, 1.50000000000000000000e+003) (9, 1.50000000000000000000e+003) (10, 1.50000000000000000000e+003) (11, 1.50000000000000000000e+003) (12, 1.50000000000000000000e+003) (13, 1.50000000000000000000e+003) (14, 1.50000000000000000000e+003) (15, 1.50000000000000000000e+003) (16, 1.50000000000000000000e+003) (17, 1.50000000000000000000e+003) (18, 1.50000000000000000000e+003) (19, 1.50000000000000000000e+003) (20, 1.50000000000000000000e+003) (21, 1.50000000000000000000e+003) (22, 1.50000000000000000000e+003) (23, 1.50000000000000000000e+003) (24, 1.50000000000000000000e+003) (25, 1.50000000000000000000e+003) (26, 1.50000000000000000000e+003) (27, 1.50000000000000000000e+003) (28, 1.50000000000000000000e+003) (29, 1.50000000000000000000e+003) (30, 1.50000000000000000000e+003) (31, 1.50000000000000000000e+003) (32, 1.50000000000000000000e+003) (33, 1.50000000000000000000e+003) (34, 1.50000000000000000000e+003) (35, 1.50000000000000000000e+003) (36, -1.43134643554687500000e+003) (37, 1.50000000000000000000e+003) (38, 1.50000000000000000000e+003) (39, 1.50000000000000000000e+003) (40, 1.50000000000000000000e+003) (41, -6.22346679687500000000e+002) (42, 1.50000000000000000000e+003) (43, 1.50000000000000000000e+003) (44, -1.22785087585449220000e+002) (45, 1.41290539550781250000e+003) (46, 1.50000000000000000000e+003) (47, 1.50000000000000000000e+003) (48, 1.50000000000000000000e+003) (49, 1.50000000000000000000e+003) (50, -6.38166320800781250000e+002) (51, 1.50000000000000000000e+003) (52, 1.50000000000000000000e+003) (53, 1.50000000000000000000e+003) (54, 1.50000000000000000000e+003) (55, -7.43135253906250000000e+002) (56, 1.50000000000000000000e+003) (57, -1.36748583984375000000e+003) (58, -1.22785087585449220000e+002) (59, 1.50000000000000000000e+003) (60, 1.50000000000000000000e+003) (61, 1.50000000000000000000e+003) (62, 1.50000000000000000000e+003) (63, 1.50000000000000000000e+003) (64, 1.50000000000000000000e+003) (65, 7.67628173828125000000e+002) (66, 1.50000000000000000000e+003) (67, 1.50000000000000000000e+003) (68, 1.05210681152343750000e+003) (69, -1.43116308593750000000e+003) (70, 1.37874121093750000000e+003) (71, -6.54927185058593750000e+002) (72, -5.11189346313476560000e+001) (73, 1.58475006103515620000e+002) (74, 1.50000000000000000000e+003) (75, -1.26527722167968750000e+003) (76, 1.49879467773437500000e+003) (77, -1.83940170288085940000e+002) (78, 1.48001977539062500000e+003) (79, -1.20995581054687500000e+003) (80, 4.37908386230468750000e+002) (81, 7.72378479003906250000e+002) (82, -7.01308959960937500000e+002) (83, 6.32792663574218750000e+002) (84, 1.60598203539848330000e-001) (0, 1.50000000000000000000e+003) (1, 1.50000000000000000000e+003) (2, 1.50000000000000000000e+003) (3, 1.50000000000000000000e+003) (4, 1.50000000000000000000e+003) (5, 1.50000000000000000000e+003) (6, 1.50000000000000000000e+003) (7, 1.50000000000000000000e+003) (8, 1.50000000000000000000e+003) (9, 1.50000000000000000000e+003) (10, 1.50000000000000000000e+003) (11, 1.50000000000000000000e+003) (12, 1.50000000000000000000e+003) (13, 1.50000000000000000000e+003) (14, 1.50000000000000000000e+003) (15, 1.50000000000000000000e+003) (16, 1.50000000000000000000e+003) (17, 1.50000000000000000000e+003) (18, 1.50000000000000000000e+003) (19, 1.50000000000000000000e+003) (20, 1.50000000000000000000e+003) (21, 1.50000000000000000000e+003) (22, 1.50000000000000000000e+003) (23, 1.50000000000000000000e+003) (24, 1.50000000000000000000e+003) (25, 1.50000000000000000000e+003) (26, 1.50000000000000000000e+003) (27, 1.50000000000000000000e+003) (28, 1.50000000000000000000e+003) (29, 1.50000000000000000000e+003) (30, 1.50000000000000000000e+003) (31, -1.50000000000000000000e+003) (32, 1.50000000000000000000e+003) (33, 1.50000000000000000000e+003) (34, 1.50000000000000000000e+003) (35, 1.50000000000000000000e+003) (36, 6.42736328125000000000e+002) (37, -1.19956640625000000000e+003) (38, 1.50000000000000000000e+003) (39, 1.50000000000000000000e+003) (40, -1.50000000000000000000e+003) (41, 1.49775366210937500000e+003) (42, 1.50000000000000000000e+003) (43, 1.50000000000000000000e+003) (44, 1.49992724609375000000e+003) (45, -9.59851684570312500000e+001) (46, 1.50000000000000000000e+003) (47, 1.50000000000000000000e+003) (48, 1.50000000000000000000e+003) (49, 1.50000000000000000000e+003) (50, 1.49982531738281250000e+003) (51, -1.47538513183593750000e+002) (52, 1.50000000000000000000e+003) (53, 1.50000000000000000000e+003) (54, -1.49069824218750000000e+003) (55, 1.49992724609375000000e+003) (56, 5.62118591308593750000e+002) (57, -8.63263977050781250000e+002) (58, 1.49992724609375000000e+003) (59, -9.39038467407226560000e+001) (60, 1.50000000000000000000e+003) (61, 1.50000000000000000000e+003) (62, 1.50000000000000000000e+003) (63, 1.50000000000000000000e+003) (64, 4.18840637207031250000e+002) (65, 1.49996362304687500000e+003) (66, 1.50000000000000000000e+003) (67, 1.50000000000000000000e+003) (68, -6.53797485351562500000e+002) (69, 6.16323913574218750000e+002) (70, -6.85949157714843750000e+002) (71, 1.20229016113281250000e+003) (72, -2.24133815765380860000e+001) (73, 3.94385864257812500000e+002) (74, 1.33498828125000000000e+003) (75, -1.33836352539062500000e+003) (76, 1.49999926757812500000e+003) (77, -1.81099975585937500000e+002) (78, -1.99391326904296880000e+002) (79, 1.39465844726562500000e+003) (80, -1.19598547363281250000e+003) (81, 1.33212539672851560000e+002) (82, 1.49991271972656250000e+003) (83, 4.29133972167968750000e+002) (84, -1.40617772936820980000e-001) (0, 1.50000000000000000000e+003) (1, 1.50000000000000000000e+003) (2, 1.50000000000000000000e+003) (3, 1.50000000000000000000e+003) (4, 1.50000000000000000000e+003) (5, 1.50000000000000000000e+003) (6, 1.50000000000000000000e+003) (7, 1.50000000000000000000e+003) (8, 1.50000000000000000000e+003) (9, 1.50000000000000000000e+003) (10, 1.50000000000000000000e+003) (11, 1.50000000000000000000e+003) (12, 1.50000000000000000000e+003) (13, 1.50000000000000000000e+003) (14, 1.50000000000000000000e+003) (15, 1.50000000000000000000e+003) (16, 1.50000000000000000000e+003) (17, 1.50000000000000000000e+003) (18, 1.50000000000000000000e+003) (19, 1.50000000000000000000e+003) (20, 1.50000000000000000000e+003) (21, 1.50000000000000000000e+003) (22, 1.50000000000000000000e+003) (23, 1.50000000000000000000e+003) (24, 1.50000000000000000000e+003) (25, 1.50000000000000000000e+003) (26, 1.50000000000000000000e+003) (27, 1.50000000000000000000e+003) (28, 1.50000000000000000000e+003) (29, 1.50000000000000000000e+003) (30, 1.50000000000000000000e+003) (31, 1.50000000000000000000e+003) (32, 1.50000000000000000000e+003) (33, 1.50000000000000000000e+003) (34, 1.50000000000000000000e+003) (35, 1.50000000000000000000e+003) (36, -4.38649932861328130000e+002) (37, 1.50000000000000000000e+003) (38, 1.50000000000000000000e+003) (39, 1.50000000000000000000e+003) (40, 1.50000000000000000000e+003) (41, -6.22346679687500000000e+002) (42, 1.50000000000000000000e+003) (43, 1.50000000000000000000e+003) (44, -1.47278491210937500000e+003) (45, 1.41290539550781250000e+003) (46, 1.50000000000000000000e+003) (47, 1.50000000000000000000e+003) (48, 1.50000000000000000000e+003) (49, 1.50000000000000000000e+003) (50, 1.90744308471679690000e+002) (51, 1.39928137207031250000e+003) (52, 1.50000000000000000000e+003) (53, 1.50000000000000000000e+003) (54, 1.50000000000000000000e+003) (55, -1.47278491210937500000e+003) (56, 7.09276000976562500000e+002) (57, 1.17319873046875000000e+003) (58, -1.22785087585449220000e+002) (59, 1.50000000000000000000e+003) (60, 1.50000000000000000000e+003) (61, 1.50000000000000000000e+003) (62, 1.50000000000000000000e+003) (63, 1.50000000000000000000e+003) (64, 9.58048828125000000000e+002) (65, 6.99716918945312500000e+002) (66, 1.50000000000000000000e+003) (67, 1.50000000000000000000e+003) (68, 5.60192504882812500000e+002) (69, 8.56353698730468750000e+002) (70, -1.31485461425781250000e+003) (71, 1.14294934082031250000e+003) (72, -6.82215957641601560000e+001) (73, 1.02303057861328120000e+003) (74, 9.28980773925781250000e+002) (75, 6.16864074707031250000e+002) (76, 1.47667785644531250000e+003) (77, -1.91774768829345700000e+001) (78, -5.40668395996093750000e+002) (79, 1.50000000000000000000e+003) (80, 1.41290539550781250000e+003) (81, -7.60419494628906250000e+002) (82, -5.21169548034667970000e+001) (83, 1.02481933593750000000e+003) (84, 7.29970097541809080000e-001) (0, 1.50000000000000000000e+003) (1, 1.50000000000000000000e+003) (2, 1.50000000000000000000e+003) (3, 1.50000000000000000000e+003) (4, 1.50000000000000000000e+003) (5, 1.50000000000000000000e+003) (6, 1.50000000000000000000e+003) (7, 1.50000000000000000000e+003) (8, 1.50000000000000000000e+003) (9, 1.50000000000000000000e+003) (10, 1.50000000000000000000e+003) (11, 1.50000000000000000000e+003) (12, 1.50000000000000000000e+003) (13, 1.50000000000000000000e+003) (14, 1.50000000000000000000e+003) (15, 1.50000000000000000000e+003) (16, 1.50000000000000000000e+003) (17, 1.50000000000000000000e+003) (18, 1.50000000000000000000e+003) (19, 1.50000000000000000000e+003) (20, 1.50000000000000000000e+003) (21, 1.50000000000000000000e+003) (22, 1.50000000000000000000e+003) (23, 1.50000000000000000000e+003) (24, 1.50000000000000000000e+003) (25, 1.50000000000000000000e+003) (26, 1.50000000000000000000e+003) (27, 1.50000000000000000000e+003) (28, 1.50000000000000000000e+003) (29, 1.50000000000000000000e+003) (30, 1.50000000000000000000e+003) (31, -1.50000000000000000000e+003) (32, 1.50000000000000000000e+003) (33, 1.50000000000000000000e+003) (34, 1.50000000000000000000e+003) (35, 1.50000000000000000000e+003) (36, 1.49775366210937500000e+003) (37, -1.42610180664062500000e+003) (38, 1.50000000000000000000e+003) (39, 1.50000000000000000000e+003) (40, -1.50000000000000000000e+003) (41, 1.49775366210937500000e+003) (42, 1.50000000000000000000e+003) (43, 1.50000000000000000000e+003) (44, 1.49992724609375000000e+003) (45, -9.59851684570312500000e+001) (46, 1.50000000000000000000e+003) (47, 1.50000000000000000000e+003) (48, 1.50000000000000000000e+003) (49, 1.50000000000000000000e+003) (50, 1.49982531738281250000e+003) (51, -6.59515258789062500000e+002) (52, 1.50000000000000000000e+003) (53, 1.50000000000000000000e+003) (54, -1.49069824218750000000e+003) (55, 1.49992724609375000000e+003) (56, 2.43193923950195310000e+002) (57, 1.49991271972656250000e+003) (58, 1.49992724609375000000e+003) (59, -9.46196044921875000000e+002) (60, 1.50000000000000000000e+003) (61, 1.50000000000000000000e+003) (62, 1.50000000000000000000e+003) (63, 1.50000000000000000000e+003) (64, 3.20679870605468750000e+002) (65, 1.49996362304687500000e+003) (66, 1.50000000000000000000e+003) (67, 1.50000000000000000000e+003) (68, 9.33093109130859370000e+001) (69, 1.37680712890625000000e+003) (70, -1.32861816406250000000e+003) (71, 1.20366491699218750000e+003) (72, -4.14478378295898440000e+001) (73, 8.03707641601562500000e+002) (74, 3.11377441406250000000e+002) (75, -1.08352526855468750000e+003) (76, 1.49999829101562500000e+003) (77, -1.68526641845703120000e+002) (78, -1.04029304504394530000e+002) (79, 1.17295568847656250000e+003) (80, 2.30966739654541020000e+001) (81, -4.65607604980468750000e+002) (82, 9.27333374023437500000e+002) (83, 2.32145629882812500000e+002) (84, 3.25233191251754760000e-001) (0, 1.50000000000000000000e+003) (1, 1.50000000000000000000e+003) (2, 1.50000000000000000000e+003) (3, 1.50000000000000000000e+003) (4, 1.50000000000000000000e+003) (5, 1.50000000000000000000e+003) (6, 1.50000000000000000000e+003) (7, 1.50000000000000000000e+003) (8, 1.50000000000000000000e+003) (9, 1.50000000000000000000e+003) (10, 1.50000000000000000000e+003) (11, 1.50000000000000000000e+003) (12, 1.50000000000000000000e+003) (13, 1.50000000000000000000e+003) (14, 1.50000000000000000000e+003) (15, 1.50000000000000000000e+003) (16, 1.50000000000000000000e+003) (17, 1.50000000000000000000e+003) (18, 1.50000000000000000000e+003) (19, 1.50000000000000000000e+003) (20, 1.50000000000000000000e+003) (21, 1.50000000000000000000e+003) (22, 1.50000000000000000000e+003) (23, 1.50000000000000000000e+003) (24, 1.50000000000000000000e+003) (25, 1.50000000000000000000e+003) (26, 1.50000000000000000000e+003) (27, 1.50000000000000000000e+003) (28, 1.50000000000000000000e+003) (29, 1.50000000000000000000e+003) (30, 1.50000000000000000000e+003) (31, 1.50000000000000000000e+003) (32, 1.50000000000000000000e+003) (33, 1.50000000000000000000e+003) (34, 1.50000000000000000000e+003) (35, 1.50000000000000000000e+003) (36, -4.38649932861328130000e+002) (37, 1.40176733398437500000e+003) (38, 1.50000000000000000000e+003) (39, 1.50000000000000000000e+003) (40, 1.50000000000000000000e+003) (41, -6.22346679687500000000e+002) (42, 1.50000000000000000000e+003) (43, 1.50000000000000000000e+003) (44, -1.14443676757812500000e+003) (45, 1.41290539550781250000e+003) (46, 1.50000000000000000000e+003) (47, 1.50000000000000000000e+003) (48, 1.50000000000000000000e+003) (49, 1.50000000000000000000e+003) (50, -1.00423272705078120000e+003) (51, 1.50000000000000000000e+003) (52, 1.50000000000000000000e+003) (53, 1.50000000000000000000e+003) (54, 1.50000000000000000000e+003) (55, -1.47278491210937500000e+003) (56, 8.85091308593750000000e+002) (57, 1.17319873046875000000e+003) (58, -1.22785087585449220000e+002) (59, 1.50000000000000000000e+003) (60, 1.50000000000000000000e+003) (61, 1.50000000000000000000e+003) (62, 1.50000000000000000000e+003) (63, 1.50000000000000000000e+003) (64, 1.50000000000000000000e+003) (65, 4.59727783203125000000e+002) (66, 1.50000000000000000000e+003) (67, 1.50000000000000000000e+003) (68, 1.08500158691406250000e+003) (69, 1.48154205322265620000e+002) (70, 3.49192138671875000000e+002) (71, 1.07781372070312500000e+003) (72, 7.13986129760742190000e+001) (73, 1.01837695312500000000e+003) (74, 1.33924902343750000000e+003) (75, 1.49776953125000000000e+003) (76, 7.31821838378906250000e+002) (77, 4.88191528320312500000e+002) (78, -2.55192764282226560000e+002) (79, 1.50000000000000000000e+003) (80, 1.41290539550781250000e+003) (81, 1.04145515441894530000e+002) (82, -4.34344573974609380000e+002) (83, 1.02481933593750000000e+003) (84, -2.52707362174987790000e-001) (0, 1.50000000000000000000e+003) (1, 1.50000000000000000000e+003) (2, 1.50000000000000000000e+003) (3, 1.50000000000000000000e+003) (4, 1.50000000000000000000e+003) (5, 1.50000000000000000000e+003) (6, 1.50000000000000000000e+003) (7, 1.50000000000000000000e+003) (8, 1.50000000000000000000e+003) (9, 1.50000000000000000000e+003) (10, 1.50000000000000000000e+003) (11, 1.50000000000000000000e+003) (12, 1.50000000000000000000e+003) (13, 1.50000000000000000000e+003) (14, 1.50000000000000000000e+003) (15, 1.50000000000000000000e+003) (16, 1.50000000000000000000e+003) (17, 1.50000000000000000000e+003) (18, 1.50000000000000000000e+003) (19, 1.50000000000000000000e+003) (20, 1.50000000000000000000e+003) (21, 1.50000000000000000000e+003) (22, 1.50000000000000000000e+003) (23, 1.50000000000000000000e+003) (24, 1.50000000000000000000e+003) (25, 1.50000000000000000000e+003) (26, 1.50000000000000000000e+003) (27, 1.50000000000000000000e+003) (28, 1.50000000000000000000e+003) (29, 1.50000000000000000000e+003) (30, 1.50000000000000000000e+003) (31, -4.59199951171875000000e+002) (32, 1.50000000000000000000e+003) (33, 1.50000000000000000000e+003) (34, 1.50000000000000000000e+003) (35, 1.50000000000000000000e+003) (36, -6.30098876953125000000e+002) (37, 3.42101715087890630000e+002) (38, 1.50000000000000000000e+003) (39, 1.50000000000000000000e+003) (40, -4.59199951171875000000e+002) (41, 4.22500457763671870000e+002) (42, 1.50000000000000000000e+003) (43, 1.50000000000000000000e+003) (44, -5.51584358215332030000e+001) (45, 1.48052685546875000000e+003) (46, 1.50000000000000000000e+003) (47, 1.50000000000000000000e+003) (48, 1.50000000000000000000e+003) (49, 1.50000000000000000000e+003) (50, 5.56233882904052730000e-001) (51, 1.40605664062500000000e+003) (52, 1.50000000000000000000e+003) (53, 1.50000000000000000000e+003) (54, 3.42101715087890630000e+002) (55, -6.64852661132812500000e+002) (56, 1.46602319335937500000e+003) (57, -1.35971411132812500000e+003) (58, -5.51584358215332030000e+001) (59, 1.42981652832031250000e+003) (60, 1.50000000000000000000e+003) (61, 1.50000000000000000000e+003) (62, 1.50000000000000000000e+003) (63, 1.50000000000000000000e+003) (64, 1.46653662109375000000e+003) (65, -3.28073791503906250000e+002) (66, 1.50000000000000000000e+003) (67, 1.50000000000000000000e+003) (68, 1.41789770507812500000e+003) (69, -7.88023681640625000000e+002) (70, 1.49806506347656250000e+003) (71, -5.06059478759765620000e+002) (72, 3.87033510208129880000e+000) (73, -3.89470916748046880000e+002) (74, 7.64191223144531250000e+002) (75, 1.49897473144531250000e+003) (76, 7.38504760742187500000e+002) (77, 1.18646339416503910000e+002) (78, 1.48979895019531250000e+003) (79, -1.22037341308593750000e+003) (80, 1.09453125000000000000e+003) (81, 6.31648925781250000000e+002) (82, -3.34768737792968750000e+002) (83, 1.49476672363281250000e+003) (84, -8.89171659946441650000e-002) (0, 1.50000000000000000000e+003) (1, 1.50000000000000000000e+003) (2, 1.50000000000000000000e+003) (3, 1.50000000000000000000e+003) (4, 1.50000000000000000000e+003) (5, 1.50000000000000000000e+003) (6, 1.50000000000000000000e+003) (7, 1.50000000000000000000e+003) (8, 1.50000000000000000000e+003) (9, 1.50000000000000000000e+003) (10, 1.50000000000000000000e+003) (11, 1.50000000000000000000e+003) (12, 1.50000000000000000000e+003) (13, 1.50000000000000000000e+003) (14, 1.50000000000000000000e+003) (15, 1.50000000000000000000e+003) (16, 1.50000000000000000000e+003) (17, 1.50000000000000000000e+003) (18, 1.50000000000000000000e+003) (19, 1.50000000000000000000e+003) (20, 1.50000000000000000000e+003) (21, 1.50000000000000000000e+003) (22, 1.50000000000000000000e+003) (23, 1.50000000000000000000e+003) (24, 1.50000000000000000000e+003) (25, 1.50000000000000000000e+003) (26, 1.50000000000000000000e+003) (27, 1.50000000000000000000e+003) (28, 1.50000000000000000000e+003) (29, 1.50000000000000000000e+003) (30, 1.50000000000000000000e+003) (31, 1.50000000000000000000e+003) (32, 1.50000000000000000000e+003) (33, 1.50000000000000000000e+003) (34, 1.50000000000000000000e+003) (35, 1.50000000000000000000e+003) (36, -4.38649932861328130000e+002) (37, 1.40176733398437500000e+003) (38, 1.50000000000000000000e+003) (39, 1.50000000000000000000e+003) (40, 1.50000000000000000000e+003) (41, -6.22346679687500000000e+002) (42, 1.50000000000000000000e+003) (43, 1.50000000000000000000e+003) (44, -1.15582397460937500000e+003) (45, 1.41290539550781250000e+003) (46, 1.50000000000000000000e+003) (47, 1.50000000000000000000e+003) (48, 1.50000000000000000000e+003) (49, 1.50000000000000000000e+003) (50, -8.65289245605468750000e+002) (51, 1.50000000000000000000e+003) (52, 1.50000000000000000000e+003) (53, 1.50000000000000000000e+003) (54, 1.50000000000000000000e+003) (55, -1.47278491210937500000e+003) (56, 6.90046081542968750000e+002) (57, 1.17319873046875000000e+003) (58, -1.22785087585449220000e+002) (59, 1.50000000000000000000e+003) (60, 1.50000000000000000000e+003) (61, 1.50000000000000000000e+003) (62, 1.50000000000000000000e+003) (63, 1.50000000000000000000e+003) (64, 1.50000000000000000000e+003) (65, 4.35688964843750000000e+002) (66, 1.50000000000000000000e+003) (67, 1.50000000000000000000e+003) (68, 1.09039282226562500000e+003) (69, 3.82353942871093750000e+002) (70, 3.08541900634765620000e+002) (71, 1.14294934082031250000e+003) (72, 7.15820159912109380000e+001) (73, 1.20027880859375000000e+003) (74, 8.11265136718750000000e+002) (75, 1.47846191406250000000e+003) (76, 7.29749572753906250000e+002) (77, 4.95225982666015620000e+002) (78, -7.29975402832031250000e+002) (79, 1.50000000000000000000e+003) (80, 1.41290539550781250000e+003) (81, -1.32655578613281250000e+002) (82, -3.06003326416015620000e+002) (83, 1.02481933593750000000e+003) (84, 4.06905524432659150000e-002) (85, -9.84239112585783000000e-003) (86, 3.52394074201583860000e-001) (87, 3.46757583320140840000e-002) (88, 1.14820539951324460000e-001) (89, -4.15898161008954050000e-003) (90, 5.91213665902614590000e-002) (91, 5.40466804523020980000e-004) (92, -6.26762509346008300000e-002) (93, -7.53648206591606140000e-002) (94, 2.41938736289739610000e-002) (95, 1.14208810031414030000e-001) (96, -3.08044571429491040000e-002) (97, -1.22302956879138950000e-002) (98, -1.35364010930061340000e-003) (99, 1.29924574866890910000e-002) (100, 1.99477393180131910000e-002) (101, -6.06588236987590790000e-002) (102, 1.71527154743671420000e-002) (103, 4.16574329137802120000e-002) (104, -1.85877960175275800000e-002) (105, -1.18677318096160890000e-002) (106, 9.03028175234794620000e-002) (107, -1.26711027696728710000e-002) (108, 2.18263976275920870000e-002) (109, -2.00741607695817950000e-002) (110, 7.81356915831565860000e-002) (111, -1.00827425718307500000e-001) (112, 3.44266672618687150000e-003) (113, -2.02362723648548130000e-002) (114, 5.15151955187320710000e-003) (115, -4.18456554412841800000e-001) 
