FANN_FLO_2.1
num_layers=3
learning_rate=0.100000
connection_rate=1.000000
network_type=0
learning_momentum=0.000000
training_algorithm=2
train_error_function=1
train_stop_function=0
cascade_output_change_fraction=0.010000
quickprop_decay=-0.000100
quickprop_mu=1.750000
rprop_increase_factor=1.200000
rprop_decrease_factor=0.500000
rprop_delta_min=0.000000
rprop_delta_max=50.000000
rprop_delta_zero=0.100000
cascade_output_stagnation_epochs=12
cascade_candidate_change_fraction=0.010000
cascade_candidate_stagnation_epochs=12
cascade_max_out_epochs=150
cascade_min_out_epochs=50
cascade_max_cand_epochs=150
cascade_min_cand_epochs=50
cascade_num_candidate_groups=2
bit_fail_limit=3.49999994039535520000e-001
cascade_candidate_limit=1.00000000000000000000e+003
cascade_weight_multiplier=4.00000005960464480000e-001
cascade_activation_functions_count=10
cascade_activation_functions=3 5 7 8 10 11 14 15 16 17 
cascade_activation_steepnesses_count=4
cascade_activation_steepnesses=2.50000000000000000000e-001 5.00000000000000000000e-001 7.50000000000000000000e-001 1.00000000000000000000e+000 
layer_sizes=85 31 2 
scale_included=0
neurons (num_inputs, activation_function, activation_steepness)=(0, 0, 0.00000000000000000000e+000) (0, 0, 0.00000000000000000000e+000) (0, 0, 0.00000000000000000000e+000) (0, 0, 0.00000000000000000000e+000) (0, 0, 0.00000000000000000000e+000) (0, 0, 0.00000000000000000000e+000) (0, 0, 0.00000000000000000000e+000) (0, 0, 0.00000000000000000000e+000) (0, 0, 0.00000000000000000000e+000) (0, 0, 0.00000000000000000000e+000) (0, 0, 0.00000000000000000000e+000) (0, 0, 0.00000000000000000000e+000) (0, 0, 0.00000000000000000000e+000) (0, 0, 0.00000000000000000000e+000) (0, 0, 0.00000000000000000000e+000) (0, 0, 0.00000000000000000000e+000) (0, 0, 0.00000000000000000000e+000) (0, 0, 0.00000000000000000000e+000) (0, 0, 0.00000000000000000000e+000) (0, 0, 0.00000000000000000000e+000) (0, 0, 0.00000000000000000000e+000) (0, 0, 0.00000000000000000000e+000) (0, 0, 0.00000000000000000000e+000) (0, 0, 0.00000000000000000000e+000) (0, 0, 0.00000000000000000000e+000) (0, 0, 0.00000000000000000000e+000) (0, 0, 0.00000000000000000000e+000) (0, 0, 0.00000000000000000000e+000) (0, 0, 0.00000000000000000000e+000) (0, 0, 0.00000000000000000000e+000) (0, 0, 0.00000000000000000000e+000) (0, 0, 0.00000000000000000000e+000) (0, 0, 0.00000000000000000000e+000) (0, 0, 0.00000000000000000000e+000) (0, 0, 0.00000000000000000000e+000) (0, 0, 0.00000000000000000000e+000) (0, 0, 0.00000000000000000000e+000) (0, 0, 0.00000000000000000000e+000) (0, 0, 0.00000000000000000000e+000) (0, 0, 0.00000000000000000000e+000) (0, 0, 0.00000000000000000000e+000) (0, 0, 0.00000000000000000000e+000) (0, 0, 0.00000000000000000000e+000) (0, 0, 0.00000000000000000000e+000) (0, 0, 0.00000000000000000000e+000) (0, 0, 0.00000000000000000000e+000) (0, 0, 0.00000000000000000000e+000) (0, 0, 0.00000000000000000000e+000) (0, 0, 0.00000000000000000000e+000) (0, 0, 0.00000000000000000000e+000) (0, 0, 0.00000000000000000000e+000) (0, 0, 0.00000000000000000000e+000) (0, 0, 0.00000000000000000000e+000) (0, 0, 0.00000000000000000000e+000) (0, 0, 0.00000000000000000000e+000) (0, 0, 0.00000000000000000000e+000) (0, 0, 0.00000000000000000000e+000) (0, 0, 0.00000000000000000000e+000) (0, 0, 0.00000000000000000000e+000) (0, 0, 0.00000000000000000000e+000) (0, 0, 0.00000000000000000000e+000) (0, 0, 0.00000000000000000000e+000) (0, 0, 0.00000000000000000000e+000) (0, 0, 0.00000000000000000000e+000) (0, 0, 0.00000000000000000000e+000) (0, 0, 0.00000000000000000000e+000) (0, 0, 0.00000000000000000000e+000) (0, 0, 0.00000000000000000000e+000) (0, 0, 0.00000000000000000000e+000) (0, 0, 0.00000000000000000000e+000) (0, 0, 0.00000000000000000000e+000) (0, 0, 0.00000000000000000000e+000) (0, 0, 0.00000000000000000000e+000) (0, 0, 0.00000000000000000000e+000) (0, 0, 0.00000000000000000000e+000) (0, 0, 0.00000000000000000000e+000) (0, 0, 0.00000000000000000000e+000) (0, 0, 0.00000000000000000000e+000) (0, 0, 0.00000000000000000000e+000) (0, 0, 0.00000000000000000000e+000) (0, 0, 0.00000000000000000000e+000) (0, 0, 0.00000000000000000000e+000) (0, 0, 0.00000000000000000000e+000) (0, 0, 0.00000000000000000000e+000) (0, 0, 0.00000000000000000000e+000) (85, 6, 1.00000000000000000000e+000) (85, 6, 1.00000000000000000000e+000) (85, 6, 1.00000000000000000000e+000) (85, 6, 1.00000000000000000000e+000) (85, 6, 1.00000000000000000000e+000) (85, 6, 1.00000000000000000000e+000) (85, 6, 1.00000000000000000000e+000) (85, 6, 1.00000000000000000000e+000) (85, 6, 1.00000000000000000000e+000) (85, 6, 1.00000000000000000000e+000) (85, 6, 1.00000000000000000000e+000) (85, 6, 1.00000000000000000000e+000) (85, 6, 1.00000000000000000000e+000) (85, 6, 1.00000000000000000000e+000) (85, 6, 1.00000000000000000000e+000) (85, 6, 1.00000000000000000000e+000) (85, 6, 1.00000000000000000000e+000) (85, 6, 1.00000000000000000000e+000) (85, 6, 1.00000000000000000000e+000) (85, 6, 1.00000000000000000000e+000) (85, 6, 1.00000000000000000000e+000) (85, 6, 1.00000000000000000000e+000) (85, 6, 1.00000000000000000000e+000) (85, 6, 1.00000000000000000000e+000) (85, 6, 1.00000000000000000000e+000) (85, 6, 1.00000000000000000000e+000) (85, 6, 1.00000000000000000000e+000) (85, 6, 1.00000000000000000000e+000) (85, 6, 1.00000000000000000000e+000) (85, 6, 1.00000000000000000000e+000) (0, 6, 1.00000000000000000000e+000) (31, 6, 1.00000000000000000000e+000) (0, 6, 1.00000000000000000000e+000) 
connections (connected_to_neuron, weight)=(0, 1.50000000000000000000e+003) (1, 1.50000000000000000000e+003) (2, 1.50000000000000000000e+003) (3, 1.50000000000000000000e+003) (4, 1.50000000000000000000e+003) (5, 1.50000000000000000000e+003) (6, 1.50000000000000000000e+003) (7, 1.50000000000000000000e+003) (8, 1.50000000000000000000e+003) (9, 1.50000000000000000000e+003) (10, 1.50000000000000000000e+003) (11, 1.50000000000000000000e+003) (12, 1.50000000000000000000e+003) (13, 1.50000000000000000000e+003) (14, 1.50000000000000000000e+003) (15, 1.50000000000000000000e+003) (16, 1.50000000000000000000e+003) (17, 1.25000000000000000000e+003) (18, 1.50000000000000000000e+003) (19, 1.50000000000000000000e+003) (20, 1.50000000000000000000e+003) (21, 1.50000000000000000000e+003) (22, 1.50000000000000000000e+003) (23, 1.50000000000000000000e+003) (24, 1.50000000000000000000e+003) (25, 1.50000000000000000000e+003) (26, 1.50000000000000000000e+003) (27, 1.50000000000000000000e+003) (28, 1.50000000000000000000e+003) (29, 1.50000000000000000000e+003) (30, 1.25000000000000000000e+003) (31, 1.50000000000000000000e+003) (32, 1.50000000000000000000e+003) (33, 1.39275683593750000000e+003) (34, 1.50000000000000000000e+003) (35, 1.25000000000000000000e+003) (36, 1.50000000000000000000e+003) (37, 1.50000000000000000000e+003) (38, 1.50000000000000000000e+003) (39, 1.50000000000000000000e+003) (40, 1.50000000000000000000e+003) (41, 1.50000000000000000000e+003) (42, 1.50000000000000000000e+003) (43, 1.50000000000000000000e+003) (44, 1.50000000000000000000e+003) (45, 1.25000000000000000000e+003) (46, 1.50000000000000000000e+003) (47, 1.39275683593750000000e+003) (48, 1.50000000000000000000e+003) (49, 1.39275683593750000000e+003) (50, 1.50000000000000000000e+003) (51, 1.50000000000000000000e+003) (52, 1.50000000000000000000e+003) (53, 1.50000000000000000000e+003) (54, 1.50000000000000000000e+003) (55, 1.50000000000000000000e+003) (56, 1.50000000000000000000e+003) (57, 1.50000000000000000000e+003) (58, 1.25000000000000000000e+003) (59, 1.50000000000000000000e+003) (60, 1.39275683593750000000e+003) (61, 1.50000000000000000000e+003) (62, 1.50000000000000000000e+003) (63, 1.25000000000000000000e+003) (64, 1.50000000000000000000e+003) (65, 1.25000000000000000000e+003) (66, 1.25000000000000000000e+003) (67, 1.50000000000000000000e+003) (68, 1.50000000000000000000e+003) (69, 1.50000000000000000000e+003) (70, 1.39275683593750000000e+003) (71, 1.50000000000000000000e+003) (72, 1.50000000000000000000e+003) (73, 1.25000000000000000000e+003) (74, 1.25000000000000000000e+003) (75, 1.50000000000000000000e+003) (76, 1.39275683593750000000e+003) (77, 1.50000000000000000000e+003) (78, 1.50000000000000000000e+003) (79, 1.39275683593750000000e+003) (80, 1.25000000000000000000e+003) (81, 1.50000000000000000000e+003) (82, 1.25000000000000000000e+003) (83, 1.50000000000000000000e+003) (84, 7.44372463226318360000e+000) (0, 1.50000000000000000000e+003) (1, 1.50000000000000000000e+003) (2, 1.50000000000000000000e+003) (3, 1.50000000000000000000e+003) (4, 1.50000000000000000000e+003) (5, 1.50000000000000000000e+003) (6, 1.50000000000000000000e+003) (7, 1.50000000000000000000e+003) (8, 1.50000000000000000000e+003) (9, 1.50000000000000000000e+003) (10, 1.50000000000000000000e+003) (11, 1.50000000000000000000e+003) (12, 1.50000000000000000000e+003) (13, 1.50000000000000000000e+003) (14, 1.50000000000000000000e+003) (15, 1.50000000000000000000e+003) (16, 1.50000000000000000000e+003) (17, 1.25000000000000000000e+003) (18, 1.50000000000000000000e+003) (19, 1.50000000000000000000e+003) (20, 1.50000000000000000000e+003) (21, 1.50000000000000000000e+003) (22, 1.50000000000000000000e+003) (23, 1.50000000000000000000e+003) (24, 1.50000000000000000000e+003) (25, 1.50000000000000000000e+003) (26, 1.50000000000000000000e+003) (27, 1.50000000000000000000e+003) (28, 1.50000000000000000000e+003) (29, 1.50000000000000000000e+003) (30, 1.25000000000000000000e+003) (31, 1.50000000000000000000e+003) (32, 1.50000000000000000000e+003) (33, 1.39275683593750000000e+003) (34, 1.50000000000000000000e+003) (35, 1.25000000000000000000e+003) (36, 1.50000000000000000000e+003) (37, 1.50000000000000000000e+003) (38, 1.50000000000000000000e+003) (39, 1.50000000000000000000e+003) (40, 1.50000000000000000000e+003) (41, 1.50000000000000000000e+003) (42, 1.50000000000000000000e+003) (43, 1.50000000000000000000e+003) (44, 1.50000000000000000000e+003) (45, 1.25000000000000000000e+003) (46, 1.50000000000000000000e+003) (47, 1.39275683593750000000e+003) (48, 1.50000000000000000000e+003) (49, 1.39275683593750000000e+003) (50, 1.50000000000000000000e+003) (51, 1.50000000000000000000e+003) (52, 1.50000000000000000000e+003) (53, 1.50000000000000000000e+003) (54, 1.50000000000000000000e+003) (55, 1.50000000000000000000e+003) (56, 1.50000000000000000000e+003) (57, 1.50000000000000000000e+003) (58, 1.25000000000000000000e+003) (59, 1.50000000000000000000e+003) (60, 1.39275683593750000000e+003) (61, 1.50000000000000000000e+003) (62, 1.50000000000000000000e+003) (63, 1.25000000000000000000e+003) (64, 1.50000000000000000000e+003) (65, 1.25000000000000000000e+003) (66, 1.25000000000000000000e+003) (67, 1.50000000000000000000e+003) (68, 1.50000000000000000000e+003) (69, 1.50000000000000000000e+003) (70, 1.39275683593750000000e+003) (71, 1.50000000000000000000e+003) (72, 1.50000000000000000000e+003) (73, 1.25000000000000000000e+003) (74, 1.25000000000000000000e+003) (75, 1.50000000000000000000e+003) (76, 1.39275683593750000000e+003) (77, 1.50000000000000000000e+003) (78, 1.50000000000000000000e+003) (79, 1.39275683593750000000e+003) (80, 1.25000000000000000000e+003) (81, 1.50000000000000000000e+003) (82, 1.25000000000000000000e+003) (83, 1.50000000000000000000e+003) (84, 8.31593799591064450000e+000) (0, 1.25824316406250000000e+003) (1, 1.50000000000000000000e+003) (2, 1.50000000000000000000e+003) (3, 1.50000000000000000000e+003) (4, 1.25824316406250000000e+003) (5, 1.50000000000000000000e+003) (6, 1.50000000000000000000e+003) (7, 1.50000000000000000000e+003) (8, 1.50000000000000000000e+003) (9, 1.50000000000000000000e+003) (10, 1.50000000000000000000e+003) (11, 1.50000000000000000000e+003) (12, 1.50000000000000000000e+003) (13, 1.50000000000000000000e+003) (14, 1.50000000000000000000e+003) (15, 1.25824316406250000000e+003) (16, 1.50000000000000000000e+003) (17, 1.50000000000000000000e+003) (18, 1.25824316406250000000e+003) (19, 1.50000000000000000000e+003) (20, 1.50000000000000000000e+003) (21, 1.50000000000000000000e+003) (22, 1.50000000000000000000e+003) (23, 1.25824316406250000000e+003) (24, 1.50000000000000000000e+003) (25, 1.50000000000000000000e+003) (26, 1.50000000000000000000e+003) (27, 1.50000000000000000000e+003) (28, 1.34904321289062500000e+003) (29, 1.50000000000000000000e+003) (30, 1.50000000000000000000e+003) (31, 1.50000000000000000000e+003) (32, 1.50000000000000000000e+003) (33, 1.36398425292968750000e+003) (34, 1.50000000000000000000e+003) (35, 1.50000000000000000000e+003) (36, 1.25824316406250000000e+003) (37, 1.50000000000000000000e+003) (38, 1.50000000000000000000e+003) (39, 1.25824316406250000000e+003) (40, 1.50000000000000000000e+003) (41, 1.50000000000000000000e+003) (42, 1.50000000000000000000e+003) (43, 1.34904321289062500000e+003) (44, 1.50000000000000000000e+003) (45, 1.50000000000000000000e+003) (46, 1.50000000000000000000e+003) (47, 1.25824316406250000000e+003) (48, 1.50000000000000000000e+003) (49, 1.25824316406250000000e+003) (50, 1.50000000000000000000e+003) (51, 1.25824316406250000000e+003) (52, 1.25824316406250000000e+003) (53, 1.50000000000000000000e+003) (54, 1.50000000000000000000e+003) (55, 1.25824316406250000000e+003) (56, 1.25824316406250000000e+003) (57, 1.50000000000000000000e+003) (58, 1.50000000000000000000e+003) (59, 1.25824316406250000000e+003) (60, 1.36398425292968750000e+003) (61, 1.50000000000000000000e+003) (62, 1.25824316406250000000e+003) (63, 1.50000000000000000000e+003) (64, 1.25824316406250000000e+003) (65, 1.50000000000000000000e+003) (66, 1.50000000000000000000e+003) (67, 1.25824316406250000000e+003) (68, 1.25824316406250000000e+003) (69, 1.50000000000000000000e+003) (70, 1.36398425292968750000e+003) (71, 1.50000000000000000000e+003) (72, 1.25824316406250000000e+003) (73, 1.50000000000000000000e+003) (74, 1.50000000000000000000e+003) (75, 1.36398425292968750000e+003) (76, 1.25824316406250000000e+003) (77, 1.50000000000000000000e+003) (78, 1.50000000000000000000e+003) (79, 1.25824316406250000000e+003) (80, 1.50000000000000000000e+003) (81, 1.25824316406250000000e+003) (82, 1.50000000000000000000e+003) (83, 1.25824316406250000000e+003) (84, 2.24829459190368650000e+000) (0, 1.25824316406250000000e+003) (1, 1.50000000000000000000e+003) (2, 1.50000000000000000000e+003) (3, 1.50000000000000000000e+003) (4, 1.25824316406250000000e+003) (5, 1.50000000000000000000e+003) (6, 1.50000000000000000000e+003) (7, 1.50000000000000000000e+003) (8, 1.50000000000000000000e+003) (9, 1.50000000000000000000e+003) (10, 1.50000000000000000000e+003) (11, 1.50000000000000000000e+003) (12, 1.50000000000000000000e+003) (13, 1.50000000000000000000e+003) (14, 1.50000000000000000000e+003) (15, 1.25824316406250000000e+003) (16, 1.50000000000000000000e+003) (17, 1.50000000000000000000e+003) (18, 1.25824316406250000000e+003) (19, 1.50000000000000000000e+003) (20, 1.50000000000000000000e+003) (21, 1.50000000000000000000e+003) (22, 1.50000000000000000000e+003) (23, 1.25824316406250000000e+003) (24, 1.50000000000000000000e+003) (25, 1.50000000000000000000e+003) (26, 1.50000000000000000000e+003) (27, 1.50000000000000000000e+003) (28, 1.34904321289062500000e+003) (29, 1.50000000000000000000e+003) (30, 1.50000000000000000000e+003) (31, 1.50000000000000000000e+003) (32, 1.50000000000000000000e+003) (33, 1.36398425292968750000e+003) (34, 1.50000000000000000000e+003) (35, 1.50000000000000000000e+003) (36, 1.25824316406250000000e+003) (37, 1.50000000000000000000e+003) (38, 1.50000000000000000000e+003) (39, 1.25824316406250000000e+003) (40, 1.50000000000000000000e+003) (41, 1.50000000000000000000e+003) (42, 1.50000000000000000000e+003) (43, 1.34904321289062500000e+003) (44, 1.50000000000000000000e+003) (45, 1.50000000000000000000e+003) (46, 1.50000000000000000000e+003) (47, 1.25824316406250000000e+003) (48, 1.50000000000000000000e+003) (49, 1.25824316406250000000e+003) (50, 1.50000000000000000000e+003) (51, 1.25824316406250000000e+003) (52, 1.25824316406250000000e+003) (53, 1.50000000000000000000e+003) (54, 1.50000000000000000000e+003) (55, 1.25824316406250000000e+003) (56, 1.25824316406250000000e+003) (57, 1.50000000000000000000e+003) (58, 1.50000000000000000000e+003) (59, 1.25824316406250000000e+003) (60, 1.36398425292968750000e+003) (61, 1.50000000000000000000e+003) (62, 1.25824316406250000000e+003) (63, 1.50000000000000000000e+003) (64, 1.25824316406250000000e+003) (65, 1.50000000000000000000e+003) (66, 1.50000000000000000000e+003) (67, 1.25824316406250000000e+003) (68, 1.25824316406250000000e+003) (69, 1.50000000000000000000e+003) (70, 1.36398425292968750000e+003) (71, 1.50000000000000000000e+003) (72, 1.25824316406250000000e+003) (73, 1.50000000000000000000e+003) (74, 1.50000000000000000000e+003) (75, 1.36398425292968750000e+003) (76, 1.25824316406250000000e+003) (77, 1.50000000000000000000e+003) (78, 1.50000000000000000000e+003) (79, 1.25824316406250000000e+003) (80, 1.50000000000000000000e+003) (81, 1.25824316406250000000e+003) (82, 1.50000000000000000000e+003) (83, 1.25824316406250000000e+003) (84, 2.19821095466613770000e+000) (0, 1.50000000000000000000e+003) (1, 1.50000000000000000000e+003) (2, 1.50000000000000000000e+003) (3, 1.50000000000000000000e+003) (4, 1.50000000000000000000e+003) (5, 1.50000000000000000000e+003) (6, 1.50000000000000000000e+003) (7, 1.50000000000000000000e+003) (8, 1.50000000000000000000e+003) (9, 1.50000000000000000000e+003) (10, 1.50000000000000000000e+003) (11, 1.50000000000000000000e+003) (12, 1.50000000000000000000e+003) (13, 1.50000000000000000000e+003) (14, 1.50000000000000000000e+003) (15, 1.50000000000000000000e+003) (16, 1.50000000000000000000e+003) (17, 1.25000000000000000000e+003) (18, 1.50000000000000000000e+003) (19, 1.50000000000000000000e+003) (20, 1.50000000000000000000e+003) (21, 1.50000000000000000000e+003) (22, 1.50000000000000000000e+003) (23, 1.50000000000000000000e+003) (24, 1.50000000000000000000e+003) (25, 1.50000000000000000000e+003) (26, 1.50000000000000000000e+003) (27, 1.50000000000000000000e+003) (28, 1.50000000000000000000e+003) (29, 1.50000000000000000000e+003) (30, 1.25000000000000000000e+003) (31, 1.50000000000000000000e+003) (32, 1.50000000000000000000e+003) (33, 1.39275683593750000000e+003) (34, 1.50000000000000000000e+003) (35, 1.25000000000000000000e+003) (36, 1.50000000000000000000e+003) (37, 1.50000000000000000000e+003) (38, 1.50000000000000000000e+003) (39, 1.50000000000000000000e+003) (40, 1.50000000000000000000e+003) (41, 1.50000000000000000000e+003) (42, 1.50000000000000000000e+003) (43, 1.50000000000000000000e+003) (44, 1.50000000000000000000e+003) (45, 1.25000000000000000000e+003) (46, 1.50000000000000000000e+003) (47, 1.39275683593750000000e+003) (48, 1.50000000000000000000e+003) (49, 1.39275683593750000000e+003) (50, 1.50000000000000000000e+003) (51, 1.50000000000000000000e+003) (52, 1.50000000000000000000e+003) (53, 1.50000000000000000000e+003) (54, 1.50000000000000000000e+003) (55, 1.50000000000000000000e+003) (56, 1.50000000000000000000e+003) (57, 1.50000000000000000000e+003) (58, 1.25000000000000000000e+003) (59, 1.50000000000000000000e+003) (60, 1.39275683593750000000e+003) (61, 1.50000000000000000000e+003) (62, 1.50000000000000000000e+003) (63, 1.25000000000000000000e+003) (64, 1.50000000000000000000e+003) (65, 1.25000000000000000000e+003) (66, 1.25000000000000000000e+003) (67, 1.50000000000000000000e+003) (68, 1.50000000000000000000e+003) (69, 1.50000000000000000000e+003) (70, 1.39275683593750000000e+003) (71, 1.50000000000000000000e+003) (72, 1.50000000000000000000e+003) (73, 1.25000000000000000000e+003) (74, 1.25000000000000000000e+003) (75, 1.50000000000000000000e+003) (76, 1.39275683593750000000e+003) (77, 1.50000000000000000000e+003) (78, 1.50000000000000000000e+003) (79, 1.39275683593750000000e+003) (80, 1.25000000000000000000e+003) (81, 1.50000000000000000000e+003) (82, 1.25000000000000000000e+003) (83, 1.50000000000000000000e+003) (84, 8.31971645355224610000e+000) (0, 1.25824316406250000000e+003) (1, 1.50000000000000000000e+003) (2, 1.50000000000000000000e+003) (3, 1.50000000000000000000e+003) (4, 1.25824316406250000000e+003) (5, 1.50000000000000000000e+003) (6, 1.50000000000000000000e+003) (7, 1.50000000000000000000e+003) (8, 1.50000000000000000000e+003) (9, 1.50000000000000000000e+003) (10, 1.50000000000000000000e+003) (11, 1.50000000000000000000e+003) (12, 1.50000000000000000000e+003) (13, 1.50000000000000000000e+003) (14, 1.50000000000000000000e+003) (15, 1.25824316406250000000e+003) (16, 1.50000000000000000000e+003) (17, 1.50000000000000000000e+003) (18, 1.25824316406250000000e+003) (19, 1.50000000000000000000e+003) (20, 1.50000000000000000000e+003) (21, 1.50000000000000000000e+003) (22, 1.50000000000000000000e+003) (23, 1.25824316406250000000e+003) (24, 1.50000000000000000000e+003) (25, 1.50000000000000000000e+003) (26, 1.50000000000000000000e+003) (27, 1.50000000000000000000e+003) (28, 1.34904321289062500000e+003) (29, 1.50000000000000000000e+003) (30, 1.50000000000000000000e+003) (31, 1.50000000000000000000e+003) (32, 1.50000000000000000000e+003) (33, 1.38545654296875000000e+003) (34, 1.50000000000000000000e+003) (35, 1.50000000000000000000e+003) (36, 1.25824316406250000000e+003) (37, 1.50000000000000000000e+003) (38, 1.50000000000000000000e+003) (39, 1.26180517578125000000e+003) (40, 1.50000000000000000000e+003) (41, 1.50000000000000000000e+003) (42, 1.50000000000000000000e+003) (43, 1.34904321289062500000e+003) (44, 1.50000000000000000000e+003) (45, 1.50000000000000000000e+003) (46, 1.50000000000000000000e+003) (47, 1.26180517578125000000e+003) (48, 1.50000000000000000000e+003) (49, 1.23921118164062500000e+003) (50, 1.50000000000000000000e+003) (51, 1.25824316406250000000e+003) (52, 1.26180517578125000000e+003) (53, 1.50000000000000000000e+003) (54, 1.50000000000000000000e+003) (55, 1.25824316406250000000e+003) (56, 1.25824316406250000000e+003) (57, 1.50000000000000000000e+003) (58, 1.50000000000000000000e+003) (59, 1.26180517578125000000e+003) (60, 1.38545654296875000000e+003) (61, 1.50000000000000000000e+003) (62, 1.25824316406250000000e+003) (63, 1.50000000000000000000e+003) (64, 1.25824316406250000000e+003) (65, 1.50000000000000000000e+003) (66, 1.50000000000000000000e+003) (67, 1.26180517578125000000e+003) (68, 1.26180517578125000000e+003) (69, 1.50000000000000000000e+003) (70, 1.38545654296875000000e+003) (71, 1.50000000000000000000e+003) (72, 1.26180517578125000000e+003) (73, 1.50000000000000000000e+003) (74, 1.50000000000000000000e+003) (75, 1.38221179199218750000e+003) (76, 1.25824316406250000000e+003) (77, 1.50000000000000000000e+003) (78, 1.50000000000000000000e+003) (79, 1.26180517578125000000e+003) (80, 1.50000000000000000000e+003) (81, 1.25824316406250000000e+003) (82, 1.50000000000000000000e+003) (83, 1.26180517578125000000e+003) (84, -1.02130546569824220000e+001) (0, 1.50000000000000000000e+003) (1, 1.50000000000000000000e+003) (2, 1.50000000000000000000e+003) (3, 1.50000000000000000000e+003) (4, 1.50000000000000000000e+003) (5, 1.50000000000000000000e+003) (6, 1.50000000000000000000e+003) (7, 1.50000000000000000000e+003) (8, 1.50000000000000000000e+003) (9, 1.50000000000000000000e+003) (10, 1.50000000000000000000e+003) (11, 1.50000000000000000000e+003) (12, 1.50000000000000000000e+003) (13, 1.50000000000000000000e+003) (14, 1.50000000000000000000e+003) (15, 1.50000000000000000000e+003) (16, 1.50000000000000000000e+003) (17, 1.25000000000000000000e+003) (18, 1.50000000000000000000e+003) (19, 1.50000000000000000000e+003) (20, 1.50000000000000000000e+003) (21, 1.50000000000000000000e+003) (22, 1.50000000000000000000e+003) (23, 1.50000000000000000000e+003) (24, 1.50000000000000000000e+003) (25, 1.50000000000000000000e+003) (26, 1.50000000000000000000e+003) (27, 1.50000000000000000000e+003) (28, 1.50000000000000000000e+003) (29, 1.50000000000000000000e+003) (30, 1.25000000000000000000e+003) (31, 1.50000000000000000000e+003) (32, 1.50000000000000000000e+003) (33, 1.39275683593750000000e+003) (34, 1.50000000000000000000e+003) (35, 1.25000000000000000000e+003) (36, 1.50000000000000000000e+003) (37, 1.50000000000000000000e+003) (38, 1.50000000000000000000e+003) (39, 1.50000000000000000000e+003) (40, 1.50000000000000000000e+003) (41, 1.50000000000000000000e+003) (42, 1.50000000000000000000e+003) (43, 1.50000000000000000000e+003) (44, 1.50000000000000000000e+003) (45, 1.25000000000000000000e+003) (46, 1.50000000000000000000e+003) (47, 1.39275683593750000000e+003) (48, 1.50000000000000000000e+003) (49, 1.39275683593750000000e+003) (50, 1.50000000000000000000e+003) (51, 1.50000000000000000000e+003) (52, 1.50000000000000000000e+003) (53, 1.50000000000000000000e+003) (54, 1.50000000000000000000e+003) (55, 1.50000000000000000000e+003) (56, 1.50000000000000000000e+003) (57, 1.50000000000000000000e+003) (58, 1.25000000000000000000e+003) (59, 1.50000000000000000000e+003) (60, 1.39275683593750000000e+003) (61, 1.50000000000000000000e+003) (62, 1.50000000000000000000e+003) (63, 1.25000000000000000000e+003) (64, 1.50000000000000000000e+003) (65, 1.25000000000000000000e+003) (66, 1.25000000000000000000e+003) (67, 1.50000000000000000000e+003) (68, 1.50000000000000000000e+003) (69, 1.50000000000000000000e+003) (70, 1.39275683593750000000e+003) (71, 1.50000000000000000000e+003) (72, 1.50000000000000000000e+003) (73, 1.25000000000000000000e+003) (74, 1.25000000000000000000e+003) (75, 1.50000000000000000000e+003) (76, 1.39275683593750000000e+003) (77, 1.50000000000000000000e+003) (78, 1.50000000000000000000e+003) (79, 1.39275683593750000000e+003) (80, 1.25000000000000000000e+003) (81, 1.50000000000000000000e+003) (82, 1.25000000000000000000e+003) (83, 1.50000000000000000000e+003) (84, -8.27013969421386720000e+000) (0, 1.50000000000000000000e+003) (1, 1.50000000000000000000e+003) (2, 1.50000000000000000000e+003) (3, 1.50000000000000000000e+003) (4, 1.50000000000000000000e+003) (5, 1.50000000000000000000e+003) (6, 1.50000000000000000000e+003) (7, 1.50000000000000000000e+003) (8, 1.50000000000000000000e+003) (9, 1.50000000000000000000e+003) (10, 1.50000000000000000000e+003) (11, 1.50000000000000000000e+003) (12, 1.50000000000000000000e+003) (13, 1.50000000000000000000e+003) (14, 1.50000000000000000000e+003) (15, 1.50000000000000000000e+003) (16, 1.50000000000000000000e+003) (17, 1.25000000000000000000e+003) (18, 1.50000000000000000000e+003) (19, 1.50000000000000000000e+003) (20, 1.50000000000000000000e+003) (21, 1.50000000000000000000e+003) (22, 1.50000000000000000000e+003) (23, 1.50000000000000000000e+003) (24, 1.50000000000000000000e+003) (25, 1.50000000000000000000e+003) (26, 1.50000000000000000000e+003) (27, 1.50000000000000000000e+003) (28, 1.50000000000000000000e+003) (29, 1.50000000000000000000e+003) (30, 1.25000000000000000000e+003) (31, 1.50000000000000000000e+003) (32, 1.50000000000000000000e+003) (33, 1.39275683593750000000e+003) (34, 1.50000000000000000000e+003) (35, 1.25000000000000000000e+003) (36, 1.50000000000000000000e+003) (37, 1.50000000000000000000e+003) (38, 1.50000000000000000000e+003) (39, 1.50000000000000000000e+003) (40, 1.50000000000000000000e+003) (41, 1.50000000000000000000e+003) (42, 1.50000000000000000000e+003) (43, 1.50000000000000000000e+003) (44, 1.50000000000000000000e+003) (45, 1.25000000000000000000e+003) (46, 1.50000000000000000000e+003) (47, 1.39275683593750000000e+003) (48, 1.50000000000000000000e+003) (49, 1.39275683593750000000e+003) (50, 1.50000000000000000000e+003) (51, 1.50000000000000000000e+003) (52, 1.50000000000000000000e+003) (53, 1.50000000000000000000e+003) (54, 1.50000000000000000000e+003) (55, 1.50000000000000000000e+003) (56, 1.50000000000000000000e+003) (57, 1.50000000000000000000e+003) (58, 1.25000000000000000000e+003) (59, 1.50000000000000000000e+003) (60, 1.39275683593750000000e+003) (61, 1.50000000000000000000e+003) (62, 1.50000000000000000000e+003) (63, 1.25000000000000000000e+003) (64, 1.50000000000000000000e+003) (65, 1.25000000000000000000e+003) (66, 1.25000000000000000000e+003) (67, 1.50000000000000000000e+003) (68, 1.50000000000000000000e+003) (69, 1.50000000000000000000e+003) (70, 1.39275683593750000000e+003) (71, 1.50000000000000000000e+003) (72, 1.50000000000000000000e+003) (73, 1.25000000000000000000e+003) (74, 1.25000000000000000000e+003) (75, 1.50000000000000000000e+003) (76, 1.39275683593750000000e+003) (77, 1.50000000000000000000e+003) (78, 1.50000000000000000000e+003) (79, 1.39275683593750000000e+003) (80, 1.25000000000000000000e+003) (81, 1.50000000000000000000e+003) (82, 1.25000000000000000000e+003) (83, 1.50000000000000000000e+003) (84, -3.43419464111328120000e+002) (0, 1.25824316406250000000e+003) (1, 1.50000000000000000000e+003) (2, 1.50000000000000000000e+003) (3, 1.50000000000000000000e+003) (4, 1.25824316406250000000e+003) (5, 1.50000000000000000000e+003) (6, 1.50000000000000000000e+003) (7, 1.50000000000000000000e+003) (8, 1.50000000000000000000e+003) (9, 1.50000000000000000000e+003) (10, 1.50000000000000000000e+003) (11, 1.50000000000000000000e+003) (12, 1.50000000000000000000e+003) (13, 1.50000000000000000000e+003) (14, 1.50000000000000000000e+003) (15, 1.25824316406250000000e+003) (16, 1.50000000000000000000e+003) (17, 1.50000000000000000000e+003) (18, 1.25824316406250000000e+003) (19, 1.50000000000000000000e+003) (20, 1.50000000000000000000e+003) (21, 1.50000000000000000000e+003) (22, 1.50000000000000000000e+003) (23, 1.25824316406250000000e+003) (24, 1.50000000000000000000e+003) (25, 1.50000000000000000000e+003) (26, 1.50000000000000000000e+003) (27, 1.50000000000000000000e+003) (28, 1.34904321289062500000e+003) (29, 1.50000000000000000000e+003) (30, 1.50000000000000000000e+003) (31, 1.50000000000000000000e+003) (32, 1.50000000000000000000e+003) (33, 1.36398425292968750000e+003) (34, 1.50000000000000000000e+003) (35, 1.50000000000000000000e+003) (36, 1.25824316406250000000e+003) (37, 1.50000000000000000000e+003) (38, 1.50000000000000000000e+003) (39, 1.25824316406250000000e+003) (40, 1.50000000000000000000e+003) (41, 1.50000000000000000000e+003) (42, 1.50000000000000000000e+003) (43, 1.34904321289062500000e+003) (44, 1.50000000000000000000e+003) (45, 1.50000000000000000000e+003) (46, 1.50000000000000000000e+003) (47, 1.25824316406250000000e+003) (48, 1.50000000000000000000e+003) (49, 1.25824316406250000000e+003) (50, 1.50000000000000000000e+003) (51, 1.25824316406250000000e+003) (52, 1.25824316406250000000e+003) (53, 1.50000000000000000000e+003) (54, 1.50000000000000000000e+003) (55, 1.25824316406250000000e+003) (56, 1.25824316406250000000e+003) (57, 1.50000000000000000000e+003) (58, 1.50000000000000000000e+003) (59, 1.25824316406250000000e+003) (60, 1.36398425292968750000e+003) (61, 1.50000000000000000000e+003) (62, 1.25824316406250000000e+003) (63, 1.50000000000000000000e+003) (64, 1.25824316406250000000e+003) (65, 1.50000000000000000000e+003) (66, 1.50000000000000000000e+003) (67, 1.25824316406250000000e+003) (68, 1.25824316406250000000e+003) (69, 1.50000000000000000000e+003) (70, 1.36398425292968750000e+003) (71, 1.50000000000000000000e+003) (72, 1.25824316406250000000e+003) (73, 1.50000000000000000000e+003) (74, 1.50000000000000000000e+003) (75, 1.36398425292968750000e+003) (76, 1.25824316406250000000e+003) (77, 1.50000000000000000000e+003) (78, 1.50000000000000000000e+003) (79, 1.25824316406250000000e+003) (80, 1.50000000000000000000e+003) (81, 1.25824316406250000000e+003) (82, 1.50000000000000000000e+003) (83, 1.25824316406250000000e+003) (84, -6.55700623989105220000e-001) (0, 1.25824316406250000000e+003) (1, 1.50000000000000000000e+003) (2, 1.50000000000000000000e+003) (3, 1.50000000000000000000e+003) (4, 1.25824316406250000000e+003) (5, 1.50000000000000000000e+003) (6, 1.50000000000000000000e+003) (7, 1.50000000000000000000e+003) (8, 1.50000000000000000000e+003) (9, 1.50000000000000000000e+003) (10, 1.50000000000000000000e+003) (11, 1.50000000000000000000e+003) (12, 1.50000000000000000000e+003) (13, 1.50000000000000000000e+003) (14, 1.50000000000000000000e+003) (15, 1.25824316406250000000e+003) (16, 1.50000000000000000000e+003) (17, 1.50000000000000000000e+003) (18, 1.25824316406250000000e+003) (19, 1.50000000000000000000e+003) (20, 1.50000000000000000000e+003) (21, 1.50000000000000000000e+003) (22, 1.50000000000000000000e+003) (23, 1.25824316406250000000e+003) (24, 1.50000000000000000000e+003) (25, 1.50000000000000000000e+003) (26, 1.50000000000000000000e+003) (27, 1.50000000000000000000e+003) (28, 1.34904321289062500000e+003) (29, 1.50000000000000000000e+003) (30, 1.50000000000000000000e+003) (31, 1.50000000000000000000e+003) (32, 1.50000000000000000000e+003) (33, 1.36398425292968750000e+003) (34, 1.50000000000000000000e+003) (35, 1.50000000000000000000e+003) (36, 1.25824316406250000000e+003) (37, 1.50000000000000000000e+003) (38, 1.50000000000000000000e+003) (39, 1.25824316406250000000e+003) (40, 1.50000000000000000000e+003) (41, 1.50000000000000000000e+003) (42, 1.50000000000000000000e+003) (43, 1.34904321289062500000e+003) (44, 1.50000000000000000000e+003) (45, 1.50000000000000000000e+003) (46, 1.50000000000000000000e+003) (47, 1.25824316406250000000e+003) (48, 1.50000000000000000000e+003) (49, 1.25824316406250000000e+003) (50, 1.50000000000000000000e+003) (51, 1.25824316406250000000e+003) (52, 1.25824316406250000000e+003) (53, 1.50000000000000000000e+003) (54, 1.50000000000000000000e+003) (55, 1.25824316406250000000e+003) (56, 1.25824316406250000000e+003) (57, 1.50000000000000000000e+003) (58, 1.50000000000000000000e+003) (59, 1.25824316406250000000e+003) (60, 1.36398425292968750000e+003) (61, 1.50000000000000000000e+003) (62, 1.25824316406250000000e+003) (63, 1.50000000000000000000e+003) (64, 1.25824316406250000000e+003) (65, 1.50000000000000000000e+003) (66, 1.50000000000000000000e+003) (67, 1.25824316406250000000e+003) (68, 1.25824316406250000000e+003) (69, 1.50000000000000000000e+003) (70, 1.36398425292968750000e+003) (71, 1.50000000000000000000e+003) (72, 1.25824316406250000000e+003) (73, 1.50000000000000000000e+003) (74, 1.50000000000000000000e+003) (75, 1.36398425292968750000e+003) (76, 1.25824316406250000000e+003) (77, 1.50000000000000000000e+003) (78, 1.50000000000000000000e+003) (79, 1.25824316406250000000e+003) (80, 1.50000000000000000000e+003) (81, 1.25824316406250000000e+003) (82, 1.50000000000000000000e+003) (83, 1.25824316406250000000e+003) (84, -3.92975878715515140000e+000) (0, 1.25824316406250000000e+003) (1, 1.50000000000000000000e+003) (2, 1.50000000000000000000e+003) (3, 1.50000000000000000000e+003) (4, 1.25824316406250000000e+003) (5, 1.50000000000000000000e+003) (6, 1.50000000000000000000e+003) (7, 1.50000000000000000000e+003) (8, 1.50000000000000000000e+003) (9, 1.50000000000000000000e+003) (10, 1.50000000000000000000e+003) (11, 1.50000000000000000000e+003) (12, 1.50000000000000000000e+003) (13, 1.50000000000000000000e+003) (14, 1.50000000000000000000e+003) (15, 1.25824316406250000000e+003) (16, 1.50000000000000000000e+003) (17, 1.50000000000000000000e+003) (18, 1.25824316406250000000e+003) (19, 1.50000000000000000000e+003) (20, 1.50000000000000000000e+003) (21, 1.50000000000000000000e+003) (22, 1.50000000000000000000e+003) (23, 1.25824316406250000000e+003) (24, 1.50000000000000000000e+003) (25, 1.50000000000000000000e+003) (26, 1.50000000000000000000e+003) (27, 1.50000000000000000000e+003) (28, 1.34904321289062500000e+003) (29, 1.50000000000000000000e+003) (30, 1.50000000000000000000e+003) (31, 1.50000000000000000000e+003) (32, 1.50000000000000000000e+003) (33, 1.36398425292968750000e+003) (34, 1.50000000000000000000e+003) (35, 1.50000000000000000000e+003) (36, 1.25824316406250000000e+003) (37, 1.50000000000000000000e+003) (38, 1.50000000000000000000e+003) (39, 1.25824316406250000000e+003) (40, 1.50000000000000000000e+003) (41, 1.50000000000000000000e+003) (42, 1.50000000000000000000e+003) (43, 1.34904321289062500000e+003) (44, 1.50000000000000000000e+003) (45, 1.50000000000000000000e+003) (46, 1.50000000000000000000e+003) (47, 1.25824316406250000000e+003) (48, 1.50000000000000000000e+003) (49, 1.25824316406250000000e+003) (50, 1.50000000000000000000e+003) (51, 1.25824316406250000000e+003) (52, 1.25824316406250000000e+003) (53, 1.50000000000000000000e+003) (54, 1.50000000000000000000e+003) (55, 1.25824316406250000000e+003) (56, 1.25824316406250000000e+003) (57, 1.50000000000000000000e+003) (58, 1.50000000000000000000e+003) (59, 1.25824316406250000000e+003) (60, 1.36398425292968750000e+003) (61, 1.50000000000000000000e+003) (62, 1.25824316406250000000e+003) (63, 1.50000000000000000000e+003) (64, 1.25824316406250000000e+003) (65, 1.50000000000000000000e+003) (66, 1.50000000000000000000e+003) (67, 1.25824316406250000000e+003) (68, 1.25824316406250000000e+003) (69, 1.50000000000000000000e+003) (70, 1.36398425292968750000e+003) (71, 1.50000000000000000000e+003) (72, 1.25824316406250000000e+003) (73, 1.50000000000000000000e+003) (74, 1.50000000000000000000e+003) (75, 1.36398425292968750000e+003) (76, 1.25824316406250000000e+003) (77, 1.50000000000000000000e+003) (78, 1.50000000000000000000e+003) (79, 1.25824316406250000000e+003) (80, 1.50000000000000000000e+003) (81, 1.25824316406250000000e+003) (82, 1.50000000000000000000e+003) (83, 1.25824316406250000000e+003) (84, -8.00170481204986570000e-001) (0, 1.25824316406250000000e+003) (1, 1.50000000000000000000e+003) (2, 1.50000000000000000000e+003) (3, 1.50000000000000000000e+003) (4, 1.25824316406250000000e+003) (5, 1.50000000000000000000e+003) (6, 1.50000000000000000000e+003) (7, 1.50000000000000000000e+003) (8, 1.50000000000000000000e+003) (9, 1.50000000000000000000e+003) (10, 1.50000000000000000000e+003) (11, 1.50000000000000000000e+003) (12, 1.50000000000000000000e+003) (13, 1.50000000000000000000e+003) (14, 1.50000000000000000000e+003) (15, 1.25824316406250000000e+003) (16, 1.50000000000000000000e+003) (17, 1.50000000000000000000e+003) (18, 1.25824316406250000000e+003) (19, 1.50000000000000000000e+003) (20, 1.50000000000000000000e+003) (21, 1.50000000000000000000e+003) (22, 1.50000000000000000000e+003) (23, 1.25824316406250000000e+003) (24, 1.50000000000000000000e+003) (25, 1.50000000000000000000e+003) (26, 1.50000000000000000000e+003) (27, 1.50000000000000000000e+003) (28, 1.34904321289062500000e+003) (29, 1.50000000000000000000e+003) (30, 1.50000000000000000000e+003) (31, 1.50000000000000000000e+003) (32, 1.50000000000000000000e+003) (33, 1.41209594726562500000e+003) (34, 1.50000000000000000000e+003) (35, 1.50000000000000000000e+003) (36, 1.25824316406250000000e+003) (37, 1.50000000000000000000e+003) (38, 1.50000000000000000000e+003) (39, 1.27310681152343750000e+003) (40, 1.50000000000000000000e+003) (41, 1.50000000000000000000e+003) (42, 1.50000000000000000000e+003) (43, 1.34904321289062500000e+003) (44, 1.50000000000000000000e+003) (45, 1.50000000000000000000e+003) (46, 1.50000000000000000000e+003) (47, 1.27310681152343750000e+003) (48, 1.50000000000000000000e+003) (49, 1.13747851562500000000e+003) (50, 1.50000000000000000000e+003) (51, 1.25824316406250000000e+003) (52, 1.27310681152343750000e+003) (53, 1.50000000000000000000e+003) (54, 1.50000000000000000000e+003) (55, 1.25824316406250000000e+003) (56, 1.25824316406250000000e+003) (57, 1.50000000000000000000e+003) (58, 1.50000000000000000000e+003) (59, 1.27310681152343750000e+003) (60, 1.41209594726562500000e+003) (61, 1.50000000000000000000e+003) (62, 1.25824316406250000000e+003) (63, 1.50000000000000000000e+003) (64, 1.25824316406250000000e+003) (65, 1.50000000000000000000e+003) (66, 1.50000000000000000000e+003) (67, 1.27310681152343750000e+003) (68, 1.27310681152343750000e+003) (69, 1.50000000000000000000e+003) (70, 1.42405078125000000000e+003) (71, 1.50000000000000000000e+003) (72, 1.27310681152343750000e+003) (73, 1.50000000000000000000e+003) (74, 1.50000000000000000000e+003) (75, 1.29259191894531250000e+003) (76, 1.25824316406250000000e+003) (77, 1.50000000000000000000e+003) (78, 1.50000000000000000000e+003) (79, 1.28653833007812500000e+003) (80, 1.50000000000000000000e+003) (81, 1.25824316406250000000e+003) (82, 1.50000000000000000000e+003) (83, 1.27310681152343750000e+003) (84, -6.17657897949218750000e+002) (0, 1.50000000000000000000e+003) (1, 1.50000000000000000000e+003) (2, 1.50000000000000000000e+003) (3, 1.50000000000000000000e+003) (4, 1.50000000000000000000e+003) (5, 1.50000000000000000000e+003) (6, 1.50000000000000000000e+003) (7, 1.50000000000000000000e+003) (8, 1.50000000000000000000e+003) (9, 1.50000000000000000000e+003) (10, 1.50000000000000000000e+003) (11, 1.50000000000000000000e+003) (12, 1.50000000000000000000e+003) (13, 1.50000000000000000000e+003) (14, 1.50000000000000000000e+003) (15, 1.50000000000000000000e+003) (16, 1.50000000000000000000e+003) (17, 1.25000000000000000000e+003) (18, 1.50000000000000000000e+003) (19, 1.50000000000000000000e+003) (20, 1.50000000000000000000e+003) (21, 1.50000000000000000000e+003) (22, 1.50000000000000000000e+003) (23, 1.50000000000000000000e+003) (24, 1.50000000000000000000e+003) (25, 1.50000000000000000000e+003) (26, 1.50000000000000000000e+003) (27, 1.50000000000000000000e+003) (28, 1.50000000000000000000e+003) (29, 1.50000000000000000000e+003) (30, 1.25000000000000000000e+003) (31, 1.50000000000000000000e+003) (32, 1.50000000000000000000e+003) (33, 1.39275683593750000000e+003) (34, 1.50000000000000000000e+003) (35, 1.25000000000000000000e+003) (36, 1.50000000000000000000e+003) (37, 1.50000000000000000000e+003) (38, 1.50000000000000000000e+003) (39, 1.50000000000000000000e+003) (40, 1.50000000000000000000e+003) (41, 1.50000000000000000000e+003) (42, 1.50000000000000000000e+003) (43, 1.50000000000000000000e+003) (44, 1.50000000000000000000e+003) (45, 1.25000000000000000000e+003) (46, 1.50000000000000000000e+003) (47, 1.39275683593750000000e+003) (48, 1.50000000000000000000e+003) (49, 1.39275683593750000000e+003) (50, 1.50000000000000000000e+003) (51, 1.50000000000000000000e+003) (52, 1.50000000000000000000e+003) (53, 1.50000000000000000000e+003) (54, 1.50000000000000000000e+003) (55, 1.50000000000000000000e+003) (56, 1.50000000000000000000e+003) (57, 1.50000000000000000000e+003) (58, 1.25000000000000000000e+003) (59, 1.50000000000000000000e+003) (60, 1.39275683593750000000e+003) (61, 1.50000000000000000000e+003) (62, 1.50000000000000000000e+003) (63, 1.25000000000000000000e+003) (64, 1.50000000000000000000e+003) (65, 1.25000000000000000000e+003) (66, 1.25000000000000000000e+003) (67, 1.50000000000000000000e+003) (68, 1.50000000000000000000e+003) (69, 1.50000000000000000000e+003) (70, 1.39275683593750000000e+003) (71, 1.50000000000000000000e+003) (72, 1.50000000000000000000e+003) (73, 1.25000000000000000000e+003) (74, 1.25000000000000000000e+003) (75, 1.50000000000000000000e+003) (76, 1.39275683593750000000e+003) (77, 1.50000000000000000000e+003) (78, 1.50000000000000000000e+003) (79, 1.39275683593750000000e+003) (80, 1.25000000000000000000e+003) (81, 1.50000000000000000000e+003) (82, 1.25000000000000000000e+003) (83, 1.50000000000000000000e+003) (84, 4.68594741821289060000e+000) (0, 1.50000000000000000000e+003) (1, 1.50000000000000000000e+003) (2, 1.50000000000000000000e+003) (3, 1.50000000000000000000e+003) (4, 1.50000000000000000000e+003) (5, 1.50000000000000000000e+003) (6, 1.50000000000000000000e+003) (7, 1.50000000000000000000e+003) (8, 1.50000000000000000000e+003) (9, 1.50000000000000000000e+003) (10, 1.50000000000000000000e+003) (11, 1.50000000000000000000e+003) (12, 1.50000000000000000000e+003) (13, 1.50000000000000000000e+003) (14, 1.50000000000000000000e+003) (15, 1.50000000000000000000e+003) (16, 1.50000000000000000000e+003) (17, 1.25000000000000000000e+003) (18, 1.50000000000000000000e+003) (19, 1.50000000000000000000e+003) (20, 1.50000000000000000000e+003) (21, 1.50000000000000000000e+003) (22, 1.50000000000000000000e+003) (23, 1.50000000000000000000e+003) (24, 1.50000000000000000000e+003) (25, 1.50000000000000000000e+003) (26, 1.50000000000000000000e+003) (27, 1.50000000000000000000e+003) (28, 1.50000000000000000000e+003) (29, 1.50000000000000000000e+003) (30, 1.25000000000000000000e+003) (31, 1.50000000000000000000e+003) (32, 1.50000000000000000000e+003) (33, 1.39275683593750000000e+003) (34, 1.50000000000000000000e+003) (35, 1.25000000000000000000e+003) (36, 1.50000000000000000000e+003) (37, 1.50000000000000000000e+003) (38, 1.50000000000000000000e+003) (39, 1.50000000000000000000e+003) (40, 1.50000000000000000000e+003) (41, 1.50000000000000000000e+003) (42, 1.50000000000000000000e+003) (43, 1.50000000000000000000e+003) (44, 1.50000000000000000000e+003) (45, 1.25000000000000000000e+003) (46, 1.50000000000000000000e+003) (47, 1.39275683593750000000e+003) (48, 1.50000000000000000000e+003) (49, 1.39275683593750000000e+003) (50, 1.50000000000000000000e+003) (51, 1.50000000000000000000e+003) (52, 1.50000000000000000000e+003) (53, 1.50000000000000000000e+003) (54, 1.50000000000000000000e+003) (55, 1.50000000000000000000e+003) (56, 1.50000000000000000000e+003) (57, 1.50000000000000000000e+003) (58, 1.25000000000000000000e+003) (59, 1.50000000000000000000e+003) (60, 1.39275683593750000000e+003) (61, 1.50000000000000000000e+003) (62, 1.50000000000000000000e+003) (63, 1.25000000000000000000e+003) (64, 1.50000000000000000000e+003) (65, 1.25000000000000000000e+003) (66, 1.25000000000000000000e+003) (67, 1.50000000000000000000e+003) (68, 1.50000000000000000000e+003) (69, 1.50000000000000000000e+003) (70, 1.39275683593750000000e+003) (71, 1.50000000000000000000e+003) (72, 1.50000000000000000000e+003) (73, 1.25000000000000000000e+003) (74, 1.25000000000000000000e+003) (75, 1.50000000000000000000e+003) (76, 1.39275683593750000000e+003) (77, 1.50000000000000000000e+003) (78, 1.50000000000000000000e+003) (79, 1.39275683593750000000e+003) (80, 1.25000000000000000000e+003) (81, 1.50000000000000000000e+003) (82, 1.25000000000000000000e+003) (83, 1.50000000000000000000e+003) (84, -4.24554681777954100000e+000) (0, 1.25824316406250000000e+003) (1, 1.50000000000000000000e+003) (2, 1.50000000000000000000e+003) (3, 1.50000000000000000000e+003) (4, 1.25824316406250000000e+003) (5, 1.50000000000000000000e+003) (6, 1.50000000000000000000e+003) (7, 1.50000000000000000000e+003) (8, 1.50000000000000000000e+003) (9, 1.50000000000000000000e+003) (10, 1.50000000000000000000e+003) (11, 1.50000000000000000000e+003) (12, 1.50000000000000000000e+003) (13, 1.50000000000000000000e+003) (14, 1.50000000000000000000e+003) (15, 1.25824316406250000000e+003) (16, 1.50000000000000000000e+003) (17, 1.50000000000000000000e+003) (18, 1.25824316406250000000e+003) (19, 1.50000000000000000000e+003) (20, 1.50000000000000000000e+003) (21, 1.50000000000000000000e+003) (22, 1.50000000000000000000e+003) (23, 1.25824316406250000000e+003) (24, 1.50000000000000000000e+003) (25, 1.50000000000000000000e+003) (26, 1.50000000000000000000e+003) (27, 1.50000000000000000000e+003) (28, 1.34904321289062500000e+003) (29, 1.50000000000000000000e+003) (30, 1.50000000000000000000e+003) (31, 1.50000000000000000000e+003) (32, 1.50000000000000000000e+003) (33, 1.38545654296875000000e+003) (34, 1.50000000000000000000e+003) (35, 1.50000000000000000000e+003) (36, 1.25824316406250000000e+003) (37, 1.50000000000000000000e+003) (38, 1.50000000000000000000e+003) (39, 1.26180517578125000000e+003) (40, 1.50000000000000000000e+003) (41, 1.50000000000000000000e+003) (42, 1.50000000000000000000e+003) (43, 1.34904321289062500000e+003) (44, 1.50000000000000000000e+003) (45, 1.50000000000000000000e+003) (46, 1.50000000000000000000e+003) (47, 1.26180517578125000000e+003) (48, 1.50000000000000000000e+003) (49, 1.23921118164062500000e+003) (50, 1.50000000000000000000e+003) (51, 1.25824316406250000000e+003) (52, 1.26180517578125000000e+003) (53, 1.50000000000000000000e+003) (54, 1.50000000000000000000e+003) (55, 1.25824316406250000000e+003) (56, 1.25824316406250000000e+003) (57, 1.50000000000000000000e+003) (58, 1.50000000000000000000e+003) (59, 1.26180517578125000000e+003) (60, 1.38545654296875000000e+003) (61, 1.50000000000000000000e+003) (62, 1.25824316406250000000e+003) (63, 1.50000000000000000000e+003) (64, 1.25824316406250000000e+003) (65, 1.50000000000000000000e+003) (66, 1.50000000000000000000e+003) (67, 1.26180517578125000000e+003) (68, 1.26180517578125000000e+003) (69, 1.50000000000000000000e+003) (70, 1.38545654296875000000e+003) (71, 1.50000000000000000000e+003) (72, 1.26180517578125000000e+003) (73, 1.50000000000000000000e+003) (74, 1.50000000000000000000e+003) (75, 1.38221179199218750000e+003) (76, 1.25824316406250000000e+003) (77, 1.50000000000000000000e+003) (78, 1.50000000000000000000e+003) (79, 1.26180517578125000000e+003) (80, 1.50000000000000000000e+003) (81, 1.25824316406250000000e+003) (82, 1.50000000000000000000e+003) (83, 1.26180517578125000000e+003) (84, -1.02932586669921870000e+001) (0, 1.50000000000000000000e+003) (1, 1.50000000000000000000e+003) (2, 1.50000000000000000000e+003) (3, 1.50000000000000000000e+003) (4, 1.50000000000000000000e+003) (5, 1.50000000000000000000e+003) (6, 1.50000000000000000000e+003) (7, 1.50000000000000000000e+003) (8, 1.50000000000000000000e+003) (9, 1.50000000000000000000e+003) (10, 1.50000000000000000000e+003) (11, 1.50000000000000000000e+003) (12, 1.50000000000000000000e+003) (13, 1.50000000000000000000e+003) (14, 1.50000000000000000000e+003) (15, 1.50000000000000000000e+003) (16, 1.50000000000000000000e+003) (17, 1.25000000000000000000e+003) (18, 1.50000000000000000000e+003) (19, 1.50000000000000000000e+003) (20, 1.50000000000000000000e+003) (21, 1.50000000000000000000e+003) (22, 1.50000000000000000000e+003) (23, 1.50000000000000000000e+003) (24, 1.50000000000000000000e+003) (25, 1.50000000000000000000e+003) (26, 1.50000000000000000000e+003) (27, 1.50000000000000000000e+003) (28, 1.50000000000000000000e+003) (29, 1.50000000000000000000e+003) (30, 1.25000000000000000000e+003) (31, 1.50000000000000000000e+003) (32, 1.50000000000000000000e+003) (33, 1.39275683593750000000e+003) (34, 1.50000000000000000000e+003) (35, 1.25000000000000000000e+003) (36, 1.50000000000000000000e+003) (37, 1.50000000000000000000e+003) (38, 1.50000000000000000000e+003) (39, 1.50000000000000000000e+003) (40, 1.50000000000000000000e+003) (41, 1.50000000000000000000e+003) (42, 1.50000000000000000000e+003) (43, 1.50000000000000000000e+003) (44, 1.50000000000000000000e+003) (45, 1.25000000000000000000e+003) (46, 1.50000000000000000000e+003) (47, 1.39275683593750000000e+003) (48, 1.50000000000000000000e+003) (49, 1.39275683593750000000e+003) (50, 1.50000000000000000000e+003) (51, 1.50000000000000000000e+003) (52, 1.50000000000000000000e+003) (53, 1.50000000000000000000e+003) (54, 1.50000000000000000000e+003) (55, 1.50000000000000000000e+003) (56, 1.50000000000000000000e+003) (57, 1.50000000000000000000e+003) (58, 1.25000000000000000000e+003) (59, 1.50000000000000000000e+003) (60, 1.39275683593750000000e+003) (61, 1.50000000000000000000e+003) (62, 1.50000000000000000000e+003) (63, 1.25000000000000000000e+003) (64, 1.50000000000000000000e+003) (65, 1.25000000000000000000e+003) (66, 1.25000000000000000000e+003) (67, 1.50000000000000000000e+003) (68, 1.50000000000000000000e+003) (69, 1.50000000000000000000e+003) (70, 1.39275683593750000000e+003) (71, 1.50000000000000000000e+003) (72, 1.50000000000000000000e+003) (73, 1.25000000000000000000e+003) (74, 1.25000000000000000000e+003) (75, 1.50000000000000000000e+003) (76, 1.39275683593750000000e+003) (77, 1.50000000000000000000e+003) (78, 1.50000000000000000000e+003) (79, 1.39275683593750000000e+003) (80, 1.25000000000000000000e+003) (81, 1.50000000000000000000e+003) (82, 1.25000000000000000000e+003) (83, 1.50000000000000000000e+003) (84, 8.55629348754882810000e+000) (0, 1.25824316406250000000e+003) (1, 1.50000000000000000000e+003) (2, 1.50000000000000000000e+003) (3, 1.50000000000000000000e+003) (4, 1.25824316406250000000e+003) (5, 1.50000000000000000000e+003) (6, 1.50000000000000000000e+003) (7, 1.50000000000000000000e+003) (8, 1.50000000000000000000e+003) (9, 1.50000000000000000000e+003) (10, 1.50000000000000000000e+003) (11, 1.50000000000000000000e+003) (12, 1.50000000000000000000e+003) (13, 1.50000000000000000000e+003) (14, 1.50000000000000000000e+003) (15, 1.25824316406250000000e+003) (16, 1.50000000000000000000e+003) (17, 1.50000000000000000000e+003) (18, 1.25824316406250000000e+003) (19, 1.50000000000000000000e+003) (20, 1.50000000000000000000e+003) (21, 1.50000000000000000000e+003) (22, 1.50000000000000000000e+003) (23, 1.25824316406250000000e+003) (24, 1.50000000000000000000e+003) (25, 1.50000000000000000000e+003) (26, 1.50000000000000000000e+003) (27, 1.50000000000000000000e+003) (28, 1.34904321289062500000e+003) (29, 1.50000000000000000000e+003) (30, 1.50000000000000000000e+003) (31, 1.50000000000000000000e+003) (32, 1.50000000000000000000e+003) (33, 1.36398425292968750000e+003) (34, 1.50000000000000000000e+003) (35, 1.50000000000000000000e+003) (36, 1.25824316406250000000e+003) (37, 1.50000000000000000000e+003) (38, 1.50000000000000000000e+003) (39, 1.25824316406250000000e+003) (40, 1.50000000000000000000e+003) (41, 1.50000000000000000000e+003) (42, 1.50000000000000000000e+003) (43, 1.34904321289062500000e+003) (44, 1.50000000000000000000e+003) (45, 1.50000000000000000000e+003) (46, 1.50000000000000000000e+003) (47, 1.25824316406250000000e+003) (48, 1.50000000000000000000e+003) (49, 1.25824316406250000000e+003) (50, 1.50000000000000000000e+003) (51, 1.25824316406250000000e+003) (52, 1.25824316406250000000e+003) (53, 1.50000000000000000000e+003) (54, 1.50000000000000000000e+003) (55, 1.25824316406250000000e+003) (56, 1.25824316406250000000e+003) (57, 1.50000000000000000000e+003) (58, 1.50000000000000000000e+003) (59, 1.25824316406250000000e+003) (60, 1.36398425292968750000e+003) (61, 1.50000000000000000000e+003) (62, 1.25824316406250000000e+003) (63, 1.50000000000000000000e+003) (64, 1.25824316406250000000e+003) (65, 1.50000000000000000000e+003) (66, 1.50000000000000000000e+003) (67, 1.25824316406250000000e+003) (68, 1.25824316406250000000e+003) (69, 1.50000000000000000000e+003) (70, 1.36398425292968750000e+003) (71, 1.50000000000000000000e+003) (72, 1.25824316406250000000e+003) (73, 1.50000000000000000000e+003) (74, 1.50000000000000000000e+003) (75, 1.36398425292968750000e+003) (76, 1.25824316406250000000e+003) (77, 1.50000000000000000000e+003) (78, 1.50000000000000000000e+003) (79, 1.25824316406250000000e+003) (80, 1.50000000000000000000e+003) (81, 1.25824316406250000000e+003) (82, 1.50000000000000000000e+003) (83, 1.25824316406250000000e+003) (84, -6.65833282470703130000e+000) (0, 1.50000000000000000000e+003) (1, 1.50000000000000000000e+003) (2, 1.50000000000000000000e+003) (3, 1.50000000000000000000e+003) (4, 1.50000000000000000000e+003) (5, 1.50000000000000000000e+003) (6, 1.50000000000000000000e+003) (7, 1.50000000000000000000e+003) (8, 1.50000000000000000000e+003) (9, 1.50000000000000000000e+003) (10, 1.50000000000000000000e+003) (11, 1.50000000000000000000e+003) (12, 1.50000000000000000000e+003) (13, 1.50000000000000000000e+003) (14, 1.50000000000000000000e+003) (15, 1.50000000000000000000e+003) (16, 1.50000000000000000000e+003) (17, 1.25000000000000000000e+003) (18, 1.50000000000000000000e+003) (19, 1.50000000000000000000e+003) (20, 1.50000000000000000000e+003) (21, 1.50000000000000000000e+003) (22, 1.50000000000000000000e+003) (23, 1.50000000000000000000e+003) (24, 1.50000000000000000000e+003) (25, 1.50000000000000000000e+003) (26, 1.50000000000000000000e+003) (27, 1.50000000000000000000e+003) (28, 1.50000000000000000000e+003) (29, 1.50000000000000000000e+003) (30, 1.25000000000000000000e+003) (31, 1.50000000000000000000e+003) (32, 1.50000000000000000000e+003) (33, 1.39275683593750000000e+003) (34, 1.50000000000000000000e+003) (35, 1.25000000000000000000e+003) (36, 1.50000000000000000000e+003) (37, 1.50000000000000000000e+003) (38, 1.50000000000000000000e+003) (39, 1.50000000000000000000e+003) (40, 1.50000000000000000000e+003) (41, 1.50000000000000000000e+003) (42, 1.50000000000000000000e+003) (43, 1.50000000000000000000e+003) (44, 1.50000000000000000000e+003) (45, 1.25000000000000000000e+003) (46, 1.50000000000000000000e+003) (47, 1.39275683593750000000e+003) (48, 1.50000000000000000000e+003) (49, 1.39275683593750000000e+003) (50, 1.50000000000000000000e+003) (51, 1.50000000000000000000e+003) (52, 1.50000000000000000000e+003) (53, 1.50000000000000000000e+003) (54, 1.50000000000000000000e+003) (55, 1.50000000000000000000e+003) (56, 1.50000000000000000000e+003) (57, 1.50000000000000000000e+003) (58, 1.25000000000000000000e+003) (59, 1.50000000000000000000e+003) (60, 1.39275683593750000000e+003) (61, 1.50000000000000000000e+003) (62, 1.50000000000000000000e+003) (63, 1.25000000000000000000e+003) (64, 1.50000000000000000000e+003) (65, 1.25000000000000000000e+003) (66, 1.25000000000000000000e+003) (67, 1.50000000000000000000e+003) (68, 1.50000000000000000000e+003) (69, 1.50000000000000000000e+003) (70, 1.39275683593750000000e+003) (71, 1.50000000000000000000e+003) (72, 1.50000000000000000000e+003) (73, 1.25000000000000000000e+003) (74, 1.25000000000000000000e+003) (75, 1.50000000000000000000e+003) (76, 1.39275683593750000000e+003) (77, 1.50000000000000000000e+003) (78, 1.50000000000000000000e+003) (79, 1.39275683593750000000e+003) (80, 1.25000000000000000000e+003) (81, 1.50000000000000000000e+003) (82, 1.25000000000000000000e+003) (83, 1.50000000000000000000e+003) (84, 8.62072849273681640000e+000) (0, 1.50000000000000000000e+003) (1, 1.50000000000000000000e+003) (2, 1.50000000000000000000e+003) (3, 1.50000000000000000000e+003) (4, 1.50000000000000000000e+003) (5, 1.50000000000000000000e+003) (6, 1.50000000000000000000e+003) (7, 1.50000000000000000000e+003) (8, 1.50000000000000000000e+003) (9, 1.50000000000000000000e+003) (10, 1.50000000000000000000e+003) (11, 1.50000000000000000000e+003) (12, 1.50000000000000000000e+003) (13, 1.50000000000000000000e+003) (14, 1.50000000000000000000e+003) (15, 1.50000000000000000000e+003) (16, 1.50000000000000000000e+003) (17, 1.25000000000000000000e+003) (18, 1.50000000000000000000e+003) (19, 1.50000000000000000000e+003) (20, 1.50000000000000000000e+003) (21, 1.50000000000000000000e+003) (22, 1.50000000000000000000e+003) (23, 1.50000000000000000000e+003) (24, 1.50000000000000000000e+003) (25, 1.50000000000000000000e+003) (26, 1.50000000000000000000e+003) (27, 1.50000000000000000000e+003) (28, 1.50000000000000000000e+003) (29, 1.50000000000000000000e+003) (30, 1.25000000000000000000e+003) (31, 1.50000000000000000000e+003) (32, 1.50000000000000000000e+003) (33, 1.39275683593750000000e+003) (34, 1.50000000000000000000e+003) (35, 1.25000000000000000000e+003) (36, 1.50000000000000000000e+003) (37, 1.50000000000000000000e+003) (38, 1.50000000000000000000e+003) (39, 1.50000000000000000000e+003) (40, 1.50000000000000000000e+003) (41, 1.50000000000000000000e+003) (42, 1.50000000000000000000e+003) (43, 1.50000000000000000000e+003) (44, 1.50000000000000000000e+003) (45, 1.25000000000000000000e+003) (46, 1.50000000000000000000e+003) (47, 1.39275683593750000000e+003) (48, 1.50000000000000000000e+003) (49, 1.39275683593750000000e+003) (50, 1.50000000000000000000e+003) (51, 1.50000000000000000000e+003) (52, 1.50000000000000000000e+003) (53, 1.50000000000000000000e+003) (54, 1.50000000000000000000e+003) (55, 1.50000000000000000000e+003) (56, 1.50000000000000000000e+003) (57, 1.50000000000000000000e+003) (58, 1.25000000000000000000e+003) (59, 1.50000000000000000000e+003) (60, 1.39275683593750000000e+003) (61, 1.50000000000000000000e+003) (62, 1.50000000000000000000e+003) (63, 1.25000000000000000000e+003) (64, 1.50000000000000000000e+003) (65, 1.25000000000000000000e+003) (66, 1.25000000000000000000e+003) (67, 1.50000000000000000000e+003) (68, 1.50000000000000000000e+003) (69, 1.50000000000000000000e+003) (70, 1.39275683593750000000e+003) (71, 1.50000000000000000000e+003) (72, 1.50000000000000000000e+003) (73, 1.25000000000000000000e+003) (74, 1.25000000000000000000e+003) (75, 1.50000000000000000000e+003) (76, 1.39275683593750000000e+003) (77, 1.50000000000000000000e+003) (78, 1.50000000000000000000e+003) (79, 1.39275683593750000000e+003) (80, 1.25000000000000000000e+003) (81, 1.50000000000000000000e+003) (82, 1.25000000000000000000e+003) (83, 1.50000000000000000000e+003) (84, -4.03198671340942380000e+000) (0, 1.25824316406250000000e+003) (1, 1.50000000000000000000e+003) (2, 1.50000000000000000000e+003) (3, 1.50000000000000000000e+003) (4, 1.25824316406250000000e+003) (5, 1.50000000000000000000e+003) (6, 1.50000000000000000000e+003) (7, 1.50000000000000000000e+003) (8, 1.50000000000000000000e+003) (9, 1.50000000000000000000e+003) (10, 1.50000000000000000000e+003) (11, 1.50000000000000000000e+003) (12, 1.50000000000000000000e+003) (13, 1.50000000000000000000e+003) (14, 1.50000000000000000000e+003) (15, 1.25824316406250000000e+003) (16, 1.50000000000000000000e+003) (17, 1.50000000000000000000e+003) (18, 1.25824316406250000000e+003) (19, 1.50000000000000000000e+003) (20, 1.50000000000000000000e+003) (21, 1.50000000000000000000e+003) (22, 1.50000000000000000000e+003) (23, 1.25824316406250000000e+003) (24, 1.50000000000000000000e+003) (25, 1.50000000000000000000e+003) (26, 1.50000000000000000000e+003) (27, 1.50000000000000000000e+003) (28, 1.34904321289062500000e+003) (29, 1.50000000000000000000e+003) (30, 1.50000000000000000000e+003) (31, 1.50000000000000000000e+003) (32, 1.50000000000000000000e+003) (33, 1.36398425292968750000e+003) (34, 1.50000000000000000000e+003) (35, 1.50000000000000000000e+003) (36, 1.25824316406250000000e+003) (37, 1.50000000000000000000e+003) (38, 1.50000000000000000000e+003) (39, 1.25824316406250000000e+003) (40, 1.50000000000000000000e+003) (41, 1.50000000000000000000e+003) (42, 1.50000000000000000000e+003) (43, 1.34904321289062500000e+003) (44, 1.50000000000000000000e+003) (45, 1.50000000000000000000e+003) (46, 1.50000000000000000000e+003) (47, 1.25824316406250000000e+003) (48, 1.50000000000000000000e+003) (49, 1.25824316406250000000e+003) (50, 1.50000000000000000000e+003) (51, 1.25824316406250000000e+003) (52, 1.25824316406250000000e+003) (53, 1.50000000000000000000e+003) (54, 1.50000000000000000000e+003) (55, 1.25824316406250000000e+003) (56, 1.25824316406250000000e+003) (57, 1.50000000000000000000e+003) (58, 1.50000000000000000000e+003) (59, 1.25824316406250000000e+003) (60, 1.36398425292968750000e+003) (61, 1.50000000000000000000e+003) (62, 1.25824316406250000000e+003) (63, 1.50000000000000000000e+003) (64, 1.25824316406250000000e+003) (65, 1.50000000000000000000e+003) (66, 1.50000000000000000000e+003) (67, 1.25824316406250000000e+003) (68, 1.25824316406250000000e+003) (69, 1.50000000000000000000e+003) (70, 1.36398425292968750000e+003) (71, 1.50000000000000000000e+003) (72, 1.25824316406250000000e+003) (73, 1.50000000000000000000e+003) (74, 1.50000000000000000000e+003) (75, 1.36398425292968750000e+003) (76, 1.25824316406250000000e+003) (77, 1.50000000000000000000e+003) (78, 1.50000000000000000000e+003) (79, 1.25824316406250000000e+003) (80, 1.50000000000000000000e+003) (81, 1.25824316406250000000e+003) (82, 1.50000000000000000000e+003) (83, 1.25824316406250000000e+003) (84, -1.37746765136718750000e+003) (0, 1.50000000000000000000e+003) (1, 1.50000000000000000000e+003) (2, 1.50000000000000000000e+003) (3, 1.50000000000000000000e+003) (4, 1.50000000000000000000e+003) (5, 1.50000000000000000000e+003) (6, 1.50000000000000000000e+003) (7, 1.50000000000000000000e+003) (8, 1.50000000000000000000e+003) (9, 1.50000000000000000000e+003) (10, 1.50000000000000000000e+003) (11, 1.50000000000000000000e+003) (12, 1.50000000000000000000e+003) (13, 1.50000000000000000000e+003) (14, 1.50000000000000000000e+003) (15, 1.50000000000000000000e+003) (16, 1.50000000000000000000e+003) (17, 1.25000000000000000000e+003) (18, 1.50000000000000000000e+003) (19, 1.50000000000000000000e+003) (20, 1.50000000000000000000e+003) (21, 1.50000000000000000000e+003) (22, 1.50000000000000000000e+003) (23, 1.50000000000000000000e+003) (24, 1.50000000000000000000e+003) (25, 1.50000000000000000000e+003) (26, 1.50000000000000000000e+003) (27, 1.50000000000000000000e+003) (28, 1.50000000000000000000e+003) (29, 1.50000000000000000000e+003) (30, 1.25000000000000000000e+003) (31, 1.50000000000000000000e+003) (32, 1.50000000000000000000e+003) (33, 1.39275683593750000000e+003) (34, 1.50000000000000000000e+003) (35, 1.25000000000000000000e+003) (36, 1.50000000000000000000e+003) (37, 1.50000000000000000000e+003) (38, 1.50000000000000000000e+003) (39, 1.50000000000000000000e+003) (40, 1.50000000000000000000e+003) (41, 1.50000000000000000000e+003) (42, 1.50000000000000000000e+003) (43, 1.50000000000000000000e+003) (44, 1.50000000000000000000e+003) (45, 1.25000000000000000000e+003) (46, 1.50000000000000000000e+003) (47, 1.39275683593750000000e+003) (48, 1.50000000000000000000e+003) (49, 1.39275683593750000000e+003) (50, 1.50000000000000000000e+003) (51, 1.50000000000000000000e+003) (52, 1.50000000000000000000e+003) (53, 1.50000000000000000000e+003) (54, 1.50000000000000000000e+003) (55, 1.50000000000000000000e+003) (56, 1.50000000000000000000e+003) (57, 1.50000000000000000000e+003) (58, 1.25000000000000000000e+003) (59, 1.50000000000000000000e+003) (60, 1.39275683593750000000e+003) (61, 1.50000000000000000000e+003) (62, 1.50000000000000000000e+003) (63, 1.25000000000000000000e+003) (64, 1.50000000000000000000e+003) (65, 1.25000000000000000000e+003) (66, 1.25000000000000000000e+003) (67, 1.50000000000000000000e+003) (68, 1.50000000000000000000e+003) (69, 1.50000000000000000000e+003) (70, 1.39275683593750000000e+003) (71, 1.50000000000000000000e+003) (72, 1.50000000000000000000e+003) (73, 1.25000000000000000000e+003) (74, 1.25000000000000000000e+003) (75, 1.50000000000000000000e+003) (76, 1.39275683593750000000e+003) (77, 1.50000000000000000000e+003) (78, 1.50000000000000000000e+003) (79, 1.39275683593750000000e+003) (80, 1.25000000000000000000e+003) (81, 1.50000000000000000000e+003) (82, 1.25000000000000000000e+003) (83, 1.50000000000000000000e+003) (84, 1.14418277740478520000e+001) (0, 1.50000000000000000000e+003) (1, 1.50000000000000000000e+003) (2, 1.50000000000000000000e+003) (3, 1.50000000000000000000e+003) (4, 1.50000000000000000000e+003) (5, 1.50000000000000000000e+003) (6, 1.50000000000000000000e+003) (7, 1.50000000000000000000e+003) (8, 1.50000000000000000000e+003) (9, 1.50000000000000000000e+003) (10, 1.50000000000000000000e+003) (11, 1.50000000000000000000e+003) (12, 1.50000000000000000000e+003) (13, 1.50000000000000000000e+003) (14, 1.50000000000000000000e+003) (15, 1.50000000000000000000e+003) (16, 1.50000000000000000000e+003) (17, 1.25000000000000000000e+003) (18, 1.50000000000000000000e+003) (19, 1.50000000000000000000e+003) (20, 1.50000000000000000000e+003) (21, 1.50000000000000000000e+003) (22, 1.50000000000000000000e+003) (23, 1.50000000000000000000e+003) (24, 1.50000000000000000000e+003) (25, 1.50000000000000000000e+003) (26, 1.50000000000000000000e+003) (27, 1.50000000000000000000e+003) (28, 1.50000000000000000000e+003) (29, 1.50000000000000000000e+003) (30, 1.25000000000000000000e+003) (31, 1.50000000000000000000e+003) (32, 1.50000000000000000000e+003) (33, 1.39275683593750000000e+003) (34, 1.50000000000000000000e+003) (35, 1.25000000000000000000e+003) (36, 1.50000000000000000000e+003) (37, 1.50000000000000000000e+003) (38, 1.50000000000000000000e+003) (39, 1.50000000000000000000e+003) (40, 1.50000000000000000000e+003) (41, 1.50000000000000000000e+003) (42, 1.50000000000000000000e+003) (43, 1.50000000000000000000e+003) (44, 1.50000000000000000000e+003) (45, 1.25000000000000000000e+003) (46, 1.50000000000000000000e+003) (47, 1.39275683593750000000e+003) (48, 1.50000000000000000000e+003) (49, 1.39275683593750000000e+003) (50, 1.50000000000000000000e+003) (51, 1.50000000000000000000e+003) (52, 1.50000000000000000000e+003) (53, 1.50000000000000000000e+003) (54, 1.50000000000000000000e+003) (55, 1.50000000000000000000e+003) (56, 1.50000000000000000000e+003) (57, 1.50000000000000000000e+003) (58, 1.25000000000000000000e+003) (59, 1.50000000000000000000e+003) (60, 1.39275683593750000000e+003) (61, 1.50000000000000000000e+003) (62, 1.50000000000000000000e+003) (63, 1.25000000000000000000e+003) (64, 1.50000000000000000000e+003) (65, 1.25000000000000000000e+003) (66, 1.25000000000000000000e+003) (67, 1.50000000000000000000e+003) (68, 1.50000000000000000000e+003) (69, 1.50000000000000000000e+003) (70, 1.39275683593750000000e+003) (71, 1.50000000000000000000e+003) (72, 1.50000000000000000000e+003) (73, 1.25000000000000000000e+003) (74, 1.25000000000000000000e+003) (75, 1.50000000000000000000e+003) (76, 1.39275683593750000000e+003) (77, 1.50000000000000000000e+003) (78, 1.50000000000000000000e+003) (79, 1.39275683593750000000e+003) (80, 1.25000000000000000000e+003) (81, 1.50000000000000000000e+003) (82, 1.25000000000000000000e+003) (83, 1.50000000000000000000e+003) (84, 1.86232910156250000000e+001) (0, 1.25824316406250000000e+003) (1, 1.50000000000000000000e+003) (2, 1.50000000000000000000e+003) (3, 1.50000000000000000000e+003) (4, 1.25824316406250000000e+003) (5, 1.50000000000000000000e+003) (6, 1.50000000000000000000e+003) (7, 1.50000000000000000000e+003) (8, 1.50000000000000000000e+003) (9, 1.50000000000000000000e+003) (10, 1.50000000000000000000e+003) (11, 1.50000000000000000000e+003) (12, 1.50000000000000000000e+003) (13, 1.50000000000000000000e+003) (14, 1.50000000000000000000e+003) (15, 1.25824316406250000000e+003) (16, 1.50000000000000000000e+003) (17, 1.50000000000000000000e+003) (18, 1.25824316406250000000e+003) (19, 1.50000000000000000000e+003) (20, 1.50000000000000000000e+003) (21, 1.50000000000000000000e+003) (22, 1.50000000000000000000e+003) (23, 1.25824316406250000000e+003) (24, 1.50000000000000000000e+003) (25, 1.50000000000000000000e+003) (26, 1.50000000000000000000e+003) (27, 1.50000000000000000000e+003) (28, 1.34904321289062500000e+003) (29, 1.50000000000000000000e+003) (30, 1.50000000000000000000e+003) (31, 1.50000000000000000000e+003) (32, 1.50000000000000000000e+003) (33, 1.36398425292968750000e+003) (34, 1.50000000000000000000e+003) (35, 1.50000000000000000000e+003) (36, 1.25824316406250000000e+003) (37, 1.50000000000000000000e+003) (38, 1.50000000000000000000e+003) (39, 1.25824316406250000000e+003) (40, 1.50000000000000000000e+003) (41, 1.50000000000000000000e+003) (42, 1.50000000000000000000e+003) (43, 1.34904321289062500000e+003) (44, 1.50000000000000000000e+003) (45, 1.50000000000000000000e+003) (46, 1.50000000000000000000e+003) (47, 1.25824316406250000000e+003) (48, 1.50000000000000000000e+003) (49, 1.25824316406250000000e+003) (50, 1.50000000000000000000e+003) (51, 1.25824316406250000000e+003) (52, 1.25824316406250000000e+003) (53, 1.50000000000000000000e+003) (54, 1.50000000000000000000e+003) (55, 1.25824316406250000000e+003) (56, 1.25824316406250000000e+003) (57, 1.50000000000000000000e+003) (58, 1.50000000000000000000e+003) (59, 1.25824316406250000000e+003) (60, 1.36398425292968750000e+003) (61, 1.50000000000000000000e+003) (62, 1.25824316406250000000e+003) (63, 1.50000000000000000000e+003) (64, 1.25824316406250000000e+003) (65, 1.50000000000000000000e+003) (66, 1.50000000000000000000e+003) (67, 1.25824316406250000000e+003) (68, 1.25824316406250000000e+003) (69, 1.50000000000000000000e+003) (70, 1.36398425292968750000e+003) (71, 1.50000000000000000000e+003) (72, 1.25824316406250000000e+003) (73, 1.50000000000000000000e+003) (74, 1.50000000000000000000e+003) (75, 1.36398425292968750000e+003) (76, 1.25824316406250000000e+003) (77, 1.50000000000000000000e+003) (78, 1.50000000000000000000e+003) (79, 1.25824316406250000000e+003) (80, 1.50000000000000000000e+003) (81, 1.25824316406250000000e+003) (82, 1.50000000000000000000e+003) (83, 1.25824316406250000000e+003) (84, 4.45416331291198730000e-001) (0, 1.50000000000000000000e+003) (1, 1.50000000000000000000e+003) (2, 1.50000000000000000000e+003) (3, 1.50000000000000000000e+003) (4, 1.50000000000000000000e+003) (5, 1.50000000000000000000e+003) (6, 1.50000000000000000000e+003) (7, 1.50000000000000000000e+003) (8, 1.50000000000000000000e+003) (9, 1.50000000000000000000e+003) (10, 1.50000000000000000000e+003) (11, 1.50000000000000000000e+003) (12, 1.50000000000000000000e+003) (13, 1.50000000000000000000e+003) (14, 1.50000000000000000000e+003) (15, 1.50000000000000000000e+003) (16, 1.50000000000000000000e+003) (17, 1.25000000000000000000e+003) (18, 1.50000000000000000000e+003) (19, 1.50000000000000000000e+003) (20, 1.50000000000000000000e+003) (21, 1.50000000000000000000e+003) (22, 1.50000000000000000000e+003) (23, 1.50000000000000000000e+003) (24, 1.50000000000000000000e+003) (25, 1.50000000000000000000e+003) (26, 1.50000000000000000000e+003) (27, 1.50000000000000000000e+003) (28, 1.50000000000000000000e+003) (29, 1.50000000000000000000e+003) (30, 1.25000000000000000000e+003) (31, 1.50000000000000000000e+003) (32, 1.50000000000000000000e+003) (33, 1.39275683593750000000e+003) (34, 1.50000000000000000000e+003) (35, 1.25000000000000000000e+003) (36, 1.50000000000000000000e+003) (37, 1.50000000000000000000e+003) (38, 1.50000000000000000000e+003) (39, 1.50000000000000000000e+003) (40, 1.50000000000000000000e+003) (41, 1.50000000000000000000e+003) (42, 1.50000000000000000000e+003) (43, 1.50000000000000000000e+003) (44, 1.50000000000000000000e+003) (45, 1.25000000000000000000e+003) (46, 1.50000000000000000000e+003) (47, 1.39275683593750000000e+003) (48, 1.50000000000000000000e+003) (49, 1.39275683593750000000e+003) (50, 1.50000000000000000000e+003) (51, 1.50000000000000000000e+003) (52, 1.50000000000000000000e+003) (53, 1.50000000000000000000e+003) (54, 1.50000000000000000000e+003) (55, 1.50000000000000000000e+003) (56, 1.50000000000000000000e+003) (57, 1.50000000000000000000e+003) (58, 1.25000000000000000000e+003) (59, 1.50000000000000000000e+003) (60, 1.39275683593750000000e+003) (61, 1.50000000000000000000e+003) (62, 1.50000000000000000000e+003) (63, 1.25000000000000000000e+003) (64, 1.50000000000000000000e+003) (65, 1.25000000000000000000e+003) (66, 1.25000000000000000000e+003) (67, 1.50000000000000000000e+003) (68, 1.50000000000000000000e+003) (69, 1.50000000000000000000e+003) (70, 1.39275683593750000000e+003) (71, 1.50000000000000000000e+003) (72, 1.50000000000000000000e+003) (73, 1.25000000000000000000e+003) (74, 1.25000000000000000000e+003) (75, 1.50000000000000000000e+003) (76, 1.39275683593750000000e+003) (77, 1.50000000000000000000e+003) (78, 1.50000000000000000000e+003) (79, 1.39275683593750000000e+003) (80, 1.25000000000000000000e+003) (81, 1.50000000000000000000e+003) (82, 1.25000000000000000000e+003) (83, 1.50000000000000000000e+003) (84, 8.91261482238769530000e+000) (0, 1.50000000000000000000e+003) (1, 1.50000000000000000000e+003) (2, 1.50000000000000000000e+003) (3, 1.50000000000000000000e+003) (4, 1.50000000000000000000e+003) (5, 1.50000000000000000000e+003) (6, 1.50000000000000000000e+003) (7, 1.50000000000000000000e+003) (8, 1.50000000000000000000e+003) (9, 1.50000000000000000000e+003) (10, 1.50000000000000000000e+003) (11, 1.50000000000000000000e+003) (12, 1.50000000000000000000e+003) (13, 1.50000000000000000000e+003) (14, 1.50000000000000000000e+003) (15, 1.50000000000000000000e+003) (16, 1.50000000000000000000e+003) (17, 1.25000000000000000000e+003) (18, 1.50000000000000000000e+003) (19, 1.50000000000000000000e+003) (20, 1.50000000000000000000e+003) (21, 1.50000000000000000000e+003) (22, 1.50000000000000000000e+003) (23, 1.50000000000000000000e+003) (24, 1.50000000000000000000e+003) (25, 1.50000000000000000000e+003) (26, 1.50000000000000000000e+003) (27, 1.50000000000000000000e+003) (28, 1.50000000000000000000e+003) (29, 1.50000000000000000000e+003) (30, 1.25000000000000000000e+003) (31, 1.50000000000000000000e+003) (32, 1.50000000000000000000e+003) (33, 1.44023803710937500000e+003) (34, 1.50000000000000000000e+003) (35, 1.25000000000000000000e+003) (36, 1.50000000000000000000e+003) (37, 1.50000000000000000000e+003) (38, 1.50000000000000000000e+003) (39, 1.50000000000000000000e+003) (40, 1.50000000000000000000e+003) (41, 1.50000000000000000000e+003) (42, 1.50000000000000000000e+003) (43, 1.50000000000000000000e+003) (44, 1.50000000000000000000e+003) (45, 1.25000000000000000000e+003) (46, 1.50000000000000000000e+003) (47, 1.39275683593750000000e+003) (48, 1.50000000000000000000e+003) (49, 1.39275683593750000000e+003) (50, 1.50000000000000000000e+003) (51, 1.50000000000000000000e+003) (52, 1.50000000000000000000e+003) (53, 1.50000000000000000000e+003) (54, 1.50000000000000000000e+003) (55, 1.50000000000000000000e+003) (56, 1.50000000000000000000e+003) (57, 1.50000000000000000000e+003) (58, 1.25000000000000000000e+003) (59, 1.50000000000000000000e+003) (60, 1.44023803710937500000e+003) (61, 1.50000000000000000000e+003) (62, 1.50000000000000000000e+003) (63, 1.25000000000000000000e+003) (64, 1.50000000000000000000e+003) (65, 1.25000000000000000000e+003) (66, 1.25000000000000000000e+003) (67, 1.50000000000000000000e+003) (68, 1.50000000000000000000e+003) (69, 1.50000000000000000000e+003) (70, 1.44023803710937500000e+003) (71, 1.50000000000000000000e+003) (72, 1.50000000000000000000e+003) (73, 1.25000000000000000000e+003) (74, 1.25000000000000000000e+003) (75, 1.39555371093750000000e+003) (76, 1.39275683593750000000e+003) (77, 1.50000000000000000000e+003) (78, 1.50000000000000000000e+003) (79, 1.39275683593750000000e+003) (80, 1.25000000000000000000e+003) (81, 1.50000000000000000000e+003) (82, 1.25000000000000000000e+003) (83, 1.50000000000000000000e+003) (84, 3.23116827011108400000e+000) (0, 1.50000000000000000000e+003) (1, 1.50000000000000000000e+003) (2, 1.50000000000000000000e+003) (3, 1.50000000000000000000e+003) (4, 1.50000000000000000000e+003) (5, 1.50000000000000000000e+003) (6, 1.50000000000000000000e+003) (7, 1.50000000000000000000e+003) (8, 1.50000000000000000000e+003) (9, 1.50000000000000000000e+003) (10, 1.50000000000000000000e+003) (11, 1.50000000000000000000e+003) (12, 1.50000000000000000000e+003) (13, 1.50000000000000000000e+003) (14, 1.50000000000000000000e+003) (15, 1.50000000000000000000e+003) (16, 1.50000000000000000000e+003) (17, 1.25000000000000000000e+003) (18, 1.50000000000000000000e+003) (19, 1.50000000000000000000e+003) (20, 1.50000000000000000000e+003) (21, 1.50000000000000000000e+003) (22, 1.50000000000000000000e+003) (23, 1.50000000000000000000e+003) (24, 1.50000000000000000000e+003) (25, 1.50000000000000000000e+003) (26, 1.50000000000000000000e+003) (27, 1.50000000000000000000e+003) (28, 1.50000000000000000000e+003) (29, 1.50000000000000000000e+003) (30, 1.25000000000000000000e+003) (31, 1.50000000000000000000e+003) (32, 1.50000000000000000000e+003) (33, 1.39275683593750000000e+003) (34, 1.50000000000000000000e+003) (35, 1.25000000000000000000e+003) (36, 1.50000000000000000000e+003) (37, 1.50000000000000000000e+003) (38, 1.50000000000000000000e+003) (39, 1.50000000000000000000e+003) (40, 1.50000000000000000000e+003) (41, 1.50000000000000000000e+003) (42, 1.50000000000000000000e+003) (43, 1.50000000000000000000e+003) (44, 1.50000000000000000000e+003) (45, 1.25000000000000000000e+003) (46, 1.50000000000000000000e+003) (47, 1.39275683593750000000e+003) (48, 1.50000000000000000000e+003) (49, 1.39275683593750000000e+003) (50, 1.50000000000000000000e+003) (51, 1.50000000000000000000e+003) (52, 1.50000000000000000000e+003) (53, 1.50000000000000000000e+003) (54, 1.50000000000000000000e+003) (55, 1.50000000000000000000e+003) (56, 1.50000000000000000000e+003) (57, 1.50000000000000000000e+003) (58, 1.25000000000000000000e+003) (59, 1.50000000000000000000e+003) (60, 1.39275683593750000000e+003) (61, 1.50000000000000000000e+003) (62, 1.50000000000000000000e+003) (63, 1.25000000000000000000e+003) (64, 1.50000000000000000000e+003) (65, 1.25000000000000000000e+003) (66, 1.25000000000000000000e+003) (67, 1.50000000000000000000e+003) (68, 1.50000000000000000000e+003) (69, 1.50000000000000000000e+003) (70, 1.39275683593750000000e+003) (71, 1.50000000000000000000e+003) (72, 1.50000000000000000000e+003) (73, 1.25000000000000000000e+003) (74, 1.25000000000000000000e+003) (75, 1.50000000000000000000e+003) (76, 1.39275683593750000000e+003) (77, 1.50000000000000000000e+003) (78, 1.50000000000000000000e+003) (79, 1.39275683593750000000e+003) (80, 1.25000000000000000000e+003) (81, 1.50000000000000000000e+003) (82, 1.25000000000000000000e+003) (83, 1.50000000000000000000e+003) (84, -2.87327209472656250000e+002) (0, 1.25824316406250000000e+003) (1, 1.50000000000000000000e+003) (2, 1.50000000000000000000e+003) (3, 1.50000000000000000000e+003) (4, 1.25824316406250000000e+003) (5, 1.50000000000000000000e+003) (6, 1.50000000000000000000e+003) (7, 1.50000000000000000000e+003) (8, 1.50000000000000000000e+003) (9, 1.50000000000000000000e+003) (10, 1.50000000000000000000e+003) (11, 1.50000000000000000000e+003) (12, 1.50000000000000000000e+003) (13, 1.50000000000000000000e+003) (14, 1.50000000000000000000e+003) (15, 1.25824316406250000000e+003) (16, 1.50000000000000000000e+003) (17, 1.50000000000000000000e+003) (18, 1.25824316406250000000e+003) (19, 1.50000000000000000000e+003) (20, 1.50000000000000000000e+003) (21, 1.50000000000000000000e+003) (22, 1.50000000000000000000e+003) (23, 1.25824316406250000000e+003) (24, 1.50000000000000000000e+003) (25, 1.50000000000000000000e+003) (26, 1.50000000000000000000e+003) (27, 1.50000000000000000000e+003) (28, 1.34904321289062500000e+003) (29, 1.50000000000000000000e+003) (30, 1.50000000000000000000e+003) (31, 1.50000000000000000000e+003) (32, 1.50000000000000000000e+003) (33, 1.42674670410156250000e+003) (34, 1.50000000000000000000e+003) (35, 1.50000000000000000000e+003) (36, 1.25824316406250000000e+003) (37, 1.50000000000000000000e+003) (38, 1.50000000000000000000e+003) (39, 1.27850134277343750000e+003) (40, 1.50000000000000000000e+003) (41, 1.50000000000000000000e+003) (42, 1.50000000000000000000e+003) (43, 1.34904321289062500000e+003) (44, 1.50000000000000000000e+003) (45, 1.50000000000000000000e+003) (46, 1.50000000000000000000e+003) (47, 1.27850134277343750000e+003) (48, 1.50000000000000000000e+003) (49, 1.05270129394531250000e+003) (50, 1.50000000000000000000e+003) (51, 1.25824316406250000000e+003) (52, 1.27850134277343750000e+003) (53, 1.50000000000000000000e+003) (54, 1.50000000000000000000e+003) (55, 1.25824316406250000000e+003) (56, 9.54380859375000000000e+002) (57, 1.50000000000000000000e+003) (58, 1.50000000000000000000e+003) (59, 1.27850134277343750000e+003) (60, 1.42674670410156250000e+003) (61, 1.50000000000000000000e+003) (62, 1.25115258789062500000e+003) (63, 1.50000000000000000000e+003) (64, 1.25824316406250000000e+003) (65, 1.50000000000000000000e+003) (66, 1.50000000000000000000e+003) (67, 1.19469421386718750000e+003) (68, 1.27850134277343750000e+003) (69, 1.50000000000000000000e+003) (70, 1.43670898437500000000e+003) (71, 1.50000000000000000000e+003) (72, 1.27850134277343750000e+003) (73, 1.50000000000000000000e+003) (74, 1.50000000000000000000e+003) (75, 1.20202673339843750000e+003) (76, 1.25824316406250000000e+003) (77, 1.50000000000000000000e+003) (78, 1.50000000000000000000e+003) (79, 1.30867553710937500000e+003) (80, 1.50000000000000000000e+003) (81, 1.23862878417968750000e+003) (82, 1.50000000000000000000e+003) (83, 1.27850134277343750000e+003) (84, -1.87645767211914060000e+002) (0, 1.50000000000000000000e+003) (1, 1.50000000000000000000e+003) (2, 1.50000000000000000000e+003) (3, 1.50000000000000000000e+003) (4, 1.50000000000000000000e+003) (5, 1.50000000000000000000e+003) (6, 1.50000000000000000000e+003) (7, 1.50000000000000000000e+003) (8, 1.50000000000000000000e+003) (9, 1.50000000000000000000e+003) (10, 1.50000000000000000000e+003) (11, 1.50000000000000000000e+003) (12, 1.50000000000000000000e+003) (13, 1.50000000000000000000e+003) (14, 1.50000000000000000000e+003) (15, 1.50000000000000000000e+003) (16, 1.50000000000000000000e+003) (17, 1.25000000000000000000e+003) (18, 1.50000000000000000000e+003) (19, 1.50000000000000000000e+003) (20, 1.50000000000000000000e+003) (21, 1.50000000000000000000e+003) (22, 1.50000000000000000000e+003) (23, 1.50000000000000000000e+003) (24, 1.50000000000000000000e+003) (25, 1.50000000000000000000e+003) (26, 1.50000000000000000000e+003) (27, 1.50000000000000000000e+003) (28, 1.50000000000000000000e+003) (29, 1.50000000000000000000e+003) (30, 1.25000000000000000000e+003) (31, 1.50000000000000000000e+003) (32, 1.50000000000000000000e+003) (33, 1.39275683593750000000e+003) (34, 1.50000000000000000000e+003) (35, 1.25000000000000000000e+003) (36, 1.50000000000000000000e+003) (37, 1.50000000000000000000e+003) (38, 1.50000000000000000000e+003) (39, 1.50000000000000000000e+003) (40, 1.50000000000000000000e+003) (41, 1.50000000000000000000e+003) (42, 1.50000000000000000000e+003) (43, 1.50000000000000000000e+003) (44, 1.50000000000000000000e+003) (45, 1.25000000000000000000e+003) (46, 1.50000000000000000000e+003) (47, 1.39275683593750000000e+003) (48, 1.50000000000000000000e+003) (49, 1.39275683593750000000e+003) (50, 1.50000000000000000000e+003) (51, 1.50000000000000000000e+003) (52, 1.50000000000000000000e+003) (53, 1.50000000000000000000e+003) (54, 1.50000000000000000000e+003) (55, 1.50000000000000000000e+003) (56, 1.50000000000000000000e+003) (57, 1.50000000000000000000e+003) (58, 1.25000000000000000000e+003) (59, 1.50000000000000000000e+003) (60, 1.39275683593750000000e+003) (61, 1.50000000000000000000e+003) (62, 1.50000000000000000000e+003) (63, 1.25000000000000000000e+003) (64, 1.50000000000000000000e+003) (65, 1.25000000000000000000e+003) (66, 1.25000000000000000000e+003) (67, 1.50000000000000000000e+003) (68, 1.50000000000000000000e+003) (69, 1.50000000000000000000e+003) (70, 1.39275683593750000000e+003) (71, 1.50000000000000000000e+003) (72, 1.50000000000000000000e+003) (73, 1.25000000000000000000e+003) (74, 1.25000000000000000000e+003) (75, 1.50000000000000000000e+003) (76, 1.39275683593750000000e+003) (77, 1.50000000000000000000e+003) (78, 1.50000000000000000000e+003) (79, 1.39275683593750000000e+003) (80, 1.25000000000000000000e+003) (81, 1.50000000000000000000e+003) (82, 1.25000000000000000000e+003) (83, 1.50000000000000000000e+003) (84, -6.05675888061523440000e+001) (0, 1.25824316406250000000e+003) (1, 1.50000000000000000000e+003) (2, 1.50000000000000000000e+003) (3, 1.50000000000000000000e+003) (4, 1.25824316406250000000e+003) (5, 1.50000000000000000000e+003) (6, 1.50000000000000000000e+003) (7, 1.50000000000000000000e+003) (8, 1.50000000000000000000e+003) (9, 1.50000000000000000000e+003) (10, 1.50000000000000000000e+003) (11, 1.50000000000000000000e+003) (12, 1.50000000000000000000e+003) (13, 1.50000000000000000000e+003) (14, 1.50000000000000000000e+003) (15, 1.25824316406250000000e+003) (16, 1.50000000000000000000e+003) (17, 1.50000000000000000000e+003) (18, 1.25824316406250000000e+003) (19, 1.50000000000000000000e+003) (20, 1.50000000000000000000e+003) (21, 1.50000000000000000000e+003) (22, 1.50000000000000000000e+003) (23, 1.25824316406250000000e+003) (24, 1.50000000000000000000e+003) (25, 1.50000000000000000000e+003) (26, 1.50000000000000000000e+003) (27, 1.50000000000000000000e+003) (28, 1.34904321289062500000e+003) (29, 1.50000000000000000000e+003) (30, 1.50000000000000000000e+003) (31, 1.50000000000000000000e+003) (32, 1.50000000000000000000e+003) (33, 1.36398425292968750000e+003) (34, 1.50000000000000000000e+003) (35, 1.50000000000000000000e+003) (36, 1.25824316406250000000e+003) (37, 1.50000000000000000000e+003) (38, 1.50000000000000000000e+003) (39, 1.25824316406250000000e+003) (40, 1.50000000000000000000e+003) (41, 1.50000000000000000000e+003) (42, 1.50000000000000000000e+003) (43, 1.34904321289062500000e+003) (44, 1.50000000000000000000e+003) (45, 1.50000000000000000000e+003) (46, 1.50000000000000000000e+003) (47, 1.25824316406250000000e+003) (48, 1.50000000000000000000e+003) (49, 1.25824316406250000000e+003) (50, 1.50000000000000000000e+003) (51, 1.25824316406250000000e+003) (52, 1.25824316406250000000e+003) (53, 1.50000000000000000000e+003) (54, 1.50000000000000000000e+003) (55, 1.25824316406250000000e+003) (56, 1.25824316406250000000e+003) (57, 1.50000000000000000000e+003) (58, 1.50000000000000000000e+003) (59, 1.25824316406250000000e+003) (60, 1.36398425292968750000e+003) (61, 1.50000000000000000000e+003) (62, 1.25824316406250000000e+003) (63, 1.50000000000000000000e+003) (64, 1.25824316406250000000e+003) (65, 1.50000000000000000000e+003) (66, 1.50000000000000000000e+003) (67, 1.25824316406250000000e+003) (68, 1.25824316406250000000e+003) (69, 1.50000000000000000000e+003) (70, 1.36398425292968750000e+003) (71, 1.50000000000000000000e+003) (72, 1.25824316406250000000e+003) (73, 1.50000000000000000000e+003) (74, 1.50000000000000000000e+003) (75, 1.36398425292968750000e+003) (76, 1.25824316406250000000e+003) (77, 1.50000000000000000000e+003) (78, 1.50000000000000000000e+003) (79, 1.25824316406250000000e+003) (80, 1.50000000000000000000e+003) (81, 1.25824316406250000000e+003) (82, 1.50000000000000000000e+003) (83, 1.25824316406250000000e+003) (84, 2.23964643478393550000e+000) (0, 1.50000000000000000000e+003) (1, 1.50000000000000000000e+003) (2, 1.50000000000000000000e+003) (3, 1.50000000000000000000e+003) (4, 1.50000000000000000000e+003) (5, 1.50000000000000000000e+003) (6, 1.50000000000000000000e+003) (7, 1.50000000000000000000e+003) (8, 1.50000000000000000000e+003) (9, 1.50000000000000000000e+003) (10, 1.50000000000000000000e+003) (11, 1.50000000000000000000e+003) (12, 1.50000000000000000000e+003) (13, 1.50000000000000000000e+003) (14, 1.50000000000000000000e+003) (15, 1.50000000000000000000e+003) (16, 1.50000000000000000000e+003) (17, 1.25000000000000000000e+003) (18, 1.50000000000000000000e+003) (19, 1.50000000000000000000e+003) (20, 1.50000000000000000000e+003) (21, 1.50000000000000000000e+003) (22, 1.50000000000000000000e+003) (23, 1.50000000000000000000e+003) (24, 1.50000000000000000000e+003) (25, 1.50000000000000000000e+003) (26, 1.50000000000000000000e+003) (27, 1.50000000000000000000e+003) (28, 1.50000000000000000000e+003) (29, 1.50000000000000000000e+003) (30, 1.25000000000000000000e+003) (31, 1.50000000000000000000e+003) (32, 1.50000000000000000000e+003) (33, 1.39275683593750000000e+003) (34, 1.50000000000000000000e+003) (35, 1.25000000000000000000e+003) (36, 1.50000000000000000000e+003) (37, 1.50000000000000000000e+003) (38, 1.50000000000000000000e+003) (39, 1.50000000000000000000e+003) (40, 1.50000000000000000000e+003) (41, 1.50000000000000000000e+003) (42, 1.50000000000000000000e+003) (43, 1.50000000000000000000e+003) (44, 1.50000000000000000000e+003) (45, 1.25000000000000000000e+003) (46, 1.50000000000000000000e+003) (47, 1.39275683593750000000e+003) (48, 1.50000000000000000000e+003) (49, 1.39275683593750000000e+003) (50, 1.50000000000000000000e+003) (51, 1.50000000000000000000e+003) (52, 1.50000000000000000000e+003) (53, 1.50000000000000000000e+003) (54, 1.50000000000000000000e+003) (55, 1.50000000000000000000e+003) (56, 1.50000000000000000000e+003) (57, 1.50000000000000000000e+003) (58, 1.25000000000000000000e+003) (59, 1.50000000000000000000e+003) (60, 1.39275683593750000000e+003) (61, 1.50000000000000000000e+003) (62, 1.50000000000000000000e+003) (63, 1.25000000000000000000e+003) (64, 1.50000000000000000000e+003) (65, 1.25000000000000000000e+003) (66, 1.25000000000000000000e+003) (67, 1.50000000000000000000e+003) (68, 1.50000000000000000000e+003) (69, 1.50000000000000000000e+003) (70, 1.39275683593750000000e+003) (71, 1.50000000000000000000e+003) (72, 1.50000000000000000000e+003) (73, 1.25000000000000000000e+003) (74, 1.25000000000000000000e+003) (75, 1.50000000000000000000e+003) (76, 1.39275683593750000000e+003) (77, 1.50000000000000000000e+003) (78, 1.50000000000000000000e+003) (79, 1.39275683593750000000e+003) (80, 1.25000000000000000000e+003) (81, 1.50000000000000000000e+003) (82, 1.25000000000000000000e+003) (83, 1.50000000000000000000e+003) (84, 2.98222565650939940000e+000) (85, -1.13377701491117480000e-002) (86, -1.21626719832420350000e-001) (87, 1.04864209890365600000e-001) (88, 1.07702314853668210000e-001) (89, -1.07257999479770660000e-001) (90, 9.52826678752899170000e-001) (91, -1.23368673026561740000e-001) (92, -2.54172652959823610000e-001) (93, 8.09270050376653670000e-003) (94, 4.22149561345577240000e-002) (95, 1.68832719326019290000e-001) (96, 1.28785083070397380000e-002) (97, -6.38667717576026920000e-002) (98, -1.89541857689619060000e-002) (99, 9.52826678752899170000e-001) (100, -1.20083577930927280000e-001) (101, 1.79171841591596600000e-002) (102, -2.81219661235809330000e-001) (103, -1.12950630486011510000e-001) (104, 3.71289774775505070000e-002) (105, -1.42298534512519840000e-001) (106, -9.33618471026420590000e-002) (107, 4.01106961071491240000e-002) (108, -6.86215832829475400000e-002) (109, -1.51790138334035870000e-002) (110, -1.56385585665702820000e-001) (111, 2.20975056290626530000e-002) (112, -1.36567270383238790000e-002) (113, 1.05730891227722170000e-001) (114, -7.05645158886909480000e-002) (115, 3.86257559061050420000e-001) 
