FANN_FLO_2.1
num_layers=3
learning_rate=0.100000
connection_rate=1.000000
network_type=0
learning_momentum=0.000000
training_algorithm=2
train_error_function=1
train_stop_function=0
cascade_output_change_fraction=0.010000
quickprop_decay=-0.000100
quickprop_mu=1.750000
rprop_increase_factor=1.200000
rprop_decrease_factor=0.500000
rprop_delta_min=0.000000
rprop_delta_max=50.000000
rprop_delta_zero=0.100000
cascade_output_stagnation_epochs=12
cascade_candidate_change_fraction=0.010000
cascade_candidate_stagnation_epochs=12
cascade_max_out_epochs=150
cascade_min_out_epochs=50
cascade_max_cand_epochs=150
cascade_min_cand_epochs=50
cascade_num_candidate_groups=2
bit_fail_limit=3.49999994039535520000e-001
cascade_candidate_limit=1.00000000000000000000e+003
cascade_weight_multiplier=4.00000005960464480000e-001
cascade_activation_functions_count=10
cascade_activation_functions=3 5 7 8 10 11 14 15 16 17 
cascade_activation_steepnesses_count=4
cascade_activation_steepnesses=2.50000000000000000000e-001 5.00000000000000000000e-001 7.50000000000000000000e-001 1.00000000000000000000e+000 
layer_sizes=85 31 2 
scale_included=0
neurons (num_inputs, activation_function, activation_steepness)=(0, 0, 0.00000000000000000000e+000) (0, 0, 0.00000000000000000000e+000) (0, 0, 0.00000000000000000000e+000) (0, 0, 0.00000000000000000000e+000) (0, 0, 0.00000000000000000000e+000) (0, 0, 0.00000000000000000000e+000) (0, 0, 0.00000000000000000000e+000) (0, 0, 0.00000000000000000000e+000) (0, 0, 0.00000000000000000000e+000) (0, 0, 0.00000000000000000000e+000) (0, 0, 0.00000000000000000000e+000) (0, 0, 0.00000000000000000000e+000) (0, 0, 0.00000000000000000000e+000) (0, 0, 0.00000000000000000000e+000) (0, 0, 0.00000000000000000000e+000) (0, 0, 0.00000000000000000000e+000) (0, 0, 0.00000000000000000000e+000) (0, 0, 0.00000000000000000000e+000) (0, 0, 0.00000000000000000000e+000) (0, 0, 0.00000000000000000000e+000) (0, 0, 0.00000000000000000000e+000) (0, 0, 0.00000000000000000000e+000) (0, 0, 0.00000000000000000000e+000) (0, 0, 0.00000000000000000000e+000) (0, 0, 0.00000000000000000000e+000) (0, 0, 0.00000000000000000000e+000) (0, 0, 0.00000000000000000000e+000) (0, 0, 0.00000000000000000000e+000) (0, 0, 0.00000000000000000000e+000) (0, 0, 0.00000000000000000000e+000) (0, 0, 0.00000000000000000000e+000) (0, 0, 0.00000000000000000000e+000) (0, 0, 0.00000000000000000000e+000) (0, 0, 0.00000000000000000000e+000) (0, 0, 0.00000000000000000000e+000) (0, 0, 0.00000000000000000000e+000) (0, 0, 0.00000000000000000000e+000) (0, 0, 0.00000000000000000000e+000) (0, 0, 0.00000000000000000000e+000) (0, 0, 0.00000000000000000000e+000) (0, 0, 0.00000000000000000000e+000) (0, 0, 0.00000000000000000000e+000) (0, 0, 0.00000000000000000000e+000) (0, 0, 0.00000000000000000000e+000) (0, 0, 0.00000000000000000000e+000) (0, 0, 0.00000000000000000000e+000) (0, 0, 0.00000000000000000000e+000) (0, 0, 0.00000000000000000000e+000) (0, 0, 0.00000000000000000000e+000) (0, 0, 0.00000000000000000000e+000) (0, 0, 0.00000000000000000000e+000) (0, 0, 0.00000000000000000000e+000) (0, 0, 0.00000000000000000000e+000) (0, 0, 0.00000000000000000000e+000) (0, 0, 0.00000000000000000000e+000) (0, 0, 0.00000000000000000000e+000) (0, 0, 0.00000000000000000000e+000) (0, 0, 0.00000000000000000000e+000) (0, 0, 0.00000000000000000000e+000) (0, 0, 0.00000000000000000000e+000) (0, 0, 0.00000000000000000000e+000) (0, 0, 0.00000000000000000000e+000) (0, 0, 0.00000000000000000000e+000) (0, 0, 0.00000000000000000000e+000) (0, 0, 0.00000000000000000000e+000) (0, 0, 0.00000000000000000000e+000) (0, 0, 0.00000000000000000000e+000) (0, 0, 0.00000000000000000000e+000) (0, 0, 0.00000000000000000000e+000) (0, 0, 0.00000000000000000000e+000) (0, 0, 0.00000000000000000000e+000) (0, 0, 0.00000000000000000000e+000) (0, 0, 0.00000000000000000000e+000) (0, 0, 0.00000000000000000000e+000) (0, 0, 0.00000000000000000000e+000) (0, 0, 0.00000000000000000000e+000) (0, 0, 0.00000000000000000000e+000) (0, 0, 0.00000000000000000000e+000) (0, 0, 0.00000000000000000000e+000) (0, 0, 0.00000000000000000000e+000) (0, 0, 0.00000000000000000000e+000) (0, 0, 0.00000000000000000000e+000) (0, 0, 0.00000000000000000000e+000) (0, 0, 0.00000000000000000000e+000) (0, 0, 0.00000000000000000000e+000) (85, 6, 1.00000000000000000000e+000) (85, 6, 1.00000000000000000000e+000) (85, 6, 1.00000000000000000000e+000) (85, 6, 1.00000000000000000000e+000) (85, 6, 1.00000000000000000000e+000) (85, 6, 1.00000000000000000000e+000) (85, 6, 1.00000000000000000000e+000) (85, 6, 1.00000000000000000000e+000) (85, 6, 1.00000000000000000000e+000) (85, 6, 1.00000000000000000000e+000) (85, 6, 1.00000000000000000000e+000) (85, 6, 1.00000000000000000000e+000) (85, 6, 1.00000000000000000000e+000) (85, 6, 1.00000000000000000000e+000) (85, 6, 1.00000000000000000000e+000) (85, 6, 1.00000000000000000000e+000) (85, 6, 1.00000000000000000000e+000) (85, 6, 1.00000000000000000000e+000) (85, 6, 1.00000000000000000000e+000) (85, 6, 1.00000000000000000000e+000) (85, 6, 1.00000000000000000000e+000) (85, 6, 1.00000000000000000000e+000) (85, 6, 1.00000000000000000000e+000) (85, 6, 1.00000000000000000000e+000) (85, 6, 1.00000000000000000000e+000) (85, 6, 1.00000000000000000000e+000) (85, 6, 1.00000000000000000000e+000) (85, 6, 1.00000000000000000000e+000) (85, 6, 1.00000000000000000000e+000) (85, 6, 1.00000000000000000000e+000) (0, 6, 1.00000000000000000000e+000) (31, 6, 1.00000000000000000000e+000) (0, 6, 1.00000000000000000000e+000) 
connections (connected_to_neuron, weight)=(0, 4.97750091552734370000e+002) (1, 4.97862762451171870000e+002) (2, 4.97857147216796870000e+002) (3, 4.97864501953125000000e+002) (4, 4.97807556152343750000e+002) (5, 4.97773315429687500000e+002) (6, 4.97920715332031250000e+002) (7, 4.97755767822265620000e+002) (8, 4.97885284423828120000e+002) (9, 4.97893646240234370000e+002) (10, 4.97874572753906250000e+002) (11, 4.97823364257812500000e+002) (12, 4.97873260498046870000e+002) (13, 4.97821868896484380000e+002) (14, 4.97820190429687500000e+002) (15, 4.97775756835937500000e+002) (16, 3.66342020034790040000e+000) (17, 3.48944473266601560000e+000) (18, 3.43772983551025390000e+000) (19, 3.63373279571533200000e+000) (20, 4.97832092285156250000e+002) (21, 4.97869232177734370000e+002) (22, 3.44217920303344730000e+000) (23, 3.62350320816040040000e+000) (24, 3.40434360504150390000e+000) (25, 3.68799304962158200000e+000) (26, 3.59473133087158200000e+000) (27, 3.46647739410400390000e+000) (28, 4.97827758789062500000e+002) (29, 4.97785125732421870000e+002) (30, 3.41789340972900390000e+000) (31, 3.63028430938720700000e+000) (32, 3.47056055068969730000e+000) (33, 3.61411476135253910000e+000) (34, 4.97776977539062500000e+002) (35, 4.97938232421875000000e+002) (36, 3.69493293762207030000e+000) (37, 3.38528203964233400000e+000) (38, 3.66372537612915040000e+000) (39, 3.57287979125976560000e+000) (40, 3.57081031799316410000e+000) (41, 3.55629730224609370000e+000) (42, 4.97826934814453120000e+002) (43, 4.97757019042968750000e+002) (44, 3.60834217071533200000e+000) (45, 3.50835323333740230000e+000) (46, 3.63588619232177730000e+000) (47, 3.60809803009033200000e+000) (48, 4.97945892333984370000e+002) (49, 4.97930847167968750000e+002) (50, 3.63372039794921870000e+000) (51, 3.75072383880615230000e+000) (52, 3.48152256011962890000e+000) (53, 3.53058958053588870000e+000) (54, 3.62228250503540040000e+000) (55, 3.56026935577392580000e+000) (56, 3.67514371871948240000e+000) (57, 3.49389410018920900000e+000) (58, 3.54639053344726560000e+000) (59, 3.54873514175415040000e+000) (60, 3.69814920425415040000e+000) (61, 3.63612413406372070000e+000) (62, 4.97849884033203120000e+002) (63, 3.38573360443115230000e+000) (64, 3.61221647262573240000e+000) (65, 3.62261819839477540000e+000) (66, 3.44281864166259770000e+000) (67, 3.43514204025268550000e+000) (68, 3.57000398635864260000e+000) (69, 3.49802017211914060000e+000) (70, 3.56850337982177730000e+000) (71, 3.58572626113891600000e+000) (72, 3.56205320358276370000e+000) (73, 3.40513706207275390000e+000) (74, 3.74327754974365230000e+000) (75, 3.67823982238769530000e+000) (76, 3.47978162765502930000e+000) (77, 3.78022670745849610000e+000) (78, 3.70410633087158200000e+000) (79, 3.63381099700927730000e+000) (80, 3.46167993545532230000e+000) (81, 3.48835086822509770000e+000) (82, 3.47366094589233400000e+000) (83, 3.62531995773315430000e+000) (84, 3.48017215728759770000e+000) (0, 4.97910308837890620000e+002) (1, 4.97791717529296870000e+002) (2, 4.97760894775390620000e+002) (3, 4.97823272705078120000e+002) (4, 4.97796142578125000000e+002) (5, 4.97888122558593750000e+002) (6, 4.97808959960937500000e+002) (7, 4.97870758056640620000e+002) (8, 4.97868103027343750000e+002) (9, 4.97860595703125000000e+002) (10, 4.97831298828125000000e+002) (11, 4.97869110107421870000e+002) (12, 4.97822601318359370000e+002) (13, 4.97911224365234370000e+002) (14, 4.97848388671875000000e+002) (15, 4.97776916503906250000e+002) (16, 3.57900857925415040000e+000) (17, 3.55597925186157230000e+000) (18, 3.38641119003295900000e+000) (19, 3.67831277847290040000e+000) (20, 4.97920166015625000000e+002) (21, 4.97758636474609370000e+002) (22, 3.55607080459594730000e+000) (23, 3.50712776184082030000e+000) (24, 3.46341323852539060000e+000) (25, 3.52343606948852540000e+000) (26, 3.52300882339477540000e+000) (27, 3.46014785766601560000e+000) (28, 4.97764251708984370000e+002) (29, 4.97764129638671870000e+002) (30, 3.39269161224365230000e+000) (31, 3.63856697082519530000e+000) (32, 3.54286861419677730000e+000) (33, 3.72002935409545900000e+000) (34, 4.97947631835937500000e+002) (35, 4.97890228271484370000e+002) (36, 3.55942869186401370000e+000) (37, 3.39313125610351560000e+000) (38, 3.64777708053588870000e+000) (39, 3.46302890777587890000e+000) (40, 3.67803096771240230000e+000) (41, 3.68788909912109370000e+000) (42, 4.97813720703125000000e+002) (43, 4.97928039550781250000e+002) (44, 3.57295417785644530000e+000) (45, 3.46612930297851560000e+000) (46, 3.65370225906372070000e+000) (47, 3.64320564270019530000e+000) (48, 4.97788848876953120000e+002) (49, 4.97815216064453120000e+002) (50, 3.66655158996582030000e+000) (51, 3.71729469299316410000e+000) (52, 3.51777744293212890000e+000) (53, 3.52049446105957030000e+000) (54, 3.53693103790283200000e+000) (55, 3.72214698791503910000e+000) (56, 3.69544410705566410000e+000) (57, 3.67163562774658200000e+000) (58, 3.46598291397094730000e+000) (59, 3.63940906524658200000e+000) (60, 3.56830310821533200000e+000) (61, 3.62753629684448240000e+000) (62, 4.97884735107421870000e+002) (63, 3.50953769683837890000e+000) (64, 3.68826055526733400000e+000) (65, 3.55400228500366210000e+000) (66, 3.56461429595947270000e+000) (67, 3.43864536285400390000e+000) (68, 3.60273075103759770000e+000) (69, 3.52045059204101560000e+000) (70, 3.61494016647338870000e+000) (71, 3.51653718948364260000e+000) (72, 3.63936614990234370000e+000) (73, 3.43771743774414060000e+000) (74, 3.73080778121948240000e+000) (75, 3.52341794967651370000e+000) (76, 3.43022727966308590000e+000) (77, 3.86540365219116210000e+000) (78, 3.55612039566040040000e+000) (79, 3.70502662658691410000e+000) (80, 3.41769170761108400000e+000) (81, 3.45693016052246090000e+000) (82, 3.52124404907226560000e+000) (83, 3.53301048278808590000e+000) (84, 3.98365974426269530000e+000) (0, 4.97769805908203120000e+002) (1, 4.97904571533203120000e+002) (2, 4.97894531250000000000e+002) (3, 4.97866424560546870000e+002) (4, 4.97851837158203120000e+002) (5, 4.97912963867187500000e+002) (6, 4.97815734863281250000e+002) (7, 4.97934509277343750000e+002) (8, 4.97940551757812500000e+002) (9, 4.97804321289062500000e+002) (10, 4.97760192871093750000e+002) (11, 4.97772369384765620000e+002) (12, 4.97832427978515620000e+002) (13, 4.97854888916015620000e+002) (14, 4.97802124023437500000e+002) (15, 4.97948913574218750000e+002) (16, 3.70139646530151370000e+000) (17, 3.56045293807983400000e+000) (18, 3.49817895889282230000e+000) (19, 3.54700183868408200000e+000) (20, 4.97863311767578120000e+002) (21, 4.97897857666015620000e+002) (22, 3.48344516754150390000e+000) (23, 3.63644886016845700000e+000) (24, 3.40077304840087890000e+000) (25, 3.65638923645019530000e+000) (26, 3.62605476379394530000e+000) (27, 3.53424453735351560000e+000) (28, 4.97825378417968750000e+002) (29, 4.97931091308593750000e+002) (30, 3.53856563568115230000e+000) (31, 3.66675281524658200000e+000) (32, 3.54241085052490230000e+000) (33, 3.72449064254760740000e+000) (34, 4.97858886718750000000e+002) (35, 4.97880950927734370000e+002) (36, 3.61889505386352540000e+000) (37, 3.40497207641601560000e+000) (38, 3.68639993667602540000e+000) (39, 3.49029302597045900000e+000) (40, 3.57024288177490230000e+000) (41, 3.57892942428588870000e+000) (42, 4.97868316650390620000e+002) (43, 4.97788848876953120000e+002) (44, 3.59369993209838870000e+000) (45, 3.46394443511962890000e+000) (46, 3.57181119918823240000e+000) (47, 3.57916736602783200000e+000) (48, 4.97935424804687500000e+002) (49, 4.97936126708984370000e+002) (50, 3.64938831329345700000e+000) (51, 3.74924659729003910000e+000) (52, 3.52928829193115230000e+000) (53, 3.51769256591796870000e+000) (54, 3.68873167037963870000e+000) (55, 3.62084102630615230000e+000) (56, 3.68418931961059570000e+000) (57, 3.38296890258789060000e+000) (58, 3.46512842178344730000e+000) (59, 3.63095569610595700000e+000) (60, 3.54734992980957030000e+000) (61, 3.56753253936767580000e+000) (62, 4.97918792724609370000e+002) (63, 3.48889541625976560000e+000) (64, 3.67464351654052730000e+000) (65, 3.61432361602783200000e+000) (66, 3.44659090042114260000e+000) (67, 3.53970718383789060000e+000) (68, 3.55100965499877930000e+000) (69, 3.54377222061157230000e+000) (70, 3.44641494750976560000e+000) (71, 3.56216669082641600000e+000) (72, 3.63522195816040040000e+000) (73, 3.47914791107177730000e+000) (74, 3.73778438568115230000e+000) (75, 3.55390501022338870000e+000) (76, 3.54886102676391600000e+000) (77, 3.86386919021606450000e+000) (78, 3.64318704605102540000e+000) (79, 3.65840816497802730000e+000) (80, 3.42661523818969730000e+000) (81, 3.58460330963134770000e+000) (82, 3.49005508422851560000e+000) (83, 3.62567996978759770000e+000) (84, 3.43533563613891600000e+000) (0, 4.97861480712890620000e+002) (1, 4.97832214355468750000e+002) (2, 4.97925567626953120000e+002) (3, 4.97766113281250000000e+002) (4, 4.97770507812500000000e+002) (5, 4.97816040039062500000e+002) (6, 4.97893432617187500000e+002) (7, 4.97948791503906250000e+002) (8, 4.97831237792968750000e+002) (9, 4.97804504394531250000e+002) (10, 4.97824127197265620000e+002) (11, 4.97843780517578120000e+002) (12, 4.97758789062500000000e+002) (13, 4.97763061523437500000e+002) (14, 4.97789398193359370000e+002) (15, 4.97831787109375000000e+002) (16, 3.67847156524658200000e+000) (17, 3.57179355621337890000e+000) (18, 3.47699356079101560000e+000) (19, 3.55048704147338870000e+000) (20, 4.97797851562500000000e+002) (21, 4.97864959716796870000e+002) (22, 3.55262231826782230000e+000) (23, 3.56943225860595700000e+000) (24, 3.52474117279052730000e+000) (25, 3.58242654800415040000e+000) (26, 3.65400886535644530000e+000) (27, 3.43246841430664060000e+000) (28, 4.97883575439453120000e+002) (29, 4.97900604248046870000e+002) (30, 3.48999404907226560000e+000) (31, 3.65643167495727540000e+000) (32, 3.47031021118164060000e+000) (33, 3.66355943679809570000e+000) (34, 4.97932678222656250000e+002) (35, 4.97908721923828120000e+002) (36, 3.52159309387207030000e+000) (37, 3.43835830688476560000e+000) (38, 3.56327390670776370000e+000) (39, 3.42416143417358400000e+000) (40, 3.68833351135253910000e+000) (41, 3.52604246139526370000e+000) (42, 4.97841491699218750000e+002) (43, 4.97769805908203120000e+002) (44, 3.61714935302734370000e+000) (45, 3.39100122451782230000e+000) (46, 3.60929298400878910000e+000) (47, 3.67822122573852540000e+000) (48, 4.97901306152343750000e+002) (49, 4.97856689453125000000e+002) (50, 3.51115608215332030000e+000) (51, 3.55945158004760740000e+000) (52, 3.41435337066650390000e+000) (53, 3.50868415832519530000e+000) (54, 3.69742298126220700000e+000) (55, 3.58912706375122070000e+000) (56, 3.67822027206420900000e+000) (57, 3.68486785888671870000e+000) (58, 3.40351963043212890000e+000) (59, 3.50933074951171870000e+000) (60, 3.66818714141845700000e+000) (61, 3.72724342346191410000e+000) (62, 4.97802612304687500000e+002) (63, 3.45985507965087890000e+000) (64, 3.66084337234497070000e+000) (65, 3.55958700180053710000e+000) (66, 3.59603548049926760000e+000) (67, 3.54536533355712890000e+000) (68, 3.44308710098266600000e+000) (69, 3.42740869522094730000e+000) (70, 3.68129158020019530000e+000) (71, 3.54193353652954100000e+000) (72, 3.53142547607421870000e+000) (73, 3.53199243545532230000e+000) (74, 3.71103858947753910000e+000) (75, 3.67033576965332030000e+000) (76, 3.49636507034301760000e+000) (77, 3.81488847732543950000e+000) (78, 3.65790891647338870000e+000) (79, 3.56592130661010740000e+000) (80, 3.48410415649414060000e+000) (81, 3.46687889099121090000e+000) (82, 3.39452266693115230000e+000) (83, 3.61183118820190430000e+000) (84, 3.61794090270996090000e+000) (0, 4.97871215820312500000e+002) (1, 4.97888092041015620000e+002) (2, 4.97929595947265620000e+002) (3, 4.97858551025390620000e+002) (4, 4.97821228027343750000e+002) (5, 4.97854431152343750000e+002) (6, 4.97781677246093750000e+002) (7, 4.97847839355468750000e+002) (8, 4.97820495605468750000e+002) (9, 4.97944915771484370000e+002) (10, 4.97877166748046870000e+002) (11, 4.97765594482421870000e+002) (12, 4.97939178466796870000e+002) (13, 4.97918487548828120000e+002) (14, 4.97930358886718750000e+002) (15, 4.97795745849609370000e+002) (16, 3.79138278961181640000e+000) (17, 3.35198354721069340000e+000) (18, 3.45946645736694340000e+000) (19, 3.71507024765014650000e+000) (20, 4.97768127441406250000e+002) (21, 4.97770324707031250000e+002) (22, 3.42028808593750000000e+000) (23, 3.72938299179077150000e+000) (24, 3.30556011199951170000e+000) (25, 3.73004865646362300000e+000) (26, 3.63853216171264650000e+000) (27, 3.44066762924194340000e+000) (28, 4.97851715087890620000e+002) (29, 4.97792480468750000000e+002) (30, 3.37992525100708010000e+000) (31, 3.63878250122070310000e+000) (32, 3.71665143966674800000e+000) (33, 3.65331840515136720000e+000) (34, 4.97827392578125000000e+002) (35, 4.97764465332031250000e+002) (36, 3.65443801879882810000e+000) (37, 3.40854454040527340000e+000) (38, 3.59550237655639650000e+000) (39, 3.48881196975708010000e+000) (40, 3.66844272613525390000e+000) (41, 3.76340436935424800000e+000) (42, 4.97800598144531250000e+002) (43, 4.97934875488281250000e+002) (44, 3.66134119033813480000e+000) (45, 3.46873140335083010000e+000) (46, 3.62275218963623050000e+000) (47, 3.73917913436889650000e+000) (48, 4.97794494628906250000e+002) (49, 4.97877716064453120000e+002) (50, 3.59517908096313480000e+000) (51, 3.63234663009643550000e+000) (52, 3.35522460937500000000e+000) (53, 3.78498029708862300000e+000) (54, 3.63349676132202150000e+000) (55, 3.41796588897705080000e+000) (56, 3.41023874282836910000e+000) (57, 3.65308904647827150000e+000) (58, 3.43627309799194340000e+000) (59, 3.65106630325317380000e+000) (60, 3.68356418609619140000e+000) (61, 3.70837831497192380000e+000) (62, 4.97903778076171870000e+002) (63, 3.42573213577270510000e+000) (64, 3.58901166915893550000e+000) (65, 3.62567234039306640000e+000) (66, 3.38603830337524410000e+000) (67, 3.35431480407714840000e+000) (68, 3.37891530990600590000e+000) (69, 3.43789052963256840000e+000) (70, 3.69942712783813480000e+000) (71, 3.37272644042968750000e+000) (72, 3.71837568283081050000e+000) (73, 3.65260076522827150000e+000) (74, 3.59573173522949220000e+000) (75, 3.68202590942382810000e+000) (76, 3.36579895019531250000e+000) (77, 3.70084047317504880000e+000) (78, 3.63762283325195310000e+000) (79, 3.70183515548706050000e+000) (80, 3.41217613220214840000e+000) (81, 3.30274963378906250000e+000) (82, 3.32833862304687500000e+000) (83, 3.33211374282836910000e+000) (84, 3.26515817642211910000e+000) (0, 4.97876831054687500000e+002) (1, 4.97905029296875000000e+002) (2, 4.97795043945312500000e+002) (3, 4.97759765625000000000e+002) (4, 4.97785827636718750000e+002) (5, 4.97773468017578120000e+002) (6, 4.97833648681640620000e+002) (7, 4.97821929931640620000e+002) (8, 4.97936096191406250000e+002) (9, 4.97900390625000000000e+002) (10, 4.97756072998046870000e+002) (11, 4.97836151123046870000e+002) (12, 4.97875946044921870000e+002) (13, 4.97752319335937500000e+002) (14, 4.97928436279296870000e+002) (15, 4.97906860351562500000e+002) (16, 3.53883552551269530000e+000) (17, 3.44831943511962890000e+000) (18, 3.53177261352539060000e+000) (19, 3.56136941909790040000e+000) (20, 4.97754547119140620000e+002) (21, 4.97881683349609370000e+002) (22, 3.47721958160400390000e+000) (23, 3.56516599655151370000e+000) (24, 3.54715347290039060000e+000) (25, 3.53191375732421870000e+000) (26, 3.61890745162963870000e+000) (27, 3.50729751586914060000e+000) (28, 4.97921783447265620000e+002) (29, 4.97883911132812500000e+002) (30, 3.38774776458740230000e+000) (31, 3.59544563293457030000e+000) (32, 3.43087530136108400000e+000) (33, 3.62582159042358400000e+000) (34, 4.97783721923828120000e+002) (35, 4.97932861328125000000e+002) (36, 3.54480457305908200000e+000) (37, 3.39911890029907230000e+000) (38, 3.63759040832519530000e+000) (39, 3.38783359527587890000e+000) (40, 3.66810655593872070000e+000) (41, 3.68234729766845700000e+000) (42, 4.97761657714843750000e+002) (43, 4.97814056396484370000e+002) (44, 3.55377054214477540000e+000) (45, 3.52151870727539060000e+000) (46, 3.75069332122802730000e+000) (47, 3.59284543991088870000e+000) (48, 4.97927886962890620000e+002) (49, 4.97904937744140620000e+002) (50, 3.66478729248046870000e+000) (51, 3.55682706832885740000e+000) (52, 3.38747930526733400000e+000) (53, 3.67344236373901370000e+000) (54, 3.61108875274658200000e+000) (55, 3.64326524734497070000e+000) (56, 3.67356920242309570000e+000) (57, 3.59601306915283200000e+000) (58, 3.46694707870483400000e+000) (59, 3.66299915313720700000e+000) (60, 3.57158088684082030000e+000) (61, 3.73499488830566410000e+000) (62, 4.97792175292968750000e+002) (63, 3.55300664901733400000e+000) (64, 3.69544410705566410000e+000) (65, 3.61537933349609380000e+000) (66, 3.44454622268676760000e+000) (67, 3.46796655654907230000e+000) (68, 3.52339744567871090000e+000) (69, 3.48450088500976560000e+000) (70, 3.68882942199707030000e+000) (71, 3.56438255310058590000e+000) (72, 3.58459949493408200000e+000) (73, 3.44389438629150390000e+000) (74, 3.66200304031372070000e+000) (75, 3.65447854995727540000e+000) (76, 3.54160404205322270000e+000) (77, 3.75981664657592770000e+000) (78, 3.56030130386352540000e+000) (79, 3.70989751815795900000e+000) (80, 3.51061773300170900000e+000) (81, 3.57626581192016600000e+000) (82, 3.40682744979858400000e+000) (83, 3.43183851242065430000e+000) (84, 3.55221223831176760000e+000) (0, 4.97790466308593750000e+002) (1, 4.97849517822265620000e+002) (2, 4.97831665039062500000e+002) (3, 4.97761474609375000000e+002) (4, 4.97780822753906250000e+002) (5, 4.97884124755859370000e+002) (6, 4.97826599121093750000e+002) (7, 4.97932312011718750000e+002) (8, 4.97845581054687500000e+002) (9, 4.97825683593750000000e+002) (10, 4.97791778564453120000e+002) (11, 4.97875366210937500000e+002) (12, 4.97875793457031250000e+002) (13, 4.97830718994140620000e+002) (14, 4.97868225097656250000e+002) (15, 4.97835876464843750000e+002) (16, 3.55857038497924800000e+000) (17, 3.29946899414062500000e+000) (18, 3.41150617599487300000e+000) (19, 3.70797634124755860000e+000) (20, 4.97926544189453120000e+002) (21, 4.97807525634765620000e+002) (22, 3.34115123748779300000e+000) (23, 3.62147760391235350000e+000) (24, 3.26583576202392580000e+000) (25, 3.35714483261108400000e+000) (26, 3.37844800949096680000e+000) (27, 3.15235805511474610000e+000) (28, 4.97919860839843750000e+002) (29, 4.97798675537109370000e+002) (30, 3.25848388671875000000e+000) (31, 3.53874635696411130000e+000) (32, 3.21209335327148440000e+000) (33, 3.43708801269531250000e+000) (34, 4.97946929931640620000e+002) (35, 4.97769317626953120000e+002) (36, 3.70307540893554690000e+000) (37, 3.35767936706542970000e+000) (38, 3.49136114120483400000e+000) (39, 3.18708229064941410000e+000) (40, 3.28996276855468750000e+000) (41, 3.41317129135131840000e+000) (42, 4.97896636962890620000e+002) (43, 4.97843170166015620000e+002) (44, 3.58057355880737300000e+000) (45, 3.33734130859375000000e+000) (46, 3.30070495605468750000e+000) (47, 3.45457124710083010000e+000) (48, 4.97931030273437500000e+002) (49, 4.97925628662109370000e+002) (50, 3.59146833419799800000e+000) (51, 3.49814891815185550000e+000) (52, 3.17252540588378910000e+000) (53, 3.38768672943115230000e+000) (54, 3.36589336395263670000e+000) (55, 3.11619806289672850000e+000) (56, 3.20884275436401370000e+000) (57, 3.71292638778686520000e+000) (58, 3.25463247299194340000e+000) (59, 3.49903392791748050000e+000) (60, 3.37556123733520510000e+000) (61, 3.37829923629760740000e+000) (62, 4.97822784423828120000e+002) (63, 3.33473730087280270000e+000) (64, 3.62580394744873050000e+000) (65, 3.61666393280029300000e+000) (66, 3.19855403900146480000e+000) (67, 3.24103116989135740000e+000) (68, 3.28287267684936520000e+000) (69, 3.25916957855224610000e+000) (70, 3.46856689453125000000e+000) (71, 3.23536920547485350000e+000) (72, 3.59601879119873050000e+000) (73, 3.26315307617187500000e+000) (74, 3.28482961654663090000e+000) (75, 3.39370727539062500000e+000) (76, 3.26293897628784180000e+000) (77, 3.24113845825195310000e+000) (78, 3.31091880798339840000e+000) (79, 3.34304523468017580000e+000) (80, 3.21499252319335940000e+000) (81, 3.22539615631103520000e+000) (82, 3.19143867492675780000e+000) (83, 3.24826002120971680000e+000) (84, 3.27628707885742190000e+000) (0, 4.97754364013671870000e+002) (1, 4.97900024414062500000e+002) (2, 4.97911193847656250000e+002) (3, 4.97756500244140620000e+002) (4, 4.97814239501953130000e+002) (5, 4.97870086669921870000e+002) (6, 4.97885040283203120000e+002) (7, 4.97783355712890620000e+002) (8, 4.97887298583984370000e+002) (9, 4.97793365478515620000e+002) (10, 4.97877227783203120000e+002) (11, 4.97752258300781250000e+002) (12, 4.97849334716796870000e+002) (13, 4.97785919189453120000e+002) (14, 4.97809295654296870000e+002) (15, 4.97789642333984380000e+002) (16, 3.70270252227783200000e+000) (17, 3.55468511581420900000e+000) (18, 3.51506710052490230000e+000) (19, 3.61545896530151370000e+000) (20, 4.97846984863281250000e+002) (21, 4.97840545654296870000e+002) (22, 3.49178218841552730000e+000) (23, 3.64994382858276370000e+000) (24, 3.50217056274414060000e+000) (25, 3.65463113784790040000e+000) (26, 3.63999509811401370000e+000) (27, 3.41871118545532230000e+000) (28, 4.97836364746093750000e+002) (29, 4.97875183105468750000e+002) (30, 3.56461572647094730000e+000) (31, 3.54573249816894530000e+000) (32, 3.53826665878295900000e+000) (33, 3.62594938278198240000e+000) (34, 4.97825256347656250000e+002) (35, 4.97856231689453120000e+002) (36, 3.51006317138671870000e+000) (37, 3.46007442474365230000e+000) (38, 3.69648313522338870000e+000) (39, 3.55018711090087890000e+000) (40, 3.57122516632080080000e+000) (41, 3.58078479766845700000e+000) (42, 4.97907989501953120000e+002) (43, 4.97855102539062500000e+002) (44, 3.57618284225463870000e+000) (45, 3.46183872222900390000e+000) (46, 3.57522296905517580000e+000) (47, 3.57828855514526370000e+000) (48, 4.97807891845703120000e+002) (49, 4.97915466308593750000e+002) (50, 3.60294675827026370000e+000) (51, 3.66940069198608400000e+000) (52, 3.56024551391601560000e+000) (53, 3.54888772964477540000e+000) (54, 3.62791013717651370000e+000) (55, 3.59001827239990230000e+000) (56, 3.66133165359497070000e+000) (57, 3.68947029113769530000e+000) (58, 3.39391231536865230000e+000) (59, 3.52751922607421870000e+000) (60, 3.63965940475463870000e+000) (61, 3.75229835510253910000e+000) (62, 4.97856323242187500000e+002) (63, 3.47040796279907230000e+000) (64, 3.63971281051635740000e+000) (65, 3.61526346206665040000e+000) (66, 3.58067274093627930000e+000) (67, 3.55089473724365230000e+000) (68, 3.50479984283447270000e+000) (69, 3.53747320175170900000e+000) (70, 3.67529153823852540000e+000) (71, 3.55808353424072270000e+000) (72, 3.57640266418457030000e+000) (73, 3.45306777954101560000e+000) (74, 3.57077980041503910000e+000) (75, 3.64914417266845700000e+000) (76, 3.60493421554565430000e+000) (77, 3.81901073455810550000e+000) (78, 3.66191864013671870000e+000) (79, 3.68832731246948240000e+000) (80, 3.56395053863525390000e+000) (81, 3.53496980667114260000e+000) (82, 3.52083492279052730000e+000) (83, 3.48055076599121090000e+000) (84, 3.95972204208374020000e+000) (0, 4.97812744140625000000e+002) (1, 4.97781066894531250000e+002) (2, 4.97893676757812500000e+002) (3, 4.97850189208984370000e+002) (4, 4.97755981445312500000e+002) (5, 4.97837280273437500000e+002) (6, 4.97923919677734370000e+002) (7, 4.97792846679687500000e+002) (8, 4.97937591552734370000e+002) (9, 4.97934173583984370000e+002) (10, 4.97895721435546870000e+002) (11, 4.97926391601562500000e+002) (12, 4.97881378173828120000e+002) (13, 4.97796722412109370000e+002) (14, 4.97845581054687500000e+002) (15, 4.97806854248046870000e+002) (16, 4.29951667785644530000e+000) (17, 4.13152837753295900000e+000) (18, 4.07590198516845700000e+000) (19, 4.30132102966308590000e+000) (20, 4.97875549316406250000e+002) (21, 4.97844573974609370000e+002) (22, 4.18335437774658200000e+000) (23, 4.32496595382690430000e+000) (24, 3.97003841400146480000e+000) (25, 4.12974357604980470000e+000) (26, 4.06155729293823240000e+000) (27, 3.97479820251464840000e+000) (28, 4.97907165527343750000e+002) (29, 4.97800537109375000000e+002) (30, 3.99864864349365230000e+000) (31, 4.27742767333984370000e+000) (32, 3.90469932556152340000e+000) (33, 4.05703020095825200000e+000) (34, 4.97860748291015620000e+002) (35, 4.97777618408203120000e+002) (36, 4.37034559249877930000e+000) (37, 4.16150379180908200000e+000) (38, 4.19137096405029300000e+000) (39, 4.01143884658813480000e+000) (40, 4.04945611953735350000e+000) (41, 4.10853004455566410000e+000) (42, 4.97902191162109370000e+002) (43, 4.97783721923828120000e+002) (44, 4.40986204147338870000e+000) (45, 4.03511714935302730000e+000) (46, 4.14838790893554690000e+000) (47, 4.08345031738281250000e+000) (48, 4.97771423339843750000e+002) (49, 4.97766510009765620000e+002) (50, 4.37271595001220700000e+000) (51, 4.31822586059570310000e+000) (52, 4.01498508453369140000e+000) (53, 4.14802360534667970000e+000) (54, 4.21258258819580080000e+000) (55, 3.96108913421630860000e+000) (56, 4.35702371597290040000e+000) (57, 4.40878582000732420000e+000) (58, 3.97344732284545900000e+000) (59, 4.26692390441894530000e+000) (60, 4.10879850387573240000e+000) (61, 4.01002740859985350000e+000) (62, 4.97934570312500000000e+002) (63, 3.89658784866333010000e+000) (64, 4.14174270629882810000e+000) (65, 4.40469217300415040000e+000) (66, 3.92284202575683590000e+000) (67, 3.93863582611083980000e+000) (68, 3.88850259780883790000e+000) (69, 4.04032564163208010000e+000) (70, 4.22919034957885740000e+000) (71, 3.86341094970703130000e+000) (72, 4.24858283996582030000e+000) (73, 4.07129287719726560000e+000) (74, 4.14185094833374020000e+000) (75, 4.12016963958740230000e+000) (76, 3.88215494155883790000e+000) (77, 3.52792835235595700000e+000) (78, 4.09039020538330080000e+000) (79, 4.12915563583374020000e+000) (80, 3.98662662506103520000e+000) (81, 3.92660665512084960000e+000) (82, 4.04459810256958010000e+000) (83, 3.91971588134765630000e+000) (84, 3.34206104278564450000e+000) (0, 4.97909454345703120000e+002) (1, 4.97922637939453120000e+002) (2, 4.97865142822265620000e+002) (3, 4.97773406982421870000e+002) (4, 4.97895416259765620000e+002) (5, 4.97926361083984370000e+002) (6, 4.97930419921875000000e+002) (7, 4.97864227294921870000e+002) (8, 4.97814941406250000000e+002) (9, 4.97836059570312500000e+002) (10, 4.97864105224609370000e+002) (11, 4.97872161865234370000e+002) (12, 4.97772308349609370000e+002) (13, 4.97795623779296870000e+002) (14, 4.97764221191406250000e+002) (15, 4.97813720703125000000e+002) (16, 3.35710287094116210000e+000) (17, 3.01202106475830080000e+000) (18, 2.99209928512573240000e+000) (19, 3.34025096893310550000e+000) (20, 4.97828582763671870000e+002) (21, 4.97827545166015620000e+002) (22, 3.00004625320434570000e+000) (23, 3.28747367858886720000e+000) (24, 2.91804504394531250000e+000) (25, 3.41000795364379880000e+000) (26, 3.22765350341796870000e+000) (27, 2.95693063735961910000e+000) (28, 4.97829040527343750000e+002) (29, 4.97812835693359370000e+002) (30, 3.07551622390747070000e+000) (31, 3.39290618896484380000e+000) (32, 2.92887926101684570000e+000) (33, 3.34637975692749020000e+000) (34, 4.97854156494140620000e+002) (35, 4.97930114746093750000e+002) (36, 3.31547689437866210000e+000) (37, 3.01630592346191410000e+000) (38, 3.23863363265991210000e+000) (39, 2.95741891860961910000e+000) (40, 3.35351467132568360000e+000) (41, 3.35553407669067380000e+000) (42, 4.97792297363281250000e+002) (43, 4.97768524169921870000e+002) (44, 3.40202474594116210000e+000) (45, 3.07074928283691410000e+000) (46, 3.49263191223144530000e+000) (47, 3.23185253143310550000e+000) (48, 4.97889099121093750000e+002) (49, 4.97880279541015620000e+002) (50, 3.32181835174560550000e+000) (51, 3.38336706161499020000e+000) (52, 3.00085163116455080000e+000) (53, 3.37284374237060550000e+000) (54, 3.32842826843261720000e+000) (55, 3.13586235046386720000e+000) (56, 3.05069351196289060000e+000) (57, 2.99493122100830080000e+000) (58, 3.02936124801635740000e+000) (59, 3.33690023422241210000e+000) (60, 3.38495302200317380000e+000) (61, 3.53127336502075200000e+000) (62, 4.97781951904296870000e+002) (63, 3.03508043289184570000e+000) (64, 3.35297155380249020000e+000) (65, 3.28088808059692380000e+000) (66, 3.06732606887817380000e+000) (67, 3.06076383590698240000e+000) (68, 3.35266304016113280000e+000) (69, 2.99878883361816410000e+000) (70, 2.99162340164184570000e+000) (71, 3.14760541915893550000e+000) (72, 3.33576488494873050000e+000) (73, 3.07954454421997070000e+000) (74, 3.47802019119262700000e+000) (75, 3.31497621536254880000e+000) (76, 3.34336757659912110000e+000) (77, 3.48078584671020510000e+000) (78, 3.40835380554199220000e+000) (79, 3.47964382171630860000e+000) (80, 3.11429786682128910000e+000) (81, 3.39042568206787110000e+000) (82, 2.97467994689941410000e+000) (83, 3.32157182693481450000e+000) (84, 3.37096118927001950000e+000) (0, 4.97840087890625000000e+002) (1, 4.97915374755859370000e+002) (2, 4.97913757324218750000e+002) (3, 4.97904632568359370000e+002) (4, 4.97897369384765620000e+002) (5, 4.97752990722656250000e+002) (6, 4.97794860839843750000e+002) (7, 4.97812927246093750000e+002) (8, 4.97918182373046870000e+002) (9, 4.97852386474609380000e+002) (10, 4.97814453125000000000e+002) (11, 4.97790008544921870000e+002) (12, 4.97910858154296870000e+002) (13, 4.97807525634765620000e+002) (14, 4.97834381103515620000e+002) (15, 4.97820068359375000000e+002) (16, 3.66918182373046870000e+000) (17, 3.45763921737670900000e+000) (18, 3.57141494750976560000e+000) (19, 3.53374481201171870000e+000) (20, 4.97781463623046870000e+002) (21, 4.97815368652343750000e+002) (22, 3.39407110214233400000e+000) (23, 3.67861175537109380000e+000) (24, 3.46238803863525390000e+000) (25, 3.57679939270019530000e+000) (26, 3.54047727584838870000e+000) (27, 3.38982295989990230000e+000) (28, 4.97784790039062500000e+002) (29, 4.97906463623046870000e+002) (30, 3.55555200576782230000e+000) (31, 3.67481565475463870000e+000) (32, 3.47637081146240230000e+000) (33, 3.64274024963378910000e+000) (34, 4.97760192871093750000e+002) (35, 4.97759735107421870000e+002) (36, 3.58227396011352540000e+000) (37, 3.47276401519775390000e+000) (38, 3.53815174102783200000e+000) (39, 3.38293218612670900000e+000) (40, 3.70879268646240230000e+000) (41, 3.63343381881713870000e+000) (42, 4.97935791015625000000e+002) (43, 4.97769317626953120000e+002) (44, 3.67631721496582030000e+000) (45, 3.42600488662719730000e+000) (46, 3.60981178283691410000e+000) (47, 3.63084602355957030000e+000) (48, 4.97868469238281250000e+002) (49, 4.97917358398437500000e+002) (50, 3.63110208511352540000e+000) (51, 3.62860441207885740000e+000) (52, 3.41537857055664060000e+000) (53, 3.69396829605102540000e+000) (54, 3.63519763946533200000e+000) (55, 3.61884498596191410000e+000) (56, 3.58813238143920900000e+000) (57, 3.67323493957519530000e+000) (58, 3.43809604644775390000e+000) (59, 3.64458465576171870000e+000) (60, 3.53152942657470700000e+000) (61, 3.67183589935302730000e+000) (62, 4.97839324951171870000e+002) (63, 3.41535425186157230000e+000) (64, 3.66640377044677730000e+000) (65, 3.62019538879394530000e+000) (66, 3.60190677642822270000e+000) (67, 3.40574121475219730000e+000) (68, 3.60467195510864260000e+000) (69, 3.48456811904907230000e+000) (70, 3.67406463623046870000e+000) (71, 3.60108280181884770000e+000) (72, 3.55104207992553710000e+000) (73, 3.45347690582275390000e+000) (74, 3.59077501296997070000e+000) (75, 3.64273548126220700000e+000) (76, 3.61159324645996090000e+000) (77, 3.89232635498046870000e+000) (78, 3.69540262222290040000e+000) (79, 3.72770738601684570000e+000) (80, 3.42602300643920900000e+000) (81, 3.50899314880371090000e+000) (82, 3.51547002792358400000e+000) (83, 3.45450687408447270000e+000) (84, 3.94058752059936520000e+000) (0, 4.97933166503906250000e+002) (1, 4.97817138671875000000e+002) (2, 4.97934112548828120000e+002) (3, 4.97760772705078120000e+002) (4, 4.97795013427734370000e+002) (5, 4.97908142089843750000e+002) (6, 4.97945770263671880000e+002) (7, 4.97928222656250000000e+002) (8, 4.97915557861328120000e+002) (9, 4.97787780761718750000e+002) (10, 4.97853759765625000000e+002) (11, 4.97751495361328130000e+002) (12, 4.97840270996093750000e+002) (13, 4.97920867919921870000e+002) (14, 4.97859710693359370000e+002) (15, 4.97937225341796870000e+002) (16, 4.29284524917602540000e+000) (17, 3.99097061157226560000e+000) (18, 4.10125017166137700000e+000) (19, 4.34831190109252930000e+000) (20, 4.97863220214843750000e+002) (21, 4.97902374267578120000e+002) (22, 4.02734231948852540000e+000) (23, 4.40157127380371090000e+000) (24, 4.03253841400146480000e+000) (25, 4.21105480194091800000e+000) (26, 4.07378244400024410000e+000) (27, 4.08188438415527340000e+000) (28, 4.97917999267578120000e+002) (29, 4.97781494140625000000e+002) (30, 4.08559322357177730000e+000) (31, 4.41586160659790040000e+000) (32, 3.92529869079589840000e+000) (33, 4.08649826049804690000e+000) (34, 4.97801788330078120000e+002) (35, 4.97856597900390620000e+002) (36, 4.35621595382690430000e+000) (37, 4.04850959777832030000e+000) (38, 4.15753316879272460000e+000) (39, 4.04833459854125980000e+000) (40, 3.98198747634887700000e+000) (41, 4.13333463668823240000e+000) (42, 4.97804382324218750000e+002) (43, 4.97915740966796870000e+002) (44, 4.29261970520019530000e+000) (45, 4.06655645370483400000e+000) (46, 3.96657609939575200000e+000) (47, 4.13638639450073240000e+000) (48, 4.97855041503906250000e+002) (49, 4.97793518066406250000e+002) (50, 4.34254646301269530000e+000) (51, 4.30272293090820310000e+000) (52, 3.93975925445556640000e+000) (53, 4.15814352035522460000e+000) (54, 4.07118844985961910000e+000) (55, 4.09157609939575200000e+000) (56, 4.22723245620727540000e+000) (57, 4.37142610549926760000e+000) (58, 3.99081182479858400000e+000) (59, 4.32368659973144530000e+000) (60, 4.23782682418823240000e+000) (61, 4.14736843109130860000e+000) (62, 4.97782165527343750000e+002) (63, 3.97616529464721680000e+000) (64, 4.13206243515014650000e+000) (65, 4.35796976089477540000e+000) (66, 3.95600843429565430000e+000) (67, 4.06296443939208980000e+000) (68, 3.83559083938598630000e+000) (69, 3.96434259414672850000e+000) (70, 4.08481168746948240000e+000) (71, 3.94290304183959960000e+000) (72, 4.38282346725463870000e+000) (73, 4.11495733261108400000e+000) (74, 4.07801437377929690000e+000) (75, 4.19117164611816410000e+000) (76, 3.88779449462890620000e+000) (77, 3.38365936279296870000e+000) (78, 4.21940660476684570000e+000) (79, 4.01101589202880860000e+000) (80, 3.96182203292846680000e+000) (81, 3.95639181137084960000e+000) (82, 3.93608951568603520000e+000) (83, 3.86175680160522460000e+000) (84, 3.97366476058959960000e+000) (0, 4.97780364990234370000e+002) (1, 4.97778228759765620000e+002) (2, 4.97778961181640620000e+002) (3, 4.97833312988281250000e+002) (4, 4.97882476806640620000e+002) (5, 4.97852447509765630000e+002) (6, 4.97827667236328120000e+002) (7, 4.97834350585937500000e+002) (8, 4.97753906250000000000e+002) (9, 4.97866363525390620000e+002) (10, 4.97945190429687500000e+002) (11, 4.97871490478515620000e+002) (12, 4.97870666503906250000e+002) (13, 4.97839965820312500000e+002) (14, 4.97828277587890620000e+002) (15, 4.97884277343750000000e+002) (16, 4.30224466323852540000e+000) (17, 4.08436632156372070000e+000) (18, 4.13624143600463870000e+000) (19, 4.35785818099975590000e+000) (20, 4.97810821533203120000e+002) (21, 4.97871276855468750000e+002) (22, 4.16376209259033200000e+000) (23, 4.32765150070190430000e+000) (24, 3.95405960083007810000e+000) (25, 4.12992668151855470000e+000) (26, 4.21870470046997070000e+000) (27, 3.98691987991333010000e+000) (28, 4.97750152587890620000e+002) (29, 4.97843200683593750000e+002) (30, 4.12645006179809570000e+000) (31, 4.41460418701171870000e+000) (32, 4.06773614883422850000e+000) (33, 4.03521633148193360000e+000) (34, 4.97751220703125000000e+002) (35, 4.97750213623046870000e+002) (36, 4.36311292648315430000e+000) (37, 4.12400388717651370000e+000) (38, 4.26468038558959960000e+000) (39, 3.95947933197021480000e+000) (40, 3.95027971267700200000e+000) (41, 4.22473478317260740000e+000) (42, 4.97936981201171870000e+002) (43, 4.97810821533203120000e+002) (44, 4.28929328918457030000e+000) (45, 4.04933834075927730000e+000) (46, 4.14384078979492190000e+000) (47, 4.19563961029052730000e+000) (48, 4.97900543212890620000e+002) (49, 4.97898010253906250000e+002) (50, 4.27350330352783200000e+000) (51, 4.17417669296264650000e+000) (52, 4.03977727890014650000e+000) (53, 4.29297637939453130000e+000) (54, 4.12792110443115230000e+000) (55, 4.13990402221679690000e+000) (56, 4.31993246078491210000e+000) (57, 4.40047883987426760000e+000) (58, 4.02153682708740230000e+000) (59, 4.25978851318359370000e+000) (60, 4.09888648986816410000e+000) (61, 3.99348688125610350000e+000) (62, 4.97943725585937500000e+002) (63, 3.92844820022583010000e+000) (64, 4.25456619262695310000e+000) (65, 4.28201770782470700000e+000) (66, 3.92044353485107420000e+000) (67, 4.02625179290771480000e+000) (68, 3.87700939178466800000e+000) (69, 4.04298639297485350000e+000) (70, 4.14983844757080080000e+000) (71, 3.81594991683959960000e+000) (72, 4.34630012512207030000e+000) (73, 4.01561021804809570000e+000) (74, 4.08589982986450200000e+000) (75, 4.08865690231323240000e+000) (76, 3.97986602783203120000e+000) (77, 3.41003274917602540000e+000) (78, 4.16407823562622070000e+000) (79, 4.01099157333374020000e+000) (80, 4.04379844665527340000e+000) (81, 3.81308126449584960000e+000) (82, 3.91310977935791020000e+000) (83, 3.82450103759765630000e+000) (84, 3.89887857437133790000e+000) (0, 4.97779937744140620000e+002) (1, 4.97907287597656250000e+002) (2, 4.97948120117187500000e+002) (3, 4.97937347412109370000e+002) (4, 4.97793426513671870000e+002) (5, 4.97777221679687500000e+002) (6, 4.97799743652343750000e+002) (7, 4.97820526123046870000e+002) (8, 4.97763092041015620000e+002) (9, 4.97811126708984370000e+002) (10, 4.97868103027343750000e+002) (11, 4.97908691406250000000e+002) (12, 4.97808319091796870000e+002) (13, 4.97777984619140620000e+002) (14, 4.97765136718750000000e+002) (15, 4.97909484863281250000e+002) (16, 4.35344123840332030000e+000) (17, 4.14748287200927730000e+000) (18, 4.00524187088012700000e+000) (19, 4.35032606124877930000e+000) (20, 4.97811523437500000000e+002) (21, 4.97905609130859370000e+002) (22, 4.13994646072387700000e+000) (23, 4.29714012145996090000e+000) (24, 4.04514217376708980000e+000) (25, 4.27710103988647460000e+000) (26, 4.15882301330566410000e+000) (27, 3.99303531646728520000e+000) (28, 4.97838226318359370000e+002) (29, 4.97802124023437500000e+002) (30, 4.05263423919677730000e+000) (31, 4.30949592590332030000e+000) (32, 4.01580142974853520000e+000) (33, 4.03378820419311520000e+000) (34, 4.97904479980468750000e+002) (35, 4.97911773681640620000e+002) (36, 4.30954265594482420000e+000) (37, 4.00558948516845700000e+000) (38, 4.11418581008911130000e+000) (39, 4.05736160278320310000e+000) (40, 4.02986383438110350000e+000) (41, 4.22912931442260740000e+000) (42, 4.97805999755859370000e+002) (43, 4.97822174072265620000e+002) (44, 4.30441141128540040000e+000) (45, 4.04277706146240230000e+000) (46, 3.98845720291137700000e+000) (47, 4.06307077407836910000e+000) (48, 4.97766174316406250000e+002) (49, 4.97782043457031250000e+002) (50, 4.42463874816894530000e+000) (51, 4.27299880981445310000e+000) (52, 4.10058689117431640000e+000) (53, 4.29684591293334960000e+000) (54, 4.08312702178955080000e+000) (55, 4.09676408767700200000e+000) (56, 4.31304788589477540000e+000) (57, 4.33661174774169920000e+000) (58, 4.04712867736816410000e+000) (59, 4.24000120162963870000e+000) (60, 4.21065998077392580000e+000) (61, 4.13090753555297850000e+000) (62, 4.97923278808593750000e+002) (63, 4.08416080474853520000e+000) (64, 4.19484329223632810000e+000) (65, 4.26734495162963870000e+000) (66, 3.96067762374877930000e+000) (67, 3.97263240814208980000e+000) (68, 3.96931314468383790000e+000) (69, 4.07362031936645510000e+000) (70, 4.12973356246948240000e+000) (71, 3.97758960723876950000e+000) (72, 4.30734729766845700000e+000) (73, 4.04488277435302730000e+000) (74, 4.00997209548950200000e+000) (75, 4.13338375091552730000e+000) (76, 3.93690347671508790000e+000) (77, 3.53897571563720700000e+000) (78, 4.05588102340698240000e+000) (79, 3.96326828002929690000e+000) (80, 4.01317691802978520000e+000) (81, 3.79850006103515620000e+000) (82, 4.05972862243652340000e+000) (83, 3.82558727264404300000e+000) (84, 3.82425069808959960000e+000) (0, 4.97763488769531250000e+002) (1, 4.97940887451171870000e+002) (2, 4.97805236816406250000e+002) (3, 4.97861053466796870000e+002) (4, 4.97931335449218750000e+002) (5, 4.97754516601562500000e+002) (6, 4.97841308593750000000e+002) (7, 4.97836334228515630000e+002) (8, 4.97811340332031250000e+002) (9, 4.97926757812500000000e+002) (10, 4.97797454833984370000e+002) (11, 4.97819885253906250000e+002) (12, 4.97892761230468750000e+002) (13, 4.97822753906250000000e+002) (14, 4.97779632568359370000e+002) (15, 4.97789886474609370000e+002) (16, 3.32306957244873050000e+000) (17, 3.04582834243774410000e+000) (18, 2.95012521743774410000e+000) (19, 3.22406435012817380000e+000) (20, 4.97794799804687500000e+002) (21, 4.97902008056640620000e+002) (22, 3.07912302017211910000e+000) (23, 3.37759256362915040000e+000) (24, 3.06163644790649410000e+000) (25, 3.24937582015991210000e+000) (26, 3.26307201385498050000e+000) (27, 2.99824571609497070000e+000) (28, 4.97938079833984380000e+002) (29, 4.97859710693359370000e+002) (30, 3.09404039382934570000e+000) (31, 3.31642913818359370000e+000) (32, 2.95139503479003910000e+000) (33, 3.40840339660644530000e+000) (34, 4.97852661132812500000e+002) (35, 4.97760772705078120000e+002) (36, 3.30486869812011720000e+000) (37, 3.02369117736816410000e+000) (38, 3.33028984069824220000e+000) (39, 2.91942453384399410000e+000) (40, 3.52127599716186520000e+000) (41, 3.29662322998046870000e+000) (42, 4.97918548583984370000e+002) (43, 4.97792907714843750000e+002) (44, 3.26373720169067380000e+000) (45, 2.94781827926635740000e+000) (46, 3.37472438812255860000e+000) (47, 3.24598836898803710000e+000) (48, 4.97764587402343750000e+002) (49, 4.97902679443359370000e+002) (50, 3.39985799789428710000e+000) (51, 3.53715085983276370000e+000) (52, 3.00460529327392580000e+000) (53, 3.37983846664428710000e+000) (54, 3.31191253662109370000e+000) (55, 3.09414434432983400000e+000) (56, 3.18314599990844730000e+000) (57, 3.07518053054809570000e+000) (58, 2.95724821090698240000e+000) (59, 3.34293031692504880000e+000) (60, 3.41096019744873050000e+000) (61, 3.38137722015380860000e+000) (62, 4.97765869140625000000e+002) (63, 3.02463722229003910000e+000) (64, 3.42817258834838870000e+000) (65, 3.42004823684692380000e+000) (66, 3.16634941101074220000e+000) (67, 3.08165025711059570000e+000) (68, 3.07394838333129880000e+000) (69, 2.90955877304077150000e+000) (70, 2.94195270538330080000e+000) (71, 3.11421918869018550000e+000) (72, 3.28541088104248050000e+000) (73, 3.07542467117309570000e+000) (74, 3.47615861892700200000e+000) (75, 3.30260467529296870000e+000) (76, 3.31627988815307620000e+000) (77, 3.60885620117187500000e+000) (78, 3.22112274169921870000e+000) (79, 3.53820705413818360000e+000) (80, 3.08461046218872070000e+000) (81, 3.07181215286254880000e+000) (82, 2.90222263336181640000e+000) (83, 3.36349678039550780000e+000) (84, 3.17766523361206050000e+000) (0, 4.97865020751953120000e+002) (1, 4.97764282226562500000e+002) (2, 4.97805603027343750000e+002) (3, 4.97784423828125000000e+002) (4, 4.97879058837890620000e+002) (5, 4.97783843994140620000e+002) (6, 4.97757537841796870000e+002) (7, 4.97909729003906250000e+002) (8, 4.97920928955078120000e+002) (9, 4.97920684814453120000e+002) (10, 4.97811553955078120000e+002) (11, 4.97798004150390620000e+002) (12, 4.97772827148437500000e+002) (13, 4.97812225341796870000e+002) (14, 4.97803375244140620000e+002) (15, 4.97798736572265620000e+002) (16, 3.67098855972290040000e+000) (17, 3.55449581146240230000e+000) (18, 3.52746963500976560000e+000) (19, 3.56542825698852540000e+000) (20, 4.97767578125000000000e+002) (21, 4.97771148681640620000e+002) (22, 3.41102075576782230000e+000) (23, 3.59420633316040040000e+000) (24, 3.45795679092407230000e+000) (25, 3.53794431686401370000e+000) (26, 3.58881711959838870000e+000) (27, 3.42360019683837890000e+000) (28, 4.97924652099609370000e+002) (29, 4.97930389404296880000e+002) (30, 3.55202388763427730000e+000) (31, 3.58445930480957030000e+000) (32, 3.43880987167358400000e+000) (33, 3.61552476882934570000e+000) (34, 4.97758636474609370000e+002) (35, 4.97822418212890620000e+002) (36, 3.69453620910644530000e+000) (37, 3.51141119003295900000e+000) (38, 3.56645345687866210000e+000) (39, 3.55344009399414060000e+000) (40, 3.66649532318115230000e+000) (41, 3.54628753662109370000e+000) (42, 4.97758361816406250000e+002) (43, 4.97761047363281250000e+002) (44, 3.59407234191894530000e+000) (45, 3.47965478897094730000e+000) (46, 3.67060899734497070000e+000) (47, 3.55580902099609370000e+000) (48, 4.97753814697265620000e+002) (49, 4.97833587646484370000e+002) (50, 3.60656595230102540000e+000) (51, 3.70713233947753910000e+000) (52, 3.53327417373657230000e+000) (53, 3.67503547668457030000e+000) (54, 3.60203742980957030000e+000) (55, 3.74512672424316410000e+000) (56, 3.55812740325927730000e+000) (57, 3.52916145324707030000e+000) (58, 3.43542242050170900000e+000) (59, 3.66889524459838870000e+000) (60, 3.57483386993408200000e+000) (61, 3.59780025482177730000e+000) (62, 4.97779998779296870000e+002) (63, 3.47890377044677730000e+000) (64, 3.59510850906372070000e+000) (65, 3.64780139923095700000e+000) (66, 3.46260643005371090000e+000) (67, 3.53910923004150390000e+000) (68, 3.52017450332641600000e+000) (69, 3.50518560409545900000e+000) (70, 3.66890144348144530000e+000) (71, 3.47216463088989260000e+000) (72, 3.59398651123046870000e+000) (73, 3.38727188110351560000e+000) (74, 3.60808467864990230000e+000) (75, 3.61512327194213870000e+000) (76, 3.48041629791259770000e+000) (77, 3.85126209259033200000e+000) (78, 3.65238523483276370000e+000) (79, 3.66548204421997070000e+000) (80, 3.55638790130615230000e+000) (81, 3.47734642028808590000e+000) (82, 3.46042251586914060000e+000) (83, 3.58432865142822270000e+000) (84, 3.60356712341308590000e+000) (0, 4.97763977050781250000e+002) (1, 4.97783905029296870000e+002) (2, 4.97750610351562500000e+002) (3, 4.97777557373046870000e+002) (4, 4.97795837402343750000e+002) (5, 4.97902557373046870000e+002) (6, 4.97821075439453130000e+002) (7, 4.97879516601562500000e+002) (8, 4.97772094726562500000e+002) (9, 4.97860565185546870000e+002) (10, 4.97887237548828120000e+002) (11, 4.97859405517578120000e+002) (12, 4.97901092529296870000e+002) (13, 4.97857086181640620000e+002) (14, 4.97778656005859370000e+002) (15, 4.97847198486328120000e+002) (16, 3.59139871597290040000e+000) (17, 3.53012466430664060000e+000) (18, 3.48710727691650390000e+000) (19, 3.63539314270019530000e+000) (20, 4.97785552978515620000e+002) (21, 4.97910034179687500000e+002) (22, 3.48645401000976560000e+000) (23, 3.57975339889526370000e+000) (24, 3.50120019912719730000e+000) (25, 3.60218381881713870000e+000) (26, 3.53320169448852540000e+000) (27, 3.52198886871337890000e+000) (28, 4.97906250000000000000e+002) (29, 4.97841125488281250000e+002) (30, 3.49567651748657230000e+000) (31, 3.69854593276977540000e+000) (32, 3.44371747970581050000e+000) (33, 3.71233272552490230000e+000) (34, 4.97774536132812500000e+002) (35, 4.97832946777343750000e+002) (36, 3.65649271011352540000e+000) (37, 3.44019556045532230000e+000) (38, 3.65050506591796870000e+000) (39, 3.44702529907226560000e+000) (40, 3.57775020599365230000e+000) (41, 3.64892435073852540000e+000) (42, 4.97804016113281250000e+002) (43, 4.97874938964843750000e+002) (44, 3.66495847702026370000e+000) (45, 3.43400049209594730000e+000) (46, 3.59274053573608400000e+000) (47, 3.67519378662109380000e+000) (48, 4.97914459228515620000e+002) (49, 4.97767181396484370000e+002) (50, 3.54400491714477540000e+000) (51, 3.62612056732177730000e+000) (52, 3.44446182250976560000e+000) (53, 3.65099954605102540000e+000) (54, 3.70369720458984370000e+000) (55, 3.57717037200927730000e+000) (56, 3.67383766174316410000e+000) (57, 3.57764768600463870000e+000) (58, 3.50962305068969730000e+000) (59, 3.66768074035644530000e+000) (60, 3.57325315475463870000e+000) (61, 3.74157476425170900000e+000) (62, 4.97861541748046870000e+002) (63, 3.40562534332275390000e+000) (64, 3.67054796218872070000e+000) (65, 3.64521360397338870000e+000) (66, 3.52761507034301760000e+000) (67, 3.48708248138427730000e+000) (68, 3.60300540924072270000e+000) (69, 3.50912237167358400000e+000) (70, 3.70164680480957030000e+000) (71, 3.53469514846801760000e+000) (72, 3.54081296920776370000e+000) (73, 3.39343643188476560000e+000) (74, 3.59995460510253910000e+000) (75, 3.65755462646484380000e+000) (76, 3.45162010192871090000e+000) (77, 3.88423919677734380000e+000) (78, 3.68739509582519530000e+000) (79, 3.73740577697753910000e+000) (80, 3.57328271865844730000e+000) (81, 3.53793001174926760000e+000) (82, 3.41703891754150390000e+000) (83, 3.58287000656127930000e+000) (84, 3.86157751083374020000e+000) (0, 4.97836151123046870000e+002) (1, 4.97757843017578120000e+002) (2, 4.97820709228515620000e+002) (3, 4.97802062988281250000e+002) (4, 4.97886810302734370000e+002) (5, 4.97830322265625000000e+002) (6, 4.97853668212890620000e+002) (7, 4.97780456542968750000e+002) (8, 4.97833953857421870000e+002) (9, 4.97798309326171870000e+002) (10, 4.97751464843750000000e+002) (11, 4.97791656494140620000e+002) (12, 4.97757476806640620000e+002) (13, 4.97944519042968750000e+002) (14, 4.97798797607421870000e+002) (15, 4.97882659912109370000e+002) (16, 4.38995218276977540000e+000) (17, 4.03437852859497070000e+000) (18, 4.16197395324707030000e+000) (19, 4.40799236297607420000e+000) (20, 4.97914703369140620000e+002) (21, 4.97788177490234370000e+002) (22, 4.05363035202026370000e+000) (23, 4.45805311203002930000e+000) (24, 4.09752273559570310000e+000) (25, 4.19151735305786130000e+000) (26, 4.16999244689941410000e+000) (27, 3.98881196975708010000e+000) (28, 4.97885314941406250000e+002) (29, 4.97790924072265620000e+002) (30, 3.99658584594726560000e+000) (31, 4.24529266357421870000e+000) (32, 4.00897169113159180000e+000) (33, 4.14201593399047850000e+000) (34, 4.97848205566406250000e+002) (35, 4.97880462646484370000e+002) (36, 4.38865613937377930000e+000) (37, 4.05836677551269530000e+000) (38, 4.14838409423828120000e+000) (39, 3.98849582672119140000e+000) (40, 4.10129308700561520000e+000) (41, 4.12226295471191410000e+000) (42, 4.97898437500000000000e+002) (43, 4.97946929931640620000e+002) (44, 4.37119626998901370000e+000) (45, 3.97743272781372070000e+000) (46, 4.00487565994262700000e+000) (47, 4.07651090621948240000e+000) (48, 4.97766296386718750000e+002) (49, 4.97774810791015620000e+002) (50, 4.32351541519165040000e+000) (51, 4.17478704452514650000e+000) (52, 4.10974216461181640000e+000) (53, 4.19653463363647460000e+000) (54, 4.19050025939941410000e+000) (55, 3.99169206619262700000e+000) (56, 4.26811981201171870000e+000) (57, 4.47875022888183590000e+000) (58, 4.01775264739990230000e+000) (59, 4.27953338623046870000e+000) (60, 4.21011686325073240000e+000) (61, 4.06160211563110350000e+000) (62, 4.97894378662109370000e+002) (63, 4.03018760681152340000e+000) (64, 4.13237380981445310000e+000) (65, 4.26736927032470700000e+000) (66, 3.90445852279663090000e+000) (67, 3.96483230590820310000e+000) (68, 3.95686817169189450000e+000) (69, 3.91420841217041020000e+000) (70, 4.11108732223510740000e+000) (71, 3.98545694351196290000e+000) (72, 4.24394989013671870000e+000) (73, 4.10642433166503910000e+000) (74, 3.95542526245117190000e+000) (75, 4.07434415817260740000e+000) (76, 3.87935352325439450000e+000) (77, 3.52382659912109380000e+000) (78, 4.14011573791503910000e+000) (79, 3.96802902221679690000e+000) (80, 3.90499210357666020000e+000) (81, 3.96917247772216800000e+000) (82, 3.91599082946777340000e+000) (83, 3.83202028274536130000e+000) (84, 3.83904552459716800000e+000) (0, 4.97937500000000000000e+002) (1, 4.97801422119140620000e+002) (2, 4.97761993408203120000e+002) (3, 4.97916595458984370000e+002) (4, 4.97764007568359370000e+002) (5, 4.97927368164062500000e+002) (6, 4.97902496337890620000e+002) (7, 4.97935729980468750000e+002) (8, 4.97797607421875000000e+002) (9, 4.97915130615234380000e+002) (10, 4.97789550781250000000e+002) (11, 4.97775543212890620000e+002) (12, 4.97819488525390620000e+002) (13, 4.97893157958984370000e+002) (14, 4.97921875000000000000e+002) (15, 4.97787506103515620000e+002) (16, 4.40966033935546870000e+000) (17, 4.00282335281372070000e+000) (18, 4.18278694152832030000e+000) (19, 4.44038343429565430000e+000) (20, 4.97812957763671870000e+002) (21, 4.97767059326171870000e+002) (22, 4.01569700241088870000e+000) (23, 4.41622591018676760000e+000) (24, 3.96830511093139650000e+000) (25, 4.20807647705078120000e+000) (26, 4.13942623138427730000e+000) (27, 4.00595664978027340000e+000) (28, 4.97809448242187500000e+002) (29, 4.97936248779296870000e+002) (30, 3.97410631179809570000e+000) (31, 4.27221536636352540000e+000) (32, 3.95002985000610350000e+000) (33, 4.05247735977172850000e+000) (34, 4.97818603515625000000e+002) (35, 4.97856079101562500000e+002) (36, 4.32525920867919920000e+000) (37, 4.18721199035644530000e+000) (38, 4.25951051712036130000e+000) (39, 3.92140579223632810000e+000) (40, 4.12584781646728520000e+000) (41, 4.21224689483642580000e+000) (42, 4.97937042236328120000e+002) (43, 4.97806884765625000000e+002) (44, 4.25959348678588870000e+000) (45, 4.02049922943115230000e+000) (46, 4.11132097244262700000e+000) (47, 4.06885099411010740000e+000) (48, 4.97898284912109370000e+002) (49, 4.97819702148437500000e+002) (50, 4.26274299621582030000e+000) (51, 4.24636888504028320000e+000) (52, 3.99467849731445310000e+000) (53, 4.24022960662841800000e+000) (54, 4.07125568389892580000e+000) (55, 4.09194231033325200000e+000) (56, 4.30576658248901370000e+000) (57, 4.35288381576538090000e+000) (58, 4.12737798690795900000e+000) (59, 4.37479734420776370000e+000) (60, 4.09122657775878910000e+000) (61, 4.09948015213012700000e+000) (62, 4.97891326904296880000e+002) (63, 3.94503116607666020000e+000) (64, 4.25864315032958980000e+000) (65, 4.41277933120727540000e+000) (66, 3.98565340042114260000e+000) (67, 3.99854183197021480000e+000) (68, 3.83508443832397460000e+000) (69, 4.00783634185791020000e+000) (70, 4.14646339416503910000e+000) (71, 3.92735147476196290000e+000) (72, 4.38387298583984370000e+000) (73, 4.16083145141601560000e+000) (74, 3.95666408538818360000e+000) (75, 4.11620235443115230000e+000) (76, 3.90016031265258790000e+000) (77, 3.47297811508178710000e+000) (78, 4.20589923858642580000e+000) (79, 4.08713912963867190000e+000) (80, 3.92985773086547850000e+000) (81, 3.85337686538696290000e+000) (82, 3.97086143493652340000e+000) (83, 3.89328765869140620000e+000) (84, 3.83261871337890620000e+000) (0, 4.97759765625000000000e+002) (1, 4.97820526123046870000e+002) (2, 4.97862487792968750000e+002) (3, 4.97795043945312500000e+002) (4, 4.97928710937500000000e+002) (5, 4.97914215087890630000e+002) (6, 4.97757019042968750000e+002) (7, 4.97853912353515620000e+002) (8, 4.97917358398437500000e+002) (9, 4.97874572753906250000e+002) (10, 4.97830322265625000000e+002) (11, 4.97771423339843750000e+002) (12, 4.97751312255859370000e+002) (13, 4.97816680908203120000e+002) (14, 4.97861358642578120000e+002) (15, 4.97937805175781250000e+002) (16, 3.24954652786254880000e+000) (17, 3.00716257095336910000e+000) (18, 2.98945665359497070000e+000) (19, 3.39922904968261720000e+000) (20, 4.97900207519531250000e+002) (21, 4.97861633300781250000e+002) (22, 2.96659278869628910000e+000) (23, 3.33389711380004880000e+000) (24, 3.08293771743774410000e+000) (25, 3.37565755844116210000e+000) (26, 3.23112010955810550000e+000) (27, 3.00094938278198240000e+000) (28, 4.97866790771484370000e+002) (29, 4.97791290283203130000e+002) (30, 3.06219816207885740000e+000) (31, 3.27535820007324220000e+000) (32, 2.92768287658691410000e+000) (33, 3.49056291580200200000e+000) (34, 4.97762512207031250000e+002) (35, 4.97894287109375000000e+002) (36, 3.41955375671386720000e+000) (37, 2.92139005661010740000e+000) (38, 3.24974203109741210000e+000) (39, 3.01006174087524410000e+000) (40, 3.34252834320068360000e+000) (41, 3.33296966552734370000e+000) (42, 4.97870452880859370000e+002) (43, 4.97770690917968750000e+002) (44, 3.28094911575317380000e+000) (45, 2.99121427536010740000e+000) (46, 3.41907835006713870000e+000) (47, 3.31029510498046870000e+000) (48, 4.97916534423828120000e+002) (49, 4.97901153564453120000e+002) (50, 3.27462005615234370000e+000) (51, 3.50308752059936520000e+000) (52, 3.03404855728149410000e+000) (53, 3.31592226028442380000e+000) (54, 3.31197929382324220000e+000) (55, 3.12436914443969730000e+000) (56, 3.13507461547851560000e+000) (57, 2.98994493484497070000e+000) (58, 3.10628986358642580000e+000) (59, 3.30088329315185550000e+000) (60, 3.36671590805053710000e+000) (61, 3.39083147048950200000e+000) (62, 4.97910736083984370000e+002) (63, 2.96006822586059570000e+000) (64, 3.34256505966186520000e+000) (65, 3.32253837585449220000e+000) (66, 3.19871616363525390000e+000) (67, 3.03443336486816410000e+000) (68, 3.15759706497192380000e+000) (69, 3.05746555328369140000e+000) (70, 2.92691993713378910000e+000) (71, 3.09736108779907230000e+000) (72, 3.34950399398803710000e+000) (73, 3.05968952178955080000e+000) (74, 3.44243669509887700000e+000) (75, 3.40035247802734370000e+000) (76, 3.27189540863037110000e+000) (77, 3.57973003387451170000e+000) (78, 3.34253978729248050000e+000) (79, 3.53029680252075200000e+000) (80, 2.96381568908691410000e+000) (81, 3.19426679611206050000e+000) (82, 2.97526359558105470000e+000) (83, 3.36134815216064450000e+000) (84, 3.37839555740356450000e+000) (0, 4.97882232666015620000e+002) (1, 4.97861267089843750000e+002) (2, 4.97861511230468750000e+002) (3, 4.97897613525390620000e+002) (4, 4.97832580566406250000e+002) (5, 4.97936431884765620000e+002) (6, 4.97882751464843750000e+002) (7, 4.97817504882812500000e+002) (8, 4.97750610351562500000e+002) (9, 4.97863647460937500000e+002) (10, 4.97914093017578120000e+002) (11, 4.97914672851562500000e+002) (12, 4.97795318603515620000e+002) (13, 4.97791595458984370000e+002) (14, 4.97931732177734370000e+002) (15, 4.97893432617187500000e+002) (16, 3.37510442733764650000e+000) (17, 3.15166664123535160000e+000) (18, 3.25203275680541990000e+000) (19, 3.38983249664306640000e+000) (20, 4.97884735107421870000e+002) (21, 4.97870361328125000000e+002) (22, 3.22381591796875000000e+000) (23, 3.44217634201049800000e+000) (24, 3.17785072326660160000e+000) (25, 3.17384386062622070000e+000) (26, 3.31258916854858400000e+000) (27, 3.24646615982055660000e+000) (28, 4.97827301025390620000e+002) (29, 4.97856567382812500000e+002) (30, 3.31803607940673830000e+000) (31, 3.31742000579833980000e+000) (32, 3.32920551300048830000e+000) (33, 3.19212722778320310000e+000) (34, 4.97837890625000000000e+002) (35, 4.97789794921875000000e+002) (36, 3.31527185440063480000e+000) (37, 3.22195434570312500000e+000) (38, 3.22903203964233400000e+000) (39, 3.15592670440673830000e+000) (40, 3.26575994491577150000e+000) (41, 3.16915035247802730000e+000) (42, 4.97758209228515620000e+002) (43, 4.97925262451171870000e+002) (44, 3.45808792114257810000e+000) (45, 3.23107910156250000000e+000) (46, 3.18938064575195310000e+000) (47, 3.20944547653198240000e+000) (48, 4.97828674316406250000e+002) (49, 4.97865295410156250000e+002) (50, 3.40669631958007810000e+000) (51, 3.28569126129150390000e+000) (52, 3.23993539810180660000e+000) (53, 3.16434049606323240000e+000) (54, 3.15737676620483400000e+000) (55, 3.17548322677612300000e+000) (56, 3.35455751419067380000e+000) (57, 3.31853723526000980000e+000) (58, 3.27189970016479490000e+000) (59, 3.27814149856567380000e+000) (60, 3.29856920242309570000e+000) (61, 3.14596033096313480000e+000) (62, 4.97836212158203120000e+002) (63, 3.16317176818847660000e+000) (64, 3.40038251876831050000e+000) (65, 3.33702468872070310000e+000) (66, 3.26155138015747070000e+000) (67, 3.16201210021972660000e+000) (68, 3.20722389221191410000e+000) (69, 3.22163724899291990000e+000) (70, 3.25104093551635740000e+000) (71, 3.19827651977539060000e+000) (72, 3.22700595855712890000e+000) (73, 3.31701660156250000000e+000) (74, 3.29718685150146480000e+000) (75, 3.16848516464233400000e+000) (76, 3.12194585800170900000e+000) (77, 3.28961896896362300000e+000) (78, 3.26216793060302730000e+000) (79, 3.19230413436889650000e+000) (80, 3.26149940490722660000e+000) (81, 3.22078609466552730000e+000) (82, 3.26779174804687500000e+000) (83, 3.24339342117309570000e+000) (84, 3.20260953903198240000e+000) (0, 4.97752685546875000000e+002) (1, 4.97781677246093750000e+002) (2, 4.97866577148437500000e+002) (3, 4.97798492431640620000e+002) (4, 4.97836242675781250000e+002) (5, 4.97942779541015620000e+002) (6, 4.97903228759765620000e+002) (7, 4.97863494873046870000e+002) (8, 4.97911956787109370000e+002) (9, 4.97916290283203120000e+002) (10, 4.97941986083984370000e+002) (11, 4.97785491943359370000e+002) (12, 4.97883270263671870000e+002) (13, 4.97834655761718750000e+002) (14, 4.97757446289062500000e+002) (15, 4.97824645996093750000e+002) (16, 4.39500617980957030000e+000) (17, 4.07192134857177730000e+000) (18, 4.05408191680908200000e+000) (19, 4.42876243591308590000e+000) (20, 4.97827087402343750000e+002) (21, 4.97928833007812500000e+002) (22, 3.99230241775512700000e+000) (23, 4.37778615951538090000e+000) (24, 4.07832717895507810000e+000) (25, 4.18733072280883790000e+000) (26, 4.09327125549316410000e+000) (27, 3.91068696975708010000e+000) (28, 4.97773101806640620000e+002) (29, 4.97781677246093750000e+002) (30, 4.01842403411865230000e+000) (31, 4.32750129699707030000e+000) (32, 3.92891788482666020000e+000) (33, 4.05317926406860350000e+000) (34, 4.97789611816406250000e+002) (35, 4.97767974853515620000e+002) (36, 4.38214397430419920000e+000) (37, 4.13694334030151370000e+000) (38, 4.25473165512084960000e+000) (39, 4.08579158782958980000e+000) (40, 4.03262853622436520000e+000) (41, 4.24180650711059570000e+000) (42, 4.97849578857421870000e+002) (43, 4.97813110351562500000e+002) (44, 4.26748514175415040000e+000) (45, 4.04345464706420900000e+000) (46, 4.02379655838012700000e+000) (47, 4.12384366989135740000e+000) (48, 4.97846740722656250000e+002) (49, 4.97861816406250000000e+002) (50, 4.29038572311401370000e+000) (51, 4.15198421478271480000e+000) (52, 4.06071233749389650000e+000) (53, 4.14788341522216800000e+000) (54, 4.16780138015747070000e+000) (55, 4.03329992294311520000e+000) (56, 4.22006082534790040000e+000) (57, 4.40084505081176760000e+000) (58, 4.09308242797851560000e+000) (59, 4.40250730514526370000e+000) (60, 4.17278766632080080000e+000) (61, 4.04325485229492190000e+000) (62, 4.97947113037109370000e+002) (63, 4.05905103683471680000e+000) (64, 4.14444017410278320000e+000) (65, 4.35591888427734370000e+000) (66, 4.00240755081176760000e+000) (67, 3.96651697158813480000e+000) (68, 3.90628194808959960000e+000) (69, 4.07953453063964840000e+000) (70, 4.14356422424316410000e+000) (71, 3.79524660110473630000e+000) (72, 4.41519641876220700000e+000) (73, 4.02405166625976560000e+000) (74, 4.00884914398193360000e+000) (75, 4.19402217864990230000e+000) (76, 3.98397970199584960000e+000) (77, 3.50843954086303710000e+000) (78, 4.22244596481323240000e+000) (79, 4.01757097244262700000e+000) (80, 4.05152559280395510000e+000) (81, 3.88981485366821290000e+000) (82, 3.93624210357666020000e+000) (83, 3.83604240417480470000e+000) (84, 3.79865837097167970000e+000) (0, 4.97845611572265630000e+002) (1, 4.97810516357421870000e+002) (2, 4.97852203369140620000e+002) (3, 4.97940734863281250000e+002) (4, 4.97865570068359370000e+002) (5, 4.97926544189453120000e+002) (6, 4.97917480468750000000e+002) (7, 4.97881805419921870000e+002) (8, 4.97900756835937500000e+002) (9, 4.97838195800781250000e+002) (10, 4.97752929687500000000e+002) (11, 4.97797363281250000000e+002) (12, 4.97888763427734370000e+002) (13, 4.97868865966796870000e+002) (14, 4.97880401611328120000e+002) (15, 4.97946136474609370000e+002) (16, 3.63561868667602540000e+000) (17, 3.51328516006469730000e+000) (18, 3.57361841201782230000e+000) (19, 3.51774168014526370000e+000) (20, 4.97763458251953120000e+002) (21, 4.97749664306640620000e+002) (22, 3.50281763076782230000e+000) (23, 3.55914783477783200000e+000) (24, 3.57500982284545900000e+000) (25, 3.65242767333984370000e+000) (26, 3.64464569091796870000e+000) (27, 3.56971836090087890000e+000) (28, 4.97911224365234370000e+002) (29, 4.97898651123046870000e+002) (30, 3.55472803115844730000e+000) (31, 3.67941761016845700000e+000) (32, 3.46823501586914060000e+000) (33, 3.61376714706420900000e+000) (34, 4.97916229248046870000e+002) (35, 4.97757293701171870000e+002) (36, 3.57337522506713870000e+000) (37, 3.40546035766601560000e+000) (38, 3.64975452423095700000e+000) (39, 3.43586206436157230000e+000) (40, 3.63644170761108400000e+000) (41, 3.64236307144165040000e+000) (42, 4.97779846191406250000e+002) (43, 4.97885009765625000000e+002) (44, 3.60372781753540040000e+000) (45, 3.56515264511108400000e+000) (46, 3.59346055984497070000e+000) (47, 3.58094358444213870000e+000) (48, 4.97802154541015620000e+002) (49, 4.97903076171875000000e+002) (50, 3.69777679443359380000e+000) (51, 3.60527706146240230000e+000) (52, 3.41112422943115230000e+000) (53, 3.56182718276977540000e+000) (54, 3.56901741027832030000e+000) (55, 3.69698858261108400000e+000) (56, 3.63952970504760740000e+000) (57, 3.56131362915039060000e+000) (58, 3.40989160537719730000e+000) (59, 3.51861429214477540000e+000) (60, 3.63452005386352540000e+000) (61, 3.70755958557128910000e+000) (62, 4.97938293457031250000e+002) (63, 3.37934970855712890000e+000) (64, 3.55387926101684570000e+000) (65, 3.53305530548095700000e+000) (66, 3.59646272659301760000e+000) (67, 3.44571924209594730000e+000) (68, 3.54466199874877930000e+000) (69, 3.49223423004150390000e+000) (70, 3.41941308975219730000e+000) (71, 3.56810569763183590000e+000) (72, 3.70237922668457030000e+000) (73, 3.44345474243164060000e+000) (74, 3.68542242050170900000e+000) (75, 3.57564544677734370000e+000) (76, 3.53069114685058590000e+000) (77, 3.85422563552856450000e+000) (78, 3.63378763198852540000e+000) (79, 3.69421720504760740000e+000) (80, 3.41863775253295900000e+000) (81, 3.54341697692871090000e+000) (82, 3.50935459136962890000e+000) (83, 3.57938480377197270000e+000) (84, 3.44294071197509770000e+000) (0, 4.97921905517578130000e+002) (1, 4.97932800292968750000e+002) (2, 4.97783264160156250000e+002) (3, 4.97899475097656250000e+002) (4, 4.97896606445312500000e+002) (5, 4.97921844482421870000e+002) (6, 4.97934906005859370000e+002) (7, 4.97913604736328120000e+002) (8, 4.97771026611328120000e+002) (9, 4.97776702880859370000e+002) (10, 4.97850372314453120000e+002) (11, 4.97783691406250000000e+002) (12, 4.97941375732421870000e+002) (13, 4.97833496093750000000e+002) (14, 4.97847229003906250000e+002) (15, 4.97879425048828120000e+002) (16, 3.35913228988647460000e+000) (17, 3.32252216339111330000e+000) (18, 3.23480272293090820000e+000) (19, 3.31486940383911130000e+000) (20, 4.97847625732421870000e+002) (21, 4.97826141357421870000e+002) (22, 3.34621000289916990000e+000) (23, 3.45496368408203120000e+000) (24, 3.15428495407104490000e+000) (25, 3.41260528564453120000e+000) (26, 3.30772209167480470000e+000) (27, 3.16892147064208980000e+000) (28, 4.97850311279296870000e+002) (29, 4.97773925781250000000e+002) (30, 3.27067279815673830000e+000) (31, 3.47268819808959960000e+000) (32, 3.37060689926147460000e+000) (33, 3.32053089141845700000e+000) (34, 4.97907073974609370000e+002) (35, 4.97895965576171870000e+002) (36, 3.29658317565917970000e+000) (37, 3.22262001037597660000e+000) (38, 3.30213737487792970000e+000) (39, 3.30671405792236330000e+000) (40, 3.35999011993408200000e+000) (41, 3.29545402526855470000e+000) (42, 4.97893524169921870000e+002) (43, 4.97781616210937500000e+002) (44, 3.35867452621459960000e+000) (45, 3.31757831573486330000e+000) (46, 3.41468381881713870000e+000) (47, 3.38339996337890620000e+000) (48, 4.97932037353515630000e+002) (49, 4.97783782958984370000e+002) (50, 3.32462310791015630000e+000) (51, 3.40815305709838870000e+000) (52, 3.31987333297729490000e+000) (53, 3.39338493347167970000e+000) (54, 3.28391838073730470000e+000) (55, 3.31360340118408200000e+000) (56, 3.33470916748046870000e+000) (57, 3.45314455032348630000e+000) (58, 3.19630146026611330000e+000) (59, 3.37441253662109370000e+000) (60, 3.36955070495605470000e+000) (61, 3.40190887451171870000e+000) (62, 4.97866943359375000000e+002) (63, 3.28929471969604490000e+000) (64, 3.40793323516845700000e+000) (65, 3.44188976287841800000e+000) (66, 3.10835933685302730000e+000) (67, 3.21361732482910160000e+000) (68, 3.19330215454101560000e+000) (69, 3.27292537689208980000e+000) (70, 3.28585338592529300000e+000) (71, 3.23567295074462890000e+000) (72, 3.28398275375366210000e+000) (73, 3.34740114212036130000e+000) (74, 3.28997039794921870000e+000) (75, 3.34149932861328120000e+000) (76, 3.24209976196289060000e+000) (77, 3.37516164779663090000e+000) (78, 3.43632316589355470000e+000) (79, 3.41057586669921870000e+000) (80, 3.22307157516479490000e+000) (81, 3.21275424957275390000e+000) (82, 3.19682025909423830000e+000) (83, 3.11986446380615230000e+000) (84, 3.23263454437255860000e+000) (0, 4.97932434082031250000e+002) (1, 4.97908081054687500000e+002) (2, 4.97849609375000000000e+002) (3, 4.97785461425781250000e+002) (4, 4.97898803710937500000e+002) (5, 4.97889465332031250000e+002) (6, 4.97945678710937500000e+002) (7, 4.97931671142578120000e+002) (8, 4.97891784667968750000e+002) (9, 4.97811279296875000000e+002) (10, 4.97890716552734370000e+002) (11, 4.97926483154296870000e+002) (12, 4.97933471679687500000e+002) (13, 4.97859802246093750000e+002) (14, 4.97868499755859380000e+002) (15, 4.97890716552734370000e+002) (16, 3.41633129119873050000e+000) (17, 3.08533048629760740000e+000) (18, 2.95441627502441410000e+000) (19, 3.40081024169921870000e+000) (20, 4.97821655273437500000e+002) (21, 4.97772125244140620000e+002) (22, 2.95027780532836910000e+000) (23, 3.31803417205810550000e+000) (24, 2.98269367218017580000e+000) (25, 3.24676322937011720000e+000) (26, 3.22615194320678710000e+000) (27, 2.93252897262573240000e+000) (28, 4.97796936035156250000e+002) (29, 4.97901428222656250000e+002) (30, 3.10404396057128910000e+000) (31, 3.31063652038574220000e+000) (32, 3.00644874572753910000e+000) (33, 3.39917469024658200000e+000) (34, 4.97805755615234380000e+002) (35, 4.97945892333984370000e+002) (36, 3.35510110855102540000e+000) (37, 3.04104328155517580000e+000) (38, 3.22042083740234370000e+000) (39, 3.08362770080566410000e+000) (40, 3.34152746200561520000e+000) (41, 3.24750804901123050000e+000) (42, 4.97780395507812500000e+002) (43, 4.97815673828125000000e+002) (44, 3.31524467468261720000e+000) (45, 2.99956989288330080000e+000) (46, 3.50319719314575200000e+000) (47, 3.30180501937866210000e+000) (48, 4.97796295166015620000e+002) (49, 4.97841522216796870000e+002) (50, 3.38712596893310550000e+000) (51, 3.44702053070068360000e+000) (52, 3.01095294952392580000e+000) (53, 3.30004692077636720000e+000) (54, 3.29236888885498050000e+000) (55, 3.05317783355712890000e+000) (56, 3.23389673233032230000e+000) (57, 3.05205392837524410000e+000) (58, 3.10113239288330080000e+000) (59, 3.30201244354248050000e+000) (60, 3.31877279281616210000e+000) (61, 3.43112659454345700000e+000) (62, 4.97912109375000000000e+002) (63, 3.05427598953247070000e+000) (64, 3.46943235397338870000e+000) (65, 3.29968070983886720000e+000) (66, 3.13537979125976560000e+000) (67, 3.09623765945434570000e+000) (68, 3.22858667373657230000e+000) (69, 2.95998620986938480000e+000) (70, 2.91891813278198240000e+000) (71, 3.18472099304199220000e+000) (72, 3.31129598617553710000e+000) (73, 2.96080064773559570000e+000) (74, 3.50534582138061520000e+000) (75, 3.23586845397949220000e+000) (76, 3.22376918792724610000e+000) (77, 3.65538311004638670000e+000) (78, 3.30209159851074220000e+000) (79, 3.45100593566894530000e+000) (80, 3.02695035934448240000e+000) (81, 3.15906190872192380000e+000) (82, 3.02836990356445310000e+000) (83, 3.22940874099731450000e+000) (84, 3.22283124923706050000e+000) (0, 4.97872863769531250000e+002) (1, 4.97894378662109370000e+002) (2, 4.97802886962890620000e+002) (3, 4.97884002685546870000e+002) (4, 4.97943572998046870000e+002) (5, 4.97787170410156250000e+002) (6, 4.97896087646484370000e+002) (7, 4.97830657958984370000e+002) (8, 4.97801940917968750000e+002) (9, 4.97786590576171870000e+002) (10, 4.97767089843750000000e+002) (11, 4.97832214355468750000e+002) (12, 4.97886688232421870000e+002) (13, 4.97864257812500000000e+002) (14, 4.97936981201171870000e+002) (15, 4.97917327880859370000e+002) (16, 4.31403064727783200000e+000) (17, 4.05052232742309570000e+000) (18, 4.13036394119262700000e+000) (19, 4.30621004104614260000e+000) (20, 4.97848144531250000000e+002) (21, 4.97788726806640620000e+002) (22, 3.99398660659790040000e+000) (23, 4.37753582000732420000e+000) (24, 4.01817083358764650000e+000) (25, 4.28998565673828120000e+000) (26, 4.20044898986816410000e+000) (27, 3.99882173538208010000e+000) (28, 4.97914459228515620000e+002) (29, 4.97836090087890620000e+002) (30, 4.13275527954101560000e+000) (31, 4.41321277618408200000e+000) (32, 4.00170230865478520000e+000) (33, 3.99700212478637700000e+000) (34, 4.97815765380859370000e+002) (35, 4.97884155273437500000e+002) (36, 4.34672498703002930000e+000) (37, 4.01183938980102540000e+000) (38, 4.19950723648071290000e+000) (39, 4.11694431304931640000e+000) (40, 4.02125167846679690000e+000) (41, 4.19412565231323240000e+000) (42, 4.97944671630859370000e+002) (43, 4.97751647949218750000e+002) (44, 4.34013557434082030000e+000) (45, 4.08160781860351560000e+000) (46, 3.97889947891235350000e+000) (47, 4.13619709014892580000e+000) (48, 4.97917755126953120000e+002) (49, 4.97901489257812500000e+002) (50, 4.28230476379394530000e+000) (51, 4.23588323593139650000e+000) (52, 4.05229568481445310000e+000) (53, 4.17646598815917970000e+000) (54, 4.07243967056274410000e+000) (55, 4.14709997177124020000e+000) (56, 4.19905853271484370000e+000) (57, 4.29212284088134770000e+000) (58, 4.16607427597045900000e+000) (59, 4.24813699722290040000e+000) (60, 4.12685298919677730000e+000) (61, 4.05388689041137700000e+000) (62, 4.97859588623046870000e+002) (63, 3.99972486495971680000e+000) (64, 4.15395545959472660000e+000) (65, 4.23471546173095700000e+000) (66, 3.83815574645996090000e+000) (67, 4.06044387817382810000e+000) (68, 3.96819591522216800000e+000) (69, 4.02089166641235350000e+000) (70, 4.06360816955566410000e+000) (71, 3.82661867141723630000e+000) (72, 4.27508401870727540000e+000) (73, 3.99679946899414060000e+000) (74, 3.98999547958374020000e+000) (75, 4.08250427246093750000e+000) (76, 3.83256340026855470000e+000) (77, 3.39131307601928710000e+000) (78, 4.17586421966552730000e+000) (79, 4.08756637573242190000e+000) (80, 4.04186344146728520000e+000) (81, 3.94480752944946290000e+000) (82, 4.01236534118652340000e+000) (83, 3.92696094512939450000e+000) (84, 3.84033346176147460000e+000) (0, 4.97760467529296870000e+002) (1, 4.97796539306640620000e+002) (2, 4.97751037597656250000e+002) (3, 4.97927185058593750000e+002) (4, 4.97896759033203120000e+002) (5, 4.97942687988281250000e+002) (6, 4.97894805908203120000e+002) (7, 4.97807220458984370000e+002) (8, 4.97947906494140620000e+002) (9, 4.97839202880859370000e+002) (10, 4.97883819580078130000e+002) (11, 4.97919158935546870000e+002) (12, 4.97832153320312500000e+002) (13, 4.97756591796875000000e+002) (14, 4.97931152343750000000e+002) (15, 4.97849365234375000000e+002) (16, 3.56768655776977540000e+000) (17, 3.56709957122802730000e+000) (18, 3.53595352172851560000e+000) (19, 3.63791990280151370000e+000) (20, 4.97845825195312500000e+002) (21, 4.97780517578125000000e+002) (22, 3.55648565292358400000e+000) (23, 3.61926126480102540000e+000) (24, 3.55204248428344730000e+000) (25, 3.58707141876220700000e+000) (26, 3.62977170944213870000e+000) (27, 3.48813247680664060000e+000) (28, 4.97811553955078120000e+002) (29, 4.97800201416015620000e+002) (30, 3.53526401519775390000e+000) (31, 3.60463714599609370000e+000) (32, 3.52530908584594730000e+000) (33, 3.64473628997802730000e+000) (34, 4.97915588378906250000e+002) (35, 4.97785949707031250000e+002) (36, 3.69658660888671870000e+000) (37, 3.53978061676025390000e+000) (38, 3.54000711441040040000e+000) (39, 3.47021865844726560000e+000) (40, 3.66371822357177730000e+000) (41, 3.63235950469970700000e+000) (42, 4.97805694580078120000e+002) (43, 4.97786041259765620000e+002) (44, 3.66710662841796870000e+000) (45, 3.56990718841552730000e+000) (46, 3.71213102340698240000e+000) (47, 3.67342376708984380000e+000) (48, 4.97837463378906250000e+002) (49, 4.97884307861328120000e+002) (50, 3.61635017395019530000e+000) (51, 3.69116544723510740000e+000) (52, 3.54308223724365230000e+000) (53, 3.65372180938720700000e+000) (54, 3.66011238098144530000e+000) (55, 3.63314580917358400000e+000) (56, 3.67345333099365230000e+000) (57, 3.64671516418457030000e+000) (58, 3.38719272613525390000e+000) (59, 3.51525115966796870000e+000) (60, 3.58594226837158200000e+000) (61, 3.64838600158691410000e+000) (62, 4.97873077392578120000e+002) (63, 3.47547388076782230000e+000) (64, 3.64731788635253910000e+000) (65, 3.65771961212158200000e+000) (66, 3.55639314651489260000e+000) (67, 3.51771640777587890000e+000) (68, 3.61274051666259770000e+000) (69, 3.41738653182983400000e+000) (70, 3.63730335235595700000e+000) (71, 3.52784681320190430000e+000) (72, 3.61663675308227540000e+000) (73, 3.43310308456420900000e+000) (74, 3.58051490783691410000e+000) (75, 3.51423835754394530000e+000) (76, 3.59524202346801760000e+000) (77, 3.78596639633178710000e+000) (78, 3.56352996826171870000e+000) (79, 3.62773799896240230000e+000) (80, 3.55799961090087890000e+000) (81, 3.58090448379516600000e+000) (82, 3.40397119522094730000e+000) (83, 3.55282258987426760000e+000) (84, 3.92451047897338870000e+000) (0, 4.97833831787109370000e+002) (1, 4.97890594482421870000e+002) (2, 4.97788879394531250000e+002) (3, 4.97766296386718750000e+002) (4, 4.97883087158203120000e+002) (5, 4.97887878417968750000e+002) (6, 4.97801330566406250000e+002) (7, 4.97797729492187500000e+002) (8, 4.97937683105468750000e+002) (9, 4.97812408447265620000e+002) (10, 4.97758666992187500000e+002) (11, 4.97945953369140620000e+002) (12, 4.97793609619140620000e+002) (13, 4.97858551025390620000e+002) (14, 4.97830108642578120000e+002) (15, 4.97946014404296870000e+002) (16, 3.57305765151977540000e+000) (17, 3.53807163238525390000e+000) (18, 3.54292392730712890000e+000) (19, 3.51387786865234370000e+000) (20, 4.97857757568359370000e+002) (21, 4.97934326171875000000e+002) (22, 3.49976587295532230000e+000) (23, 3.55527830123901370000e+000) (24, 3.40646123886108400000e+000) (25, 3.65621805191040040000e+000) (26, 3.56563568115234380000e+000) (27, 3.42905664443969730000e+000) (28, 4.97908020019531250000e+002) (29, 4.97758911132812500000e+002) (30, 3.39751338958740230000e+000) (31, 3.65449094772338870000e+000) (32, 3.41038608551025390000e+000) (33, 3.75228643417358400000e+000) (34, 4.97804473876953120000e+002) (35, 4.97884979248046870000e+002) (36, 3.60161590576171870000e+000) (37, 3.42110347747802730000e+000) (38, 3.59893035888671870000e+000) (39, 3.40848159790039060000e+000) (40, 3.73258399963378910000e+000) (41, 3.58836507797241210000e+000) (42, 4.97909149169921870000e+002) (43, 4.97883422851562500000e+002) (44, 3.68517303466796870000e+000) (45, 3.48451900482177730000e+000) (46, 3.66328477859497070000e+000) (47, 3.63055276870727540000e+000) (48, 4.97947479248046870000e+002) (49, 4.97870513916015620000e+002) (50, 3.62776374816894530000e+000) (51, 3.69103765487670900000e+000) (52, 3.50902462005615230000e+000) (53, 3.55563831329345700000e+000) (54, 3.56598377227783200000e+000) (55, 3.74811744689941410000e+000) (56, 3.72829341888427730000e+000) (57, 3.69022083282470700000e+000) (58, 3.51060581207275390000e+000) (59, 3.64913177490234370000e+000) (60, 3.57421731948852540000e+000) (61, 3.70708990097045900000e+000) (62, 4.97946594238281250000e+002) (63, 3.44529199600219730000e+000) (64, 3.64845943450927730000e+000) (65, 3.57669544219970700000e+000) (66, 3.56968021392822270000e+000) (67, 3.45499658584594730000e+000) (68, 3.50610589981079100000e+000) (69, 3.41186285018920900000e+000) (70, 3.55977630615234370000e+000) (71, 3.55393314361572270000e+000) (72, 3.52417469024658200000e+000) (73, 3.55419063568115230000e+000) (74, 3.58295631408691410000e+000) (75, 3.61949348449707030000e+000) (76, 3.61275291442871090000e+000) (77, 3.82065868377685550000e+000) (78, 3.63676643371582030000e+000) (79, 3.65918922424316410000e+000) (80, 3.46087408065795900000e+000) (81, 3.52859163284301760000e+000) (82, 3.54816675186157230000e+000) (83, 3.59001111984252930000e+000) (84, 4.00894689559936520000e+000) (0, 4.97876403808593750000e+002) (1, 4.97923614501953130000e+002) (2, 4.97762603759765620000e+002) (3, 4.97861877441406250000e+002) (4, 4.97940948486328120000e+002) (5, 4.97796081542968750000e+002) (6, 4.97784881591796870000e+002) (7, 4.97762359619140620000e+002) (8, 4.97878692626953120000e+002) (9, 4.97842407226562500000e+002) (10, 4.97936401367187500000e+002) (11, 4.97829010009765620000e+002) (12, 4.97937408447265620000e+002) (13, 4.97823333740234370000e+002) (14, 4.97922851562500000000e+002) (15, 4.97880737304687500000e+002) (16, 3.22325897216796870000e+000) (17, 3.02452707290649410000e+000) (18, 2.98383522033691410000e+000) (19, 3.39065980911254880000e+000) (20, 4.97760345458984370000e+002) (21, 4.97803588867187500000e+002) (22, 2.99650621414184570000e+000) (23, 3.30795717239379880000e+000) (24, 2.97594308853149410000e+000) (25, 3.33149242401123050000e+000) (26, 3.31796073913574220000e+000) (27, 3.00074815750122070000e+000) (28, 4.97816406250000000000e+002) (29, 4.97805450439453120000e+002) (30, 3.00052213668823240000e+000) (31, 3.30852508544921870000e+000) (32, 3.01218605041503910000e+000) (33, 3.39977312088012700000e+000) (34, 4.97902465820312500000e+002) (35, 4.97904388427734370000e+002) (36, 3.30121898651123050000e+000) (37, 3.03500699996948240000e+000) (38, 3.24974822998046870000e+000) (39, 3.03736305236816410000e+000) (40, 3.52900266647338870000e+000) (41, 3.41757011413574220000e+000) (42, 4.97837219238281250000e+002) (43, 4.97850769042968750000e+002) (44, 3.27328920364379880000e+000) (45, 3.09526681900024410000e+000) (46, 3.42729377746582030000e+000) (47, 3.33384227752685550000e+000) (48, 4.97773529052734380000e+002) (49, 4.97830810546875000000e+002) (50, 3.23334169387817380000e+000) (51, 3.53536891937255860000e+000) (52, 3.05751085281372070000e+000) (53, 3.24779510498046870000e+000) (54, 3.32003593444824220000e+000) (55, 3.15781641006469730000e+000) (56, 3.15589380264282230000e+000) (57, 2.98185157775878910000e+000) (58, 3.01384019851684570000e+000) (59, 3.28921937942504880000e+000) (60, 3.28620433807373050000e+000) (61, 3.42642688751220700000e+000) (62, 4.97779144287109370000e+002) (63, 3.05741310119628910000e+000) (64, 3.35889196395874020000e+000) (65, 3.40073060989379880000e+000) (66, 3.12590122222900390000e+000) (67, 3.03782081604003910000e+000) (68, 3.08198022842407230000e+000) (69, 2.91265344619750980000e+000) (70, 3.08057594299316410000e+000) (71, 3.16611719131469730000e+000) (72, 3.39180755615234370000e+000) (73, 2.97366046905517580000e+000) (74, 3.51801061630249020000e+000) (75, 3.40078544616699220000e+000) (76, 3.25038623809814450000e+000) (77, 3.62120342254638670000e+000) (78, 3.23833465576171870000e+000) (79, 3.42906999588012700000e+000) (80, 3.06870460510253910000e+000) (81, 3.09701299667358400000e+000) (82, 3.05185651779174800000e+000) (83, 3.36607265472412110000e+000) (84, 3.23407363891601560000e+000) (0, 4.97847717285156250000e+002) (1, 4.97927337646484370000e+002) (2, 4.97881927490234370000e+002) (3, 4.97761993408203120000e+002) (4, 4.97818023681640620000e+002) (5, 4.97878326416015620000e+002) (6, 4.97760894775390620000e+002) (7, 4.97776489257812500000e+002) (8, 4.97878417968750000000e+002) (9, 4.97810668945312500000e+002) (10, 4.97947052001953120000e+002) (11, 4.97896881103515620000e+002) (12, 4.97794982910156250000e+002) (13, 4.97884460449218750000e+002) (14, 4.97885284423828120000e+002) (15, 4.97913330078125000000e+002) (16, 3.67812347412109370000e+000) (17, 3.38487339019775390000e+000) (18, 3.56746578216552730000e+000) (19, 3.59247303009033200000e+000) (20, 4.97824066162109370000e+002) (21, 4.97852661132812500000e+002) (22, 3.42195796966552730000e+000) (23, 3.56989622116088870000e+000) (24, 3.38096714019775390000e+000) (25, 3.59189939498901370000e+000) (26, 3.63827991485595700000e+000) (27, 3.40041875839233400000e+000) (28, 4.97941070556640620000e+002) (29, 4.97873107910156250000e+002) (30, 3.45005273818969730000e+000) (31, 3.60545539855957030000e+000) (32, 3.54991245269775390000e+000) (33, 3.60198116302490230000e+000) (34, 4.97914031982421870000e+002) (35, 4.97789855957031250000e+002) (36, 3.55747556686401370000e+000) (37, 3.42807388305664060000e+000) (38, 3.69597053527832030000e+000) (39, 3.53871250152587890000e+000) (40, 3.75230455398559570000e+000) (41, 3.67472410202026370000e+000) (42, 4.97883239746093750000e+002) (43, 4.97852508544921870000e+002) (44, 3.53134012222290040000e+000) (45, 3.40299463272094730000e+000) (46, 3.58478116989135740000e+000) (47, 3.69174671173095700000e+000) (48, 4.97917510986328120000e+002) (49, 4.97807586669921870000e+002) (50, 3.55090808868408200000e+000) (51, 3.69045782089233400000e+000) (52, 3.48797988891601560000e+000) (53, 3.63571023941040040000e+000) (54, 3.62903308868408200000e+000) (55, 3.58686876296997070000e+000) (56, 3.71529293060302730000e+000) (57, 3.65874481201171870000e+000) (58, 3.49869775772094730000e+000) (59, 3.55718231201171870000e+000) (60, 3.57313108444213870000e+000) (61, 3.72106075286865230000e+000) (62, 4.97932952880859370000e+002) (63, 3.42048120498657230000e+000) (64, 3.66346788406372070000e+000) (65, 3.68043708801269530000e+000) (66, 3.50063133239746090000e+000) (67, 3.47017002105712890000e+000) (68, 3.43279075622558590000e+000) (69, 3.52630376815795900000e+000) (70, 3.69957733154296870000e+000) (71, 3.58537244796752930000e+000) (72, 3.57672595977783200000e+000) (73, 3.45770645141601560000e+000) (74, 3.58360958099365230000e+000) (75, 3.59974241256713870000e+000) (76, 3.57792615890502930000e+000) (77, 3.84971761703491210000e+000) (78, 3.64870452880859380000e+000) (79, 3.70747423171997070000e+000) (80, 3.51934576034545900000e+000) (81, 3.57615613937377930000e+000) (82, 3.43745517730712890000e+000) (83, 3.52325677871704100000e+000) (84, 3.91468381881713870000e+000) (85, 3.59430789947509770000e+000) (86, 3.58903455734252930000e+000) (87, 3.61819696426391600000e+000) (88, 3.59801912307739260000e+000) (89, 3.69869756698608400000e+000) (90, 3.56235599517822270000e+000) (91, 3.39021825790405270000e+000) (92, 3.57471561431884770000e+000) (93, 3.20948886871337890000e+000) (94, 3.88756847381591800000e+000) (95, 3.52822542190551760000e+000) (96, 3.16468906402587890000e+000) (97, 3.19255161285400390000e+000) (98, 3.15397739410400390000e+000) (99, 3.82705211639404300000e+000) (100, 3.59707307815551760000e+000) (101, 3.57011365890502930000e+000) (102, 3.14972305297851560000e+000) (103, 3.22701215744018550000e+000) (104, 3.87263345718383790000e+000) (105, 3.33338880538940430000e+000) (106, 3.20765781402587890000e+000) (107, 3.54024314880371090000e+000) (108, 3.65057182312011720000e+000) (109, 3.84699249267578130000e+000) (110, 3.15437412261962890000e+000) (111, 3.60869407653808590000e+000) (112, 3.61643934249877930000e+000) (113, 3.83167266845703130000e+000) (114, 3.61922264099121090000e+000) (115, 3.55243778228759770000e+000) 
